residue_id,0,1,2,3,4,5,6,7,8,9,10,11,12,13,14,15,16,17,18,19,20,21,22,23,24,25,26,27,28,29,30,31,32,33,34,35,36,37,38,39,40,41,42,43,44,45,46,47,48,49,50,51,52,53,54,55,56,57,58,59,60,61,62,63,64,65,66,67,68,69,70,71,72,73,74,75,76,77,78,79,80,81,82,83,84,85,86,87,88,89,90,91,92,93,94,95,96,97,98,99,100,101,102,103,104,105,106,107,108,109,110,111,112,113,114,115,116,117,118,119,120,121,122,123,124,125,126,127,128,129,130,131,132,133,134,135,136,137,138,139,140,141,142,143,144,145,146,147,148,149,150,151,152,153,154,155,156,157,158,159,160,161,162,163,164,165,166,167,168,169,170,171,172,173,174,175,176,177,178,179,180,181,182,183,184,185,186,187,188,189,190,191,192,193,194,195,196,197,198,199,200,201,202,203,204,205,206,207,208,209,210,211,212,213,214,215,216,217,218,219,220,221,222,223,224,225,226,227,228,229,230,231,232,233,234,235,236,237,238,239,240,241,242,243,244,245,246,247,248,249,250,251,252,253,254,255,256,257,258,259,260,261,262,263,264,265,266,267,268,269,270,271,272,273,274,275,276,277,278,279,280,281,282,283,284,285,286,287,288,289,290,291,292,293,294,295,296,297,298,299,300,301,302,303,304,305,306,307,308,309,310,311,312,313,314,315,316,317,318,319,320,321,322,323,324,325,326,327,328,329,330,331,332,333,334,335,336,337,338,339,340,341,342,343,344,345,346,347,348,349,350,351,352,353,354,355,356,357,358,359,360,361,362,363,364,365,366,367,368,369,370,371,372,373,374,375,376,377,378,379,380,381,382,383,384,385,386,387,388,389,390,391,392,393,394,395,396,397,398,399,400,401,402,403,404,405,406,407,408,409,410,411,412,413,414,415,416,417,418,419,420,421,422,423,424,425,426,427,428,429,430,431,432,433,434,435,436,437,438,439,440,441,442,443,444,445,446,447,448,449,450,451,452,453,454,455,456,457,458,459,460,461,462,463,464,465,466,467,468,469,470,471,472,473,474,475,476,477,478,479,480,481,482,483,484,485,486,487,488,489,490,491,492,493,494,495,496,497,498,499,500,501,502,503,504,505,506,507,508,509,510,511,512,513,514,515,516,517,518,519,520,521,522,523,524,525,526,527,528,529,530,531,532,533,534,535,536,537,538,539,540,541,542,543,544,545,546,547,548,549,550,551,552,553,554,555,556,557,558,559,560,561,562,563,564,565,566,567,568,569,570,571,572,573,574,575,576,577,578,579,580,581,582,583,584,585,586,587,588,589,590,591,592,593,594,595,596,597,598,599,600,601,602,603,604,605,606,607,608,609,610,611,612,613,614,615,616,617,618,619,620,621,622,623,624,625,626,627,628,629,630,631,632,633,634,635,636,637,638,639,640,641,642,643,644,645,646,647,648,649,650,651,652,653,654,655,656,657,658,659,660,661,662,663,664,665,666,667,668,669,670,671,672,673,674,675,676,677,678,679,680,681,682,683,684,685,686,687,688,689,690,691,692,693,694,695,696,697,698,699,700,701,702,703,704,705,706,707,708,709,710,711,712,713,714,715,716,717,718,719,720,721,722,723,724,725,726,727,728,729,730,731,732,733,734,735,736,737,738,739,740,741,742,743,744,745,746,747,748,749,750,751,752,753,754,755,756,757,758,759,760,761,762,763,764,765,766,767,768,769,770,771,772,773,774,775,776,777,778,779,780,781,782,783,784,785,786,787,788,789,790,791,792,793,794,795,796,797,798,799,800,801,802,803,804,805,806,807,808,809,810,811,812,813,814,815,816,817,818,819,820,821,822,823,824,825,826,827,828,829,830,831,832,833,834,835,836,837,838,839,840,841,842,843,844,845,846,847,848,849,850,851,852,853,854,855,856,857,858,859,860,861,862,863,864,865,866,867,868,869,870,871,872,873,874,875,876,877,878,879,880,881,882,883,884,885,886,887,888,889,890,891,892,893,894,895,896,897,898,899,900,901,902,903,904,905,906,907,908,909,910,911,912,913,914,915,916,917,918,919,920,921,922,923,924,925,926,927,928,929,930,931,932,933,934,935,936,937,938,939,940,941,942,943,944,945,946,947,948,949,950,951,952,953,954,955,956,957,958,959,960,961,962,963,964,965,966,967,968,969,970,971,972,973,974,975,976,977,978,979,980,981,982,983,984,985,986,987,988,989,990,991,992,993,994,995,996,997,998,999,1000,1001,1002,1003,1004,1005,1006,1007,1008,1009,1010,1011,1012,1013,1014,1015,1016,1017,1018,1019,1020,1021,1022,1023,1024,1025,1026,1027,1028,1029,1030,1031,1032,1033,1034,1035,1036,1037,1038,1039,1040,1041,1042,1043,1044,1045,1046,1047,1048,1049,1050,1051,1052,1053,1054,1055,1056,1057,1058,1059,1060,1061,1062,1063,1064,1065,1066,1067,1068,1069,1070,1071,1072,1073,1074,1075,1076,1077,1078,1079,1080,1081,1082,1083,1084,1085,1086,1087,1088,1089,1090,1091,1092,1093,1094,1095,1096,1097,1098,1099,1100,1101,1102,1103,1104,1105,1106,1107,1108,1109,1110,1111,1112,1113,1114,1115,1116,1117,1118,1119,1120,1121,1122,1123,1124,1125,1126,1127,1128,1129,1130,1131,1132,1133,1134,1135,1136,1137,1138,1139,1140,1141,1142,1143,1144,1145,1146,1147,1148,1149,1150,1151,1152,1153,1154,1155,1156,1157,1158,1159,1160,1161,1162,1163,1164,1165,1166,1167,1168,1169,1170,1171,1172,1173,1174,1175,1176,1177,1178,1179,1180,1181,1182,1183,1184,1185,1186,1187,1188,1189,1190,1191,1192,1193,1194,1195,1196,1197,1198,1199,1200,1201,1202,1203,1204,1205,1206,1207,1208,1209,1210,1211,1212,1213,1214,1215,1216,1217,1218,1219,1220,1221,1222,1223,1224,1225,1226,1227,1228,1229,1230,1231,1232,1233,1234,1235,1236,1237,1238,1239,1240,1241,1242,1243,1244,1245,1246,1247,1248,1249,1250,1251,1252,1253,1254,1255,1256,1257,1258,1259,1260,1261,1262,1263,1264,1265,1266,1267,1268,1269,1270,1271,1272,1273,1274,1275,1276,1277,1278,1279
ALA_1_A,0.021935744,0.16157615,-0.18166284,0.052809924,0.2097696,0.10271417,0.17302428,-0.18528718,-0.007159573,0.016769236,0.02518124,0.18072228,-0.037196632,0.19644594,0.18188873,0.036499932,-0.048821364,-0.053672526,0.03396395,0.049797643,0.0544229,0.22951852,-0.16069868,0.19542184,-0.011319319,0.16557235,-0.07861126,0.17725804,-0.034313947,0.23144518,0.080975294,-0.08727468,0.32219177,-0.32785302,-0.0575226,-0.05209097,0.09021267,-0.060323965,-0.019641144,0.16010429,0.07137904,-0.008828684,0.052396704,0.0257056,0.15040374,0.057164416,0.053634916,-0.086616375,-0.013002384,0.10912802,-0.19324405,-0.16346703,0.00874627,-0.17991297,-0.049047135,-0.008708732,0.43942195,0.11547187,0.039177854,-0.25989467,0.11885172,0.19375372,-0.15344565,0.1049803,0.035477992,-0.11940179,0.19172432,0.31743062,-0.108655795,0.10975427,0.05305867,0.022783313,-0.11643033,0.08793982,0.10768535,-0.021553082,-0.020481901,0.08837478,-0.0781691,0.0918991,0.036670767,-0.15157793,0.030802758,0.16918807,-0.0890314,0.06538138,-0.29167965,0.011084103,0.12175891,0.2013568,-0.30733073,0.13193989,-0.1573936,0.009883549,0.07600391,0.07761032,0.090643674,0.19148108,-0.092505775,-0.14651726,0.11751862,-0.007881073,0.22790064,-0.028983466,0.0026820414,0.10277966,-0.13873023,-0.058616843,-0.26835454,0.058872353,0.29800317,0.015991945,0.107764125,0.05418035,-0.08530387,0.40389046,-0.058291838,0.08528846,-0.36612704,-0.094063245,0.13403913,0.04580109,-0.20373543,0.17471601,0.41193983,0.23230444,-0.17062017,0.03926321,-0.0121425465,0.086798675,-0.30963326,0.17015937,0.012317614,0.20812038,-0.011622066,0.29594317,-0.15475363,0.16375966,-0.055487633,-0.18305874,0.083752155,0.11344978,0.13094477,-0.15569134,0.0060625314,-0.108512,0.11563619,0.20524946,-0.015424691,0.06789167,0.09754534,-0.30951062,-0.051793545,-0.06685236,0.13676603,-0.12081482,0.052733216,-0.100165844,0.05683825,-0.10972967,-0.21187486,-0.07301779,0.03417482,-0.10541334,0.032316525,-0.13469256,-0.2129831,-0.0894837,-0.042296715,-0.0355257,-0.20564747,0.01877589,0.17300496,0.060549956,0.01819101,0.10602435,-0.17550705,0.013391799,0.03585537,-0.026072953,-0.0957869,-0.054167584,-0.07161607,-0.038960867,-0.26233044,0.49126595,-0.10350339,-0.2410671,-0.29934424,0.043060917,-0.018114336,0.058637366,-0.22880167,0.18965226,0.31403095,0.071325235,0.29430553,0.0005620755,0.094113536,-0.27578664,0.23009707,-0.11468397,-0.2542523,-0.0033873997,0.22698788,-0.13434157,-0.22664614,-0.25953206,-0.15940548,-0.044938073,-0.015665203,0.05331973,-0.075145416,-0.07943988,0.11653195,0.098010324,-0.11182267,-0.27221033,-0.095999144,0.05723866,-0.3202019,0.24089502,0.10724534,-0.0029176308,-0.06452112,0.20320015,0.12277231,0.06631035,0.07777311,0.16488951,0.16511022,-0.20293145,-0.035556637,-0.018570822,-3.1684854,-0.07861936,-0.052962728,0.043586887,-0.03984244,-0.30542457,-0.21032889,0.060073003,0.009094822,-0.10217547,0.07727989,-0.14272316,-0.0075824605,0.02454741,0.27981758,-0.0074107386,0.16323951,0.25865203,0.23349987,0.15446097,-0.12432279,0.06661314,-0.008345006,0.04923364,-0.094909675,-0.06546967,0.0894151,-0.087932914,-0.058061633,-0.025492664,0.18992756,-0.26635137,-0.010184258,-0.17354396,-0.08092511,-0.09685433,-0.18176228,-0.3443312,0.2790553,0.109845765,0.17673929,0.057780895,0.25636694,0.00026014153,-0.16957724,-0.0697058,0.004811353,0.110714555,-0.03194794,0.021601439,-0.0983402,-0.06623558,0.13227855,-0.08625709,-0.018480713,-0.21366242,-0.0012476207,0.24930185,-0.036754016,-0.21520616,0.077483326,-0.24668032,-0.032472283,-0.055525254,-0.04160772,-0.08818326,0.023684086,0.24970666,-0.058706995,-0.07480622,-0.21855511,-0.04329329,0.08626459,0.16306579,0.10532891,0.031383812,0.2481305,-0.12694687,0.05476649,0.07049705,-0.08788141,-0.25289446,0.011026959,-0.022112323,-0.067359984,0.026285348,-0.2266591,0.019462466,0.02665635,-0.19722709,-0.028886396,0.07754484,-0.11725163,-0.046894662,-0.05922079,0.06701638,0.056863893,0.01993394,0.013088587,-0.040228993,0.1335482,-0.058222447,0.043743942,-0.18181501,-0.111221075,-0.24836679,0.2411485,0.10622501,-0.24208921,-0.11782519,-0.08878143,-0.044991538,0.0693982,-0.14149363,-0.005789101,-0.046645276,0.061137136,-0.035309084,-0.12427501,-0.06512597,0.13964167,-0.015851462,-0.17903624,-0.018684639,0.096561894,-0.08582629,0.062126778,-0.0098664705,0.11223019,-0.23580638,0.08424504,0.15442418,0.20516266,0.29759648,-0.038638316,-0.062112603,-0.094727136,0.20964998,-0.13116138,-0.073935755,0.077098474,0.19640134,-0.004708792,0.26375693,0.09102858,-0.06923436,-0.08370261,-0.062745444,-0.06570216,0.23609757,0.3828379,0.0009302176,-0.050707433,-0.12984088,-0.20503992,-0.1026697,-0.050551925,-0.055320792,-0.19151099,0.12653713,-0.05483639,0.032065045,0.22807948,-0.012985106,-0.09504053,-0.12943651,-0.08378146,0.0512647,-0.19689237,-0.04994237,0.25208557,0.033139065,0.038864568,-0.11014555,-0.1648437,-0.37249514,-0.120992266,0.040487412,0.012162858,0.19314389,-0.24430531,0.20051888,0.00050552835,-0.064838216,0.09240504,0.2582371,-0.057546746,-0.0087362,-0.06954585,0.2771457,-0.06535898,-0.1562166,-0.29340476,0.12981746,0.1159531,-0.011692199,0.06312806,0.4360103,0.08026642,0.12951253,0.0071604317,0.08796509,0.08061197,-0.011659269,0.01397633,-0.0018126034,-0.17388447,0.29370487,-0.2790491,-0.2801321,-0.120810576,-0.11611146,-0.22820444,-0.09029384,-0.023729423,-0.10667014,-0.040745307,0.42810658,0.17160653,-0.0029197924,0.33877861,0.20351231,0.18399245,-0.16556518,0.12827107,0.107560135,-0.1788219,0.03688276,0.1406899,-0.067705505,0.05973295,-0.117264956,-0.1893732,0.3967401,0.044206172,0.13136481,-0.02443873,0.16784891,0.06910798,0.23114742,-0.013109038,0.030049592,-0.121834174,0.042143717,0.0080246255,-0.11833386,-0.1400235,0.35448813,-0.052730817,-0.11180319,0.10846404,0.029069766,0.118182294,-0.09185177,-0.34550717,0.13708037,0.028789064,0.28083128,-0.1765099,-0.03995217,0.047369853,0.050241087,-0.23265961,-0.24078238,-0.15858363,-0.19180329,-0.017862504,0.29354864,-0.070420474,0.21144666,0.031834777,-0.08370549,-0.16479866,0.08460167,0.100905135,0.23569275,0.0011264491,-0.20890625,-0.073807634,0.11583122,0.26610273,-0.19722266,0.1979665,-0.25841358,-0.15296684,-0.09558348,-0.06494581,-0.17705746,0.23322116,-0.1744822,-0.17703433,0.1144029,0.1976637,-0.23938288,0.037498347,-0.10446275,0.14955942,0.2491203,-0.063861065,0.14618723,0.034033068,0.021456407,-0.19682588,0.014591588,0.14228994,0.12167273,-0.035563733,-0.079846345,0.15483359,-0.17821328,-0.12695357,-0.023731457,0.08106428,0.0016605746,0.1441367,0.0010803129,-0.0786292,-0.23208453,0.09920225,0.23843996,0.3244606,-0.014170789,-0.15782611,-0.022420391,-0.027039917,-0.21282443,0.23733743,0.14604455,-0.2411957,0.1446798,0.051038474,-0.062371556,-0.05973065,-0.0032697208,-0.16621068,0.056272205,0.095415086,0.5001282,-0.119661346,0.104382195,-0.16564651,0.067361094,-0.18920416,0.082106546,0.017759604,-0.12892012,-0.047276378,0.116459556,-0.09837456,0.17270495,0.033948265,0.082984455,-0.22376882,0.17818144,-0.21239202,0.16393156,-0.18995036,-0.16362703,-0.041191693,-0.16659966,0.23794177,0.08211906,0.19372836,-0.010907898,0.105207264,0.06709869,0.16195886,0.090566844,0.082678504,0.0015529668,-0.09418372,-0.11184402,0.05620722,-0.15467831,-0.15051566,0.29593417,-0.011992237,-0.19148995,-0.057601858,-0.027577683,0.2051426,-0.07664944,0.048040915,0.069068044,-0.22155653,-0.010014691,0.10877587,0.17953657,-0.037035093,-0.07941478,-0.21286277,0.014666217,-0.05364113,-0.3745465,-0.10933924,0.057211585,0.024966115,-0.00064274634,-0.1884152,-0.0026634797,0.033496555,0.10596419,-0.111760244,-0.20993584,-0.2178884,0.03130747,0.08381911,0.04023382,-0.049081635,0.022620058,-0.098278165,0.08554295,0.026224192,-0.24543606,-0.2788221,0.014278307,-0.1257103,0.28241354,0.4031832,0.11259302,-0.023131378,0.11695716,0.052667174,0.0154727455,-0.30614632,-0.18817599,0.13522333,-0.0631683,-0.25390542,0.17615071,0.43727192,0.2054535,-0.0186799,0.21140517,0.11201645,0.106300026,-0.10434819,0.03265915,0.012082342,0.3181386,-0.021178441,-0.054755732,0.14486645,0.1095548,-0.05333282,0.069012985,0.15264598,-0.11542629,0.103400536,0.24106134,-0.03616411,0.006595358,-0.06303934,0.062182162,0.022770097,-0.071416646,0.2519087,-0.02235804,-0.02428187,-0.17161866,0.26547435,0.091984645,0.061980847,-0.22919802,0.23239753,-0.008735581,0.16247551,-0.037428293,0.05520076,-0.09523034,-0.0022550384,-0.16755773,-0.13763003,-0.28782207,0.22343756,0.11703416,-0.048448596,-0.19601016,-0.038433257,0.14018798,-0.15931562,0.08039685,-0.3000235,0.004502434,0.123246916,-0.04504705,-0.096711606,-0.034695428,0.13258106,-0.15067822,-0.13047935,-0.116687156,-0.0337021,-0.013980306,-0.017122,-0.03598017,-0.15963645,-0.07039018,0.050038297,-0.08927489,-0.2251633,-0.010465249,0.49727833,0.4597125,0.004137966,-0.14416432,0.10439057,-0.01498238,0.10844817,-0.13150525,-0.12797573,0.09404835,0.06365213,0.07624592,-0.067686744,-0.13490823,0.07574338,-0.20915377,-0.117893025,-0.11536003,-0.30259845,0.07568434,-0.069281645,0.10103416,-0.06018757,0.29224935,-0.058606822,-0.024766643,0.0454398,-0.022934001,0.14144477,-0.03375011,0.10798046,-0.006566442,-0.035469126,-0.062008973,0.120573334,-0.0014445278,0.33070993,-0.21513589,-0.008072857,0.013906896,-0.07046356,0.11318346,0.09038922,0.097433515,-0.015005336,0.28103837,-0.04710291,0.13996041,-0.13655005,0.17223045,-0.20841849,0.07761938,-0.023383321,0.09690432,-0.11000001,-0.11408652,-0.08921491,-0.025952674,-0.063999705,-0.25638524,0.1545548,-0.14601481,-0.05186361,-0.24064377,0.092249356,0.10026846,0.07826847,0.04370803,-0.025281172,0.3288902,-0.068998836,0.034112956,-0.0136356065,0.054582696,0.08789858,-0.057578273,-0.17958008,0.044723455,0.11211153,-0.06608441,-0.2726514,0.16481629,0.22179139,-0.053798907,0.112757884,-0.031290106,-0.022007983,-0.11287815,-0.09742125,-0.06671726,0.2363933,0.0073370603,0.031569958,-0.20742115,-0.20654629,-0.08510045,0.13159509,-0.0067086695,-0.034179125,0.07244157,0.29672602,-0.17380196,-0.07024105,0.23396026,-0.047539923,0.11214431,0.07894075,0.20834455,0.08378032,-0.037243985,0.37532502,0.14523049,0.14796332,-0.105854325,-0.25075123,0.012822395,0.13623223,0.013900548,0.03608262,-0.25321776,0.24782719,-0.1314447,0.019104432,-0.06229339,-0.43477982,-0.17935555,0.28915846,0.21333845,-0.10303403,0.057455156,-0.30605823,0.018199896,0.08370467,-0.19087707,0.074523434,0.16758001,0.34502846,0.12162494,0.19517766,-0.107864745,0.7687265,-0.18993874,0.2217818,0.015365451,-0.019834738,0.07230602,0.15966181,-0.19211596,0.08593768,-0.09882818,0.13328223,0.17416795,0.11957924,0.22091275,0.008176953,0.051593598,-0.3098657,0.0069079897,-0.07305503,0.09474603,-0.036428675,0.022465125,0.040157776,0.02194035,-0.08897797,-0.1813015,-0.105109386,-0.1454648,0.023802554,0.13401493,-0.33067843,-0.05813966,0.16207948,0.13757525,-0.10835887,0.024652282,0.17503102,-0.018574389,0.04378724,-0.25813353,0.26927498,-0.103838995,-0.08017867,-0.036076218,0.060123187,-0.0317019,-0.03773931,0.038021754,0.08908931,0.031127999,-0.12066185,-0.17199059,0.050301097,-0.046230037,-0.012193386,-0.31408948,-0.15257938,-0.40646085,-0.11069157,-0.12371438,-0.20110694,0.094731405,0.104985826,-0.19395138,-0.09374841,-0.1297547,0.07219075,-0.019488085,0.20630659,-0.1136162,-0.20511933,-0.16412102,-0.16760056,0.21278198,0.08704232,0.096255906,0.1814389,0.11948499,-0.037037168,0.116757445,-0.13243222,-0.27732033,0.31455466,-0.01936954,0.20806424,0.17820054,-0.05520011,0.098145485,-0.22835913,-0.031682003,0.15875061,0.1891487,-0.069879144,0.025564548,-0.078299984,0.029807629,0.07349143,0.2980117,0.12028232,0.19878313,-0.04663215,-0.20588411,-0.054604962,-0.07075004,0.08401052,0.11580887,0.031651787,-0.2750901,-0.06770821,0.061809633,-0.25924826,0.13502988,-0.1328909,0.0099744,-0.13723561,-0.017353302,0.06380745,0.08669822,-0.06094506,0.14219601,-0.028760683,-0.1572011,-0.0741721,-0.33686978,-0.17907377,0.10237408,-0.23410162,0.046002656,-0.0068437564,0.1184053,0.3341395,0.015439101,0.1088695,-0.066817425,0.46665773,0.062171936,0.30166334,0.107908264,-0.00823661,-0.25989866,0.02353895,0.076854646,0.13273107,-0.00047694793,0.024179805,0.13779032,-0.11437788,-0.08929082,0.25754222,0.2488573,-0.2103818,0.04832327,0.15253772,-0.110428825,-0.15593372,0.013736389,0.23417768,-0.2977791,0.20441748,-0.17602755,-0.039383143,-0.18260126,-0.051957116,0.12023676,-0.25908136,-0.10492318,-0.050292652,-0.19207671,0.2261252,-0.083202034,0.21939567,0.19909361,0.07817422,-0.064260125,-0.06009584,-0.04622613,-0.25711653,-0.16377437,-0.008527644,0.0016447434,0.13798772,-0.14180133,0.24288996,-0.09181366,-0.10446555,-0.025574025,0.108412005,-0.10652342,0.040235758,0.092656426,-0.004851745,-0.11373448,0.13139775,-0.07641716,-0.02791439,0.32939544,0.16660143,-0.04265949,-0.20321688,0.2692939,-0.10961384,-0.030433154,-0.012891587,0.18588945,-0.09717425,-0.025326297,-0.22066121,0.08943824,0.21768533,0.060202107,0.1669631,-0.05296833,0.043609276,-0.2381529,-0.16040763,-0.15617514,0.1412839,-0.0777354,-0.051682163,0.09470077,0.15149544,-0.0026753084,0.13244039,-0.06065143,-0.10800318,-0.019885316,-0.0038355775,0.19211385,-0.32239625,-0.41456303,-0.11205328,0.13314015,0.03344249,-0.112033725,-0.10647741,-0.13469017,-0.01184315,0.011219929,-0.09036713,0.24992895,0.028576784,0.103733696,-0.10168714,0.20140015,0.039571825,-0.23315956,-0.07146429,-0.042245153,0.15194252,0.08151625,-0.21429561,-0.08194679,0.2178281,0.3578005,-0.17602752,0.025555627,0.013404885,-0.032040976,-0.117914036,0.007233923,-0.18032598,-0.08613648,-0.022022117,0.06876266,-0.13517764,0.05335589,-0.047094725,-0.1511311,-0.2312662,0.10889865,0.06285003,0.029165411,-0.058896236,0.11108656,-0.12062986,-0.077667624,0.13162814,0.12665938,0.2042243,0.13397454,0.09717412,-0.21807083,-0.19807513,-0.046406403,-7.796229,-0.10321149,0.12853637,-0.16379787,0.3673066,-0.18038203,0.13999492,0.021943275,0.19465846,-0.22158426,-0.0870668,0.2513781,0.11983861,0.003941483,-0.010277741,-0.09934556,-0.105491586,-0.3339838,-0.24640511,0.26372647,-0.27703702,0.107409224,0.043157056,0.5199609,-0.058106873,0.11241399,-0.012043705,0.1728828,0.24295105,0.038503345,0.057360083,-0.123651884,0.23333989,0.23712647,-0.003365643,-0.13565305,0.038409688,0.020175926,-0.07908455,0.12838802,0.30147076,0.15277052,0.27353615,0.14666402,-0.1174396,-0.05428568,0.21243782,0.14035736,0.11277814,0.1946426,0.35540593,0.15615155,-0.128775,-0.021213656,0.09500324,-0.08497569,0.053912293,0.1393505,0.050175887,0.051113088,0.041541148,0.47776154,0.115111105,0.15092067,-0.06822216,0.02379973,-0.17759995,-0.031333707,-0.08714105,0.1660538,-0.07422024,0.22334863,-0.0022204593,0.113930814,0.24042022,0.053434487,0.26459914,-0.15452056,0.13375244,-0.00018094857,-0.010073964,0.0672103,-0.054218635,0.19686073,0.21781838,-0.218899,0.016239718,0.21942292,-0.031932045,0.15627693,0.19267282,-0.29534507,0.018837767,0.3253857,0.13302386,0.26759014,-0.18569638,0.05204802,0.08507351,0.24612811,0.014991485,-0.14193413,0.19089684,-0.10187219,0.015954822,-0.036309406,0.022190552,0.021176964,0.043214627,0.216162,-0.1196088,-0.04675422,-0.03626869,0.048976086,0.08918619,0.010528638,-0.07587122,0.027719881,-0.18842073,-0.10806937
GLN_2_A,-0.06695417,0.18813877,-0.016216427,0.06889205,0.13159283,-0.041872166,0.18076487,0.008274007,-0.017784864,0.045908052,0.015534689,0.048478346,0.07814244,0.1584347,0.10209502,0.03126767,-0.01094756,-0.09799298,0.038410664,0.076614484,0.18406072,0.13533115,-0.16553444,0.024047354,-0.08494028,0.099387355,-0.093474716,-0.17608976,0.16914518,0.037832364,0.07929853,0.060744606,0.103762604,-0.39560562,0.061108675,-0.0391094,0.119114116,-0.047191598,-0.12643027,0.111950375,-0.041061435,-0.07593429,0.16175732,-0.11521552,0.09764428,0.21600918,-0.0072868695,-0.023580767,-0.11652423,-0.032699898,-0.14486481,-0.20020775,0.1234152,0.05261689,-0.18769866,0.11358713,0.5204524,0.14297529,-0.010612784,-0.3379304,0.3243368,0.11926015,0.12519953,0.1304143,-0.01673149,-0.052703325,0.18183026,-0.07968418,-0.015044301,0.08879266,0.13763052,0.08145831,0.11383068,0.13463177,-0.11896637,0.0374362,-0.06261428,0.025063608,-0.047504563,0.14784656,-0.041025825,0.139909,0.0072386153,0.1775766,0.037017975,-0.285446,0.04294575,0.08702865,0.105795935,0.093923144,-0.26952526,0.09576085,-0.30284357,0.04014313,0.078327976,-0.08183181,0.17986028,-0.032048084,-0.23996937,-0.13397133,0.24473602,0.1670811,-0.024376769,-0.32816702,-0.02839494,0.14676091,-0.20084614,0.117382966,-0.16839448,0.07802768,0.2577547,-0.035411797,0.19909602,-0.04144533,-0.018308358,0.01776136,-0.11751327,0.097297564,-0.3117315,-0.18595994,-0.012028331,0.16910833,-0.027635673,-0.078755826,-0.025888903,0.20714265,0.015868323,0.2081303,-0.08125997,-0.007460036,-0.24343438,-0.03809849,-0.067045756,0.14962116,0.19305447,-0.24759151,0.124141656,0.19373,0.043839708,-0.05333237,-0.013952294,0.16341104,-0.055132784,0.03998455,0.011004065,-0.017383005,-0.03570453,-0.06109227,-0.3115416,0.09629037,-0.18741584,-0.13376942,-0.07705747,0.03844976,0.049759693,-0.07575264,0.2251939,-0.1750448,0.13179626,-0.18993075,-0.040778205,0.13649507,-0.018703252,-0.14609031,0.17892754,-0.117458016,-0.19084182,-0.19797377,-0.013916102,-0.12498325,0.07072587,0.068645366,0.008405587,0.041587077,0.053087372,0.040401075,-0.07919965,0.07072752,-0.16210341,0.10395891,-0.026838837,-0.20040946,0.020695318,-0.09680061,-0.2553925,0.17433041,-0.013912043,-0.02639125,-0.29804152,0.10173053,0.00938459,0.16473745,0.027240261,0.10512509,0.31589893,-0.039201565,0.11811491,-0.02438467,-0.023872402,0.0063707544,0.124793105,-0.016115889,-0.2495442,0.06319667,0.09524087,-0.12513489,-0.22075559,-0.15170935,-0.20364694,-0.039946217,0.22027752,-0.20746541,0.35143656,-0.00070761447,0.15085125,0.07577192,0.04846461,-0.27216232,0.078542165,0.14348887,-0.12507965,0.24630237,0.041240375,-0.1167617,-0.13483386,0.09378553,0.18467769,0.10669295,0.02982044,0.036610533,-0.038137257,-0.35941467,-0.12719582,-0.20079511,-3.9905124,0.0605182,0.058561396,-0.03969126,-0.15423243,-0.29077792,0.051948477,-0.0841987,0.15132914,-0.17981641,-0.005572671,-0.018597929,-0.011395188,0.105200276,0.13261008,0.072540104,0.21368606,0.036657695,0.053837202,0.04054371,-0.1987436,0.1683648,-0.065248884,-0.10140979,0.031162102,-0.1549068,0.04136365,0.016621822,-0.10839468,-0.09736511,0.11655399,-0.2569554,-0.11917204,0.0121875405,0.04737883,-0.024488306,-0.025611421,-0.33413422,0.21665817,0.061576188,0.2551203,0.11641179,0.11161121,-0.2862792,-0.17559397,-0.18283454,-0.11031994,0.17660564,0.020660954,0.22563836,0.24895762,-0.08831933,0.07553411,-0.18644704,-0.15859187,-0.12222679,-0.07306101,0.03652165,0.019707046,-0.11550713,0.054887556,-0.13094914,-0.12606844,0.063052855,0.17184265,-0.008050759,0.14138646,0.020371718,0.051690415,-0.09017636,-0.10607341,0.032377418,-0.14384198,0.23398325,0.07342778,0.055101864,0.022255613,0.0460981,-0.106233045,-0.07288277,0.1340185,-0.05525401,-0.031945303,-0.035202548,-0.17607638,0.091583595,0.06583377,0.07476833,0.16888577,-0.08364988,0.12378628,0.15063305,-0.032871276,0.010975173,-0.094755284,0.096092,-0.16835763,0.015524274,0.23598784,-0.044744834,0.024781402,-0.024469752,-0.021510292,-0.21204439,-0.015667718,0.03673963,0.109975174,0.19950897,-0.065182306,0.15893857,-0.027816452,0.030411195,-0.12366153,-0.10849845,-0.00632031,-0.055577807,0.2191813,-0.011911534,0.009171787,-0.1012373,0.06585131,-0.20169625,-0.14500588,-0.039924942,0.08038227,0.19330183,-0.17746362,0.22769254,0.2276241,-0.18475698,-0.0008025393,-0.12164269,0.075860314,0.14305556,-0.033869393,0.065370336,0.12361127,0.33148733,-0.06590405,-0.019561296,0.057049934,0.0941126,-0.07541909,0.18494174,0.1801176,-0.12205263,-0.0029405311,-0.102845326,0.16760993,0.007397781,0.25770667,0.030744689,-0.16175582,-0.11547062,-0.03389545,0.1323461,-0.06890987,-0.0038561244,0.05527363,0.14698648,-0.20737761,-0.07292136,0.26187974,-0.17355284,-0.109887294,0.08855233,-0.06610389,-0.025871001,-0.30675292,0.0045729615,0.1055122,-0.08291055,0.28120092,-0.11018095,-0.19800593,-0.14878719,-0.05538907,-0.061308216,-0.031327475,-0.012328959,-0.08823252,0.059488673,-0.067293294,0.031853765,0.08160598,-0.008489679,-0.2244246,-0.076562695,0.12718576,0.12894802,-0.077850915,0.035327088,-0.04100778,-0.16473141,-0.06927718,0.15162991,0.006340405,0.2811982,0.089279346,0.15128006,-0.15663165,-0.025130978,-0.1785543,0.09475435,-0.033671115,-0.10738499,-0.01658609,0.2740018,-0.004841247,-0.11722698,0.26225218,0.13602464,-0.26551706,0.045175027,-0.038589112,0.12598096,-0.0254166,0.37483332,-0.035243608,-0.1007436,0.08308083,0.14615197,-0.060768783,-0.19795747,0.1481874,0.17854577,0.20255072,0.14570932,0.15782787,-0.016992064,-0.0964195,0.002286825,0.034998376,0.22308029,0.052382573,0.08678658,0.012242935,-0.24922885,0.13631573,-0.030297099,0.119184315,0.00094454177,0.09733657,0.026373714,-0.1420531,0.14256136,0.20444296,0.12919354,-0.099413864,0.018579315,0.19064838,0.13771568,0.20841773,-0.07919281,-0.005161617,0.101480804,0.046759874,0.2487348,-0.23500478,-0.22261322,0.06071152,-0.00019504753,0.0064634895,0.22469324,-0.1784448,0.0054057986,0.045915928,0.1435865,-0.23713167,-0.0311752,-0.15679151,-0.06705911,-0.0646296,0.10427264,0.102164306,0.1091298,0.23570989,-0.05963032,-0.035101194,0.042492192,-0.008521513,-0.09901759,0.14117174,-0.08836195,-0.010181345,0.036039032,-0.13785163,-0.08679161,0.08335741,-0.06254058,-0.11344313,-0.069379546,0.057797346,0.025204,-0.0538364,-0.015676562,-0.14667867,0.18433523,-0.06504452,0.014809117,0.20078042,-0.1579366,0.07278675,-0.0049942974,-0.19719785,0.015262533,-0.07627475,-0.11766584,0.058388576,-0.09079819,0.058029603,0.014283104,0.020653434,-0.04572444,0.17658442,0.0648806,-0.23972431,-0.018390255,0.036794093,0.04041479,0.21920569,0.071461044,-0.25294143,-0.11057937,-0.04415274,-0.12584433,0.032927755,0.06527954,-0.16154799,0.05899676,0.03144234,-0.13353632,-0.026358087,0.045477793,-0.090393424,-0.087272026,0.060560852,0.22005531,-0.19446716,0.048575778,-0.05877386,-0.019158581,-0.03505459,-0.08106238,0.081297755,0.034317244,-0.011295155,-0.059122153,-0.3321357,0.14469516,0.12198963,-0.05722048,0.019637661,0.16799994,0.00031538797,0.10795213,-0.24823688,-0.03357022,0.0877281,-0.19810845,0.15547748,-0.0750528,0.21378654,-0.17605259,-0.13532561,-0.086758174,-0.043191597,0.050340686,-0.11578888,0.005930096,-0.17568384,-0.07792223,-0.23217553,-0.05047225,-0.17901482,-0.06677787,0.09538663,0.22487992,-0.065157875,-0.19106914,0.108354524,-0.14499894,0.009867908,-0.0046312753,-0.059673324,0.060726993,0.075687684,-0.043813307,0.021690775,-0.1403412,-0.007411866,-0.14718468,-0.10325745,-0.3303577,0.017970055,-0.07357019,0.16648832,0.06491903,-0.16481806,0.09762612,0.03859418,0.12279427,0.11768479,0.095880285,-0.2321321,-0.0041615134,0.07704587,0.14215371,-0.021794174,-0.06647573,-0.031610403,-0.04735292,0.012103487,-0.1335904,-0.16222045,0.03955754,-0.28079703,0.021986878,0.09910631,0.15770462,0.09873294,-0.0012495137,-0.13405854,0.1798221,-0.17182416,-0.09347648,-0.021472264,-0.20309359,-0.15414684,-0.10602509,0.29829952,-0.08549904,-0.06991154,0.19635534,0.07871571,0.15660764,0.09939513,0.002592696,-0.0016892097,0.30016536,-0.12017104,-0.056508176,-0.04729711,0.07927386,-0.0131176235,-0.02267353,0.27479976,-0.02293839,-0.19985038,0.2810791,-0.03840669,-0.17605828,-0.083884336,-0.04892142,-0.071810655,-0.008719311,0.27146482,-0.020364808,0.07921018,-0.28526774,0.2459391,0.09590778,0.10166073,-0.43293527,0.37368864,0.020236555,0.10044767,0.09128847,0.12582979,0.14112201,0.04383042,-0.10649422,0.015355592,-0.1563075,0.08045222,0.10686732,0.06954639,-0.22812091,-0.11909401,0.13009673,-0.16210273,0.023879156,-0.12557009,0.1421715,-0.15300633,-0.06757261,-0.03342166,0.035782438,-0.005298948,-0.1997834,0.005990744,0.30468133,0.080194846,-0.12684597,-0.08078352,0.07439756,-0.122581445,-0.111747466,-0.19315475,-0.10403473,-0.17629075,-0.04831557,0.45071393,0.13684824,-0.02927854,0.0412571,0.29356197,0.10107019,-0.05318615,-0.027157133,-0.31071016,-0.04506169,0.1365625,0.05426229,-0.15117766,-0.047477398,-0.017699338,-0.07126073,-0.1118765,0.11641717,-0.15817441,-0.10383238,0.037382875,-0.14942345,-0.022230448,0.14294727,-0.058822114,-0.052470367,-0.051462278,-0.0693097,0.021341262,-0.1455146,0.009755601,0.020937791,0.1462627,0.069594614,0.2544608,0.00042958354,0.09406968,0.0109135825,0.11057944,0.0035032183,-0.112542816,-0.040645048,0.060337484,0.2595117,0.051586673,0.11799781,-0.13538483,0.1415573,-0.0020323351,0.04168385,-0.012394812,0.031422887,-0.013293831,0.20108522,0.037389215,0.04620482,-0.19381613,-0.046955895,-0.29561704,-0.04637698,0.08756214,0.020692915,-0.1256888,-0.18787406,-0.060132325,0.0069493405,0.13503689,-0.14230935,-0.020243179,0.2423652,-0.0810434,-0.15486911,0.002564167,0.083840996,0.010695385,-0.031720553,-0.1584811,0.031396944,-0.061452333,-0.0877457,-0.003243471,0.04967724,0.10772222,-0.19385885,0.30584043,0.0031906534,-0.14976111,-0.088193506,-0.10014512,-0.027031375,0.12708305,-0.11117439,0.32768416,-0.14939128,-0.21672677,-0.094286054,0.19202603,-0.16064784,0.06135544,0.15475707,0.17682734,0.0060282787,-0.05723826,0.2711045,-0.058584314,-0.01767846,0.15470922,-0.042675983,-0.042191204,-0.12283826,0.26448515,0.08201762,0.03634085,0.13189276,-0.08494281,0.15184529,0.14806901,0.09347717,-0.043920938,-0.29567665,0.21426222,-0.06474391,0.19198367,-0.23738217,-0.2029803,-0.16629733,0.107304074,0.25073168,-0.119703606,0.14244571,-0.043829598,-0.022025662,0.19052635,-0.32127553,-0.21198863,0.03056637,0.11085682,-0.07595202,0.27003318,-0.09994112,1.2312297,-0.27142924,0.18310398,-0.069755256,-0.10916578,0.0034687994,0.2352407,-0.3671025,0.094536856,-0.0035089885,0.093259014,0.101770125,0.036440305,0.22802085,-0.011712282,0.0651074,-0.18156075,0.10294719,-0.057581928,0.31119248,0.18222792,0.14621384,0.17975785,-0.044245694,-0.22924462,-0.19016996,0.07774168,0.017616304,0.04178302,-0.1022965,-0.12850246,0.103916004,-0.06879629,-0.030606743,-0.090902,0.021798024,-0.106926404,-0.00055330305,-0.10180256,-0.035417337,0.19254898,0.19879831,-0.059142824,-0.1472333,0.01696619,-0.14063106,0.106506765,0.1187143,0.049350873,0.020566309,-0.099268295,0.016353257,0.20498525,-0.1620496,0.03157374,0.10141332,-0.09564122,-0.16299453,-0.025542913,-0.11378696,-0.14230935,-0.20031819,0.1038444,-0.021913778,0.13840735,0.113253675,-0.073566474,-0.11246735,0.19031425,-0.0035926783,-0.17623648,0.008873264,-0.10423524,0.29420838,-0.09154734,0.04120362,-0.022551032,0.19132221,0.07684306,0.0990666,-0.12219429,-0.1395703,0.35560763,0.17269485,0.017034102,-0.09718514,-0.00430859,0.1570904,0.03852747,-0.2686008,0.16180773,0.29332602,0.22076955,-0.07262434,-0.21242085,0.008555593,0.04511311,0.123598434,-0.028016893,0.042933773,0.03640885,-0.16280572,0.18080881,-0.14321963,0.0025965525,0.1487067,0.13903314,-0.20046486,0.031936005,0.1797577,-0.1315593,-0.044474583,-0.3410659,-0.09172866,-0.11950049,0.11637908,0.12412601,0.07376884,0.13687848,0.080719724,-0.094709784,-0.06913383,-0.14884841,0.04250846,-0.17265123,0.1414779,-0.13194966,0.36435807,0.09959335,0.22234735,0.038360376,-0.2171826,0.024298966,-0.018620327,0.06825774,-0.029174877,0.040703755,-0.01151544,-0.057995614,-0.24894962,-0.010214476,0.0758269,0.20562437,-0.16860868,0.09840391,0.13356557,-0.13570015,0.06442362,0.2434294,-0.038267896,0.023571402,0.13291755,0.22718163,-0.09830421,-0.040848523,0.03652588,0.14848793,-0.04745072,0.068866424,-0.017505612,0.041816853,0.022928003,-0.13804927,0.13374905,0.031373736,-0.041422192,0.083139904,0.14588471,0.08045809,-0.112819836,0.07102447,0.2731741,-0.17922792,-0.06621048,0.015497473,-0.22060491,-0.11564624,0.05440163,0.028697275,-0.035822008,-0.18677191,0.06878415,0.33049646,-0.15584055,-0.050340913,0.07990318,0.3269813,-0.108471505,0.048198774,-0.029876072,-0.04281806,-0.19824013,0.14267047,-0.24176247,0.08245403,0.26925293,0.18816315,0.015177162,-0.030798716,0.18858491,-0.14053532,0.1447151,-0.14297822,0.29346454,0.009680371,-0.06294161,-0.032156188,-0.13443501,0.43864053,0.121610016,0.056543,0.005439071,-0.08226942,-0.107593805,0.19726197,-0.25321522,0.012772444,-0.22654767,0.041745428,0.04652979,0.14965373,0.080512956,-0.11713957,-0.23160453,0.024481703,0.099947035,0.038836107,0.23936394,-0.21886447,-0.3245512,-0.17845912,0.1524697,-0.16637267,-0.13853726,-0.025679113,-0.0049804207,-0.11197311,-0.01966302,0.0042072944,0.12177214,0.053078372,0.23021129,0.08253789,0.10274985,0.08043794,-0.24107888,-0.16438998,-0.19857486,0.010509288,0.2768104,-0.10240237,-0.077030614,-0.0028130389,0.18969226,0.16175754,-0.0234013,-0.002784952,0.19160412,0.055803146,0.036195174,-0.27443787,0.013609369,0.054698862,0.08406076,-0.12062957,0.18419896,0.11414153,-0.11812367,0.120059036,0.18058906,0.0907976,0.08158041,0.033543557,0.26622933,-0.018582445,0.13767044,0.12093684,0.07156676,0.17491074,0.1260581,-0.009338248,-0.0772346,-0.1988922,-0.066696465,-7.9928093,-0.05845283,-0.002207338,0.023681387,0.18588899,-0.07932327,0.024994282,-0.109017275,0.1284374,-0.30312896,0.18447159,0.1678449,0.012515169,-0.071573496,0.14884901,-0.091395505,-0.085317634,-0.17144549,-0.20722389,0.27336338,0.08336135,0.06170267,0.23951307,0.27359322,-0.18703085,0.24206848,0.10409014,0.08823029,0.20105514,0.14578344,-0.13224785,-0.028542187,0.055711128,-0.021551393,-0.19026178,0.0020511353,-0.169085,0.06978008,0.223537,-0.024583468,0.09080597,-0.09759197,0.12494349,0.26701188,0.17178077,-0.12850252,-0.0050573177,0.1514696,0.067956455,0.0272509,0.20672187,0.05122151,-0.021053765,-0.18149301,0.08689204,0.03484334,-0.07649814,0.28108287,-0.048720174,0.23986754,0.09633317,0.1194753,0.038140543,0.08749306,0.10657545,-0.02742904,0.13495363,-0.043016735,-0.22658363,0.086953685,-0.07372558,0.020320525,0.03756483,0.11083804,0.27076,-0.010829033,0.0881623,0.08003059,-0.068285145,-0.14301072,-0.19761842,-0.05825542,0.048293605,0.19753677,0.26382524,-0.020288268,0.016816504,-0.016399274,-0.1419981,0.04538926,0.27447695,-0.21548757,-0.04181474,0.23040967,0.057653707,0.19560671,-0.118183844,0.14121167,0.2845744,0.16584322,-0.2155105,-0.054083627,-0.0928645,-0.029753096,0.02072813,-0.03265235,0.22450808,0.15230687,0.01704264,-0.015373371,-0.104064725,0.19525774,0.026468962,-0.0799904,-0.062834695,0.05851678,0.12692043,0.060721174,-0.1501793,-0.13725823
LYS_3_A,0.16320299,0.24361655,-0.1869367,0.012835869,0.019371469,0.06142533,-0.05705178,-0.07816786,0.1784697,-0.07067073,0.06177683,0.04700597,0.11599055,0.32926846,0.25901115,0.008679404,-0.0043271384,-0.05227888,0.045382507,0.06661144,0.17504767,0.12831955,-0.009107709,0.09649397,-0.08632142,-0.20172778,0.019659966,-0.08654203,-0.06068116,-0.083582416,0.0620154,0.10293769,0.010257207,-0.2436947,-0.15734924,0.1600673,0.01851972,0.019331781,-0.018376008,0.048259553,0.051417615,0.03352667,0.33667833,0.06240478,0.104993165,0.0651559,-0.00050620036,0.055090826,-0.18921505,0.17852575,-0.1976315,-0.030117437,0.17982073,0.02250586,0.15691319,0.08024107,0.1890149,0.15181604,-0.0717843,-0.15742223,0.12541176,0.013415285,0.07183506,0.27521926,0.001249448,-0.011834293,0.090131365,-0.017197939,-0.06690065,-0.13027549,-0.03819784,-0.06501325,0.04497959,-0.04333307,-0.110616766,0.0696252,-0.088879704,-0.004298235,0.06657676,0.12701508,0.19064789,0.14415964,0.15708601,0.16459516,-0.054629155,-0.095189475,0.33437684,0.13100122,0.15795906,0.051244684,-0.11310073,-0.08895396,-0.07185401,0.011364538,0.070133515,-0.11605419,0.089723006,0.0603574,-0.290882,0.030601127,0.21047272,-0.0021684114,-0.0015582149,-0.012097929,0.122393884,0.11201428,-0.008493781,-0.15274619,0.09625915,0.15883212,0.11442936,-0.037881408,0.043792397,-0.10179664,-0.21141106,-5.3023366e-05,-0.057377666,-0.11795434,-0.1444093,0.09847349,-0.004297859,0.022134129,0.22153892,-0.10702135,0.054382473,0.082217306,0.046936337,0.09807818,-0.18705529,-0.15392007,0.029867169,-0.11267835,-0.08402759,-0.06189768,0.21861872,-0.097515434,0.052845675,0.097622715,0.12269505,-0.058819976,0.10100509,0.0012189198,0.104429655,-0.13863255,0.100601986,0.13925023,-0.029643048,0.22066882,-0.059019122,0.008870418,-0.0444071,0.062965155,-0.021333659,-0.11351398,-0.13334596,-0.014299207,-0.002433534,-0.013800586,0.083072625,-0.13203862,0.040323544,-0.05662768,0.04806474,-0.14043982,-0.03146664,-0.19265077,-0.030743772,-0.09544874,0.095785275,-0.11494467,0.034557495,0.12500991,0.057668872,-0.060156953,-0.06523308,-0.13303743,0.06268659,-0.09342212,-0.29086855,-0.13134255,0.26747638,-0.028884063,-0.07424545,0.062466364,-0.26660556,0.20332623,0.07763156,-0.011144916,-0.080084726,0.03448628,-0.035111215,0.19971032,-0.14124316,-0.07997439,0.08979768,0.08980769,0.14418346,0.1296149,-0.12011524,0.2821356,-0.14441197,0.06272312,-0.19317769,0.152113,0.012322178,0.042181056,-0.07734371,-0.049944248,-0.036783412,0.038002964,0.16599186,-0.08849475,-0.010263703,-0.024709517,0.17441107,-0.021703841,-0.046628248,-0.040397596,0.18979032,-0.08223834,-0.16401795,0.19820867,0.17732699,-0.05173118,0.02847479,0.14018714,0.05996621,0.11318022,-0.061611608,0.13712668,0.06255993,-0.28895348,-0.02745428,0.122405365,-3.757543,-0.22565004,0.05047012,0.028575633,-0.19065112,-0.16255769,0.010228395,0.11503331,0.2282372,-0.09381135,0.034884892,-0.058639374,0.041248154,0.037088957,0.07104817,-0.059957586,0.16934296,0.035088174,0.27319592,-0.049191844,-0.018035665,0.1038129,-0.036197655,0.07942438,0.07990922,-0.1408649,0.015667519,-0.039186463,0.043048277,0.012212496,-0.07317107,-0.011897686,-0.027790817,0.23149851,-0.14793505,-0.063764594,-0.1692315,-0.19179817,0.26062253,0.016112298,0.04529302,-0.12833315,0.19951773,-0.048933808,-0.21490778,0.045845613,0.046562918,0.14819932,0.1349041,-0.023421714,0.00032698168,0.04506758,0.028287012,-0.05418681,-0.2248884,-0.056064125,0.16659912,-0.10915501,0.03197623,0.026255228,-0.031544667,-0.05433541,0.06032389,0.14279675,-0.05777005,0.063950725,-0.1358792,0.036995877,0.04145531,0.042601105,0.045210067,0.014246027,-0.2080494,-0.024906991,-0.0034976962,-0.055601977,-0.06895923,0.07155276,-0.14921723,0.014845062,-0.05928878,0.13819349,-0.0628702,-0.2275523,0.33905205,0.13849053,0.06855582,0.018090075,0.18414359,-0.01926631,0.16255985,-0.04176275,0.076359995,0.07369106,0.07011446,-0.03014994,-0.2596296,0.14792585,0.081767075,-0.04729968,-0.05461493,-0.20910664,0.22493786,-0.09233607,-0.06973757,0.1513461,-0.01835864,0.04139936,-0.0690321,-0.018778766,0.04178873,-0.022880744,-0.15209006,-0.1492525,0.017374044,0.068898015,0.052238323,-0.19109349,0.08676738,-0.10053256,-0.02455429,0.014664509,-0.17962621,0.2021976,0.03407423,0.010006589,-0.012494409,0.16017565,-0.021341616,-0.04433784,0.00058503513,-0.03211382,0.2577008,-0.0414646,0.07668762,-0.17428948,0.16371982,0.11632131,0.0356136,-0.116697036,0.05803152,0.046699695,0.22322224,0.041458447,0.32090458,0.026952716,0.008325842,-0.04697855,0.07489127,0.08643276,0.100149825,0.13705339,0.08407996,0.041126456,-0.12061916,0.13804784,0.03178681,-0.10521046,-0.108674034,0.068134926,-0.22318968,-0.17329498,0.11991996,-0.093846716,-0.24613516,-0.02173263,-0.08028772,0.07467252,-0.05422007,-0.1015504,0.06479216,-0.2252064,0.02362515,-0.043467388,-0.13914908,-0.120165765,0.020814644,-0.036993455,0.11778093,0.091472976,-0.14580905,0.05072539,0.078729555,-0.035753254,-0.11518859,-0.19299412,-0.16474812,0.060856298,-0.14297003,0.1856721,-0.03666148,-0.07256557,0.006739265,-0.06940487,-0.03826281,-0.020108927,-0.121304005,0.21672249,0.10623402,-0.02105776,-0.1120597,0.14502046,0.039858826,0.11363605,0.046897676,-0.22778471,-0.11024539,0.16647983,0.058108773,-0.058608405,0.17688587,-0.10803151,-0.18148972,0.20894527,-0.035254877,-0.06440157,0.08722699,0.25383508,0.14708665,0.04117778,-0.13972795,0.14146633,-0.20794861,-0.008319262,0.16064061,-0.008328885,0.025067218,0.097351626,0.05585658,-0.2603478,0.014570674,-0.18330936,-0.112818696,0.17237568,0.3281906,-0.00789278,-0.026297206,0.15911002,-0.020171989,-0.01807191,0.014217023,-0.19956988,0.09287725,-0.0033068617,-0.033325434,-0.100601934,0.08465845,0.032977354,-0.20524253,-0.19467038,-0.08650678,0.026919471,0.11243567,-0.029746631,-0.041255713,0.025274392,-0.020801933,0.2049541,-0.12026129,-0.20045383,-0.0059395204,-0.015272403,-0.03856579,0.18712668,-0.25850093,-0.1078564,-0.08987805,-0.20016958,-0.22232705,-0.086036325,-0.11908266,-0.014552366,0.03876243,-0.0050583985,-0.0969377,0.19068888,-0.124595545,-0.11796542,-0.10358099,0.027298274,-0.14117065,-0.02934702,-0.008262714,-0.024978135,0.1465515,-0.15794103,-0.016861029,-0.121621124,0.08086351,0.24146399,-0.14669494,-0.054712567,-0.01501696,-0.15110525,0.08588864,-0.10191281,-0.09291502,0.11357007,0.018836765,-0.10729136,0.06956806,0.046080593,-0.060360588,-0.03462632,-0.15702938,0.21940112,-0.17147458,-0.119960934,0.13093193,0.13335341,-0.08890753,0.07686138,0.025618277,0.015244999,0.20309107,-0.02270166,-0.18757299,0.016310638,-0.081866525,-0.0010958855,-0.13251658,0.028013302,0.068436235,0.10385665,-0.062475506,-0.0019364258,0.104606755,0.09589898,-0.038940985,0.104709275,0.045717243,-0.22506109,-0.055699613,0.19969735,-0.0647342,0.0027717587,0.028954964,0.17416897,-0.11816047,-0.022003,-0.22153588,0.07547907,0.058152884,0.12914929,-0.013969601,0.07229425,0.043150105,0.063095175,-0.24965051,0.27394563,0.068424694,-0.07285122,0.017699542,0.16294734,-0.1322106,0.22447523,-0.13301072,-0.024910767,0.13815436,0.16986457,-0.15382946,0.034330152,-0.1619348,-0.16537242,-0.14067617,-0.047597263,-0.16768199,0.029605776,0.0845971,0.009723183,-0.04084408,-0.06390832,0.09043448,0.12511246,0.02809718,-0.03347507,-0.0082982825,-0.10054929,0.01519766,-0.262147,0.13097359,-0.09486022,0.15716332,-0.08024142,-0.18662627,0.091239095,-0.17012547,0.10074375,0.120938174,0.069203176,-0.0049089957,0.056029115,-0.13214135,-0.27420306,-0.17001785,-0.11257578,-0.03842188,-0.32393458,-0.066896304,-0.036549028,0.16885634,-0.012641706,-0.13707249,0.22814101,-0.081440754,0.041580927,-0.17329767,-0.051898576,-0.084349744,-0.036726933,-0.09998865,-0.061275467,0.0896594,0.015969152,0.14858262,0.013739535,-0.07772197,0.03519356,0.22997998,0.028039541,-0.03272922,0.048262525,-0.12132921,0.20496048,-0.1668645,-0.10576384,-0.013534465,0.008411648,-0.15382281,0.030311767,0.2663346,0.15905888,-0.040611513,0.10160741,0.10197327,-0.1509907,0.16646105,-0.07147908,0.19546708,0.15920204,-0.1422033,-0.04335203,-0.056944918,-0.08125373,0.07883131,-0.3323348,0.12223953,-0.044056855,-0.10679259,0.002587529,-0.31317478,0.0378098,0.0045211245,0.121498905,-0.18760909,-0.0713635,0.16300713,0.14224736,0.07721244,-0.055081163,-0.022190629,0.098176524,-0.31064147,-0.23372935,0.13661021,0.050799612,0.23861392,0.0666999,0.059198122,0.10942789,-0.10041307,-0.13390185,0.21480931,-0.009971074,0.18485674,0.08532711,0.011060073,-0.13824871,0.08966904,0.044163305,-0.056877717,0.06189371,0.1483989,0.23960233,-0.028490128,0.10931529,-0.057157844,0.10795379,-0.10510673,-0.1761045,-0.049239192,-0.07775663,-0.028653076,-0.10993335,0.11410446,0.11054838,0.060895156,-0.100789234,-0.021559935,-0.12043265,-0.16419426,-0.08278137,0.48928165,0.04842626,0.0040879655,0.11231265,-0.06327959,0.06242117,-0.07519775,0.007883329,-0.11904348,-0.06613197,-0.06935796,0.18847272,-0.16982426,0.14988333,0.040120997,0.16819292,0.014546891,-0.14314179,0.027856432,-0.08794908,0.03426145,-0.13376355,-0.15936477,0.1829919,0.001467674,-0.09985981,-0.018478611,-0.047103193,-0.13083024,-0.031686176,-0.046305872,0.13452172,0.2501806,-0.104071416,0.043011777,-0.090172276,-0.1042801,0.09493148,-0.12110386,-0.30561474,0.16680925,-0.269173,-0.18284003,0.11840096,0.04615124,0.108311035,0.0617751,0.114150606,0.113842316,0.006812751,0.15906347,-0.010053922,-0.110902816,0.14164208,-0.015035066,-0.0045643607,-0.1535858,0.038322728,-0.14961752,0.04231075,0.09767218,0.11033594,0.09026644,-0.08820256,0.055034943,0.018292157,0.11908125,-0.12815528,-0.1403201,0.12870793,-0.15419608,-0.10447974,0.10374034,-0.20125967,0.14092578,0.15219438,-0.013462795,-0.002948384,0.09259558,-0.15150522,0.026837043,0.21264996,0.092859134,0.03703729,0.2741922,0.090612635,-0.13945931,0.14010555,-0.09738355,-0.03766148,-0.071643196,-0.04171035,0.3466144,-0.18464287,-0.23862462,0.0022990385,0.27745253,-0.024513645,0.016631315,0.17848335,-0.029200265,-0.13017899,-0.02222281,0.2001157,-0.015393512,0.12439908,0.027019978,0.027905662,0.11124363,0.006352463,0.090225175,0.21979967,0.23898163,0.027722385,0.02936631,0.019115003,0.05464715,0.1623096,0.047673848,-0.2604894,0.20912303,-0.079908565,0.12931775,0.051227536,-0.18993875,-0.18988283,-0.028144376,0.10835543,0.021698257,0.2367119,-0.021977069,-0.07695418,0.13869293,-0.037115812,-0.16627672,-0.026709298,0.03623519,-0.09067482,0.040934134,0.0600055,1.5093668,-0.12211133,0.054550216,-0.06706379,-0.1541998,0.073299535,0.1263665,-0.2624222,0.2604441,-0.11449427,-0.06325102,0.0011352557,0.1786482,0.0104413545,0.038595498,-0.0035915591,-0.09367373,0.07689746,-0.15785271,0.18423302,0.10656418,0.058534995,0.1170315,-0.04039523,0.066328764,-0.15892816,0.18031467,-0.049596574,-0.09331022,-0.036290742,-0.08754424,-0.1248255,0.09877683,0.044329945,-0.17805804,0.22247006,0.1956628,-0.030726284,-0.08714232,-0.08962829,0.027115554,0.14029866,0.15038037,-0.101660684,-0.07478147,0.044341728,0.18113337,0.07358113,-0.06670344,0.072021775,0.118448526,-0.15744147,0.07865707,0.029931063,0.092170015,-0.029145647,-0.18637761,-0.10552256,0.21428207,-0.00091169873,-0.250005,-0.026844967,0.08750454,-0.2255803,0.01797745,-0.09472975,0.034003075,0.09822652,0.00776101,-0.043728456,-0.027832348,-0.07214448,0.14949307,0.13590433,0.02074931,-0.0062399004,-0.13552186,0.15392715,0.05101908,0.018926349,-0.11150719,-0.11607355,0.19306594,0.09233813,-0.027631156,0.045572318,0.18764624,0.10263654,0.12076152,-0.18080157,0.40768778,0.12701613,0.22435337,-0.090285175,-0.004376402,0.12546809,-0.089972824,-0.0062375655,-0.01390732,0.001713829,0.13080227,0.09307054,-0.1022619,-0.10810367,0.10977153,0.054771684,0.040202927,-0.07415579,0.23882276,0.18253042,0.02625706,-0.09584629,-0.016952205,-0.077561155,-0.10813825,0.17713277,0.14833185,-0.055690933,0.14933048,-0.07968449,-0.054659627,-0.04251129,-0.009098423,0.0058109886,-0.08831748,0.17869489,-0.16262382,0.05714482,0.07538529,0.28587472,-0.06897577,0.040924065,0.039510235,-0.089380786,-0.17401594,-0.09550234,-0.03681331,0.011615055,-0.049423795,-0.07235495,-0.17148079,0.05076111,0.13735756,-0.009063214,0.010041377,0.13238755,0.08075263,0.26133537,0.034446012,0.013257548,0.03685933,-0.018252984,-0.0637819,-0.21805277,-0.07363888,0.12599461,0.10271593,0.02311681,-0.06300574,-0.0022385095,0.023281867,0.01107186,-0.12286819,0.01621243,0.037102968,0.11920466,0.0584179,0.10032656,-0.015508828,-0.21646096,-0.20535442,0.1379001,-0.1035616,-0.08294503,-0.185986,-0.15838666,-0.21787392,0.028342977,0.011677881,0.0016231766,0.091130495,-0.10548632,0.13697611,-0.17543766,0.1120046,-0.13159688,0.1810842,-0.07942117,0.017568106,-0.026090806,0.020227244,0.06075053,-0.06031011,-0.19668838,-0.19471219,0.215882,0.026282797,-0.021971675,-0.11109795,0.062099047,-0.07927375,0.4448855,-0.2983458,0.10561285,0.22815455,0.08186999,0.08879218,-0.27960753,0.342924,0.14208639,0.052631147,-0.044990625,-0.0271931,-0.12262598,0.12579757,-0.044583865,-0.03633871,-0.3371291,0.14955457,-0.14302091,0.08502323,-0.054085188,-0.04691053,0.11226252,-0.15092906,0.0076710735,0.037053518,-0.16309094,0.0006977479,-0.2866571,-0.08533033,0.066064715,0.20585294,-0.010866263,-0.033901274,0.1262817,0.23352414,-0.23909487,0.047133297,0.05247428,0.07356644,0.16259514,0.021907624,-0.098288335,0.026344744,-0.089150675,0.12554389,-0.03849462,-0.021570878,0.14037868,-0.2983768,-0.06947181,-0.17496857,0.056496028,0.14799012,-0.04572022,0.040159557,0.010692663,0.01429809,-0.0809022,-0.013325643,0.11002558,0.16370976,0.04338474,-0.29863793,0.16778025,-0.04958455,-0.34129557,-0.0666911,0.21829967,0.054682825,0.03336804,0.04925136,0.22635853,0.11474601,0.067147695,0.3059121,0.07867371,0.083249725,0.048641153,-0.029215856,-0.12834579,-0.18261887,0.29816973,-8.360583,-0.2645254,0.05612874,-0.12085286,0.0029000184,-0.17279035,-0.013558591,-0.07793546,-0.021538386,-0.2276402,0.027456952,0.037513703,0.14601631,0.012192898,-0.06798825,-0.21633394,0.15551074,0.08393138,-0.03160467,0.082373835,0.08646004,-0.013787229,0.3015792,-0.017584393,-0.24637781,0.092439346,0.08368423,-0.053852607,0.101820536,0.29261857,-0.041840997,-0.12334824,-0.20877777,0.094766654,-0.012900712,0.0041231895,-0.009703279,-0.09128808,0.25690958,0.02103505,0.058956787,0.028795138,0.10617185,0.29034773,0.11001256,-0.0746322,0.057279978,0.036914863,-0.18891631,0.1257678,0.13094516,0.21787816,-0.037724555,0.29210243,0.14710985,-0.14568688,0.05909832,0.23703656,-0.09824545,0.10438424,0.0027202747,0.1604849,-0.12443819,0.20139144,-0.050921842,0.18487903,0.025290899,0.14043191,-0.101811655,0.01734307,0.13206615,0.057546187,-0.026745534,0.1127514,0.020717127,0.19426619,-0.027203584,-0.05703116,-0.039456945,-0.006315759,-0.029092917,-0.11428882,-0.11362848,0.16332558,0.27558294,0.08119417,0.32444936,-0.00080797885,-0.07322316,0.10124486,0.12269245,-0.061933123,-0.001225544,-0.06406478,-0.13972402,0.082907826,0.087621056,0.19012271,0.04226054,0.003990161,0.03809459,-0.06665049,0.11531085,-0.01742077,0.050588544,-0.09924661,0.038113035,0.018787278,0.20498413,0.20705688,-0.0142388875,0.15134037,-0.18007363,-0.21963578,0.088019565,-0.24271533,0.039493315,-0.021537164,-0.06337288,-0.019279195
SER_4_A,0.101581596,0.110723294,0.054244585,0.044391695,0.19367045,-0.08017813,-0.03410559,-0.032364063,0.03087228,0.07938533,0.15451609,0.06298111,-0.028764317,0.026877556,-0.012062835,0.14630447,0.0214936,-0.09021591,-0.17383426,0.19625321,0.029341025,0.20224172,0.21557128,0.03118286,0.10822183,-0.057779416,-0.14438288,0.17839204,-0.14854422,-0.20597246,0.052136037,0.21191415,-0.11257973,-0.16266562,0.07976792,0.3441882,0.048828527,0.025672363,-0.21487659,0.20886327,0.13864538,-0.19038703,0.19886844,0.13386409,-0.10680847,0.054446883,0.0647383,-0.043353677,-0.09654928,0.07535972,-0.120343946,0.087705664,0.13694225,-0.19493164,-0.029710507,0.1845817,-0.03701001,0.07447602,0.054807194,-0.09446267,0.042318363,0.021177452,-0.1811841,0.30297282,0.20554565,0.04632235,0.22555219,0.02420568,-0.051466987,0.1831786,0.04744606,-0.11641767,0.023657609,0.23229602,-0.056184538,-0.06935572,-0.179442,-0.06467476,0.08642383,-0.17344296,0.03356396,0.18003039,0.085129306,0.016750159,-0.10882628,-0.20055749,0.16568969,-0.05300692,0.28928182,-0.10542044,0.1549883,0.010604074,-0.061594132,-0.089543,-0.07452064,-0.083099805,0.008744289,-0.09100037,0.07481883,0.09039395,0.05148579,0.12322465,-0.04790212,-0.05021175,0.023184227,0.13133374,-0.066151366,0.15623634,0.0040537314,0.030654294,0.1243216,-0.09705752,-0.031633724,0.07708321,-0.17519487,-0.092839606,-0.28420773,-0.023546191,-0.05018845,-0.026383096,-0.15072645,-0.19306436,0.27501532,-0.1913804,-0.0441232,0.34406644,-0.0015783256,0.12705418,-0.023983333,-0.105800055,-0.11446481,0.054648705,-0.17875159,-0.14114593,0.13708766,-0.12212335,-0.008217137,0.30812368,0.050253805,0.06345524,0.11233952,0.05548194,-0.011286478,0.04383291,0.08326963,0.01820955,-0.114939615,0.20889743,-0.044766795,-0.11636241,-0.20411104,-0.19650953,-0.110986546,-0.2615296,-0.008478683,-0.023000892,0.23602869,0.093136005,0.047389105,0.12816064,0.024522504,-0.1172977,0.06419812,-0.23025942,-0.22524837,-0.10213195,-0.13801795,0.08820449,-0.054318797,-0.023138203,-0.008196832,0.08498128,0.17580715,-0.0014843909,0.038553614,0.16463633,0.063088335,0.02370338,-0.22032486,-0.21833976,0.065987244,-0.06390366,-0.095772475,0.010303509,-0.19314106,0.013049659,0.061704975,0.0488723,-0.10790934,0.082873434,0.0555633,0.013887736,0.08293309,0.05652452,-0.008713737,-0.12895039,0.18704459,0.13055502,0.12683095,0.09654318,0.05575864,0.05661129,0.0095011145,0.07003546,0.1307088,0.069254495,-0.05972797,-0.025158761,-0.3339849,-0.019788489,0.09876536,-0.0612323,-0.077345654,0.019603545,0.16310011,0.1496759,0.11235458,-0.005135483,-0.05238674,-0.08413829,-0.05090991,-0.11279286,0.11265623,0.23147865,0.08696846,0.14238214,0.058270663,0.04903805,0.051723056,0.05391126,0.1868536,-0.33788893,0.00893041,0.39729118,-3.4187815,0.022084586,-0.0771274,-0.048270386,-0.06878317,0.042255845,-0.1620664,0.0154477125,0.016311051,-0.15144922,0.012652919,-0.08255031,-0.0010761437,0.0738585,0.19204907,0.035475045,0.23872906,-0.067847215,0.09386856,-0.10690178,0.047158122,-0.041841883,-0.13073765,-0.059807576,-0.09917511,-0.46251577,0.091014355,0.04244391,-0.17620628,-0.029830705,0.07661077,-0.12993132,-0.049822938,0.16013001,0.13118963,0.110489324,0.09171375,-0.12920967,0.1871978,-0.13762611,0.062148403,-0.054659333,0.07640387,-0.17194344,-0.28176436,0.056036912,-0.022020392,0.11149231,0.07196534,-0.025751974,0.19128215,-0.12059471,0.067453735,-0.1945919,-0.13774619,0.20626047,-0.17748022,0.068855345,0.066635564,0.057704672,-0.13437806,-0.16640475,-0.17265189,0.20613772,-0.09591616,-0.069254674,-0.048342396,0.27270314,-0.07899293,0.12903135,0.05431707,-0.1141178,-0.072877035,-0.06386687,0.039044656,-0.07764265,0.012095618,0.09565901,-0.235279,-0.12114511,-0.032421626,0.23294905,-0.0021846017,-0.013429357,0.0784645,0.13156523,0.15161458,0.09899787,0.2407974,-0.10295714,0.15573259,-0.005152144,-0.103002734,-0.07100564,0.04110897,-0.061953325,-0.042175367,0.20090781,-0.00029227685,-0.00013305797,0.051218666,-0.18179777,0.011092829,-0.028848443,-0.054798752,0.13355352,0.040803645,0.00052965916,-0.24847662,-0.08553507,0.024711762,-0.12593958,-0.015500267,-0.075456895,0.04983862,-0.0012237742,-0.061811164,-0.07550342,-0.0083811665,-0.11342186,0.11813438,0.019177673,-0.20433573,0.18057592,-0.00054316025,-0.07516318,0.18083794,0.08468894,0.12074953,0.1470933,0.10264506,0.117512375,0.026299745,-0.13967974,0.026841551,-0.31380257,0.18477345,0.40167674,-0.1552273,-0.022285797,0.043407086,0.11044493,0.08629549,-0.00513127,0.30219162,-0.10588168,0.031226864,0.13950883,-0.05270693,-0.032259993,0.11871372,-0.1938623,-0.18669759,-0.21845548,-0.077317566,0.016324041,0.09322381,-0.1302544,-0.06213188,0.10422386,0.019692631,-0.13504893,0.24083263,0.005012987,-0.085322805,-0.04717429,-0.08227361,0.014533986,-0.012551638,0.055930573,-0.053362302,-0.013364966,0.046473343,-0.07983869,-0.22275104,0.0046163336,0.18578441,0.0050679604,0.039262403,-0.01839702,0.10844431,0.06533364,0.36467987,-0.028491443,0.23948178,0.13686389,-0.06217348,0.059306927,-0.27671164,0.31854445,-0.06425308,-0.25220612,0.008441693,-0.050772507,0.123517476,0.23935674,-0.045892183,0.21365643,0.20267369,0.05165565,-0.31367338,-0.12050976,0.05000461,-0.15901545,-0.07820854,-0.3631714,0.018125055,-0.06038616,0.07822886,-0.06747482,-0.13026224,-0.045740105,-0.1850985,-0.10424918,0.02899332,0.17164919,0.08064029,0.14081073,0.012828269,-0.15190834,-0.08913937,-0.08540387,0.10762468,-0.040272888,0.13907936,-0.012198648,0.31228992,0.34803915,0.06258373,-0.32669258,-0.19314292,-0.19560859,-0.11550495,0.025725711,0.21657431,0.0526858,-0.05136983,-0.22194855,0.20092702,-0.18705122,-0.130551,0.11656561,-0.00062982115,-0.000710607,-0.017928902,0.044301566,0.09423508,-0.18735662,-0.29112977,-0.21742359,-0.04649597,-0.054098755,0.19742773,-0.17837468,-0.2057792,-0.10891337,-0.0006265621,0.11039621,-0.46768808,-0.2011471,-0.13341244,-0.03334578,0.0167542,-0.037696715,-0.20100069,-0.21763934,0.18675695,-0.1533519,0.043353833,0.05243511,-0.15585867,-0.16578616,0.05716943,0.012247816,-0.013161744,-0.122617625,-0.10427415,0.01000809,0.040938605,-0.13705103,0.16180545,0.07285333,0.15118995,-0.06000444,0.36901912,0.17982602,0.09121811,-0.14984219,-0.08202434,0.16484873,-0.16657755,0.113444105,-0.13083479,-0.036062192,-0.062622674,-0.20221443,-0.14423999,0.04212845,0.05665532,-0.037653126,-0.15292971,-0.014745656,0.11478786,0.024461856,-0.085743785,-0.012324408,-0.050618157,0.018089432,-0.093631,0.19749853,-0.019508732,0.047618445,-0.004533596,0.017667191,0.09080414,0.10360566,-0.17278062,0.0012423113,0.147331,0.25416678,-0.26816642,-0.20114921,-0.037017427,-0.20367779,-0.032671057,-0.17241257,0.17749217,-0.053832293,-0.06036006,0.17536627,0.094960734,0.05338405,0.11046759,0.3442411,0.07987796,-0.13787419,0.11314979,0.017086837,-0.01669525,0.11384329,-0.052712783,0.070964046,-0.028307883,-0.10751604,0.23641099,0.22601543,0.13008332,0.056500893,-0.11819679,-0.010134356,0.10681415,-0.053278986,-0.1565487,0.007835458,0.07335482,0.2104629,0.13331679,-0.12378436,0.3075671,-0.13974221,-0.18932118,-0.0601978,-0.038428746,-0.06746827,0.1434979,-0.08940015,0.18884653,-0.053670645,0.0053271973,0.074240774,-0.009519657,0.20291322,-0.13173512,0.0850487,-0.10730929,-0.09325478,-0.06783069,-0.10718304,0.047966667,-0.11671952,0.042269137,-0.11174278,0.15441081,0.17800485,-0.14019968,-0.14157228,-0.05117835,0.018569108,-0.07483667,0.13431194,-0.046923075,0.11604375,-0.19199227,-0.25575045,0.05227263,-0.009303385,-0.07541558,-0.105605036,0.007989634,-0.12358562,0.19146256,-0.004627849,0.20076376,0.30506057,-0.009333614,0.029071344,-0.2622288,0.19009675,0.1945,0.14218521,-0.081656285,-0.09472135,0.04593652,-0.033359967,0.13093781,0.14416578,-0.10961739,-0.15603454,0.27434948,0.08951749,0.003638784,-0.052891344,-0.073812105,0.13377936,-0.112887114,0.0026987898,0.08918025,-0.090595,-0.087036215,0.17888127,0.103969894,-0.027338233,-0.0934441,0.4446519,0.19950359,0.10074386,0.120398514,0.06380183,-0.075092144,0.055380303,0.17516832,-0.0047783204,-0.05854755,-0.07219464,0.25732023,0.1168383,0.08287425,0.23608781,-0.10139965,0.25052056,-0.030395446,0.017852433,0.046082478,-0.13390754,0.013875858,-0.10626151,0.2818594,-0.02429961,-0.13500172,-0.17832069,0.002814475,0.016480723,-0.017875021,-0.11443655,0.048645698,0.1336768,-0.041828193,-0.054625943,0.13983761,0.25220445,0.04323345,-0.2126588,0.14509429,-0.0848145,0.08526145,0.08946239,-0.12180143,-0.12487498,-0.08508322,0.07342479,0.12181747,-0.00820637,0.029053021,0.070389204,-0.1399991,0.11187475,-0.107767195,-0.09512063,-0.10307548,-0.032639984,0.27434936,-0.1105808,0.114869416,-0.12990719,-0.11883292,0.07695537,0.08170473,-0.14147913,-0.10376071,-0.01901612,-0.1299757,0.10312914,0.389687,0.104022,-0.056345582,0.08314963,-0.0617167,0.08002601,-0.16730963,-0.23359533,-0.14726779,-0.04065184,0.09837429,0.015459268,-0.076453656,0.012785801,0.18615916,0.10462279,0.009535228,-0.056480967,-0.15108451,-0.23289974,0.074594714,-0.07877417,0.050402865,-0.22712989,0.0774427,0.09659182,0.13424712,0.0009787957,0.07444129,0.05144973,0.06711739,0.092430584,0.18598501,-0.0026840814,0.30616516,-0.002868968,0.11369822,0.22059757,-0.07086153,0.016031364,0.0036856453,-0.27610403,-0.019248262,0.12088357,-0.031455845,0.10721721,-0.1503579,-0.041308362,-0.044443954,0.029358067,0.0063125393,-0.010825156,-0.1653746,0.02387012,0.097921796,-0.10027192,-0.048352826,0.010184827,-0.2534527,0.31847268,0.21935894,0.060850907,-0.101140775,0.049162727,0.14198247,0.049676266,0.18213812,-0.05566638,-0.023769252,0.099836506,-0.16742568,-0.18675463,0.015617711,0.17113106,0.009928623,0.051950138,0.023598285,0.25144204,-0.007918292,-0.11459086,-0.2494161,-0.040307455,-0.054661464,0.052533172,0.30812946,0.06265413,-0.16575062,0.34126148,-0.114012316,-0.208254,-0.23701613,-0.0048121754,0.09833613,-0.24623759,-0.20804897,-0.17627206,0.26143786,0.021405242,0.13101597,-0.13097905,0.11995568,0.09088561,0.03443206,0.12817405,0.069171526,-0.038169965,0.0061332635,0.1326492,-0.18134663,0.093137704,-0.1514803,-0.04399741,0.12477037,0.16113023,-0.2056539,0.14506526,-0.057626795,-0.057789646,-0.035409097,-0.074856244,0.072650194,0.1028809,0.16877206,0.027512735,0.07585636,-0.014027948,0.04140475,0.05850912,0.21260539,0.10206731,-0.13276266,-0.14959209,0.034135602,-0.34285557,0.23262131,0.05102417,-0.1279526,-0.064238116,0.054798793,-0.008420655,0.62148607,-0.038643826,0.048413172,0.08916561,-0.16294232,0.12860753,0.23203431,-0.26414487,0.19858262,-0.0026827839,-0.021497462,0.09765303,-0.10634851,0.04083767,-0.01864984,-0.060388826,0.073475234,0.057029266,-0.112033784,-0.033471547,-0.11129764,0.12730527,0.032444682,0.2566324,0.06092025,-0.08255465,0.076463155,0.023499645,0.17480366,-0.13858843,-0.22678474,-0.18953946,0.04421879,-0.08885325,-0.17412925,-0.16256084,0.18133795,-0.16709188,-0.16323748,0.09553821,-0.15690392,0.00049657037,-0.04151891,0.16143623,-0.04509278,0.14506087,-0.051335786,-0.043366082,-0.042187195,0.18000884,-0.043627128,0.0030748555,0.124649115,-0.02346223,-0.19223768,-0.06942243,-0.13226844,-0.036445193,-0.057480752,-0.2918513,0.15148851,-0.042506486,0.08258562,0.13702354,0.2041051,-0.04940622,-0.0052552433,-0.1777967,-0.040590346,0.019267146,0.06928002,0.058612958,-0.015063123,0.0064637475,0.20706593,-0.22651538,0.18247403,-0.012952604,-0.017869212,-0.14205739,0.07738877,0.05429264,0.21418644,0.3719219,0.1277611,0.08223703,0.09631135,0.17401083,-0.047244202,-0.29183787,0.32372615,0.252999,0.08420833,0.04622807,-0.10286525,0.118039705,0.059485465,0.07623497,-0.05755564,0.09933293,-0.08518197,0.13729128,0.24947377,-0.08853406,0.017981803,0.09646152,0.060572878,0.03379757,0.21940847,-0.23831354,0.026388876,-0.07010723,-0.018829461,-0.07365155,0.06402493,0.35751638,0.09953282,-0.0580077,0.24601807,-0.015671594,-0.087982245,-0.042759236,0.0029775323,0.16119617,0.0078044496,0.1125222,-0.14625922,0.13090807,0.14530781,-0.0050107096,-0.0544501,0.22124493,-0.09464875,-0.2739327,-0.104193605,0.057057764,0.003385302,0.0764467,-0.16149561,-0.12306878,-0.3593555,-0.046378095,0.05358274,-0.0118440855,-0.09442795,0.099350534,0.07121321,0.2060956,0.13739063,0.0790063,-0.14179286,0.15268707,0.28862342,-0.092890725,-0.066024095,0.1966969,0.075834915,0.11332796,0.099650376,-0.055278372,0.02832525,-0.018009432,-0.34969673,0.10886529,-0.14952525,-0.034411814,0.24071631,0.22803019,0.21661638,-0.07048702,-0.10726938,0.04404635,-0.18406789,-0.008915817,-0.26082256,0.04269265,-0.12366927,-0.21666494,0.14836706,-0.07496522,-0.02276629,-0.010692726,-0.05921062,-0.28694704,0.22987455,-0.057084188,0.07505656,0.052999392,0.016583303,0.106880836,-0.31156075,0.039980225,0.121301904,-0.045720585,-0.188865,0.15552929,0.09893314,0.105969004,-0.08612179,0.059958607,-0.25558844,0.2822995,-0.017053716,0.08247828,0.08808876,0.3500002,0.0019260473,-0.07680828,0.30966,0.15711954,-0.11011734,0.19339289,0.0109143555,0.047094066,0.105362,-0.1443151,-0.13635443,-0.42224598,0.14091045,-0.114688784,0.0444885,-0.118276335,0.09689676,-0.023050686,-0.01669953,0.056769628,-0.047006458,-0.15141417,-0.20447421,-0.09184882,0.005215898,0.2221313,0.16744868,0.01112052,0.058813415,0.036728505,-0.03433569,0.010180229,0.04211119,0.044382613,-0.039950963,0.09106126,-0.23361917,-0.3006077,-0.08443446,-0.11761554,-0.08092564,0.053802688,-0.14049475,0.2384225,-0.1488161,0.19671418,-0.10488504,-0.03754454,0.33914042,-0.1658661,-0.12174289,-0.07127592,-0.026366124,0.03729814,0.09215629,0.06105469,-0.10007291,0.14136681,-0.051539507,0.27744263,0.17763454,-0.14133161,-0.089231335,0.3173101,0.0015794847,0.12174085,-0.013323925,0.058649413,0.17926736,-0.20563401,0.30770156,-0.19006471,0.045277514,0.22611722,0.2069499,-0.016650371,-0.048594505,0.2728283,-8.172186,-0.38425118,0.06302656,0.06991953,0.003008418,-0.089542285,-0.08918031,0.0004539724,0.11032041,-0.13145293,0.019102897,0.018554738,0.02676443,0.012110701,0.16627367,-0.092000194,0.1143199,-0.09416968,0.0015336075,-0.018604316,0.10049619,-0.04446499,0.05756732,0.09224292,-0.16390164,-0.042365577,0.17944582,0.021098485,0.037359904,0.12173358,-0.09597057,0.059857823,-0.09817377,0.033119008,-0.23740923,0.090499274,0.007643901,0.01843848,0.22448376,-0.09577798,-0.062279727,-0.23345503,-0.032776408,0.009277737,0.1951615,-0.02935286,-0.012571013,-0.121310085,-0.06425872,-0.06940521,0.20891948,0.13741037,0.06271815,-0.14911179,0.33090845,-0.16384181,0.033168267,0.33334538,-0.07214638,0.08698021,-0.0215766,0.20672464,0.06118295,-0.063840576,0.06805006,-0.0034223876,0.17434995,-0.02753783,-0.09116733,0.025559396,0.12797453,0.09507582,0.14438425,-0.07315608,0.112099804,0.17279282,-0.09252251,-0.019676708,-0.1770325,0.016467737,-0.18613903,0.07102165,-0.24880953,-0.022990184,0.14906064,-0.29712355,0.2802143,0.17966808,0.056435425,-0.054790676,0.19146302,0.06590354,-0.043095298,-0.100901306,-0.086863354,-0.008982574,0.08177144,-0.05369892,0.2877096,-0.033010934,-0.17554617,-0.14391509,-0.21860725,-0.0017070208,0.04825492,-0.16013306,0.19395095,0.26722598,-0.02497054,0.087304235,-0.0111456,0.08608676,-0.12739119,0.07249441,0.038576767,-0.16877776,0.03887291,0.042562734,-0.11932273,-0.040266212
VAL_5_A,-0.057754267,0.16479972,-0.04523736,-0.11118635,-0.03347807,-0.107192904,0.06823169,-0.10118767,0.031940814,-0.244049,0.04452247,-0.039565444,-0.0031833882,0.1589087,0.16182059,0.061425548,0.14898284,0.054955207,-0.05104222,0.21285169,0.03453095,0.115774006,0.047681596,-0.03510322,0.03858709,0.18480621,0.18877894,-0.23505764,-0.15435295,-0.052242737,0.25947618,0.016311776,0.02707989,-0.13439928,0.11017699,-0.061387096,-0.040420048,-0.046075184,-0.15941912,-0.012039864,0.022185432,-0.053662173,0.043853372,-0.044216953,-0.16975947,0.13788508,-0.05708098,-0.0014637058,0.05962814,0.085104816,-0.19393577,0.012263314,0.079007484,-0.25336105,-0.19184442,0.30401856,-0.06402931,0.17755306,0.00094107405,0.005265466,-0.009425247,0.053528953,-0.26964054,0.17843863,0.13253556,-0.13066047,0.14360677,0.028400948,-0.0984495,0.013229748,-0.011623917,-0.24242052,-0.09925018,-0.007905343,-0.1677541,-0.2152158,-0.059676528,-0.097436026,0.024623139,0.18762545,-0.01815091,0.17864034,0.17972013,0.029908022,-0.15009855,0.061579373,0.25423425,0.023383543,0.03272211,0.009219903,-0.10262697,-0.092584334,-0.05462806,-0.11720362,-0.24073046,-0.18658352,0.0013897778,-0.105575435,-0.020517489,0.074760325,0.08450952,-0.016252115,-0.06491298,0.04036509,0.15595883,0.01037007,-0.061135642,0.10699295,0.032824636,0.010315807,0.28851554,0.08862777,-0.21533439,0.13151656,-0.01872684,-0.06989591,-0.29569438,-0.16740942,-0.21958946,0.15457708,0.0073385313,0.012838556,0.12322088,-0.07679307,-0.00881453,0.097428486,0.17971939,0.1987336,-0.2938815,-0.12895457,0.1493553,-0.055509686,0.04465062,-0.23456901,0.36191085,-0.0055333483,0.10678305,0.06457237,0.090354554,0.0285471,0.26040706,-0.05417922,0.16632797,-0.02844246,-0.1267575,0.13589515,0.03244396,0.024507409,-0.06465792,-0.25986254,0.16518831,0.030270146,-0.024638869,0.20313202,0.20420127,-0.036134385,0.06712197,0.12259724,0.26333314,0.08994081,-0.064684555,-0.08138193,-0.098731995,-0.30952206,-0.0528496,0.037975952,0.016015384,0.07908377,0.0890603,-0.07678025,0.115173385,0.13629536,0.1410073,-0.028249787,0.12827168,0.017130608,-0.00650073,-0.17979491,-0.08813517,-0.12612683,0.13625798,0.020427853,-0.058219552,-0.15577678,-0.034360204,0.07668796,-0.042510808,-0.16152966,-0.22090062,-0.18843268,0.13976906,-0.08511593,-0.23470378,0.15060721,-0.015645985,0.08573177,0.055159163,-0.012574287,-0.07499487,-0.19565073,0.23297247,0.05864632,-0.04381266,0.03170943,0.02299036,0.04873443,-0.111057244,0.012611622,0.016190166,-0.015035205,0.15013891,-0.17880483,0.14830105,0.003057911,0.003106181,0.019432066,-0.107984275,-0.2953753,0.07913763,0.014652959,0.06200086,0.13943608,0.13042112,-0.07846929,0.06430992,0.2902323,-0.13264838,0.15108629,0.039182596,0.10274288,0.2657984,-0.2719706,0.07459922,0.089145854,-2.9137459,-0.13030142,-0.001594663,-0.06854342,-0.13797158,-0.005213837,0.017497756,0.040339433,0.0413576,-0.026403625,-0.25474808,0.090341,0.14390326,0.07614182,0.046486408,0.11873601,0.07179888,-0.010927645,0.13322622,0.11158888,-0.12228722,-0.08969174,-0.30324364,-0.02676706,0.124991804,-0.34040755,0.08495841,-0.12903486,-0.032887544,-0.009938631,0.007718624,-0.20641048,0.16593865,0.032458015,-0.066955,0.24543664,0.08267805,0.012245007,0.039211262,0.039951112,0.14301182,-0.215521,-9.5317555e-05,-0.027031679,-0.25172725,-0.07309827,-0.15689465,-0.10421416,0.20307434,0.2194651,-0.13777307,-0.03274072,0.00044401124,-0.035952426,-0.19457607,-0.01274674,-0.10451227,-0.043780606,0.08085314,0.10993973,-0.14333971,-0.0832237,0.09700842,0.12761687,-0.116906784,-0.078993246,-0.11610131,0.035121717,0.045077108,0.07835382,-0.109690875,0.14294614,-0.041551903,-0.14713848,0.079606675,-0.052322593,0.2533364,0.16786121,-0.048078246,-0.14763196,0.17198622,-0.06153184,-0.22458598,-0.06539706,0.050432988,0.14231627,0.111083336,0.016983904,0.0550693,-0.046087634,-0.055362653,-0.02965783,0.032028385,-0.14752296,0.016998336,-0.23422347,0.038110666,-0.052204866,0.2660821,-0.05303191,0.05465781,-0.08948014,-0.005717047,0.2147898,-0.11652937,0.15626928,0.11982277,-0.1633883,-0.09798486,-0.16190393,-0.003685724,0.02129276,0.104782805,-0.004091623,0.10510783,0.09359083,-0.049960937,-0.12983592,0.20561022,-0.13528425,-0.22151269,0.34762916,-0.046972662,-0.11555144,-0.1354736,-0.003177738,-0.035733916,0.06780862,0.11168818,-0.022067292,-0.17797823,0.09593369,0.017705487,-0.15464582,-0.040464595,-0.20899758,-0.17778304,0.31426334,-0.23265797,-0.20506229,0.29368055,0.012392904,0.14413475,-0.10195138,0.3090671,-0.020553108,-0.029910222,-0.109717004,-0.10021822,0.086427115,0.017918836,-0.16677897,-0.06916699,0.13191976,-0.02884844,0.118996985,0.07975542,-0.0035528434,-0.111857004,-0.13159733,-0.2541971,-0.27393636,0.33717307,0.1661715,-0.33860832,-0.17321001,-0.10840599,0.06857946,-0.06673024,0.033713125,-0.21935421,0.06437691,-0.09255026,-0.09129493,-0.102824226,-0.06146865,0.06480496,-0.09608091,0.22084653,-0.02599873,0.06533687,0.28316072,0.107357934,0.19097362,0.26844484,-0.05306878,-0.17003387,0.10986013,-0.32200733,0.11333825,0.19030419,-0.026547056,0.20139562,-0.19225869,0.04336532,0.085355125,-0.19023576,0.2158478,0.09184013,0.03685811,0.021871414,0.16302374,-0.08713411,0.047050297,-0.16131917,0.11026354,0.04503787,0.17060237,-0.15455821,-0.056571003,0.08172252,0.012595514,-0.10761134,-0.001936853,0.0868951,0.17083414,-0.008803991,0.1738021,0.12759653,-0.029157871,0.025569346,-0.008657268,0.075678766,0.10751827,0.026203629,-0.07776873,-0.012487155,0.034902975,-0.18492956,-0.25034198,0.061753284,-0.043365933,0.007503575,0.036594067,0.058546636,0.022517387,0.0023045738,0.077960655,0.03218508,0.07831945,-0.008354316,-0.12700477,0.0063561155,0.09100386,0.03140288,-0.03861356,-0.1567309,-0.10672114,0.04352063,0.000104100865,-0.0132174585,0.1853955,0.033482075,-0.050424777,-0.20206116,0.010833076,0.079428874,0.14629412,-0.2521323,-0.07216144,-0.13927461,0.23773082,-0.20497076,0.173671,0.035916794,-0.1250233,0.057041086,-0.24885106,-0.10758718,0.22370875,-0.14399381,-0.11442778,0.13681786,0.2461005,-0.057337724,-0.16517915,0.058508508,0.04376218,-0.09960217,0.1814591,0.1282321,0.07930446,0.188681,-0.06797335,0.17516808,0.150167,-0.031672467,-0.11362832,-0.08693051,0.08120178,-0.0918615,-0.1291683,0.081849866,-0.000339362,0.01346214,0.011603122,0.028031485,0.08006943,0.060425956,-0.1034637,0.047606066,-0.09291298,-0.09776669,-0.07714556,-0.23004723,0.12285574,0.016678361,0.14771077,0.18944691,0.2995395,-0.16239437,0.036669992,0.114707105,-0.01722354,0.1649526,0.09064264,-0.07627233,0.26665154,-0.056347534,0.18709376,-0.007697509,-0.0722658,-0.04565148,0.036064744,-0.17320363,-0.026412912,0.015186548,-0.07279328,-0.030820023,-0.1050169,0.070983805,0.062110014,0.15609868,0.13475685,-0.024893478,0.08298386,0.05957896,0.16039842,-0.058004368,-0.18605112,-0.0054474585,0.11868379,0.085360125,-0.17583865,0.038263414,-0.044665646,-0.028289465,0.17149758,-0.0384747,-0.07266998,0.10233134,-0.13118003,-0.07522928,0.13375103,-0.07425593,0.0885036,-0.25163507,0.12329565,0.05265532,-0.18243648,0.01370309,0.028660817,0.005819283,-0.2400787,-0.42632517,-0.019585159,0.07138121,0.005874362,0.07888028,0.0007474897,0.19750452,-0.10254644,0.055094406,0.026739536,-0.038089987,-0.053694993,0.20928581,-0.09124228,0.1028647,-0.1612076,-0.021483792,0.24482381,0.062250197,0.07586124,-0.22957595,0.030924175,0.17889085,0.14353234,0.028245054,-0.050698277,0.11402224,-0.003585503,-0.16842178,-0.12731773,0.13928337,0.044707336,0.15821703,-0.02923679,-0.02257319,-0.13046561,-0.0007038338,-0.029966798,0.1142857,-0.068126135,-0.05729578,0.04648338,-0.36188054,0.21707548,0.11896001,-0.0021555503,-0.014720927,-0.0047279513,-0.034554478,-0.16080385,0.18664247,0.26735887,-0.1561668,0.1282556,0.08264858,-0.0609641,-0.18581527,0.06355099,-0.060107794,0.07112196,-0.19795802,-0.042530373,-0.01162604,0.06480113,-0.20576751,0.19799279,0.1529728,-0.06436792,-0.11544884,0.049439296,0.11069993,0.033314936,0.2595057,-0.23859578,-0.17269084,0.24280623,-0.001469499,0.03953596,-0.13877606,0.049816106,0.24078481,0.018217139,-0.05186044,0.2565311,0.06587332,0.10347327,0.010380596,-0.11034731,-0.012978015,0.15735525,-0.21638624,0.112681314,-0.015030543,-0.00287515,0.08317287,-0.12625033,-0.10625403,0.053507194,0.14191888,-0.17654648,0.076740116,0.20734109,0.17268753,0.04328038,0.03588203,0.28168488,0.0116159655,-0.2039093,0.28764173,-0.014711525,0.20303516,0.14618532,-0.060182404,-0.026541669,-0.02332534,0.055002972,0.15081246,0.21919575,0.29781097,-0.18825105,-0.21405134,0.21824603,0.11629538,0.03682343,0.0429003,-0.11163055,-0.0036398717,-0.017634632,-0.11289851,0.06333757,-0.008412812,0.10659778,-0.0115231,-0.15357655,0.057426568,0.07032269,-0.021892283,0.029042235,0.3014826,-0.026064979,-0.08049639,0.09251105,-0.17808688,0.21628955,0.07528032,0.006910387,-0.092505194,-0.052193206,-0.0066177747,0.045622,0.0369579,0.3203002,0.100192316,0.17650262,0.073130056,-0.15726684,0.13405177,-0.18570788,0.11856741,-0.10533587,-0.1155295,-0.08700956,-0.12184421,0.11487592,0.08951922,-0.067258716,-0.05310395,0.08937226,0.03962598,-0.10528421,0.030854736,-0.07769173,0.22616066,-0.32465398,0.0761077,0.16089265,-0.072606646,-0.034350332,0.032619413,-0.2059426,-0.090594515,0.076750286,-0.14725375,0.11133912,0.07405791,-0.008238663,-0.030679973,0.0013700546,0.28719246,-0.018005062,0.08733775,0.01859419,0.057045426,0.1758921,-0.23226392,0.33190355,0.057901025,0.15679103,-0.007880216,0.069442086,0.06228089,-0.048127357,0.04343029,0.05551387,-0.0017988099,-0.20128354,-0.08481882,0.015280961,-0.034121193,-0.07900675,0.1071735,0.11827761,-0.13594876,-0.107080564,-0.16216166,-0.06933284,-0.24375068,-0.028280463,-0.25272778,0.3060801,-0.046835717,-0.017222064,0.20836864,-0.044571035,-0.072554044,-0.12679219,-0.1093921,-0.033913363,-0.0886375,-0.11981223,-0.02860186,0.17709243,0.08038466,0.0047475733,0.05062429,0.069911934,0.10687847,0.2269326,0.34473762,0.12960726,0.17790048,0.15381533,0.12118628,0.015684882,-0.04381796,0.026682775,-0.006591385,0.23774776,0.028253112,0.275445,0.14676149,-0.17808768,0.046877645,-0.08511743,0.013941468,0.023734469,0.09507038,0.019015968,0.131679,0.062745005,-0.040552024,0.17692906,-0.016585384,-0.037175853,0.070809,-0.04614076,0.08212999,0.044256028,-0.21950306,-0.15024175,-0.09177445,-0.19516274,0.18060082,-0.008523198,0.04811617,0.0190736,-0.22150975,0.18222137,-0.64317346,-0.08877006,0.027719213,0.1600875,-0.044863816,0.08438833,0.055893753,0.14572223,0.19830678,-0.10675252,-0.045041263,0.040447842,0.16144857,0.09665631,-0.10494322,0.027228195,0.18840574,0.26506585,-0.21085382,0.11939664,-0.041785695,-0.0746411,0.0573005,0.09625123,-0.08661922,0.05186716,0.05023141,-0.031786665,0.16531594,-0.09107328,-0.13963334,-0.26235703,-0.05766807,0.21295229,-0.004993774,0.161214,0.21463655,0.010824835,-0.08837586,0.021587737,0.033199746,-0.07004593,0.012135013,-0.03974686,0.040381256,0.13708988,0.12709326,0.003950132,-0.07812394,-0.13625163,0.0739383,-0.05517,0.0737361,-0.22451982,-0.0857928,-0.020538239,-0.29718694,-0.37108898,0.34575373,-0.042941384,-0.06647088,-0.07732547,0.17863749,-0.15651368,-0.025598431,-0.07222689,0.09955168,-0.069387786,0.18545501,0.026706202,-0.09060649,-0.034176506,0.0034840894,0.074004754,-0.04203251,-0.1130939,0.044757787,0.09458602,-0.17449701,0.05703042,-0.018292816,-0.12842281,0.09957492,-0.0809315,0.1285419,0.108210385,0.16009937,0.028515855,0.12964714,-0.16634001,0.27191868,0.027709197,0.27572638,0.048379105,-0.033205807,0.26858425,-0.08305152,0.0146423085,-0.0105752945,0.1390175,0.017589962,0.2474984,0.034826048,-0.18526591,-0.19120403,-0.03416547,-0.08693482,0.11223411,0.19268581,0.026763907,-0.071052365,0.042120278,0.0031991976,0.094702475,0.00060837646,-0.22228703,-0.08418769,-0.0061975173,0.15421575,-0.022188062,-0.09103859,-0.0405189,0.31194732,0.2904849,0.1287878,0.34018964,-0.012703298,0.3237991,0.045952946,0.11655204,0.044289097,0.26406664,-0.096061975,0.07968748,-0.047004502,0.058315516,-0.17346914,0.10441502,-0.014761986,0.09861662,-0.112871,0.18545823,0.04677261,0.087237604,-0.039549146,-0.14923497,0.2537811,0.05065353,0.12544286,-0.21267612,-0.056235384,0.048296407,-0.27095997,-0.108349375,-0.09448872,0.10124003,0.15527205,0.0437946,0.027101714,-0.0012476105,-0.17194088,0.2006868,-0.35024235,-0.04998821,0.047032595,0.040014647,-0.1670163,0.042577766,0.033002537,-0.048445243,-0.15465653,0.049681142,-0.22023563,0.023297956,-0.059969824,0.0862908,-0.16490899,-0.14500868,-0.03519859,-0.04787418,-0.044371124,0.029694693,-0.072041996,-2.6962778e-05,0.082728796,0.036075924,-0.06380614,0.04658927,0.10830112,-0.05402506,0.1617422,0.3308448,-0.050732076,-0.11268578,-0.23966454,0.01986564,-0.05327502,-0.07834271,0.15475304,-0.08172766,-0.12787524,0.09515971,-0.118079245,-0.14573467,0.0064846603,0.15112998,0.042275164,0.09545048,0.2803472,0.03525137,-0.027218575,0.11013206,-0.04342976,-0.018665906,0.12736289,-0.06910555,0.058657818,-0.31374222,-0.0017954694,-0.046524018,0.030092131,-0.078696065,0.043983668,0.09605795,0.05938082,-0.046622038,0.16731758,-0.20819049,0.122833945,-0.26476184,0.11665711,0.18785197,0.0010538395,0.1959361,0.08059898,0.06160762,-0.09995735,-0.045733165,-0.24762334,-0.025711555,0.09893995,0.07855188,-0.052746147,-0.121508986,-0.004023309,-0.1042536,-0.16575125,-0.2810266,0.09939614,0.090387896,-0.118165225,-0.068173364,-0.13835888,-0.12025099,0.12411047,-0.17470166,-0.0657899,0.086528294,0.333207,-0.16175793,0.02320832,-0.032342277,0.021169897,0.14044991,0.20349915,0.15072359,0.041188058,-0.16667162,-0.028667985,0.1870475,-0.2600528,0.263113,0.06039501,0.0023614753,0.10440977,-0.00010014896,0.20801039,-0.0033910265,0.07694729,0.017118193,-0.18111552,0.17409804,-0.20232566,0.20781137,-8.409538,0.16856281,0.045161594,-0.11553676,0.08132131,0.07540648,-0.02334473,-0.087184675,-0.00044596393,-0.04236812,-0.06665661,0.107267365,0.05610809,-0.042097174,-0.1624032,-0.015601628,-0.04258562,-0.07695105,0.15056677,0.23814791,0.12034152,0.004938955,0.20278354,-0.17742929,-0.075062364,-0.0614197,-0.05283171,0.17095366,0.092534915,-0.052000046,-0.06260494,0.15182163,0.1383837,0.07497941,-0.1536388,0.028589705,0.15484726,-0.1721926,0.18251696,-0.22208321,-0.21799307,-0.007895178,0.07322519,-0.0918869,0.1454961,-0.11241539,0.11429732,-0.0758497,-0.031084156,0.07784167,-0.008455253,-0.021587415,0.021955825,0.17357726,0.22056182,0.030230096,-0.09140258,-0.008802484,-0.08707992,0.08374478,-0.11281696,0.23841132,-0.087122664,0.18618576,0.17603165,-0.04499328,0.013320193,0.13457243,-0.13504247,-0.10886299,0.13719255,0.19744,0.044036306,-0.12478547,0.14373936,0.061922338,-0.03502904,-0.025971893,0.0064950595,0.09082831,-0.13902298,-0.08127794,0.005787576,0.0064316383,0.5088913,0.02240731,0.15917856,0.07569982,0.007448036,0.021568555,0.046193384,-0.11916303,0.28869087,-0.20267344,-0.25656953,-0.06353488,-0.03175119,0.17175266,0.110339686,0.10917548,-0.20845585,0.22324367,-0.24200122,-0.06512548,0.0060002552,-0.05209102,-0.003767661,-0.0026130227,-0.07534474,0.08686965,-0.0031704302,-0.05270447,-0.1904324,-0.3718698,-0.17576517,-0.0117276115,0.038837194,-0.10934273,-0.04363096,-0.008791051
LYS_6_A,0.029479768,0.23595953,-0.0035926523,-0.016798824,-0.010981508,0.11138827,0.046894014,-0.08621811,0.14024232,0.060726274,0.004404074,-0.23019402,0.2141228,0.26128095,0.049758695,0.15617199,0.029211352,0.23205799,-0.06916387,-0.14717142,0.09721606,-0.03903514,0.23147844,-0.02256439,0.17418516,0.2885144,0.06404671,-0.3764736,-0.18238342,-0.009164391,0.08004201,0.12613738,0.026711076,-0.13732156,-0.09976551,0.24257946,-0.13628584,0.16581523,-0.170331,0.14425263,0.26869187,-0.2232106,0.38056085,-0.1924716,-0.21105285,0.19072825,-0.0002531597,0.20563905,-0.096650496,-0.05197892,0.0640945,0.0029271382,0.10474795,-0.08911811,-0.02076406,0.032371696,-0.021992393,0.06628115,0.22253805,-0.057894517,-0.0700767,-0.27190813,0.040595103,0.24795869,-0.0966602,0.042468242,0.409918,0.20873512,-0.07837235,-0.28520462,0.062879734,-0.17490484,-0.12066319,-0.08204894,-0.013541775,-0.2638975,0.20656382,0.09401616,0.02159208,0.083804965,-0.088529766,-0.040006693,0.015467047,-0.049408913,-0.03524647,-0.115182064,-0.11280979,0.25236276,0.22646794,0.04014649,-0.07901293,-0.12256288,0.018039666,0.09314493,0.0074526896,-0.10735033,-0.06957274,0.039619848,0.1959674,0.027771302,0.15027645,0.1688864,-0.09291879,-0.13007341,-0.13251287,0.03245444,-0.10353489,-0.23568384,-0.015032799,-0.05583179,0.18085673,0.034197357,-0.1896598,0.137725,0.16565272,-0.22532286,-0.01927588,-0.17035718,0.022616977,0.12722328,0.11001951,0.0366569,0.38121286,0.0010171045,-0.31484744,0.03982286,0.05335566,0.21784241,-0.06799712,-0.11221635,-0.029190812,-0.10590309,0.114033125,0.16475742,0.11126928,0.052256454,0.042962126,0.1488611,0.31986842,-0.0050989124,-0.022859663,-0.23597422,-0.09584204,-0.20915005,-0.089285605,0.26157355,0.20361662,0.259663,-0.08725153,-0.18884827,0.23052987,0.18320544,-0.22190899,0.057175543,0.10891151,-0.2772464,0.019403052,0.12473059,0.09181757,0.14204508,-0.30967078,-0.08847949,0.15756728,-0.08710752,-0.29739156,-0.08936183,-0.1353462,-0.05105767,-0.086993076,0.13362081,-0.20489499,0.106033586,0.11917415,-0.057810366,-0.056780506,0.10637591,0.0076041943,-0.19974232,-0.45388258,-0.31581277,0.1434479,0.10995871,0.061497446,0.24437031,0.020736463,0.31763035,0.14195332,-0.22183155,-0.10818795,-0.30538502,0.115285024,-0.027017951,-0.16090125,0.026087787,0.018136352,0.088956915,0.14153695,-0.044848356,-0.0015686759,0.19897746,-0.012684047,0.058655787,-0.22026186,-0.08032972,0.013351118,0.1739484,0.11192005,-0.48904294,-0.17957242,0.119611144,0.24289493,-0.3745956,0.20509952,0.21425217,-0.17579824,0.33239394,-0.18010429,0.15548177,0.21819898,-0.059534017,0.07925739,-0.022454435,0.18359378,-0.1324017,0.16046564,0.113397375,0.27822608,0.07826525,0.049445566,0.5286225,-0.21689847,-0.06691303,0.10217239,0.1099974,-3.364416,0.028918566,-0.16697758,-0.018061113,0.12013898,0.03570831,-0.15924606,0.24144343,0.058933236,0.15588476,-0.050206106,-0.09411484,0.24349311,0.046048958,0.15667003,0.004176032,0.0067552524,-0.01691196,0.16508192,-0.064806335,0.34595487,0.070794106,-0.29766095,0.082672216,-0.23132601,-0.053323653,-0.1615306,0.09280689,0.15909085,-0.21901923,-0.0385578,0.000864895,-0.037819117,-0.2325161,-0.19361055,0.26924363,0.046497986,-0.09993336,0.08714246,0.004953094,0.11974846,-0.3034767,-0.02123755,-0.020590806,-0.060389776,0.4186448,0.005625166,0.24003829,0.2805817,0.17070332,0.08366619,-0.007924454,-0.12756719,0.08265545,0.41588718,0.28288287,-0.17998177,-0.08338811,0.19660105,0.23344329,-0.34166473,-0.10413894,-0.2949801,0.016075881,-0.1951437,-0.012340141,-0.134451,0.010826749,0.065710045,-0.020488499,0.015251103,0.008919258,-0.22280939,-0.3180477,0.08816011,-0.12028653,0.046206493,0.14016579,-0.10761062,-0.16339132,0.032674722,0.09299425,0.046764128,-0.08621008,0.048537772,-0.04247531,-0.007365456,0.09986706,0.3671522,-0.18973064,-0.00039006324,0.011405747,0.077728525,0.042032797,-0.077317916,0.08138951,-0.06168461,0.04980947,0.07282438,-0.0037365183,-0.30154356,0.10597033,0.12289119,-0.006004718,-0.056880593,0.20774952,0.076758385,-0.10577072,0.07827544,-0.1281363,0.114105746,-0.014268524,-0.28678948,-0.10519543,-0.1294338,0.12140326,0.020579262,0.054728895,-0.018922992,-0.09872555,0.1807266,0.060681608,-0.3625461,0.053921685,-0.23038487,-0.050551515,0.15553473,-0.12392182,0.26745477,-0.07380009,-0.05852409,-0.28334725,0.1315898,-0.09724779,-0.06677092,-0.1566657,0.37725616,0.27944762,0.015126548,0.014890405,0.1519023,0.14397055,0.16279939,0.08561659,0.3472409,0.100825004,0.018392392,-0.17036134,-0.3155284,-0.001728612,0.27270174,-0.124760695,-0.11093454,0.026192723,0.07811479,0.20162098,0.039816633,0.081864394,0.069859944,0.24118899,-0.026889257,-0.5190697,0.1277879,0.16882542,-0.19958238,-0.14206892,-0.05672298,-0.027196823,-0.01776417,0.046427935,0.060792863,-0.10006712,-0.22575235,0.16262622,0.31956583,-0.1789526,0.1445392,0.09196807,0.07966948,0.046201844,-0.17708108,-0.020771436,0.16945378,0.35422823,0.2249186,-0.25935468,-0.3902123,-0.029704135,-0.34350565,0.10459426,0.1107077,-0.37236354,-0.29004708,0.124437205,0.29941463,0.11151525,0.110314384,0.22625384,0.23978138,0.22947028,-0.3200345,-0.023365974,-0.01983072,0.115284115,0.016207261,0.028383479,0.04037189,0.16279612,-0.17739245,-0.3376687,-0.16063727,-0.21842366,-0.062209032,0.2307854,0.023665365,-0.036866523,0.096477814,0.42479497,-0.23081471,0.18210731,-0.10218412,0.120312944,0.09844822,0.069145694,-0.10995052,-0.030720785,0.14128134,-0.022416543,-0.027786072,-0.3551351,0.2999472,-0.23261243,-0.13499671,0.663047,0.21541187,-0.10154973,0.15707581,-0.013263389,-0.08152023,-0.1332908,0.0068590115,-0.06428291,-0.03252819,0.07671699,-0.029924095,-0.040508848,-0.31842425,-0.006160883,0.16352029,-0.09539861,0.0328918,0.23856498,0.18399197,-0.09447899,0.19195426,-0.07083655,0.04023926,0.17616121,-0.15944557,-0.3668531,-0.21440801,0.14736791,-0.007518387,0.05042903,-0.032153975,-0.025055489,-0.22893897,-0.20649101,-0.16596977,0.108758464,0.15653966,0.14058138,0.145606,0.08308088,-0.2516586,-0.07556551,-0.077492364,0.02348535,0.075234465,0.13524069,-0.18389814,-0.024004132,-0.25234592,0.15984493,0.22072084,0.01846162,-0.06993753,-0.0029510013,-0.014930954,0.42585203,-0.34325415,-0.13251233,0.1732729,-0.070044614,-0.08680702,0.073872745,0.050259825,0.0029184385,-0.14606299,-0.003786832,0.007040401,-0.18225257,-0.038016327,-0.018648088,-0.15561344,0.28642657,-0.13880959,0.0540084,-0.14285503,0.039270323,-0.32229704,-0.024547528,0.25523317,0.040252537,0.31994396,0.13445391,9.713168e-05,-0.0018760521,-0.057061277,-0.10364336,-0.18066493,-0.13280694,-0.086263254,-0.12560971,-0.05132174,-0.02652393,0.10317431,-0.049377855,-0.16035451,0.1319314,0.11689612,-0.14547093,0.059221115,0.37455943,-0.06287335,0.08484166,0.35125673,-0.0233655,0.017794333,-0.18437521,-0.22530773,0.051110893,-0.25666082,0.19204165,0.032620545,-0.0014476029,0.05847012,-0.10368595,-0.057701558,-0.06605672,0.0007155547,0.14938334,-0.10473462,-0.059674416,-0.17877872,-0.084882684,-0.042396262,0.085941404,0.031977978,-0.058947816,-0.04300943,-0.1618375,-0.2317453,-0.17462659,0.086613216,-0.1963501,-0.17495337,-0.23669006,0.267493,0.08922509,0.24378967,-0.06298274,0.12676461,0.030071089,0.000622805,0.07726979,0.039413914,-0.021952383,0.098492615,0.046993323,0.2567994,-0.20448694,0.15720324,0.19414678,-0.16290683,0.25251785,-0.1260013,-0.020705422,-0.21756402,0.10199441,-0.05190109,0.09335684,-0.14752768,-0.39293605,-0.17339718,0.06517596,0.045425013,-0.104525164,-0.0689054,-0.08803625,0.1166556,-0.17114115,0.14052084,0.3882481,0.09509363,-0.09258561,-0.32079378,0.20676878,0.0100006545,-0.091671005,0.15290019,-0.20766257,-0.007351552,-0.36998728,0.19035104,0.1562562,-0.0359551,0.025922684,0.15578796,0.2405955,0.124416515,0.07121062,0.13903919,0.13279434,-0.19529839,-0.01319566,-0.07539336,0.09894687,0.2110419,-0.02517291,0.13986388,-0.04829802,-0.045433804,0.093248904,0.44975546,-0.23229824,0.019032076,-0.15335459,0.122470826,0.10924295,-0.10564904,-0.08896931,0.12621379,0.015644893,0.3175348,0.21814907,0.012042794,0.015897509,-0.042288084,0.2506022,-0.0228644,-0.024231764,0.06659696,0.14180218,-0.050905086,0.18858412,0.04618895,0.12227068,-0.05174189,-0.017035661,-0.17257154,0.07902937,-0.16782224,-0.13215964,0.057710864,0.12536533,0.2344073,-0.074248515,0.04220325,0.038882256,0.04072506,-0.1398346,0.06322595,-0.18691945,0.17753462,0.05457923,-0.029114671,-0.09206524,0.10255849,-0.035181727,-0.20751326,-0.055037994,0.21233419,-0.07337802,-0.24202359,-0.1899109,-0.06891216,-0.14266986,-0.12711993,-0.19231978,0.14354225,-0.019220142,-0.11691406,-0.10419121,-0.22653276,0.29709342,0.0389402,-0.049735673,-0.098459266,-0.09887707,-0.039498005,0.064606674,0.53864235,0.21955101,0.112209596,0.0043122103,-0.050708942,0.18054858,0.12959284,-0.15219721,-0.008957382,-0.14020352,0.041692264,0.2321176,-0.05779237,0.27690676,0.19855778,0.07791752,-0.14336517,-0.2964119,-0.009329129,-0.31603527,-0.13949293,-0.13040593,-0.2675625,0.027880678,0.15872402,0.11496563,0.017212687,0.07467025,-0.0699956,-0.04418222,0.1798232,0.0029217396,0.48836622,0.019044178,0.23204029,-0.14868647,-0.086975895,0.13513911,-0.08949625,-0.4395639,0.0043139337,-0.26031014,-0.11699859,0.24239016,0.37307277,0.2478442,0.090289794,0.15271574,0.07653426,-0.28167775,-0.050654236,0.13264033,0.045382272,-0.015034902,0.10564131,-0.16482565,0.12413471,0.026999706,-0.066687845,-0.022653297,0.14137113,0.028112872,0.11770889,0.019673642,-0.02444789,-0.009511179,0.32883886,-0.029814465,-0.11877954,0.16144773,-0.16515608,-0.06824719,0.21760632,-0.009161742,0.20537695,-0.0063826777,-0.13003783,-0.043599784,0.08061863,0.09819075,-0.08855065,0.1825475,0.07046494,0.011480732,0.23228139,-0.14544293,-0.12543307,-0.00030046958,0.098513484,-0.07725466,-0.30401683,-0.22153418,-0.16544746,0.012030864,-0.22724348,0.024669388,0.118883595,0.08575247,-0.12341947,0.24746974,0.20243089,0.1014226,0.11491228,0.10205981,0.2853976,0.09622178,0.20546085,0.05890696,-0.08651426,0.19382493,0.020055523,0.16678987,0.1152907,0.07078746,-0.055191014,0.03115117,0.043947022,-0.1431507,0.08673562,0.23342338,0.06847638,-0.012678956,-0.051154505,0.34733683,-0.09353303,-0.33677807,-0.05413376,0.05466802,-0.21606362,0.052031025,-0.23403163,0.21087974,0.015212802,0.06993368,0.19415641,-0.13766158,0.15222621,0.002141764,0.14680289,0.15957442,0.53248775,-0.11582502,0.20708457,0.11524994,-0.24461426,0.123362,0.32663473,-0.002403946,0.16297413,-0.030591486,0.1374081,0.113890365,0.0901978,-0.0020044988,0.10003971,-0.02584979,0.14571859,0.12257073,-0.029005976,0.077040166,0.32192788,-0.26412335,0.25670636,0.26924473,0.07498972,0.066365145,0.006819282,-0.074126884,-0.061238937,-0.06435823,-0.33659777,-0.07159392,-0.10341623,-0.11081998,0.01952593,0.2438998,0.06538052,-0.14605281,-0.05705564,-0.15299845,-0.054865725,-0.02842708,0.33706596,-0.09573497,-0.08939292,-0.0029185037,-0.019196494,-0.10622888,-0.14423804,-0.13256267,0.07008625,-0.3142968,-0.21715225,0.2123526,0.13092262,-0.18997137,-0.23163183,-0.10460373,-0.044325706,-0.0692392,-0.030796004,-0.13158047,0.046305045,-0.010386084,0.13147815,-0.055529047,0.20611519,-0.008953703,-0.02727297,0.060889572,0.22355908,-0.16078344,-0.00035836146,0.033661537,0.22452663,-0.06408358,0.06000731,0.094265364,0.08631871,-0.17395413,-0.06825833,0.054401875,0.13987784,0.1623974,0.16575254,0.024161555,0.166106,0.047390435,-0.28814435,-0.22270401,0.3262286,0.1887208,0.06677268,-0.11229238,-0.2724635,0.14871314,-0.07975174,-0.05968766,0.00036922132,0.19305402,0.0765256,0.04538153,0.07670205,-0.0624621,0.033294983,-0.09462249,-0.072495356,-0.0054947566,-0.09979954,0.11100618,0.17839901,0.120739326,-0.040414758,-0.034513015,-0.0025164105,-0.048610337,0.056454916,-0.046326213,0.17679398,0.04608202,0.11313253,-0.17784354,0.04890447,0.38442734,0.021122301,0.038975716,-0.10634576,0.12607619,0.25046995,0.29100114,0.30362505,-0.020008486,0.022939272,-0.2728685,0.14124319,0.11872958,-0.04428268,-0.076932274,-0.03190123,0.19609246,-0.27113008,-0.11722928,-0.13607828,0.023812206,0.103647865,-0.024951424,0.10120892,0.2122804,-0.04816431,0.037536994,-0.1301927,0.0547091,-0.07395635,-0.061363585,-0.1864176,0.14329226,0.019492088,0.28866172,0.13720767,0.061894264,0.13650794,0.001557756,-0.20677628,0.0024709436,-0.01930695,0.18240373,0.32136923,0.16516055,0.060165025,-0.090410545,-0.10383405,0.24810946,-0.11322209,-0.06789943,-0.23123181,-0.21195994,-0.21740714,0.009273856,0.13183318,-0.011857821,0.073998004,-0.07216804,-0.10142783,-0.17185523,0.14860411,0.10572933,-0.062454518,-0.1199037,0.25661913,0.121046916,0.058732983,0.07839045,-0.24795632,-0.13262771,-0.3969063,0.14856021,-0.16434936,-0.026897332,0.25994843,-0.02717282,-0.18513566,0.23488215,-0.06983745,0.17142342,-0.07752588,0.07512488,0.007686464,0.0019414955,0.20560108,-0.13469218,-0.19626287,-0.04019216,0.010820532,-0.08133754,-0.10829763,-0.06200401,-0.24807945,-0.34336033,0.23400483,0.19197126,0.00044205735,-0.06523687,-0.07118572,0.63274527,0.008229067,0.023478128,0.14911544,-0.17384516,0.18204705,-0.26784852,-0.12448818,0.12139324,-0.0988988,-0.19095261,0.0025955844,-0.0431599,0.18634307,-0.10562029,-0.16313034,0.100626945,-0.09451177,0.053065777,-0.2122833,-0.16804202,-0.05686745,-0.2928568,-0.049901564,-0.11918951,-0.055985514,0.14186233,-0.33035165,-0.1887386,-0.27125663,-0.12773725,0.2168684,-0.089402415,-0.15238415,-0.035035573,0.1715576,-0.05602487,-0.2925755,-0.027127283,0.14214383,0.27635813,0.23465809,-0.03917761,-0.16022259,-0.29477644,-0.18903306,0.00944175,0.044074878,-0.04954164,0.038432624,0.022233702,-0.13990508,-0.048358656,0.32907817,0.037444673,0.08349258,0.045489095,0.26896107,-0.25509,-0.19426692,0.16765794,-7.4039845,-0.22519994,0.28774157,0.11622806,0.055826224,-0.026237568,0.19957194,0.09388735,0.094702646,-0.19478087,-0.068108454,0.14015973,0.13365306,-0.020046119,-0.11621224,-0.21966426,0.2402772,0.07272568,-0.2957191,0.07705919,-0.14405224,-0.03600558,0.10866616,-0.064795405,-0.07380358,-0.0758752,-0.030670289,-0.1476435,0.07484314,0.30642232,-0.24318118,-0.12649451,-0.018183164,-0.16515112,0.14938053,0.124072656,-0.0006264813,-0.31217518,0.22504884,-0.26734227,-0.02588522,-0.103944905,-0.2478521,0.28361395,0.23418057,-0.16189307,0.039284345,-0.058551654,-0.22104163,0.028682156,0.099173784,-0.12458722,0.012786179,0.1557595,-0.0162298,-0.028280696,-0.19106895,0.28684393,-0.14274333,-0.32228124,0.09351863,0.31829298,0.027969025,0.17090365,-0.18851523,0.02265357,0.16931558,0.21933796,-0.122655705,-0.05176209,0.17079696,0.38941848,-0.10254723,0.07795398,-0.09612,-0.006263454,0.0002680671,-0.40083364,0.176434,0.18569738,0.09089219,-0.09275173,-0.3478299,0.27230194,0.2796382,-0.19005464,0.24752945,-0.011538663,-0.07000794,-0.27303448,0.10527936,-0.21096256,0.21578503,-0.11399114,-0.18202043,0.103082076,-0.028141143,-0.059999343,0.3584794,0.2842827,-0.008814041,0.023767281,0.049859308,-0.033767443,-0.0049502486,-0.043328863,-0.019385396,0.008245527,-0.010312585,-0.2706841,-0.2414914,0.08761081,-0.029301506,-0.17881942,0.17521377,-0.3249595,-0.06673893,-0.06164916,-0.14017305,-0.19846338
