residue_id,0,1,2,3,4,5,6,7,8,9,10,11,12,13,14,15,16,17,18,19,20,21,22,23,24,25,26,27,28,29,30,31,32,33,34,35,36,37,38,39,40,41,42,43,44,45,46,47,48,49,50,51,52,53,54,55,56,57,58,59,60,61,62,63,64,65,66,67,68,69,70,71,72,73,74,75,76,77,78,79,80,81,82,83,84,85,86,87,88,89,90,91,92,93,94,95,96,97,98,99,100,101,102,103,104,105,106,107,108,109,110,111,112,113,114,115,116,117,118,119,120,121,122,123,124,125,126,127,128,129,130,131,132,133,134,135,136,137,138,139,140,141,142,143,144,145,146,147,148,149,150,151,152,153,154,155,156,157,158,159,160,161,162,163,164,165,166,167,168,169,170,171,172,173,174,175,176,177,178,179,180,181,182,183,184,185,186,187,188,189,190,191,192,193,194,195,196,197,198,199,200,201,202,203,204,205,206,207,208,209,210,211,212,213,214,215,216,217,218,219,220,221,222,223,224,225,226,227,228,229,230,231,232,233,234,235,236,237,238,239,240,241,242,243,244,245,246,247,248,249,250,251,252,253,254,255,256,257,258,259,260,261,262,263,264,265,266,267,268,269,270,271,272,273,274,275,276,277,278,279,280,281,282,283,284,285,286,287,288,289,290,291,292,293,294,295,296,297,298,299,300,301,302,303,304,305,306,307,308,309,310,311,312,313,314,315,316,317,318,319,320,321,322,323,324,325,326,327,328,329,330,331,332,333,334,335,336,337,338,339,340,341,342,343,344,345,346,347,348,349,350,351,352,353,354,355,356,357,358,359,360,361,362,363,364,365,366,367,368,369,370,371,372,373,374,375,376,377,378,379,380,381,382,383,384,385,386,387,388,389,390,391,392,393,394,395,396,397,398,399,400,401,402,403,404,405,406,407,408,409,410,411,412,413,414,415,416,417,418,419,420,421,422,423,424,425,426,427,428,429,430,431,432,433,434,435,436,437,438,439,440,441,442,443,444,445,446,447,448,449,450,451,452,453,454,455,456,457,458,459,460,461,462,463,464,465,466,467,468,469,470,471,472,473,474,475,476,477,478,479,480,481,482,483,484,485,486,487,488,489,490,491,492,493,494,495,496,497,498,499,500,501,502,503,504,505,506,507,508,509,510,511,512,513,514,515,516,517,518,519,520,521,522,523,524,525,526,527,528,529,530,531,532,533,534,535,536,537,538,539,540,541,542,543,544,545,546,547,548,549,550,551,552,553,554,555,556,557,558,559,560,561,562,563,564,565,566,567,568,569,570,571,572,573,574,575,576,577,578,579,580,581,582,583,584,585,586,587,588,589,590,591,592,593,594,595,596,597,598,599,600,601,602,603,604,605,606,607,608,609,610,611,612,613,614,615,616,617,618,619,620,621,622,623,624,625,626,627,628,629,630,631,632,633,634,635,636,637,638,639,640,641,642,643,644,645,646,647,648,649,650,651,652,653,654,655,656,657,658,659,660,661,662,663,664,665,666,667,668,669,670,671,672,673,674,675,676,677,678,679,680,681,682,683,684,685,686,687,688,689,690,691,692,693,694,695,696,697,698,699,700,701,702,703,704,705,706,707,708,709,710,711,712,713,714,715,716,717,718,719,720,721,722,723,724,725,726,727,728,729,730,731,732,733,734,735,736,737,738,739,740,741,742,743,744,745,746,747,748,749,750,751,752,753,754,755,756,757,758,759,760,761,762,763,764,765,766,767,768,769,770,771,772,773,774,775,776,777,778,779,780,781,782,783,784,785,786,787,788,789,790,791,792,793,794,795,796,797,798,799,800,801,802,803,804,805,806,807,808,809,810,811,812,813,814,815,816,817,818,819,820,821,822,823,824,825,826,827,828,829,830,831,832,833,834,835,836,837,838,839,840,841,842,843,844,845,846,847,848,849,850,851,852,853,854,855,856,857,858,859,860,861,862,863,864,865,866,867,868,869,870,871,872,873,874,875,876,877,878,879,880,881,882,883,884,885,886,887,888,889,890,891,892,893,894,895,896,897,898,899,900,901,902,903,904,905,906,907,908,909,910,911,912,913,914,915,916,917,918,919,920,921,922,923,924,925,926,927,928,929,930,931,932,933,934,935,936,937,938,939,940,941,942,943,944,945,946,947,948,949,950,951,952,953,954,955,956,957,958,959,960,961,962,963,964,965,966,967,968,969,970,971,972,973,974,975,976,977,978,979,980,981,982,983,984,985,986,987,988,989,990,991,992,993,994,995,996,997,998,999,1000,1001,1002,1003,1004,1005,1006,1007,1008,1009,1010,1011,1012,1013,1014,1015,1016,1017,1018,1019,1020,1021,1022,1023,1024,1025,1026,1027,1028,1029,1030,1031,1032,1033,1034,1035,1036,1037,1038,1039,1040,1041,1042,1043,1044,1045,1046,1047,1048,1049,1050,1051,1052,1053,1054,1055,1056,1057,1058,1059,1060,1061,1062,1063,1064,1065,1066,1067,1068,1069,1070,1071,1072,1073,1074,1075,1076,1077,1078,1079,1080,1081,1082,1083,1084,1085,1086,1087,1088,1089,1090,1091,1092,1093,1094,1095,1096,1097,1098,1099,1100,1101,1102,1103,1104,1105,1106,1107,1108,1109,1110,1111,1112,1113,1114,1115,1116,1117,1118,1119,1120,1121,1122,1123,1124,1125,1126,1127,1128,1129,1130,1131,1132,1133,1134,1135,1136,1137,1138,1139,1140,1141,1142,1143,1144,1145,1146,1147,1148,1149,1150,1151,1152,1153,1154,1155,1156,1157,1158,1159,1160,1161,1162,1163,1164,1165,1166,1167,1168,1169,1170,1171,1172,1173,1174,1175,1176,1177,1178,1179,1180,1181,1182,1183,1184,1185,1186,1187,1188,1189,1190,1191,1192,1193,1194,1195,1196,1197,1198,1199,1200,1201,1202,1203,1204,1205,1206,1207,1208,1209,1210,1211,1212,1213,1214,1215,1216,1217,1218,1219,1220,1221,1222,1223,1224,1225,1226,1227,1228,1229,1230,1231,1232,1233,1234,1235,1236,1237,1238,1239,1240,1241,1242,1243,1244,1245,1246,1247,1248,1249,1250,1251,1252,1253,1254,1255,1256,1257,1258,1259,1260,1261,1262,1263,1264,1265,1266,1267,1268,1269,1270,1271,1272,1273,1274,1275,1276,1277,1278,1279
ALA_1_B,0.064767785,0.057516556,-0.21583389,0.004670378,-0.011863653,-0.28198138,0.2734818,0.034045294,-0.028131077,0.03366612,-0.07109965,0.44637838,-0.010406107,0.14042698,0.029782016,0.12691492,0.26542026,-0.022539094,0.023772536,0.28223056,0.14248691,0.03234826,0.07243463,-0.028770525,0.23007426,0.011536334,0.12941472,0.09370264,-0.18401802,0.007951096,-0.022848796,-0.011323739,0.3725272,-0.19721183,-0.01830286,0.201732,-0.0673388,0.29766333,0.043669414,-0.19524322,-0.016047634,0.2573962,0.11811478,-0.047475282,0.18864112,0.21630847,0.004281297,0.014001517,0.034406587,-0.0639437,0.22689268,-0.34679016,-0.17865478,-0.1291308,0.2024746,0.01858909,0.27192652,0.33734494,0.23137613,0.16080312,-0.25432292,0.34373313,0.17218174,0.029037526,0.059958357,-0.19020933,0.28480265,0.1187539,0.04219644,0.18351896,0.15682076,0.07516783,-0.18371764,0.048108134,-0.0594814,0.14608374,-0.12246013,0.18763404,-0.2686855,0.11609944,0.11396874,0.08780789,-0.056393445,0.01746564,-0.07087624,-0.023527056,0.051132813,0.071835585,0.19853252,0.1981752,-0.3625179,-0.32163447,-0.17044441,0.11943883,-0.30754903,-0.045543145,-0.0074883727,-0.021724243,0.011122666,-0.2516385,-0.018570121,0.13760737,0.16682857,0.037818506,0.00923828,-0.026717974,-0.32272646,0.26633462,-0.12344956,-0.11166564,0.2267494,0.25119916,-0.31258816,0.37725568,-0.18220857,-0.033624865,-0.18037648,0.46357492,-0.22956853,-0.21298432,-0.047593717,0.016211402,0.01113152,0.15978193,0.15583602,0.033082463,-0.17203102,0.020952635,0.09359252,-0.056143336,-0.15871264,0.33716303,0.0062507917,-0.21801858,-0.01474417,0.18455452,0.15712148,0.20007858,-0.019968608,0.11782031,0.0855747,-0.1682291,-0.036418658,-0.07980689,-0.012417213,0.062136505,-0.17088678,0.07378966,0.09255058,0.058674823,-0.4737424,-0.44135535,-0.033345453,-0.17548877,-0.07083691,-0.1610122,0.1087767,0.15182228,-0.14554599,-0.073035315,-0.0043774704,-0.23250347,-0.035097953,0.0871784,-0.13698597,-0.081353076,-0.23855169,-0.027828602,0.31446952,0.02825915,-0.38410574,0.070826575,0.33101186,0.13621709,0.19395377,-0.17477025,-0.06620523,-0.1837349,0.015533618,0.16246997,0.13440119,0.07929602,0.21460381,0.0249359,-0.013389144,0.26772472,0.06286832,-0.23201571,-0.12943514,0.13434075,-0.22171631,0.14859593,-0.27986762,0.05655375,0.35671592,-0.030795822,0.09521389,0.41168672,-0.2536283,-0.18191756,0.23115997,-0.20223002,-0.14199603,0.048240833,0.25956038,0.06403845,-0.16149285,-0.22892612,-0.0549477,-0.09887776,0.016102755,-0.0158609,-0.0035664593,-0.053516235,-0.08946496,-0.011483137,-0.08338591,0.091397636,-0.73622686,0.20891403,-0.22859782,-0.14953226,0.19837424,0.30353463,-0.110274985,-0.062427294,0.046547156,-0.13294001,0.040043354,0.29206878,0.02791683,-0.11820042,0.094374254,-0.1485242,-2.5180235,-0.05777701,0.22636345,-0.014950095,0.09423365,-0.42261082,-0.21349299,0.116590045,-0.100002445,-0.28828213,0.0767367,-0.23790921,0.121363685,-0.11218438,0.32625383,0.29698643,0.018840749,0.24145582,0.08166411,-0.16269185,0.16088523,0.122332186,-0.10154058,0.012717002,0.1771166,-0.108350314,0.10845656,0.044108905,0.05945127,-0.13869451,0.10595689,-0.021848883,-0.09038724,-0.08865696,-0.12129457,0.09951492,-0.10551209,0.0072759246,0.122228615,0.3254773,-0.03205901,0.020436823,-0.009718352,0.018576939,-0.06866569,-0.027431479,-0.123372406,-0.04840539,-0.001747587,0.33096924,-0.036183074,-0.1272764,0.14211379,0.24164678,0.08416085,-0.31655982,0.24208967,0.09212493,-0.23361292,0.082682535,0.1858726,-0.117230095,-0.043201704,0.11227775,-0.053166877,0.054176286,0.16693698,0.3080029,0.092859745,0.17415491,0.0138562955,-0.079801485,0.11796168,-0.10079696,-0.0997933,-0.27501196,0.24701083,-0.096743375,-0.08584807,0.22791284,-0.22639768,-0.20681429,0.12829868,-0.18380487,-0.27019182,0.11983679,-0.09786731,-0.31168804,-0.10134332,-0.13998623,0.13884701,0.15227708,-0.14404532,-0.20270935,0.098457426,0.12514748,0.20793878,-0.12654826,-0.10413069,-0.1843795,0.21949866,-0.0709049,0.07647262,0.106461555,-0.009800651,0.2097765,-0.03754684,-0.21008432,0.03995105,-0.26210898,0.06743107,-0.2720503,0.050416443,-0.008568848,0.33927816,-0.051344253,-0.06123713,-0.12181942,-0.1120096,-0.009257868,-0.17868951,0.03961577,-0.2328096,-0.020771202,-0.28231442,-0.14805017,0.25119314,-0.12326608,0.0142052695,-0.3356828,0.043640703,-0.045057066,0.037308134,0.21127011,0.19002502,-0.07379527,0.09700221,0.17830186,-0.14234026,-0.1582185,-0.034274645,0.26569423,-0.08546752,0.37422794,-0.0028330623,0.37239674,0.12079144,0.23704629,-0.25105914,-0.016031185,0.06593702,-0.17429127,-0.35955435,-0.024943557,0.00714328,-0.12501888,0.011873349,-0.11205849,-0.37232047,-0.036334906,0.18955171,0.03497461,0.23471013,0.2696377,0.039860852,-0.14573888,-0.4357412,0.23560694,-0.2334488,-0.08355898,-0.19732922,0.26856446,-0.05918552,0.09314247,-0.034113478,-0.014816947,-0.18374181,-0.11781933,-0.1480694,0.16706306,0.22604965,0.10930716,0.2490101,0.17807789,0.056785595,0.18288459,-0.118849486,0.08002952,-0.1551916,0.11951001,0.025975725,-0.0053187,-0.35325015,0.12073322,0.37191623,0.06237568,-0.12605678,0.16629341,0.21079633,-0.070472464,-0.13727343,0.0046158973,0.32570907,-0.12022471,0.045495845,-0.18334989,-0.13700403,0.16091727,-0.27251232,-0.16096254,-0.062100038,-0.12532447,0.121946685,-0.030395217,0.13281153,-0.38460308,0.090002075,0.27300924,0.28934166,0.057797775,0.029063594,0.06957964,0.19323148,0.26144773,-0.1158755,0.0134425685,0.10559117,0.14853762,0.33978483,-0.50806516,-0.060870714,-0.047763053,-0.20127255,0.30921477,-0.21288267,0.19865067,0.11977998,0.084282495,0.22683144,0.035421595,-0.030523106,0.14709167,-0.23678456,0.15547726,0.19897597,-0.042165738,-0.029853482,-0.08819978,-0.04865877,0.030213352,-0.038474277,0.14312148,0.21302925,-0.045894794,-0.018247854,0.16500379,-0.120711036,0.084426194,0.1410458,0.02721802,0.014392133,0.11508012,-0.32342294,-0.17928967,-0.0964248,-0.12658769,0.059684593,-0.06298907,-0.17866863,0.10649018,0.23329328,-0.07327614,0.016505377,0.20854513,0.17982134,0.19695067,-0.0030102485,-0.05977641,-0.08532344,0.057603363,0.0890584,0.051928032,0.1259987,-0.28589854,-0.027061274,-0.0265785,0.07572806,-0.08779487,0.1865668,-0.30275977,-0.11495611,0.15556766,0.21523684,0.00093952945,0.04784546,-0.054511387,0.07795725,0.41129214,0.056838397,-0.06793917,-0.1975735,-0.22050112,-0.08752247,-0.1656697,0.22109623,-0.016521694,-0.0836096,0.1032484,0.19767188,-0.19434687,0.07295297,-0.0194351,0.16472588,0.009832261,0.09108481,0.035336193,0.35508832,0.076657444,-0.19202249,0.43205354,0.25544408,-0.40533677,-0.34404686,-0.23529926,-0.09371901,-0.004698281,0.3371972,0.069879174,-0.28195837,-0.18801072,-0.09262332,-0.28307274,-0.075072676,0.10526282,0.16978185,-0.12360669,-0.04365043,0.12114054,-0.12330913,0.21178561,-0.11669375,0.18836974,-0.15512706,0.087735765,-0.09045007,-0.19179027,-0.2934378,0.32777303,0.11432449,0.28595015,0.2188983,0.168841,-0.37425348,0.038331546,-0.23744938,0.48512852,-0.07402274,-0.07896064,-0.17233811,-0.25393882,-0.08099978,0.04240067,0.19136721,0.056942392,-0.16458505,-0.20659256,0.1801345,0.28066912,-0.031399056,0.07828899,-0.0012902782,-0.22082414,0.23908201,0.07968682,-0.2079101,0.19688928,0.082228534,-0.09430284,0.49466977,0.09726255,0.13028164,-0.034149498,0.45823765,-0.18719265,-0.14594048,-0.08589556,0.0666186,-0.20048913,0.18481794,-0.06765709,-0.37243748,-0.046281014,0.104427986,-0.2574156,-0.09099327,-0.19010307,-0.16915908,0.18516985,0.40480518,0.016303109,-0.17641135,0.11303141,-0.13767838,-0.07299859,-0.0917706,-0.2542536,0.2215565,-0.09277361,-0.011319694,0.038035907,-0.15062867,0.058225047,0.047577597,-0.015078072,-0.085225396,-0.07558391,-0.21818638,0.3750818,0.16791892,0.14862403,0.12515469,0.13602163,0.07832723,0.02320934,0.0016435533,-0.12701714,0.07007655,-0.069860496,0.069729984,-0.091079965,0.19919555,0.045124333,-0.32261622,0.24365251,0.1665772,-0.12581554,-0.17146881,-0.1530133,-0.17845608,0.3867074,0.17816211,-0.024185903,0.037873257,-0.10805491,-0.06607927,-0.13381785,0.14265832,0.022273568,0.11437197,0.3799244,0.064963125,-0.056877326,0.111336105,0.028316159,-0.08137977,-0.1780877,0.38065356,-0.07839349,0.03975355,-0.04374032,0.061478958,0.009300435,0.5237686,0.049367514,-0.14293641,-0.018489286,0.2972211,0.11695749,-0.033527452,0.020902654,0.07858568,-0.20119587,-0.1452036,-0.4552967,0.12329229,0.05282778,-0.38268617,-0.1229513,0.083934486,0.24813554,-0.27330005,0.12245374,-0.27241334,0.04725413,0.3675734,-0.053763155,-0.023620507,0.1513889,0.0016943759,-0.25557747,0.14430138,-0.1568834,-0.007360894,0.20497452,0.14251733,-0.07453462,-0.2824036,0.054161962,0.10811081,0.01879115,-0.11651488,0.439508,0.4457423,0.4075086,0.059233975,-0.1934576,0.04612873,0.074220024,-0.19417652,-0.1295516,-0.04815972,0.36635175,-0.13740191,0.036847394,0.15333635,-0.2490357,0.2255655,-0.066094846,-0.108574815,-0.052752852,0.15496896,0.0954222,0.03842013,-0.1544934,-0.10695653,-0.1611491,-0.084473975,-0.10548884,-0.085742146,0.017107463,0.045631275,0.11376312,0.0044747754,0.117875785,0.026088517,-0.14794068,0.058673657,0.06787611,0.15650825,-0.30596724,-0.1634013,0.047201086,-0.09047268,-0.16705957,-0.08879128,-0.04239162,0.029642608,0.2865385,0.025087412,-0.12402629,0.13110688,0.030010104,0.057719786,0.051964443,-0.064159475,0.047462147,0.05654494,-0.11284969,-0.061776306,0.24366818,0.05720627,0.0062911483,0.07542241,0.00881872,-0.27671808,-0.1974648,0.120497584,0.2592424,-0.1528098,-0.11441626,-0.33589765,0.05678361,-0.1263186,-0.023589712,-0.12125007,-0.060741663,0.0008674303,-0.34096664,-0.0025972654,-0.30936578,0.12023921,-0.21568969,0.02866968,0.1627586,0.106823474,-0.3683333,0.03508919,-0.068759546,-0.004512712,-0.087396696,-0.028026069,0.02809909,-0.0077483864,0.28102705,-0.29377457,-0.09035693,-0.37105823,-0.2921446,-0.102021724,0.1469989,0.09710575,-0.03141445,0.47397926,-0.08613472,-0.13756832,-0.037121017,-0.04283568,0.16964576,-0.25530985,0.13795932,-0.10205566,0.025161967,0.11631255,0.054074246,0.4592976,-0.23565283,-0.023240237,-0.046386205,-0.018352348,0.15568611,-0.04723652,-0.3035778,-0.104192555,-0.08381663,0.34961906,0.093458086,-0.26379925,-0.056644704,0.29345143,0.26119423,-0.24190944,0.16076323,-0.060380273,-0.0797077,-0.24336173,-0.26655546,0.14803864,0.35191396,0.37089992,-0.110773735,0.23498848,-0.15611432,1.1099806,-0.12709004,0.096673355,0.040329527,0.3084146,0.051431086,-0.17804188,0.1052794,0.19401239,-0.07116516,0.061113313,0.11125911,0.09752926,0.017368004,0.14185521,-0.25123847,-0.2000268,0.135873,0.19700919,-0.28194743,-0.109811045,0.005211307,-0.071596906,0.51559585,-0.4603626,0.05392129,-0.16677155,-0.06815201,-0.36392272,0.11311832,-0.26415545,0.1884758,0.13374504,-0.03429263,-0.15835287,0.0656907,0.061307814,0.14070593,0.06993993,-0.17613615,-0.026882356,0.028810441,0.02486254,-0.061036874,0.20782907,0.07465368,-0.21597375,0.21229143,0.14340842,-0.14773686,0.08815511,0.10401684,-0.043493416,0.06413875,0.19826081,-0.40389177,0.097139426,-0.15976925,-0.14257696,-0.2752403,-0.13847204,-0.03680801,0.21743967,-0.31981915,-0.27417603,-0.05483436,0.1665383,-0.0606,-0.081799045,-0.044809602,-0.17269042,0.12046345,-0.19398122,0.06169111,0.22577438,-0.17207885,0.28889838,-0.06280069,-0.2605873,0.18968472,-0.20970163,0.04159484,0.2114145,-0.027535189,0.07597513,0.13951084,0.055969432,0.20620905,-0.08708881,0.15088873,0.050860696,-0.24036159,0.036581263,-0.10825245,-0.050888076,-0.26548856,-0.015787093,0.014354013,0.07473758,0.024382874,-0.059419483,0.037458457,-0.1935409,-0.042205386,0.029952727,-0.05256747,-0.27277705,-0.19435419,-0.20747997,0.37413254,0.2795788,0.056964155,-0.3215507,0.28835115,-0.20735167,-0.05869282,-0.14816305,-0.060065307,-0.027978597,0.05087995,-0.10796783,-0.28428674,0.091239646,-0.1054449,-0.057841636,-0.15857257,-0.0438079,0.049650155,-0.044902384,0.15600075,0.047583215,0.044454172,-0.13948216,-0.1480686,0.63847077,0.07693663,0.25398493,0.014641171,-0.30648986,-0.011812949,-0.014022297,-0.057674322,0.018515106,0.19562328,-0.030787347,0.2779589,0.045944914,-0.25629207,-0.13093759,-0.20227045,-0.17543519,0.10393482,-0.099256486,0.017065724,-0.16135313,0.09430532,0.18974741,0.03815239,0.11765512,0.1541735,0.20200792,-0.1733213,0.08482245,-0.10308299,-0.5846546,-0.050469257,-0.080656596,-0.029203609,0.38435382,-0.0053498126,0.013757358,0.08292866,0.1326272,0.06256511,-0.09277564,0.11827155,0.09735114,-0.19422808,-0.041814294,0.16687289,0.052804675,-0.39980114,-0.0034136556,-0.009087684,-0.063666984,0.11217339,-0.17860489,-0.18154263,-0.13767104,-0.17782737,0.0051192087,0.098396465,-0.104989104,-0.08645785,0.20856182,-0.15149914,-0.13681445,-0.017111313,-0.18508638,0.28912964,-0.25230572,-0.13836734,-0.05626943,0.23751265,-0.049637083,0.09313155,-0.0440524,-0.24011664,0.050303422,0.41234162,0.15461239,0.2140213,-0.040993836,-0.057581674,-0.02878144,0.12010695,0.39505342,-0.067915246,0.06879834,0.038186025,-0.0056657684,-0.008297319,0.17432144,0.13139084,0.05900446,0.287943,-0.059016302,-0.017338907,0.09337132,-0.25647858,-0.060243476,0.14899068,-0.12782767,-0.15427478,0.06483872,-0.072150856,-0.117005765,0.072592124,0.11576295,0.22550698,0.12382079,0.113876544,0.078371175,-0.1392127,-0.079887055,-0.29694882,-0.045003004,-0.15860412,-0.11161404,0.15551618,-0.1548663,-0.12890218,0.19066802,0.3895273,0.09083631,0.11754033,-0.19136545,0.097803794,-0.21793619,-0.1582652,0.028207444,-0.23270854,0.5080689,0.08784339,0.015413446,-0.1407928,-0.15913123,-0.0035708125,-0.25853044,0.1359575,0.010092446,0.080057494,0.21204318,0.29796806,0.21358028,-0.13917792,0.38578746,-0.07441179,0.4124309,0.075850286,0.15095972,0.13562429,-0.052423567,-0.0132268015,-6.8637733,-0.3413957,-0.20217323,-0.10620123,0.21469255,0.26401067,-0.12094795,0.3280363,0.22558127,-0.34419614,0.17318459,0.15910545,-0.3072422,-0.12479919,-0.022319647,0.10339347,0.11276587,0.09159829,-0.3744127,0.16818078,-0.5349076,0.114333466,-0.12789413,0.44878688,-0.22871922,0.34688747,-0.19905326,-0.21723121,0.096936464,0.078766644,0.13736412,0.2535074,-0.0055111228,0.280507,0.015809715,-0.2131204,0.19382946,-0.1374487,0.13056888,0.25932539,0.47650033,0.045263547,0.05236454,0.022584673,-0.2014922,-0.04749325,0.2790885,0.052492265,-0.17185251,0.42493775,0.26330274,-0.013300747,-0.3552945,0.14081976,0.0613351,-0.20575625,-0.15739973,0.256453,0.13609324,-0.24331337,-0.30205485,0.12750275,0.010342021,0.022040123,-0.34784463,0.15990973,-0.13075234,-0.15729801,-0.29167837,0.0590324,-0.02792762,0.33163682,-0.17316796,-0.26989862,-0.245262,0.29233316,-0.08237339,0.01668034,0.1983438,0.037636425,-0.028656056,-0.007886734,-0.19963245,0.062175903,0.2904716,-0.36490124,-0.05900457,0.32180262,0.16830401,-0.049790923,0.21912225,0.12468077,0.04960275,0.26115468,0.15531808,0.20386341,-0.064893425,-0.101427436,-0.049348455,0.17793363,-0.23983417,-0.06190594,0.07551999,0.07350069,-0.09490046,-0.050628114,-0.0982127,-0.3015604,0.1451088,0.074199885,-0.03808218,-0.2648013,-0.06670134,0.20507598,-0.11883606,0.23708564,0.1959645,0.12296024,0.13748315,-0.028882246
VAL_2_B,-0.22116835,-0.050079037,-0.32078364,-0.18011092,-0.16394106,-0.48254627,-0.017020557,0.11746314,-0.24730232,0.060877085,0.06423562,-0.219191,-0.28234884,-0.060583383,0.27723226,-0.013513754,-0.05087312,0.24806198,0.008218401,0.22419138,-0.030209951,-0.03015851,0.26462024,-0.14616378,-0.14479941,0.06406186,0.14679539,-0.283052,-0.050975744,-0.15120159,-0.21356803,0.028533733,0.3151128,-0.09867414,0.059126724,0.2593779,-0.33189666,-0.0026817427,0.1189466,-0.0072975103,-0.2918084,0.35335997,0.22748628,0.15835895,0.075144984,0.2053786,-0.112950064,0.2005421,0.19257706,-0.110546015,-0.06726336,-0.036576807,0.10181047,-0.14244395,-0.06187935,0.109065026,0.30237067,0.10464005,0.10470054,0.12754948,-0.22971642,0.3211202,0.08360209,0.07913245,0.06816774,-0.04511998,-0.026787356,0.2641656,0.19255714,0.292031,0.14560057,-0.22852826,0.29443794,-0.020070942,-0.2562982,0.302229,-0.20017754,0.14843033,0.09377634,-0.015191317,-0.08307074,0.23832904,-0.056092788,-0.074871786,0.17900681,0.02951343,0.13041857,0.012482619,0.16811681,0.17299257,-0.08961268,0.11078274,-0.12714326,0.053380366,-0.29024357,-0.20789997,0.009437762,0.07688213,-0.20350546,0.21152148,-0.012117133,0.08347051,0.022794101,-0.5498413,0.101785846,0.14027244,-0.18188713,0.4809206,0.084390804,-0.065952726,0.22446708,0.2839185,-0.11104961,0.25153184,-0.11058878,-0.042821907,-0.055694703,0.33734834,-0.2882215,-0.00072498433,0.0049872487,0.26710364,-0.23097023,0.031453975,-0.23274711,0.104599,0.11492879,0.08033991,0.074552216,-0.01781712,-0.12937811,0.32264674,0.140752,0.0004293515,0.3644592,0.04675047,0.17713958,0.2509139,0.30839744,-0.028680507,-0.11288562,-0.18307136,0.09511442,-0.04453685,-0.3434445,0.07764552,-0.13944566,0.030667322,0.010184337,-0.24848068,-0.38765156,0.016870141,-0.18953536,-0.06683416,0.12891509,0.028012594,0.315523,0.08548809,0.050203446,-0.04692839,0.027796043,-0.020392576,-0.14048268,0.20108888,-0.07160267,0.35881904,-0.051347446,-0.15868376,0.31599316,-0.07663404,-0.3401853,0.12669344,0.032228757,0.022452237,0.17902498,-0.16366002,-0.015873678,-0.34399736,-0.04161607,0.003772585,0.06748384,0.20059565,0.21202579,-0.12794249,0.10369423,0.14153732,0.022399563,-0.23315188,0.048889674,-0.18144722,-0.2297663,0.036555946,-0.10137456,-0.23783101,0.06293354,0.09730836,-0.098022655,0.2867643,-0.20082086,0.11137894,0.1868089,-0.060070597,-0.05959318,0.03554691,-0.1498479,-0.40138254,0.03669476,0.10485579,0.25782526,-0.13161787,0.13394988,0.043257535,0.17769213,0.22864449,-0.18663055,-0.2781419,-0.25446427,-0.12714487,-0.35447782,0.18844984,-0.051107667,0.12653059,0.05832174,0.033027664,0.22777727,-0.15878478,-0.19205594,-0.11346553,-0.10048055,0.17936292,0.2822883,-0.13947998,0.2581288,0.12789594,-1.7503567,0.095995516,0.045405757,-0.2931254,-0.21877266,-0.017858038,-0.2862643,-0.29277644,-0.23017918,-0.07786702,-0.22261228,-0.08237794,-0.1086292,-0.102974184,0.16259696,0.2633092,-0.1293534,-0.18924746,0.02698739,-0.17018847,-0.060051527,0.14313729,-0.17107508,-0.10371339,0.13460952,0.115063936,0.24824856,-0.078209944,-0.12183121,0.064775005,0.054888107,-0.16639502,0.17146982,-0.029471613,-0.013068541,-0.0389913,0.1727074,-0.029511314,0.18714797,0.14897692,0.20312348,0.088292204,-0.25460428,0.02973335,0.103368305,0.018693697,-0.28836915,0.074422926,0.22630294,0.2937963,-0.13371152,-0.074974865,-0.271494,0.1137121,0.0009563504,-0.19877571,0.30128518,-0.020474013,-0.3231741,0.461086,-0.054077987,-0.1469584,-0.365104,0.21694405,0.02865786,0.16540396,0.13905744,0.13580324,-0.09727132,0.14154185,-0.03493602,-0.0963677,0.37499714,0.06996162,0.0308779,-0.18942033,0.10422697,-0.2663261,-0.057222974,-0.053787872,-0.03459404,0.21203712,0.09516261,-0.0829246,-0.482408,-0.029131852,-0.1217565,-0.26228425,-0.13033652,-0.07095567,0.10045831,-0.31680414,0.036681462,-0.41149375,0.36982587,0.041567497,-0.058961038,0.008489907,-0.2976814,0.16989164,-0.05426809,0.27583775,0.021646567,-0.1296628,-0.044895392,-0.037469998,0.03908404,0.030929329,-0.04742111,-0.09333066,-0.117389634,-0.37638122,0.15770097,-0.09705498,-0.1584558,-0.10787221,-0.027888961,-0.021611374,0.079656884,0.19161053,-0.1868756,-0.12589906,0.04612399,0.07386159,-0.050256,-0.08324678,0.18882066,-0.11607579,0.15666988,-0.15087521,0.13522977,-0.040810023,-0.23047245,-0.021950874,-0.28008714,0.23288202,-0.16901337,0.11208164,-0.20896003,-0.26852536,0.16044822,0.4870059,0.24008933,-0.0029447011,-0.0804506,0.09421029,0.26095042,0.2168949,-0.06643941,0.14137614,0.28390512,-0.23430532,-0.37468064,0.0026281178,-0.12433171,0.08565967,0.080061816,0.035504952,0.11270289,-0.034338497,0.22519696,-0.28573203,0.38538876,0.16263887,-0.098822504,0.023707546,-0.24544655,-0.0012369247,0.039571323,0.12082476,-0.263129,-0.07988135,-0.08618683,0.0095169125,-0.060745142,0.37018615,-0.0018637658,-0.053018034,-0.12553076,0.2584232,0.30544344,-0.05605085,0.2522087,0.091448925,0.10785234,0.10807743,0.10419461,0.1643138,-0.014566217,0.011661871,0.3336005,-0.030731395,0.04707577,-0.31942427,0.17742732,-0.12817234,-0.0005413988,-0.04985964,-0.021571487,0.014064874,-0.42561615,-0.2717551,0.08541135,-0.3737704,-0.0727494,-0.10045049,-0.19675414,-0.09493517,-0.24303602,-0.103710994,0.30813378,0.29063457,0.24267359,0.09846902,0.29154998,-0.1477163,0.015271802,0.36131236,0.3278578,0.27831095,0.056557693,0.0026676022,-0.07904617,0.14622752,-0.06351116,0.19860198,0.10075972,-0.006577827,0.027123285,-0.3982619,-0.09833683,-0.028072553,0.0036923224,-0.14217497,-0.11401424,-0.038005933,0.1051835,-0.11656673,0.35179958,-0.29706493,0.04101368,-0.07676956,-0.13937023,0.028336719,-0.059811708,-0.08718576,-0.09776158,-0.3861471,0.32485324,0.26349202,-0.023992328,0.18558897,0.42366832,0.15766744,0.018122956,0.20175216,-0.06341209,-0.04751697,-0.115645446,0.18620613,0.1530887,-0.018320711,-0.14938043,-0.09714824,0.09240916,-0.044573728,-0.050168976,-0.22544654,-0.029420462,0.2731123,0.1910007,0.029543033,0.17943104,0.10977722,0.018914223,0.18939647,0.17569959,-0.23455739,0.078632034,0.017143393,0.0013836517,0.16103196,-0.00737769,-0.21058923,0.16757041,0.110459454,0.17250653,-0.39474076,0.24674898,-0.24322183,-0.16425346,-0.08405604,0.00020322778,-0.082929954,0.104615875,-0.1075414,0.06980419,0.0437507,0.019387849,-0.12459182,0.23646498,-0.32277906,-0.096446276,-0.23252395,0.07874198,-0.004762609,-0.01126487,0.066396914,-0.10419959,0.24955067,0.31020612,-0.024942089,-0.16416214,0.093373954,0.12981294,-0.04656834,0.2360899,0.20242092,-0.29686955,0.53731966,0.09538546,-0.19726254,-0.43253738,-0.114442505,0.17770584,-0.07898708,0.06745679,-0.35936475,0.08431385,-0.12524065,-0.08555635,-0.24153516,-0.030134305,0.043817516,-0.0054965587,0.10371318,-0.009667403,0.058289822,-0.06837986,0.023810694,-0.066885404,0.26578784,-0.07403826,0.1404755,0.2156224,-0.064357616,0.19703591,0.21353295,-0.16841815,0.1345017,0.39974025,-0.015413328,-0.35289666,-0.19600742,-0.019893385,0.21176717,0.07161246,0.07272899,-0.28283355,-0.04235866,-0.18652494,-0.13734114,-0.08108047,-0.048644133,-0.16270901,-0.17296307,-0.114353776,-0.21688786,-0.014537608,-0.047498893,0.2246869,-0.34968403,0.5577013,-0.28099775,-0.23073931,-0.09263627,0.06306859,-0.11609778,0.42943174,-0.114200436,-0.030642653,-0.0121694645,0.21813552,-0.16498168,-0.16509709,-0.23484297,0.2092457,-0.09190066,0.0067727836,-0.016893905,-0.017995205,0.08202889,0.056731105,-0.32878882,0.01864051,-0.0067559388,0.23266716,0.21056946,0.1516129,-0.03033196,-0.20169179,-0.020351073,0.11378521,0.43924952,0.058553837,0.029728755,-0.123272315,0.060019754,-0.10520196,0.049139213,0.00060973264,0.065692484,0.24161862,-0.27044132,0.09766437,0.12994598,-0.20243329,0.21316779,0.10131392,0.32126224,0.055058796,-0.19326727,0.13808076,0.13637637,-0.076962724,0.314203,-0.017810041,0.16968054,-0.08097012,0.0428949,-0.043212194,0.15766835,-0.21427412,0.19412118,0.20127061,0.0051759393,-0.17064644,-0.10172911,-0.13593638,0.26679298,0.101490326,-0.05057727,-0.16145888,0.01949638,-0.16629271,0.096906796,0.2520717,0.17980434,0.111844175,-0.10068483,-0.26911542,-0.12074455,-0.23986883,-0.058247868,-0.217001,-0.22626843,0.31348908,-0.0012522613,0.32578415,0.14274389,-0.06706066,0.38646996,0.3196521,0.19276446,0.14019136,-0.2793433,0.41806534,0.2052619,-0.3091837,0.49371606,0.22372748,-0.007107233,0.19764629,-0.110823765,-0.008457751,0.026748935,-0.10541157,0.0986612,0.17033231,0.27175134,0.10143986,-0.12080455,-0.016431224,0.07789131,0.22622406,0.062060036,-0.04695527,0.2620573,0.11732661,0.0364891,-0.123926096,-0.03908312,-0.15156674,0.13490358,-0.027336057,-0.25532308,-0.33618486,0.032401912,-0.10673375,-0.034848783,0.14303386,0.21616529,0.25418982,0.12561251,-0.10902247,-0.17417525,-0.09235226,0.022346282,-0.13273789,-0.1868441,-0.10453727,0.37007535,-0.17000476,-0.09885182,0.17002214,0.14389746,0.26996613,0.23246503,-0.24553114,-0.03412352,0.26034462,-0.05624443,0.17289789,-0.14930269,-0.14209573,0.21616994,0.17741445,-0.18876565,-0.048724335,-0.05386719,-0.20768239,0.14051218,0.0060820584,-0.1308076,-0.2599431,-0.19902705,0.1580579,0.20948727,0.016802056,-0.29490903,-0.04400994,-0.024107639,0.07965161,-0.24687529,-0.08750787,-0.10604993,-0.16438182,0.39708662,-0.23848376,-0.0853655,0.11183251,-0.026787877,0.2657287,-0.36634305,-0.14775972,0.11647916,-0.08953661,-0.13249159,-0.20197389,0.33373818,0.10770704,0.013088251,-0.061655268,0.041048296,-0.2463603,-0.04129641,0.062319264,0.20721397,-0.06929398,-0.04785273,-0.32401833,-0.18805784,-0.041999288,-0.11917164,-0.0426553,0.098948516,-0.14780255,-0.49754518,0.29969043,-0.1707611,0.009897969,-0.42333633,-0.09087963,0.29265282,0.11567149,-0.42498377,0.31984746,0.39364213,-0.26669654,-0.19008532,-0.15931861,-0.27122664,-0.26708797,-0.14990814,-0.13404652,0.21165992,0.004249305,0.15652086,-0.10270118,0.14488235,0.19290365,-0.13553534,0.27953932,-0.06767472,0.18673426,-0.06445843,0.06369537,-0.057020426,-0.3490516,-0.04922667,-0.25498423,0.23471142,0.23988374,0.19015422,0.28555945,0.208465,0.3027606,-0.0009753863,-0.20654847,-0.018564653,0.11026923,-0.27021813,-0.21740817,-0.24591166,0.11845817,0.28920713,-0.104495704,0.04801368,0.46052745,0.15045524,-0.089280166,0.026618179,-0.07662025,-0.18321341,-0.23179574,-0.34060967,0.24585848,0.24781752,0.052328337,-0.1301787,-0.061694466,-0.27236596,0.090618946,-0.3391125,0.10252292,-0.24582773,-0.10678974,-0.08632144,-0.124703005,0.2659724,0.124510296,0.20223148,0.02080188,-0.047389094,-0.042457853,-0.04986264,0.17756999,-0.03691004,-0.09316424,-0.08503063,0.22674121,0.12955548,-0.20730157,0.19475462,-0.12290786,0.2874503,-0.21536632,-0.09555721,0.21133868,0.049031235,0.101867706,-0.42075568,0.08756128,0.1664391,0.1702165,-0.12778129,-0.27742162,-0.058377285,-0.05442979,-0.14334689,0.14999104,-0.1113739,-0.014743093,-0.12202657,0.05809518,0.030964525,0.20176505,0.007877812,-0.06523331,-0.019802736,-0.15151191,-0.04729966,-0.25909635,0.25919932,-0.039396897,-0.09928362,-0.052730817,0.15190853,0.108592175,0.11564113,0.005941199,-0.10347498,-0.10080379,-0.028252674,-0.046253003,-0.10742756,-0.10329855,0.2004975,0.20850343,0.0005727435,0.20156287,0.14529969,0.07688361,0.059769843,-0.0665965,-0.08508921,0.23084085,-0.18106829,0.14714625,0.4657197,0.16180542,-0.08471868,-0.09441146,0.10849029,0.22528653,0.09245259,-0.122466646,0.14794935,-0.12765874,-0.106391296,0.04095879,-0.002142365,-0.14916678,-0.22597459,0.34557936,0.096559875,-0.18471268,-0.1996103,0.40321293,-0.18267632,0.1542905,0.016144063,-0.20140454,-0.114980794,-0.16075373,-0.28837448,-0.057552345,-0.301821,0.13436715,-0.079048276,0.15261677,-0.08042895,0.19052473,-0.29377794,-0.2617342,0.22768764,0.06503233,0.023391927,-0.17723101,0.10988447,0.095495425,0.06914471,-0.19614717,-0.1697664,0.44834992,-0.041495916,-0.039043523,-0.028897155,0.07326562,-0.10518986,-0.12482496,-0.068994425,-0.1830881,-0.009599372,0.18277158,0.008999779,0.2255436,0.20111696,0.011556813,-0.26942447,-0.081591204,0.117630124,0.1502934,0.0696757,-0.15186518,0.14193231,0.014292506,0.1461023,0.38719136,-0.09861187,-0.40201083,-0.19401596,-0.2997609,-0.07447249,-0.21606348,0.33162078,-0.26995823,-0.18664327,-0.13919902,0.35752797,0.17608984,0.10117663,0.09797846,0.34123147,-0.16488837,-0.17326052,-0.15412752,-0.09659551,0.014523986,0.13197358,0.16107683,0.038239017,-0.25837904,0.13199466,-0.20768152,0.08732158,0.32311553,0.19613217,-0.14286478,-0.2141381,0.031256016,0.10837476,0.119657114,0.15578553,-0.026610356,-0.025742484,-0.017522044,0.1582179,0.1411723,-0.14253439,-0.085901834,-0.19598933,0.25632688,0.2654526,-0.00467859,0.009561758,0.3215912,-0.4629041,0.111804746,0.032535896,-0.14159445,0.02997569,-0.2751557,-0.24166216,0.07528801,0.21396668,0.16012232,-0.08481556,-0.06372035,-0.30147985,-0.019229386,0.48767334,0.26154137,0.07748626,-0.2859954,0.19554617,-0.044183645,-0.057038262,0.26843646,-0.046526507,-0.028509028,0.08156401,-0.29028046,0.1373519,-0.083491296,0.02406634,-0.024610652,0.31494558,-0.33894256,-0.34123603,0.22481687,-0.1406661,0.10098866,0.4058043,0.011107748,-0.09877006,-0.014931889,-0.09677917,0.0488446,0.10938297,0.03693627,-0.11409083,0.22917186,0.42048576,-0.12090103,-0.10217718,-0.07419934,-0.033382382,-0.30914652,-0.48098814,0.112998545,0.1620699,0.03806643,-0.09002293,-0.14229068,0.09523757,0.076733984,-0.10874981,-0.10430515,0.2307342,-0.040879827,-0.2452541,0.12828718,-0.0664915,0.19496062,-0.07235602,0.001427056,0.03897926,-0.16245303,0.12791735,-0.2348892,0.31417078,0.08136277,-0.08053753,0.084830254,0.21610153,0.1210666,0.316185,0.16378772,0.1332589,0.26626134,-0.00024071125,-0.002748637,0.13265467,0.029147845,0.10195511,-6.918648,-0.16464646,0.012878914,0.086966984,0.12228929,0.25119358,0.23738708,0.20945668,0.10235634,-0.16321954,0.1574137,0.059009455,-0.094135314,-0.20023926,-0.010594964,-0.22674763,0.21909979,0.12739483,-0.22280061,0.4672209,-0.10078547,-0.12667905,0.2258844,-0.1125364,-0.11430351,0.01466336,-0.22862004,0.17604284,0.30964038,-0.048481427,-0.26672268,0.19163044,0.026663005,-0.05668226,0.004931948,-0.23190689,0.1177448,-0.29833245,0.020658825,0.28511378,0.35493764,-0.120460674,0.033836644,-0.10911648,0.19421919,-0.14803304,0.30118132,-0.05589736,0.1309256,0.1368419,0.20315242,-0.023368273,-0.26179639,-0.06353771,-0.07690644,-0.21378456,-0.09259479,0.26274994,-0.116436526,-0.0628759,0.008307742,-0.22061825,0.016590253,0.16308661,0.10127654,-0.02404818,0.049518194,0.07919357,-0.13119988,-0.09717034,0.33193153,0.24573246,0.16319157,-0.2369567,0.086093806,0.025085134,0.0858372,-0.079283156,0.15582284,-0.008558622,-0.15387663,-0.24646887,0.071554385,-0.070121974,0.09543748,-0.2758478,-0.2413306,0.102324925,0.11072884,-0.16842546,-0.0059909024,0.22844556,0.12131193,0.004471162,-0.046574295,-0.02756167,-0.1447023,0.005651552,-0.07064911,0.18871124,-0.05196343,0.18515491,0.19020472,0.085948534,-0.122455224,-0.01590427,0.1937955,-0.078543775,0.26041898,0.07127446,-0.18344833,-0.21491066,-0.10814692,-0.058999885,-0.06308732,0.10941161,0.3188736,-0.17988232,0.3197026,0.15871082
VAL_3_B,0.04755484,-0.12974702,0.0067731654,0.09362171,-0.29562345,-0.26248673,0.24637724,0.13702457,-0.021932114,0.14862745,-0.1948439,-0.08073712,-0.15691301,0.051836975,0.25153974,-0.21156079,0.0604369,0.0017806329,0.11475787,0.21106455,-0.02735606,-0.052469876,0.10428435,-0.34461468,-0.005447445,0.02933316,0.4232057,-0.40414584,-0.134899,-0.04352759,0.08809472,-0.14347328,0.32771745,0.11806826,-0.077600315,0.1605088,-0.39879858,0.1994478,0.1507603,0.11524269,-0.026368167,0.11839677,0.15518554,0.18924446,0.05847396,0.061060358,-0.13041547,0.16535522,0.1674152,-0.19485867,0.1936523,-0.3486821,0.45662093,-0.16525419,-0.07299432,0.084136315,0.22347485,0.05069379,-0.019312777,0.23324327,0.03352652,0.3637096,-0.015023614,0.08220478,0.05564364,-0.012074241,0.026597086,0.20193845,0.26103628,0.0025343827,0.3700724,-0.15380397,-0.11242075,-0.11094157,-0.06928636,0.119892985,-0.020986754,-0.06896806,0.05695172,-0.16912138,-0.32444978,0.06231307,0.06730731,-0.036899738,0.043268524,-0.24149135,0.08067885,0.062281936,0.2472427,0.25774658,-0.27213836,-0.07511441,-0.12985244,0.033361405,-0.29970694,-0.27037925,0.08484456,0.048901398,-0.12150201,-0.025930544,-0.17269018,-0.111548,0.045322035,-0.10147061,0.067609854,0.037518352,-0.3698844,0.089409746,0.07272628,-0.2611604,0.12071831,0.17056893,0.0903616,0.40921187,-0.078656636,0.14887676,0.10915305,0.34358677,-0.24854875,0.07787776,-0.11976424,0.109260984,-0.1158679,-0.101298,-0.027859885,0.09443907,0.17382047,0.0790767,-0.06756132,-0.2565709,-0.15614647,0.44646156,0.11728933,-0.023345297,0.2073578,-0.11745969,0.07333333,0.052958377,0.13860779,-0.0001128634,-0.04849363,-0.17477195,-0.13751931,-0.12705518,-0.066964835,-0.14276187,-0.07864274,-0.106614105,0.14645308,-0.31234422,-0.37044644,-0.08596915,-0.071468584,-0.07751263,0.0805001,-0.230459,0.27866995,-0.08500495,-0.028207952,-0.10353281,0.02317822,-0.12858516,-0.3080219,0.10466742,0.096917085,0.20072617,0.11216912,0.029222226,0.07811688,-0.044552587,-0.16442333,-0.054785598,0.19898614,0.23356001,0.30353022,-0.18967144,-0.09025988,-0.60634345,-0.09433677,-0.06228338,0.2514451,-0.017553523,0.115596384,-0.04788927,0.07684932,0.28056324,-0.114350684,-0.29557848,-0.033911157,-0.0986279,-0.28079876,0.124469966,-0.40186927,-0.11911035,-0.025198298,0.29271483,0.01894312,0.100908235,-0.26590556,-0.028830811,0.04749289,-0.09066978,-0.020949401,0.020104095,0.2260866,-0.23474607,-0.36834878,0.17420666,0.18701024,0.01960089,0.21556664,0.11871873,0.10709164,0.13562493,-0.33133584,-0.1743299,-0.36346382,-0.16817796,-0.103296876,0.21972218,0.11999994,0.25681323,0.15899949,-0.21568453,0.08593703,-0.39149234,-0.41635725,0.024200723,-0.014513816,0.105929434,-0.05971192,-0.08641284,0.22039123,-0.053622756,-1.4075313,0.1109969,0.26087752,-0.08383302,-0.3119355,-0.15105702,-0.19078659,-0.10158985,-0.13878259,-0.052068822,-0.1849018,-0.0761333,-0.056049682,-0.4617413,0.15830533,0.311058,-0.0898889,-0.13738409,0.20053524,-0.28102255,-0.098541744,0.38867703,0.10957476,-0.08576292,0.06761098,0.2617533,0.23720141,-0.05106212,-0.08840628,0.03351271,-0.018126229,0.02799457,0.2654531,-0.12944804,-0.12368631,-0.12899739,-0.05728847,-0.16426265,-0.15596208,0.15940176,0.018882139,0.12644717,-0.15408662,-0.035556316,0.0756754,0.032362033,-0.17105186,-0.24047038,0.16009262,0.43400535,0.12155682,-0.402813,-0.19709739,0.22289015,-0.4570096,-0.23361625,0.09333272,-0.23761377,-0.16449931,0.35533693,-0.04625218,-0.35347107,-0.010259318,0.25255254,-0.08427017,0.14999624,0.22145203,0.1636205,0.29274297,0.16335395,-0.06115952,-0.049564745,0.39101604,0.19050266,-0.024667414,-0.23537709,0.18030925,-0.25658804,0.086933486,-0.036540218,-0.039015986,-0.062802255,0.018002203,-0.09108339,-0.3256259,-0.2045382,-0.116279125,-0.29495445,-0.111452475,-0.023139456,0.14865336,-0.33070123,0.22471769,-0.17651553,0.36877814,-0.15700355,-0.19378683,-0.38641158,0.16162875,0.13959175,0.12780428,0.15196994,0.058862507,-0.12659122,0.16640808,-0.0062816795,0.3695847,0.02028348,0.20853877,-0.16672002,0.09686087,-0.16568415,0.37029088,0.027071677,-0.33388144,0.020293534,0.011108972,0.12231673,0.28210467,-0.06383434,-0.0063458174,0.10519886,-0.070809454,-0.25027654,0.15064582,0.13112591,0.33401364,-0.3333764,0.0075004757,0.07927393,0.021774845,-0.0666721,-0.099965125,0.078222804,0.05014737,0.25651914,0.20395043,0.11441673,0.0644977,-0.21422803,0.07117429,0.32904452,0.29980382,0.092754856,-0.2785671,-0.020528018,0.30415344,-0.17251833,-0.011691027,0.116536714,0.28683105,-0.13156481,-0.49062288,0.023353502,-0.122143894,0.1146017,-0.06479339,0.32284766,-0.13378988,0.16763276,-0.09010345,-0.15662393,0.2313808,-0.06756173,0.033499863,-0.15317954,-0.31579152,-0.2289659,-0.12801813,-0.001943683,-0.28341693,0.08124089,0.2651606,-0.104664445,-0.1753813,0.18661325,-0.026448179,0.057118677,-0.07297038,-0.021219524,0.37158462,-0.21119474,0.23210047,0.016884498,0.06908456,0.04940284,-0.13752045,-0.07350065,0.15107879,-0.08952301,0.1391767,-0.11794004,0.15963864,-0.04125185,0.0042914543,0.10008441,-0.1169751,0.14889678,0.0060647433,0.032695152,-0.41042626,-0.3474829,-0.03233446,-0.40512973,-0.01763899,0.23837277,-0.25213984,0.09727589,-0.19461688,0.026953805,0.12539035,-0.15759829,0.27256915,0.16285673,0.020890158,-0.19108137,0.22490919,0.34899527,-0.07735298,0.086584635,0.32543564,-0.054802585,0.18770109,0.012774338,-0.1097932,0.041889492,0.084087126,-0.095817775,-0.013357062,-0.2277121,-0.047533948,-0.17298388,-0.13291216,0.220031,-0.09491524,0.37842736,0.09403507,-0.09146416,0.2603466,-0.123486735,0.06950109,-0.012144621,-0.28683335,0.07840848,-0.12763034,-0.1219155,-0.12074063,-0.27210307,0.19430505,0.2468817,-0.094454065,0.0474776,0.33640328,-0.21636125,-0.38506025,0.26224262,-0.33231658,-0.17121586,-0.021851718,0.20528948,0.29442912,0.30813527,-0.38881245,-0.058710556,0.23665385,-0.22506571,0.3567285,-0.13428171,-0.1615525,0.4009235,0.19471668,0.05356428,0.39018127,-0.15595655,-0.008528243,-0.048612803,-0.010828618,-0.28589812,-0.15063168,0.04802216,-0.24603873,0.096754916,-0.1621734,-0.32127544,-0.05006917,-0.09703402,0.21873605,-0.15124138,0.34088808,-0.47199398,-0.15525728,0.047911547,0.09509539,0.07066046,0.33186364,-0.31181508,0.18720971,0.33178663,-0.0313009,-0.12683158,0.18145077,-0.05539295,-0.3675932,-0.10103301,0.21171698,0.016617855,-0.31316206,0.24047096,-0.056986775,0.052352007,0.3036048,0.21417995,0.15987326,0.1915259,0.2699204,-0.04707598,0.34436694,0.18327706,-0.68125844,0.26158816,0.2271958,-0.12851156,-0.51238716,-0.048775584,0.18208015,0.10107492,0.18335731,-0.10674026,0.10186121,-0.042696837,0.14743365,0.009566594,-0.04979412,-0.15603575,-0.11074462,-0.02480827,-0.018526489,0.4480987,0.10831197,-0.22500157,-0.099684596,0.35560304,-0.06276497,-0.1188106,0.24860689,-0.2566405,0.09058337,0.08189841,-0.15932365,-0.061440025,0.30300283,-0.059905156,-0.03530612,0.056654576,-0.05602711,0.33706748,0.14554588,0.037405714,-0.31243593,-0.2050889,0.26328304,0.050402798,0.004935942,0.09515432,0.032208413,-0.3449149,0.0052654427,-0.14220524,-0.12754345,-0.085513555,0.12068783,-0.1221258,0.16586652,-0.083577864,-0.46798885,-0.2259267,0.06618881,0.06919791,0.45740974,-0.49382994,0.04411115,0.2652133,-0.021091253,0.021845298,-0.08503597,-0.026961032,0.18956496,0.15060939,0.076823674,-0.036641173,-0.46819142,-0.040727846,-0.16870506,-0.20308185,0.026912719,0.031620942,0.2972745,0.14597231,0.11958943,-0.077756375,0.051809676,-0.13623509,0.23142642,0.4361201,0.0072561516,-0.25965047,0.042382203,0.27268395,-0.19672038,0.2233032,-0.18427913,0.031323127,0.06717935,0.059042603,0.046850137,0.04705336,-0.18554206,0.08720723,0.3003102,0.0010084477,0.20453653,0.036899127,0.26843736,0.29376814,-0.17937265,0.47797865,0.09179603,0.033017643,-0.046630193,0.12596792,-0.1628156,0.32188508,-0.0145544475,0.10910232,0.3380102,-0.22377548,-0.15836138,0.15172571,-0.02734525,0.2255635,-0.026427412,-0.033622116,-0.14014031,0.044092495,0.06278763,0.0661937,0.20555654,0.27051684,-0.021750491,0.16615947,-0.21545814,0.104489475,-0.2510898,-0.20340867,-0.06219403,-0.0779373,0.30399194,-0.18242362,-0.14072652,-0.008046701,-0.16423348,0.054092247,0.42304975,0.34253702,0.03650014,-0.1493435,0.15885933,-0.01199263,-0.29735297,0.5517952,-0.13471232,-0.36807868,0.120701715,-0.2927475,-0.23060727,0.14805964,-0.30623522,0.20245078,0.10517518,0.41691932,0.21557358,-0.2571346,-0.15245521,-0.24523503,0.13187057,-0.1853933,0.13763927,0.03592821,0.25341043,-0.003993104,0.17501564,0.010296331,0.07867872,0.19954185,0.017419415,-0.13435566,-0.2604999,-0.109949015,-0.07926961,0.091795534,0.09636333,-0.2134954,0.24482234,-0.3071682,-0.09601739,-0.10364568,0.07316656,-0.21709749,-0.11200097,-0.042174395,0.26678318,0.028281964,-0.24791013,-0.16023645,0.17195123,0.27730638,-0.21748994,0.26650178,0.08300655,0.10716947,0.29106542,-0.13687925,0.08574101,-0.097482875,0.21731222,-0.0020086174,-0.03825864,-0.39752063,-0.11563922,-0.30206674,-0.1864648,0.18103138,0.0788615,-0.007449339,-0.4052809,-0.088146254,0.23180874,0.065190844,0.2927467,-0.24788448,-0.13692676,0.31872246,0.098887295,-0.305664,0.031969503,0.099763446,-0.020282026,0.15733807,-0.13424426,-0.16198479,-0.054150216,-0.05403143,0.45730308,-0.019324949,-0.15639089,-0.03745756,0.14092074,0.12709934,-0.14797297,0.18324032,0.07266445,0.036500335,0.2251205,-0.12249402,0.058789313,-0.23053463,0.24094602,0.2896377,0.08145166,-0.26724437,-0.024582017,-0.20013164,-0.14822541,-0.15271965,-0.19498211,0.259435,-0.100644134,-0.4834299,0.3262402,-0.13031693,-0.051576503,-0.23916544,0.053763404,0.08775722,-0.028513776,-0.7861947,0.06369953,0.33868515,-0.02525218,-0.015292312,0.11749819,0.013421004,-0.231721,0.034146406,-0.12838134,0.09515731,0.030478587,-0.11689921,-0.10723551,-0.13303678,0.006651729,-0.17973308,0.181536,0.00013305756,0.25900418,-0.07300578,0.12211291,0.03759669,-0.2826262,0.051955212,-0.15697023,0.19434059,0.02988483,0.21167076,0.2415569,-0.040657453,0.31463367,-0.100985765,0.011496409,0.017932065,0.23940612,-0.139904,0.1447443,-0.31838813,0.31532258,0.46509632,0.051798344,0.096554115,0.4922163,0.2505543,-0.20175162,-0.2520988,-0.46764606,-0.21634415,-0.15285708,-0.21450017,0.16952297,0.2996362,0.033656083,0.10956694,0.08523302,-0.4699262,0.62371475,-0.28606793,0.0021808783,0.05272861,0.18606701,-0.083477296,0.13775732,0.09802011,0.019892255,0.22510098,-0.2305465,-0.48021534,0.12799773,0.053911243,0.0765803,-0.16264331,0.12424949,-0.17083931,0.17571312,-0.037567753,-0.32116485,0.2529285,-0.08251509,0.47124422,-0.19378117,-0.34016645,0.22655231,-0.020124143,-0.020457668,-0.23778242,0.006593837,0.16657585,-0.069990225,0.17826276,-0.31613237,-0.02801756,0.077988334,0.12865306,0.09208942,-0.14915732,0.15278703,-0.01995431,0.100785956,-0.08033121,0.20188203,-0.077128604,-0.26562476,0.15022431,0.051199388,-0.41171986,-0.09778852,0.29135793,-0.36356544,-0.33613464,-0.04186924,0.04287137,-0.18415503,0.012651924,0.0003386261,-0.24092828,0.055182684,-0.067766935,0.32091364,-0.07620218,-0.13498314,0.18149681,0.04899842,0.21272406,0.18894772,0.23510064,0.14814018,-0.13900164,0.26721194,-0.18975082,0.11574188,-0.55151933,0.25524637,0.53268206,0.19897081,-0.11490559,-0.21264721,0.01737124,0.1213155,0.4386756,-0.09607552,0.094423644,-0.034436982,-0.14341386,-0.01709812,0.077146955,-0.20854954,-0.13225505,0.36497024,-0.01594552,-0.22994116,0.055831727,0.31931525,-0.01182621,0.17588635,-0.19040778,0.109675065,0.023188172,-0.1516424,-0.089803316,-0.5530655,-0.215371,0.115160115,0.074810736,0.19414598,0.11587766,0.14764905,-0.0826559,-0.14888367,0.14295225,0.014904187,0.07430793,0.0676353,0.05461598,0.19961937,-0.18829042,-0.09642894,-0.28551912,0.07472471,0.12780768,0.11594074,-0.11259261,0.07111405,0.21355256,-0.056889676,-0.28492117,-0.04734542,-0.109937675,0.06341418,-0.01703032,0.01150062,0.3801604,0.21142845,-0.22500733,-0.07863919,0.017765766,0.27608526,0.23561257,-0.20070904,-0.08425497,-0.21399865,0.24223047,0.27591655,-0.10241926,-0.077056415,-0.04767887,-0.2530474,-0.08178257,-0.089836575,0.10532792,-0.23851822,0.102992274,0.07504625,0.23049892,0.033281647,0.13166273,0.017504303,0.079720736,-0.07368913,-0.07577013,0.1178862,0.04260791,0.16501775,0.40080678,0.11140242,-0.27990237,0.05431827,0.018600771,-0.13265051,-0.056276526,0.4660702,-0.05871837,-0.086183496,-0.05306513,-0.06548017,-0.080456674,-0.017432489,0.08120871,-0.2655469,-0.036202002,-0.10300032,0.06756973,0.29658103,-0.08376116,-0.059351455,-0.13960624,0.13583547,-0.030277072,0.028871547,-0.0338705,0.26963672,-0.27866608,0.13024622,-0.09871868,-0.29262125,-0.05548477,-0.1846063,-0.10946626,-0.1611993,-0.055216655,0.14170896,-0.14042887,0.37055123,-0.039679993,0.16552055,0.3528866,0.25834358,-0.15173796,-0.19041833,0.11874186,0.2589791,-0.11474733,0.50481766,-0.17358138,0.04110682,-0.18817729,-0.12420778,0.30596125,0.06396967,0.17348886,-0.19614689,0.2741654,0.031900246,-0.12422262,0.1858109,-0.09483931,0.23065493,0.2733452,0.11947313,-0.020857848,0.06621915,0.1604307,-0.036138646,0.101256035,0.0852322,0.15053119,0.15420197,0.30075526,-0.18106663,-0.38679194,0.10076067,0.07676604,-0.47688362,-0.5722948,0.13067883,0.25659245,-0.025304334,-0.10651098,-0.21127625,0.073736526,-0.0054927734,-0.36893174,-0.1925397,0.09892101,0.097100765,-0.2946435,0.09709512,-0.0037021134,0.33493197,-0.22325553,-0.40229374,-0.010984585,-0.54292035,0.25319806,-0.3542623,0.11886602,-0.016175635,0.10217205,0.03830507,0.29231098,0.13637769,0.50678927,0.33303306,0.04832515,0.26054585,0.040009346,0.0596853,0.043458246,0.07819694,0.22455315,-6.2701845,-0.3744828,-0.1670886,0.094747484,-0.15442277,0.14474586,0.38131523,-0.0036622821,0.21331754,-0.15255247,0.111488946,0.005942306,-0.06271524,-0.18773387,-0.05257543,-0.21153961,0.04027492,0.02110353,-0.35403123,0.1234775,0.06461752,-0.12575658,-0.0047413073,-0.110890076,-0.41888684,-0.016237734,-0.20360549,0.18423386,0.4455399,-0.019979218,-0.38867328,0.21725942,0.21537451,-0.11239914,0.09708613,-0.21581486,0.04130323,0.09194825,0.2627734,0.03294483,0.37610295,-0.09961409,0.019168044,-0.032121275,0.35732624,-0.22244833,0.22378777,0.28244385,0.124517836,-0.030934324,-0.12981226,0.08657393,-0.121296,0.14314982,0.058666874,-0.15515038,-0.05500575,0.19750433,-0.059143625,0.06834093,-0.13278799,-0.03866474,0.16512686,0.23771639,0.13108666,0.045468733,0.15392305,0.19940862,-0.4010904,0.029034518,0.19034967,0.27151936,-0.2598965,-0.34050354,0.4215803,-0.11714437,0.056992617,0.024635928,0.267519,-0.03613555,-0.21764477,-0.19494021,0.020826848,-0.11479246,-0.00071989297,-0.3481581,-0.08447254,0.23388074,-0.14106391,0.021922445,0.0746019,0.054627977,0.20641896,0.14606874,-0.100195296,0.027030678,0.09270887,0.16621605,-0.12460942,0.30309793,0.06507862,0.29652798,-0.024430575,0.109462254,0.19638947,-0.1331663,-0.09119468,-0.16578744,0.10570375,-0.044147357,-0.13721117,-0.3008771,-0.11764003,-0.074055664,-0.04063974,-0.019815952,0.31606045,-0.074838884,0.300184,-0.23228292
LYS_4_B,0.020237267,-0.10829974,-0.00083820324,0.04855844,-0.5041819,-0.040347654,-0.030745387,-0.01952274,0.26295006,0.1282693,-0.21771581,-0.032372672,0.29916772,-0.11334844,0.5447094,0.091264375,-0.027015876,-0.114505194,0.14354192,0.060981873,0.11701791,-0.2743504,0.06883957,0.07360779,0.23523058,-0.0950554,0.08818815,-0.2282513,-0.10762684,-0.13993159,0.008926054,0.046515934,-0.08677043,-0.020317242,-0.040868368,0.3046792,-0.26536703,0.093589514,0.011337564,-0.17956406,-0.3108179,0.12574223,0.35635823,0.026784016,0.34330937,0.1690474,-0.11178752,0.1566461,-0.20493934,0.07988792,0.19280425,-0.37034172,0.10695881,-0.10651416,0.39745465,0.035751138,0.053192683,0.16084792,0.005536671,-0.055765472,0.15110159,0.15194719,-0.016538713,-0.25388864,-0.17108479,0.07260872,0.0013839481,0.12328238,-0.0958637,-0.09554746,0.1376184,-0.04761232,-0.13554397,-0.064241774,0.04448793,0.08362157,-0.26151535,-0.097294286,-0.11770577,-0.1618703,-0.2934131,0.03516018,-0.03095803,-0.056729447,0.22433664,-0.13716756,-0.09922941,0.16770008,0.09335374,0.42427135,-0.48965478,-0.11024863,-0.070409566,0.061343245,-0.0815286,-0.17964235,-0.0999194,0.014374314,-0.3481743,0.06098056,0.13283482,-0.027760627,0.039884634,-0.020001402,0.010392637,0.04524447,-0.20801918,-0.18585162,0.21922727,-0.19254826,0.2622871,0.133513,-0.047821406,0.1968417,-0.087072074,-0.03396775,0.06766467,0.16989341,-0.016046708,0.21403906,-0.13423188,0.0068674004,-0.10363499,-0.012613317,-0.075735174,0.027250763,0.071014225,0.055110686,0.08732599,-0.08656212,-0.08546261,-0.061426703,-0.16219875,0.014802255,0.17560741,-0.11496618,0.091155455,-0.025854383,0.19417386,-0.0930876,0.21452306,-0.48310634,-0.17941871,-0.24377415,-0.18009761,0.06113399,-0.12126693,0.14416991,0.010951316,-0.11524583,-0.13615492,0.23761082,-0.2065314,-0.26042154,-0.0436796,-0.07720469,0.16047232,0.026506074,-0.15423854,-0.0038915419,-0.10250622,-0.071297966,-0.12053437,-0.07715816,-0.015649278,0.16833472,-0.011679166,0.012401277,0.23509882,-0.15584779,-0.03670394,-0.14579421,0.051582735,0.29642746,0.03228359,-0.45032254,0.03894819,-0.25414747,-0.02784093,0.004283555,0.3533091,-0.1180375,0.034064673,0.38849062,-0.19354701,0.22776583,-0.27088666,0.23715739,0.12896556,0.0635362,-0.10918472,0.110185035,-0.40692464,0.030646652,0.19128028,0.10996679,0.050420165,0.12071733,-0.12821214,0.30912548,-0.14267051,-0.1670783,-0.12342319,0.39014822,-0.21623328,0.11344068,0.1709352,-0.12780264,0.13888764,0.0029323655,0.17272383,-0.13942067,-0.0013657489,0.1487412,-0.41015297,-0.08448807,-0.21251246,-0.1008992,0.16035278,-0.046047762,-0.14932099,0.33865768,0.28520954,-0.21714836,0.11217957,-0.23623778,-0.15750577,-0.19345687,-0.09379237,0.43141344,-0.08849594,-0.036863692,0.31366515,-0.068467684,-2.504427,0.06824788,0.19247171,-0.029862337,-0.26276326,0.0154947415,-0.15109563,-0.16797915,-0.055937275,-0.20988466,0.0046076076,-0.09611055,0.19786392,-0.14551203,0.15055683,0.12395168,-0.020526582,0.17429149,0.678444,0.00905665,0.077151164,0.0770218,0.21046783,0.16163264,0.21781056,0.057950027,-0.1327678,0.2831045,-0.06468173,0.21357922,-0.26474983,-0.11132942,0.016989004,0.06904056,-0.17758158,0.0069499947,-0.15186925,-0.021424903,-0.052769553,0.19746295,-0.13001546,0.0788809,-0.17604418,-0.08403629,-0.09105142,0.2384126,-0.0988188,0.14767972,-0.2196031,0.15257111,-0.018145971,0.061076652,-0.38278016,-0.21939705,-0.1661692,-0.25573403,-0.09130923,-0.4624685,-0.07581093,0.20654948,0.08937011,-0.19086264,-0.19150783,0.2505521,-0.044359848,0.08050704,-0.114492685,0.1620563,0.1383448,-0.025999067,0.08350058,-0.03140966,0.13984405,-0.21121913,0.018908167,-0.1851401,0.21891578,-0.18581058,0.01617078,0.001958953,0.02744871,-0.17293102,0.061219763,-0.27336246,0.270432,0.07672846,0.01516993,-0.25951692,-0.029942092,-0.05018172,0.20618556,-0.45635942,-0.04894102,-0.08641897,0.19788896,0.043921936,-0.056172635,-0.07852752,0.14491454,0.13584107,0.1591496,0.10496157,-0.10169731,0.01712915,0.18205468,-0.16405755,-0.17726204,0.082198106,-0.045864623,0.007822333,-0.12748529,-0.1985204,-0.01813736,0.089477904,-0.21992195,0.21262473,0.13210566,0.10832893,0.012609673,-0.1544758,0.22957875,-0.25423148,-0.16325524,-0.086313285,0.0638432,0.012785415,0.50120753,-0.16298471,0.09044727,0.20893852,0.24204093,-0.11739121,0.17139645,0.059157424,0.042319812,0.22420289,0.27223495,-0.051984552,0.31633863,-0.00850037,-0.041007392,0.17402051,0.3521211,-0.113140956,0.18349412,0.39702123,0.12998928,-0.3192809,0.006599342,-0.06362376,0.27025622,0.090560235,0.003543957,0.052676123,-0.057261698,0.013381438,-0.122972265,0.2226027,-0.16295566,0.22253202,-0.080552645,-0.25937942,0.13755779,0.059869595,-0.0012658858,0.14970905,-0.16401643,0.17492294,0.04469205,-0.06692156,0.28771752,0.04787857,0.024128456,0.020903941,0.005045959,0.2693075,0.1366994,-0.17706634,0.15332277,0.051097054,0.15562424,-0.36298236,0.11748701,0.049552955,0.114056155,-0.1820338,-0.26136836,0.15563053,0.017072842,-0.19344468,0.128421,-0.16718554,0.047731433,0.07040951,0.19380215,-0.14960626,-0.08823459,0.056243528,0.061561055,0.030389981,-0.44802612,-0.040633693,-0.07299014,-0.08781078,0.03336303,-0.019049674,-0.21012822,0.18664624,0.0075703105,-0.14854519,0.26834562,-0.1656412,0.09121282,0.2710081,0.06058632,0.011802651,-0.06134938,0.23866738,0.048137967,0.24056648,-0.03668035,0.19151987,-0.06941437,-0.017438125,-0.03225399,0.060573295,0.042591807,-0.20330916,0.044033654,-0.3353458,0.11384553,-0.09549978,-0.33079785,0.4309592,0.21238184,0.05538193,0.31535214,-0.22372325,0.14185849,-0.07372214,0.055483866,0.089515366,-0.06830408,0.061062723,0.045918904,-0.10345503,0.05877762,-0.22729106,0.08475388,0.055629496,0.011628364,-0.013460659,0.26616746,0.07426474,-0.04657207,0.18038733,-0.07739115,0.015153277,-0.025960332,0.008581632,0.03248086,-0.05250481,-0.07172046,0.012896793,0.030196413,0.028226847,-0.12746207,-0.24222663,-0.31136546,-0.040338457,0.122124225,0.31137446,-0.024653692,0.257942,0.24782978,-0.02915012,0.13952672,-0.31790683,-0.04091385,0.013329154,0.0035926057,0.03877226,-0.1123784,0.123249285,0.06398307,-0.17759368,0.06203496,-0.14752539,0.3379979,-0.18858647,0.02194742,0.06256742,-0.012945288,0.011140499,0.11806791,0.1090093,0.03241226,0.37237224,0.042763606,-0.34642726,-0.06809065,0.086710595,-0.32342774,-0.04851208,-0.283491,0.25263196,-0.16281626,0.14041872,-0.057192925,0.12711112,0.013902354,0.10549155,0.11405732,0.00478202,-0.09167871,0.031887166,0.22666033,-0.112707876,-0.2814544,0.0066648377,-0.06537658,0.115995295,-0.14958304,0.27541807,-0.0076900576,0.076858364,0.09886249,-0.12139208,-0.025583353,0.055005282,0.011954435,0.008385664,0.054651406,0.12100289,-0.1155129,0.0437089,-0.28495473,0.23494211,0.31761906,0.100794904,-0.3083221,-0.07049697,0.048996646,0.18356077,-0.13611433,-0.22288871,-0.059329756,-0.018145679,-0.09176441,0.06921234,0.19357373,-0.06872709,0.05389198,0.24373917,0.10835217,0.17521739,0.31208223,0.15479292,-0.1823616,-0.28420848,-0.05822348,-0.08123591,-0.109518416,-0.08565677,0.072432004,-0.053691916,-0.26341748,-0.11315712,0.31463507,0.060208794,0.051528055,-0.029255515,0.351145,-0.20864129,-0.027175644,-0.15854685,0.06973968,0.1959134,0.21157078,-0.42241195,0.33058298,0.0079795085,0.22605291,-0.14383103,-0.12313572,0.12551239,0.17939103,-0.033612352,-0.15079106,0.002737585,-0.3246721,0.071335256,-0.43517444,-0.20704003,-0.0049507543,-0.121254176,-0.10297042,-0.19176327,0.11863183,0.021913711,-0.007854563,-0.18911733,-0.016472938,0.40838304,-0.12449332,-0.22286755,0.10517808,0.36532196,0.09193432,0.33093527,0.0178382,0.08077837,0.018733598,-0.10584055,-0.12916683,0.018745704,-0.17814575,-0.048311274,0.069601394,-0.019448314,-0.06574933,0.125794,0.06276093,0.3753137,0.086980276,0.1510251,-0.00018286132,-0.08089287,0.14712432,-0.11027839,0.059857063,0.366134,-0.10452881,0.1469146,0.13072118,-0.29551545,-0.07880589,-0.16880535,0.12214783,-0.21632653,-0.181821,0.069620416,0.03350535,0.114913665,0.109252155,-0.048857365,-0.008369723,-0.014372013,0.10947986,0.10873831,-0.28179365,0.30053118,0.14405021,-0.012717675,0.014222721,0.055272065,0.29496595,0.064651534,0.17460114,-0.08822204,-0.34384403,-0.014490117,-0.030464042,0.087766044,-0.061797768,0.044117052,0.17199083,-0.120466314,-0.25769037,0.2708839,-0.0876054,-0.1006834,0.1397384,-0.12736396,0.06626438,-0.016185882,-0.3424066,0.098670185,0.21839102,0.24743912,-0.0038916913,-0.111484796,0.040662006,0.19655229,0.0256364,0.024563083,0.051459007,0.03593131,-0.090567484,-0.0074001336,-0.04563248,0.17678684,0.17296271,0.3684167,-0.15926366,0.26222786,-0.47576964,-0.0045920266,0.036875855,-0.171832,0.10172361,0.0077033928,0.4397253,0.0033494497,0.24735291,-0.04317328,0.14638302,0.0071915686,0.031048432,-0.06699344,0.0458196,0.040302586,-0.03894919,-0.076309055,0.19683288,0.3736917,-0.038024027,0.095779724,-0.20720682,-0.10805982,0.29913953,-0.1673616,0.13749981,-0.054698933,-0.09846468,0.21935895,0.051150214,-0.18799923,0.07704443,-0.18141347,-0.08907591,0.1058532,0.055999283,-0.12445419,0.072631136,0.023557281,0.07131518,0.25330332,0.050697237,-0.06876912,-0.03810531,-0.16336586,0.070225745,-0.46193883,0.015874695,0.078349814,-0.0732527,0.3104741,0.15042925,-0.13962978,0.21483254,-0.26611465,0.23174036,-0.06461134,-0.02383589,-0.0022330454,0.15567034,-0.098742075,0.16220765,0.25324208,0.13555852,-0.21141651,0.11664909,-0.24587855,-0.058141697,-0.18643701,0.2489074,0.13027364,-0.4341491,-0.1129437,-0.18124893,0.2424646,-0.28888473,0.017448345,-0.22216317,-0.31133628,0.33052653,-0.35792863,0.18830034,-0.18444453,0.060156606,-0.212558,0.08557787,-0.046017867,0.09256172,-0.29571754,-0.022911793,0.13018325,0.11640125,0.20488715,-0.009154429,-0.112347774,-0.24176136,0.014125464,-0.1857284,0.13512059,-0.20223671,-0.11024845,-0.0771755,0.039586287,-0.054298397,-0.011230137,-0.03080357,-0.123262085,-0.07047361,-0.45962822,0.17805548,0.45301357,-0.086586945,0.0114035,-0.2379289,0.0402174,-0.09316854,0.024822481,0.24879721,0.006753045,0.3613167,0.051771957,0.38168898,-0.100897565,0.033820026,-0.13163057,-0.11262195,-0.17137757,0.37302488,0.10754931,-0.033048972,0.19126458,0.030806119,0.16676204,-0.14953123,0.041806594,0.015460581,-0.27209562,-0.06267049,-0.1569285,0.10292127,0.3855532,-0.14293724,-0.27508497,0.027213221,-0.12636867,2.5241482,-0.09194158,0.16786996,-0.0765109,-0.1557806,-0.0067454083,-0.32209778,-0.09517745,0.072336234,-0.0006341144,-0.024336597,-0.3987905,0.056894552,0.24497625,0.2280485,0.08347821,0.03147722,-0.13829015,0.14520164,9.487241e-05,0.20121413,0.09552196,-0.15305631,0.35213226,-0.0958292,-0.23554957,0.15226737,-0.18677723,-0.29145825,0.058452833,-0.22270149,0.056927674,0.09044634,0.15298495,-0.35054073,-0.010652571,0.052360293,-0.35356504,-0.10625008,-0.14737861,-0.008867983,0.04673506,0.26913488,0.049562722,0.07884057,-0.044699997,0.21804497,0.28818187,0.17937054,0.21702042,-0.17723307,0.078164674,-0.09716195,-0.03654704,0.17149837,-0.008892468,-0.19974828,-0.20841978,0.21326758,0.043444574,-0.077710256,0.15449902,0.017686361,-0.18369596,0.095260836,0.031087682,-0.012864238,0.19634381,0.14106032,0.26663297,0.39490592,-0.13143003,0.25138432,0.015833944,0.17148308,-0.3833486,-0.15550505,0.26081586,-0.00945001,0.027959388,-0.3195355,0.0101847,0.104920134,0.17272936,-0.19153257,0.12823653,0.037060924,0.23089494,0.12447385,0.0073335273,0.029122764,-0.033595834,0.19038905,0.15517545,-0.09834266,-0.2700556,-0.08811009,0.016171835,0.22675247,-0.10462944,-0.10800987,-0.13195652,-0.3962266,-0.053129558,-0.054735485,0.15747647,0.020527296,0.038387768,0.24285519,0.32963714,0.43645605,-0.12592506,-0.26335165,0.0022849445,-0.1011506,-0.00054148206,0.15135463,-0.28453094,0.19284087,-0.12196806,-0.01824891,-0.15935138,0.0130575625,0.22334729,-0.106947154,0.06354603,-0.0064146793,0.2923979,0.07247495,0.011302595,-0.0060722716,-0.07699716,-0.11855144,-0.3063889,0.08504332,0.10002092,0.08066464,0.0032581014,-0.09241404,0.12112025,0.116050385,0.15876305,-0.022546325,0.13230301,0.06356592,0.17348053,0.06664741,0.36213127,-0.08370609,0.0135223325,0.07890125,0.023760514,-0.103020675,-0.26015738,-0.16780019,0.101628006,-0.1813493,0.45366144,-0.048796926,0.26695725,0.26478222,0.09419342,-0.067223534,-0.069134235,-0.057613596,0.109499276,0.15076397,0.105017856,0.18048537,-0.24400133,-0.18822858,0.10904615,0.027616488,-0.12727061,0.18965733,-0.3184149,-0.07230314,-0.2597939,-0.16036294,0.060860652,0.018018516,-0.17492524,-0.11216741,-0.17800793,0.039632875,-0.07100597,0.21932715,-0.121630855,-0.16934578,-0.23461759,-0.0698267,0.1616996,-0.06617077,-0.32055905,-0.0066577275,-0.10646057,0.10560324,-0.2687673,-0.22922893,0.23138386,-0.0670416,0.034469415,-0.2178852,0.09356437,0.40852737,0.09981154,0.23157695,0.11955984,0.25333378,0.18409997,0.080827855,-0.38132843,-0.24117337,0.10532348,-0.092491426,-0.07041468,0.079734296,-0.1925732,0.17835958,-0.009460422,0.09788545,0.049495857,-0.00025866722,0.444562,-0.07503228,0.40736952,0.12615852,-0.17259586,0.30019614,-0.31501046,-0.23694435,0.18153793,0.011410933,-0.28805193,0.001974604,0.21928836,0.35680822,-0.16485734,0.22302231,-0.08152679,0.22285542,0.33010134,-0.17972872,-0.07277315,-0.12545311,-0.14509948,0.047083262,-0.12667094,0.13475195,-0.00094968756,-0.27524108,-0.4310386,-0.1592307,0.25900108,0.1644033,0.039213892,-0.17387512,0.17667736,-0.1498217,-0.285237,0.076197565,-0.024418935,0.12700163,-0.24186192,-0.029524503,0.15015619,-0.35105556,0.11153883,-0.257248,0.10826009,0.06264388,-0.040748473,0.14738311,0.17404926,-0.10373497,0.31408757,0.19962136,0.039966483,0.22256577,0.16071528,0.15360722,0.18759698,-0.2341497,0.15760326,-6.9573526,-0.6110264,-0.1862705,-0.14128499,0.024835864,0.0057146107,0.09077971,0.1679954,0.042385276,-0.28638005,-0.035793748,0.38370347,0.0827497,-0.010988961,-0.4473107,-0.059733495,0.098260336,0.075787075,-0.22140618,-0.06283625,-0.12849021,-0.23319824,0.20791404,-0.23686455,-0.32291967,0.29008207,-0.21518144,-0.0015261448,0.29973212,-0.03422701,-0.21778756,0.109138444,0.010167152,0.041685786,0.25285965,-0.13534498,0.02486791,-0.1294942,0.1556995,0.075660445,0.038561475,-0.06768168,-0.15056345,0.20481883,-0.043766886,-0.011833861,0.25262582,0.31162596,-0.21931571,0.48221594,0.24681938,-0.034214653,-0.23963423,0.24499647,-0.15164302,0.09631642,-0.09226567,0.31270483,0.008101421,-0.04834561,0.14069633,-0.17807217,0.0008890677,-0.050517846,-0.06498978,0.013994957,0.31765452,0.36638835,-0.25248063,0.18342032,0.18978144,0.24650626,-0.004560767,-0.12434182,-0.13899754,0.19699532,-0.12115847,-0.12699142,0.28783357,-0.08787071,-0.041638758,-0.42897886,-0.11023548,-0.20524429,0.015693774,-0.020303516,-0.10050473,-0.1441671,0.12903653,-0.11453966,-0.03310351,0.05447837,0.063764274,0.14242695,0.07010846,-0.07815623,0.1974662,0.016572254,0.101260036,0.1448111,0.11576793,-0.0427232,0.16887796,-0.1331946,0.15171856,-0.052227307,-0.19255282,-0.1363686,-0.013803441,-0.021647833,-0.05742486,-0.13780093,-0.112791784,0.06310257,-0.15343623,-0.086866096,0.016590709,0.010482273,-0.1557214,-0.09635912
ASP_5_B,0.043245036,-0.17787966,-0.17633179,0.20456554,-0.14800936,0.059588138,-0.081173055,-0.109670274,0.058715045,0.12182985,-0.01777114,-0.06540985,0.25995952,-0.11169935,0.3007037,-0.092026174,-0.002641817,-0.044366073,-0.054992106,0.5292506,0.3784536,-0.25881672,0.04326124,0.31034386,0.08770308,-0.10738506,0.16346356,0.018899007,-0.027281608,0.05406096,-0.36062595,0.092614345,0.18131278,-0.053062182,-0.115535185,0.17365192,0.2160344,0.09360619,-0.35314927,-0.04938801,0.18823828,0.05744997,0.31186765,0.2758662,0.39177555,0.065500334,-0.012428768,0.0061789667,-0.16069216,0.23263066,0.17154014,-0.25514054,-0.03405545,-0.11187592,0.43751574,-0.05317835,-0.15638833,0.14530694,-0.013468924,0.062069047,0.050243158,0.38877037,0.12041931,-0.016238878,-0.05069108,-0.19013633,0.28319296,0.10670371,-0.052523922,0.04199128,0.27585694,-0.03414964,0.11570055,-0.029369354,-0.055922225,-0.019027071,-0.50756544,-0.014313353,-0.19982861,0.029103855,-0.092299625,-0.12104804,-0.18589485,-0.024349082,-0.08547931,-0.082075246,0.006797621,-0.0664148,-0.23418072,0.59296256,-0.007039212,0.21397392,-0.31987676,0.023943964,0.105999626,0.080975525,-0.06634293,-0.2061643,-0.2145513,0.066299595,0.10404314,-0.12204625,0.048322774,-0.121637575,-0.11662765,-0.17917022,-0.14493516,0.29148188,-0.083199516,-0.14199339,0.27666056,-0.031175882,-0.021391004,0.22008185,0.022761721,-0.05231985,0.23108934,0.073470525,-0.04932657,-0.14449789,-0.23404899,-0.003571093,0.023370085,0.18001613,-0.0041078217,-0.13953799,0.034365494,0.22124271,-0.18580095,0.22892547,0.1145154,-0.10336815,0.089012094,-0.16180125,0.051990833,-0.22240804,0.24299952,0.13686152,0.38307986,-0.15488541,-0.043474246,-0.04970992,-0.22550587,-0.20740132,0.065772526,-0.19505666,-0.12298544,0.124386355,-0.16704626,-0.0055367695,-0.04692793,-0.2810002,-0.12333023,-0.14093041,0.07626637,-0.21269205,-0.048930258,0.30076683,-0.2683013,-0.17742234,0.01727991,-0.1193162,0.077344805,-0.05700596,-0.0014348249,0.016075201,0.0140374,-0.16709055,0.44244766,-0.021037353,0.053708002,-0.08684946,0.34901643,0.12913944,0.113263145,0.03632363,0.11169027,-0.06972558,0.19911459,0.14697891,0.1325323,-0.0951583,0.40595853,0.1372752,-0.11624563,-0.0152344005,-0.10194126,0.0050352695,0.052201256,-0.15395072,-0.08262428,-0.02764263,0.0025478974,-0.10392539,0.12610811,0.18806244,-0.16627084,0.26282024,-0.29509556,0.17788808,-0.039107744,-0.05645073,0.10906008,0.29943365,0.023540495,0.19127938,-0.28670156,-0.16837355,-0.08305293,0.049781103,0.23301144,-0.05249498,0.0052287527,-0.28380612,-0.066599846,-0.31939945,0.24096043,0.031729516,-0.2470908,0.32487294,-0.21197888,0.17407174,0.15167849,-0.06476755,0.033706583,-0.08925828,-0.0353698,-0.17736901,-0.19497177,0.2888653,0.17858963,0.047701728,-0.11456168,-0.17461671,-2.4446285,0.11995669,0.51692635,0.25167614,-0.06065466,0.044783246,-0.17868282,-0.10552324,-0.11203666,-0.035917733,-0.022508768,0.0030419545,0.19760804,-0.008483264,0.042579178,0.03889928,-0.018290631,-0.20012626,0.022239042,-0.060905527,0.102987215,0.010519888,0.13300687,0.080701165,-0.06973735,-0.07781951,-0.05046594,0.07447376,-0.07764454,-0.17817271,-0.05187655,0.016246162,-0.060300846,-0.1793497,-0.14393665,0.19048925,-0.030030815,-0.14237325,0.111972004,-0.009287902,-0.21962121,0.08540405,-0.031097341,0.20963229,-0.13026759,0.03332539,0.041870374,-0.1373944,0.26486418,0.020681912,0.08936845,-0.26049396,-0.14800921,0.20748045,-0.08171717,-0.09145078,-0.0637556,-0.010802272,0.00024541802,0.15465872,-0.096985124,-0.15780291,-0.22307906,0.34117606,0.0050746957,0.053936515,0.16364297,0.07619862,0.2188273,0.28879905,0.13143961,-0.29620367,0.3460555,-0.06446427,-0.022196382,-0.03292774,0.26732862,0.03264227,0.021895416,0.052101836,0.31752214,-0.043613218,0.020317681,0.0012955435,-0.19879252,-0.09225379,0.29866102,-0.17855722,-0.086539745,-0.028459355,0.1083691,-0.051294178,0.15670344,-0.13359535,0.17209199,-0.14735648,-0.17159884,0.140646,0.11287677,-0.18308492,-0.20793265,-0.024222378,-0.0834755,0.022264265,0.06089936,-0.061589867,-0.015915766,0.049818125,0.07533527,-0.031510625,-0.037112437,0.018556813,0.027094956,0.15483236,0.034556836,-0.09874732,-0.26833546,0.057360716,0.21368974,0.12121658,0.17594884,0.007929179,-0.029519562,-0.2644012,-0.14661425,0.1979893,0.31394857,-0.10116743,0.08361703,-0.13371044,-0.05695229,-0.037124723,-0.01415816,0.11278636,0.09377797,0.18504441,0.16497071,-0.37047866,0.30077785,0.10007052,0.12197883,0.08756084,0.2781062,0.13961165,-0.53371835,0.20902158,0.04326718,0.22950168,0.050691828,-0.082764566,0.29800814,0.036395907,-0.10304369,0.0329249,-0.15275043,0.2546066,0.15946966,0.24146758,0.078525394,0.13559715,-0.1980364,-0.0873267,0.22211272,0.14900851,-0.22115874,-0.1797926,-0.2667889,-0.03750402,-0.17942455,-0.26415414,-0.0019196274,0.3246367,-0.049949773,0.34199417,0.4111551,0.30951908,0.11349239,-0.03238573,0.008472055,0.0678238,-0.038742326,-0.11590641,0.21656631,0.28208175,-0.08171223,0.085093275,-0.023888549,0.22395171,-0.11221987,0.21049789,0.12717424,-0.2501516,-0.1263256,-0.2495412,0.10250795,-0.06632017,-0.26324448,0.03451273,-0.26933458,-0.10081142,0.09987423,-0.03253108,0.0045964886,0.13139358,0.049928688,0.09387413,0.06611218,0.13656045,-0.3122534,-0.3353277,0.353898,0.044257503,0.024237394,-0.19155107,0.010991467,-0.2118893,0.4274487,-0.11039636,0.0070756674,-0.01600035,0.16243643,-0.003235912,0.11013544,-0.008922552,0.027350629,0.11336896,0.0013630565,-0.21253484,-0.107819684,-0.08771514,0.22734839,-0.19630131,0.27457437,0.16296755,-0.02439579,-0.0398536,0.2728708,-0.42057896,0.03470083,-0.16790459,-0.18503425,0.04082628,0.009224806,0.2408029,-0.03374831,0.03668738,-0.027288793,-0.3525557,0.028793914,0.008009002,0.19998868,0.037191823,0.3179392,-0.11526643,0.0480965,0.23957802,-0.17836294,0.13168542,-0.40308973,-0.044211444,-0.14794575,0.21277112,-0.23651616,0.04961094,0.095139064,0.11005391,-0.14950861,0.13428509,-0.023877498,0.16456696,0.075361535,0.12373856,0.014234111,0.09206451,0.051289145,-0.05138531,-0.008794336,-0.09199928,-0.1381585,-0.15132882,-0.12937747,-0.14930597,-0.019023016,0.15335308,0.23888178,-0.08731088,0.20852426,-0.1870115,0.26634762,-0.004479652,0.049392454,-0.0378528,0.008890618,0.12031903,-0.018607967,-0.16119802,0.122043625,0.2801442,0.053485394,0.14876887,-0.08072159,0.15201692,-0.16011195,-0.24794087,0.063325375,-0.027964814,0.24590877,0.33334753,-0.19892478,-0.014673131,-0.04882271,0.058630507,0.09250092,0.06694655,0.08113829,-0.09969383,0.259497,-0.109600246,-0.18263942,0.2685462,-0.055514354,0.05727221,-0.20519356,-0.05331121,0.031594064,0.31187963,0.35903016,-0.04924081,-0.12929334,0.12897277,0.03815533,0.05546146,-0.13237524,0.3698079,0.3048849,-0.08023048,-0.0854739,0.4165049,0.17625688,0.40822017,-0.13341673,0.0862362,-0.08650874,-0.28141993,-0.29321557,-0.092495896,0.02202275,-0.18671359,-0.31278995,0.03702892,0.19757809,0.0729723,0.2322694,-0.13333422,0.05043884,0.044052165,-0.06214116,0.13326548,-0.050031647,-0.1343289,0.13930531,0.25441706,0.1866752,-0.263032,-0.009985894,-0.16957791,-0.22684072,-0.10949275,-0.018079342,-0.04776058,0.044013638,0.18551151,-0.061701726,-0.11662777,-0.19866921,-0.021210749,0.14869963,0.024209505,0.007985966,-0.42678323,0.1263766,0.24731027,0.07198673,0.21356314,-0.15938109,0.018296206,-0.12589437,-0.013197215,-0.14300704,0.10197551,-0.4012726,-0.06567066,-0.112331785,-0.19273241,0.20237428,-0.032585464,-0.10168855,-0.045250032,0.01548037,-0.031012075,0.025918905,-0.052360784,0.16403568,-0.14352462,-0.09470196,-0.1341799,0.43997657,0.042010482,-0.075650826,-0.0023839278,-0.26236308,0.23465237,0.14722076,-0.047883615,0.19815902,0.2884447,-0.08237586,0.16363437,-0.10001801,-0.012256086,-0.17146917,-0.0046633296,-0.040450383,0.19825535,0.10822553,0.31650776,0.22848566,-0.22924086,-0.007470842,-0.019469954,-0.25272313,-0.036030702,-0.3753264,0.10477983,0.107230015,0.0674192,-0.08720911,-0.21965283,-0.09778484,-0.22236691,-0.24124643,-0.07421156,-0.29394388,0.06092405,-0.18092199,-0.064395495,0.19068639,-0.065023094,-0.10940868,-0.07261387,-0.2941281,0.021133207,-0.109520406,0.03572361,-0.13542192,-0.21374744,0.069628805,-0.08825823,-0.017014233,0.19776748,-0.12260646,-0.18360077,0.0063783433,-0.3396291,-0.033406325,0.17726302,0.28124228,-0.039922044,-0.21805307,0.14941832,-0.0057086092,-0.004211554,0.06649686,-0.2503689,-0.1779205,0.02421179,-0.05433485,0.01745205,0.11160784,0.18493454,0.18566978,-0.14969711,0.022737378,-0.09812127,0.096429095,0.04956125,0.16589662,0.10206775,0.39261785,0.0074658,-0.24199425,-0.0045156376,-0.10061696,0.18843935,-0.085552484,-0.008395148,-0.24500939,-0.1535135,0.1961428,-0.1364509,0.08004612,0.24474646,0.122135825,0.16277015,0.11656584,-0.029868841,-0.07268311,0.086984456,-0.032454763,-0.09019945,-0.17632458,0.1475648,-0.46164986,0.017447527,0.039280966,0.33516997,-0.046146248,-0.0058164136,-0.3312568,-0.11481364,0.13443467,-0.18990767,0.07120353,-0.18245594,0.022211466,0.2747578,-0.12054559,-0.05866246,-0.06242264,0.038565084,-0.2856326,0.15041,-0.075746246,-0.25938222,-0.24699084,0.0124262795,0.16350324,0.11443896,-0.07654456,-0.22272396,-0.0694424,0.05719191,0.06848307,0.09713399,0.0932787,-0.31344563,-0.15770878,0.035416495,-0.18304671,-0.10907359,0.058468554,-0.17661533,0.09504376,-0.09224713,-0.27884284,-0.012929048,0.12244744,0.022530096,-0.08433747,0.3350599,0.003038321,0.042958327,0.14444011,-0.01923508,-0.31225064,-0.36268243,0.026233612,0.27966562,-0.060619455,-0.0009791026,0.2847373,0.07986428,-0.18590982,0.0520568,-0.05220328,0.070390895,-0.02421657,-0.27296737,0.24715549,-0.11649954,0.32508332,-0.2489885,-0.11076503,0.15195565,0.29724324,-0.36071926,0.027053544,0.16933435,0.13134678,0.14959861,0.011104316,0.013741303,0.11024997,0.07285108,-0.13938488,0.13373217,-0.08339007,0.041547738,0.09225554,0.100557685,0.011167902,0.047496095,-0.21109372,-0.009120115,0.07969686,-0.2295974,0.00029601814,0.20989807,-0.2130615,-0.040525753,-0.1473567,0.15941651,-0.2502086,0.09365261,-0.032049105,-0.16711196,0.12109108,0.10050743,0.05001619,-0.13397293,0.023049256,-0.13359348,-0.34871504,0.032646548,0.4029097,0.22556823,-0.021671344,0.34082392,-0.09376221,0.322997,0.124481626,-0.05793553,-0.06589335,-0.21538775,-0.11806516,-0.19695747,0.08268607,0.12055407,-0.012829828,-0.016586166,0.025395105,-0.048210677,3.0700214,0.15605603,0.037199777,-0.158675,0.25314498,-0.24399717,-0.12597054,-0.253599,0.012292514,-0.14039959,-0.02391458,-0.31031245,-0.029401217,-0.20272478,0.14079754,0.21321453,0.060896445,0.13417718,0.10398923,-0.02971815,-0.3208435,0.032302286,-0.1148948,0.07319684,-0.049589943,-0.058870483,0.278559,-0.24697126,-0.010213925,0.165143,-0.26800168,0.11475911,0.12467672,-0.05864812,-0.4746501,0.22052774,-0.042415995,0.13288066,0.2737176,-0.13051958,0.09887884,0.0099509675,0.04847983,0.34780446,-0.0378264,0.01228457,-0.028155563,0.18684758,0.49080604,0.12587523,-0.20632543,-0.040123317,0.031488124,-0.18890849,0.008860883,-0.1899003,-0.015660198,-0.28608632,-0.1736518,-0.107703,0.09504862,-0.1462528,-0.07586934,-0.15729816,0.25804138,0.05004225,0.28068167,0.08807873,-0.19045995,0.17759901,0.09890234,0.2638824,-0.11575097,-0.08763426,0.25235796,-0.024552664,0.13422617,0.36815715,-0.24591593,0.038792115,-0.21481411,0.16347115,0.20662403,0.18746758,-0.24260189,0.25798565,0.20611662,0.019838333,0.0036341506,0.07607389,-0.23857546,-0.09069628,-0.083368585,0.16385818,0.17132674,0.0065674228,-0.20439556,-0.10180777,0.25841874,-0.18539914,-0.2901771,0.21297291,-0.10194636,-0.20522548,-0.1707923,-0.11410741,0.2847338,-0.10239197,-0.14061691,0.092362374,0.11032912,-0.23461828,-0.22203545,0.14317174,-0.46665514,-0.05936624,-0.19244117,0.028184453,0.12686698,0.0634428,-0.11598709,-0.021746244,-0.12081116,0.17019425,-0.3698091,-0.1129226,0.09087467,0.063220106,0.123147964,0.17658648,-0.3402957,0.193385,-0.11383517,-0.14708272,0.36692238,0.18243016,-0.052704446,0.058295682,-0.06926256,-0.13333806,-0.23030216,0.06380695,0.038342997,-0.0784886,0.11747915,-0.10900624,0.06335829,0.3486502,-0.3078128,-0.119396776,-0.0015896657,0.024064442,0.32756117,-0.04507664,-0.012812375,-0.07249948,-0.20220287,0.42147353,0.100483626,-0.1383516,0.4002779,0.21435295,-0.023011649,-0.22363348,-0.08928838,0.12302876,-0.036037453,-0.091139466,0.15037914,0.073159166,0.19579592,-0.09072455,0.1467765,-0.08476401,0.10894057,0.14859915,0.01694271,-0.27103236,-0.19076861,0.094869584,0.25796396,-0.20636185,-0.09528866,0.13997081,-0.030066213,0.13143514,-0.33707094,-0.06818282,0.10749619,0.008002862,0.24054097,0.31445137,0.093666136,-0.018879594,0.23313704,-0.057157952,0.19805017,-0.048816245,-0.16617315,-0.11305637,-0.29715696,-0.28080696,-0.2808221,0.232049,0.22920862,0.022466289,0.029980507,0.043292847,0.45270053,0.17680922,0.11013388,-0.04688048,-0.047099296,0.31818056,0.17611039,-0.28552905,0.20310932,-0.011405351,0.22644874,-0.019995028,-0.102932766,-0.11338352,-0.15766254,-0.04680539,0.17286661,0.41184732,-0.25680938,-0.22381787,-0.09839199,-0.08483471,0.016043102,0.072382934,-0.11787134,-0.02991901,0.063130386,0.109246284,-0.34846193,0.1093184,0.15609005,0.06454185,-0.04877861,-0.18127999,0.1175671,-0.30717337,0.052881066,-0.026995257,-0.11611875,-0.19653684,0.024476064,-0.033538364,-0.19145702,-0.25357378,-0.03569748,0.2019268,0.07700943,-0.11218392,-0.027147748,-0.08237223,-0.005856629,-0.23274757,0.15840432,-0.07588801,0.006265541,-0.08945859,0.09715295,-0.0021448806,0.12610026,-0.064363755,-0.100342266,-0.050811566,0.06621413,0.08783793,0.025053728,0.12979488,0.13841663,0.19633316,0.13593052,-0.057585858,0.09983133,-0.2260113,0.15475439,0.13755742,0.2541059,0.1499961,-7.1665874,-0.4033227,-0.19364202,0.17431517,0.13654804,0.23195769,0.16231254,0.16093986,0.11581396,-0.09278318,0.036152706,0.17550461,0.04986197,-0.28885812,-0.16533193,-0.09933204,0.14617716,0.1004834,-0.11758978,0.08435034,-0.30151033,-0.09774189,0.037754804,0.17191944,-0.045472894,0.31718373,0.017744817,-0.26518467,-0.020294936,0.036367103,-0.11620375,0.260907,0.07840224,0.07435248,0.19788115,-0.0016563962,0.030290924,-0.19105567,-0.00022712954,0.17537777,-0.010010206,-0.110351644,0.1324687,0.020603558,0.08332542,0.061656162,0.17564927,0.09466255,-0.37629786,-0.14492106,-0.2511981,-0.24051154,-0.40647528,0.058426507,0.03748262,-0.16478902,-0.0948944,0.1553858,-0.11432146,0.029850015,0.17099553,-0.09727695,-0.29406083,0.09094946,0.07531248,-0.12506789,-0.0050035636,-0.011607387,-0.0284677,0.13289154,0.1361319,0.047773995,0.052701045,-0.20530106,-0.06677477,0.16084695,0.18899037,-0.18143716,0.058720026,0.117102265,0.030035224,-0.057686985,0.12731087,-0.23337992,0.26203132,0.08057884,0.038722053,0.13343254,-0.052293845,-0.010986525,0.04652845,0.1727029,0.14765753,0.11046748,0.13103096,-0.11110885,0.016831208,-0.2671181,-0.23881026,0.17046143,-0.14409927,0.124617495,-0.061998308,0.0669744,-0.0025976973,0.09329012,-0.02535531,0.1733978,0.3002426,-0.11863444,-0.051408183,-0.047396164,-0.0691135,-0.047148556,-0.15197061,0.018044252,0.28328547,-0.18597665,0.21758686,0.068623945
PHE_6_B,-0.1664691,-0.5006864,-0.11007769,-0.050811194,-0.19685464,-0.2387673,-0.016562564,0.10158004,-0.41663763,-0.12314825,0.14243238,-0.07430205,0.103338264,-0.088194415,-0.09586831,0.10712044,0.038034275,-0.10523175,0.09141517,0.10614118,0.18035726,-0.2958725,-0.35388488,0.38646817,-0.0010690399,0.07437828,0.1964361,-0.2522401,0.11999859,-0.36593574,-0.08014423,-0.09392174,-0.12835474,-0.006809846,0.28712407,0.079081796,0.10813172,-0.044283077,0.006948939,-0.015115621,-0.2499291,0.1866947,0.4016713,0.011717101,0.19559945,0.42405948,-0.21131511,0.13933249,0.20976768,-0.06919913,0.16278881,-0.21569696,-0.37680522,0.031791765,0.2465431,0.18807301,0.14222144,-0.13842194,-0.100219466,0.31587422,-0.06959937,0.33291015,0.24344605,-0.24921724,0.14023404,-0.49962816,0.19510673,-0.10189043,0.035311688,0.37040606,0.27541277,-0.15885887,-0.3907867,-0.08105697,-0.20115249,-0.097972766,-0.13202383,0.07843418,-0.05143233,0.29835817,-0.118954115,0.25360015,-0.0056954175,-0.009206814,0.072324544,-0.15628333,0.012381653,0.34999394,-0.36517403,0.094545335,0.10994377,0.16158372,0.084867604,0.102058105,-0.30709067,0.2641555,-0.08300263,-0.27603358,-0.34100056,-0.3278406,0.24448149,-0.50317144,0.012089296,-0.3961243,0.08854145,0.13916628,-0.333468,-0.26153493,-0.13395162,-0.13082086,0.2113612,-0.11055509,0.110012285,0.08004078,0.2769427,0.05320663,0.10407766,0.25731692,-0.0886884,-0.11555232,-0.31801254,0.019041965,0.0995238,-0.16165781,-0.20243314,0.015438241,0.18056688,-0.060024753,-0.2764631,0.344431,-0.15517601,-0.1613662,-0.0026544586,0.12337739,-0.34145755,-0.00895833,0.28016278,0.15806288,0.1689862,-0.2917066,-0.2163269,-0.18646279,-0.099919304,0.12580949,-0.09715821,0.54434013,0.087732546,0.14357275,-0.5172721,-0.22531047,0.11710532,-0.06324663,-0.49088475,-0.20963372,0.68271625,-0.1408257,0.08292045,-0.00663039,-0.25698188,0.037563264,-0.080974005,0.22090457,-0.07515863,0.020485908,-0.2851119,0.059281733,0.043593373,0.060600013,0.12672676,-0.045381617,-0.23977049,0.17396574,0.26006228,-0.08056605,0.14670989,-0.50001186,0.13021007,-0.43241376,0.18868786,-0.15104929,0.3407354,0.04687422,0.16792724,0.51258504,-0.2605137,0.24760053,-0.05019531,-0.22952028,0.20052052,0.008848537,-0.100662656,0.18900864,0.06953314,-0.043292187,0.18398279,-0.10743589,-0.037280723,0.08501309,-0.16745058,-0.078541584,0.15919963,0.31444693,0.0057709836,0.047560163,-0.13472882,0.050443657,-0.06544518,-0.10913042,0.03313078,-0.1759267,0.508013,-0.18636239,0.025289906,0.07417681,-0.26404968,-0.19535118,-0.21393244,0.012092669,-0.23122016,0.09478108,-0.07050968,0.12323686,0.035907943,-0.057269774,-0.055135734,-0.2544775,-0.33532453,0.23341253,-0.25367016,0.18349469,0.10415937,-0.23768233,0.08322097,-0.533395,-0.8247662,-0.014857829,0.6571359,0.21332546,-0.12588981,-0.10829316,-0.5087851,-0.109735094,-0.1453748,0.013061861,0.21490899,-0.18224749,0.17247516,0.10009417,0.31066903,0.14922139,-0.3278271,-0.0064663067,0.048401,0.020284573,-0.016780553,0.0066316645,-0.095834106,0.28883854,-0.26363653,-0.45282635,0.26129588,0.1576631,-0.07235705,0.32529375,0.16267742,-0.2714101,0.070681706,0.3182102,-0.2983862,0.119393624,-0.0026399451,0.2148266,0.24189565,0.15887752,-0.01868721,-0.14110145,0.46273494,0.18883371,0.0383723,0.112576835,0.26073846,-0.24696694,0.04732426,0.20091258,0.07945683,-0.14051509,0.17390022,-0.062027592,-0.102506354,-0.2346538,0.09051713,0.25069812,-0.18907735,-0.20942418,-0.11097383,-0.04356934,-0.26171404,0.06695311,-0.108819954,-0.086828545,0.16608578,0.19408013,0.24904634,0.024710214,-0.14014465,-0.39423177,-0.01661948,0.0004642236,0.42270547,-0.0043565426,0.2609616,0.2290936,-0.019038111,0.23835306,0.03208326,-0.05169332,-0.13596869,-0.24325137,0.19735223,0.13352467,0.049934488,-0.09759148,-0.04849677,0.024074193,-0.15583667,0.008191203,0.1697345,-0.21300805,0.55690676,0.12229516,-0.18249218,-0.15994327,-0.2790619,-0.038103778,-0.21073727,0.050212022,0.031791333,-0.28004378,-0.12904608,0.28362018,-0.013426302,0.10181949,-0.16805753,0.15423568,-0.3944286,-0.303945,0.195222,-0.10723662,-0.3337172,-0.29858103,0.087473474,0.012481671,-0.065555796,-0.4885513,0.13756673,0.006145664,-0.0005554138,-0.32469782,-0.013214849,0.19158836,0.34920916,-0.22017182,0.25973105,0.06694179,0.07987018,0.13267438,0.015128851,-0.049194083,0.33090365,0.06547693,0.41715097,-0.22633138,0.1934235,0.11648772,-0.10045878,0.08185214,0.26642668,0.056006,0.06517771,0.10518273,0.34492257,-0.033982527,0.1443187,-0.18592641,0.5323868,0.14284664,-0.26772892,0.18570007,-0.11155089,0.31893176,0.13498248,0.3009271,0.16046166,0.10131922,0.045818266,-0.028245255,0.2701021,0.0038977591,-0.10546658,-0.028806325,5.9298938e-05,0.06502977,-0.2788983,-0.4472387,0.03628983,-0.14898056,-0.32301247,0.039286282,0.2444677,0.31423512,-0.057743844,-0.12686099,-0.034390062,0.051308043,0.111588,0.17535463,0.1888564,0.36357993,0.2538977,0.08731125,-0.24470007,0.36401927,0.10267759,-0.28477186,0.51431715,0.019034337,0.043306038,-0.073991805,0.41317567,-0.0012061731,-0.19805157,-0.04500617,0.40043306,-0.042813998,0.10119656,0.11751995,-0.27825606,-0.26059955,0.044911586,-0.3078391,-0.17917386,-0.01598672,-0.10247338,0.09314182,-0.015935296,-0.068911225,0.010722787,-0.01823577,0.24654573,-0.16546965,-0.32127315,0.117681466,-0.0033733023,0.12650993,-0.4527232,0.3940316,-0.32694235,-0.13580103,-0.13432887,0.39090902,0.078152254,0.06307394,0.012689783,-0.2421054,0.36164534,-0.04051635,-0.07468181,-0.16798712,-0.3822304,0.2985116,-0.070619576,-0.11938743,-0.032611016,0.038210765,0.07016726,-0.12806648,-0.37467793,0.22079645,0.25076416,-0.120613985,0.19889605,-0.17569949,0.044823743,0.013753105,0.121727765,0.1528904,0.3238715,-0.2583994,-0.28082913,-0.10467158,0.084532276,0.11989555,0.13708529,0.1056649,-0.105452985,0.07484831,-0.20693266,0.33130175,0.17579831,-0.023913458,0.07821945,-0.092995085,-0.26468807,0.052584942,0.43108565,0.31685624,0.018503068,0.5084586,0.016486065,-0.17371653,-0.008470615,-0.2566739,0.06497297,-0.2365556,-0.38410226,0.13182022,-0.25559688,-0.12795667,0.09277619,-0.12162519,-0.11791342,0.08935628,0.14653659,-0.05579965,0.036834996,-0.25540215,0.16876923,-0.2343822,0.14823711,0.06279065,0.3207793,0.5528753,-0.1559034,-0.3942868,0.4582452,-0.40221938,-0.04644537,0.026226597,-0.48569322,-0.13408396,0.0042951577,-0.0055338494,-0.1784921,0.121720605,-0.1504647,0.0069263405,-0.0012402784,0.17289236,0.10289338,0.10471708,0.0025865673,-0.06929326,-0.28956282,0.09710283,-0.073305726,-0.2190683,0.001649384,0.099330366,0.08457782,0.17201316,-0.05306125,-0.12280842,-0.09061063,0.3552644,0.124225184,-0.26886573,0.10881787,0.21311395,0.11473454,-0.27614924,-0.2490798,0.40531427,-0.13856806,-0.48577413,-0.19677222,0.1452148,-0.05562589,0.27567926,0.062177736,0.2795898,0.12828605,-0.14288995,-0.29644415,0.17615283,0.47472367,0.1856977,-0.06638674,0.2764876,-0.013467993,0.32977024,-0.27441946,0.03664017,0.17190374,0.06840459,0.043439597,-0.109748,-0.11391127,0.14304073,-0.118575945,-0.2554094,-0.038733885,-0.37518224,0.21832755,-0.099210106,-0.12527174,0.05157769,0.25213066,-0.2585711,-0.005616919,0.037311137,-0.22963254,-0.010011843,0.0013580952,0.00032714865,0.20963848,0.17967716,0.27414396,-0.12943172,-0.14085865,-0.2623146,0.26889247,-0.12708361,0.31367946,0.23569378,-0.546324,-0.1323167,-0.052429054,-0.045943018,-0.20713332,-0.004978952,-0.31067038,-0.20775375,0.11683817,-0.0113060335,0.17456737,0.016088838,-0.0589541,0.15186547,0.004055625,0.02719336,0.113292485,0.13293217,-0.10735097,0.03204387,0.25411662,0.048430063,0.3822794,-0.2580072,0.25382933,-0.03287054,0.08034499,0.32456192,-0.12287992,-0.22205743,-0.3235688,0.018172646,0.053605456,0.1704536,0.059082918,0.054497264,0.030313399,0.30289558,0.35750058,0.09652245,0.032918468,0.074262165,-0.16141431,0.35908225,0.4306098,0.045234926,0.14049223,-0.4278305,0.27337554,0.14213651,0.079674,-0.017178008,-0.07548208,-0.053373955,0.076106146,0.09965259,0.19512022,0.011274143,-0.1919298,0.110331684,-0.28075752,-0.10875393,-0.011429531,-0.20101117,-0.2596455,0.0120235495,0.43141818,-0.070741385,0.075679325,-0.01287556,-0.29543447,0.015764438,0.35317442,-0.156355,0.2701731,0.11643636,0.26618037,-0.06570198,-0.2189747,0.2296422,-0.2932194,-0.204998,-0.27029318,-0.3789829,-0.34030145,-0.12091365,-0.2668939,0.16173859,0.3547532,0.0077536637,-0.11725622,-0.14858568,0.16364871,0.08942037,-0.005319101,0.20422867,-0.011636439,0.014545419,0.14351718,0.29583275,0.14902104,0.24595551,0.03555641,0.41689447,-0.33729023,0.20614307,-0.10133212,0.029238021,-0.13072689,-0.19119853,0.22147933,0.32963368,0.03657793,0.5040687,0.5193869,-0.14652348,-0.0685577,0.048579264,0.021842161,-0.37085873,-0.36432618,0.16824627,-0.054526515,-0.15407796,0.06164719,0.11258102,-0.15716897,-0.09867812,-0.11882275,0.14848877,0.36712623,-0.3655059,0.21383753,-0.06531603,-0.11657342,0.36004838,-0.16493317,0.20732121,0.19030112,-0.4203967,-0.18055195,0.18932024,-0.10585689,-0.09180671,-0.13308977,0.0007703219,0.16172993,0.03812232,-0.19431992,-0.39215624,-0.108419724,0.23261644,-0.0043544974,-0.15562412,0.047528703,0.015217857,-0.056060676,-0.123958424,-0.15151533,-0.38337073,-0.243888,-0.1943354,0.04285824,-0.36356807,0.16403952,0.4637738,-0.049231317,0.30438554,-0.17888987,0.45956093,-0.10280803,-0.30572942,-0.060248747,0.018874625,-0.3494639,-0.25465965,0.08726968,0.20081885,0.058987696,0.10143548,-0.0007480883,0.15933393,0.18536203,-0.23472401,0.047518328,0.047815166,0.2181637,-0.2747122,0.23210692,-0.12546507,0.06299667,-0.39002362,-0.045637332,0.17875603,0.11735104,-0.31090733,0.058006212,-0.058517877,-0.054547787,-0.22233091,-0.29708156,0.068284385,-0.122145094,0.25658968,-0.08842377,0.22156969,0.06573271,-0.10385935,0.0354201,-0.09925402,0.12329765,0.4285568,0.4060624,-0.026347809,0.08532937,-0.23003665,0.23705332,0.38388574,-0.51981634,-0.025189666,-0.2842778,0.14017452,0.1341138,0.1025139,0.071666986,0.14206979,0.16287255,0.118906975,0.052634437,0.33662987,0.016664393,-0.032542437,0.11478643,-0.26733467,0.022030747,0.27363232,-0.33503395,0.112066306,-0.029481173,-0.4725081,-0.21463625,0.098848626,0.024955,-0.14043257,-0.0036748769,-0.3042399,0.17844053,0.024540892,-0.020624824,-0.20804079,-0.12715627,0.1218854,-1.6613656,0.15464391,0.00812095,0.083113976,-0.15513857,-0.10356291,-0.4271759,0.14501776,-0.009000726,0.38073546,-0.3390188,0.06605506,0.11328918,-0.08143903,-0.010012036,0.16244331,-0.46288562,-0.0075104893,-0.12139348,0.18245597,-0.17395473,-0.11651141,-0.44454443,0.2802999,0.08590636,-0.3510752,-0.052326366,0.013270049,-0.109832704,-0.24176636,-0.12933098,0.28075868,0.05484512,-0.085805945,-0.21917666,0.14913973,-0.35963905,0.2301765,-0.026965551,0.24037677,-0.001701767,0.08521447,-0.16839097,0.018214636,0.44349045,0.015963675,-0.06441992,0.21364635,0.35215542,0.0045588277,-0.3266426,0.028903894,0.24319305,-0.16122109,0.27404514,0.37373492,-0.114829004,-0.14565441,-0.05823357,-0.31087902,0.36929238,-0.2043194,0.047660347,-0.22787833,-0.041357893,0.25653824,0.06930693,0.284475,0.065131664,0.3766126,0.035412848,-0.13155098,0.2289378,0.1462131,0.19269623,0.10222046,-0.22843526,0.16639519,-0.08581841,0.08514256,-0.09715402,0.3858769,0.2194157,-0.25041297,-0.16605604,0.2483386,-0.05927692,-0.088094674,-0.3688017,0.18379633,0.14796366,-0.16943881,0.034189563,0.12015082,0.22737718,0.12378477,0.04047772,-0.2919428,0.25398216,-0.13209863,-0.15712585,-0.033036813,0.23776367,0.031465292,0.019135809,-0.11899556,0.0024270446,-0.06338594,-0.13652925,-0.04876035,0.14790821,-0.42231813,-0.45166,0.0014651588,-0.12737754,-0.06884439,0.10525315,0.13121787,-0.15526938,0.080949575,-0.12974644,-0.24235272,0.11431627,0.0841555,-0.039412517,-0.20665157,0.20977758,0.12697852,0.10527545,0.5613083,-0.14712001,-0.027019294,0.01327649,0.07385571,0.43676078,0.20808493,-0.20679016,0.06325159,0.025440421,0.16294232,0.29298535,0.009024412,0.3912547,0.18136209,0.26163223,-0.2428716,0.28440282,0.10368488,-0.0283561,-0.16538657,-0.029061297,-0.05466648,-0.25658622,0.13766919,-0.02609455,-0.08820983,-0.12165868,0.2821147,0.39252594,0.22872801,0.05424542,0.10651992,-0.108845405,-0.3779017,0.10034716,0.036424,-0.013374801,-0.1895248,-0.017192343,0.19626322,0.108937435,-0.18885817,-0.067147344,-0.036172397,-0.06328547,0.037021343,0.10147466,-0.15954395,0.0230748,0.061285198,0.0467631,-0.07667576,-0.22588998,-0.26545,0.044466782,0.010967982,-0.05638834,-0.17556241,-0.6849988,-0.19694334,0.42597923,0.16771685,-0.09347988,-0.39082512,0.08499117,-0.14422591,0.09922827,-0.29819605,-0.26555365,0.19029039,-0.32273525,-0.45375124,-0.47018513,-0.1713603,0.47353303,0.15230113,-0.2994451,-0.124137,0.24704477,0.45051926,-0.082354605,0.21677716,0.110275984,0.058787476,-0.025038846,0.039564833,0.39987615,-0.2460681,0.104823105,-0.09257743,-0.23609391,0.15411432,0.4203086,0.0038335384,-0.0027609903,0.10257632,0.0966126,-0.43662515,0.02008784,-0.0083821425,-0.02780466,0.10411323,0.4518719,0.003500868,-0.3777335,0.28046185,-0.17561822,0.0539836,0.17700374,-0.07861684,0.10565892,-0.120423034,0.38182116,0.03727577,-0.14405358,-0.12464921,0.07143143,-0.13408585,-0.20282412,-0.15366547,0.08952316,-0.14505398,-0.23640887,0.12376828,0.08221337,0.0355679,-0.006386972,0.20008455,-0.17442112,-0.043944575,-0.022616038,0.0023785285,0.16278525,-0.09958693,0.18688168,0.069203615,-0.39996633,0.24011135,0.111374356,0.11291375,-0.06374947,0.21515441,-0.04775327,-0.24200541,-0.06648705,0.4595036,-0.15841277,0.27362663,0.11798156,0.12160135,-0.072180845,0.07918378,-0.043622043,0.2983265,-5.7466226,0.18070504,-0.068694755,-0.15336792,0.5281789,0.29785198,0.08648022,0.22521697,0.31210536,-0.017250948,0.12336321,0.17879263,0.022293594,-0.06897031,-0.15174694,-0.03106179,-0.018459713,0.1777313,-0.13044399,0.31153142,-0.09876323,-0.065358125,0.20123169,-0.02528149,-0.063862346,-0.028474845,0.021966744,-0.07297618,0.319,0.034361154,-0.37047514,0.0071345787,0.07936635,0.031227732,0.13427745,-0.0317955,-0.15311657,-0.15077442,0.5469861,-0.10230198,-0.1992657,-0.23232828,0.13069078,0.06468082,0.2066757,0.007266519,0.34158415,-0.022055522,0.13742842,0.09295494,0.29068893,-0.56480515,-0.10240451,-0.10723194,0.16976537,0.45140827,-0.12028135,0.07146098,-0.030856602,-0.25766438,-0.001197069,0.12052861,-0.15570699,-0.13631964,-0.10169033,0.008515372,0.12415495,-0.25574613,0.03745255,-0.26212692,0.2731818,0.2502575,0.25306985,-0.047830634,0.13871549,-0.32841888,-0.017112315,-0.25985342,0.20632179,0.040922593,-0.1785267,-0.37646964,-0.13336317,0.006648618,0.00898392,0.23434955,0.08739062,0.08129618,0.17264634,-0.25886777,0.17239706,0.35992688,0.1851712,0.1493782,0.41003445,-0.041893914,-0.0730271,-0.17083064,-0.12595311,0.105731145,-0.24300957,0.16852576,-0.11667966,0.061335314,0.035667848,0.115064666,-0.08449165,-0.33227596,0.0021392424,0.23743819,0.12086477,0.08186667,-0.082787134,-0.008656497,-0.31162935,-0.19073044,0.3955734,-0.43434963,-0.16949394,-0.16197114
