residue_id,0,1,2,3,4,5,6,7,8,9,10,11,12,13,14,15,16,17,18,19,20,21,22,23,24,25,26,27,28,29,30,31,32,33,34,35,36,37,38,39,40,41,42,43,44,45,46,47,48,49,50,51,52,53,54,55,56,57,58,59,60,61,62,63,64,65,66,67,68,69,70,71,72,73,74,75,76,77,78,79,80,81,82,83,84,85,86,87,88,89,90,91,92,93,94,95,96,97,98,99,100,101,102,103,104,105,106,107,108,109,110,111,112,113,114,115,116,117,118,119,120,121,122,123,124,125,126,127,128,129,130,131,132,133,134,135,136,137,138,139,140,141,142,143,144,145,146,147,148,149,150,151,152,153,154,155,156,157,158,159,160,161,162,163,164,165,166,167,168,169,170,171,172,173,174,175,176,177,178,179,180,181,182,183,184,185,186,187,188,189,190,191,192,193,194,195,196,197,198,199,200,201,202,203,204,205,206,207,208,209,210,211,212,213,214,215,216,217,218,219,220,221,222,223,224,225,226,227,228,229,230,231,232,233,234,235,236,237,238,239,240,241,242,243,244,245,246,247,248,249,250,251,252,253,254,255,256,257,258,259,260,261,262,263,264,265,266,267,268,269,270,271,272,273,274,275,276,277,278,279,280,281,282,283,284,285,286,287,288,289,290,291,292,293,294,295,296,297,298,299,300,301,302,303,304,305,306,307,308,309,310,311,312,313,314,315,316,317,318,319,320,321,322,323,324,325,326,327,328,329,330,331,332,333,334,335,336,337,338,339,340,341,342,343,344,345,346,347,348,349,350,351,352,353,354,355,356,357,358,359,360,361,362,363,364,365,366,367,368,369,370,371,372,373,374,375,376,377,378,379,380,381,382,383,384,385,386,387,388,389,390,391,392,393,394,395,396,397,398,399,400,401,402,403,404,405,406,407,408,409,410,411,412,413,414,415,416,417,418,419,420,421,422,423,424,425,426,427,428,429,430,431,432,433,434,435,436,437,438,439,440,441,442,443,444,445,446,447,448,449,450,451,452,453,454,455,456,457,458,459,460,461,462,463,464,465,466,467,468,469,470,471,472,473,474,475,476,477,478,479,480,481,482,483,484,485,486,487,488,489,490,491,492,493,494,495,496,497,498,499,500,501,502,503,504,505,506,507,508,509,510,511,512,513,514,515,516,517,518,519,520,521,522,523,524,525,526,527,528,529,530,531,532,533,534,535,536,537,538,539,540,541,542,543,544,545,546,547,548,549,550,551,552,553,554,555,556,557,558,559,560,561,562,563,564,565,566,567,568,569,570,571,572,573,574,575,576,577,578,579,580,581,582,583,584,585,586,587,588,589,590,591,592,593,594,595,596,597,598,599,600,601,602,603,604,605,606,607,608,609,610,611,612,613,614,615,616,617,618,619,620,621,622,623,624,625,626,627,628,629,630,631,632,633,634,635,636,637,638,639,640,641,642,643,644,645,646,647,648,649,650,651,652,653,654,655,656,657,658,659,660,661,662,663,664,665,666,667,668,669,670,671,672,673,674,675,676,677,678,679,680,681,682,683,684,685,686,687,688,689,690,691,692,693,694,695,696,697,698,699,700,701,702,703,704,705,706,707,708,709,710,711,712,713,714,715,716,717,718,719,720,721,722,723,724,725,726,727,728,729,730,731,732,733,734,735,736,737,738,739,740,741,742,743,744,745,746,747,748,749,750,751,752,753,754,755,756,757,758,759,760,761,762,763,764,765,766,767,768,769,770,771,772,773,774,775,776,777,778,779,780,781,782,783,784,785,786,787,788,789,790,791,792,793,794,795,796,797,798,799,800,801,802,803,804,805,806,807,808,809,810,811,812,813,814,815,816,817,818,819,820,821,822,823,824,825,826,827,828,829,830,831,832,833,834,835,836,837,838,839,840,841,842,843,844,845,846,847,848,849,850,851,852,853,854,855,856,857,858,859,860,861,862,863,864,865,866,867,868,869,870,871,872,873,874,875,876,877,878,879,880,881,882,883,884,885,886,887,888,889,890,891,892,893,894,895,896,897,898,899,900,901,902,903,904,905,906,907,908,909,910,911,912,913,914,915,916,917,918,919,920,921,922,923,924,925,926,927,928,929,930,931,932,933,934,935,936,937,938,939,940,941,942,943,944,945,946,947,948,949,950,951,952,953,954,955,956,957,958,959,960,961,962,963,964,965,966,967,968,969,970,971,972,973,974,975,976,977,978,979,980,981,982,983,984,985,986,987,988,989,990,991,992,993,994,995,996,997,998,999,1000,1001,1002,1003,1004,1005,1006,1007,1008,1009,1010,1011,1012,1013,1014,1015,1016,1017,1018,1019,1020,1021,1022,1023,1024,1025,1026,1027,1028,1029,1030,1031,1032,1033,1034,1035,1036,1037,1038,1039,1040,1041,1042,1043,1044,1045,1046,1047,1048,1049,1050,1051,1052,1053,1054,1055,1056,1057,1058,1059,1060,1061,1062,1063,1064,1065,1066,1067,1068,1069,1070,1071,1072,1073,1074,1075,1076,1077,1078,1079,1080,1081,1082,1083,1084,1085,1086,1087,1088,1089,1090,1091,1092,1093,1094,1095,1096,1097,1098,1099,1100,1101,1102,1103,1104,1105,1106,1107,1108,1109,1110,1111,1112,1113,1114,1115,1116,1117,1118,1119,1120,1121,1122,1123,1124,1125,1126,1127,1128,1129,1130,1131,1132,1133,1134,1135,1136,1137,1138,1139,1140,1141,1142,1143,1144,1145,1146,1147,1148,1149,1150,1151,1152,1153,1154,1155,1156,1157,1158,1159,1160,1161,1162,1163,1164,1165,1166,1167,1168,1169,1170,1171,1172,1173,1174,1175,1176,1177,1178,1179,1180,1181,1182,1183,1184,1185,1186,1187,1188,1189,1190,1191,1192,1193,1194,1195,1196,1197,1198,1199,1200,1201,1202,1203,1204,1205,1206,1207,1208,1209,1210,1211,1212,1213,1214,1215,1216,1217,1218,1219,1220,1221,1222,1223,1224,1225,1226,1227,1228,1229,1230,1231,1232,1233,1234,1235,1236,1237,1238,1239,1240,1241,1242,1243,1244,1245,1246,1247,1248,1249,1250,1251,1252,1253,1254,1255,1256,1257,1258,1259,1260,1261,1262,1263,1264,1265,1266,1267,1268,1269,1270,1271,1272,1273,1274,1275,1276,1277,1278,1279
MET_1_A,0.09595799,-0.042183325,0.06264515,0.026430193,-0.035104074,-0.16011484,0.39528742,-0.37041184,-0.19055215,-0.20823488,-0.11031522,0.09873141,0.30440342,0.009034166,-0.030857522,0.33747372,0.33303747,-0.29943514,0.026660964,-0.076431595,0.13724561,0.019874975,0.07352269,0.30541378,0.01668275,0.023969725,-0.08085792,0.051590115,0.15168266,0.046450134,0.31875402,-0.4296268,0.34578896,-0.4013285,0.12599273,-0.51344866,-0.25222775,0.086962685,0.09141867,0.029347772,0.37291515,-0.23800856,0.10569253,0.0714982,0.30215064,-0.08758543,-0.3408384,0.13005,-0.12810522,-0.21940231,-0.19340979,-0.22285746,0.11442837,-0.12310307,0.06542064,0.14648,-0.05874586,0.22368614,0.1694046,-0.10558418,-0.25232613,-0.00030349498,0.03738838,-0.05400418,0.21028641,0.18172993,0.23566413,-0.13950118,0.21364659,0.062009614,0.093382664,-0.32269642,-0.107796974,-0.2306187,-0.21038963,0.09159812,0.2564099,0.24811043,0.042291958,0.09848624,0.20660955,-0.075258836,-0.046455167,0.0065531703,-0.3747904,0.24492973,-0.06897472,0.13285683,0.24452186,0.17589213,-0.029829824,-0.1857986,-0.12994874,0.022945348,-0.021093091,-0.37992764,-0.25310507,-0.16918741,-0.05934504,0.21014878,0.10670297,0.0006768414,-0.13640717,-0.06026839,-0.10001839,0.16677181,-0.29833326,-0.29890785,-0.40946084,0.12430678,-0.18590729,0.12535568,0.048836954,-0.07189606,0.05709612,0.2767558,-0.36651015,0.30559784,0.104170434,-0.004647421,-0.07642959,-0.31500944,-0.04995937,-0.19508103,0.21151419,0.13391045,0.15070738,0.2511473,0.35273638,0.14197893,-0.32514328,-0.28529605,-0.12438355,0.19286707,-0.07093152,0.01785648,-0.08212859,-0.07398806,-0.19130912,-0.38974676,0.08673286,0.06491919,0.22174685,0.023990557,0.13353091,0.16146901,-0.20362534,-0.07058151,-0.24832448,-0.002210707,0.00057298806,-0.23440196,0.3927543,-0.25450367,0.06462732,0.11965529,0.14455937,0.13263738,0.3773487,-0.23068345,-0.06765752,-0.18321636,0.0013722843,-0.24281055,-0.39725888,0.33942047,-0.10273498,-0.11277924,0.08948672,0.26659855,-0.53899336,0.1323441,0.4902312,-0.20280562,-0.040247545,-0.045926854,0.04198349,0.06778309,0.25464413,0.30501762,0.11050591,0.20753047,0.22462927,0.019764645,0.035456706,0.23826015,-0.12808797,-0.24510455,-0.14171751,0.4119515,-0.28769884,-0.21553618,0.14078496,0.013222214,0.33835816,0.25188273,0.25169498,0.30488145,0.3989009,-0.18636368,0.4273617,0.011724574,-0.5406209,-0.12868395,0.17432512,-0.1755841,0.1736333,-0.18871386,-0.20989038,-0.45629883,0.076540954,-0.20972049,-0.082339026,0.081740744,-0.23968406,-0.27720183,-0.056503143,-0.33296397,0.285125,0.10140043,-0.07929916,-0.0117968945,0.5798147,-0.6126963,0.24633506,0.03336633,-0.0959462,-0.18054397,-0.33223766,0.4978009,0.34164113,0.17212053,0.0107067665,0.317483,-1.6435521,0.6435174,-0.096688814,-0.12507431,-0.14020088,0.48581684,-0.30922782,0.32241586,0.21186922,-0.325156,-0.019528583,-0.11006042,-0.28435472,0.084662616,0.22416104,-0.20531246,-0.00040998135,0.11044424,0.16541608,0.092191026,-0.17437683,0.217541,-0.030450651,-0.13436313,-0.21784268,-0.13958104,-0.08964936,-0.08112344,0.41432238,0.16715407,0.17234488,0.00963487,0.11849304,0.05922748,0.06514097,-0.12511049,0.058224913,0.13759497,-0.07192542,0.20886017,0.19054976,0.27208704,0.21687287,0.23279351,-0.061283663,-0.115635626,0.14168862,0.1607438,-0.39531225,-0.14109959,-0.023476878,-0.011455321,-0.07915392,0.27976337,0.14571434,-0.43438694,-0.100764304,0.13051836,-0.13522767,-0.050270624,-0.1953587,-0.08534009,0.11173364,-0.038736876,0.09790568,-0.11316237,0.1128085,0.10677298,-0.39107993,0.1151705,-0.20104337,-0.2596676,0.26456088,-0.068528235,-0.04466686,-0.13272168,-0.010826809,0.1083009,0.07954942,-0.1207761,0.11421627,-0.18648714,0.16493681,-0.45687357,0.048451383,-0.00039487088,-0.021683399,-0.45256686,-0.1985054,0.37232918,-0.23764598,-0.10288323,-0.14756398,-0.12869416,-0.28173083,0.28383797,-0.08842865,0.061377794,-0.37574494,-0.11641107,-0.07054731,-0.042504054,-0.3395361,0.02607659,-0.12865414,0.121084064,0.0881017,-0.07275833,-0.17283271,-0.01095794,0.092196226,-0.2385975,-0.30734748,0.16842224,-0.17573819,0.08008777,0.011263367,0.10176262,-0.098481186,0.21115935,0.17731114,0.26326838,0.1290087,-0.45722213,-0.37484616,-0.122917645,0.07130246,0.31259885,0.053342573,-0.3257412,-0.06968246,0.022471286,0.26187038,0.15826929,0.18962274,0.2405819,0.18596283,0.07546133,-0.22324985,0.042824756,0.11874316,0.45505315,0.2860047,0.083573736,0.45851767,0.036334436,-0.2037762,0.13066651,0.08657579,0.07112807,0.48665917,-0.03354983,0.1319485,-0.22446927,0.15829247,0.13283616,0.037621114,-0.21245354,-0.2987899,-0.15067753,-0.14912538,0.24606127,-0.08922553,0.24905667,-0.14630793,0.06535635,0.054494794,0.26387295,-0.28978103,0.21345173,-0.04150813,0.27706805,-0.3928318,-0.2839024,-0.2853676,-0.22298536,-0.3116798,-0.25904125,0.32510975,-0.20546037,-0.038421378,-0.1397175,0.02119529,0.008313182,0.1707934,0.0026670436,-0.16527572,0.16298638,0.086574845,0.23087484,-0.357335,0.12438567,-0.057689242,-0.13014334,0.24472542,0.2250117,-0.29399225,0.27310568,0.03475792,-0.23276532,0.4730093,-0.043030642,0.04699453,-0.11859251,-0.07532402,-0.06842825,0.039087374,0.23418194,-0.014969938,-0.46735808,-0.08269579,-0.16509995,-0.16768551,0.15486637,0.12131255,-0.2317486,0.023950808,0.5953975,0.06744998,-0.19753306,-0.15649395,-0.09080497,-0.074055314,-0.1706768,-0.03958597,0.12587479,-0.43419728,0.25441718,0.104447156,-0.45622805,0.19057786,-0.1936039,-0.27533525,0.53862876,-0.08555289,0.24312878,-0.042793684,0.21234454,0.10314953,-0.089668,0.15492986,0.14644666,-0.11016833,0.08120836,-0.20349886,0.12906249,-0.032182857,0.017017258,-0.21451852,0.10043062,-0.18630268,-0.122052655,0.5093941,0.038473744,-0.25115493,-0.12191532,0.20520379,0.060486585,-0.07734417,-0.028918127,-0.04551768,0.43406177,-0.21775122,-0.19436733,-0.32011485,0.031146739,-0.1707991,0.30863357,-0.1585861,0.31506476,-0.2589195,0.198248,0.056211997,0.38850984,-0.052836947,-0.0305155,-0.106748454,-0.16760325,-0.10383526,0.06398415,0.24702619,-0.17708257,0.008447353,-0.20706952,0.06856177,0.058214746,0.18636155,-0.4758422,0.07832422,0.5010783,-0.19579169,-0.33290207,0.1563602,-0.22681679,0.15077263,0.27559137,0.23688726,-0.1606952,-0.06874741,0.13204172,0.05481094,-0.041656047,0.22296819,-0.018507568,-0.30809894,0.01302687,0.09040299,-0.040494714,0.27513626,0.1888412,-0.20910753,0.17442548,-0.2288274,0.05901941,0.09364772,-0.107991666,-0.17761634,-0.21496409,-0.18074244,0.5035704,0.13095216,-0.26981714,-0.1039077,-0.27494538,-0.06014464,0.10248269,-0.0775305,0.17361729,0.09493836,0.088909686,0.0044175894,0.16876906,-0.01900228,-0.17018476,0.024450256,0.05191391,0.33111262,0.46136755,-0.10568901,0.13917573,-0.38001707,0.15153702,0.31982887,0.11459336,-0.03110611,-0.059433874,-0.09126151,-0.23889132,0.34800038,0.6280719,-0.057774063,0.46139836,-0.0613092,-0.14534666,-0.5609809,0.31545442,0.17273216,-0.34579745,0.1892834,-0.08593001,0.41852775,-0.12816992,-0.047066268,-0.017462851,0.054835156,0.31092587,0.15678683,-0.039711546,-0.02367395,-0.32836956,-0.20221785,0.023165207,0.0970021,0.06600953,-0.03947196,-0.08662946,-0.2708083,-0.2328935,0.15986972,-0.20457575,-0.14334817,0.19910963,0.25904047,0.2064336,0.10873599,0.02356494,0.13637204,0.22536585,-0.15460949,0.24499886,0.101752676,-0.016207354,0.31057498,-0.16428788,0.10509981,0.23455738,-0.31937855,-0.14550799,0.090716116,0.077209264,0.17858045,0.38878715,-0.091670245,0.10419102,-0.17163077,0.17322834,-0.06492025,-0.44698545,0.18994537,-0.18892142,-0.25580832,-0.050364878,0.046344344,-0.25294662,0.17675216,0.38052973,0.09502126,0.44281995,0.1318006,-0.17385939,-0.22420682,0.15045553,-0.296781,-0.5218778,-0.2299214,-0.2566906,0.23143819,-0.13718979,0.12014524,-0.133345,0.43551704,0.20934707,0.012837658,0.03960972,0.04499363,0.17443253,-0.14204134,0.033241335,0.10050457,0.13090377,0.3400041,-0.1068995,-0.16470084,0.1777767,0.11247388,-0.4982948,0.19559002,-0.16224235,0.013679274,0.3145525,0.057283044,-0.46518815,-0.032502722,0.3147568,-0.105874546,-0.050698053,-0.4831146,0.049671505,0.023808176,-0.13704021,0.0072021335,0.22320862,-0.16587229,0.07672488,0.2464059,-0.087649934,0.07010051,-0.23809004,0.24776106,-0.20149657,-0.07632472,-0.56466204,-0.26962042,-0.08268661,0.09221013,-0.27766955,0.0874258,0.39494532,-0.09055792,0.24294539,-0.105739534,0.26720887,0.131863,0.4107059,-0.16659957,0.29154366,-0.13046208,0.21908566,0.047443923,0.05755748,0.3604469,-0.03559584,0.25083247,0.2040111,0.21539676,-0.039741896,-0.018402556,-0.42873088,0.26849708,0.09462598,-0.15608159,0.1654531,1.105749,0.30809927,-0.102879524,0.044408865,0.54256743,0.019749885,-0.35052076,-0.16304444,-0.33021674,0.27612966,0.26758245,0.0085767405,0.12641509,-0.35647625,-0.041392047,-0.12627696,0.18522467,-0.3451373,-0.018777544,-0.0313534,-0.046354555,-0.11693397,0.16453072,0.026082633,-0.5246148,0.31859624,0.1421813,0.083640434,-0.20939925,0.21191931,-0.06264083,-0.013225637,0.05671787,-0.007061015,-0.040828034,-0.09718159,0.015911823,-0.52071226,0.08931683,0.15146774,-0.074992456,-0.20349386,0.017856548,0.02550281,-0.13091448,-0.43067992,0.2306723,-0.20421119,-0.12514144,-0.059409242,0.011981393,0.063891806,0.050075643,0.2726661,-0.079847395,-0.48427707,-0.29191396,0.14025863,-0.13658662,-0.42044982,0.051874503,-0.30647054,-0.22334452,-0.36483106,0.35732695,0.3920198,0.10687415,-0.079816215,-0.11726927,0.08493028,-0.36117083,0.31007254,-0.42209104,-0.13602911,0.08788782,-0.2476879,0.31145823,-0.22085877,0.15229559,0.040977076,0.059816718,0.114974,0.4675774,0.0740495,0.47328344,-0.019763526,-0.337343,-0.21431282,0.094197445,-0.09814312,-0.009102024,0.23294975,0.36391282,0.14141926,-0.20795466,0.08162164,-0.6118566,0.1807827,-0.055951774,0.046371873,0.41991568,-0.19300422,0.15817623,0.042731468,0.1192627,-0.06080987,-0.049145766,0.025261346,0.3970607,0.06962567,0.31854206,0.33581138,0.25696382,-0.22717716,-0.07918799,-0.2669278,0.3607159,-0.09420838,-0.05558177,-0.11397936,-0.13930422,0.0012099143,0.2687824,0.323304,-0.25217327,-0.07592516,-0.44388685,-0.07671132,0.14649989,0.106949605,-0.25873238,0.08627492,0.29977933,-0.055097826,-0.08949469,0.10145757,0.4247873,0.2454342,-0.055358637,-0.017439207,0.7226884,-0.091866605,0.28439245,-0.54458153,-0.32558236,0.011451047,-0.26062897,-0.29973456,-0.009277258,0.19924346,0.027863815,0.18418768,-0.11609781,0.0145136835,0.020497689,-0.1201814,0.08755773,0.4069946,-0.17414628,-0.11451977,-0.28222024,0.097308874,-0.23707157,0.0023795185,0.13781662,-0.21531558,-0.24209845,-0.21793254,0.1258187,0.11591677,0.28985393,0.19774307,0.016683344,0.40955937,0.046279497,-0.23439328,-0.39300978,-0.21906179,0.16093244,-0.38973033,0.2709526,-0.093700536,-0.102287516,0.03737956,0.14253528,0.06663424,-0.20764674,0.10967556,-0.014196034,0.078129545,0.21073818,0.032440774,0.17724055,-0.1390394,-0.41182822,0.15573879,-0.31453225,0.16792578,-0.04070501,-0.20207359,-0.11018286,0.107040696,0.3058319,-0.040624,-0.29542363,-0.22167598,0.28622472,-0.20800747,-0.033724997,-0.18112764,-0.0020821793,-0.14025758,-0.20868117,0.16653915,-0.025951536,-0.26990792,0.19694042,0.33094266,-0.11826971,-0.36919624,0.052166328,-0.065433726,-0.30770525,0.29373482,0.3741156,0.0969812,0.08128434,0.1455347,-0.28588513,0.18599574,-0.1255359,-0.17988378,-0.08315566,-0.13408732,0.2420073,-0.041424364,0.1870086,0.09020288,-0.03074995,0.07739697,-0.41294378,-0.2931453,-0.106855735,-0.052680768,-0.50457746,0.10684961,0.019813215,0.0064118244,0.08263052,-0.08278212,-0.06927804,-0.084756665,-0.036919862,0.17462009,0.06619889,0.15183502,-0.20153412,0.08680817,-0.3666359,-0.15962446,-0.36187586,-0.20480129,0.31884846,-0.026096707,-0.16904874,-0.11320876,0.1144855,0.29156286,0.114041634,-0.19462849,0.42676285,0.17301139,-0.042945467,0.04221612,0.08342853,-0.056377545,0.23909867,-0.024763461,0.31220064,-0.0036124801,0.13776092,-0.13570423,-0.17780195,0.006404016,0.065316975,0.32772982,0.11477675,-0.418122,-0.01782375,-0.056164607,-0.3264989,-0.13763982,-0.17241041,0.0067622755,0.04917124,-0.21974143,0.2116086,0.26281825,0.2250119,0.026124,0.117270745,-0.1675345,-0.16102587,0.07847624,0.1528498,-0.057207428,0.014336989,-0.29516545,-0.15238705,0.14168856,0.08436586,-0.079104364,-0.004072696,0.009529835,-0.11771652,0.5544343,0.17305228,-0.15321326,0.24833715,0.04707477,-0.06618282,0.10476596,0.19887386,-0.41395572,-0.025358777,-0.2762132,-0.10678888,-0.120877504,0.020191073,-0.24356891,0.16273104,0.1899249,-0.09045503,0.12476834,0.09941033,0.20353073,-0.15590088,-0.37661114,-0.09437364,0.06502048,0.17307861,0.32523644,0.2844932,-0.32866505,0.016798839,0.16466074,-0.17699191,-0.089959495,0.5084175,0.034655314,0.2832548,-0.37097096,-0.034666058,-0.2919626,0.19828695,0.4261995,0.36035264,-0.08977008,-0.044376057,0.10899445,-0.24785428,-0.13581021,0.37404072,0.29335526,0.119440295,-0.2900358,0.20721912,-0.21109329,-0.04030905,-0.12688106,0.22395664,0.105482884,-0.3013837,-0.2765013,-0.39272872,-0.06341221,0.15865669,0.05712297,-0.08705472,0.42287725,0.17423159,0.1890744,-0.16912068,-0.11043365,-0.10380042,-0.40173846,-0.3485842,-0.028824398,-0.22893003,0.20810562,-0.087386906,-0.16893792,0.07427779,0.31486157,0.060629956,-0.07802875,-0.05944937,0.14917077,0.021665743,0.020074828,-0.30330938,-0.029770471,-0.20078753,-0.037889667,0.1246164,-0.342035,-0.418447,0.12670106,-0.1496382,0.34269992,0.16063431,0.03824427,-0.28564036,-0.30471525,-0.052468874,-0.18897776,0.069308974,0.30990386,0.6530717,0.08621015,0.17663883,0.2605962,-0.40860704,0.08824359,-5.1652856,-0.27330324,-0.07313276,-0.12013166,0.37156937,0.06732345,0.027257651,0.0064815218,0.20870143,0.3598555,0.07680572,0.31169114,0.17500201,-0.14192896,0.0994317,0.29206616,-0.0253508,-0.2007174,-0.5972991,-0.04498725,0.2568905,-0.24497008,-0.019886294,0.3677558,-0.23105659,0.30478957,-0.09117772,-0.14907914,0.29283935,-0.054921094,-0.025286961,0.013252317,-0.26394433,0.45287114,-0.18779148,-0.15907207,0.20980191,-0.07116777,-0.1622403,0.120801285,0.5008876,0.24011452,0.13088067,-0.036344294,-0.058625877,0.021234315,0.12587602,0.13309777,-0.08740399,0.35523605,0.402919,0.40213576,-0.2178864,0.071595654,0.20046166,-0.5957526,-0.04429828,0.5259669,0.11459787,0.05837409,0.0132004125,-0.24352929,-0.16473679,0.11679281,0.18081485,-0.15264308,-0.25926098,-0.4562672,-0.45752922,-0.18536869,0.14031798,-0.37557244,-0.057411607,0.3707007,-0.039700054,0.1511878,0.21862106,-0.0332549,0.10491925,-0.060507476,-0.33542472,0.22562595,0.14783537,0.08905503,0.20057842,0.4333595,0.28915223,0.107064,-0.23597732,0.1025299,0.17473906,-0.3037154,-0.058241464,0.05976053,0.19817613,0.086575516,-0.08069447,-0.16891395,0.2700614,-0.010000414,0.058853082,-0.20185164,0.01661782,-0.05893813,-0.06236334,-0.18803129,-0.18537247,-0.030965295,0.15720716,0.11263478,0.045223605,0.14888227,-0.13374189,0.13613096,0.17294575,0.15552983,-0.42439348,0.030846654,0.17976983,0.20856903
ILE_2_A,0.04083061,-0.04054809,0.02798421,-0.025641968,-0.08801631,-0.20865174,-0.029504724,-0.12202449,-0.24326774,-0.050296288,0.35709548,0.16376127,0.30288845,0.14769147,0.39607126,0.3007229,0.02105764,0.30644003,-0.14887662,-0.0865779,-0.14366035,0.0024095527,0.015074446,0.22335461,0.10668951,-0.0023052916,-0.22148171,-0.25582847,-0.15598756,-0.29398614,0.21197504,-0.061795343,-0.27678743,-0.117848426,0.0016954087,0.12450935,0.10437338,-0.014250072,-0.07639678,0.13077985,0.15138939,0.11393136,0.020790821,-0.020980816,0.19382256,-0.11218839,-0.18445565,0.32486722,0.17703186,-0.15004784,0.019704333,-0.027655227,0.28929752,-0.024988301,-0.013573872,-0.06144994,0.018421063,0.07710566,-0.08382499,-0.0073658787,0.04353512,-0.29615685,-0.017307116,-0.0044653015,-0.11124714,0.22358984,-0.18744718,-0.21499312,-0.010229791,-0.16605204,0.13957256,-0.11835672,-0.08099053,-0.1029962,0.05013236,0.108107656,0.1410357,0.17265084,-0.06251933,-0.2320583,0.21128501,-0.3800603,-0.14542566,0.487321,-0.059139792,-0.3588583,0.02321982,-0.21431504,-0.048123356,-0.6472542,0.2042488,-0.08399327,-0.071742766,-0.045251075,0.22246902,-0.109377936,-0.19784844,-0.3326165,0.25459692,0.1524142,-0.30154887,0.18847275,-0.17687717,-0.52062535,-0.00051183056,0.15614444,-0.29045066,-0.19693422,-0.42444476,-0.07252741,0.06565728,0.058232024,0.43126637,0.28438017,-0.023402208,-0.4741077,-0.12983659,0.10747857,-0.2803735,-0.04170991,0.024522597,0.22360973,0.3813215,-0.033144593,-0.015672319,0.20214723,0.2444287,0.25550827,0.09014147,-0.14343926,-0.15704307,-0.1589736,-0.077902675,-0.21844101,-0.13255638,0.016336843,-0.07918845,0.0006345794,0.13963677,0.07295054,0.16391744,-0.13729192,0.40731838,0.37944263,-0.07109052,-0.059238683,-0.044952497,0.23409465,-0.016601564,0.2496433,-0.21098728,-0.014398763,0.3105677,0.2098451,-0.10673387,-0.14073598,0.10494455,0.1729708,0.22335902,-0.1534084,-0.12297186,0.036672086,-0.1219411,0.013004549,-0.14375095,0.04806702,-0.16452809,0.15732868,-0.20133527,0.5206418,0.0220617,0.13391843,0.04111382,0.12918602,-0.1754927,-0.15134741,-0.07537422,0.037317954,0.26886937,0.021640508,-0.10221603,-0.102892786,0.041691978,0.031455033,0.13036619,0.17870845,-0.1251147,-0.29759982,0.1252213,-0.17657235,0.20989117,0.082715,0.32522562,-0.070311435,-0.08510145,0.21813999,0.3336295,0.44516978,0.18047193,0.05424305,0.33139274,0.14325333,-0.13076836,-0.26337197,-0.029541757,-0.2577644,-0.14221668,0.2948853,-0.26085612,-0.11993754,0.47225848,-0.7170351,0.43423173,0.020605361,-0.07336209,0.34226373,-0.17827907,-0.035015002,0.089026384,0.5282064,-0.4530326,-0.13449812,0.24355274,-0.24754834,0.2495294,0.110022426,-0.29501408,-0.13012825,-0.075387836,0.19717424,0.18215455,-0.30669838,0.100710526,0.11874189,-0.040508892,0.08714339,0.15284622,-0.25874844,0.1587989,0.10783543,-0.07140027,-0.12323587,0.081065245,-0.24091657,-0.41579267,-0.22825307,-0.3185264,0.08308507,0.08068772,-0.027443806,0.10452469,-0.20409375,0.012317292,-0.09848374,-0.03742419,0.30291525,0.09923896,0.18164372,-0.006497924,-0.33914432,0.12949488,0.18504255,0.0011962716,-0.07485668,0.43550995,0.19818379,-0.018839948,-0.2554154,-0.11222462,-0.16740035,-0.18331265,0.2591474,0.083835706,0.1352074,0.07415731,0.034671534,0.33503407,0.18189512,-0.37792224,0.06635472,0.1177179,0.19464438,0.31831095,0.091915615,0.24462628,-0.068110086,-0.12012465,-0.14843653,0.36279935,-0.028500907,-0.15872769,0.34203285,-0.18690251,0.01864662,-0.27745056,0.25452033,-0.12559608,-0.037677243,0.3203677,0.05960079,0.23132506,-0.20713256,0.22313155,0.2154339,0.26031876,-0.24084121,0.003167702,-0.1447441,0.010042661,-0.21826097,-0.10902481,0.0888322,0.31538466,-0.30467808,-0.22099496,0.09186547,0.06450092,-0.18903299,0.030740196,0.22768192,-0.048059464,0.027440986,-0.13279623,0.058017865,0.22575137,0.021898443,0.1696076,-0.29232702,-0.10671606,0.050049726,0.30375987,-0.013387455,0.029742159,-0.26917318,0.13656059,-0.07437771,-0.2534442,-0.11891654,0.44158518,0.37237597,-0.05164677,0.06652736,-0.4424853,0.32179058,0.097500436,-0.21494104,-0.1810762,-0.20952486,-0.17883225,-0.3018666,-0.06555298,-0.022411944,0.32049182,-0.44731012,0.14385635,-0.010826011,-0.11941653,-0.2056529,-0.5136632,-0.26718944,0.19922519,0.35769445,-0.104306415,0.033246387,-0.07410185,-0.24993026,0.16254546,0.039047156,0.19061458,-0.08482387,0.37354,0.2625633,-0.026324958,-0.00813575,-0.0010597305,0.21944831,-0.1497058,-0.02225929,0.55104166,0.30940065,0.34244484,0.29674867,-0.21415114,-0.026869556,0.352974,0.17345019,-0.035937164,-0.16520615,0.29931167,0.34585464,0.1464058,0.033622574,-0.0966864,0.11193247,0.017863156,-0.15316673,-0.39378664,0.24731618,-0.11225012,-0.11260186,0.018384516,-0.11111682,-0.5286066,0.12997903,-0.21884832,0.0013194409,0.041119754,-0.07748045,0.12943684,-0.3884196,-0.00875564,0.026603442,0.13902664,-0.40973324,0.46157616,-0.0083456775,0.40490887,0.05815101,0.25151584,0.01426901,-0.052443665,0.5304646,0.24585952,0.37174916,-0.41264343,-0.09068333,-0.036214508,-0.16685496,0.32032338,0.3750325,0.111432806,0.09937152,0.39049417,0.007422241,0.041316103,-0.12726842,0.50330377,0.13160495,-0.18877763,-0.09376342,-0.25754324,-0.14151609,0.10463546,-0.20706381,-0.054128997,0.21475415,0.41089034,-0.00462792,-0.002555743,0.2556343,0.15495352,0.23482008,-0.08701721,-0.018265039,0.035608254,-0.35565186,0.25638348,-0.09114301,0.086394414,0.20503883,0.105023354,0.44234234,-0.11375908,-0.049250342,-0.060767982,-0.08966869,-0.09387335,-0.16710792,-0.33083388,-0.13999265,-0.19597979,-0.02799255,-0.046313968,-0.5029128,0.14402747,0.050599717,-0.035214726,0.13056631,-0.30651933,-0.10307598,-0.056104112,-0.04093059,-0.36090326,0.26713315,0.09539532,-0.05807655,0.012330829,-0.03235696,-0.09600002,0.023483593,-0.0020789122,-0.17822379,0.02181244,-0.22946423,-0.111611485,0.15487292,0.28613418,0.24064487,-0.24178426,0.1742783,-0.00756981,0.22178209,-0.14130118,0.21053281,0.24724863,0.30974534,-0.07989018,0.15453705,0.09123429,0.057702556,0.029677827,0.048689477,0.08176371,-0.2645004,0.16140917,0.32153907,-0.247843,-0.3232726,-0.026307888,0.0917406,0.47097898,-0.13166253,-0.11883,0.60237837,-0.42792374,-0.25750726,0.018886251,0.083514154,0.16252354,0.15063523,-0.00043880625,0.018197527,-0.14134899,0.3307426,0.28591922,-0.17259683,0.12005575,-0.052436527,-0.31924233,0.123019956,-0.019010004,0.33309886,-0.034913484,-0.17085676,-0.02586276,-0.1205168,-0.030347286,0.15805128,-0.0073321806,-0.029888732,0.36841533,-0.10414323,-0.09320635,0.2982592,-0.08031236,-0.31020728,-0.07987893,-0.39305103,-0.12749358,0.21497615,-0.4787073,-0.040181786,0.12884231,-0.03250332,0.052743357,-0.33818802,-0.16372979,0.04494922,-0.05310892,0.21655416,0.1542082,0.11106657,-0.060717307,-0.21070725,-0.060841773,0.032558884,-0.011432353,0.29274535,0.26744226,-0.010517405,-0.18888879,-0.10282413,-0.19108455,-0.20578603,0.2141665,0.15585582,0.28525645,-0.16562115,-0.15459478,0.2467331,0.241995,-0.11052811,-0.16540697,-0.13892356,0.18764976,-0.26457524,-0.24267505,-0.117639184,-0.20975664,-0.016153906,0.2832779,-0.16537759,0.19029917,0.088406995,-0.016342796,0.083692275,-0.22660129,-0.17353766,0.323063,0.3351177,0.19780244,-0.013319856,0.024932267,-0.28693706,-0.34521297,-0.053082664,-0.16171631,0.106994756,-0.047224037,0.1253471,-0.10823206,0.32279733,0.019412769,-0.22326668,0.16721867,0.2653612,-0.1281468,-0.2060681,0.13651928,0.07245563,-0.046160486,-0.2807893,0.12424415,-0.028441552,0.18030293,0.031375483,-0.036159907,0.028727159,-0.1099491,0.1258881,-0.3749335,-0.044740506,0.25798568,0.023661926,-0.31371936,-0.4852347,-0.25415877,0.11842348,0.24310726,-0.085684925,-0.052634154,0.31888616,0.103179835,0.37347323,0.24596925,0.013164727,-0.32771757,0.24863188,0.002076324,-0.15832277,-0.027735284,-0.17422347,-0.14386098,-0.28176683,0.27782515,-0.072681524,-0.10372804,-0.13052683,-0.024906732,0.06814307,-0.19069523,0.21717368,-0.14781927,-0.2110612,-0.02891104,0.074498594,-0.06603376,-0.08248917,0.029906254,-0.32669234,0.032751616,0.0907618,-0.23578055,0.42824683,0.03926488,-0.25735554,0.094828494,0.11815104,-0.2868905,-0.17048828,-0.55167955,0.06471103,-0.15094022,-0.019294366,0.25875068,0.29282144,-0.33741793,-0.19307876,0.1752859,-0.08418004,0.27317032,-0.07244322,0.055550147,0.18476735,-0.17893718,-0.09578606,-0.08969573,-0.094953746,0.53875715,-0.1174731,0.057368,-0.03895265,-0.38628793,0.3967902,0.25845712,0.01803371,0.09886024,0.27082875,-0.32802582,0.17034557,0.18166034,0.25733188,0.35929567,0.27550924,-0.17027682,-0.20096543,0.4517681,-0.013700247,-0.06839754,-0.10801852,-0.06561171,-0.19251497,0.0012962825,0.2672644,-0.1818994,0.24443859,0.63972145,0.05837642,-0.045313537,0.11922555,0.1371885,0.37435576,-0.3140555,0.05577203,-0.2296151,0.08600385,0.13759045,-0.25016046,0.13935827,0.16090007,-0.17152654,0.05224567,0.14426427,-0.3123659,-0.23408715,-0.04287551,0.2559844,0.02833826,0.14830044,-0.32797033,-0.10943562,-0.13400991,-0.17088467,-0.115630664,-0.2725824,-0.002037752,-0.27610925,-0.25116503,0.15160038,-0.12916555,-0.048550397,-0.0001481122,-0.26723546,0.0682699,0.24831778,-0.00922289,0.05725859,-0.2737537,0.3312121,0.049446296,0.59402764,0.10185887,0.28515747,0.13417535,0.06423543,-0.20633806,0.73095095,0.015207731,0.04797859,-0.057799835,-0.21695949,-0.11595496,-0.14569937,0.50806516,-0.44939423,-0.16868377,0.016633172,-0.3392088,-0.20318796,0.10676191,0.055497933,-0.26779526,0.024985375,-0.08222277,-0.097792625,-0.08760741,-0.15974662,-0.07844204,-0.03330708,0.17673282,0.122358985,-0.2242052,0.31481487,-0.18747927,0.15467793,-0.045417257,-0.29907128,0.04626162,0.042998888,-0.08633863,0.37515783,0.22007011,-0.24030092,0.016583813,-0.12518232,0.107292764,0.21931097,0.2435451,-0.02835984,0.2498773,-0.160655,-0.010849815,-0.10205031,-0.05785512,0.0327287,-0.11978551,0.1814736,-0.1521663,0.15630834,0.08784572,-0.08906873,-0.00080337847,-0.37874922,-0.2690755,0.079379745,0.1913554,0.123645715,-0.12646474,0.04527522,0.094735116,0.2340207,-0.026895009,-0.114416204,0.07369368,0.40925887,0.24588342,-0.28062,0.17623174,0.27045462,0.0694836,0.25296786,-0.020757418,-0.33099788,-0.14142106,0.06385468,-0.088478774,-0.26545596,0.0014068886,0.172878,-0.13645306,-0.21885304,0.13161002,0.5522049,-0.0031702775,0.21227846,-0.24307509,-2.1065764,0.09700637,0.086456105,-0.24657767,-0.31189445,-0.20587736,-0.07598849,0.16871265,0.11711277,-0.20591164,-0.23776786,0.23402318,0.0478538,0.2518818,0.11529204,-0.10189093,0.19421278,0.49690524,-0.047957968,0.11488099,-0.1578653,-0.094289646,-0.2778054,0.08046663,0.2226124,-0.2145294,-0.2734459,0.36870912,0.23933403,0.028698023,-0.27666566,-0.049446777,0.014074761,-0.038240217,-0.21706893,-0.3069337,-0.21132787,0.3064782,-0.1268211,0.07658129,0.028787578,0.41009188,-0.06644348,0.164521,-0.030382488,-0.028608229,-0.046546288,-0.07097486,-0.28954494,-0.32153076,-0.065182984,-0.27888325,0.06468848,-0.10679086,0.08917698,-0.0309266,-0.19021912,0.019931087,0.227466,-0.159168,0.081698164,0.12670577,0.10473331,-0.03842697,0.2470069,0.21696354,0.39079368,-0.06991125,-0.4025842,-0.06317418,0.17874232,0.21467002,-0.34887123,-0.28026772,0.030986084,-0.110201806,-0.03602283,-0.06294398,-0.10458406,-0.14638913,0.14807704,0.041504413,0.14508516,0.25508112,0.26857877,-0.16070507,0.32012567,0.039517682,-0.35270047,-0.33300784,-0.02746442,0.030013697,-0.07192754,0.14633347,-0.08849663,0.13581106,0.31391546,0.0078144185,0.07646274,-0.041885406,0.13090505,-0.2192834,0.23002881,0.22963639,-0.47236237,-0.14808251,0.17709734,0.15944807,-0.034629032,-0.15973094,0.27424267,0.2816041,-0.65285885,0.12880842,0.3725937,0.077577636,0.22071794,-0.29307812,-0.16953672,0.30664328,-0.24997722,-0.0046715126,0.107677825,0.31899223,-0.31576443,-0.14159834,-0.0154602835,0.21335284,0.066732824,0.20863184,0.09556263,-0.36621305,-0.20982929,-0.31806555,-0.22403294,-0.22318213,-0.068958566,0.042096227,-0.033159677,0.18643968,-0.07500482,0.30206972,0.15032569,0.31976944,-0.4428393,0.03540739,0.11385943,-0.20893978,0.041047614,-0.19388165,-0.16518837,-0.15048127,0.11173703,0.14710163,-0.08873986,0.29251066,-0.028454952,-0.0046719867,-0.010306796,0.10830536,-0.009788267,0.13716693,-0.01969025,-0.013370644,0.007886022,-0.05297423,0.44018456,-0.057456814,0.05758516,0.06339334,0.060006186,-0.35579264,-0.49422652,-0.057464406,-0.6377656,0.29135013,0.059731737,-0.036972698,-0.10265415,0.03337559,-0.0007057939,-0.06120465,-0.1956448,-0.09525792,-0.0020902744,0.008596712,0.14401199,0.2350575,0.02764977,-0.32169002,0.03634787,0.3579624,0.20695326,-0.27972862,0.0036832283,0.23371422,-0.21070309,-0.039850682,0.20971528,-0.12830578,-0.072712235,0.33268094,-0.11180814,0.24019338,-0.10836946,0.18329729,-0.023354035,-0.24034956,0.32309648,-0.06608889,0.20027536,-0.057115927,-0.025238782,-0.36398274,0.40583694,0.32486284,0.32173067,-0.2719722,0.07179481,0.15486671,-0.15346009,-0.06555684,0.25010043,0.23939197,0.0077776834,0.10613348,0.1294558,-0.5093778,0.034789834,-0.17583314,0.06204345,-0.056171276,0.030528395,0.13052824,-0.180194,0.21797152,-0.16036573,0.19668715,0.24499798,0.2822766,-0.036019508,-0.03224752,0.038691483,-0.17821665,-0.078296565,-0.4355151,-0.32069266,0.038554363,-0.20688306,0.16546875,0.0759885,-0.017698484,0.16047736,0.17365529,-0.41527423,-0.05162138,-0.41809314,0.16533196,0.08072725,-0.2562033,-0.17299025,0.22280045,-0.20546918,-0.08467782,-0.14177147,0.024254013,-0.19835016,0.23854436,-0.1782354,0.5344947,0.082914226,0.30502918,-0.21740751,-0.3633992,-0.25849035,-0.053625394,0.20791416,-0.44676796,0.0741646,-0.24596576,-0.13007315,0.031846702,-0.4375742,0.057904936,-5.7249303,0.032270093,0.054386,-0.048249274,-0.07416462,-0.21586856,0.10785324,-0.1826998,0.15095128,-0.12917958,0.0062583243,-0.0039664875,0.17612188,0.15536486,-0.10195151,0.1483064,-0.037902925,-0.036008306,-0.31912735,-0.24837552,-0.17398249,0.26058882,-0.24214743,0.20651974,-0.24323538,-0.5612684,0.18649805,-0.037689026,0.34513766,0.47512084,-0.117641255,0.03745089,0.0943712,0.2740218,-0.08064527,-0.18056802,0.021626636,-0.020308856,-0.19661842,0.09195375,0.23049398,-0.2545493,0.0083670635,-0.18579435,0.09869258,0.048983045,-0.30973926,0.1074935,0.10969354,-0.014416453,0.116858184,0.07591252,0.15310599,-0.04986824,0.10365865,-0.3971763,-0.1298674,0.5678791,0.22545578,0.09625053,-0.07530371,-0.16914451,-0.1471188,0.15846132,-0.074577324,-0.22868945,0.24381813,-0.4198405,-0.19714953,-0.029707555,0.19760963,-0.39998516,0.0030248805,0.018466298,0.1188018,-0.36355385,-0.15422513,0.060057092,-0.11201061,-0.070863016,-0.16950753,0.13901813,0.13569939,0.32342786,0.4316108,0.3811004,0.21623378,-0.105954245,-0.4388798,-0.28577822,0.4500467,-0.06655001,0.31722572,-0.03386178,0.2534325,0.28768334,-0.15898304,0.084945396,0.11508564,0.2506054,0.12688611,-0.0684396,0.20849675,0.13920861,-0.13649046,-0.31241244,-0.3008039,0.22855183,0.34403855,0.1907233,0.12375381,-0.14071034,0.18708578,-0.0054463465,0.31869358,-0.11991866,0.11969399,-0.34967282,0.17708999,0.056837246
VAL_3_A,-0.12510929,-0.13338706,0.12893304,0.0028051527,-0.4542609,-0.30905452,0.21283427,0.08783429,-0.18764918,-0.13366267,0.023313556,-0.120091915,0.19440755,-0.22285388,0.17495619,0.17082325,0.07338561,0.13776542,-0.27504498,0.08906189,0.0347366,-0.06182811,-0.05007555,-0.10682621,0.112520345,0.2669226,-0.06705298,-0.022859283,0.019469019,-0.07334586,0.068335965,-0.24378204,-0.012512299,-0.32018405,0.12027202,-0.34591615,0.090298034,0.04191759,0.25252187,0.19772391,-0.011783592,0.01795052,0.19993933,-0.031997323,0.15214832,-0.43633333,-0.3489499,0.22680636,0.11712716,-0.047649324,-0.2555109,-0.115397796,0.04073299,-0.0017857719,0.10406245,0.36764023,0.1415068,-0.04144873,-0.14693402,-0.061824013,0.30348954,-0.112248175,-0.061486058,0.021520482,0.20761926,0.4137192,0.08140271,0.052427746,-0.023722546,0.046581917,-0.07396884,-0.14287864,-0.22933128,-0.026114363,-0.19919051,0.15664318,0.09146555,0.33813617,0.30148277,-0.095848545,0.13359052,0.43532026,-0.35004783,-0.1365613,-0.021191074,0.29509452,-0.019070255,0.38614175,-0.1706375,-0.60926,0.1574035,-0.23947792,-0.17819537,0.13691644,0.018587803,-0.09669452,-0.0692562,0.10628647,0.21973978,0.30334693,-0.10167155,0.12736687,-0.18390173,-0.32531294,0.21448416,-0.08747524,-0.03717312,-0.18035258,-0.15394786,-0.04108066,-0.24131034,0.14497082,0.035456497,-0.07222955,0.038049426,0.20806369,-0.15725233,0.010674023,-0.19359626,0.12228704,-0.28158274,-0.008828596,0.30103835,-0.20168547,-0.1927101,0.20177616,0.32790083,0.15898207,-0.1661847,-0.017593335,0.17697668,-0.2680434,-0.120142594,-0.050081164,-0.16681752,0.3109122,0.09620196,-0.09934502,-0.17905428,0.097036414,0.14376122,-0.079665326,0.09391325,-0.013638666,-0.018507792,0.2578625,0.03557346,0.25029114,-0.20422822,-0.31581214,-0.07369849,0.34383434,0.22088104,0.14752325,-0.04438878,-0.2853953,0.12238855,0.24738114,0.3787065,0.38551658,-0.071094684,-0.026320107,0.074527666,-0.19498198,0.07722192,0.11509764,-0.1059941,-0.16855893,-0.07662941,-0.04516527,-0.11936118,-0.0317907,0.19770798,0.049451143,-0.16080834,-0.096471116,0.27696013,0.0142125795,0.0413001,-0.21653652,0.047938813,-0.047763813,0.010006428,0.08253731,-0.036084764,-0.056194577,0.2038718,-0.22250701,-0.015785566,-0.0023094614,0.113572,-0.096532404,0.14345668,-0.11165499,0.051930055,0.22454074,-0.056474727,0.2498603,0.08604101,0.0035172652,0.03720627,0.25310823,0.18607898,-0.31656727,0.023336777,-0.2124951,-0.14799944,-0.08268365,-0.0630593,-0.28735736,0.2171637,-0.254604,0.23120521,0.040829048,0.17854543,-0.0077997628,0.12384928,-0.032949243,0.12334827,0.0046779644,-0.0923874,-0.09076728,0.11747109,-0.080811895,-0.09059848,0.05423284,-0.14845309,0.27293342,-0.12062303,0.020045137,0.060324647,-0.06918847,-0.07178124,0.15022907,-0.186424,0.088921964,-0.07763478,-0.2768797,-0.21603054,0.16434304,0.067638285,0.032008935,0.124123156,-0.12154151,-0.4602343,0.0013208585,-0.060012963,-0.16885647,0.23661734,0.17703748,0.058542114,-0.18137139,0.27095047,0.022567734,-0.17423733,0.17825152,0.07786853,-0.057329316,0.26217815,0.1420303,0.17897484,-0.115303375,0.17171662,0.011422866,-0.055721924,0.34372833,0.33750147,-0.13429275,0.012045792,0.16404682,0.22062647,0.06951738,-0.22328977,0.20619081,-0.07833619,-0.071650535,-0.45171872,0.013359122,-0.30009076,-0.1199933,-0.115880504,0.16820614,0.06557476,0.1248904,-0.07628413,0.23604235,-0.07817471,-0.08812415,0.01248926,-0.042276382,-0.1941535,0.08208191,-0.102063894,0.06456772,-0.08555446,-0.023572223,-0.1289044,0.18011747,0.10975047,-0.20172077,0.079787426,0.11530767,0.08719111,-0.060744625,0.008766556,0.11618281,0.07423488,-0.22233993,-0.11505373,-0.25940567,0.26733872,0.01575019,0.27375638,0.1078619,-0.055790294,-0.036630515,0.06726491,0.082874276,0.4300946,0.14441052,-0.17443074,-0.06258242,-0.17946966,0.015344538,0.3166258,-0.08712086,-0.122818395,-0.09947555,-0.13917512,0.23808973,0.076168604,-0.2210346,-0.059688516,-0.2098666,0.0982369,-0.09273393,-0.04368222,0.006116088,0.18284954,0.009243062,0.12274017,-0.049960226,-0.014411331,-0.22778583,0.04129264,-0.00924479,-0.20662913,0.11316782,-0.123262435,-0.19171423,-0.31829107,0.21167739,-0.17040408,-0.14970389,0.32038692,0.053123314,0.021742541,-0.24104807,-0.1160821,-0.22736563,0.25841287,-0.0612627,-0.1905908,-0.123044275,-0.21498024,-0.078108616,0.23777282,-0.005073315,0.26557344,0.17885327,-0.06940602,0.23325694,0.1241869,0.09866339,0.26334256,0.23612149,0.2097633,-0.13244107,0.013615628,0.27894005,0.2343135,-0.007026113,0.115571,-0.2083188,-0.028657038,-0.13669737,-0.2029842,-0.028393213,-0.36548957,0.20215054,-0.0078718215,-0.28475857,-0.21334173,0.115679406,-0.08945758,0.0071025672,0.44066322,0.3089138,0.08672713,0.028064426,-0.019919671,-0.31385523,-0.4171088,0.27198863,-0.25694194,0.15035926,-0.18291628,-0.22174847,-0.19754477,0.048774734,0.22672568,-0.16357705,-0.071081735,-0.07692587,0.1872552,-0.15514685,0.014564544,0.31482515,0.36025184,0.03314292,-0.10875248,0.0770831,-0.21930882,-0.03154189,-0.23842473,-0.1059163,0.026935907,-0.01027987,-0.060046863,0.2498304,-0.23256378,-0.102081545,0.09804613,0.19568963,0.0417232,-0.20619991,0.067399055,0.019987362,-0.01212927,-0.10527177,0.03416708,0.26920912,-0.3422687,0.005258734,0.12271901,-0.14927152,0.20982762,0.22114097,0.18285902,0.2732178,0.2458181,0.0826733,0.04193259,0.056906432,-0.0094755385,0.003708996,0.14559813,-0.1200171,-0.035697088,0.041537732,-0.016273877,-0.021098614,-0.034811854,-0.18121669,0.26946262,-0.032957725,-7.4246127e-06,-0.11944523,0.071196325,0.018348444,-0.04587304,0.17771484,0.13999403,-0.5502821,-0.05829222,-0.0070355153,-0.048274357,0.07839667,-0.29919234,0.050603446,-0.17911036,-0.06258861,0.0023030152,0.3499097,0.15783635,-0.009868535,-0.23937175,-0.11337766,0.1658217,0.3059293,-0.15463237,-0.21600534,-0.26886553,0.026105542,-0.26603884,0.42716604,-0.14441577,-0.06459998,-0.07754693,0.017683653,-0.111578494,-0.05099026,-0.32254094,0.16250843,0.014937959,0.31992164,0.21728998,0.10143617,0.0137485545,0.003175161,0.21425432,0.15438907,0.15256308,-0.12734228,0.29369873,0.2065026,0.013591865,-0.062171362,0.1491336,0.052514326,0.19574171,-0.050190765,0.21368614,0.086109295,0.2561712,-0.12100868,0.07473405,0.11123007,0.30353448,0.19229564,0.1274627,0.3036091,0.11421478,0.0591658,0.07886333,-0.16477516,0.06758137,-0.12482529,-0.014509404,0.25285402,0.27806833,0.11727856,0.17367017,0.26693988,0.25671005,0.10460927,-0.09679311,0.24792382,0.18074244,0.08599085,0.03416897,0.27698994,-0.20188238,0.20100714,-0.082158215,-0.11214192,0.19381963,-0.09896242,-0.21490535,0.03326955,-0.46452394,-0.06932549,0.13242863,-0.25737873,0.10278876,-0.068108715,-0.046203524,0.13229266,-0.38702196,0.05863779,-0.3969014,-0.31183562,0.27209696,-0.17423336,0.23253247,0.19672725,0.1533628,0.09130024,0.058828022,0.048537944,0.14173436,-0.017886395,0.17880958,0.0015950318,-0.07148789,-0.12447059,0.16460925,0.08082775,-0.50900286,0.1751066,0.069712445,0.030187586,-0.37063056,0.15302469,-0.012036342,0.266741,0.053170312,-0.013753767,-0.06628793,-0.055068992,0.3802948,-0.04176552,-0.1316774,0.016565332,0.0352913,-0.07688034,-0.11280821,-0.05009331,0.161592,0.18104026,0.17439108,0.0487375,0.007652768,-0.09326637,-0.23419915,0.20924088,0.16059954,0.26393116,-0.047583852,-0.15163696,-0.058346026,0.12566201,0.014090025,-0.10655064,0.19520669,0.43551648,-0.17095517,0.14458667,0.1565901,0.33005872,-0.011309362,-0.08042044,0.11282411,0.12853497,0.07380567,0.00629905,-0.18641208,0.04047607,0.019913957,-0.030258961,-0.4378409,-0.1725433,-0.09170322,-0.15801671,-0.030344987,-0.21848977,0.3657434,-0.035650376,0.5721228,0.31378916,-0.19910945,0.31685787,-0.061935365,0.3357495,0.17815894,0.19494583,-0.1867876,-0.116136655,-0.07697672,-0.11393843,0.0068724155,0.21490897,0.19447494,0.072005756,-0.12237729,0.27530125,0.017984752,0.0812932,0.12225268,-0.058963608,-0.105301335,0.20756921,-0.056255054,-0.093408346,-0.12967853,-0.040050734,-0.20020878,-0.01555333,-0.09797954,-0.20626658,0.43052644,0.11462529,0.03331413,0.104917206,-0.0075126532,-0.16933686,-0.0035023347,-0.004678327,-0.14360568,-0.27041686,-0.37276593,0.2446526,-0.28026533,-0.094006084,0.04359673,0.09518867,-0.29036698,0.16665266,0.14355244,-0.12571241,0.05970895,-0.23304668,-0.43379208,0.09067803,0.17945002,-0.03773724,-0.04490983,0.0695383,0.1537143,0.048195694,-0.2517681,-0.19980595,-0.18905063,-0.041305073,0.26842862,-0.028350957,0.24141288,-0.046360478,0.040574867,0.05801133,0.17990798,-0.053114414,-0.22603992,-0.086256124,0.50665146,-0.0120284185,0.2777053,0.018255088,-0.12903678,0.0049458775,0.12410598,-0.060937524,0.1961711,0.3169945,-0.18832147,0.1777178,1.0444237,-0.17412134,-0.20597824,-0.16067581,-0.015880013,0.27836204,-0.029695805,0.10651433,-0.14273232,-0.087131046,-0.007702337,-0.3574721,0.13662273,0.19614804,-0.09628093,0.13939866,0.1917022,0.036405224,0.01769359,-0.08835872,0.048129953,0.11879879,-0.16041562,-0.15897219,-0.15242465,0.19524659,0.006370186,0.09121525,0.025274446,-0.105498455,-0.35410672,-0.19052069,-0.3031279,-0.03666828,0.19889086,0.18109195,-0.04327445,0.331629,0.09036791,0.08585595,0.06449875,-0.26272348,0.15838178,0.09291063,-0.08092991,-0.11506718,0.2632044,0.16032338,-0.35993144,0.057917442,0.6654813,-0.26518372,0.06508968,0.19142239,-0.024790382,-0.047619004,-0.3059748,0.31975186,-0.16396557,-0.29298693,-0.25759098,0.105358705,0.09354983,0.22449046,0.03670249,-0.25950703,0.08822342,-0.061370514,0.00038288784,-0.10046318,-0.17572458,-0.26094365,0.05969642,0.31856865,0.09770965,0.06422949,-0.21958235,-0.123287775,-0.028003104,0.16655354,-0.4264197,0.13480073,-0.17765532,-0.06015359,0.010376031,0.21534455,-0.14762004,0.03639461,-0.2641183,-0.06258569,0.234397,0.15259421,0.090833545,-0.16468568,-0.043813415,0.220585,-0.094631016,-0.010673631,0.07838565,0.13464671,0.101682045,-0.22050118,-0.1472359,0.017291393,0.15128765,-0.027161116,-0.01835558,-0.031704146,-0.046438046,-0.24405879,-0.08225478,0.12813161,-0.3046795,0.16468629,0.18517411,0.062465455,-0.24433775,-0.11407717,0.31464672,-0.007812228,-0.2731685,0.12503506,0.2504468,0.20150828,0.11721701,-0.079921335,0.01839918,-0.002202268,0.02891107,-0.07632711,-0.49475685,-0.14286284,0.09989416,0.010100526,-0.0684621,0.12908155,0.3861739,-0.2668987,-0.11362137,-0.15018582,-0.99511427,0.21361297,-0.08030557,-0.33888736,0.11325904,-0.037484743,-0.32506967,0.29039025,0.07010731,0.004972019,-0.33496693,-0.05615555,0.4047851,0.06751828,-0.2679432,-0.09202002,0.10473003,0.3817812,-0.22852735,-0.10674171,-0.39502573,0.078128465,0.02565043,0.0065912753,-0.023840636,-0.14591019,-0.16298197,0.17070848,0.35072845,-0.18779688,-0.09512813,-0.11907598,-0.16467878,0.37441105,-0.3018548,-0.12697765,-0.019611033,-0.17496833,-0.19159223,-0.0831176,-0.022484573,0.048435297,-0.08623827,0.25774214,0.14942327,0.33689243,0.13527991,0.029714223,0.06762534,-0.1284628,-0.14852074,0.19200832,0.014747691,-0.272979,-0.04065521,0.21471545,0.011918761,0.08460608,0.07105039,-0.12549135,0.13143748,0.09645723,0.29841742,0.09469596,-0.060058076,0.05456247,0.16154148,0.10629023,-0.29773363,-0.2181365,0.222801,0.55943054,0.05134051,-0.037476454,0.103509694,-0.029101316,-0.010801994,-0.12204192,-0.2473111,0.18255316,0.064037,-0.2872438,-0.12453875,0.091870286,0.12776063,0.026722826,0.229904,0.0031015095,0.20116699,-0.03764366,0.06512474,0.052259013,0.17277914,-0.11362746,-0.18549879,-0.1722938,0.019936973,-0.103222,0.13205159,0.15713243,-0.26038155,-0.18170758,-0.35288167,-0.1280451,-0.26076287,0.23640567,0.2026028,0.3564414,-0.1878606,-0.04140949,0.05841509,0.15220597,-0.29045713,0.07453667,0.05113453,-0.13280414,-0.062289838,-0.10185457,-0.27671802,-0.14991514,-0.27816227,0.09513119,0.5239758,0.18855546,-0.16352873,-0.18054128,0.2604274,0.05433694,-0.09854004,-0.08039676,0.24465084,-0.07992879,-0.18928194,-0.037961654,-0.36012778,-0.23165132,0.012833087,-0.47496927,0.1420444,0.027026316,-0.14080478,0.08862599,-0.012946245,-0.054043826,-0.16994481,0.10825247,0.16500576,-0.20145303,0.103561305,-0.20734416,-0.012090743,-0.19592595,-0.43612784,0.03981478,-0.05059613,0.2393681,0.21300055,0.009447909,0.068736985,0.20631628,-0.011995246,-0.08515333,0.046974953,-0.17022276,-0.065877825,-0.21018474,-0.010267994,-0.094819225,0.1545479,0.020507712,0.18246485,-0.029278725,-0.13440034,-0.06809882,0.03460934,0.11472703,0.34625718,0.022379825,0.10780688,-0.04319206,-0.30760413,0.49451977,-0.18906169,-0.2857945,0.088051,-0.120587364,0.1630807,-0.08549096,-0.27175066,-0.065200634,0.045767065,0.38931683,0.09419799,0.13366427,-0.23646747,0.074756645,-0.035213515,-0.1333137,0.25443462,0.046310786,-0.06201488,0.19096725,-0.12970896,0.10695738,-0.015756432,0.14148584,-0.0005680657,0.2386928,0.31043577,0.072175734,0.01981225,-0.1555638,0.008134334,-0.20390739,0.1561505,-0.044994842,0.16585797,-0.038198873,0.048574198,-0.19785638,-0.14693142,0.19818525,0.38110337,0.17783955,-0.12849337,-0.040087286,0.02462603,-0.27017093,0.3955542,0.010933914,0.44895202,0.0966198,-0.010637375,0.033588935,0.029722078,0.15536699,-0.47508332,-0.0097044585,-0.037027042,0.12417844,-0.01629697,0.34383267,-0.044241723,-0.27694505,0.08233942,-0.038854927,-0.20356467,-0.14492077,-0.08901138,-0.04402918,-0.2709717,0.22508803,-0.13806783,0.12301478,-0.04623187,-0.087358914,-0.015241289,-0.14937906,0.1735164,-0.13593468,0.029642249,0.25043225,-0.047543045,-0.0070112124,-0.078572564,0.18091103,-0.18352763,0.049308173,-0.110417195,0.72442,-0.05655506,0.10251784,-0.4063164,-0.09253634,0.093151964,0.013102447,0.13160983,-0.104599245,0.031738147,-0.26480153,-0.14523062,-0.012343542,-0.20652555,0.029075464,-6.9571114,0.04592527,-0.24008259,-0.19537137,0.10198671,0.3158439,0.11297707,-0.13397259,0.30194205,0.37595546,-0.13157988,-0.26118973,0.3153596,0.08050469,0.020082058,0.1904279,-0.06399658,-0.19621561,-0.1546774,0.020778494,-0.1997994,-0.31346866,-0.14626436,0.06492292,-0.1539843,0.09393638,-0.028882919,0.020808654,0.2084358,0.21497753,-0.00025149074,-0.032553326,0.1995973,-0.04126148,-0.07824552,-0.14546712,0.106421806,-0.36541387,-0.24175033,0.17433903,0.18046126,-0.33295086,0.028188696,-0.17675327,0.4269597,0.18348241,-0.3638222,-0.0377345,0.1612802,0.18095389,0.05825786,-0.09822823,-0.16164029,0.13154322,-0.006570878,-0.28766078,-0.26398984,0.04264776,-0.11926468,0.020479348,-0.19037567,-0.3066235,0.014138462,0.10248982,0.0037651511,-0.09745261,-0.015513254,0.20352921,-0.032853596,-0.1278972,0.18826143,-0.207111,0.2146493,-0.2570359,-0.098494485,0.09613847,-0.090770945,-0.2515912,0.1316304,0.14462183,-0.3121016,0.20064846,-0.015086246,0.18526328,0.15898956,-0.050516546,-0.18799485,0.13602784,-0.1677727,0.0491635,-0.02193391,0.0052775363,0.2510417,0.08259262,0.005114148,-0.17882778,-0.26894015,0.45427057,-0.31083882,0.2407816,0.18527408,0.29092866,0.10909971,-0.15293477,0.06113682,0.27566203,-0.19716609,0.19445255,-0.14104272,0.12180073,0.101032235,-0.3607862,-0.15484929,-0.20840037,-0.11469215,-0.028452564,0.2347416,-0.25581878,0.21632046,0.15779777
GLY_4_A,-0.06693488,-0.04167963,0.0820409,-0.1602998,-0.0174652,-0.09943178,0.18818969,-0.03236543,-0.13385971,-0.27790558,-0.038273983,-0.07981609,0.29229766,0.24981995,0.056382824,0.38982257,-0.1111282,-0.03962246,-0.1968036,-0.09879215,-0.15693276,-0.036441036,0.0036270802,-0.036589433,-0.04573137,0.18024641,-0.20524241,-0.29025704,-0.014039661,-0.26570886,-0.15553746,-0.1278803,0.16664293,-0.15468319,-0.08595193,-0.071603686,0.45410216,0.086561196,0.18952744,-0.07004885,-0.05471011,-0.15217854,0.0077009914,-0.19215871,0.24674258,-0.08565068,0.14550994,-0.043569624,-0.10018591,-0.083542615,0.070666775,-0.06862574,0.019217612,-0.022296451,0.37829912,-0.10953678,0.36853895,0.101752065,-0.073281124,-0.044795398,0.11970615,-0.28003636,-0.1166598,-0.0071353386,-0.046715997,0.17937048,-0.015285776,-0.28951088,0.01156069,-0.0064933263,-0.0077644954,-0.067890845,-0.11288242,0.15431507,-0.11628247,0.0780726,0.19063544,0.21137367,-0.14902088,0.08346206,0.14704005,0.118377805,-0.24648696,0.4443826,0.05420424,0.09531076,-0.06802456,0.033272456,-0.12350262,0.20902245,-0.089992516,0.26329127,-0.116852194,-0.18269461,0.08800746,0.26538482,-0.27107948,-0.29726326,0.0018500822,0.3748338,-0.43058088,-0.027021497,0.006028922,-0.3499899,0.13427942,-0.20274566,-0.05957475,-0.5032007,-0.2713315,0.0044377,-0.23544726,0.38322935,-0.0395355,-0.33697543,0.36282837,0.25126144,0.08802678,0.0023150083,0.028447071,0.22535236,-0.03842815,-0.02526896,0.22828746,0.32738152,-0.25692937,0.12836303,0.24519935,0.044476703,-0.013365308,-0.1359105,-0.072219044,0.0012124758,-0.36847755,-0.058490437,0.17790112,0.2974737,-0.33907261,-0.12916315,-0.060694363,-0.11664445,-0.05857856,0.10946848,-0.10233239,-0.0068722432,-0.06984553,0.5358533,-0.088468134,0.27290365,-0.23581031,0.004156238,0.2576043,-0.32527375,0.12901796,-0.07082914,-0.061808664,-0.1592051,0.21589878,0.14053017,-0.043354817,-0.12493694,0.044475406,-0.29352596,-0.03551862,-0.09188311,0.33676746,0.22773702,0.33088836,0.16703129,-0.41959837,0.18023083,-0.33538443,0.1844676,0.3614056,0.15607807,-0.06255139,0.026200878,-0.037868317,0.076443546,0.25192273,-0.18405321,-0.11465829,-0.031238325,-0.12911269,-0.13965175,-0.059646104,-0.25160193,-0.033014353,-0.16265067,-0.0011932412,-0.025921874,-0.07270387,0.087439485,0.14447035,-0.3336274,-0.028631354,0.2176175,0.18812923,0.18188532,-0.30962884,-0.20202158,-0.33568436,0.044169836,0.029896546,-0.16126387,0.11834227,-0.07994149,-0.018906813,-0.10061075,-0.19085327,-0.4913239,0.71475,-0.1172082,0.09105029,0.04315952,-0.051995706,0.11664721,-0.3523333,-0.15182719,0.2440984,-0.026451271,-0.17584363,-0.18989937,0.2722968,-0.20018594,0.03802932,-0.20342536,-0.23104258,0.2557776,-0.028606609,0.013843815,0.21589613,0.23893955,0.24055564,0.055933744,1.7862097,0.19524492,0.1263691,0.2360485,-0.11351374,0.28550684,-0.20965979,0.010222751,0.21818402,0.29116836,0.042520206,0.02842312,0.23991826,-0.063895844,0.34549984,-0.21441683,-0.6070374,0.03566194,0.013666192,-0.034724873,-0.34836298,-0.20142348,0.10354529,0.5064311,0.23762624,-0.017898649,0.25621808,-0.070134856,0.10630666,-0.09555024,-0.16468433,0.07179454,0.37776524,-0.01138699,-0.07480398,-0.05249692,-0.2317828,-0.32751873,-0.07304161,0.2551656,-0.14987846,0.02310203,0.042980988,0.009573753,-0.170701,0.21982989,-0.124600664,0.057525553,0.10552749,-0.24787197,-0.06937079,0.25806224,-0.113083854,0.25256908,0.23811935,-0.088030644,0.12289019,0.23744906,-0.56132984,-0.40366772,-0.19994256,0.12527618,0.128375,-0.22679096,0.18731965,0.31763884,0.4180289,0.19622348,-0.09520381,0.16546935,-0.04178622,-0.15029816,0.07790899,0.12032999,-0.07844842,-0.29851666,0.1395621,0.12171791,0.039567623,-0.093307704,0.09247564,-0.38951153,0.20370641,-0.13505092,0.01844982,-0.046795007,-0.34972206,0.16872096,-0.10470358,0.02002674,0.06452391,-0.27452222,0.1310208,-0.2733069,0.16093849,0.21119075,-0.08050439,-0.1969226,0.10939345,-0.16914,-0.4963422,0.09064298,-0.45113474,0.15101786,0.25101602,0.25770503,0.087215625,0.25576502,-0.098634146,0.14787465,-0.363943,-0.064058654,-0.17519796,-0.026208498,-0.17160428,-0.290208,-0.63423014,0.1260852,-0.48492563,-0.29982987,-0.102500096,-0.22236711,0.05826262,-0.5539035,-0.15184696,0.10270141,0.07679457,0.19382359,0.028206829,0.25043875,0.089431204,-0.07282082,0.568931,0.09971363,-0.16533571,-0.523428,0.43189526,0.2433666,0.17425667,0.088443086,0.023927515,0.19617657,-0.0062638037,0.21716036,0.36175624,-0.13621905,0.27172634,-0.039993748,0.19422707,-0.14162588,0.025950953,0.0024412256,-0.3016739,0.0487944,-0.15430878,0.2535985,-0.0942542,0.36761528,-0.24400444,-0.22622098,0.044977643,-0.20173992,0.38530037,-0.3075979,-0.11699349,0.051240344,0.211361,0.049840536,-0.3461562,0.31227323,0.18364425,0.17950386,-0.12656115,0.023763124,-0.19488685,-0.10143231,-0.123887494,-0.28676248,-0.0028920686,-0.16497646,0.16719465,0.22215943,0.04918839,0.03068481,0.2296518,0.13136663,0.063799754,0.07278887,-0.38364744,-0.010943238,-0.38295874,-0.079298235,-0.11473464,-0.09888154,0.16646342,-0.05935575,-0.008925731,-0.17283827,-0.13889465,0.08196379,0.048261523,-0.21517733,0.21838628,0.13421571,0.3465665,-0.23432258,0.055140946,-0.05792801,0.07940788,0.114388876,0.1148158,0.095700845,0.14071362,0.3134702,0.082649395,-0.118481904,0.31981328,0.011421062,0.16873568,-0.04232677,0.083930425,0.2135563,0.13299102,0.16608079,0.3062382,0.54396373,0.13267651,0.5988405,0.027739631,0.07215327,0.44507483,-0.059855543,-0.07638283,0.08061543,-0.1715815,-0.0056411256,0.01938827,-0.021817058,-0.009901148,-0.07380565,-0.050451573,-0.052379195,0.009546305,-0.16380389,-0.17397892,-0.013903189,-0.111757554,-0.04097418,0.16822666,-0.21645574,-0.28440532,0.031101292,0.087776475,0.18894568,0.13270393,-0.004334527,-0.032240298,-0.11871092,-0.37419298,-0.20192613,-0.045033187,0.39087984,0.051578004,-0.15850028,-0.25127265,0.1864822,0.15350774,-0.060359936,0.1427635,0.17955707,0.08278825,0.104084626,-0.044656925,0.49389294,0.14448616,0.046621293,-0.16093433,-0.0032632132,0.2976007,-0.049322758,-0.23266312,0.14051016,0.40603623,-0.20987956,-0.15944727,-0.14442518,0.16569498,-0.041700702,0.17319974,0.13383672,-0.21719258,0.09015496,-0.14742051,0.018970251,0.2469048,0.156993,-0.2418849,-0.014682807,0.017081397,0.1426342,0.24949476,0.18327612,-0.3359377,-0.05363956,-0.3907144,0.29531658,0.19438383,-0.03930213,-0.31183657,0.035068452,6.898865e-05,-0.23601978,-0.27343306,0.1783803,0.018494414,0.030890109,0.05290508,-0.1435454,-0.0064716414,-0.023533044,0.14107731,0.05175805,-0.1194557,0.004374118,0.4472353,0.12299176,-0.008928805,0.20239902,0.39737114,0.089876354,0.19636495,-0.53281575,0.163648,0.17051002,0.12138104,0.12916808,-0.07033474,-0.060148988,0.14526863,0.12080691,0.18683444,0.14650403,-0.26257634,0.303078,-0.32750177,0.061342016,0.055682693,-0.096407674,-0.23982337,0.10361137,-0.09465848,0.18050204,0.30848047,0.041268814,-0.32529128,-0.013997681,-0.014467358,-0.33285266,-0.1391379,0.15103716,0.5751629,0.028536228,-0.47324884,-0.3124361,0.048137523,0.115093686,0.1463859,0.090853386,-0.17328776,0.096463494,0.08987719,0.25757965,-0.26799595,-0.26625618,0.25161335,0.42436618,-0.24061213,-0.16553442,-0.1406119,-0.39393005,-0.056038696,-0.010073601,0.093826815,0.13473117,-0.42711738,-0.0064673657,-0.046918914,-0.12018427,-0.22544178,-0.026753085,0.1902055,0.088879935,-0.23083849,0.41484338,-0.10841891,0.54311734,0.07860745,0.2928518,0.034144554,-0.23368266,-0.19441818,-0.17726803,0.07775667,-0.21212614,-0.13994808,0.0045208954,-0.2941437,-0.14017555,-0.05160708,-0.12009351,-0.34699708,-0.5633483,0.26264143,0.30895698,0.0125396075,0.21221778,-0.054567773,0.25600436,0.15822297,0.26335478,0.0116518885,-0.37468934,-0.09026893,0.2605181,-0.54837763,0.017431216,-0.18382941,-0.09307904,0.07790546,-0.13746402,-0.06913053,-0.124989204,0.036202215,-0.28311285,0.1352627,0.05652757,0.08881177,-0.056694046,0.049331836,0.2032259,-0.13877544,0.031437613,-0.06410414,-0.07305845,0.18065678,0.17040978,-0.003531512,-0.31022337,-0.33372667,0.2327122,-0.13495883,-0.059065133,0.079528764,-0.015559971,-0.01921996,-0.34414792,-0.4995457,-0.028455634,-0.16376269,-0.14072914,0.049428616,0.13923502,-0.26509368,-0.056401275,-0.13732041,-0.325802,0.040328972,0.040510934,-0.21214418,0.29937267,-0.12007654,-0.06407944,0.14835826,0.1135908,0.0967846,-0.09985192,-0.054785997,0.12511444,-0.36248612,-0.067701735,0.15720603,0.15071644,0.15399094,0.38729328,-0.045820266,-0.022646492,0.35106662,0.15224218,-0.011550618,0.4634394,-0.061491385,0.11231283,0.29707837,0.31130373,-0.20776035,0.079352215,-0.083621405,0.024649056,0.16487902,0.07478782,-0.33945593,-0.258091,0.92313784,0.047286537,-0.106789686,-0.070036285,-0.22257037,0.30016994,0.1251625,-0.21737824,-0.25774834,0.13597529,-0.25878623,-0.04135942,0.40445724,-0.115837224,0.024481589,0.031927895,0.038177118,-0.090419136,-0.051989447,0.024825063,0.10192895,0.22090568,-0.046869844,0.014664087,-0.36130628,0.16977017,0.10284464,0.1078505,0.36970094,-0.24962042,-0.15300283,-0.17620139,-0.21673703,0.14457093,-0.23366122,-0.048492216,-0.2290662,0.16162688,-0.19203092,0.3144212,-0.03126378,0.09553128,0.03626752,0.088838525,0.09087457,0.08842067,0.18491615,0.3555302,-0.10799855,0.3205287,0.60220474,-0.12974261,0.1618565,0.004161048,0.06768146,0.18822695,-0.06749903,0.49387237,-0.20959723,0.16716446,-0.06552351,-0.21644835,-0.21121481,-0.05430059,-0.020012377,0.09532929,0.049020335,0.16592748,0.27039787,0.049363516,-0.17886893,-0.427645,-0.10100366,-0.17150003,-0.01568149,-0.13660856,-0.05021184,-0.14918391,0.023407368,-0.1915545,-0.13532253,0.2170847,0.04200947,0.0111948075,0.20936944,0.26525787,-0.148599,0.2727672,-0.19602135,0.21671343,0.28304344,0.0922367,0.0084869405,0.037019037,0.027579376,-0.443486,-0.1903495,-0.1444082,0.032413136,0.020284021,0.06714094,-0.10993466,-0.2900248,0.35089508,-0.18980025,-0.044798657,-0.08814635,0.085806586,0.06328694,-0.06396312,0.25971118,-0.06858523,-0.29414988,-0.028162649,-0.15762053,-0.14665684,-0.17063919,0.40725905,-0.15884687,0.23311836,-0.24313004,-0.14830601,0.4354462,0.06570607,0.1158216,0.03600417,-0.20966484,-0.13893734,-0.2183238,-0.29740652,0.19492248,-0.25576353,0.07593535,0.19382116,-0.4058831,-0.10463709,0.34672695,-0.11198132,0.2627648,-0.20867895,1.5847156,0.021008939,0.04287018,0.08870132,0.346633,-0.08806719,-0.16282393,-0.27939376,-0.26694816,0.1358246,-0.029231315,-0.4043554,0.07932392,0.18922822,-0.027265,-0.0628856,0.29286933,0.46717405,-0.45480713,-0.22528799,-0.18406767,-0.10911615,-0.05597687,0.020358304,-0.11954588,-0.014531596,-0.41264874,0.015303847,-0.16265869,0.051243413,-0.31079638,0.10021408,0.040286817,-0.09199632,0.0060034445,-0.1951887,-0.35519972,-0.012385976,-0.1221516,-0.10277317,-0.039141554,0.32206303,-0.27706948,0.2829262,-0.079237066,-0.08077517,-0.13237837,0.009950379,-0.4654117,-0.1752101,-0.35022062,0.15273319,-0.008191507,-0.060116705,0.3600046,-0.32640448,-0.41020876,0.048683923,-0.22584914,-0.15111186,0.16173115,0.10029278,0.10358515,-0.28434464,0.4230012,-0.17676157,0.02852567,0.40422165,-0.37266892,0.079320595,0.46659034,0.15666598,-0.081102975,0.11030937,0.109485246,0.46744907,-0.20054382,0.008011617,0.1741287,0.030061414,0.04448164,-0.09898104,-0.21100064,0.20538004,-0.21666293,0.073363714,0.20175576,-0.07003912,-0.055989485,0.05574332,-0.13830319,-0.10485476,-0.022208927,-0.13126518,-0.008620527,0.14919443,0.02319914,0.054687053,-0.036086112,0.036984835,-0.35272026,0.019230887,-0.005921332,-0.025436396,-0.25238445,0.2379064,0.026939102,-0.090845086,0.2766888,-0.19023353,-0.09796103,-0.03818088,-0.4942588,-0.03126479,0.2566471,-0.15361843,-0.08366869,-0.38457164,-0.44576472,-0.5023676,-0.26856253,-0.39529097,0.12926066,0.29081923,-0.31077665,-0.21828455,-0.09295559,0.121496305,0.2886957,-0.298127,-0.10521,-0.1399456,-0.116763934,0.2771435,-0.30574232,-0.19294214,0.40887827,-0.087571576,0.19420357,-0.014885167,0.16732182,0.023397349,0.07619223,0.31137186,-0.20211786,0.033448562,0.25275794,0.34340936,0.05367194,0.41199854,-0.11282648,-0.26506123,-0.30488613,0.04250951,0.2683295,0.15485851,0.28926352,-0.29614675,-0.25693804,-0.19181994,-0.08912238,0.32346913,0.39577445,-0.033314627,0.015794348,0.115255594,-0.15106507,-0.22001153,-0.30489448,-0.13949835,0.14969704,0.32258475,-0.15725301,-0.24873756,-0.38799444,-0.25486672,0.5176883,0.1524164,-0.33080032,0.4549268,0.14034885,0.08535866,-0.23435622,-0.23163518,-0.114322774,0.22786261,0.15744339,0.1364527,-0.1764391,-0.5586088,-0.36356756,0.16580598,0.23309436,0.033329774,-0.37214625,-0.035775777,0.07892174,-0.021704752,0.088703156,0.043473966,0.13898803,0.036855794,-0.29269612,0.41339067,0.096996166,-0.014866522,-0.158394,0.23992643,0.18444823,0.2049705,0.1737447,0.19339748,0.4643667,-0.07725066,0.35043484,0.17596224,0.21729448,-0.07720346,0.024737213,0.17148069,-0.028780889,-0.03799535,0.3257214,0.003896474,-0.079266645,-0.27944756,0.19363646,-0.10412996,0.1938696,-0.078358576,0.24502495,0.30176258,0.14829247,-0.075647235,-0.1423978,0.35995033,-0.19144422,-0.084062465,-0.008213108,-0.030400127,0.16920622,0.20810984,0.055243943,0.22725767,0.080693275,-0.39612684,-0.02035106,-0.19544965,-0.18640476,-0.5253541,0.13461152,0.40768167,-0.28109068,-0.16248392,-0.009837978,-0.17065372,-0.026391901,0.040574178,-0.026303465,-0.36835387,-0.06176052,0.11358084,-0.08997038,0.1300269,0.09868566,0.070560694,-0.12889957,0.19983925,-0.13773854,0.5968356,0.14955088,0.097578906,-0.32658058,-0.05160114,0.12972434,0.011074806,-0.010123324,-0.0031869083,0.10589888,0.15615666,-0.13424343,0.20492958,-0.2455549,0.030886114,-5.518643,-0.18846008,0.11306011,-0.1960117,-0.0093384795,0.10722923,-0.007912218,0.26658607,0.36109495,0.2316567,0.25008038,-0.24578558,-0.08186631,0.2116637,-0.25235718,0.40734327,-0.036862917,0.00021252749,-0.24405275,-0.15679821,0.07226152,-0.07250421,0.106975935,0.28596133,0.044356506,-0.35304108,0.04265,0.09097234,0.17675562,0.3835296,-0.24606739,0.022138001,0.030918134,-0.14254808,0.111947425,-0.0631899,-0.09098846,0.21625131,0.19837373,0.032831293,0.124036245,-0.24169923,0.13639016,0.5066514,0.20729505,0.050816342,-0.3740596,-0.16390167,0.05588026,0.4554897,0.091380745,0.06977263,-0.03116066,0.06685545,0.020856032,-0.18008383,0.0071690544,0.4992599,0.024370095,0.29046786,-0.023866763,-0.49753353,0.31153682,-0.1970801,0.17311293,0.09319575,-0.29194942,-0.09005216,0.050127972,0.124718,0.2653933,0.16500874,0.38941887,-0.22085534,0.06560419,-0.08310022,0.17191558,-0.5539587,-0.117396556,0.04545089,0.06713874,0.09760202,0.01125358,0.09247225,-0.046260122,0.27501515,0.2242423,0.2218028,-0.005475464,-0.2584152,0.34134215,-0.42969435,0.19017552,0.15475172,0.13728787,-0.1706873,-0.47374845,0.20621236,0.10710851,-0.06187027,0.28878996,0.23441964,0.051842403,0.2100554,0.22797878,0.5265881,-0.18215546,0.09391091,0.14444786,-0.09744016,0.25166512,-0.2281484,-0.2554988,-0.08207968,-0.09636969,-0.4790967,-0.20895132,-0.049781334,0.006495889,0.031882226
HIS_5_A,-0.20754135,0.040804457,-0.09675616,0.0540513,-0.28839952,-0.22045614,-0.278578,0.008960367,0.02878029,-0.123438604,0.4266418,-0.54339457,0.29678226,0.4628963,0.24759983,-0.11015352,0.36891654,0.21123473,-0.23947398,0.10132913,-0.28492793,-0.03305252,0.037154853,-0.07890842,0.018900162,0.14380164,-0.2007524,-0.11806756,0.08550858,-0.28693935,-0.16366656,-0.27486637,0.02353038,-0.3543415,-0.14636073,0.06409034,-0.14629647,0.21388382,0.228164,-0.19043776,0.15933928,0.36760587,0.053113393,0.2558664,0.12046233,0.12611547,-0.1608734,-0.008715195,0.1336144,0.24482624,-0.031313874,-0.09068258,-0.37197348,-0.15956216,0.44993338,-0.12989032,-0.10426158,0.15945254,-0.18784894,-0.06385914,0.12594503,0.12000741,0.033088177,-0.3429676,-0.2525756,0.20680325,0.06318325,-0.22823904,-0.18178003,-0.33141035,0.4582075,-0.12651116,0.02523209,0.62449557,0.01866985,0.17626038,0.12285641,0.16068919,0.25218824,-0.52820414,0.107426904,0.1022779,-0.091959566,0.14469412,0.19647439,0.1348801,-0.2349374,0.33923346,0.19164306,-0.5745501,0.15306377,0.015677892,-0.13202815,-0.009648551,0.30719003,-0.5279086,-0.33279917,-0.15618722,0.07679234,0.20608605,0.09388654,0.055905685,0.05695258,-0.4421058,0.022554588,-0.25815457,-0.18278094,0.06118596,-0.36347252,-0.26761246,-0.1544861,0.17190222,0.38782486,-0.10226776,0.19823822,-0.34997195,0.006629729,-0.14396736,-0.3730448,-0.336989,-0.25690052,-0.2293342,0.29243848,-0.07041836,-0.13682303,0.15922908,0.038222384,0.08954647,-0.21112086,0.12415032,-0.23679748,-0.2908935,-0.25553104,0.24129595,-0.15798348,0.40844432,0.17860557,0.1483034,-0.2564704,-0.1323501,0.21852891,-0.07162679,-0.4063556,-0.2983222,-0.34840852,0.7110198,0.14483835,0.25298733,0.041325003,-0.04070904,0.061083898,-0.11583107,-0.25605658,0.04461004,0.041365948,-0.06850275,-0.10867909,0.081979774,0.16489804,0.27546358,0.114581436,0.30844304,0.17457016,-0.35425028,-0.12624083,0.24342911,-0.22289802,-0.086831056,0.17068048,-0.37581375,0.1863365,0.13426371,-0.015892768,-0.013740394,0.0437648,0.0029298542,0.20787375,-0.31182998,-0.08299086,-0.3547943,0.04464145,-0.24919906,0.0108913025,0.025614642,-0.5955328,0.019556988,-0.04626465,0.13538167,0.13927636,-0.3402368,0.10850347,0.6842434,-0.061169352,-0.026200822,-0.20761111,0.110560596,-0.23563243,0.13633078,0.008837821,0.21100888,-0.18722738,-0.18817452,-0.0021250858,-0.009036994,-0.06242849,0.09596923,0.014166624,-0.02924647,-0.1220467,-0.037469674,0.5882218,-0.3469734,0.19218673,0.013238829,0.05921863,-0.097019866,0.18451461,0.17702125,0.062438246,-0.16078183,0.12175175,0.26090097,0.16780335,-0.12051531,0.14284156,0.18874316,-0.58149534,-0.0029040922,0.5483366,-0.043426286,-0.27414486,0.06562362,0.18509845,-0.4034921,1.4017998,-0.09207531,0.20409678,-0.568057,-0.01969273,0.15922569,-0.08173922,0.19286,-0.3497491,-0.26190373,0.21704035,0.18896683,0.026442137,0.11674105,0.2018135,0.5380173,-0.16413935,0.447986,0.06104445,0.18929678,-0.02778798,0.023912482,-0.10167927,-0.06996404,0.037549857,-0.2647632,-0.24068254,0.19071348,0.077476256,0.0575434,0.1272426,0.15760393,0.15715037,-0.43584853,0.3782812,-0.007190993,-0.42506462,-0.0019548929,0.0003412906,0.14574392,-0.12403025,0.15974672,0.23121388,-0.34368393,-0.24567772,-0.46550938,0.09420793,0.1574748,0.16377608,0.19556165,-0.3485804,-0.13224958,-0.28986397,-0.2750489,0.056325402,0.17956954,0.08703761,0.32635278,-0.15507083,0.03946635,-0.22353858,0.07133873,-0.3949981,-0.0450558,0.11521417,-0.5345623,-0.07066257,-0.1839256,-0.106567815,-0.111830324,-0.18332972,0.36469683,-0.42078328,-0.09404046,0.072733015,0.09623911,0.16584551,0.13907984,-0.027915776,-0.052097894,0.07444753,0.03934583,0.11631481,-0.19299096,0.12615988,0.27854508,0.034476392,-0.093822494,-0.048002332,-0.05081538,-0.05363842,-0.47519782,0.039084464,0.18845016,-0.13832861,0.25464538,-0.07114712,0.20181678,0.08242116,0.1927219,-0.3434009,-0.14262341,0.20733227,0.13539498,-0.027683575,-0.00038444935,-0.10055014,-0.028002383,0.0626664,0.11846817,-0.082808405,-0.20654894,0.048513852,-0.25523242,0.20415118,-0.31447175,-0.3714369,0.045123193,0.0013111165,-0.123603694,0.2018679,-0.32232735,-0.16769527,-0.035086326,-0.41406825,-0.23949139,0.25140595,-0.14749101,0.017711965,-0.25430697,-0.0983742,0.252601,0.31358635,-0.051533587,-0.16766645,0.0011228902,-0.006850438,0.029586667,0.24304533,-0.20137024,0.11247672,0.27807,-0.35996512,0.2572545,0.6231607,-0.022444174,0.24067077,-0.026571328,-0.14326711,-0.032405194,-0.1287197,0.11243993,-0.16716734,-0.22206956,-0.15101361,0.21177287,-0.036637906,0.059634417,0.14071628,0.4898266,0.0020366265,-0.13661169,0.17258067,-0.18074174,-0.004139443,0.00737632,-0.18066275,-0.16219582,-0.38622963,0.05041403,-0.059633266,0.1120411,0.30914274,-0.013166728,-0.07930541,-0.4286929,-0.18945602,-0.20645615,-0.28054926,-0.084049605,-0.23624006,0.28261748,0.23096627,-0.14435594,0.17854796,-0.18990274,0.25494328,-0.08895191,-0.071932465,0.35014775,-0.12982956,-0.16959067,-0.10832553,0.37814546,-0.09521858,0.15875888,-0.1142786,0.21636005,0.28504798,0.14431846,-0.14876343,-0.22234622,0.38238752,0.4160819,-0.12037655,0.22010727,-0.06664027,0.00016895798,0.048417743,0.22918655,-0.13566883,-0.07747769,0.2961496,0.04211672,0.55348927,-0.13982825,0.40137032,-0.15721458,-0.10163036,-0.28201666,-0.21840432,0.31869796,-0.019734839,-0.12597929,0.11502154,0.3713817,0.09047662,0.041106053,0.30416793,0.009602043,-0.024627019,0.010356139,-0.10080507,-0.17982535,0.18234909,0.04772353,-0.40531713,0.13061367,-0.013993747,-0.4752512,-0.1951947,0.21110532,0.12716627,0.10740282,-0.44764367,-0.03233884,0.06517746,-0.0995504,-0.29195544,0.049013294,0.28028738,0.23325442,-0.29174256,-0.019429939,-0.18053895,-0.008254459,-0.22787675,-0.22296213,-0.22088146,-0.20516501,-0.3158521,0.17559548,0.25807917,-0.24588849,0.06936074,-0.31383672,0.009310638,0.23279266,-0.51066244,-0.038906127,-0.14349733,0.4004052,-0.00089892565,0.0945822,0.068213195,-0.074254416,-0.052277062,-0.03265989,0.08420583,-0.116643555,-0.1440484,0.26841232,0.32240203,-0.26089516,-0.1556283,0.008068112,0.41170952,0.1331515,0.32693967,0.5852214,0.03027356,0.007171839,-0.02981635,0.106863566,0.042063937,-0.06268872,-0.24734792,0.038088575,0.11403913,0.115356065,0.14744669,0.14327735,-0.2845289,0.0011988741,-0.2784107,0.27208555,0.23949948,-0.08586248,0.13882187,-0.025040356,-0.14392084,-0.41158056,-0.010396572,0.44031343,-0.26576534,-0.037111938,0.39840972,0.13015112,-0.24106205,0.46051303,0.2319889,-0.19890107,-0.0040553627,-0.22194257,-0.040729865,-0.14746754,-0.26094052,-0.20199013,0.32119912,-0.018179676,0.02393954,-0.017822927,0.18083383,0.109616734,-0.10959705,0.14069512,-0.13613383,0.20829326,0.457146,-0.08905411,-0.40022457,0.17817274,0.09245436,0.06679664,0.0123772435,0.10682674,0.0025110468,0.3531399,-0.077693805,-0.44558343,0.11213148,0.16990243,0.5749978,0.0075297463,-0.14797774,0.09052655,0.19190548,0.0052030273,-0.117427595,0.30607286,-0.1310228,0.0005398893,0.10447439,-0.007467952,-0.41139305,-0.014752044,0.09222453,-0.36273253,0.19028966,0.10496207,-0.24016823,0.22199982,0.023408819,-0.113126464,-0.12780678,0.051478807,-0.34775963,0.04777915,0.12998109,0.23136997,-0.44511503,0.13828667,0.36068758,0.08290956,-0.15571673,0.054946948,0.12167661,0.08412631,-0.051203378,0.48286465,0.35458222,0.01329337,-0.3640907,-0.3996056,-0.018052965,0.44559655,0.09715876,0.1130116,0.05121052,0.33527383,0.06394943,0.17576323,-0.02360118,0.0408613,0.06758057,-0.28634468,-0.020838035,-0.058833305,0.27856138,-0.061627418,-0.09798006,-0.32372215,-0.36718437,0.14513898,0.4112971,-0.06438447,0.22381821,0.010289948,-0.0033070887,-0.012741531,0.2775824,-0.31569117,-0.2925085,0.14357474,0.011039219,0.34964827,0.2011688,0.04108701,-0.11854692,-0.101349786,0.038197957,0.14302489,0.19124216,0.3610166,-0.03566509,-0.18134807,-0.0033241347,-0.19721779,-0.15312164,0.15160377,0.3031616,-0.43120593,-0.2304619,-0.009279844,-0.20081659,-0.07013195,0.37494722,-0.2824105,0.21380927,0.4521419,-0.37300274,0.07070523,0.16511367,0.3506274,0.2714402,0.03413927,-0.9009342,0.06919433,0.28404933,-0.1619701,0.2813041,0.20248081,-0.1498905,0.0916106,0.4156562,-0.15829228,0.36275342,-0.23493063,0.161522,0.06364037,-0.051974867,-0.120711304,0.06674492,0.12864785,0.101466425,0.05786841,-0.2519086,-0.25230727,0.06840731,0.107648,0.0639307,0.26741225,0.07345602,0.3154444,0.15193132,-0.2566504,0.3632177,0.39260304,-0.21647409,0.05581426,0.20612286,0.06687458,0.3194899,0.26350772,-0.2217727,0.10997639,-0.19064084,0.11771118,0.04156677,0.04875241,-0.2141437,0.35560536,0.8786885,0.04496657,-0.5800208,-0.07319932,0.01838859,0.41729423,-0.021109149,0.2980544,0.2380963,-0.07278317,-0.048371278,-0.5426254,-0.20443185,-0.036225047,-0.1323583,0.07776923,-0.12303539,-0.3139969,0.091994174,0.058057286,-0.24390309,0.33529016,0.21666025,0.10410963,0.043126933,-0.16536519,-0.16805379,0.25586247,0.29700977,-0.029642098,-0.4188521,-0.074285135,0.18675798,0.13697016,0.016812101,0.24599953,-0.46160427,-0.14592263,-0.079875976,0.0014977959,-0.27941906,-0.021386433,0.30071485,0.3019799,-0.15609995,-0.39715013,0.61815304,-0.12100216,-0.0574724,0.22356075,0.36446893,-0.24148269,-0.19802298,-0.25985995,0.023120958,0.117406964,0.028055418,0.4202391,0.27061713,-0.17431882,-0.09690871,-0.2527167,-0.15467918,0.1578884,0.5093565,0.0286408,0.062006652,0.056061197,-0.11587296,-0.26611453,-0.29667068,-0.6733797,-0.03688748,0.23954764,-0.11952714,-0.031391807,-0.10280055,0.10665009,0.07726968,-0.03550377,-0.3122735,-0.066688046,0.2362667,-0.21599583,0.036540043,-0.05242612,-0.2307388,0.20203876,-0.06291751,0.26538432,0.300543,-0.10885567,0.108531736,-0.12882395,-0.12965779,-0.06799961,-0.2817086,-0.19074395,0.24352555,-0.036754154,0.22721004,-0.5249933,-0.11504155,-0.111313134,0.08274047,0.20760691,0.17879054,0.24182953,-0.1553173,-0.04284187,-0.17682968,0.10215823,-0.20022386,-0.24698696,-0.0032498797,0.0042692134,0.48049358,0.022273567,0.068211675,0.14855507,-0.45347184,0.4910647,0.13850558,-0.323961,0.14896171,-0.18385325,0.3178205,-0.16136289,-0.036836676,0.00096118415,-0.067761086,0.17853083,0.13296393,0.19582555,-0.4274736,-0.1236239,0.37992916,-0.38934442,0.22521515,-0.21513273,-1.4233127,0.30801,0.12711039,-0.38316634,0.11248355,0.15983179,0.12444037,0.28481793,0.00784408,-0.11908937,0.15598671,-0.13192308,0.10492829,0.09563815,-0.12910312,-0.14235903,0.21328245,0.6134889,-0.47087914,0.11077617,0.17495687,-0.34599808,-0.22221518,0.0426247,-0.12790887,-0.11936146,0.11476357,0.2955087,0.16516446,0.29448265,0.12798859,-0.16571398,-0.25557858,-0.023838114,-0.033304885,-0.009072885,-0.48849812,0.36531058,-0.2044023,0.011689969,0.04006404,0.22649026,0.23475803,0.22429858,0.3977037,0.47381008,-0.2866042,0.0018076936,-0.17979495,0.39203084,-0.049284022,0.014027166,-0.1459049,0.004874861,0.07596187,0.050128855,0.10999178,0.17132051,0.18336646,-0.32895508,-0.25704494,0.12776023,0.29512906,0.114184834,0.0012386084,-0.002333976,0.433749,-0.17469168,-0.27997276,0.045528106,0.33125326,0.1796851,-0.10060451,-0.15303452,-0.051043496,0.14461549,-0.056014556,0.057661872,0.23261003,0.06907017,0.07828108,-0.2715203,0.20291875,0.21602288,-0.072834834,0.21314934,0.31400526,0.22004664,0.1287865,-0.30792797,-0.36106047,-0.20506565,0.15940858,0.06660729,0.027440231,0.00044114134,-0.07378051,0.0082453545,-0.17839701,-0.19169457,-0.10775181,-0.4130717,-0.16772848,-0.15993568,-0.32192734,0.14435662,-0.12281201,-0.23935056,0.19539104,0.27494836,0.14614825,0.1326218,-0.41158432,-0.08639799,0.1268784,-0.15067054,0.19987418,0.024944428,0.09694971,0.20002884,-0.23883851,-0.001162173,0.12060892,0.122261755,-0.3654659,0.061117403,0.27606663,0.2887004,0.015978761,0.11612299,-0.29150346,-0.016683076,-0.14746642,-0.027024833,-0.20638731,-0.3550326,0.40624052,-0.27989876,0.61022604,-0.1215044,-0.21246745,-0.06981187,0.02601937,0.24691474,-0.31569552,-0.048091777,-0.3194426,0.043396145,0.45374125,-0.00036564798,0.1844039,0.019526543,-0.47278523,-0.12733953,0.04737019,0.29228988,0.48798755,-0.1431251,-0.024117894,0.4431668,-0.2429017,0.17172857,-0.13218759,0.023335097,0.33382642,-0.17980212,0.31407577,0.11319076,0.1262582,-0.06524679,0.27635452,0.058738854,-0.4430328,0.3644653,-0.16041073,0.21115719,0.34852812,-0.009402905,-0.14173625,0.408362,-0.041894175,-0.25949264,-0.45339257,-0.28942612,-0.32672432,0.15539303,-0.23896904,0.11614004,-0.099826664,0.22506563,0.025850127,0.14137802,-0.24315417,0.096820205,-0.025085554,-0.36967993,0.19848533,-0.25699243,-0.061637998,-0.24732816,-0.07770471,0.024783673,-0.19874088,0.1034058,0.06029721,-0.06725573,-0.10229426,0.146033,0.39155164,0.21504793,-0.14111215,-0.1786538,0.14297807,-0.043723993,-0.28777596,0.111521,-0.011473833,0.13883789,-0.1972968,-0.014106052,-0.36395687,-0.094086446,0.38111895,0.372685,-0.25260624,-0.12249022,-0.031923614,-0.09782294,0.2571112,0.09640539,0.24833174,0.4868203,0.0957364,-0.26272506,-0.14666839,0.4821046,0.017711846,-0.26663646,0.022646869,0.017398864,0.3552791,-0.14310788,0.038857646,-0.16750063,-0.32819363,-0.43177393,-0.05542157,-0.14073832,0.14187337,-0.21055673,0.052874014,0.2503919,0.061090626,0.2281309,0.020755397,0.23873124,-0.08705497,0.15637112,0.048588276,-0.04223229,0.016004149,0.1479367,-0.28096747,0.062652126,-0.27382752,-0.37416714,-0.26896977,-0.15337282,0.024298625,0.5907279,-0.2983712,0.35779735,-0.24575524,-0.26128447,0.01957172,0.30941316,0.28232467,-0.022274228,0.07260686,-0.08454337,-0.16470152,-0.13710144,-0.15234452,0.13235806,-4.3413396,-0.09605969,-0.061713826,-0.08475455,-0.2587046,-0.10955171,-0.42016825,0.410069,0.081811026,0.070861064,0.10410688,-0.16648829,0.1990917,-0.10979908,-0.23298284,0.16428219,0.20498659,-0.37547907,-0.67944324,-0.47322753,-0.1661871,0.049386792,0.018595884,0.5317028,0.104311064,-0.08049897,0.3347883,-0.13820468,0.09261418,0.16624895,0.16401738,0.13752611,0.062875845,0.21143422,-0.0065608015,0.16967723,-0.026885102,0.41898185,-0.22630137,0.14783819,-0.089296974,-0.4515425,0.038086426,-0.017934168,0.36355793,0.120046645,-0.5140405,0.016178446,0.06585408,0.51332116,0.16691302,0.16390742,-0.14065292,-0.19779916,-0.29612553,0.19235666,0.0510252,-0.02959646,-0.41191477,0.16633622,0.019263765,-0.09016726,-0.34819072,0.03472311,0.4910141,0.10667556,-0.5419345,-0.09225287,-0.24377283,0.11515618,0.010542633,-0.2398165,0.0066775572,0.06901811,-0.20374046,-0.23079306,-0.018679371,-0.19106445,-0.34928706,0.10518433,-0.18016706,0.062796645,-0.17467833,0.0454223,0.4444634,-0.106327996,0.5439984,0.07479077,-0.24982287,0.5474763,0.27987283,-0.06608024,0.014936216,0.048114773,0.15187103,-0.041053947,-0.17158253,-0.10019197,-0.14186165,0.19551697,0.08462567,0.1476334,-0.3079642,0.13506596,0.32204163,0.2404389,0.20693909,-0.068978496,0.28999564,-0.15933758,0.19537017,-0.6282346,-0.11115389,-0.10545283,0.01567747,-0.0151358815,-0.01862088,-0.019912792,-0.10191934,-0.20256269
GLY_6_A,-0.09634768,-0.21805231,0.1520928,-0.338846,0.07891727,-0.04684001,0.29500154,0.023524847,-0.08519361,-0.046877768,-0.057218757,0.2162874,0.23739922,0.34871832,0.16681911,0.1452471,-0.30294976,-0.09816524,-0.18765031,-0.28923216,-0.13780208,-0.29342481,0.3780347,-0.07321167,-0.039165135,0.14010237,0.16731453,-0.02760404,0.032003332,-0.29032576,0.19139409,0.09177125,0.007331068,-0.10931271,-0.12862502,0.15320794,0.27696353,0.22149755,-0.06988726,0.18589579,-0.12581033,-0.09751999,0.20700578,0.14440383,-0.36022913,0.09353605,0.0018515618,-0.20197362,-0.15943015,-0.29287428,0.13204263,-0.26503012,-0.24037263,0.49199778,0.48898777,-0.103566006,0.5403438,0.3232227,0.1817823,-0.1535939,0.028617872,-0.26162413,-0.3596901,0.15201852,-0.2153469,0.2327937,-0.3521416,-0.27763444,-0.1951407,-0.14379217,-0.25327218,-0.34228677,0.17296909,0.12175324,-0.37429878,0.20574756,0.5285506,0.27432972,-0.01298704,-0.110281155,0.1173246,0.10268263,-0.24502946,-0.06255783,-0.0598041,0.070739135,0.13153026,0.14691862,0.4050159,0.63074654,0.23425084,0.25572404,-0.26318672,-0.10521928,0.3087484,-0.08227599,0.046171926,-0.45581424,-0.30519924,0.41549146,-0.0035705674,-0.025247583,0.038141675,-0.37602222,0.19968808,0.07675757,-0.40830097,-0.17277773,-0.14500727,0.252188,0.03690834,0.072836265,-0.04353509,-0.07270391,0.22959627,0.14906242,-0.009024453,0.042782687,0.034042723,0.1133407,-0.051461656,0.012905017,0.3101764,0.2689187,0.21662228,0.015740015,0.17547134,0.29828754,-0.063855425,-0.09641399,-0.1211824,0.1958127,-0.20324098,-0.027471725,0.1398674,0.14051002,0.01674625,-0.014218179,-0.07921732,-0.31473783,0.29317173,0.092991725,0.12865515,0.2408654,-0.03989364,0.51545095,-0.072399504,0.11937424,-0.405958,-0.19041081,0.44651696,-0.4531684,0.20143022,0.05489531,0.17309578,-0.3678476,0.44219124,0.084738635,0.10739769,-0.35382226,-0.03413022,-0.0388687,-0.1065118,0.09465997,0.30370086,0.16222842,0.16983183,-0.13349654,-0.26424554,0.28716925,-0.51244974,0.25545266,0.4579627,-0.31896698,0.013254301,0.102698006,-0.011593519,0.25952938,0.088879555,0.13165282,-0.12081021,-0.06507396,-0.062530026,-0.034507964,-0.04291977,-0.2541248,-0.0047090147,-0.010711928,0.14233442,0.15852198,-0.18352047,0.24731816,0.02625237,-0.15093186,-0.025301734,-0.020591656,0.042075228,0.2578334,-0.22117978,-0.001034201,-0.39113978,0.07521353,-0.31244168,-0.084080316,0.036040623,-0.31400165,0.051712036,-0.07475037,0.11293524,-0.854875,0.43306324,0.026680224,0.18635702,0.013831538,-0.07777218,0.54764533,0.092243396,-0.21608134,0.5075604,0.22005117,-0.14018638,-0.7067337,0.49726593,-0.15527742,0.19873722,-0.06675688,-0.021415837,0.088235386,-0.38889775,0.17466088,-0.17293945,0.13165925,-0.22658287,0.22561647,3.028044,0.37989056,0.34387875,0.47810307,0.49317747,-0.08519414,-0.37089816,0.10430772,-0.10971352,-0.11127849,0.0059070773,0.27476186,0.003418161,-0.3075675,0.16526446,-0.25497034,-0.2647133,-0.2573954,-0.33351493,0.04276704,-0.36508152,-0.03905292,0.071539566,0.5990786,0.17948502,-0.120980486,-0.0729886,0.024191473,0.3348397,-0.24924047,-0.49432305,-0.19698079,0.18037857,0.25882825,-0.0076019657,-0.31561467,-0.380008,-0.11345815,-0.50764734,0.47435006,-0.0036363527,0.32142457,-0.036995713,0.23183595,0.03416817,-0.22117828,0.20393051,-0.008823138,-0.02013753,0.4834438,0.07998761,-0.17362289,-0.0023058348,0.032301534,0.31091598,0.03759125,0.16314171,0.2479077,-0.27306372,-0.32715455,0.047245674,-0.0383908,0.11350556,-0.22478466,0.3358467,0.2663681,0.11714792,0.09748406,-0.38753268,0.034146685,-0.04255185,0.2291758,-0.17864618,0.22004639,0.06160548,0.10843717,-0.3379423,0.0033522514,0.16824721,0.052772284,-0.07498345,-0.15681888,0.12314977,-0.24177906,-0.05134004,0.07775097,-0.05778872,0.30864355,-0.12347267,0.3146827,-0.10939355,-0.31702486,0.27771842,-0.37163708,-0.18477581,-0.12400348,-0.13443294,-0.16442698,0.046990085,0.08951861,-0.5623819,-0.45632836,-0.046849523,0.034258537,0.20901407,-0.13566372,0.36164114,-0.053156696,-0.03486848,0.09653494,0.13375394,-0.26351514,-0.21140951,0.14574407,-0.20345302,-0.21214505,-0.6210799,0.23132138,-0.01587067,-0.11753625,0.06380875,-0.28287536,0.1650214,-0.48844576,-0.49981606,0.21990953,0.32477587,0.37855402,-0.10074447,0.2805908,-0.17645682,-0.23377773,0.5013305,-0.020995306,-0.21818124,-0.40201238,0.29671907,-0.016771637,-0.21061148,-0.13048863,0.13091572,-0.09232432,0.17134236,0.08521767,0.29606178,-0.2184528,-0.08950011,0.009033805,0.13653363,-0.07879947,-0.035134006,-0.34084427,-0.15759404,-0.093424246,0.117613524,0.35458738,0.007886065,0.378579,-0.3599722,-0.052700814,0.096738495,0.2364675,0.1852151,-0.0722431,-0.25705728,-0.32068753,0.21487778,0.0057813604,-0.34540278,0.43367666,-0.019407345,0.16083343,-0.22378865,-0.52774596,0.12658393,0.16242345,-0.33732268,-0.27727154,0.06374709,-0.43150407,0.25920466,0.4909252,-0.29330245,-0.042475708,0.07788825,0.22993356,0.13172603,0.026406152,-0.18043044,0.23158567,-0.3857614,-0.042141613,0.061708953,-0.111476935,-0.072106585,0.27967003,0.16564256,-0.120317765,-0.30915466,0.3613746,0.25773394,0.10614096,-0.16866025,-0.098835774,0.12315462,-0.24539292,0.032990612,-0.16688189,0.030152475,-0.19399817,0.35200378,-0.2583493,-0.011745781,0.17891565,0.32495725,-0.6110564,0.26281738,0.30584508,0.32048324,0.27652097,-0.042183235,0.3597496,0.412147,0.1275018,-0.109952316,0.40393478,0.020265661,0.56292826,-0.1885863,0.38180572,-0.042851437,-0.13171254,0.064711235,0.18396424,-0.27975065,0.22755799,-0.18830675,0.05290732,0.2620931,-0.07152936,0.004373022,-0.09734477,-0.4086805,0.28999504,-0.14251857,-0.058170516,-0.07554498,0.09057492,-0.111055866,-0.33583772,-0.035943758,0.2753191,-0.06801255,0.45418265,0.021748468,0.023663059,0.027555866,-0.119529136,-0.3287952,0.056793094,0.099226646,-0.007901843,0.31831238,-0.17417641,-0.17875193,0.28554043,0.22973669,0.05540222,0.23001786,-0.16792712,0.1443882,0.06762995,0.07014086,0.88233465,0.012238752,-0.00502265,-0.09969443,0.13176608,0.10918952,-0.121510796,0.3034906,0.05247029,0.3440329,0.089823395,0.0057178345,-0.4168427,0.3463003,-0.021062337,0.14614533,0.61458623,-0.03992328,-0.043218665,-0.15505114,-0.024731616,-0.1985884,-0.031508557,-0.055773605,0.12287604,-0.07527684,0.07424319,-0.11239964,0.0060498393,-0.14799023,-0.18563825,-0.7306532,0.22706428,-0.023567837,0.09299879,-0.011966499,-0.02255371,0.09734366,-0.43877757,-0.044265427,-0.041420314,0.078206345,-0.2811442,-0.010668038,0.045141194,-0.18610273,0.25524792,0.03182403,0.2387671,-0.33184576,-0.02789822,0.50907826,0.06307468,-0.13590766,0.069076486,0.3799967,0.18295564,0.12257402,-0.523394,0.22945751,0.13261631,0.47640565,0.3924204,-0.12914342,0.41986325,-0.0063602137,0.18497787,-0.0086098835,0.42941633,-0.11842849,0.066644676,-0.21411262,-0.23820646,-0.17761087,-0.30475724,0.0017681272,0.17916426,-0.27036893,-0.010944676,0.12828337,0.34397897,-0.23065923,0.066950485,-0.034019,-0.42396426,-0.090606906,0.33086595,0.3737852,0.14598194,-0.20459594,-0.14198047,0.4432606,-0.10877794,-0.0048939283,0.2875312,-0.29326904,-0.00027401172,0.13007118,0.3469726,-0.059684526,-0.16027355,-0.20057589,0.3939812,-0.24136159,0.007318407,-0.22631386,-0.15359282,-0.2522628,-0.16877839,0.18473634,0.27681625,-0.09423905,0.082580104,0.043146048,0.15515877,-0.5709707,0.23242956,-0.0830636,0.43526015,-0.30874705,-0.08143377,-0.40884924,0.30836746,0.12633185,-0.04486727,0.34724334,0.22495954,0.08570785,-0.13914964,-0.055575147,0.2265352,-0.1863171,0.38712242,-0.4186011,-0.18502688,0.2847636,-0.12762308,-0.4280003,-0.5350743,-0.079722956,0.17614907,-0.25516275,0.17522274,-0.14760992,0.105666645,0.11394318,-0.13615687,0.4259273,-0.03704145,-0.011039805,0.13639396,-0.42016864,0.2784158,-0.36455414,-0.42928973,0.056353528,-0.14684364,0.32181635,-0.19424312,0.05443653,-0.30553392,0.16453809,0.20032997,-0.053809274,-0.06876525,0.087823614,0.18717077,0.036619265,-0.34227458,0.11094995,-0.31870553,0.36721146,0.06841967,-0.015409417,-0.3418211,-0.37546936,0.18174411,-0.21830195,-0.06710443,0.4256146,0.026019841,0.06965366,-0.27692935,-0.21691799,-0.11481196,0.25726843,-0.38130945,0.37896836,0.15277117,-0.045340817,-0.09321758,-0.10859888,-0.39845932,0.28332987,0.091048285,-0.40202558,0.38874862,-0.28358534,-0.16995478,-0.060150545,-0.24760298,0.13238154,-0.07175906,-0.25077385,0.0703752,-0.5662505,-0.15619373,-0.025584657,0.17599975,0.26557028,0.43139285,-0.07773805,-0.23278752,0.04524453,0.030764392,-0.13681881,0.22306645,-0.18795009,0.12771033,0.12087927,0.18958439,-0.1144855,0.07189239,-0.11168072,0.03511887,-0.048515745,0.28253916,-0.18404952,0.12385229,1.1334246,0.09823803,-0.40256685,0.058039244,0.065898,0.104814716,-0.0939859,-0.36892536,-0.40504488,-0.16711153,-0.06988987,-0.06662358,0.42441446,0.17988306,0.17621192,0.049239397,-0.016085867,-0.076326594,0.05090431,-0.054266613,-0.008785781,-0.014155791,-0.0001537531,-0.06687576,-0.46808574,0.18754211,0.26201245,0.3048619,0.3878063,-0.13773248,-0.22510187,-0.2684026,-0.023141984,-0.0007378999,0.08979038,-0.1307343,-0.31002882,-0.27826858,-0.17126945,0.61448336,-0.07772788,-0.06011127,0.32503244,-0.11413884,0.08242155,-0.018343635,0.25221783,0.18742119,0.14385211,0.15540063,-0.04604058,-0.16603245,0.0400591,-0.082560256,-0.049562898,0.09898916,-0.009031826,0.0558793,-0.3564405,0.026579192,0.21042365,-0.029010616,0.27469522,0.23704751,-0.015310574,0.41192174,0.3115148,0.05041974,0.06777116,-0.25209817,0.18809524,-0.30690837,-0.04026164,-0.22523803,-0.22271653,-0.0049677216,0.22773054,-0.011575572,-0.062490523,-0.18017411,-0.11128738,0.18204865,-0.0021055667,-0.24948846,0.13217667,0.08564567,0.1545259,0.19871542,-0.13485946,0.40126663,0.2238253,0.038669754,0.37030834,0.084558584,-0.0895912,-0.33591047,-0.057350036,-0.11925392,0.34668976,0.12346909,-0.063285075,0.23797369,-0.11480582,0.29966262,0.046170063,-0.18928982,-0.15516438,0.24876095,-0.06689237,-0.11018989,0.14755234,0.023813587,-0.1761309,-0.272192,-0.0962847,-0.062113717,-0.10865886,0.31051153,-0.29114616,0.020191709,-0.17605509,-0.38584313,0.030022332,-0.42423105,0.008926367,-0.1275505,0.26834816,-0.2620613,0.17762807,-0.14116943,0.3816623,0.13315755,0.31499603,0.024821503,-0.19774461,-0.32937574,0.3192883,-0.17279759,-0.039266147,-0.44879973,0.94021106,-0.14901279,0.033158366,-0.07889083,0.8314466,-0.040273722,-0.000670635,-0.013407538,-0.30014926,0.07812523,0.04349629,-0.2010261,-0.08810845,0.01822242,-0.20867243,0.23327513,0.28144518,0.35935888,-0.15999961,-0.13523465,-0.20587094,-0.29138714,-0.00062083005,0.39624608,0.1753309,0.041902453,-0.17196555,0.056245483,-0.002475634,-0.066485725,-0.71244293,-0.001809986,0.1923785,-0.14462848,-0.33528045,0.13607912,0.01690934,-0.26533672,-0.3685292,0.03169848,-0.059727915,0.006692143,-0.12723146,0.29222575,-0.14125536,-0.21370529,-0.18451788,0.081421085,-0.5123028,0.13681865,-0.19238466,-0.11473722,0.10932583,-0.19542156,0.33467612,-0.41622764,-0.17664991,-0.0066507193,-0.21499157,0.014549807,0.008636815,-0.0064732754,0.066380925,0.026442267,0.15455611,-0.28331673,0.10995159,0.24349298,-0.53148836,-0.09227381,0.29174334,0.00038664564,-0.14676684,-0.32157868,0.3541035,0.16061398,0.028307846,0.034181662,0.14764087,-0.24604183,-0.08752536,-0.079403594,-0.3845942,0.23173071,0.03777144,-0.010770648,0.20121072,-0.30679476,0.3603751,0.103088394,-0.15675427,-0.061467778,-0.10802125,0.119578555,-0.11058082,0.23782398,0.31854427,0.14516036,-0.08514961,0.3354119,-0.2460666,-0.0457664,0.19746408,-0.032856166,-0.33646867,0.018787341,-0.0052957707,-0.0413359,0.13917463,-0.20614114,-0.7105746,-0.06926363,-0.5686578,-0.19765519,0.33984286,0.04392124,-0.33096504,-0.3669518,-0.23572288,-0.4279303,-0.09244197,-0.3869702,0.22667365,0.2611766,-0.38445148,-0.039986763,-0.3198412,0.1359802,0.17503431,-0.26597822,-0.38006157,-0.06657124,0.24520476,0.105132915,-0.19597176,-0.15446836,0.37377623,-0.08383769,0.32990783,-0.07701536,-0.10544792,0.052624803,0.059410505,0.2862872,-0.59275323,0.23386903,0.23773603,0.2008672,-0.081018955,-0.08217868,-0.11253838,-0.22602381,-0.04287307,-0.31966788,0.007343876,-0.17670184,-0.062310718,-0.20799261,-0.06714654,-0.05106131,-0.115421586,0.3464137,0.31729966,-0.0062094326,-0.16121866,-0.06995058,-0.026215209,0.03267049,-0.052225206,-0.27518335,-0.057700172,0.18301468,0.005648327,-0.10820471,-0.09881902,-0.20163496,0.23124158,0.03700194,-0.6008668,0.4120821,-0.1985388,0.15845023,-0.48190078,-0.36544862,-0.07458989,0.061622996,-0.10720406,-0.03200828,-0.19125196,-0.23343448,-0.4145772,0.15362114,0.2427397,-0.25317323,-0.6007193,-0.103957154,-0.13571893,-0.016854528,-0.028678123,0.04973387,0.40634522,-0.23556384,-0.1884253,0.1637745,0.09953762,-0.29340094,-0.39133376,0.35377106,0.21079706,0.19485088,0.18224809,0.17788301,0.3923996,-0.11641653,0.093505,0.433284,-0.08702879,-0.19701198,0.16869992,0.78488445,-0.4610556,0.18112026,0.024688588,-0.16824685,0.17296849,-0.016498592,-0.07008913,-0.21068498,0.3512578,0.0069832145,0.31151843,0.21045671,0.049902804,-0.12276105,0.4127208,0.4429929,0.23740062,-0.11199879,0.0010818713,0.049073193,-0.1619428,0.29967824,-0.15250428,-0.05319349,0.112543136,-0.7820861,-0.08901461,-0.21782897,-0.30332226,-0.64838815,0.14581299,0.31268296,-0.21625656,0.11200873,-0.39821002,-0.22227176,0.0011920964,0.24563152,0.15220359,-0.48178583,-0.16497059,-0.10909995,-0.10152617,-0.09677382,-0.00025429536,0.03085879,-0.01311655,0.47766954,-0.14553422,0.7197588,0.02110489,-0.009201891,0.055433203,-0.17851913,0.047744658,0.09942387,0.055992182,0.22530204,0.15751421,0.025397472,-0.21951643,0.18329388,-0.30179587,-0.10488412,-3.1261265,-0.2989414,0.16912667,-0.121184185,-0.16821791,0.036010586,0.1345027,-0.06439945,0.20788452,0.44935182,0.06909408,-0.045649756,-0.068784036,0.03129691,-0.42269415,0.13469893,-0.030489687,-0.014046229,-0.39867488,0.14853156,0.19749892,-0.2526815,-0.27024704,0.2706741,0.19934875,-0.39076024,0.08915919,0.26692003,0.3326627,0.04810036,-0.31125912,-0.16338997,-0.0838929,-0.21297222,0.26923206,0.0120770475,0.13661651,0.15177788,-0.04297679,-0.21468115,0.40467194,0.041767444,0.47076112,0.37849662,0.1367979,-0.16098237,-0.42570412,0.23811917,0.09953308,0.2542947,-0.26133877,-0.24865575,-0.14700039,-0.078086145,0.12965266,-0.08037318,0.10835537,0.36814475,0.14985673,0.16543713,0.30580094,-0.38362503,0.07388579,0.1500419,0.4462384,0.10649138,-0.19932641,-0.34108236,-0.009201856,-0.027869087,0.35499734,-0.21737151,-0.039872363,0.08730846,0.10384244,0.111948766,-0.31289592,-0.6600648,-0.20408165,0.16442835,-0.013722356,-0.05097106,-0.14835627,0.20835756,-0.109200105,0.24595141,0.27628258,0.16298541,-0.00039476785,0.4372716,0.3590808,-0.27324846,0.060443956,0.034670487,0.44525644,-0.015009034,-0.39720467,-0.044337418,0.294533,0.046247363,0.36495376,0.11243248,0.22963743,0.25083783,0.36316714,0.093860246,-0.008844337,0.17643434,0.31852493,-0.26443556,0.47541302,-0.2605364,-0.30044392,0.1880105,0.01191348,-0.10059386,-0.33433577,-0.39798403,-0.09474088,-0.07242076
