residue_id,0,1,2,3,4,5,6,7,8,9,10,11,12,13,14,15,16,17,18,19,20,21,22,23,24,25,26,27,28,29,30,31,32,33,34,35,36,37,38,39,40,41,42,43,44,45,46,47,48,49,50,51,52,53,54,55,56,57,58,59,60,61,62,63,64,65,66,67,68,69,70,71,72,73,74,75,76,77,78,79,80,81,82,83,84,85,86,87,88,89,90,91,92,93,94,95,96,97,98,99,100,101,102,103,104,105,106,107,108,109,110,111,112,113,114,115,116,117,118,119,120,121,122,123,124,125,126,127,128,129,130,131,132,133,134,135,136,137,138,139,140,141,142,143,144,145,146,147,148,149,150,151,152,153,154,155,156,157,158,159,160,161,162,163,164,165,166,167,168,169,170,171,172,173,174,175,176,177,178,179,180,181,182,183,184,185,186,187,188,189,190,191,192,193,194,195,196,197,198,199,200,201,202,203,204,205,206,207,208,209,210,211,212,213,214,215,216,217,218,219,220,221,222,223,224,225,226,227,228,229,230,231,232,233,234,235,236,237,238,239,240,241,242,243,244,245,246,247,248,249,250,251,252,253,254,255,256,257,258,259,260,261,262,263,264,265,266,267,268,269,270,271,272,273,274,275,276,277,278,279,280,281,282,283,284,285,286,287,288,289,290,291,292,293,294,295,296,297,298,299,300,301,302,303,304,305,306,307,308,309,310,311,312,313,314,315,316,317,318,319,320,321,322,323,324,325,326,327,328,329,330,331,332,333,334,335,336,337,338,339,340,341,342,343,344,345,346,347,348,349,350,351,352,353,354,355,356,357,358,359,360,361,362,363,364,365,366,367,368,369,370,371,372,373,374,375,376,377,378,379,380,381,382,383,384,385,386,387,388,389,390,391,392,393,394,395,396,397,398,399,400,401,402,403,404,405,406,407,408,409,410,411,412,413,414,415,416,417,418,419,420,421,422,423,424,425,426,427,428,429,430,431,432,433,434,435,436,437,438,439,440,441,442,443,444,445,446,447,448,449,450,451,452,453,454,455,456,457,458,459,460,461,462,463,464,465,466,467,468,469,470,471,472,473,474,475,476,477,478,479,480,481,482,483,484,485,486,487,488,489,490,491,492,493,494,495,496,497,498,499,500,501,502,503,504,505,506,507,508,509,510,511,512,513,514,515,516,517,518,519,520,521,522,523,524,525,526,527,528,529,530,531,532,533,534,535,536,537,538,539,540,541,542,543,544,545,546,547,548,549,550,551,552,553,554,555,556,557,558,559,560,561,562,563,564,565,566,567,568,569,570,571,572,573,574,575,576,577,578,579,580,581,582,583,584,585,586,587,588,589,590,591,592,593,594,595,596,597,598,599,600,601,602,603,604,605,606,607,608,609,610,611,612,613,614,615,616,617,618,619,620,621,622,623,624,625,626,627,628,629,630,631,632,633,634,635,636,637,638,639,640,641,642,643,644,645,646,647,648,649,650,651,652,653,654,655,656,657,658,659,660,661,662,663,664,665,666,667,668,669,670,671,672,673,674,675,676,677,678,679,680,681,682,683,684,685,686,687,688,689,690,691,692,693,694,695,696,697,698,699,700,701,702,703,704,705,706,707,708,709,710,711,712,713,714,715,716,717,718,719,720,721,722,723,724,725,726,727,728,729,730,731,732,733,734,735,736,737,738,739,740,741,742,743,744,745,746,747,748,749,750,751,752,753,754,755,756,757,758,759,760,761,762,763,764,765,766,767,768,769,770,771,772,773,774,775,776,777,778,779,780,781,782,783,784,785,786,787,788,789,790,791,792,793,794,795,796,797,798,799,800,801,802,803,804,805,806,807,808,809,810,811,812,813,814,815,816,817,818,819,820,821,822,823,824,825,826,827,828,829,830,831,832,833,834,835,836,837,838,839,840,841,842,843,844,845,846,847,848,849,850,851,852,853,854,855,856,857,858,859,860,861,862,863,864,865,866,867,868,869,870,871,872,873,874,875,876,877,878,879,880,881,882,883,884,885,886,887,888,889,890,891,892,893,894,895,896,897,898,899,900,901,902,903,904,905,906,907,908,909,910,911,912,913,914,915,916,917,918,919,920,921,922,923,924,925,926,927,928,929,930,931,932,933,934,935,936,937,938,939,940,941,942,943,944,945,946,947,948,949,950,951,952,953,954,955,956,957,958,959,960,961,962,963,964,965,966,967,968,969,970,971,972,973,974,975,976,977,978,979,980,981,982,983,984,985,986,987,988,989,990,991,992,993,994,995,996,997,998,999,1000,1001,1002,1003,1004,1005,1006,1007,1008,1009,1010,1011,1012,1013,1014,1015,1016,1017,1018,1019,1020,1021,1022,1023,1024,1025,1026,1027,1028,1029,1030,1031,1032,1033,1034,1035,1036,1037,1038,1039,1040,1041,1042,1043,1044,1045,1046,1047,1048,1049,1050,1051,1052,1053,1054,1055,1056,1057,1058,1059,1060,1061,1062,1063,1064,1065,1066,1067,1068,1069,1070,1071,1072,1073,1074,1075,1076,1077,1078,1079,1080,1081,1082,1083,1084,1085,1086,1087,1088,1089,1090,1091,1092,1093,1094,1095,1096,1097,1098,1099,1100,1101,1102,1103,1104,1105,1106,1107,1108,1109,1110,1111,1112,1113,1114,1115,1116,1117,1118,1119,1120,1121,1122,1123,1124,1125,1126,1127,1128,1129,1130,1131,1132,1133,1134,1135,1136,1137,1138,1139,1140,1141,1142,1143,1144,1145,1146,1147,1148,1149,1150,1151,1152,1153,1154,1155,1156,1157,1158,1159,1160,1161,1162,1163,1164,1165,1166,1167,1168,1169,1170,1171,1172,1173,1174,1175,1176,1177,1178,1179,1180,1181,1182,1183,1184,1185,1186,1187,1188,1189,1190,1191,1192,1193,1194,1195,1196,1197,1198,1199,1200,1201,1202,1203,1204,1205,1206,1207,1208,1209,1210,1211,1212,1213,1214,1215,1216,1217,1218,1219,1220,1221,1222,1223,1224,1225,1226,1227,1228,1229,1230,1231,1232,1233,1234,1235,1236,1237,1238,1239,1240,1241,1242,1243,1244,1245,1246,1247,1248,1249,1250,1251,1252,1253,1254,1255,1256,1257,1258,1259,1260,1261,1262,1263,1264,1265,1266,1267,1268,1269,1270,1271,1272,1273,1274,1275,1276,1277,1278,1279
ASN_1_A,0.122029215,0.003709453,-0.23104759,0.1024418,0.04964646,0.016351521,0.21478914,-0.18602608,-0.32602325,0.32450926,-0.0375547,0.13212673,0.26403764,0.06903294,0.21928637,0.107062496,-0.07234192,-0.07788981,0.1453059,0.119559616,-0.02619917,-0.07339643,-0.11374087,0.27385613,0.026099607,0.25466564,0.358629,-0.055628173,0.09303907,0.04828406,0.21966071,0.16243188,0.36154023,0.08734122,-0.23221715,-0.024965277,-0.09420617,0.035040993,-0.061671525,-0.20164727,0.046340033,-0.040717795,0.15362957,-0.09932754,-0.19358847,0.052696846,-0.22326742,-0.10300308,-0.088707775,-0.22094418,0.05558655,-0.04403184,0.14225915,0.0004510302,0.076595984,-0.07496164,0.039964475,0.050994143,0.3053982,-0.28263006,0.12903704,0.12609847,0.02809132,-0.2168917,0.01862817,-0.1228329,0.024393717,0.38039,0.0055855084,0.22730027,-0.08154459,-0.19153874,0.019583574,-0.012821617,-0.07731714,0.1470762,-0.10308775,0.16080122,-0.049092073,-0.25402486,-0.1935156,-0.11824815,0.07495199,-0.1954406,0.056280266,0.35728094,0.080329284,-0.07207787,0.066528566,0.120277,-0.08660498,0.05587296,-0.2268247,0.013165707,0.031915642,0.046917703,0.10458861,0.30260062,-0.44510862,-0.044189602,0.099580936,-0.046385065,-0.04164347,0.118748,-0.03504578,-0.21451044,-0.22157447,-0.09044805,-0.24151556,-0.1197882,0.027775064,0.19585578,0.100839734,-0.007584738,-0.14542481,0.3192652,-0.32238734,0.30082336,0.09662059,-0.01905219,-0.08970052,-0.18420959,0.06804607,0.199526,0.19164194,-0.049673945,-0.008472973,-0.22218886,0.2181524,-0.25569722,-0.09225246,-0.04548818,0.2580004,0.04241973,0.1785256,0.1179831,-0.03489783,0.035718895,0.043617573,0.1710709,0.19404794,-0.1559276,0.011674306,-0.17769183,-0.037129052,-0.19504541,-0.17070517,-0.05479429,0.2725949,-0.04396924,-0.007323973,-0.5131026,-0.021061629,-0.008287508,0.10946684,-0.20680068,0.25491095,0.22212806,-0.3044829,-0.091359906,-0.12589781,-0.0011297492,0.13120113,0.22740623,-0.058389686,-0.11978874,-0.037485506,-0.14885816,-0.068006024,0.07251007,-0.36630806,0.015047848,0.26406148,0.028220383,-0.075384855,0.19972104,0.075030416,0.26921237,0.05940312,-0.049229052,-0.23622394,0.0612637,0.33970302,0.1312954,0.10960587,0.15167256,-0.08022122,-0.30413523,-0.2063191,-0.05996398,-0.12883069,-0.025507722,-0.1200312,-0.08519781,0.44705835,-0.18837954,-0.057176903,0.0485009,0.1544847,-0.14931977,0.108391054,-0.030318085,0.03454966,-0.12899257,0.30901003,-0.2147032,-0.09463528,-0.27328798,-0.13231364,-0.07637639,-0.06472242,0.12915906,-0.004243796,0.3067761,-0.15130897,0.046934657,-0.06343956,-0.057774834,-0.084880166,0.3913267,0.05337703,0.02639443,-0.0061375676,-0.12825522,0.20840141,0.123792544,0.070448235,0.12582068,0.0021778324,-0.11386396,0.30943015,0.111460604,-0.05730045,-0.28146034,-1.6524343,0.021301705,0.11409635,-0.058919128,0.3931457,-0.058280166,0.006282228,0.017762903,0.19506666,-0.13111466,-0.0008980499,-0.31144178,-0.18586601,-0.09368984,0.17491136,0.17970158,-0.31909165,-0.04108348,0.050452214,0.28979954,0.020708133,0.13920653,-0.18093316,0.09080081,-0.1640345,0.1618575,0.19207166,0.063414745,0.103651635,-0.1806916,0.023908,-0.04043773,0.078698285,-0.28105828,0.115969256,-0.16939421,-0.20085941,0.01819629,0.064598806,-0.12871183,0.048975654,0.019577136,-0.1377148,0.069921345,-0.012220639,-0.025625696,0.06465095,0.08491976,0.3423975,0.05429621,-0.061889607,0.114255555,0.03513481,0.043723557,0.10031993,-0.15681142,0.25585917,-0.026911004,-0.24094583,-0.0021012137,0.2515074,0.13037004,-0.20488364,-0.056476448,0.053942528,0.15305768,-0.0230318,0.011106764,-0.2308009,0.044451144,-0.14377403,-0.082625754,0.49358815,0.090352334,-0.044798546,0.08307193,0.12497987,-0.05552539,0.02857464,-0.028600693,0.03700236,0.010021074,0.11218921,-0.13986292,-0.17662369,-0.079513185,-0.11154264,-0.21093097,-0.092137165,-0.09265819,0.14637901,0.013215796,-0.058416765,-0.16523375,-0.09395406,0.015573874,-0.004925603,-0.11137304,-0.1481955,0.012260636,-0.2241166,-0.045753833,0.16653204,-0.061608538,0.14006269,0.08739979,0.32321575,0.13958198,-0.05556685,0.2456156,-0.053525683,-0.23370597,-0.062404513,-0.04936042,0.109330684,-0.16910161,0.10057472,-0.11410905,-0.1307233,0.036534876,0.03698119,0.30284017,-0.38024086,-0.30072662,0.05165285,-6.740606e-05,-0.001417923,0.0066228956,-0.14966823,-0.0558305,0.067465216,-0.07195011,0.1327407,-0.021759888,0.17536005,-0.23098086,0.09473938,0.20081742,-0.10405202,-0.05025884,-0.0020617677,0.0013412002,0.32455385,0.283933,0.07801679,-0.005156177,-0.18470612,-0.14236371,-0.049356595,0.13420443,0.0128994975,0.052981544,-0.18825985,-0.40649244,-0.1110059,-0.25648728,0.056743067,0.043837603,-0.31555805,-0.03999099,0.026792696,0.08672175,-0.19215502,-0.041010186,-0.30828834,-0.16426167,-0.071609855,0.004619797,-0.031208247,0.21468914,0.025928967,0.09662818,0.08655795,-0.20598261,-0.3317003,0.0058425036,-0.22124667,-0.13847071,0.13553672,-0.32307178,0.28301582,-0.12927881,-0.23306614,-0.09797973,-0.19083048,0.14999852,0.031396154,0.14976905,-0.030654384,0.14440677,-0.3989592,-0.07867619,-0.042791966,-0.29208344,0.2099322,0.23389843,-0.026953232,0.066847675,-0.113339044,-0.1845846,0.29507765,0.058024775,0.30824086,0.4073806,0.26559997,0.24708818,-0.1096009,0.23587021,-0.24459483,-0.2839423,0.093980536,0.1449536,0.13661093,0.081649035,-0.28516328,-0.068590134,0.2023652,0.2080589,0.156354,0.27976248,-0.32396144,0.2668716,0.4269838,0.08649188,-0.12825526,0.07470805,-0.018555924,0.041662667,0.16084632,-0.01835,0.11030876,-0.08291036,-0.1340619,0.17620142,-0.029242326,0.10023953,0.10999951,-0.12911494,0.075465545,0.07108055,0.09368244,-0.05933482,-0.24095789,0.11286112,0.08791243,0.153734,0.06718076,0.11424193,-0.07237931,-0.13090491,-0.22648013,0.06035719,0.2860218,0.11635483,-0.29447913,-0.059636094,0.11572139,-0.0053200843,-0.2769909,0.26852438,0.18699287,0.21162467,-0.07092888,-0.022686273,-0.12665385,0.017351713,0.06275748,-0.06493841,0.004969439,0.22369687,0.17941156,-0.09316457,0.006597909,0.2675463,-0.31491834,0.1640602,-0.05106102,-0.077058464,-0.070011705,0.17946388,0.33823732,-0.021266595,0.13591273,-0.075515606,-0.0034504011,-0.14011033,-0.1736486,-0.13733308,0.09193777,-0.30551037,-0.06699545,0.015028982,-0.025833221,-0.050591294,-0.014009653,0.02877026,-0.2547925,0.15558079,-0.07443647,0.146351,-0.02457718,0.057477254,-0.14036717,-0.09385066,0.10365984,0.38605368,0.07562225,-0.17412817,0.096816,0.17292376,0.09439569,-0.1648191,-0.11879364,-0.19899665,0.028401753,-0.14028865,0.06501321,-0.053015526,0.22506891,0.2378044,0.10844127,-0.34956557,-0.48989218,0.006782382,-0.081765845,-0.15393011,0.28132567,-0.1636174,0.19940272,-0.07053195,0.13217035,-0.1743499,-0.07754234,0.16216882,0.08524928,-0.23511255,0.08492221,0.3082202,-0.23093134,0.20554774,-0.029735329,0.30156943,-0.14976572,0.17888929,-0.14041293,-0.119123295,-0.16140507,0.26254272,-0.06924165,0.43232033,-0.048120596,0.14174265,-0.030789237,0.01433498,-0.25780305,0.26221445,-0.19728495,-0.25572732,-0.18443741,0.108681686,0.111214496,0.37711373,0.23265773,0.027007889,-0.054394804,0.18232828,0.309979,0.23622306,0.050372846,-0.04825192,-0.059200414,0.14447351,-0.034466393,0.023367355,-0.209573,0.3135543,0.05929124,-0.12414663,0.23447342,0.04716925,0.010788266,0.077504456,0.20842864,0.009387168,0.11763915,-0.14320038,-0.09040514,-0.0031008322,0.15544978,-0.037323814,0.16002452,0.20117596,0.21707638,0.09530798,-0.0542576,0.007700724,0.1801241,0.2905086,0.041443758,-0.017464459,0.08981829,0.09132753,0.034306187,-0.06923105,-0.27913463,-0.016236521,-0.19755799,-0.08826587,0.0391546,0.061989386,0.2276998,0.114586584,0.13612908,-0.036898542,-0.061293,-0.011063911,-0.12239999,0.4327651,0.12685572,-0.18427718,-0.09952517,0.01649669,-0.14243117,-0.09203813,-0.50136125,0.1510015,0.14384553,0.0113959145,-0.14998434,-0.21352278,0.02004905,-0.09454716,0.10431116,0.14047256,0.0811617,0.33471835,-0.22979695,-0.15574326,0.12151679,0.10126667,0.00044421095,-0.019328164,-0.26500013,-0.024395851,-0.22890931,-0.47846428,0.21886586,-0.113059945,0.027471803,0.0597073,0.12776138,-0.066982076,0.1367225,0.09190172,-0.093379945,-0.297746,0.14148726,-0.1280623,-0.27951154,0.040573392,0.42634624,-0.04594213,-0.13552345,0.083219655,0.3212577,-0.029435474,-0.018377258,0.16061601,0.010455759,0.014784432,-0.26892358,-0.07155183,-0.24767204,-0.22775654,-0.005979082,0.31721762,-0.17629978,0.09808823,-0.16498342,-0.0700468,-0.16368183,-0.3486616,-0.15905602,0.057016928,0.11752689,-0.042964626,0.035262313,0.055650476,0.29272124,0.04844627,0.0054493914,0.30831936,0.18025365,0.1511718,-0.17563404,0.39506105,0.017390937,0.10388383,0.15933388,0.14483608,-0.17101668,-0.06724802,0.8098622,0.15037426,-0.079220444,0.116823934,-0.045060996,-0.016193826,0.014545428,-0.02997373,-0.1231813,-0.0067229397,0.05146454,0.08526692,0.3095301,0.2171868,-0.09380801,-0.24589461,-0.020281335,0.0056255013,-0.048177384,0.3478942,-0.108795494,0.064958185,0.13264231,0.08075781,0.009249341,0.054499343,-0.037907872,0.20910253,-0.17544538,-0.054942206,0.21962003,-0.07633373,-0.25323957,-0.0074309562,0.14564265,0.18557623,0.27381435,-0.19087441,-0.01489887,0.09536485,-0.15269049,0.049194563,-0.11855771,-0.16072111,0.30283582,0.21583118,0.18336551,0.034229245,-0.16305728,0.00010698029,0.15756023,0.18697429,0.2389842,0.13218732,-0.028561532,0.009065805,0.0031091187,0.15508936,-0.25525245,-0.30607194,0.13927592,-0.32552952,0.1837251,-0.09279404,0.1794426,0.23170623,0.43493024,0.007188147,0.16195959,0.099794656,0.103004396,0.031355783,-0.08778221,-0.17107895,-0.22714522,0.12103896,0.12183038,0.00077477976,-0.14425018,-0.10723225,0.043483343,-0.1621779,-0.039933264,0.05178863,-0.08764331,0.25052613,0.1777579,0.10403059,0.04263131,-0.15909804,-0.065883555,0.042110857,-0.024340762,-0.08602868,-0.4623573,-0.0368807,-0.3741007,-0.2181957,-0.08695752,-0.18355154,0.37600663,-0.24243015,-0.086489975,-0.16786279,-0.16272816,-0.023943318,0.004473963,-0.009506018,0.26497957,-0.039623246,0.17093141,0.2653977,0.017129732,-0.101974055,0.047958333,-0.08535349,0.17520936,-0.07567915,0.05209047,-0.6292315,-0.17234659,-0.34418356,-0.10586918,0.23842515,-0.08628437,0.32926908,0.039635774,0.11603704,-0.16835801,0.037308205,-0.09080926,0.16731161,0.105586514,-0.014563807,-0.23157448,-0.007373625,-0.12010385,0.18687041,0.20432094,-0.119769245,0.9456204,0.0080192555,0.15946983,0.3246118,-0.19953485,0.10592362,0.21392547,-0.018132964,-0.17400658,-0.03970001,0.094258435,0.17924814,-0.17923966,0.15491779,-0.10292897,0.026347661,-0.12791595,-0.3451684,-0.36041602,0.24788277,-0.123135015,0.018246818,-0.05795124,0.24106123,-0.033649765,-0.088756874,0.034393545,-0.08489439,0.10847136,0.08765455,-0.105948605,-0.13420536,0.2769194,0.2002076,-0.16555762,0.16255382,-0.16110939,0.09508127,0.021662101,-0.061424438,0.36340082,0.16491403,-0.2574148,-0.093938045,-0.027421648,-0.0047695423,-0.23292568,-0.24054292,-0.116091624,0.041840095,-0.20253366,-0.112366,0.04531361,-0.16502884,0.2578569,0.10961774,-0.30126652,-0.21198498,-0.07390166,0.0438312,-0.13932198,-0.013645824,-0.1280057,0.119150735,-0.28074893,-0.16011748,0.22817735,0.16873017,0.17269759,-0.01616011,0.23183413,0.0029124147,-0.24662441,0.011319027,0.23579678,0.17522657,0.14199187,0.035967585,-0.12604593,-0.13609563,0.10501367,-0.052888412,0.14867784,-0.1328874,0.07478621,0.3963266,0.15781057,0.092520334,0.012147664,0.032269407,-0.1495736,0.082961775,-0.06577965,0.121817335,-0.065660834,-0.052084733,0.21286528,0.050182823,0.21299326,0.051373787,-0.29115435,-0.06726799,0.07269108,-0.053935632,0.04301253,-0.033192456,-0.047016755,-0.11605383,0.06431104,0.06434303,-0.29702038,-0.102115825,-0.032592487,0.06617936,-0.20418756,-0.19475342,-0.08951103,0.09923718,-0.5660076,0.07920607,-0.07311072,-0.12958497,-0.24998075,0.0349891,-0.30206853,-0.056304,-0.028092865,0.23232317,-0.2574846,-0.23107235,0.015953971,-0.084428884,0.2958999,-0.014707579,-0.05291038,0.08772451,0.43711555,0.1805859,-0.18676327,0.08825856,0.021116735,-0.053287577,-0.3086914,0.1355258,-0.23498242,0.0025491305,-0.1081161,-0.12534447,0.09403695,-0.056107912,-0.053252973,0.0029452357,0.114954025,-0.08662824,-0.08895306,-0.033796083,-0.15987842,-0.020942276,0.2936707,0.36991906,-0.07160488,-0.040226612,-0.09467175,-0.0044546505,-0.10889556,-0.08953393,-0.07334779,-0.13943005,0.05875912,-0.03982964,0.10943953,0.04148658,-0.023021258,0.01252877,0.034813564,0.07230101,-0.12022045,-0.1272637,0.0126410965,0.032803606,0.1699035,-0.19869675,0.06554502,-0.3097058,-0.19100983,0.23482107,0.19675148,0.072199576,0.031301733,0.077493735,0.0052969693,-0.09752641,0.009583057,-0.018461792,0.0642768,0.22612396,0.036167987,-0.08256126,-0.184502,-0.055858362,0.08228578,-0.37398434,0.2606125,-0.10453074,0.43271342,0.007656198,-0.036240466,0.053543154,-0.25154027,0.3765308,0.065415576,-0.18878135,0.16626793,0.034012076,-0.17974807,-0.0013350489,0.17561178,-0.31772426,0.036180325,0.015471504,-0.23316532,0.05938589,0.086298846,-0.02230539,-0.37698624,0.19962221,-0.029382108,0.14379865,0.04014207,0.0873951,-0.14591157,0.13710122,0.024175266,0.1492972,0.2228715,0.32483402,-0.14190888,-0.13981472,0.0973752,0.020931944,-0.115339935,0.10993202,0.058015082,0.24650425,0.29004404,0.08592336,-0.14726847,0.024407273,-0.37909558,0.12468729,0.27570578,-0.19626682,-0.19113438,0.25109565,0.20907626,0.061761007,0.039000217,0.011378038,0.034852426,-0.038124178,0.105123155,-0.2274303,0.10156674,-0.15281701,-0.07913995,-0.058278117,-0.18548793,-0.05309187,0.10167317,0.26572984,0.13578583,-0.05909951,0.19810726,-0.22938104,-0.013703941,-0.029105175,0.40428048,0.1773766,-0.060913786,-0.07080102,0.44055316,-0.1879203,-0.2127669,-0.18070848,-7.495412,-0.3683553,-0.025240473,0.039028462,-0.062996276,-0.062145114,-0.26521105,-0.039530877,-0.009308749,-0.08089919,0.0627362,0.027457926,0.09289008,-0.042141564,0.09268062,0.080963165,0.10209011,0.03949189,-0.18850283,0.15307526,-0.18201104,0.026655504,0.018457625,0.14507604,-0.083025225,0.21055862,-0.060073003,0.197792,0.003238782,-0.12324562,-0.121212445,-0.08193623,-0.011228446,0.04058248,-0.058733787,-0.18627629,0.12911572,0.11407257,0.28085014,0.11834244,0.44937047,0.14474843,0.03380776,-0.2773539,0.03872615,-0.1499099,0.065758415,0.18835175,-0.020898715,0.39822623,-0.042999927,0.09584571,-0.1501611,0.09496612,0.25999317,-0.015714066,-0.0044065095,0.083471216,0.1124155,-0.0045981817,0.04835167,0.033580348,0.011360809,0.2633205,-0.23291747,0.055079263,-0.09195854,-0.10622404,-0.29416293,-0.08844017,0.10366934,-0.19981226,-0.11009862,0.03792765,-0.14014669,0.18744494,0.19548337,0.0019155185,-0.13521296,-0.12998137,-0.037862893,-0.042371728,-0.046935182,-0.014330838,0.1547518,-0.25814208,-0.09167945,-0.0811566,0.20461854,0.35939112,0.0859329,-0.17406836,0.034666132,0.0094274655,0.23226443,-0.04853638,-0.26080444,-0.029252535,0.1437191,0.081346445,0.28376547,-0.17550328,0.2910091,0.05807981,0.02384377,-0.18521315,0.18607672,0.004273419,0.18425916,0.38608342,-0.04622828,-0.20487772,0.11562737,0.05656384,0.10275811,0.18440269,-0.13543047,0.0985305,-0.07274534,-0.25202602
PRO_2_A,0.10085316,-0.027011104,-0.090180315,0.07292258,-0.020878896,-0.11351959,0.1094071,-0.038581748,-0.10547574,0.22116458,0.033759203,-0.047194388,0.13853757,-0.059845727,0.059921537,0.041824684,0.07311998,-0.21441512,0.008489926,0.21588852,-0.012456984,0.25601333,-0.29697418,0.09936105,-0.09471658,0.08803723,0.109104104,-0.126409,-0.1280436,0.14409527,-0.029122673,0.16919822,0.072469026,-0.17767002,0.042492412,-0.27511725,-0.23527479,-0.066518135,-0.1259827,0.04072834,0.109824084,-0.06272893,0.07357229,-0.22389188,-0.036581993,0.08753518,-0.16394022,0.078530364,0.31072307,-0.18313874,-0.058360983,0.004259693,0.38596314,0.14057468,0.031963326,-0.07542187,0.043091152,-0.011865008,0.09777949,-0.31179526,0.06481808,-0.07165916,0.050642267,-0.21382855,0.04435226,0.04239855,0.22123547,0.2409232,0.029934768,0.2082076,-0.26963145,-0.013758455,-0.010396483,-0.046043266,-0.1409679,0.054037537,-0.13047569,0.31814575,-0.006666788,-0.04751486,-0.06793812,-0.16150007,-0.041704442,0.003546552,0.32321417,0.18939914,-0.16777746,0.11154338,0.10514561,0.12154232,-0.23652402,0.039651223,-0.011688807,0.07302509,-0.23107839,-0.0061021424,0.057447314,-0.18255629,-0.08634566,0.03154914,0.25541437,0.033359844,-0.19647382,0.09919509,-0.081688106,-0.13377655,-0.24364114,-0.09168879,-0.15555987,0.028414482,-0.14576924,0.07489864,0.013646731,0.08000539,-0.13660473,-0.104422055,-0.049128786,-0.0008972429,0.007453558,-0.052718867,0.025464652,0.048371363,0.013873572,-0.096927,0.113032386,0.060240567,0.16396132,0.07635114,0.042431265,-0.0875679,-0.15546773,-0.23781078,0.28634888,0.02845205,-0.005995101,-0.006061021,0.024890153,0.033179596,0.0052894573,0.037369393,-0.03294648,-0.19031239,-0.09408826,0.26072338,-0.23517135,-0.46300885,-0.14120476,-0.474637,-0.03148867,0.009738307,0.08365017,-0.2270347,0.13502878,0.15885004,0.16002145,-0.21276677,0.28918275,0.13075553,-0.27189875,-0.033134848,0.08584027,-0.2129946,0.22443081,-0.016106946,-0.10430432,-0.10066204,-0.27071306,0.12187887,-0.07138827,0.24685648,-0.2552134,-0.19348866,0.3676566,0.06314634,-0.014300145,0.105949014,0.32451588,0.11087828,-0.1293534,0.19601527,0.121419474,0.03622257,0.16807263,0.11345803,0.043178357,0.1910152,0.09089239,-0.24898463,-0.21742763,-0.19966786,0.21814428,-0.03982056,0.0013340593,0.15124092,0.295792,-0.1295511,-0.34100842,0.15746522,-0.11002968,-0.18818484,0.11128927,0.26428896,0.055979278,-0.07292945,0.21864481,-0.18555196,-0.07401037,-0.33611777,-0.110355,0.1020413,0.13814318,-0.22153713,0.21459492,0.07567176,-0.3651612,0.15996192,-0.1658465,0.14264083,-0.14640205,0.4279056,0.39233196,-0.07867418,0.08526021,-0.19120875,0.21287148,-0.09990748,-0.012145251,0.055861447,0.09482839,-0.16007032,0.2687365,0.089077815,-0.12720625,-0.2382389,-1.9082772,0.25694156,0.05238856,0.012938034,0.34543633,-0.2774493,0.27206638,-0.08703595,0.14819346,0.06889046,-0.10672129,-0.29844174,0.074858196,0.17497772,0.11587507,0.14285488,-0.04150868,0.0017401072,0.13314618,0.53138155,0.12498796,-0.11896248,-0.09252792,-0.10427656,0.012137967,0.07670751,-0.04715278,0.00013213737,0.17137024,-0.2506344,-0.18317015,-0.02853221,0.23274611,-0.2897652,-0.06143637,-0.103277974,-0.26721868,-0.28423253,0.07936353,-0.06339843,-0.09867755,-0.2736753,-0.3082503,0.06260906,0.09722268,0.15995735,-0.14605065,0.18926653,-0.0051397686,0.22118598,0.08395272,0.03901836,-0.21938616,-0.3300679,0.086671025,-0.07127355,0.19035384,-0.49755305,0.049264524,0.20672077,0.089940384,0.23175608,-0.20040202,-0.31621444,0.18516475,-0.0102681825,0.057076007,-0.19584818,-0.09852349,0.112637,-0.26621154,-0.18655771,0.16479635,-0.18501654,0.045266714,-0.17377375,0.087988175,0.10098821,0.11251713,0.031190893,-0.01121228,0.26334953,0.20554832,-0.23188196,-0.06428114,-0.22258146,0.22364645,0.029353244,0.23492575,0.07365344,-0.21138476,0.12629747,0.19393872,-0.0990655,-0.10048825,-0.02244587,0.14939691,0.039396044,-0.030585501,-0.061119527,-0.21364601,0.33727944,0.09347411,-0.08731121,0.080097586,0.16698551,0.13520086,0.078966,-0.107880495,0.23258886,-0.07226248,-0.3022124,-0.078597575,0.00039420213,0.25139612,-0.0991283,0.2405573,-0.02534849,0.08666441,-0.12943012,-0.026840214,0.10009786,-0.2549623,-0.46655333,-0.09736679,-0.30443513,-0.16678068,0.0037177997,-0.23143488,-0.09785365,0.037712097,0.07000747,-0.027577328,0.009293769,0.10225945,-0.28982693,0.077767566,0.2665606,0.05512912,0.12443426,-0.18735494,-0.043845788,0.3699779,0.2105242,0.15926024,-0.21961986,-0.27326396,-0.092130065,-0.29956546,0.050802216,0.29538855,-0.12887233,-0.19525863,-0.30314118,-0.051903907,-0.080381654,-0.06371721,-0.035417426,-0.019355796,-0.16499037,-0.13799246,-0.055413257,-0.12196755,0.03465,-0.095523864,-0.070529014,-0.15964486,-0.2287849,0.039191857,-0.05835811,-0.17173178,-0.29446712,0.14207026,0.011902964,0.043147676,0.2015818,-0.22204864,0.008361188,-0.042708736,-0.27430847,0.3162549,0.009046273,-0.15621826,-0.10762456,-0.05094563,-0.0066925394,0.09046023,0.283105,0.16984762,0.30859375,-0.17577103,-0.10853055,0.29018888,-0.13969393,-0.024722278,0.15255895,-0.080123454,0.032406703,0.07454192,-0.25046805,0.33011657,-0.11691612,0.18612832,0.09321924,0.24414816,-0.08268435,-0.33633736,0.15713029,-0.22290769,-0.44315237,0.26312417,-0.15988092,0.11733917,-0.061119143,-0.320077,0.15242498,0.22026707,0.10005303,-0.104933806,0.1171268,-0.06246488,0.31984016,0.34844762,-0.060907014,-0.0566974,0.08076743,-0.1316506,0.09516263,-0.1720519,0.055446234,0.1432607,-0.061224204,0.07948089,0.19060151,0.19246657,-0.25162396,0.02935087,-0.2220395,0.22025347,-0.14568967,-0.21018507,-0.06075451,0.123298295,-0.019736245,-0.05860008,0.25354072,-0.020717615,0.053483196,0.114491396,-0.13983926,-0.14600225,-0.07681814,0.15556102,-0.06175388,-0.16927598,0.06981067,0.0075199637,-0.0698366,-0.2404641,0.3059406,0.037272673,0.21663319,-0.118190356,0.09966411,-0.16169184,-0.11167973,0.13610576,-0.022373406,-0.17574169,0.31664145,-0.0038834068,0.23617083,-0.14312679,0.3576705,0.16124465,-0.08288226,0.2933991,0.20036665,0.063068144,-0.059878822,0.15306242,-0.062070813,0.2005299,0.1366532,0.18491784,0.08043925,-0.1227174,0.16382237,-0.029426549,-0.41529843,-0.13088262,-0.10012022,-0.06223826,-0.2721905,0.08641655,0.069452144,-0.2504993,0.3343029,0.09783143,-0.17661683,0.114625886,-0.03107429,-0.23308443,-0.09268229,0.28020167,0.24563386,-0.059673425,-0.14824663,0.120617226,0.24506427,-0.15293755,-0.10350864,-0.12224314,-0.09702158,-0.020885479,-0.25461543,-0.014716496,-0.07741591,-0.038888544,0.068092875,0.007904855,0.06954005,-0.10499057,-0.026254725,-0.10558559,-0.012222606,0.56358606,-0.1709062,0.21754242,-0.03088761,0.2953118,-0.23343234,-0.13022652,-0.042288397,0.08879675,-0.19913276,0.012833583,0.039681558,0.18828642,0.14314833,-0.0620302,0.3159546,0.0021970943,0.10869752,0.063371345,-0.0062144357,-0.17811936,0.027963918,-0.36957422,0.28893653,0.14697272,0.12682767,0.022445813,-0.33662274,0.25003198,0.0040652715,-0.22437872,-0.13495646,0.09649391,-0.120186046,0.020968579,0.24963534,-0.07414068,0.12781936,0.12888764,-0.04016803,0.11349009,0.22892371,-0.07360166,0.21206659,-0.06509849,0.2239249,-0.1629701,0.20172848,-0.1313434,0.3569119,-0.0452304,0.07728631,-0.1689568,-0.12060562,-0.30329832,0.0051221005,0.037492275,0.09566081,0.02129956,-0.01618363,-0.19086789,-0.078211784,-0.11895735,-0.19039713,0.14925082,0.17024598,0.08842909,0.041909367,-0.080571994,-0.050750904,-0.026504878,0.35028,0.17400502,-0.2465233,0.25189388,-0.08478744,0.13029456,-0.23622961,-0.033790793,-0.17101143,-0.28185293,-0.022052933,-0.07758226,-0.17336176,0.29541606,0.19146913,0.1656331,-0.035035174,0.086617514,-0.16391248,-0.08698396,0.2888088,-0.09783921,0.014209032,-0.13788867,-0.021584775,-0.1302534,-0.033752985,-0.056034002,0.19833367,-0.007818222,0.1785049,-0.051875234,-0.29216707,0.15731475,0.022309277,0.15164769,-0.23561342,0.25132272,0.17066692,-0.07757646,-0.086626284,0.008488723,0.18182334,-0.16055438,0.090546906,-0.18406665,0.13037364,-0.23510857,-0.289195,0.25579432,-0.21863805,0.11858007,0.103815004,0.06523011,-0.15236187,0.09733743,0.15167044,-0.022061985,0.0512505,0.21225245,0.00041948765,-0.26695856,0.15681513,-0.071665004,0.03872226,-0.12709692,0.1189985,0.5240565,-0.06952961,0.33218724,0.23346166,0.100938365,0.026405614,-0.25891265,0.1614447,0.16578978,-0.1555185,-0.12514713,0.4086988,0.025310539,-0.023198528,0.211789,0.13910268,0.043313187,-0.15050241,0.047144566,-0.016583756,-0.025942398,-0.13427229,0.22318967,-0.03706872,0.23158582,0.12549265,0.22128357,0.43014145,0.2530152,0.16418117,-0.24136694,0.08668141,0.24230252,0.15623309,0.079431824,-0.046309795,-0.16060711,0.13346057,0.32710826,0.074912205,-0.2229064,-0.11117603,-0.27722612,0.42913485,0.2315967,-0.09340951,0.050743144,0.046315707,-0.052872557,0.08708161,0.4467499,0.13111742,-0.07068855,-0.32840073,-0.20146844,-0.0036068517,0.24124113,0.3934884,0.022629539,0.29234797,0.12698776,-0.12286105,0.26890585,0.14162824,-0.22587955,0.021861171,-0.07858122,0.07303562,0.04531572,0.06818035,-0.2070176,0.18155856,-0.08521907,0.06805028,0.08063458,-0.14909427,0.031227354,-0.0113988845,0.16463834,-0.06715494,0.2572631,-0.18058006,-0.013896849,-0.049848754,0.08539666,-0.012735987,-0.2397485,-0.07702104,0.30633512,-0.27578565,0.22059366,-0.09017442,0.04415114,0.31115606,-0.17498252,0.073211655,-0.15232313,-0.16902338,0.059303787,-0.07959483,0.34096736,0.06251737,-0.056593392,-0.05961353,0.27759835,0.13223796,-0.07088154,0.024643311,0.07875344,0.010113342,0.12169023,-0.037791498,-0.2825888,0.0776701,-0.20547855,-0.49235842,-0.18355447,-0.014253687,0.13765931,-0.18354456,0.053644262,0.06493272,0.03171602,0.2555953,-0.01796643,0.22603868,-0.039881214,0.021962209,0.3150212,0.112308756,0.06917626,0.14964269,-0.2630185,-0.16349101,-0.034648474,-0.267772,-0.1556596,0.103734486,0.2523492,-0.0852104,0.31187955,0.1625404,-0.017830256,-0.02861027,-0.13711044,0.122762635,-0.11951998,0.09152803,0.074104495,0.20580396,-0.2871212,0.41524303,0.1481442,0.037566915,0.038098615,0.05715086,0.051650282,-0.48310393,-0.21476611,-0.04771199,-0.19159938,-0.06276295,0.09363363,0.24093528,-0.08371934,0.10311618,0.052975655,0.18291593,0.044204544,-0.08604277,-0.11761469,-0.036700893,-0.15118694,0.1381296,0.02640795,0.3155915,-0.18055195,0.006250816,0.5227554,0.2694658,0.12106832,0.26736924,-0.0037008526,0.16604917,0.19549152,-0.12911919,-0.008351994,-0.20873097,0.052299716,0.34574968,-0.13419771,0.108424515,-0.11982061,0.064513706,-0.22067477,-0.21800545,-0.22551729,0.20678829,0.14969605,0.24471956,0.29103068,0.0242277,-0.14220679,0.11339722,-0.23642974,0.14190379,0.16958441,0.15689588,-0.14524674,0.01458087,0.03153293,0.081788406,-0.36428088,-0.16330473,-0.058942784,-0.047389887,-0.03051728,-0.172113,0.24412666,0.08280785,-0.35213763,0.19591694,0.16210178,-0.12409112,-0.051634952,0.044973657,-0.008740935,0.014226962,0.07531633,0.16966312,0.056776207,0.19421716,0.1722747,0.13593987,-0.39670396,-0.17457119,0.01945127,-0.00010386334,-0.039770033,0.05799845,0.09634264,-0.22776864,-0.09726761,0.104084305,0.14670113,0.22587863,0.26424712,0.14693089,0.14245676,0.17341705,-0.16007829,0.07054891,-0.0905514,0.13854544,0.029203875,-0.13237666,0.02384201,-0.293398,0.13423623,0.050347097,0.12453725,0.14701457,0.09714504,0.15377876,-0.032390583,0.1087358,0.04697162,-0.13765396,0.07525842,0.18425274,-0.12564701,0.40909082,0.0017776287,0.17756328,-0.014803324,-0.03128398,0.04596672,0.09349845,-0.092197075,-0.12402305,0.3904427,-0.19981247,-0.035809085,-0.105693504,0.06309183,0.07246072,-0.066139385,0.07870406,0.04085165,-0.15406299,0.15115666,-0.018269815,-0.14328597,-0.09781012,0.11890244,0.12043998,-0.19068882,-0.008967273,0.020005774,-0.13538094,-0.2042714,0.22415535,-0.012734903,0.038294215,0.20060527,0.21578106,-0.2566787,0.2031403,0.036619768,0.10399666,-0.12521672,-0.2061769,0.15772611,-0.013033875,0.02957855,0.18285516,0.20897073,0.24021891,-0.13186058,-0.21872725,-0.2955419,0.10776192,0.008936511,0.018793771,-0.19282173,-0.20517644,0.29582703,-0.34218493,0.12060404,0.09052963,0.040481195,-0.06750562,0.036410313,0.105310924,-0.12715122,-0.15817523,0.07810935,0.16779205,0.143458,-0.20868956,0.040176705,-0.06829546,-0.087809056,0.058475316,-0.18869421,0.10514084,0.25716928,0.070916906,0.073125534,0.005326328,-0.08179896,-0.143261,-0.16639805,-0.27606276,0.17109567,0.058480598,-0.03506211,0.02354851,-0.04951666,-0.49093512,0.047410022,-0.22668883,-0.0067972406,0.20463444,0.11518308,0.12593979,-0.03129486,0.14567891,0.18865937,0.026953354,0.08798433,-0.0014409446,0.21745972,0.16008142,-0.044217493,0.25517407,0.07905011,-0.121702075,0.13794184,-0.17112783,0.1818099,-0.07018296,0.006097845,-0.16651985,-0.12505406,-0.0129101565,-0.0511889,0.032939546,0.037470996,-0.16251293,-0.045697268,0.3376564,-0.17454924,-0.20486997,-0.10378686,-0.23279938,0.02214023,-0.0075442153,-0.025221407,0.09409456,-0.0015814715,-0.07148373,-0.14661035,-0.007843506,-0.0029415884,0.10723488,-0.1338339,-0.10515075,-0.11817444,0.021459177,0.0082744155,0.014850624,0.15501516,0.15439102,-0.17400664,-0.117690675,0.30086643,-0.05102533,-0.30630046,0.0064304494,0.024903752,-0.08055019,-0.0073642028,0.13921762,-6.443956e-05,0.11186667,-0.38338283,0.09653805,-0.021086039,0.009131016,-0.09237866,-0.015378476,0.15910436,-0.10080631,0.055816732,0.18786962,-0.031918004,-0.10067737,0.08920497,-0.07478054,0.030566078,-0.117327474,0.059655808,0.03072861,0.0032296728,-0.07948888,0.109634824,0.1943319,-0.15651858,0.07650195,0.1505206,-0.13906856,0.013115952,-0.3007672,0.2589645,-0.14281434,0.02365712,-0.21444881,0.10633264,-0.28509122,0.21036151,0.12819329,-7.4388084,0.029921934,0.29007924,-0.010055519,0.10557288,-0.23193483,-0.10838535,-0.0014101097,0.044500798,-0.19066559,0.07595581,-0.32694116,-0.014817755,0.15536767,-0.014860582,0.0747792,0.13948184,0.07551803,0.052189335,0.23879024,-0.11764912,0.28431857,0.1830217,-0.02226983,-0.2453678,0.10778468,-0.17139553,0.005740446,-0.0050269584,-0.032927353,-0.048293505,-0.004172398,0.011620798,0.017825186,-0.39519146,-0.3651089,0.33748236,0.09830033,0.009920962,-0.25212875,-0.061828654,0.057246096,-0.14907794,-0.13410947,0.08782992,0.021801053,-0.019877268,0.04264644,-0.33748454,0.24795504,0.021476986,-0.09485751,-0.004271618,0.17600177,0.13161933,-0.009417472,-0.028522706,0.0017643559,0.060095116,-0.24396506,0.09689774,-0.0008202153,-0.1931869,-0.05698938,0.0206114,0.17072856,0.123030506,0.0801507,-0.05332899,0.16410725,-0.049105376,0.052649364,-0.27819765,-0.047306675,0.011741752,0.10776556,0.026466561,-0.1959871,-0.17671627,-0.122582205,0.029629504,-0.17587925,-0.10617678,-0.06598245,0.2756279,-0.11177623,-0.04043864,-0.18905836,-0.0028139413,0.054102026,0.07894909,-0.11243542,-0.0954864,-0.18941833,0.18357879,-0.02980212,-0.043267787,0.02598876,0.047279555,0.20347525,-0.038328853,0.046141878,0.010764973,-0.17017582,-0.0792315,0.16824022,-0.04907201,-0.23791246,0.1221237,0.6936945,0.24029274,-0.20272651,0.3218653,0.11660887,-0.14150135,-0.020635802,0.029680489,-0.05420433,-0.13400577,-0.10352114
LYS_3_A,0.03275165,0.0868168,0.0133017115,0.15288496,-0.08065096,-0.025147652,0.14586437,-0.10339246,-0.25797465,0.34405228,0.06914063,-0.08608666,0.123697616,0.12183441,-0.029940275,-0.082865566,0.06758187,0.09517299,0.05122382,-0.059185825,0.12075737,0.026234167,-0.10177423,-0.034870178,0.1242731,0.34287557,0.023211775,-0.1334125,-0.28582203,-0.14412639,0.0652706,-0.04510463,0.066848695,-0.3242728,-0.066215076,-0.009101484,-0.017571703,-0.07401143,-0.22568315,0.00074590126,0.15438934,0.13481954,0.21126468,-0.094571225,-0.2978447,-0.16656548,-0.437606,-0.18510221,0.12298917,-0.27417794,0.012932577,0.08096935,0.22674742,0.08053512,-0.11820841,-0.23776817,-0.03414407,0.06620425,-0.0158899,-0.14713565,0.13891146,0.039080717,0.0748912,0.015929068,0.08640419,-0.024366433,0.067135975,0.15896957,-0.2539246,-0.09750464,-0.02357178,-0.06985974,0.026073232,-0.07281668,0.00031917874,0.14944509,-0.1130952,0.018408367,-0.16845813,-0.21204457,0.020898758,-0.2028795,0.23744254,-0.13501622,-0.027977882,-0.18073873,0.028017448,0.5759713,-0.054583706,-0.15053974,-0.35416216,-0.09070312,-0.16587012,0.11178251,-0.09904238,-0.029793438,-0.08854515,0.21011828,-0.26643032,0.07718698,0.08155737,0.06027317,-0.062301155,-0.19943894,-0.09615837,0.075200364,0.16653863,-0.4372271,-0.009839412,-0.052404206,-0.33520076,-0.05492045,0.122401856,0.09194209,0.07698633,0.07707529,0.02359771,-0.13039842,0.21936578,0.06471289,0.109546855,0.19174933,0.12771508,-0.20065421,-0.045235455,0.13498293,0.13709792,0.06017897,0.13137524,-0.16255607,0.26868716,-0.4421301,0.2014845,0.03394527,0.15352345,-0.104399264,-0.07616149,-0.10070274,0.13915782,0.21178499,0.08620727,-0.07180701,-0.20944703,-0.0007162846,-0.09691345,-0.06947167,0.1231732,-0.11023252,0.17278752,0.12394586,0.11640499,0.011251137,-0.06917923,-0.13904077,0.07678436,-0.15403737,0.17338184,0.23247781,-0.00048822147,0.15524773,-0.41485944,0.02504966,-0.0011061617,-0.13412307,-0.42443585,-0.015541346,-0.11733648,-0.08836758,-0.19248758,0.2889992,-0.27991426,-0.42708737,0.2873289,0.16118991,-0.12157598,-0.10065999,0.09304618,-0.21309514,-0.026765347,0.090030804,0.22127841,0.029076612,0.08208889,-0.16709776,-0.10497573,0.26872787,0.007568001,-0.19774447,-0.20157588,-0.26463243,0.05715193,0.21159235,-0.13745882,-0.12606716,0.25618586,-0.19917317,0.01795896,0.030543117,-0.19380179,0.023825789,0.02115115,0.05858142,-0.1319777,0.098929524,-0.068349496,-0.22794566,0.019379184,-0.20895706,-0.11670892,0.1386477,0.06266905,-0.06643409,0.10481435,0.30779004,-0.23694077,0.08838543,-0.026835138,0.011992282,0.20362376,-0.0281557,0.19173287,0.115110286,0.11073765,-0.1970543,0.026317645,-0.08479215,-0.17863087,-0.035106353,0.03236588,0.3228194,-0.109620005,0.15728393,-0.14475073,-0.17726672,-1.5644435,0.2569563,0.078921594,-0.00052199827,0.1783746,-0.07542272,0.4146999,0.24171416,0.18377967,0.14918806,0.12983724,-0.005532907,-0.09460323,-0.27846125,0.3885114,0.11298785,0.018764274,-0.18717258,0.3001774,0.4343786,0.19712974,0.06102714,-0.0033302929,0.053699385,0.28379762,0.0001458785,0.13347547,-0.2244465,0.12950136,-0.0867942,-0.34939712,-0.039565228,0.17175637,-0.14791925,-0.046557367,0.041264623,-0.18896058,-0.052208412,-0.2182617,-0.10123837,0.37282094,-0.42064774,-0.37686446,0.22058466,0.24106644,0.20235202,0.06344159,0.36985728,0.059330884,0.31884608,-0.14043878,0.15008672,-0.12979352,-0.025918521,0.20995988,-0.17173897,0.10817274,-0.13702303,0.1452346,-0.050430406,0.12973346,0.14655498,-0.122948326,-0.06811008,0.2059629,0.07694124,0.0022726606,-0.01336554,-0.19387794,-0.17682758,-0.057717506,-0.48238033,0.2527903,-0.2610215,-0.14201273,-0.2914959,0.10753982,0.010445438,-0.049101416,0.13478464,0.0057248403,0.45315984,0.0704759,-0.100683,0.40622607,-0.36768308,-0.118393384,-0.22810708,0.40538442,0.15324381,0.3028215,-0.22603181,0.095385484,0.047053844,-0.1498139,0.27811024,-0.24635097,0.017985493,0.05211627,0.06967125,-0.22722477,0.08045963,0.22623254,-0.026240263,-0.05593885,0.022987125,0.2122303,0.2183634,0.04366008,-0.017470676,-0.15258145,-0.18710725,-0.13358848,0.21341625,0.23143893,-0.041225906,0.2005118,0.07078241,0.039222326,-0.15692747,-0.10260057,-0.17896345,-0.24558735,-0.029276518,-0.19971777,-0.29297572,-0.099283226,0.06874188,-0.2626304,0.1872499,-0.18223915,-0.038580917,-0.10429658,0.18593654,0.0066422434,-0.50826615,0.15453896,0.21087635,-0.10348073,0.07507524,-0.33508378,0.0036199829,0.21494085,0.5543767,-0.06451828,-0.1253737,-0.008432681,0.085519135,-0.34042943,-0.03025187,0.23603301,-0.20618337,0.16891403,-0.19800523,0.046973616,0.23572755,-0.33452615,-0.07536895,0.25458845,-0.011719429,-0.2338586,-0.09314969,-0.15034442,-0.19947398,-0.25306886,-0.08333732,0.1456483,-0.02705738,-0.075746074,0.12290849,-0.16507052,-0.34063587,-0.2234388,-0.096156485,0.064541206,0.08677397,-0.06584543,-0.14237793,0.27262396,-0.29899117,0.22932939,-0.1814543,-0.09587798,0.110165395,-0.23030145,-0.06924824,-0.30245835,0.22690439,0.1255642,0.15320687,0.017546086,-0.028526044,0.3036176,-0.12249426,0.2612529,0.14487182,0.24165659,0.15348168,-0.025250256,-0.060196232,-0.32647192,-0.069475815,0.28311417,0.17890915,0.2022856,-0.15217023,-0.090109624,0.27481046,-0.0364987,-0.09953581,0.120843254,-0.27753952,0.019938463,-0.15976423,-0.2252224,0.041873075,0.38150012,-0.0650778,0.1602251,0.15701754,0.0009933737,0.3374977,0.26706687,-0.021377783,0.01061479,0.06252643,-0.36743572,-0.38702053,-0.007927303,-0.18058224,0.0025155575,-0.057428367,-0.36783254,0.06962733,0.10549118,-0.2861025,0.20684789,-0.107759036,0.2886271,-0.22067483,-0.08560454,-0.18882094,-0.098888285,-0.027437111,-0.111608155,0.1017853,-0.06297194,0.13150908,0.16392626,-0.11289591,-0.038415704,-0.023239512,-0.08207534,-0.120106734,-0.11337359,0.42330703,-0.12970628,0.086471386,0.0025572581,0.22865546,0.13631743,0.07698583,-0.11075486,0.1181262,0.12528613,0.05342307,-0.05301033,-0.09852818,0.08606,0.070767455,0.106024876,0.30809504,0.0122336075,0.17737621,-0.26558223,-0.08099292,0.11609646,-0.04973037,0.29235604,-0.15264474,0.36716536,0.1312828,0.021249838,0.075260565,0.18466774,-0.24947841,-0.09351439,0.00013677664,0.261214,-0.08646388,-0.32255083,-0.06920466,0.07155331,-0.22377099,0.062151913,-0.08293504,-0.04673655,0.4092982,0.15821868,0.20080066,0.10541625,0.060089495,-0.15752168,0.0070390077,-0.0029913879,0.04100159,0.011374757,-0.12873861,0.2807784,0.2539644,0.10210031,-0.046640024,-0.044612702,-0.17765725,0.1877178,-0.20656508,-0.34743056,-0.08717465,-0.2780431,-0.014729251,-0.045527253,-0.07103566,-0.0726637,0.01214765,0.018289119,0.11426881,0.4278818,-0.066976056,0.09587604,0.0051153083,0.48127112,0.03236414,-0.024738949,0.33081493,-0.121813044,-0.20577255,-0.3185512,0.095054865,0.27769706,0.11371028,-0.082512766,-0.047783636,-0.04250964,0.21599385,-0.029548962,0.052430104,-0.1813065,-0.21409379,-0.19094168,0.12586407,0.107210554,-0.31537303,-0.09937088,-0.02827116,0.11117009,0.17581815,0.08031809,0.07302592,0.062935986,0.19952567,0.07629307,-0.22120528,-0.100065775,0.023571994,0.03197822,0.036987174,0.013885799,0.10574043,0.25982153,0.12932134,0.092759,0.030315652,0.02727735,-0.21451192,-0.09176341,0.10670361,0.09377964,0.18760115,0.20657566,-0.19073947,-0.22154854,-0.05651377,0.3011239,0.021192666,0.06216743,0.03518166,-0.07755662,0.20025785,0.0029488981,-0.060215708,-0.11957756,0.1395034,-0.0026964105,0.045135174,-0.1816856,-0.13131422,0.14931172,0.20052001,-0.220117,-0.0012421524,0.4599193,-0.13279629,-0.052790225,0.07114539,0.036563285,0.20904808,-0.21287857,0.123166785,0.0568973,0.1302625,0.07791672,0.14175145,-0.065391056,-0.18376875,0.13379955,0.045373056,-0.06635151,0.47312036,0.08355697,0.024280543,0.21843669,0.038825266,-0.078351304,0.08764601,-0.09654337,0.26941544,0.11381578,0.047319148,0.01825367,-0.049713667,0.09621596,0.33327514,0.16183048,-0.10009201,0.28424022,-0.08684415,-0.035055514,-0.14812857,0.28914,0.07702174,-0.0891173,0.094320394,0.035958752,0.029310852,0.034104772,-0.32934386,0.22448602,0.036450695,0.24390614,0.109675094,-0.071015805,-0.021807544,0.27960098,0.035436466,-0.037130546,-0.097157486,0.18015572,-0.022713467,-0.08945933,0.31107897,-0.22241576,-0.02177635,-0.21906072,0.16467525,0.19155936,-0.28842118,0.26381946,-0.05879198,-0.11034036,0.111837655,-0.1495607,0.2607325,-0.003634538,-0.06172783,0.029639116,-0.06511035,0.08427757,-0.0062311734,0.1680023,0.20788608,-0.18152815,-0.23335694,0.12628846,-0.11354411,0.1748324,0.2284995,0.12945747,0.26048782,0.2715227,0.03219859,-0.0811184,0.276392,0.15290584,0.14013244,-0.13620992,0.3859182,0.006463482,0.047124583,0.16087481,-0.08353002,-0.1942224,0.32627758,0.7103531,-0.17698692,0.05994475,-0.16645762,0.20400791,0.20074327,0.2415395,0.045792334,-0.049740452,-0.02807096,0.0102996025,-0.054939847,-0.10097504,-0.15855685,-0.1412563,-0.39842612,-0.039802324,0.052414842,0.22466742,-0.04067627,0.24518329,-0.1954074,-0.23627661,0.14226004,0.25419137,-0.1421788,-0.06390513,-0.024781728,-0.3057834,0.07363542,0.18512914,-0.0076652495,-0.05574543,0.15724088,0.07984204,0.21296237,-0.24431032,0.057775747,0.1886912,-0.08541763,0.010737534,-0.36250654,0.023397408,-0.10668498,0.30608192,0.15363401,0.14296754,0.15850902,-0.048237033,-0.001429439,0.079860434,-0.11925743,0.051439304,-0.2915576,0.015493571,0.2846425,0.00027246762,0.052552674,-0.025204439,-0.17444986,-0.0065596835,0.047725063,0.024361337,0.27263078,0.18825223,-0.019563125,0.20152803,-0.0076478943,-0.107522145,-0.1536895,0.17392722,-0.05904416,0.22551395,-0.31947145,0.16652313,-0.078802146,-0.16921519,-0.16246921,-0.11280561,0.065063916,-0.09312596,-0.19535038,0.007981045,0.06724983,0.34111786,-0.13326438,-0.113798656,0.15263249,0.00779259,0.08731252,0.16148049,0.15175095,-0.3352384,0.18363819,-0.24713957,0.11901294,-0.051428515,-0.21160467,0.071761705,-0.06714827,0.060894664,-0.18187043,-0.12422355,-0.14405183,0.025743345,0.22503228,-0.15018485,-0.031704396,-0.11011317,0.09894512,0.114042066,0.21788703,0.0364956,0.3534863,0.13277912,0.19247963,-0.05487778,-0.15340585,-0.063267976,-0.2570755,-0.11102275,-0.14810656,0.012416714,0.3193751,0.09525625,0.18116699,-0.03907254,0.31180304,-0.22197308,0.094562784,0.1726102,-0.032131553,0.09311681,-0.057724223,0.051256098,0.02033408,-0.086529605,-0.065505594,-0.1531364,0.1973339,0.29618388,0.3815932,0.24249266,0.032906827,-0.060103144,0.024921054,0.37087134,-0.030166727,-0.22992574,-0.4154895,0.048578117,0.3494285,0.08183005,0.008617718,-0.029527567,0.1976069,-0.0243705,0.03301006,-0.07849847,0.3791823,0.3665631,0.06264081,0.3858495,0.02563849,-0.04759835,-0.057486676,-0.29937366,-0.1284475,-0.0110965995,-0.1032345,-0.072731584,0.07349285,-0.109839745,0.075304255,-0.11861548,-0.05205806,-0.012136435,-0.027345967,-0.09877348,-0.1574113,-0.078365,0.26203,-0.15222529,0.29641137,-0.19400448,0.06366657,0.10395411,-0.08499546,-0.30647272,0.020781515,0.077689625,0.027815877,-0.092150755,0.086056836,0.1876759,0.09650341,-0.2705868,-0.032341786,0.2638132,0.22143845,0.1931278,-0.017684964,0.055808187,-0.11143782,-0.0037603122,0.18168966,0.20552553,-0.032490805,0.0021509323,-0.013944468,0.20410088,0.061031315,0.063071735,0.023495257,0.15936624,0.10356396,0.031123193,0.019058287,0.062998176,-0.52695596,0.0019609535,-0.13354899,-0.13555415,0.16070955,0.33812603,0.02420969,0.00924317,-0.009166606,-0.19907843,-0.22515061,-0.026271142,-0.113176234,-0.107543245,0.30457062,-0.082427844,0.45128787,0.050973672,-0.03193406,-0.0013710825,0.024151852,-0.12193169,-0.19131479,0.33844712,-0.040714413,0.15627661,-0.001612975,0.14138268,0.17972685,0.43071762,0.096142285,0.004123979,0.0865146,0.17259836,-0.027407123,-0.30593374,0.02897566,-0.04980352,0.12199692,0.10598468,0.10948553,-0.017368492,0.011117605,-0.19186443,0.01745204,-0.37408486,-0.17690082,0.0781175,-0.027919494,-0.22207113,0.19514836,0.1336879,0.030478846,0.09272187,-0.37058702,0.2127421,-0.103416346,0.055142667,-0.01900682,-0.033116553,0.18344341,-0.050503105,-0.26319787,-0.18741369,-0.00220838,-0.058332995,-0.0889288,-0.14070933,0.021885857,0.034472488,-0.12004831,0.034771632,0.23906001,-0.13949883,-0.12428289,0.069998026,0.24122918,-0.05440506,0.014054481,0.21102762,-0.04280138,0.18817736,-0.12680472,-0.24210294,-0.07394844,0.05577952,0.091151334,0.08082241,-0.04530241,0.0073311306,-0.15992187,-0.076995105,-0.047336917,-0.09921098,-0.29045272,-0.034053735,-0.2668855,-0.058610823,0.16982828,0.070330046,-0.10626782,0.24251594,-0.5973345,0.0008940136,-0.31225652,0.06270392,0.025393175,0.23302066,0.12764114,-0.16575702,-0.15914935,0.10134928,0.09095797,-0.07886924,0.06916188,-0.20970923,0.10640091,-0.09770913,0.36892357,0.06524524,-0.13757953,0.47279617,-0.24840274,-0.088958904,-0.092982925,0.52240247,0.0069232676,-0.25934413,-0.05847392,-0.094596535,0.21345401,-0.120986074,-0.19461077,0.048750374,0.34209368,0.06738719,-0.08143242,0.014280786,-0.22288954,0.07881137,0.09017917,0.027728442,-0.05877212,-0.048830103,0.19123502,-0.27595118,0.102649845,-0.2682123,-0.24069397,0.116499476,-0.09688289,-0.15730976,-0.13947046,5.718027e-05,0.06137802,-0.29795396,0.28664303,0.00879586,-0.09661295,0.35424012,-0.11051417,-0.0109457355,0.06717024,-0.2417609,0.08074206,0.05374992,0.14167574,0.11057014,0.14114909,-0.3774024,0.112437524,0.08859879,-0.09412059,-0.11186442,-0.038304117,0.19719303,-0.06600515,-0.026854595,0.10798442,-0.050902598,-0.16007854,0.03393304,-0.061125364,0.07782843,-0.12555178,0.015570875,-0.058743615,-0.18590286,-0.09613304,-0.13590793,0.30413,-0.25344548,-0.04083409,-0.10019291,-0.08775814,0.10397103,-0.04503465,0.28656715,0.09926667,0.011517616,0.01451732,-0.09815649,-0.1770706,-0.027669195,0.04803138,-7.222516,-0.1263723,0.1725524,0.1635398,0.19658881,-0.16852462,0.15496795,-0.18567522,-0.14609294,-0.30248442,0.084988564,-0.029137943,0.01374647,0.08496667,-0.16109219,-0.10452687,0.3152391,0.21383531,0.032511536,-0.047767043,-0.039913528,0.19472519,-0.025525887,0.01355898,-0.19961077,0.2176069,-0.10236841,-0.08063504,0.24624325,0.2455737,-0.317368,-0.09312624,-0.37558365,-0.13481984,-0.33422792,-0.015789913,0.10399643,-0.06977335,0.17070721,0.07706462,0.16819754,0.021201804,-0.2290039,-0.004774705,-0.16766128,-0.33201212,0.011893364,0.029619982,-0.3709381,0.16741802,-0.029472884,-0.00920401,0.15442674,0.14955774,-0.010070485,-0.03229605,-0.4963196,0.028912643,-0.033312522,-0.3723328,0.0045126965,0.13718612,-0.14380528,0.0023474682,-0.016746247,-0.024126824,0.13880187,-0.0021648663,-0.15358911,-0.006407807,-0.059103344,-0.025825609,-0.35584566,0.13321027,0.25470123,0.09077764,0.26372424,-0.091145694,-0.43788522,-0.32033068,-0.056441195,-0.4213429,-0.18450724,0.2272001,0.06401707,-0.0580672,0.123675905,-0.07509028,-0.10734741,0.28107002,0.20023672,-0.02728182,-0.12135059,-0.25407937,0.08330747,0.12960397,-0.09142363,-0.19911437,0.24050234,-0.16232067,0.15740757,-0.049017053,0.36507753,0.060265463,0.17355844,0.08491191,-0.29584214,0.13200416,0.31480175,0.40926743,-0.013096242,-0.10099526,0.028982304,0.16804141,0.18093455,0.063680276,0.121435866,-0.22639243,0.016527085,-0.13718125
TRP_4_A,-0.2538258,-0.24272357,-0.06126023,0.08153256,0.14531125,0.08917136,0.06739592,0.07888354,-0.23471412,0.30916387,-0.11299408,0.274169,-0.028989132,0.098147675,0.03661144,-0.23453137,0.10157855,-0.110971086,0.042686116,0.27828568,0.20822935,0.062488377,-0.3315038,0.16662626,-0.018760357,0.063098334,0.23465677,-0.54135346,-0.00698215,-0.23000889,0.23064259,0.12879555,0.30738,0.07094105,-0.13579169,0.08529325,-0.20480314,-0.24341355,-0.28592485,0.03206109,-0.13288191,-0.09985411,0.21168913,-0.19901232,-0.26475468,0.26498464,-0.5857404,0.1856534,-0.23404375,-0.2854893,-0.04143752,-0.1547424,0.13062763,0.38086608,-0.010857297,-0.09513368,0.37853527,0.11255316,0.37122038,-0.49154523,0.21064086,-0.050017495,0.2712271,-0.00051714375,-0.0061943224,0.14339279,0.06602593,0.08035049,-0.20058225,0.25592378,-0.1305276,-0.22536935,0.18590508,-0.11260533,-0.1603542,0.33690915,-0.1010091,0.32802737,-0.15811232,-0.53043973,-0.0028043813,0.04586281,0.15008609,0.14472125,0.15151362,-0.047255736,0.07539215,0.2959514,-0.27992046,0.26530528,-0.2544382,0.12330812,-0.14477265,-0.014614825,0.050951224,0.1788915,0.15118577,0.020552613,-0.35412002,0.0083305705,0.31570882,-0.2762043,-0.16599342,-0.16166559,-0.19459085,-0.12987295,-0.29037344,-0.05338128,-0.021788884,0.13648255,-0.22621648,0.37593365,0.001449698,0.14312184,-0.21096347,0.29573867,0.02137857,0.052068856,0.026875226,0.33555806,-0.10466762,0.23804212,0.20858912,-0.4083188,-0.055433366,0.08425226,0.119549595,-0.2991905,-0.041996337,0.19106406,0.23749408,-0.37568113,0.119582474,0.3655002,0.065047786,-0.18998536,-0.061993152,0.1755013,0.25977388,0.15888807,0.050010882,-0.12953272,-0.20228082,0.2685741,-0.16277778,0.22165152,-0.08681382,0.11362878,0.015841288,-0.11911786,-0.21324672,-0.29308563,0.010174555,0.23565772,-0.12635046,0.015437041,0.10715765,0.18524322,0.008422033,0.10110072,-0.06395674,0.13510124,0.05597669,-0.21418734,-0.22561504,0.050945833,-0.18452694,0.08927858,-0.28825682,0.21539359,0.04992937,-0.14904344,-0.07599241,-0.13085742,-0.24325088,0.2597681,-0.0018645568,-0.17639528,0.17021626,0.3344899,0.025404664,0.1533033,0.37092647,-0.066252016,0.07430993,0.22194697,0.20345828,-0.34558567,-0.30164576,-0.06805464,-0.019278387,-0.011084383,-0.27054006,0.27170676,0.11728613,-0.26050967,-0.025798695,0.40917778,0.06224611,0.010362615,0.019150833,0.37558594,-0.06161155,0.19291776,-0.15496525,-0.010255157,0.2066012,-0.10114897,-0.09839939,-0.010217796,0.14163364,0.11808389,0.28560117,0.07061083,-0.11366073,0.11595713,-0.051988203,-0.28813332,0.19507833,0.08778941,0.23866469,-0.024466265,0.16038705,-0.14765607,-0.1889942,-0.20284906,-0.16977416,0.21712953,-0.124800086,-0.11589823,0.31285357,-0.04434614,-0.060496457,0.05708032,-0.33655238,0.13251896,0.087510675,0.24793553,0.25341818,0.25235718,0.07638571,-0.19089088,0.0053741424,0.086042665,-0.15369956,-0.16975874,-0.51693976,0.17090935,0.26957104,0.09703168,-0.32137722,-0.010536057,-0.17943339,0.2405607,-0.1344294,0.15578488,-0.06431997,0.3474689,-0.15314701,0.1219068,-0.049211282,0.14221707,-0.14167112,-0.26974934,-0.01565162,-0.12863931,0.11258151,0.32501575,0.038639005,0.13814482,-0.11057639,-0.07897448,-0.33969304,0.2241161,0.09947628,-0.16316961,0.1628247,0.09394454,-0.048683167,0.14032511,0.16469866,0.31251425,0.04562464,0.2912938,-0.04926356,0.191738,0.00020673242,0.14433838,0.3041944,-0.0666361,0.074586324,0.02158403,-0.051588174,0.23412418,-0.289599,0.017999502,-0.012965384,0.025594685,0.15448597,-0.1629724,0.034267418,0.20857541,0.057601806,-0.27263972,-0.13394777,0.024949687,0.029350745,-0.23301531,0.08944066,-0.02716661,0.13152206,0.0040395395,0.06401718,-0.2981532,0.06125995,0.28242427,-0.015216207,-0.2203675,-0.077604435,-0.16148941,0.34012496,-0.2620495,0.14719285,0.3848394,-0.1878791,-0.06990075,0.22451495,-0.021485643,0.1393894,-0.12642731,-0.26231852,-0.092715636,-0.12771405,0.05195352,-0.29481405,0.32261038,0.31067064,0.0059271143,0.036782,0.13777483,-0.047206584,0.14226498,-0.11048274,-0.085052535,-0.08042498,-0.1585829,-0.021873038,0.01669021,0.061145335,0.016662203,0.09054133,-0.2179514,0.25375724,0.013527252,0.254635,0.05755148,0.058371965,-0.44247538,-0.25915086,-0.004217669,-0.08605108,0.06460007,-0.202835,0.36351326,-0.11813172,0.0070152106,0.0062656906,0.056639597,0.18932898,-0.17475522,0.18499263,0.16222356,-0.11349964,0.21072869,0.23618396,-0.05032242,0.07358816,0.08058068,0.036135696,-0.14665881,-0.14698252,0.23739693,0.12872244,-0.24298072,0.11003659,0.16198216,-0.2630964,-0.1150355,-0.103632964,-0.06940282,-0.21077336,-0.34151956,-0.09877672,0.2901245,-0.24473155,0.06251239,-0.041842874,0.086470895,0.09308989,-0.18946952,-0.0615672,0.2750922,0.06889883,-0.08637644,0.03962644,-0.18489608,-0.0575304,0.0639727,0.08518752,0.0047686477,0.0031184345,-0.019559527,0.36612725,-0.49879295,-0.08774928,0.064668074,0.057465862,-0.07780946,0.12993866,0.1912925,-0.43474936,-0.07099373,0.073481545,0.13889135,-0.2150732,-0.0008162884,0.017926749,-0.10526093,0.31062064,0.3299782,-0.070965655,-0.07113365,0.09773364,-0.24264339,-0.28387442,0.023971146,0.16233875,0.21033065,0.0059145433,-0.16713063,-0.0004971414,0.19294949,-0.15447313,-0.18371415,0.016387101,-0.15212269,0.203749,-0.043558273,-0.0076006157,-0.05673495,0.24571075,-0.12189294,0.19269612,0.12789576,-0.17964417,0.48116863,0.51600015,-0.16809492,-0.12997754,0.2229885,0.09538617,0.028379872,0.107969426,-0.20399722,-0.07779162,0.09416584,0.33520338,-0.03826362,-0.032723743,0.06309318,0.07780167,-0.23563354,0.033462644,-0.03685672,-0.15090652,-0.1538812,0.0074820374,0.061589133,-0.17261468,0.16273853,-0.03532874,0.30923694,-0.1177865,-0.123398,-0.13046658,0.18947516,0.021439798,0.07576618,-0.10983447,0.15909354,0.18812717,0.4306153,-0.35226285,0.30623224,-0.16784677,0.06739277,-0.09304101,0.0042877207,0.1678279,0.24699518,0.107495256,0.18125026,-0.03216428,-0.20797159,-0.111931905,-0.038487636,0.014240317,0.2444187,0.11806701,0.0015994691,0.08729692,0.23774737,-0.30698782,0.003390586,0.33569017,0.28306946,0.21973258,-0.0048696552,0.23085813,0.08085308,0.003472087,-0.04145171,0.022054993,-0.15569839,-0.0053087976,0.22365075,0.05467522,-0.06984861,0.06472131,0.06624425,0.021466004,0.25268534,0.0699139,0.18486913,0.18650351,0.23347177,-0.16336548,0.08530469,-0.19015554,0.15615019,-0.22982989,-0.14762656,0.12661129,0.15600258,0.21303149,-0.1302261,-0.004397691,-0.50182474,0.21633461,-0.33542696,-0.10628634,0.22190802,-0.065109245,0.54296476,-0.06436925,-0.25674826,-0.15905358,0.1351651,0.20266089,-0.1106741,0.37029785,-0.022316368,0.17788522,0.095962636,0.106669866,0.024707794,0.062700935,-0.14867222,-0.015316669,0.19705649,0.02336792,-0.048324116,-0.20933482,0.025816504,0.025088135,0.24296825,0.13056017,-0.20188409,-0.032505147,-0.06789769,-0.35931927,-0.048349164,-0.09129486,0.24132001,0.37158194,0.16209371,0.263406,-0.18711936,-0.116784446,0.08912676,-0.21051982,-0.20282137,-0.045193132,-0.045231856,-0.050022233,-0.045737125,-0.1341988,0.11058724,0.09939517,-0.19001131,0.3689134,0.11976704,0.18602863,-0.123051986,0.043853436,0.121249326,-0.061606687,-0.0127126975,0.19024481,0.043754738,0.16901268,0.15033823,-0.24668077,-0.26153183,-0.4010261,0.23768574,-0.0032078181,0.040422242,0.0154064465,-0.025689896,-0.23718922,0.038636632,-0.20941626,-0.07185281,-0.019213194,0.30077964,0.09511368,0.13208103,-0.24809176,0.11570865,0.23159333,0.14349216,0.09043821,-0.45668942,0.25127372,0.23061714,0.06523183,-0.008975802,-0.086213686,0.165699,-0.028682858,0.17017293,0.047359467,0.14777735,0.16940439,-0.032450538,0.030503405,0.13382988,-0.07529195,-0.108135745,-0.02046961,0.38421386,0.05971459,0.3061996,-0.29241627,0.3028366,0.34890488,0.24418987,-0.19902585,0.052321307,0.19657588,0.08968942,-0.20243633,0.047162637,-0.0714169,0.10016168,0.13299489,-0.09464657,-0.08658029,-0.092381105,0.25852486,-0.2615825,0.025583569,-0.123384826,-0.29419082,-0.002294018,0.07040555,0.01601133,0.40638357,-0.2743846,0.0888033,-0.098727524,-0.22113392,0.012054557,0.15917249,-0.112249024,-0.050074223,0.051002737,-0.014343969,-0.09662851,0.02210112,0.013840698,0.012810329,0.11505772,0.15644823,-0.19155042,-0.31910548,-0.14263646,0.0075655207,-0.24645163,0.01905252,-0.01224857,-0.06064961,0.15879275,-0.047194887,0.005879626,0.09263507,0.0039108456,-0.39016768,-0.07780746,0.06981542,-0.26055664,0.071073815,0.28062958,-0.08444736,-0.25819263,0.25460178,0.0047200355,-0.038436994,0.17843558,-0.21163382,-0.1608444,0.3009637,0.1185079,0.122137904,0.14584573,0.0906304,0.113549754,-0.118114635,0.24566017,-0.10468438,-0.21489154,0.026664257,-0.19668369,-0.01778609,0.050796825,0.24479131,-0.22648872,0.0007840148,0.011220666,-0.14922923,-0.1492735,0.3161577,0.14992517,0.047323886,-0.21369724,0.016698228,-0.19888394,0.47635236,0.25344643,-0.32490072,0.046702716,-0.14977095,0.13256054,0.15303136,0.25796965,0.02404838,-0.15971996,0.22705144,-0.2529037,0.0719538,-0.3277018,0.25305182,-0.079288125,-0.46470466,-0.19373718,-0.10615977,-0.21847013,-0.024108188,0.15000042,0.058687773,0.24877904,-0.112596735,-0.26587573,0.05361822,0.2642484,0.07717738,-0.1185708,0.023510568,-0.10981353,0.2745018,-0.003924908,0.15943423,0.15700027,-0.12040513,-0.15590975,0.3182391,-0.2575991,0.21864888,-0.12618461,0.12384353,0.08763644,-0.011957864,0.14668196,-0.21824367,-0.20778938,0.18139918,-0.079593286,0.07842992,-0.11513725,-0.06846918,0.32563156,0.079820976,0.1901475,0.030841371,0.004720557,0.2279845,0.052703783,-0.18935157,-0.1018461,-0.067422844,0.0020916276,0.022587378,-0.20900126,-0.06108605,-0.16117147,-0.026297366,-0.32571018,-0.054985736,0.064201124,-0.004002297,-0.20499547,0.1658903,0.103291154,-0.16643026,0.41963816,-0.013072816,0.06381738,0.048407424,-0.06658992,-0.029721081,0.047058724,-0.30350614,-0.41892758,0.20213905,-0.090282045,-0.03597998,-0.33318695,-0.25786173,-0.16505368,-0.08048264,-0.0852342,0.0154788485,-0.14396091,0.07506903,-0.06130251,-0.12711124,0.2639351,-0.47055706,0.07051384,0.13814187,0.028946612,0.13063864,0.089743845,0.18352546,-0.48729178,-0.19700837,-0.0702559,-0.007237575,0.16416976,-0.036245905,0.23278897,0.37358022,0.0016863939,0.054474,-0.11250464,0.16831823,0.0011446462,0.005179372,-0.2616732,-0.25139678,0.016569877,-0.3762429,-0.13543917,-0.13293815,-0.07213915,-1.3833807,0.12920086,0.5071231,-0.092811935,-0.15537879,-0.058330957,0.29322734,-0.20196423,-0.42741576,0.0884602,0.23249055,0.2276067,0.0790067,-0.2026684,0.104735434,0.12388021,-0.013082292,-0.1879241,-0.025254225,0.11277615,0.022138461,0.13010521,-0.017950749,0.05699009,0.16162685,-0.03583313,0.24756761,-0.099959105,-0.23451969,-0.103116,-0.03779345,0.0001583352,0.22864638,0.12435626,-0.11765106,0.19982299,-0.0069439462,-0.22465932,-0.2939978,-0.07945049,0.23177388,0.022064606,-0.0695992,0.19186483,0.24957754,-0.22709136,0.07739255,-0.17419799,-0.21464106,0.1720267,-0.08571426,0.133405,0.21440634,0.041997973,0.21393123,0.09138497,-0.42223558,0.124856025,0.23153731,0.005988754,0.056070536,-0.13125339,-0.12440153,-0.41407531,0.096246265,-0.20915136,0.06680648,-0.10050931,0.1927324,0.2002488,0.40964156,-0.073169,0.0068971324,0.21667396,0.1362709,0.10039272,-0.24373803,0.0011847283,0.13429946,-0.20859432,0.17438625,0.2358241,0.0037448097,-0.089432456,-0.05767781,-0.16380242,0.10014556,0.14095917,0.00071867683,0.0014925172,0.2863009,-0.0843787,0.016327059,0.18563858,-0.25111255,0.1298913,0.37944737,-0.026310943,0.17906582,0.24550612,0.06929088,0.099119164,0.32847995,-0.33340132,-0.10399732,-0.15436946,0.031767152,-0.012567981,0.08697593,0.06737321,-0.07368627,-0.23304087,-0.041196015,-0.057496667,0.031014457,-0.2879297,-0.10381691,0.13283391,0.02962087,0.39948905,0.0544455,0.16833913,0.281353,0.18247055,-0.33970585,-0.18048349,-0.41157085,0.21108817,-0.15107985,0.22044893,0.23121506,0.032040898,-0.1650189,-0.09529683,0.033920977,-0.024020264,0.25197688,0.14932075,-0.027591228,0.09247102,-0.061104733,-0.02998921,-0.18769042,0.12944917,-0.05523083,0.103107795,0.27405503,-0.27851275,0.15349817,-0.37011763,-0.1031436,-0.26768157,0.07320059,-0.0403678,-0.105411425,-0.18582419,-0.062334087,-0.18407816,0.026520139,-0.012133104,-0.050544422,-0.030638235,-0.34230652,0.03724714,-0.17071314,0.10112574,0.29765233,-0.11702289,-0.020682244,0.066787556,-0.25123593,-0.2408543,-0.33622622,0.040930767,-0.06418899,0.15120912,0.22979423,0.07305801,-0.21661822,-0.18508165,0.002510168,-0.24929547,-0.24150833,-0.08016913,-0.034669112,0.04887994,-0.2907564,0.046535127,-0.22422093,-0.07585978,0.028336711,-0.092054226,-0.09657555,0.18260726,-0.549259,0.23296738,-0.20302868,0.0319351,0.26359704,-0.10469387,0.25115612,-0.037942793,0.10355869,-0.08899742,0.30019638,-0.03503193,-0.10248817,-0.12640384,0.12146279,0.556546,-0.08494857,-0.047915023,0.15464035,0.052358594,0.2204061,0.088185124,-0.028123112,-0.018116318,-0.31531388,0.30545428,-0.11757918,0.16852577,-0.15530126,0.16629021,-0.013378183,0.15270476,-0.14202948,-0.30755195,-0.08371723,-0.0790154,0.051711548,-0.050618224,-0.29628542,0.2840319,-0.1962657,-0.040239528,-0.32379994,0.008428674,0.013142676,0.043813795,-0.23969972,-0.2026326,-0.073064946,0.027794173,0.129201,-0.12966423,-0.16247874,-0.18290043,-0.36177865,0.018145744,-0.13025047,0.08072855,-0.3471675,0.12613885,0.041683085,0.011611651,-0.041794438,0.27406037,0.13859458,-0.36410126,0.08663391,-0.22658935,-0.118227705,-0.02469904,0.01607929,0.11666721,-0.08920322,-0.06723447,0.22238687,0.44778273,-0.29934385,0.021564255,-0.26222223,0.01638752,0.023977913,0.13536839,0.07576417,0.26211354,0.16378604,0.12129244,-0.21388301,-0.40992513,0.10548004,-0.14925112,-6.947738,0.08353071,0.30237064,0.14481357,0.11459626,-0.15550128,0.017620537,-0.1729224,0.29924884,-0.05016099,0.0864332,-0.074872606,-0.10417494,0.06321407,-0.37851655,0.09283871,0.27258682,0.112639196,0.19770125,0.21117392,-0.5244678,0.15496252,0.14251284,0.37234575,-0.121333756,-0.14182982,-0.3676624,0.034667667,0.12729092,0.07437893,-0.24772282,-0.20234184,-0.032685187,-0.15550362,-0.27289152,0.15261638,0.032174814,0.044909805,0.4332867,0.15743305,0.20870413,0.041440748,-0.11871478,-0.0213091,-0.19773057,-0.12584765,0.2415633,-0.16171041,-0.33724126,-0.16069803,-0.016251769,-0.03950492,0.25586608,0.1327906,0.22118013,0.12541486,0.0512822,-0.4932993,3.4668992e-06,0.05269919,0.31304386,0.079507306,-0.19958572,0.05953409,0.069545366,0.1642323,0.22707698,-0.21422075,-0.16010962,0.2652868,0.19929002,-0.21453781,-0.10541645,-0.2346182,0.049120404,0.06182485,0.012567408,-0.06592191,-0.23663437,-0.28059912,0.012619707,0.13906243,0.09946025,0.032719593,0.2274342,0.0037652757,0.047376424,-0.11994132,-0.41076696,0.5556181,-0.06724838,0.3387811,0.090879746,-0.231765,-0.14364377,-0.30155662,-0.040510613,-0.017908208,0.2606951,-0.0522473,0.12552567,-0.06080251,0.0076782964,0.032723423,0.09454257,0.20149568,-0.10516567,0.23000734,-0.014428839,0.14580688,0.019901063,-0.2981248,0.017699305,-0.09255728,-0.08863702,-0.061603222,-0.0013178125,0.04257966,0.2274509,0.2587052
GLU_5_A,0.08268641,-0.30906534,0.003464442,0.19785877,0.09163853,0.027756555,0.21597111,-0.34785494,-0.26987955,0.11691777,-0.03962168,-0.05205757,-0.012179002,-0.008689401,-0.07060333,-0.2267401,0.07581737,0.12249522,-0.091320194,-0.10534111,0.19163527,0.11261877,-0.42920852,0.44464484,0.013245758,-0.0035635526,0.085365444,-0.2566284,0.19555078,-0.16166084,0.033540346,0.040188823,0.08196181,0.14154379,0.08225621,0.01846221,-0.20667532,0.023367701,0.058236156,-0.014875899,-0.13049082,0.034034215,0.25787425,-0.11906509,-0.06606265,0.019388972,-0.2064804,-0.09630936,0.07502973,-0.28425634,0.14654209,-0.26363263,0.1017839,0.048845634,0.013227775,-0.12826452,-0.18475135,0.25973898,0.19065891,-0.18537647,0.031556003,0.08753206,0.18652898,-0.12025018,0.26200193,0.048197232,0.25628254,0.0015198162,-0.23548682,0.28733137,0.04612867,0.05776982,-0.057591524,-0.13794784,-0.31442347,0.103741296,-0.18297954,0.1142814,0.19805272,0.11346116,0.18623282,-0.084753245,-0.034413364,0.20463267,-0.18210854,0.12599313,0.1282195,0.38697398,-0.17418216,0.3112883,0.0040698545,-0.08414874,-0.13709752,0.13286664,-0.08353701,0.12398539,-0.13612501,-0.18056065,-0.13935865,0.24899726,-0.15032415,-0.2816801,-0.091965824,-0.042143553,-0.010626611,0.020882279,0.00842621,0.19233818,-0.2601684,-0.06620382,-0.024752056,0.061995123,-0.013500529,0.1561197,-0.17843652,-0.24590775,0.3040472,-0.030929945,-0.08856245,-0.0624415,-0.043252777,0.09319387,0.094044164,0.11282168,-0.033291962,0.017922765,0.24129179,0.06976818,0.041624386,-0.13765489,0.049849734,-0.2795632,0.23063786,0.3171018,0.13597073,-0.12007393,0.009757581,-0.033056755,0.028768651,0.19559234,-0.037033368,-0.22674528,-0.07011438,-0.07526239,0.033889737,-0.22795647,0.24817912,0.044797033,0.25011468,0.18358131,-0.06252063,-0.16388452,-0.085311286,0.03336829,0.065734416,-0.08876688,-0.038811903,0.18537217,-0.41520587,0.046786312,-0.021932548,0.52719617,0.19867244,-0.007386447,0.12564702,-0.030066846,0.13896435,-0.05536964,-0.22017527,0.27390867,-0.21132818,-0.16581899,-0.39134103,0.055286784,-0.09517976,0.06881314,0.111303516,0.082898155,0.014323722,0.13130453,-0.08674637,-0.057561815,0.24551742,-0.062425807,-0.33141172,0.05818304,-0.06592657,-0.05421196,-0.37239528,-0.12890767,0.33406323,0.09184115,0.033148225,0.26769552,0.29571104,-0.13944769,0.15352745,0.0757102,0.005066771,-0.26596752,-0.105285786,0.04189551,0.29921457,-0.1319881,0.012148482,0.067313895,0.09147901,-0.02182272,-0.209756,-0.01775555,0.036246683,0.13319042,0.10090752,0.06922388,-0.16773725,-0.060482975,0.14699745,-0.050079238,0.024969121,-0.09293382,0.22989558,0.07594897,-0.07815661,-0.011208681,-0.07469475,0.036891136,0.1426586,0.14816204,0.16348757,-0.08003452,0.22561154,-0.014126171,-0.20206565,-0.30790654,-2.0720901,0.18501447,-0.1499057,0.09479301,0.03822072,0.0323356,0.17305915,-0.18445633,-0.24869263,0.066256866,0.09630494,-0.12502167,0.0043799113,0.16968901,0.23031116,0.0964452,-0.014670011,0.18670654,0.08770398,0.2811286,-0.0068237744,-0.0899239,0.03718326,-0.099884555,0.09333358,0.057174828,0.15197286,0.23739779,0.036745634,-0.22431467,-0.20234221,0.1675313,-0.065036856,-0.20324437,0.23344879,0.01355302,-0.00733789,0.12912218,-0.21740124,0.061366323,-0.15779646,-0.1192422,-0.14185424,-0.20516627,0.02698468,0.12679277,-0.110580735,0.12391113,0.16235581,-0.05570119,-0.27533847,0.27409604,0.10167574,0.093453534,0.1680481,-0.31477275,0.037150286,-0.43006414,-0.045975283,-0.15332773,0.017281719,0.14281105,-0.12141438,0.09665061,-0.0048854565,0.05915289,-0.07661942,0.04003528,0.045364976,-0.049007453,-0.016813163,-0.13328259,0.38110822,-0.32340986,-0.15021063,-0.071352236,-0.013297443,-0.103818975,0.045534216,0.23416504,0.16958821,0.16328451,-0.17947596,-0.19019413,0.036424186,-0.126596,0.07159067,-0.052352894,0.15482032,-0.005052978,0.17125665,-0.06239604,0.09639608,0.15528736,0.16086596,0.024308503,0.044590414,0.1620025,0.20113906,-0.28342697,-0.29749927,0.12116707,0.08840255,0.1576016,-0.056903772,0.1359206,-0.083857566,-0.14785977,-0.19356959,-0.047108836,-0.046762154,-0.24966863,0.280132,-0.26549828,0.14818963,-0.104315676,-0.11149173,-0.20478994,0.0913942,0.009169255,0.045112815,0.024673177,-0.048589338,-0.25779393,0.01478524,-0.03446012,-0.07147336,-0.07958843,0.047500327,0.025603782,-0.16834514,-0.12906328,0.07595424,-0.13005249,0.05157592,-0.040552784,0.12534142,0.14840247,-0.14242448,0.21425766,0.10086954,-0.113000765,0.32708922,-0.11232391,-0.10136683,-0.13571772,0.01402038,0.12540634,0.060006753,0.0622758,-0.029526986,0.06376724,-0.052231576,-0.30100578,0.01924644,-0.16121575,-0.19131112,-0.02133188,0.22336923,0.15522999,-0.060249146,-0.0366835,-0.3298727,-0.124800056,0.018523918,-0.013133079,-0.081053525,-0.08819662,0.04933279,-0.06329274,-0.3310978,0.0965609,-0.044663202,-0.17446458,0.203085,0.18984497,0.039083075,-0.09410912,0.28418863,0.007055519,0.18781996,-0.22195016,-0.12298801,-0.14730665,0.045888223,0.24185286,-0.17769253,0.07238769,-0.025674228,0.10662065,-0.11249158,0.08256911,0.15065405,0.03526076,0.10454157,0.11599399,0.04132212,-0.22401103,0.06905045,-0.44714376,-0.17437312,-0.14768311,-0.017865404,0.3869764,0.09919846,-0.010196843,0.17191012,0.19492899,-0.12672591,-0.14050095,0.12793541,0.17845748,0.16836579,-0.034422364,-0.17601293,0.017564457,0.25709838,-0.17653242,0.19266315,0.031446412,0.5093825,0.2929888,0.2690688,0.24453607,0.019812692,0.030698692,0.20757952,0.01775001,0.04723299,-0.0820987,0.11629393,0.1640086,-0.005867529,0.057014994,0.053555507,-0.26489708,0.13806564,-0.24298455,-0.058459256,-0.21132842,-0.039943725,-0.020346686,-0.025979301,0.102992065,-0.24441507,0.22897942,-0.28562066,0.27671313,0.0078037777,-0.07662944,0.18165733,0.09659473,-0.051646825,-0.036510844,-0.07452862,0.06621573,-0.06595817,0.20152414,-0.2804125,0.08602153,0.008713711,0.02318301,-0.12431111,0.07267731,0.16795777,0.07297856,-0.12824897,0.14374988,0.0018775405,0.13633874,-0.1545188,-0.039655846,0.1597551,0.16379313,0.28178015,-0.30792844,-0.04897179,-0.122118086,-0.058624767,0.03140879,0.23515528,-0.07853049,0.27247536,0.013526621,0.24964945,-0.01053618,-0.0010301194,-0.08528479,0.1761374,-0.1944949,-0.121076144,0.0022020284,0.22113842,-0.1456058,-0.223493,-0.0011450629,-0.06104838,0.20797302,0.10603459,-0.044498295,-0.14538409,0.13480729,-0.22101066,0.21051723,-0.040011745,0.12967798,-0.0376522,0.019984102,0.28013748,0.14012475,0.15051302,-0.065388225,-0.062885076,-0.054268524,0.16786136,0.17064469,-0.14245024,0.03495819,-0.22767587,0.12570918,0.1755258,-0.18863802,-0.18220219,0.1052498,0.1824218,-0.3458356,0.28187612,0.09905824,0.22868748,0.0769799,0.15795386,0.07990106,-0.07353457,0.03004035,-0.05448789,-0.1042561,-0.18426266,-0.023204843,-0.044633944,0.16665012,0.28237474,0.16552064,-0.08786271,-0.18724334,0.0057232818,0.021515612,-0.24652784,-0.014873251,-0.046957504,0.06793403,-0.014605449,-0.121706925,0.082863554,-0.18223289,0.009606476,0.23655128,-0.060553886,0.08167609,0.12540363,-0.31933838,0.10203083,0.2548466,-0.25168788,-0.007249024,-0.06081611,-0.059772145,-0.05993248,0.23431408,0.112598136,0.1053077,-0.13402613,0.21799569,0.08634645,-0.11133088,-0.20043898,-0.110442504,-0.054902088,0.092682324,-0.084496886,0.016037254,-0.30287126,0.40545186,0.006034913,0.20032828,0.069336444,0.21527289,-0.19460966,0.08894848,-0.21684822,0.06911805,-0.13487047,0.13080597,0.1393243,0.005107924,0.034885153,-0.09061329,0.22148813,0.14816795,-0.16032855,0.01861929,0.06927155,0.11415712,0.11836919,-0.2752808,0.03724101,-0.008333859,-0.0038851465,-0.037349034,0.10691859,0.23438251,0.12161353,0.0013292837,-0.022132069,-0.05163091,0.07778747,-0.11779543,0.28740433,0.23254375,-0.032608435,0.052098062,0.00061347766,-0.20343421,-0.13634005,0.06358777,-0.29185426,0.15093304,0.23696285,-0.03914262,0.13830051,-0.18524306,-0.09525709,-0.015126529,0.11391139,-0.048692998,-0.0026420224,-0.09077785,0.08546989,-0.3285207,-0.24164815,-0.19932278,-0.31924343,-0.015999502,-0.13321929,0.034350283,-0.19868237,-0.07213251,-0.12684675,0.03279766,-0.07552726,-0.24035077,-0.06679197,-0.05183446,0.14635655,-0.21216977,0.024214724,-0.19496825,0.060402915,0.12053921,-0.10922926,0.25690582,0.21448933,-0.025271464,-0.14764789,-0.11126101,0.4436915,0.35446158,0.18796429,0.07975621,-0.16263954,0.015409575,-0.15965454,0.24053039,0.18840586,0.09090142,-0.2827743,0.051334582,-0.09843254,-0.011720123,0.10159547,0.19643919,-0.2780681,-0.109151,0.037822973,-0.06292593,-0.003781346,0.1027524,0.214836,0.13316047,-0.060711473,-0.07117395,0.2048121,0.08117129,-0.107508205,0.14917037,-0.09533448,0.4817578,-0.17554878,0.059435267,0.08191274,-0.12122597,-0.1497553,-0.1260794,0.34008107,-0.027540078,-0.12096017,-0.17870645,0.09823556,0.17746083,0.022382922,0.04183191,0.02834997,0.038304027,-0.08981483,0.009884548,0.19707592,0.025560094,-0.25926155,-0.1778247,-0.13524964,0.04502262,-0.06349968,0.041216888,0.12874657,-0.09297197,0.118946925,-0.22573037,0.10627511,0.024577474,0.07454897,-0.09349871,-0.061553665,-0.013655579,-0.029073372,0.0039459686,-0.01608518,0.06941017,0.06465113,0.22268464,-0.29947007,-0.08492334,0.015213716,-0.08857204,0.029507294,0.07444174,0.14415191,-0.094992734,0.12503041,0.0035938194,-0.26600838,-0.19680864,-0.29324082,-0.06143847,0.16187021,-0.025701188,0.07749767,-0.19055697,0.10662082,0.24085525,-0.008914782,-0.06510096,-0.15349285,-0.24193123,-0.08346696,0.08443448,0.109578386,0.16386153,0.022384526,0.14107418,0.22363544,-0.017245937,0.3204736,0.033055227,-0.09062458,-0.051564164,0.09650882,-0.22277607,0.080558054,-0.006764609,0.08476352,-0.21885195,0.01844425,-0.01522414,-0.025253562,-0.17382185,0.089328825,0.16925864,-0.057525117,-0.07778685,-0.010134865,0.0033754886,-0.09986608,-0.053493656,0.38430715,-0.10584296,0.06824819,-0.016859965,-0.12048267,0.20035982,-0.093455836,-0.17621507,-0.044603284,0.15159577,0.061958686,-0.21809693,-0.22830859,-0.11432579,0.105748914,0.18128817,-0.038386,0.032965165,-0.03942025,0.047731098,0.012334174,0.12461866,-0.21976762,0.104844324,0.23379433,-0.026293552,0.039101813,-0.12957054,-0.07117487,-0.52488226,-0.23930492,-0.053700313,-0.008157447,0.22465977,-0.0042848433,0.31485507,-0.11547338,0.27965486,-0.14338253,0.030363217,-0.074548185,-0.106385946,-0.038356256,0.11274211,-0.2280215,0.08799851,-0.06881805,-0.08617618,-0.12776798,0.14291082,1.5597086,0.3698755,-0.05960228,0.059622727,-0.106334865,-0.0879323,0.12423258,-0.15062416,0.093538426,0.0841233,-0.01285637,-0.012270801,0.039557725,0.015527529,-0.26966545,0.17731099,-0.03534071,-0.124453835,-0.027089285,-0.05882704,0.16724324,-0.01625903,0.09247869,-0.06744445,-0.4096156,0.08397276,0.06974826,-0.115189314,0.22476053,-0.20213519,-0.19116625,-0.11553779,0.10047859,0.2955074,0.0500303,-0.20943418,-0.2790365,-0.030278806,-0.024883233,0.08113504,0.032936513,-0.026215058,0.06637629,0.16034715,-0.046863742,0.10328181,-0.031005485,-0.051598538,-0.006834077,0.1496695,-0.37573746,0.13706142,0.25355422,0.0009681835,0.046531945,0.028573086,-0.19908828,-0.07939142,0.17805922,0.06996832,-0.15177394,0.030582005,0.11468959,0.13196376,-0.004942719,0.013679084,0.25720277,0.2611037,0.19968078,-0.03081592,0.17794092,0.21484151,-0.13515572,0.11666756,0.122028336,-0.11154983,0.03181699,-0.16258363,-0.09836158,0.20393726,0.19412273,-0.1332723,-0.0521644,-0.16304703,-0.083153106,0.07916611,0.17044416,0.2636216,0.1335238,-0.2416369,-0.12565166,-0.1474447,-0.097220756,0.27674732,-0.0044755107,0.092815466,-0.17312235,-0.12657452,0.035275586,-0.08698797,0.062255755,-0.15786594,0.24141797,0.062028036,-0.0635818,0.052819148,-0.011020128,0.098767765,0.24130084,-0.038193878,-0.03004794,-0.09303247,-0.005430841,-0.079518355,-0.16949148,0.036689278,0.22322664,0.19207211,0.00895195,0.1665037,0.18281537,-0.009770002,0.01753365,0.045972273,-0.108904,0.0016456892,0.005108201,-0.049001776,-0.018433692,0.039540123,0.17403439,-0.12734367,-0.21262954,-0.26276785,0.19784252,-0.09885661,0.4579001,0.18740708,0.041530043,-0.08747825,0.32217786,-0.262613,0.13389231,-0.103582956,0.20359772,0.24677958,-0.028552761,0.1547201,0.05444857,-0.20356679,0.16554275,-0.1508585,0.121499166,-0.14007634,-0.1749194,0.119461365,-0.059223328,-0.11336563,-0.08410627,0.2464706,0.13198452,0.027826363,-0.101539426,-0.29772574,-0.03624201,0.10007381,0.057071213,-0.071956515,-0.0040114787,-0.005910533,0.4063464,0.001954042,-0.0010092859,-0.10934257,-0.02532884,-0.13504401,0.12850375,-0.11885843,-0.21794328,-0.4085412,0.25212398,-0.20534188,-0.06420979,0.088905096,-0.08893428,-0.017424027,0.07002871,0.0949017,-0.10388998,0.014423845,0.21110202,0.029823637,-0.011718829,0.12040115,0.15883419,0.069435164,-0.11602677,0.153889,-0.06216937,0.12771322,-0.18782902,-0.034606636,0.058645092,-0.12702273,0.2171379,-0.029289987,0.113410704,-0.10885262,-0.041369192,0.09765393,0.17052154,-0.322199,0.2206597,0.15413836,-0.015930017,0.013029695,-0.09454355,0.0027242717,0.025577387,-0.03694344,-0.022373889,-0.04052451,-0.012746239,-0.04986851,0.00011220908,0.0542506,-0.097440004,-0.078448355,0.16475299,0.121752866,-0.055448733,-0.27521044,-0.24791847,0.31384516,0.01960387,0.109105885,-0.21152835,0.31329653,0.28761867,-0.07275313,0.012172396,-0.06319801,-0.031875893,-0.16081578,0.24679372,0.09420332,0.054093257,-0.15820552,-0.29809386,0.012715805,-0.00032594183,-0.13536139,-0.12491765,-0.019785585,0.04068457,-0.040276308,-0.07632138,0.0535002,0.18126555,-0.17257334,0.12096886,-0.10785712,-0.14144607,0.05927863,0.054312523,0.13956633,0.09391906,0.0039904667,0.14254919,0.036512002,0.13751483,0.05976089,0.18435752,-0.16607702,-0.0199712,-0.04838033,-0.043872777,0.21728627,0.073762074,-0.101821214,0.05000492,-0.07423055,0.10048941,0.1809424,-7.7798066,-0.2636536,-0.11646699,-0.27015448,0.026639547,-0.025963146,0.10205851,-0.1970055,0.0357496,-0.022075322,0.12544121,-0.11101344,-0.175585,0.01655193,-0.037676204,-0.10620547,0.17790629,-0.055369668,0.19706775,0.08824199,-0.48636442,0.18318789,-0.18618523,-0.020663073,-0.14369453,0.1582524,-0.3641017,0.028448965,0.04691655,0.4491912,0.018671267,-0.02677021,0.11715466,0.058055054,0.09725413,-0.01082004,0.19760178,-0.20212664,0.15994635,0.16843694,0.04359756,-0.079511605,-0.040202633,-0.28822774,0.0719151,-0.18935534,-0.2313133,-0.06706362,-0.18883106,-0.03554247,-0.16116394,-0.12145889,-0.26003325,0.1714116,0.25179142,0.0065106438,-0.1522232,-0.18664251,0.029794408,-0.03160994,0.21130538,-0.08472332,0.066230744,0.0630805,0.02122498,-0.052204404,0.05388285,-0.03837965,-0.0030181487,-0.006512582,0.2835674,-0.114166036,-0.09234069,0.23779549,0.12508082,-0.0106108235,0.3344799,-0.012651954,-0.046450656,-0.1811623,0.11183644,-0.0014070587,0.03363178,0.19511628,0.17915656,-0.09715325,-0.037038602,0.10047287,-0.21981385,0.13182762,0.04985945,0.00086473394,0.10514179,-0.22857693,0.17824505,-0.12411515,0.12879486,0.054101635,0.09805783,-0.09767858,0.013756724,-0.037585784,0.17696066,-0.040252883,0.16705187,0.14878333,-0.24507554,0.2858848,-0.01169323,0.16898304,0.44867975,-0.0011053182,0.09101893,-0.29806626,-0.18105057,-0.048507474,0.13036232,0.15937635,0.005903457,-0.109565884
ARG_6_A,0.1973979,-0.30561832,-0.21101642,0.21562785,-0.1068631,-0.10005538,0.5108465,0.064230464,-0.2703465,0.06373852,0.07418451,-0.01792195,-0.1582017,0.1244145,-0.20803383,-0.18533337,0.14329356,0.15719955,-0.17564727,-0.0013122675,-0.0024751958,0.087254494,-0.10522166,-0.28088793,0.29144713,-0.042397406,0.012241579,-0.23134294,0.12947732,-0.30548048,0.2716588,-0.5232776,0.11682892,-0.07975134,-0.12800983,0.12844494,-0.107641645,0.089486614,-0.20019804,-0.17984356,-0.021607513,-0.03127759,0.19070108,-0.2164001,-0.012471205,-0.42290872,-0.5586457,-0.45328772,0.07778647,-0.22940668,-0.055643957,0.08460182,0.12495072,-0.042088576,-0.17009212,0.037287734,-0.12253525,0.075941965,0.40176663,-0.116872035,0.10680096,-0.111071534,0.15446271,-0.006148848,0.13674393,0.16609836,0.20493707,0.3621706,-0.19047315,0.23454256,0.08449049,-0.11992432,-0.09390433,-0.26954213,-0.34105745,-0.019213472,-0.18359576,0.11553394,-0.1460899,-0.24034679,-0.114257425,0.11456526,0.04543359,-0.12983316,0.22198218,-0.036815785,0.0070075523,0.3751222,-0.32437915,-0.37673125,-0.037757795,-0.18212566,0.13752955,0.0934266,0.20293725,-0.104760416,0.044291552,-0.05501892,-0.04943241,0.10795374,-0.017946415,-0.06877245,-0.25466552,-0.40737623,-0.11717624,-0.1676474,0.06710368,0.02237825,0.27277687,0.1209951,-0.097222805,0.03904858,-0.01856587,-0.021720434,-0.2433405,0.36893994,-0.11256311,0.10584923,0.00025492324,-0.0035131664,-0.37809217,0.14477132,0.2329611,0.25367394,-0.05454493,-0.05344149,-0.2729552,-0.014010332,0.21043465,-0.4423481,-0.17261493,-0.29380316,0.18482879,0.15686531,0.17123495,-0.12682743,-0.11873873,-0.027477922,0.15225476,0.19177575,0.28461185,-0.026966888,-0.23361105,-0.12707706,-0.25246474,-0.15658413,0.42296922,-0.05348132,0.4985835,0.16169819,0.10097844,-0.098313846,0.12502846,-0.24197176,0.046012532,0.07680454,0.027320525,0.33429238,-0.4803361,-0.021317327,0.09436198,0.28363115,0.10825019,-0.016862927,-0.046671424,-0.08448533,-0.23338844,-0.15104468,-0.18517803,0.2852514,-0.011070377,-0.19218555,0.054383054,0.28251806,-0.08971838,-0.10999768,0.016485754,-0.009130215,0.028847335,0.11122952,-0.07526044,0.045304548,0.23920809,0.018646393,-0.19198735,0.3409337,0.1756136,-0.10084554,-0.23016798,-0.041380603,0.16306111,-0.2004906,-0.2438544,0.18044527,0.09251395,-0.13478526,0.18600142,0.32031503,-0.061319824,-0.33393538,-0.0026739093,0.23495623,0.17434248,-0.2319405,0.15445963,-0.12658665,-0.06086323,-0.0406446,-0.20011365,0.14423198,0.12391958,0.047020428,0.3393489,0.061071873,-0.4143126,0.2498086,0.1849055,0.16157696,0.2361872,-0.019488487,0.19529088,-0.18967277,0.23437758,-0.23525377,0.20763858,0.10441401,-0.0853364,0.008852077,0.17439602,0.146046,-0.09422111,0.021269752,0.2346271,-0.37757024,-0.58355254,-0.17405444,-0.058660824,-0.20666437,-0.027510224,-0.056763593,0.20603831,-0.34260827,0.25001088,-0.009472879,-0.14421271,-0.112248436,-0.013347166,-0.17935652,0.27994135,0.052633714,0.12747656,-0.05729092,-0.10724876,0.43394116,-0.06792426,0.1276184,0.2904296,-0.2405513,0.15693896,0.0008164458,0.023992307,0.13841273,0.12434001,0.29746678,-0.08215604,-0.07920453,0.29495907,0.036826897,0.033606954,-0.15711616,-0.23767778,0.03412528,-0.36046594,-0.1574941,0.3485076,-0.2887867,-0.4785449,0.20664558,0.045501232,0.0014660272,0.107387625,0.40594748,-0.119987436,0.087632105,-0.24413161,-0.0527807,-0.029584706,0.09937527,0.074451014,0.114025295,0.19530676,-0.4108784,0.15070304,-0.20907792,0.10921148,-0.038715675,0.02118004,0.33592686,0.347268,0.19642267,0.0030592396,-0.058989406,-0.04232114,-0.22120917,-0.28371337,0.06469398,0.3095938,-0.15973805,0.07841916,-0.067870535,-0.037806533,-0.010673063,0.0033363632,0.0622377,-0.054735642,0.14643653,-0.04943388,-0.24631779,0.35709953,-0.39851254,0.10960409,-0.1885559,0.18968931,0.041285254,-0.0046021333,-0.03845056,-0.042115424,0.31099537,-0.014416099,0.15972528,-0.15703313,-0.30509934,0.3215789,0.06310473,-0.27164432,0.2915262,0.40543398,0.02898274,-0.014201358,-0.046154693,0.34051573,-0.05614508,0.07849251,-0.061643995,0.14230563,-0.060650643,-0.12746179,-0.1529107,0.27840018,-0.073688395,0.2541253,-0.029884053,-0.19877103,0.23121879,0.0068456484,0.21679012,-0.33059102,-0.34995994,-0.09249341,-0.17705071,-0.05519564,-0.3176975,-0.12972425,0.060437508,-0.07339759,0.06329914,0.07950172,0.21006796,0.17567615,-0.14486636,0.004616014,0.31142586,-0.012447746,0.024013048,-0.09762327,0.105744176,0.26175553,0.19584253,0.10020295,-0.20744725,-0.082165256,0.17664593,-0.15665007,-0.007612844,0.033205666,-0.11957367,-0.09867246,-0.39838076,-0.16541545,0.07060293,-0.0117256865,-0.09801326,0.07981888,0.09552718,-0.17714885,-0.19844821,-0.03498343,0.023896573,0.022009777,-0.025895748,0.04676513,-0.20650232,0.07939319,-0.03392572,0.08461132,-0.012095551,0.1091877,-0.1111079,0.2017312,0.08727054,0.16009703,-0.13605118,0.26231968,0.2545927,0.25269514,-0.07449614,0.06676727,-0.041096527,-0.53698146,-0.3153723,-0.38537022,0.2004709,0.12958749,-0.22255021,0.0128401825,0.09087475,0.29485694,-0.07897448,0.235488,0.1235772,0.14681971,0.019310866,0.10320113,-0.1400863,-0.12439327,-0.05098429,0.07292499,0.020679135,0.1416145,0.1842246,0.058402374,0.16407537,-0.34111062,-0.02401214,0.22545132,-0.17165276,0.30131724,-0.078113824,-0.13933736,-0.04548603,0.26523796,0.008366262,0.16978334,0.033560112,-0.11585186,-0.012481712,0.048042852,0.38258722,0.109368004,0.017022895,-0.089891605,-0.10934933,-0.108730465,-0.093104996,0.0017715432,0.09455577,0.17519784,0.3580401,0.26148504,-0.36928603,0.08382633,-0.049172923,0.17224528,0.022807978,-0.0025214655,-0.10788191,-0.13477004,-0.24598591,-0.1037418,0.21087858,0.33602297,0.05072747,0.05168247,-0.11780079,-0.14997296,-0.15785143,-0.15472907,0.07276615,-0.04175134,0.071129225,-0.01660762,-0.07582137,0.025447998,-0.13638522,0.18270254,0.100485735,-0.16719902,-0.14180908,0.17993742,-0.23382762,0.08247384,0.1376244,-0.13399763,-0.1454652,0.012620228,0.19529472,0.0011804115,0.078614175,0.18091035,-0.5069893,0.1837614,0.27056023,0.020621678,-0.08976678,0.23390357,0.18165386,0.035730954,-0.08477279,-0.009896383,0.14080906,-0.011118024,0.008982627,0.021765115,0.11046498,-0.086178176,0.095492296,0.4126711,-0.09243699,-0.021344932,0.053930227,0.09732892,0.2733248,0.00034578436,0.14734307,0.046526544,0.15440789,-0.18663944,-0.0011037827,-0.022754792,0.15882276,0.013254155,-0.13122615,0.19707581,0.1181449,-0.02432041,-0.04132268,0.0570811,-0.20935676,0.3335053,-0.09590865,0.05147589,0.060988393,-0.34288448,0.039140373,0.015267454,-0.30332515,-0.29222926,0.1366778,0.18359315,0.0640341,0.25012743,-0.1294613,0.22655828,0.13777936,0.2997734,-0.1564341,0.19212016,0.4003031,-0.05578669,-0.1307309,-0.04035055,0.38001606,0.39539254,0.18489212,-0.13306035,-0.06718837,-0.14395662,0.037604086,-0.04562482,-0.007155712,-0.11114452,-0.024404151,-0.18612793,0.3805874,-0.45237994,-0.2631099,0.17962112,-0.12734896,-0.066082604,0.26756972,-0.008584836,-0.056941014,-0.28369454,-0.19606757,0.15263735,0.036442537,-0.0029812334,0.05476075,-0.04887062,0.044003736,-0.17015466,0.22207007,0.31130624,0.07520443,0.12888533,0.15064564,-0.35815483,-0.065568715,-0.08310337,-0.15476124,0.04619192,0.39926624,0.06444216,-0.42527273,-0.14094883,0.33900025,0.03354777,-0.2084177,-0.11175399,0.0562254,-0.16015814,-0.039052043,-0.07070947,-0.17008422,-0.02803973,-0.019155331,0.26595363,-0.19274837,-0.12653774,0.15076245,-0.020834377,0.29306877,-0.16031088,0.10254258,0.15789394,-0.0065161576,0.13892344,0.15347923,0.06288618,0.2369342,-0.16756427,-0.1374817,0.18235013,0.23527423,0.15536281,-0.25800562,0.044952624,-0.21070032,0.21154818,0.10675363,-0.44270018,-0.022810686,0.019577542,0.035635214,0.24217749,-0.016534356,0.32387373,-0.007265859,-0.50792027,0.14141421,-0.07188003,-0.16673549,-0.058804855,0.028620867,-0.22055368,0.38621414,0.3475001,0.40765432,-0.034588166,-0.22824351,-0.16097304,-0.052992556,0.22330512,0.102516554,-0.0668749,0.16784258,0.1365687,0.14035861,-0.10242414,-0.100967996,0.00839428,0.097393274,-0.08784324,0.45899776,0.047745544,0.012399607,0.4839426,-0.09626296,0.13882631,-0.14985883,0.1541138,-0.20492506,-0.15709287,-0.19348,-0.012988332,0.02647053,-0.3501973,0.28919092,0.32212454,-0.04320225,0.05404333,0.032367695,0.14598201,-0.053034186,0.048578076,0.07176457,-0.053634547,0.26602656,0.16064627,-0.0020060427,0.07221496,0.06339921,0.15998062,0.2768094,-0.2355607,-0.023632048,-0.028311009,-0.119719476,0.29033405,0.304494,0.22615187,0.07824671,-0.25862134,-0.107174546,0.15642346,0.10889669,-0.0924643,0.0047392226,0.24156675,0.27781132,-0.03640328,-0.2123259,0.16506702,-0.36202013,0.058894463,0.013816236,0.7227567,-0.29149184,0.090584554,-0.123203605,-0.15119262,0.33152157,0.15446584,0.013829711,-0.06936808,0.10263153,-0.21666835,0.1807799,0.075672865,0.19545238,-0.0462965,0.009352881,0.18019369,0.48364007,0.41367027,-0.10729656,-0.032995645,0.03290197,0.23659138,-0.045288872,-0.1472082,-0.06292603,0.22078966,-0.18485199,-0.43607223,0.1474067,0.21718936,0.015513616,0.13890973,0.13560347,0.002082695,0.34560388,-0.12975752,-0.043872003,-0.36413297,-0.16990426,0.06905022,-0.26319647,-0.26498637,-0.041204274,0.081871726,-0.08522991,0.015152716,0.31871858,-0.14274192,-0.29157707,0.3666148,-0.10794467,-0.01948565,0.09558053,0.021045066,0.2700645,-0.03671726,0.2379593,-0.055243168,-0.33036485,-0.22273025,-0.032535303,-0.0462028,0.17005491,0.13307056,-0.19988775,0.088911064,0.050778393,0.01587663,0.19045581,-0.27582267,0.06454549,-0.008617956,-0.1903071,0.078879535,0.17042482,0.21357787,-0.31060478,-0.1070109,0.113862075,0.06211794,-0.30059567,-0.07936463,0.07863647,-0.18496214,-0.212808,-0.13850075,0.21383005,-0.070224866,-0.12874538,0.09509134,0.008599449,-0.21244527,-0.11338482,-0.13209689,-0.13023809,-0.1567355,-0.055301256,0.008661199,-0.07629128,0.09751342,0.0053463397,-0.036565192,-0.16416176,0.2666604,-0.08672818,0.03288287,-0.30224085,0.021240704,-0.057082184,-0.040845685,0.11707066,0.14402553,-0.07797999,0.05868658,-0.19710995,0.12453157,-0.029473972,0.06748779,-0.13948457,-0.14183041,-0.22949652,-0.0724511,0.3408232,0.026491698,0.12554717,-0.040674534,0.1183719,-0.215845,-0.086064555,-0.18648766,-0.0707915,-0.09400424,0.15137169,-0.35208112,0.057064306,-0.082120314,0.025504982,-0.04145117,-0.29099602,0.98245233,0.13293727,0.25457388,-0.08040588,-0.083903775,-0.29467985,0.06327229,-0.10718695,0.07180652,0.061501876,0.050980702,0.11734231,0.35431606,-0.111036085,0.10818103,-0.36960393,0.03329387,0.17230462,0.14115174,0.1935534,-0.009262989,0.12878197,0.020631425,0.064744905,-0.29315227,0.1119252,0.2046772,0.08011084,0.081927955,-0.08353818,-0.07936871,0.16827333,-0.15807208,0.24862364,-0.11235919,-0.01036934,-0.32345426,0.060502976,0.027292682,-0.06566142,0.072636366,0.025678586,-0.40537095,0.023708262,0.10824804,0.06707477,-0.3113029,0.047713786,-0.033978015,-0.00084335293,0.11270647,0.1469143,0.09665785,-0.056941856,-0.2466025,0.038073912,-0.026039306,-0.026158005,0.15535136,0.040627033,0.028009487,0.0009575936,-0.010614607,-0.2079263,0.09256837,0.060890496,0.10640154,0.37593266,-0.15362191,0.0988604,0.37061673,0.16527353,-0.14850573,-0.18772206,0.18457656,-0.20272297,-0.012967012,-0.045327254,0.25429332,-0.072334014,-0.14478642,0.07013475,-0.017484063,-0.13921055,0.26856413,-0.09424041,-0.22539335,-0.08635505,0.05978267,-0.16643977,0.28100064,-0.26625228,-0.07725989,0.06573214,0.023338744,0.09574732,0.19509408,0.033660326,-0.22541192,-0.07698664,0.15061307,-0.22556277,0.14542863,0.07038735,-0.08862189,-0.12160377,0.036857925,0.061699897,0.07856132,0.043949235,-0.18344559,0.19332577,-0.019503722,-0.27985743,-0.042657223,0.068890676,0.1127875,0.39465207,0.009135116,0.023217907,-0.15129504,0.0024658358,0.048038393,0.14124016,-0.40961486,0.13700418,-0.19887814,0.046304468,-0.14009574,-0.083412,-0.24436724,0.0716637,-0.09920329,0.16150577,0.00641437,-0.09102248,-0.023064634,0.23146102,-0.049275454,0.029186621,0.05295479,-0.38892585,-0.18281439,-0.19645786,0.088757135,0.13622335,0.15509169,-0.19553919,-0.017112162,-0.15686475,-0.03188605,-0.026303042,0.055702113,-0.1820648,0.2688404,0.37739325,0.0702923,0.16317658,-0.12125196,-0.31778193,-0.18610623,0.06640713,0.020068916,-0.05505623,-0.26149195,0.22850668,0.21361548,-0.065838896,0.15784457,-0.088147305,0.32863238,0.092501305,-0.23074605,0.06801059,-0.23415965,-0.18946195,0.32123086,-0.19282116,-0.02405424,-0.17857115,0.31826457,-0.32376298,0.019483743,-0.15029763,-0.09978679,-0.32129458,0.081675015,-0.06820639,-0.28078535,0.19253904,-0.09128485,-0.20812984,-0.2572255,0.0075957123,-0.084975205,0.16931905,0.13778022,0.12057881,-0.0024196617,-0.42896315,-0.07941955,-0.1052694,0.36612254,-0.06912955,0.022296133,-0.13032968,0.17724635,-0.14014311,0.0017331823,-0.078126274,-0.32679072,-0.3144917,0.30144057,0.24869914,0.016945679,-0.048586175,0.13492572,-0.2602239,-0.123309754,-0.11273568,-0.09336644,0.07209685,0.06547883,0.3292568,0.027568778,0.053766873,-0.02073676,0.123671725,0.22583129,0.06107218,-0.083467,-0.09020914,0.33860388,0.039582066,0.06771952,0.1601052,-0.06884392,0.120718375,0.20538312,-0.04119452,-0.35265723,0.114147216,-0.10456999,-0.261293,-0.030453144,-0.06739405,-0.16201743,-0.08126331,-0.16272596,-0.08554804,-0.013205086,-0.07341723,0.12915047,0.046308585,0.011091954,-0.34038785,-0.0013801393,0.016643437,0.05110651,-0.041444328,0.26039508,-0.02739072,-0.13240287,-0.07849783,-0.17954236,0.001561641,-0.11554085,0.022861447,0.22945802,0.24035063,0.13056797,0.09815767,-0.13257203,0.28728992,-0.048010882,0.029569428,0.047604617,-0.04057691,-0.16300908,0.014488493,-0.40989447,0.211447,-0.030083131,-0.13804469,-6.938617,-0.19840273,0.120078154,0.038728237,0.1424124,-0.27186456,-0.0064986506,-0.159885,0.224136,-0.007927634,0.20493126,0.01701265,0.08622642,-0.08939856,0.16827099,-0.13249099,-0.0732085,-0.02445901,0.12780209,0.04313416,-0.041924294,-0.014012236,-0.29350722,0.046333745,0.05011091,-0.059012793,-0.32239607,0.044116274,-0.009246729,0.119418375,-0.076062106,0.12114923,-0.27190727,-0.14064647,-0.3144069,-0.031857796,0.24462523,-0.24175666,0.08332823,0.07963308,0.3252642,-0.19792607,-0.2147403,-0.18017226,0.15913323,-0.17061071,-0.09915515,0.10416651,-0.11154593,0.13866435,-0.11911566,0.18991736,0.05810945,0.3741082,0.259358,-0.12822017,-0.06264353,-0.10971686,-0.28107464,0.11683874,0.3472168,0.36256835,0.49140605,-0.06782432,-0.06283995,-0.018733522,-0.09870512,0.007442788,-0.049835384,0.31904066,0.34189692,-0.14345433,-0.38895765,0.2498113,0.14915097,0.071867876,0.29594535,0.102400124,-0.042528305,-0.19593945,0.48209012,0.17431982,0.13804153,0.03104786,-0.07315106,-0.03249059,0.017521229,-0.1090449,-0.036124885,0.08519692,-0.118173175,0.09780341,0.12729411,-0.37042648,-0.07608219,-0.19002756,0.025197068,0.12228159,-0.26573804,-0.07077348,0.060362022,0.18710093,-0.08682262,0.090989284,0.07393607,-0.11443105,-0.40683013,0.08833835,0.09456623,0.33188373,0.19053708,0.07154797,0.06446424,-0.30475506,0.19714016,-0.010735931,0.087534875,0.06845381,0.22027558,-0.024281891
