residue_id,0,1,2,3,4,5,6,7,8,9,10,11,12,13,14,15,16,17,18,19,20,21,22,23,24,25,26,27,28,29,30,31,32,33,34,35,36,37,38,39,40,41,42,43,44,45,46,47,48,49,50,51,52,53,54,55,56,57,58,59,60,61,62,63,64,65,66,67,68,69,70,71,72,73,74,75,76,77,78,79,80,81,82,83,84,85,86,87,88,89,90,91,92,93,94,95,96,97,98,99,100,101,102,103,104,105,106,107,108,109,110,111,112,113,114,115,116,117,118,119,120,121,122,123,124,125,126,127,128,129,130,131,132,133,134,135,136,137,138,139,140,141,142,143,144,145,146,147,148,149,150,151,152,153,154,155,156,157,158,159,160,161,162,163,164,165,166,167,168,169,170,171,172,173,174,175,176,177,178,179,180,181,182,183,184,185,186,187,188,189,190,191,192,193,194,195,196,197,198,199,200,201,202,203,204,205,206,207,208,209,210,211,212,213,214,215,216,217,218,219,220,221,222,223,224,225,226,227,228,229,230,231,232,233,234,235,236,237,238,239,240,241,242,243,244,245,246,247,248,249,250,251,252,253,254,255,256,257,258,259,260,261,262,263,264,265,266,267,268,269,270,271,272,273,274,275,276,277,278,279,280,281,282,283,284,285,286,287,288,289,290,291,292,293,294,295,296,297,298,299,300,301,302,303,304,305,306,307,308,309,310,311,312,313,314,315,316,317,318,319,320,321,322,323,324,325,326,327,328,329,330,331,332,333,334,335,336,337,338,339,340,341,342,343,344,345,346,347,348,349,350,351,352,353,354,355,356,357,358,359,360,361,362,363,364,365,366,367,368,369,370,371,372,373,374,375,376,377,378,379,380,381,382,383,384,385,386,387,388,389,390,391,392,393,394,395,396,397,398,399,400,401,402,403,404,405,406,407,408,409,410,411,412,413,414,415,416,417,418,419,420,421,422,423,424,425,426,427,428,429,430,431,432,433,434,435,436,437,438,439,440,441,442,443,444,445,446,447,448,449,450,451,452,453,454,455,456,457,458,459,460,461,462,463,464,465,466,467,468,469,470,471,472,473,474,475,476,477,478,479,480,481,482,483,484,485,486,487,488,489,490,491,492,493,494,495,496,497,498,499,500,501,502,503,504,505,506,507,508,509,510,511,512,513,514,515,516,517,518,519,520,521,522,523,524,525,526,527,528,529,530,531,532,533,534,535,536,537,538,539,540,541,542,543,544,545,546,547,548,549,550,551,552,553,554,555,556,557,558,559,560,561,562,563,564,565,566,567,568,569,570,571,572,573,574,575,576,577,578,579,580,581,582,583,584,585,586,587,588,589,590,591,592,593,594,595,596,597,598,599,600,601,602,603,604,605,606,607,608,609,610,611,612,613,614,615,616,617,618,619,620,621,622,623,624,625,626,627,628,629,630,631,632,633,634,635,636,637,638,639,640,641,642,643,644,645,646,647,648,649,650,651,652,653,654,655,656,657,658,659,660,661,662,663,664,665,666,667,668,669,670,671,672,673,674,675,676,677,678,679,680,681,682,683,684,685,686,687,688,689,690,691,692,693,694,695,696,697,698,699,700,701,702,703,704,705,706,707,708,709,710,711,712,713,714,715,716,717,718,719,720,721,722,723,724,725,726,727,728,729,730,731,732,733,734,735,736,737,738,739,740,741,742,743,744,745,746,747,748,749,750,751,752,753,754,755,756,757,758,759,760,761,762,763,764,765,766,767,768,769,770,771,772,773,774,775,776,777,778,779,780,781,782,783,784,785,786,787,788,789,790,791,792,793,794,795,796,797,798,799,800,801,802,803,804,805,806,807,808,809,810,811,812,813,814,815,816,817,818,819,820,821,822,823,824,825,826,827,828,829,830,831,832,833,834,835,836,837,838,839,840,841,842,843,844,845,846,847,848,849,850,851,852,853,854,855,856,857,858,859,860,861,862,863,864,865,866,867,868,869,870,871,872,873,874,875,876,877,878,879,880,881,882,883,884,885,886,887,888,889,890,891,892,893,894,895,896,897,898,899,900,901,902,903,904,905,906,907,908,909,910,911,912,913,914,915,916,917,918,919,920,921,922,923,924,925,926,927,928,929,930,931,932,933,934,935,936,937,938,939,940,941,942,943,944,945,946,947,948,949,950,951,952,953,954,955,956,957,958,959,960,961,962,963,964,965,966,967,968,969,970,971,972,973,974,975,976,977,978,979,980,981,982,983,984,985,986,987,988,989,990,991,992,993,994,995,996,997,998,999,1000,1001,1002,1003,1004,1005,1006,1007,1008,1009,1010,1011,1012,1013,1014,1015,1016,1017,1018,1019,1020,1021,1022,1023,1024,1025,1026,1027,1028,1029,1030,1031,1032,1033,1034,1035,1036,1037,1038,1039,1040,1041,1042,1043,1044,1045,1046,1047,1048,1049,1050,1051,1052,1053,1054,1055,1056,1057,1058,1059,1060,1061,1062,1063,1064,1065,1066,1067,1068,1069,1070,1071,1072,1073,1074,1075,1076,1077,1078,1079,1080,1081,1082,1083,1084,1085,1086,1087,1088,1089,1090,1091,1092,1093,1094,1095,1096,1097,1098,1099,1100,1101,1102,1103,1104,1105,1106,1107,1108,1109,1110,1111,1112,1113,1114,1115,1116,1117,1118,1119,1120,1121,1122,1123,1124,1125,1126,1127,1128,1129,1130,1131,1132,1133,1134,1135,1136,1137,1138,1139,1140,1141,1142,1143,1144,1145,1146,1147,1148,1149,1150,1151,1152,1153,1154,1155,1156,1157,1158,1159,1160,1161,1162,1163,1164,1165,1166,1167,1168,1169,1170,1171,1172,1173,1174,1175,1176,1177,1178,1179,1180,1181,1182,1183,1184,1185,1186,1187,1188,1189,1190,1191,1192,1193,1194,1195,1196,1197,1198,1199,1200,1201,1202,1203,1204,1205,1206,1207,1208,1209,1210,1211,1212,1213,1214,1215,1216,1217,1218,1219,1220,1221,1222,1223,1224,1225,1226,1227,1228,1229,1230,1231,1232,1233,1234,1235,1236,1237,1238,1239,1240,1241,1242,1243,1244,1245,1246,1247,1248,1249,1250,1251,1252,1253,1254,1255,1256,1257,1258,1259,1260,1261,1262,1263,1264,1265,1266,1267,1268,1269,1270,1271,1272,1273,1274,1275,1276,1277,1278,1279
MET_1_A,0.025199221,-0.037923083,-0.20439354,-0.07961111,-0.25278175,0.17862888,0.2636318,-0.12349273,-0.05974574,0.05713227,-0.09895285,-0.013702194,0.22995308,0.18377918,-0.088482715,0.13184617,0.35356057,-0.1578366,-0.0910635,0.073203236,0.077886365,0.17309912,-0.14964494,0.3057009,-0.09907536,-0.0033616342,0.039145824,0.13627665,0.091253765,0.15151212,-0.03995183,-0.34023237,0.20428956,-0.30307302,0.021368422,-0.17150268,-0.4274441,0.082290515,-0.02699725,-0.07857252,0.22486503,-0.22338271,0.18662909,0.1413377,0.15547809,-0.0929642,-0.46012574,-0.11908137,-0.11548563,-0.07781896,-0.16115843,-0.066415004,-0.081393786,-0.3128243,0.095438756,0.1337583,0.29264814,0.13111071,0.28759488,-0.04316738,-0.23402868,0.17782745,0.19473907,0.13213703,0.11296238,0.13687286,0.11714046,0.13200258,-0.02219077,0.27669787,0.097211614,-0.33071437,0.227449,0.017202113,0.017973436,-0.057912957,0.17352982,-0.050254397,0.027504504,0.18761554,-0.011138084,-0.06327772,-0.09961633,0.09140183,0.0052092313,-0.10305156,-0.13781978,0.12801993,0.1626937,0.2893782,0.038178056,0.09396876,-0.02362084,0.33327296,0.027422857,0.032321796,-0.06470404,-0.12194395,-0.12235263,-0.21736504,0.17171568,-0.19230905,-0.030807208,-0.15999551,-0.21565187,-0.035212122,-0.1392488,0.005225929,-0.51347345,-0.17492919,-0.021619309,0.04758885,0.08614837,0.031842697,0.10198002,0.23023829,-0.27872074,0.1886101,-0.22689581,-0.12772611,-0.09558438,-0.1993467,-0.052559953,-0.093969405,0.07175476,-0.079278246,-0.07143636,0.15159978,0.30322218,0.2271863,-0.1700802,-0.20768417,0.2129456,0.24260367,-0.05264118,-0.04648423,-0.18214071,0.11557007,-0.14769892,-0.22386022,0.16160175,0.0010484079,0.36112502,-0.1677994,0.14379916,0.09265392,-0.1649222,0.07516191,-0.096375085,-0.045150798,0.24674274,-0.32239103,0.045578577,-0.15988328,-0.122921474,0.0033067986,0.26728073,0.1670628,0.41032565,-0.111994654,-0.17950565,-0.068412475,-0.07983843,-0.19074649,-0.24567626,0.028444698,-0.19977821,-0.22290263,0.26251912,0.28527907,-0.27104568,0.25480762,0.5614221,0.07549936,-0.03431191,0.09508406,-0.1133008,0.100367926,0.33085003,0.096968606,0.009166313,0.1411089,0.39475915,-0.09928028,-0.19127598,0.11861855,-0.35100046,-0.14920597,-0.16033973,0.11520856,-0.09422755,-0.30330536,-0.05377145,0.01887157,0.54121554,0.20686473,0.16484235,0.34302616,-0.043822594,-0.15483955,0.25833362,0.038137544,-0.45199573,-0.016659094,0.3222469,-0.07452485,-0.0018283356,-0.15262853,-0.21482073,-0.098918214,-0.10598,-0.10208223,0.06867535,-0.029750729,0.021047464,-0.19577074,0.19242096,-0.06861673,0.016836198,0.036185496,-0.06355781,0.0480535,0.40767103,-0.41557094,0.16233449,-0.20885174,-0.18010595,-0.18522392,-0.2431662,0.13959774,0.44021013,0.20579445,0.090561904,0.033029307,-3.484826,0.5668071,-0.22351374,-0.067690045,-0.2575126,-0.00074899447,-0.16242865,0.23387389,0.16598111,-0.013192739,0.13732414,0.03558097,-0.12660044,0.089682445,0.13886073,-0.11862629,0.083163306,-0.02211507,0.21400148,-0.04268197,-0.18034253,0.209926,-0.07323635,0.01946517,-0.36106533,-0.11458481,-0.068104684,0.23251133,0.10361315,0.30623114,0.028989863,-0.102502175,0.11818871,-0.23924705,-0.010795993,0.011868414,0.06135108,0.14687811,0.05056098,-0.09953747,0.030140357,0.10885926,-0.0134499045,-0.049634647,-0.15635704,-0.05989694,0.38175106,-0.08924206,-0.13672528,-0.09694857,-0.10558086,0.11130124,-0.028728822,-0.015990552,0.053205132,-0.24404244,-0.015131452,-0.06983904,-0.2539229,0.0019705147,-0.021960858,-0.09143332,0.20517248,0.036613967,-0.18793823,-0.2872275,0.109207146,0.14792193,-0.492988,-0.22203651,-0.1698545,-0.024113983,0.16632983,0.11632288,-0.2859654,-0.020299697,-0.042489197,0.058514,-0.1512235,0.062219486,0.1875233,-0.283906,-0.12442142,-0.10343464,-0.22810523,-0.20824006,-0.07440147,-0.037843775,0.12230337,-0.034063842,-0.14703509,-0.12269291,0.13460958,0.13085862,-0.14055228,0.00668342,-0.06959477,0.037922528,-0.084761396,-0.24402854,-0.14229962,-0.05946048,0.030186415,0.16087733,-0.11122345,-0.18586135,0.2810043,-0.071924135,-0.24923795,-0.07853676,-0.056884393,-0.16926527,-0.13895297,-0.056744438,-0.18331134,-0.21610975,-0.14886604,-0.049826693,0.05671972,0.18136688,0.15141109,0.13120848,0.011194068,-0.1435216,-0.113713995,-0.24537255,-0.017728789,0.103592314,-0.03409813,-0.30390346,0.14356323,0.10447536,0.1477495,0.13405856,0.5459795,-0.114912935,-0.15347832,-0.19880632,-0.2194756,0.12638232,0.1349524,0.36084598,0.0037038396,0.17893727,0.15533745,0.21185106,-0.13127857,0.05089437,0.09090332,0.081838444,0.6593268,-0.12053842,-0.14265841,-0.3216574,-0.012753055,-0.025719134,0.20977545,-0.016531928,-0.53304595,-0.40673956,-0.18745989,-0.2626414,-0.15693697,-0.06890286,-0.22390574,0.034218017,-0.036417082,0.28054482,-0.30941644,0.23321496,0.15989134,0.11955253,-0.24776068,-0.20291142,-0.40797043,-0.14966813,-0.08950739,-0.2818386,0.104093574,-0.3204046,-0.21860535,-0.099092215,0.13686197,0.037556786,0.0006122043,-0.018647794,0.017004227,0.24060714,0.08905994,0.094758354,-0.0035292718,0.0931102,-0.039065983,0.011094679,0.31791198,0.21273698,-0.16143633,0.446634,-0.20869492,0.016774535,0.3230076,0.15756221,-0.06340602,-0.055667177,-0.09867047,-0.14549258,0.13000806,0.42263243,-0.17613201,-0.30753782,0.050779223,-0.00069224095,-0.12808369,0.2664374,0.10320228,-0.42841944,-0.12371807,0.2948371,0.14180085,-0.09799248,-0.26898235,0.053125143,0.087586656,-0.05849182,-0.18846999,0.06556694,-0.30168787,0.24435505,0.21071208,-0.3048381,0.12430065,-0.23912105,0.072219126,0.3547746,-0.12887803,0.17008081,0.030004408,0.09420449,-0.064015836,-0.040213317,0.08929487,0.23318017,0.054725945,0.25703338,-0.04058236,0.14101432,-0.19916563,0.19830865,0.20832531,0.08359544,0.008116346,0.23112227,0.23063979,-0.014873177,0.15155885,-0.14604929,-0.005199775,0.1909486,-0.094189525,0.120939896,-0.08968193,0.18271525,-0.14779992,-0.12548083,-0.18489403,-0.035186425,-0.21420693,0.24444969,-0.22785275,0.17543624,-0.033521768,0.034396376,-0.19576336,0.13390644,0.0052912333,0.15512103,-0.22443762,-0.118645355,0.0009599214,0.08293065,0.11649299,-0.21079004,-0.025445802,-0.1343434,-0.025651786,-0.0014071246,0.11865916,-0.08652981,0.19947095,0.27672955,-0.001946991,-0.1656742,0.13048105,0.055103317,-0.022392455,0.22175063,0.067523494,0.19030647,-0.120044194,0.20154522,-0.11532006,-0.102402724,0.17097454,0.012816826,0.042488486,0.06347685,-0.029822992,-0.018774703,0.49999207,0.1653236,0.0024581486,0.018190362,-0.029573573,0.16074367,0.042027373,0.12912159,-0.0009897157,-0.2570556,-0.12982678,0.38941425,0.07564873,-0.21447189,0.01000211,-0.13672026,-0.07059224,-0.11447032,-0.057466485,0.09446185,0.09636203,0.2416474,0.10993636,0.1420119,-0.22599043,-0.1308524,0.16623092,0.17529336,0.4802124,0.57360554,-0.12117639,0.1818689,-0.24461149,0.18490703,0.08689512,0.04149733,-0.10776013,-0.06973324,-0.11161278,-0.22686742,-0.10155086,0.8609112,-0.21933322,0.07258115,-0.020956857,0.11497068,-0.49542356,0.23997185,0.05568032,-0.31968108,0.26062828,-0.033155017,0.30698732,-0.087280616,-0.103648975,-0.13868709,0.31981504,0.07847658,0.1506887,-0.035069644,0.05250701,-0.08440723,-0.124953344,-0.17605202,0.2571465,0.2438158,-0.066086724,0.014966326,-0.27530205,-0.23829567,0.06404054,-0.06751753,0.08398147,0.04080702,0.3284748,0.01942794,-0.06373414,-0.21207087,0.33181405,0.21181917,-0.13677397,0.051900677,0.0868881,0.07615716,0.29941618,-0.12043837,0.18627228,0.127168,-0.11742682,-0.21069069,0.06201038,-0.043189563,0.12284183,0.12030532,-0.040937945,0.102266185,-0.11022503,-0.018095033,-0.13732699,0.08525525,0.10331939,-0.19375682,0.0049087997,-0.09717572,-0.07856452,-0.0630244,-0.1129288,-0.11380437,0.07991921,0.4808,0.10393053,-0.28108758,-0.31646025,0.19874816,0.0050527058,-0.4401437,-0.055958748,-0.11545629,0.2789423,-0.18178424,-0.11811309,-0.18873218,0.19859934,0.115930036,0.22691172,0.22916062,0.01592063,0.24398726,-0.1601365,0.13602902,0.14261128,0.040942512,0.15719159,-0.15958904,-0.16910884,0.14278531,-0.17699832,-0.2938231,0.037480105,-0.17759481,-0.07827561,0.32061318,0.10037587,-0.26171747,-0.08476815,0.31448162,0.025657197,-0.10363934,-0.21203648,-0.0843757,0.08821072,-0.0709376,0.2548223,0.18445627,-0.19786362,-0.14669086,0.36535096,0.09670128,0.149243,-0.05483038,0.069157556,-0.27226588,0.06764409,-0.36529332,-0.091256715,-0.1156244,0.1716709,-0.083263494,-0.12135886,0.271244,-0.02867495,0.28450987,0.014386989,0.045462098,0.111081086,0.049494892,-0.018322818,0.32626018,-0.15595013,0.048638627,0.16109061,0.13988638,0.3814959,-0.09222036,0.037975416,0.04593937,-0.05474064,-0.0119783105,0.1588943,-0.31713116,0.1996907,0.11375262,-0.13610977,0.32192546,0.5563937,0.2911334,-0.2833147,0.06262031,0.4094011,-0.09315858,-0.015157699,-0.0018385737,-0.092117846,0.14085183,0.17089069,0.08550074,-0.060828663,-0.040875383,0.033922423,-0.18656892,0.10138302,-0.081113875,-0.11322681,-0.031541064,0.25566414,-0.07049011,0.099924184,0.16374713,-0.3861552,0.18396819,0.008388813,0.2768682,-0.065028846,0.094944574,0.15634385,0.101528995,-0.08576209,-0.11407987,0.037902836,0.11918717,0.09953246,-0.3962367,0.1617252,-0.05360361,-0.09532618,-0.2353604,0.09707808,0.039083753,-0.22270939,-0.07870101,0.103099026,0.049031395,-0.16677819,0.02621867,0.025196664,0.24352579,0.073594734,0.22970414,0.08367894,-0.24244332,-0.17988405,0.02714635,-0.06554159,-0.2810857,-0.07327279,-0.37291908,-0.2811138,-0.56828743,0.0017024737,-0.045371283,0.053755976,0.08394087,-0.2163512,0.1639499,-0.21082671,-0.007101452,-0.37326136,-0.183024,0.1360306,-0.122561336,0.060356542,0.02378401,0.2060149,-0.062263053,-0.0047239303,-0.053780608,0.3788787,0.07198203,0.19512749,-0.033236973,-0.40927285,-0.1785843,0.11107115,0.06360723,-0.1990037,0.08185289,0.3457092,0.04510457,-0.31864014,0.035315435,-0.12960246,0.032249022,-0.03531666,0.21812713,0.35083982,0.05832896,-0.02234116,0.020143598,-0.0046054274,0.049429983,0.05126874,0.012735585,0.15555677,-0.022565072,0.4006421,0.24548855,0.22058305,-0.2711118,-0.089593366,-0.17147452,0.30664226,-0.00061992795,0.017565893,-0.21573734,-0.10633059,0.08683103,0.06698364,0.14833574,-0.2943278,0.04950632,0.23622952,-0.047519613,0.09518123,-0.12792124,-0.17655152,0.24132884,0.12780447,-0.09979625,-0.040334605,0.12635988,0.3152541,0.04189274,0.029621037,-0.13141727,0.42885053,-0.06379086,0.2513603,-0.3191528,-0.15782985,-0.07191322,-0.17777273,-0.12515055,-0.021342143,0.231358,-0.009644125,0.069961384,-0.34548014,0.21150845,0.07199546,-0.035950795,-0.12409616,0.11303271,-0.14620952,0.08770819,-0.3753884,-0.015394786,-0.17583455,0.15645586,-0.021697937,0.116763964,-0.03323075,-0.2746956,0.038426004,0.20185722,0.27561894,0.10177638,0.025417158,0.14765136,-0.1775333,0.24495462,-0.13107114,-0.30956903,0.071649425,-0.107008584,0.07107991,-0.07027297,0.070358664,-0.15649568,0.22444837,0.19546427,-0.057543572,-0.026042463,-0.016165175,0.0077748154,-0.080983505,-0.04645439,0.08561536,-0.07450062,-0.005430378,-0.039995454,-0.031532925,-0.0012746002,-0.11136818,-0.36384606,-0.15625033,0.23242074,0.14074095,-0.059753228,-0.11586409,-0.24184534,0.36264718,-0.14971898,-0.05728683,-0.24835959,-0.23349188,-0.17235543,-0.15097596,0.0025542625,0.04502043,-0.134279,0.26847273,0.067889385,-0.0027992888,-0.068990685,0.25942662,0.03904008,-0.051731452,0.25326118,-0.02495517,0.17657511,0.08731759,0.12504102,-0.1684255,0.19948494,-0.15895554,-0.30251002,-0.21741219,-0.3096238,0.1885751,-0.10068998,-0.0011823645,0.15017755,-0.1380128,0.11974867,-0.39790562,0.08906406,-0.08605975,0.05806797,-0.30252367,-0.043133512,-0.16563803,-0.1930809,-0.095259026,-0.06583482,0.024294278,-0.097817115,-0.056928474,0.20421347,-0.024519565,0.08610568,-0.058812983,-0.007634171,-0.41543356,0.14714877,-0.18484321,-0.03325546,0.1623306,-0.07713341,-0.077328674,0.15831845,0.028604595,0.27133965,0.106997065,-0.19357121,0.30289435,0.20927308,0.13633986,0.045642868,0.050200295,0.18524815,0.28786924,0.15766963,0.16829817,0.0062669897,0.10891251,0.2338867,0.083125055,0.16229843,-0.12174143,-0.0088406475,0.02600388,-0.07588395,-0.016290657,-0.25900552,-0.32054195,0.15776269,0.012249382,0.13678539,-0.17526287,-0.1765286,0.09644111,0.29344085,0.17448017,0.11634572,0.2928937,0.04048852,-0.15839593,0.05738803,-0.1860165,0.090816736,-0.11541672,-0.083705276,-0.09322204,-0.044012778,0.14983223,0.091806896,0.12535723,0.19224882,0.10002538,0.363325,-0.15760438,-0.22570671,0.04773935,-0.19674155,-0.14375558,0.08509966,0.14730412,-0.13313954,0.18295509,-0.2305247,-0.22252807,0.17040667,0.19868869,-0.17156936,-0.002912514,-0.21254282,0.07219667,0.21745208,0.21264781,0.1029164,0.16443112,-0.23778102,0.14791133,-0.1368353,0.08127279,0.026196245,0.20489113,-0.2760481,0.16807397,0.091753796,-0.110703744,0.22616887,0.38367003,0.0026154388,0.18946992,-0.14885335,-0.21217118,-0.29582536,0.064727545,0.12677641,0.11056859,-0.019272733,-0.04327564,-0.005558502,-0.038324554,-0.05017372,0.15929827,-0.071397506,0.0070765666,0.1218899,0.11190867,-0.04984481,-0.20276108,-0.14621058,0.14353451,-0.03805957,-0.36793154,-0.3273062,0.01549764,-0.08912597,0.049304746,0.10534911,-0.0020360306,0.1979077,0.05950062,0.16640928,0.063907884,-0.09913547,0.083153605,-0.27852744,-0.2529151,-0.036655016,-0.1761491,-0.16797444,0.05266105,-0.026619902,-0.00016732462,0.1051787,0.043934174,-0.021957723,-0.13655944,0.027899029,0.044312183,0.098848686,-0.15697065,-0.3948599,0.056408886,0.12574783,0.16333044,-0.5410635,-0.21230705,0.07868804,-0.12035187,0.26504424,0.21653457,6.0044335e-05,-0.2510468,-0.03014506,-0.0065235617,0.02635932,0.12708318,0.1410748,0.22244349,0.1451285,0.015169772,0.16657321,-0.56058747,0.05292725,-6.7442713,-0.09501249,-0.19209234,-0.21195832,0.3168873,-0.042860605,-0.16933262,0.21739615,0.38397217,0.02212216,-0.16599083,0.24569395,0.112847395,-0.37012392,0.27824217,0.053282857,-0.069036484,0.06451003,-0.22682513,0.250294,-0.077055976,-0.27888507,0.19127123,0.4809173,-0.06641196,0.34864563,0.050457604,-0.17843065,0.42384243,-0.12954153,-0.046562396,-0.055353,-0.11058557,0.3447977,-0.069166295,-0.1146876,0.18620862,0.20991406,0.29806697,0.22140263,0.33599558,0.11314688,0.15562986,0.15237458,-0.15397832,0.15491399,0.078755386,0.17467234,-0.058281824,0.36247772,0.25707293,0.27377117,-0.33170334,0.12268552,0.07913386,-0.47137338,0.092550166,0.20007962,-0.051904783,0.1901197,0.012481991,0.031993132,-0.015520064,0.15544844,0.18676788,-0.016379915,-0.197377,-0.47232136,-0.20939456,-0.085066676,0.31433287,0.043331493,0.04433217,0.359737,0.029590491,0.09938108,0.12222654,-0.16260624,0.069823936,0.1818626,-0.24837556,0.20758796,0.09361582,-0.009844474,0.015452979,0.024794847,0.11184723,0.12514727,-0.11966746,0.067960106,0.29466408,-0.24618506,-0.12601212,-0.101592034,-0.057520717,0.04603826,-0.13944605,-0.23115526,0.113103405,0.013130019,-0.04115188,0.037082076,0.2404571,-0.22359692,0.089165226,0.29535457,-0.26142082,0.15694098,0.14869964,-0.101137206,-0.0059814337,-0.004055942,-0.022530401,0.012484886,0.14893715,0.24593766,-0.046611007,0.08086636,2.232728e-05,0.14305522
MET_2_A,0.056395106,-0.2545398,-0.24534427,-0.009860401,-0.12433036,0.15368044,0.20358184,0.033604104,-0.14325437,0.2048062,0.13608404,-0.27184817,0.23355305,0.057359844,0.005550504,0.36873212,0.17505753,-0.123582035,0.080921456,-0.18364291,0.12992707,0.14513369,0.11825082,0.5232413,-0.028286334,0.17563286,0.09322301,-0.15889706,0.12511012,-0.0074871588,0.08595019,-0.10000861,-0.0018821234,-0.32246274,0.32154197,-0.17136692,-0.07387285,-0.20367242,-0.01877579,0.31034097,-0.0260047,0.016858015,0.092237666,-0.10703934,0.14989361,-0.15927343,-0.35014486,0.20550518,0.014577327,-0.03908507,-0.118196376,0.120323,0.13793556,-0.19634278,0.061713796,-0.0022846689,0.008796621,0.038282838,0.3156659,-0.25237596,-0.28727898,-0.11098342,0.3422599,0.043287303,0.13568427,0.35962552,-0.20907857,-0.45858404,0.24781191,0.026903685,0.04733959,-0.09916505,0.10911948,0.11637228,0.2893008,-0.22627786,0.052981976,-0.023933189,0.11087868,-0.12627639,-0.12086198,0.30037186,-0.0797354,0.04293784,-0.03142697,-0.030609693,-0.047650952,-0.046381902,0.09249068,0.22488531,-0.0512855,0.09468618,-0.1847514,0.09739627,-0.08006712,-0.19693065,-0.17917536,-0.19842768,0.074428834,-0.19800146,0.08398535,0.1119264,-0.19740218,-0.27094388,-0.19334696,-0.06841312,-0.20020008,0.09338811,-0.25311512,-0.34548828,0.0718136,0.049062937,-0.01956184,0.061095856,0.14647272,-0.23220539,-0.19794652,-0.066641904,-0.26041922,0.08399993,-0.172103,-0.10230353,0.05994656,-0.08459412,0.05972324,-0.100514345,-0.031089747,0.09097552,0.29877326,0.30378425,-0.24034211,-0.26823622,-0.010257312,0.09075784,0.051386658,-0.3141911,0.11882821,-0.006816127,0.24721715,-0.08687845,0.03146224,-0.016921027,0.339786,-0.020292155,0.12452368,-0.026050188,-0.12324572,0.2101165,-0.014153138,-0.16117278,0.189581,0.0815616,-0.21172184,-0.2007109,-0.38448736,0.39373854,0.31036934,0.12661351,0.044316225,-0.0901589,-0.16338143,0.25233182,-0.09575687,0.27980116,-0.23968077,-0.030891052,-0.07767052,-0.1602498,-0.17166214,0.45256025,-0.28331265,-0.1523281,0.38205975,0.046400595,0.093420856,0.008069692,-0.12827878,0.19963971,-0.0586334,0.12038719,-0.039988995,-0.014052825,0.14498532,-0.056560066,-0.33494264,-0.030637497,-0.35867783,0.007709406,-0.102647685,0.16822651,0.15704526,-0.20740609,-0.024258535,0.023816073,0.37286156,0.19443701,0.3401982,0.056774974,-0.29860076,0.014501923,0.3210165,0.02952486,-0.29653433,-0.044993814,0.09703912,-0.03124344,-0.05650609,0.0103195915,-0.14364263,-0.021680517,0.14111607,-0.15498318,0.35132018,-0.061263617,0.030216675,0.06520049,-0.12683667,-0.247745,0.37335855,0.39994827,-0.31332564,-0.030296588,0.13691579,-0.45539525,0.3585847,-0.299134,-0.16676675,-0.28647503,-0.16346864,0.11947917,0.12480799,0.20350651,-0.12370296,0.26194617,-3.26355,0.109782025,0.023855252,-0.0523648,-0.09185809,0.06392781,0.016821194,0.15535985,0.17122625,-0.22442287,-0.42413777,-0.048679464,-0.2544982,0.3879049,-0.23773222,-0.11037036,0.23860662,-0.3469386,-0.04370723,-0.3313711,0.01007889,0.06803265,-0.17855105,-0.048646413,-0.04128114,-0.63014454,-0.015577831,-0.05261989,0.03699626,0.0058813808,0.108443126,0.05766011,0.070442855,0.00031706018,-0.049400117,-0.20449199,0.12586175,0.22502,-0.0060769697,-0.24664742,0.13776326,0.07259842,0.002268024,-0.009183136,0.20007606,0.15540394,0.062467627,-0.0063702054,0.022322161,-0.04410837,0.03977197,-0.009776566,0.1612746,-0.14926428,0.17482832,-0.016690793,0.0069501814,-0.056041602,-0.14859943,-0.023694841,0.12343415,-0.1449519,-0.1335962,-0.10726817,0.06187677,-0.1587385,0.1605615,-0.18752895,-0.32137918,0.02178221,0.13906543,0.107014686,0.06453833,-0.027717981,-0.0035039904,-0.11518126,-0.04658485,-0.074591234,-0.15930465,0.02965226,0.39490035,0.084271,-0.045314174,-0.2181498,-0.2014175,-0.123174995,-0.10346379,-0.07149885,0.17839243,-0.19858268,0.105437726,-0.058131747,0.10785971,0.1874502,-0.07940619,0.18174326,0.19467422,-0.12587509,0.058598056,-0.060829643,-0.24715857,-0.039581943,0.091721565,-0.28479353,0.11063039,-0.0611806,0.42930686,-0.008373915,-0.36700103,0.12130951,0.21974319,0.01974446,0.06685098,-0.2768437,-0.2644985,-0.059287004,-0.1708703,0.3064778,-0.13624236,-0.12315276,0.12441762,-0.22862944,0.2007815,-0.058778513,-0.27174002,-0.0707503,0.11169602,0.3255067,0.018360205,-0.11311969,0.20651545,0.07471123,0.048684996,0.09184107,0.08846803,-0.11217107,0.14140353,-0.03242422,0.014257078,-0.0077407365,0.08755784,0.33287823,-0.21889625,0.15310614,0.30765954,0.10923624,0.020254688,0.032644812,0.107372485,-0.053993415,0.4740996,-0.06512004,-0.22294198,-0.30333573,0.15785319,0.19932936,0.24802984,-0.10646599,-0.30252266,-0.22377853,-0.29771283,-0.6324563,0.10432191,-0.025871277,-0.19766949,0.22846813,0.26770672,0.06708058,-0.3689016,0.42492682,-0.04292387,0.048401915,-0.23770414,-0.20201075,-0.18997933,-0.20650296,-0.10944403,-0.20297064,0.05389653,-0.0779198,-0.07928385,-0.13554388,0.09694851,0.18027775,0.042222816,-0.1384958,0.43051252,0.36771053,0.26027805,0.12144948,-0.21590897,-0.057722248,-0.065602876,0.3313815,0.12247185,0.4359054,-0.0063902293,0.22901002,0.36691576,-0.2592152,0.03027012,0.050849073,0.024224648,0.03517074,-0.023717474,0.043184612,0.05784798,0.21210629,-0.107317336,-0.5110308,0.2444223,0.0064977547,-0.025901468,0.21198618,0.09569919,-0.17022923,-0.18077083,0.4630319,-0.11136809,0.17363758,-0.026143754,0.051358733,0.21127939,0.13000098,-0.10071405,0.012569183,0.037312396,0.37646776,0.115551725,-0.105094604,-0.12132292,-0.0047141165,0.11625448,0.19813146,-0.07608736,-0.085676536,0.03394255,0.17736338,0.2365391,-0.14125654,0.05108887,0.45140135,0.16488911,0.07450673,-0.254637,0.098233305,0.043071628,0.21106125,-0.0029928486,0.07291265,-0.027560892,0.24633174,0.066458374,-0.009594268,0.13222785,-0.06036421,-0.0564806,0.036763478,-0.07802825,0.116235636,0.016037887,0.03489868,0.12827761,0.04680875,-0.16969518,0.00074430596,-0.20787054,0.46144024,-0.067228615,0.21750066,-0.016782027,0.008580079,-0.022945728,0.15139884,0.3093444,0.2352855,0.002949412,-0.23970734,-0.14417353,-0.07807656,-0.3283166,0.030576024,-0.040980335,0.029204033,0.079153985,0.113810405,0.30826238,0.05593874,-0.16666596,0.2748822,-0.4828442,0.19045861,0.050826322,0.3893474,-0.24270692,0.24421732,-0.21108998,0.09354404,-0.066273645,0.08392155,-0.029757509,-0.3058952,0.02583784,0.06484891,-0.097915664,0.08657711,-0.14043185,-0.11628907,0.13016991,-0.12077854,0.046721507,-0.12768012,-0.31610328,0.17686976,-0.0030781464,-0.005511045,0.17396338,-0.026242077,0.021214146,0.22164236,0.18525894,-0.19253902,-0.15850535,-0.1307521,0.098385446,0.024352998,-0.12487635,-0.26093194,0.1744747,-0.0016629922,0.04068714,0.12960464,-0.019836565,-0.28920332,0.11040375,0.043619744,0.33009052,0.10559855,-0.22675404,-0.15956803,-0.057722904,-0.053055607,0.11320461,0.06914839,0.6090668,0.003929117,-0.27003422,-0.050120782,-0.20763998,0.58550864,-0.16253616,0.28217623,0.016431278,0.057123877,-0.048910823,0.2821171,0.09907738,-0.2646124,-0.07122574,-0.016723875,0.16136184,-0.06103734,-0.1129481,-0.37189382,0.112686075,-0.13523029,0.35307536,-0.089581355,-0.041003536,0.18330693,-0.0793256,0.20788397,0.1324684,-0.29170275,-0.105421424,-0.26457217,-0.0895041,0.15043804,0.00829295,-0.17916468,0.028154379,-0.07565349,0.29115492,-0.09209739,-0.0056742714,-0.044584945,0.12444104,0.017466566,0.17888758,0.007990031,0.163151,-0.1992731,0.16228913,-0.31516823,0.38548622,0.12185132,0.12353129,-0.10255342,-0.008501037,0.05760444,0.24127245,-0.08945341,-0.07015831,0.007176753,-0.039707772,-0.09508366,0.11744844,-0.035423115,0.15884024,0.07105778,0.11447605,-0.31034857,0.036578037,-0.21763138,-0.09749833,-0.028867953,-0.08282024,0.23698232,0.06536959,0.07954136,-0.022086553,-0.07508668,-0.016588714,0.075844795,0.22827171,-0.1476953,0.07627122,-0.43762645,0.05467106,-0.07012872,0.2589291,0.35702533,0.18783893,0.12619826,-0.09792667,0.18964036,-0.14738135,0.09051259,-0.022753838,0.031704817,-0.12204771,0.09681937,-0.241842,-0.3337125,-0.080085956,-0.16075133,0.048535153,-0.025017831,-0.27268425,0.28506064,-0.21244222,0.023962112,0.06913852,0.10676417,0.03701994,-0.1561709,-0.102806464,0.0892564,-0.21634465,-0.16332117,-0.102112465,0.05483164,-0.4724655,-0.12925133,0.086189054,-0.24156734,0.054041382,-0.07999817,-0.00079759996,0.10594785,0.105755575,-0.13988775,-0.22935937,0.019923901,0.17682396,0.0010586857,-0.1986996,0.3387305,-0.14459692,0.51849675,0.096903555,-0.20137945,0.09318685,0.16697735,0.020992333,0.50752825,0.1430425,0.053393118,-0.02800543,0.21480457,0.2826187,-0.24091242,0.08737337,0.0038631717,0.057015024,0.14743419,0.07534924,-0.07090156,-0.29870722,0.053382665,-0.23362748,-0.052318133,0.6030324,0.09349713,-0.18172497,0.028642435,0.34090862,0.40254238,-0.12354882,0.08491939,-0.0388473,-0.008450476,0.08550664,-0.0463882,0.066004574,0.23780587,-0.1040343,0.25741532,-0.09060778,0.06403039,-0.045553885,-0.15507966,0.4083601,-0.1035022,0.021307698,0.029818455,-0.28611055,0.122470014,-0.034313347,0.21430497,-0.31298974,-0.25174692,-0.06720954,-0.21256585,0.32742763,-0.06630897,0.039844204,-0.025837816,-0.06533537,-0.00041238483,0.10519013,0.32720825,-0.038316283,-0.12491321,-0.09277021,0.30856216,0.16165961,-0.16421768,-0.03459851,-0.05750315,0.12736239,-0.034008533,0.064567015,0.11311592,-0.04306867,-0.012264544,-0.013354919,-0.06716115,0.0067795813,-0.03621287,-0.0016307037,0.08588279,0.008235073,-0.22193114,-0.39246207,-0.23838757,-0.099623725,-0.12455083,0.18153127,0.13809997,-0.042584397,0.22896227,0.08792753,-0.32852632,-0.23715451,0.008498027,0.0962749,-0.35508636,0.1462194,0.10900274,-0.24054645,-0.30162242,-0.14225191,-0.1659455,0.25135618,-0.13049378,0.23796278,-0.037434015,-0.17160523,-0.2530645,0.08357725,-0.10159809,-0.051168915,0.13974486,0.33171943,0.0956302,-0.07134823,-0.078986146,0.07318778,-0.017087677,-0.07395193,0.23179041,0.111230105,0.19890544,0.19452752,0.07972785,-0.07468354,-0.0423589,0.22151163,-0.18584064,0.074123405,0.027108448,0.1506984,-0.0007504577,0.28907603,0.0044982517,0.33094135,-0.014156692,0.14042313,-0.00020697142,0.20678422,-0.2179119,0.017920414,-0.33972567,0.03857934,-0.011197916,-0.24811733,0.27342033,-0.053783342,-0.0052929595,0.04731021,-0.3266914,-0.29436603,0.11373689,0.04633866,-0.16916195,-0.19379792,0.13008581,-0.008605258,0.0010164204,0.00017855404,-0.09296156,0.2305471,-0.38076258,0.20469432,0.010285421,-0.15945931,-0.17635518,0.06878698,-0.2241778,-0.01603916,0.20461759,-0.109710574,0.19141689,-0.17627555,0.15587357,-0.13899519,0.15117007,0.067591265,0.19002229,-0.386548,0.040498182,-0.3870083,0.027590964,-0.036133304,-0.26223043,-0.0928545,-0.1232474,-0.1785778,0.017394511,0.33155838,-0.19086747,0.3603961,-0.09730652,-0.13761522,0.16065308,-0.25587827,-0.13061014,-0.15776004,0.09725587,0.04337962,0.13410848,-0.096118756,-0.12266833,-0.089037105,0.06443285,-0.018374832,-0.21013054,-0.0031582096,-0.081625424,-0.22269945,0.074524716,-0.2751621,-0.023586014,-0.027127225,0.030917674,0.03233515,-0.22578298,-0.019771233,0.13407084,0.07979751,0.055770013,-0.11362241,0.19479434,0.09253313,0.08168159,-0.04647306,0.03129189,0.204921,-0.24934864,-0.10343719,0.010619791,0.115049146,0.05075848,-0.11406199,-0.40554824,-0.046131045,0.013390216,0.0434604,0.2616859,-0.19771162,0.08819844,0.24074528,0.023724526,0.040466607,0.35176516,0.1107922,0.2776161,0.21115424,0.21567878,-0.070913084,-0.12698963,0.04411745,-0.3101929,0.085116565,0.06873785,0.10247809,0.28702655,-0.056437653,0.010216025,-0.0907378,0.02096192,-0.32307753,0.14970966,0.13897736,-0.12671141,-0.515989,-0.21696062,0.21115002,0.11794211,-0.21660659,0.00078247493,0.0034506535,-0.1369582,-0.013291503,0.11751481,0.28181982,0.20863344,0.172733,0.023761231,-0.3017232,0.061935164,-0.1117969,-0.10027634,0.028820215,0.0451093,0.16764694,0.085292,0.18427208,0.22478627,-0.42905253,-0.11189378,0.013914626,0.023145346,-0.18187548,-0.15250224,0.020011913,0.19573951,-0.09003567,0.011686415,-0.051495947,0.13711427,-0.09851007,0.26682758,0.28474748,0.13557358,0.3830614,0.103779316,0.04930234,0.09334579,0.030079294,-0.20342061,0.13729659,0.065230705,0.56081444,-0.03643735,-0.17166339,0.1515211,0.06789874,0.30956864,0.1361275,0.19735561,0.20589842,0.009077649,-0.22976717,-0.23374757,-0.31216002,0.1318768,0.23609726,0.42898545,-0.29805663,-0.3497651,0.15179558,0.09929708,0.08710056,-0.23211752,-0.038452413,0.34404805,-0.13521175,0.0436706,0.00825991,0.19731934,-0.017282281,0.3431302,0.3683528,-0.06446548,0.14568418,-0.03716906,0.38242903,-0.053324673,-0.12530616,-0.31469136,-0.114372246,0.04555294,0.05221164,-0.006717488,0.3193812,-0.005435324,0.04482074,0.14374976,0.11228577,-0.17679752,0.022700043,0.2695215,-0.04677434,0.015300927,0.096251115,0.28439587,-0.1266146,0.037084684,0.43764636,-0.0051433938,0.14278954,0.046174645,-0.32445613,-0.035989307,0.09612775,-0.15662877,0.40089935,-0.22530943,-0.06525067,0.034785155,-0.1833498,0.037075054,0.16563049,-0.07925273,-0.15768345,0.250436,-0.11451103,-0.18229322,-0.030521644,-0.117332935,-0.06852078,0.08492587,0.008306518,-0.2918273,0.06518265,-0.103328906,-0.022220286,0.12713276,0.03593432,0.22429638,-0.07529312,0.1488976,0.12728271,-0.19063547,-0.10727062,-0.030117072,-0.34781232,-0.1429837,-0.18664008,-0.122375906,0.007230662,-0.040369287,0.010007778,-0.13858406,0.12425024,-0.24305993,-0.24321996,0.24898186,0.08617669,-0.11953996,0.24261662,-0.3415459,0.09214707,0.060174525,-0.0077871974,-0.26580134,-0.24762574,0.113467485,-0.029377615,0.48720756,-0.0782454,0.23125565,-0.482751,-0.05838636,-0.029336981,0.0856042,0.30012026,-0.28335068,-0.0042804526,0.12537728,0.044434525,0.20075369,-0.5199411,0.085384086,-6.517333,-0.07597162,0.1613453,-0.17736016,0.20794448,-0.21265689,-0.28122342,-0.21556503,0.2376373,-0.10914669,-0.23826231,0.02552998,0.048907638,0.015032252,0.12207968,-0.10313605,-0.030111881,-0.08858568,-0.27013996,-0.2188079,0.043876078,-0.26878655,0.014634695,0.30166486,-0.21601243,-0.08974856,0.014815177,-0.49853656,0.41551962,0.14864129,0.18414758,0.01722159,0.08711834,-0.19774213,-0.10573889,-0.0011372153,0.25611156,0.24512163,0.283655,0.041975033,0.017616482,-0.25261605,0.14112106,-0.3259836,-0.19454189,0.28309715,-0.24266694,0.10300678,-0.06299214,0.233929,0.047719188,0.030551312,-0.20712379,-0.31507298,0.3415695,-0.572577,0.021322748,0.465681,0.082554765,0.2866386,0.22379237,-0.030707302,-0.25675398,0.24007235,0.21314377,-0.010031428,0.18732655,-0.14756481,-0.13736501,0.05123759,0.43679413,0.3631166,0.38877988,0.21317878,0.10731083,-0.16844809,0.10473427,-0.25350192,0.016485335,0.058492415,-0.1799107,0.12527053,0.07882996,0.106159,-0.031925894,0.10419987,-0.14179325,0.2174786,-0.2977193,-0.33521262,0.54230714,-0.09494153,-0.2642748,0.12549283,-0.031497855,-0.1716919,0.13003328,-0.19767284,0.26302764,0.09435061,0.2794257,0.19650589,0.004560959,-0.046082683,0.19377011,0.16626118,-0.25958657,0.30808815,0.20750804,-0.044492487,0.12606746,-0.0048533515,-0.12838866,-0.07955561,-0.1579307,0.055762157,0.14363438,0.02979767,0.18455957,0.050557975
LYS_3_A,-0.07305016,0.09887244,-0.055991825,-0.296477,-0.19640549,0.32392347,-0.051288046,0.09813979,-0.037440855,-0.008216665,0.005393193,-0.31040013,0.39038953,0.1920204,0.41896597,0.32830682,0.065683134,-0.023087863,0.07919051,-0.22905041,-0.085655876,-0.11349979,0.09399849,0.24015555,-0.14438929,0.12458808,0.054440163,0.1499756,0.16505554,0.058524903,0.06401372,-0.061138716,-0.32961825,0.13454674,0.17955647,-0.101637825,-0.09815095,-0.27235755,0.18520154,0.122395486,-0.04372719,0.3096401,0.30067945,-0.104969084,0.023044186,0.15604901,-0.16222173,0.2143066,0.11894018,-0.07374075,-0.39806446,-0.20758525,-0.024769552,-0.22424303,0.09135111,0.054471597,-0.18673058,0.08376007,0.08028103,-0.07239737,0.076141775,-0.26894116,0.31637135,0.071303084,-0.0012931658,0.2576116,0.014001712,-0.23586378,0.041809652,-0.028745469,0.08165717,-0.009205042,0.0054084593,0.044662837,-0.02581522,-0.06475566,-0.017869951,0.13765354,0.15358904,0.0307885,0.119257055,0.15313192,-0.11034176,-0.03970065,0.045481652,-0.054482315,-0.018054012,0.060908902,-0.26403624,0.13420238,-0.19886827,-0.11793685,-0.15036483,0.21583754,0.07371819,-0.24264559,0.05430488,-0.23637867,0.09400204,0.017146725,-0.14807206,-0.2513182,-0.042954072,-0.073922984,-0.15485159,-0.15913124,-0.13226078,-0.3555882,-0.17754225,-0.11630282,-0.14851691,0.051046945,0.2732205,-0.013115764,0.010619952,-0.20485501,-0.1489893,-0.04971046,-0.08967698,0.21849106,-0.028928611,-0.0011895687,0.096886486,-0.22869939,0.036978308,-0.13831396,0.15095036,0.15188316,-0.094747104,-0.047825597,-0.043192822,-0.34140596,-0.047038823,-0.09855672,-0.06060105,-0.10909083,0.14582753,-0.06721843,0.025070064,0.07214979,0.052725192,-0.3656384,0.12895247,-0.08295995,0.244193,0.31542528,0.07200328,0.382888,0.10216824,-0.38670623,-7.026865e-06,0.17486486,-0.27909547,-0.2620596,-0.19291016,0.025859548,0.32007632,0.15672755,0.055881146,-0.06999293,-0.097881384,-0.009761568,-0.18204221,0.1674429,-0.100917876,-0.52398926,-0.15593919,-0.123778164,0.10449503,0.23014942,-0.23390177,-0.09407811,0.019268472,-0.0034653386,-0.07442902,-0.22905844,0.35395488,0.059996057,-0.48695058,-0.103060715,0.09776647,-0.038483597,0.15414537,0.25063288,-0.39239845,0.118566245,-0.25098896,-0.06677518,0.020393709,-0.14100812,-0.0915841,0.0028686034,-0.17796603,-0.107011296,0.2869448,0.19884267,0.22390896,0.17418282,-0.3412622,0.511623,-0.16200058,0.11962211,-0.14899151,-0.10829684,0.01971162,-0.09610085,-0.18292227,-0.082722984,0.007823457,-0.0090817865,0.329307,0.010587797,0.3063933,0.0074683805,0.07038821,0.03983462,-0.14659438,0.02910569,0.24924155,-0.115501106,-0.05969093,0.011540725,0.2134725,-0.41987085,0.032662567,-0.3930743,-0.15107866,-0.10129545,-0.096561134,0.47767225,-0.1040351,0.015877172,-0.14838451,0.045302816,-2.4669125,-0.19274618,-0.03321648,-0.32457983,-0.25637102,0.18117118,0.15698434,0.03330147,0.16256425,-0.01962267,-0.08107133,-0.22905962,-0.076939784,-0.015377197,0.15287927,0.12614763,-0.03892645,-0.1149322,0.23118074,-0.19396156,0.002720042,0.20066859,0.032706127,-0.037193883,-0.079928815,-0.33275422,0.11231744,-0.104202926,-0.10160244,0.03730395,-0.04403234,-0.055159166,-0.022847898,0.27675882,-0.20127408,-0.079771794,0.11044382,-0.113507345,-0.36244863,-0.047277227,0.026649747,-0.24659717,-0.15266764,-0.115449,0.05675435,0.10955747,-0.06526098,-0.15871906,-0.077681035,0.10593984,-0.0066392506,0.15849367,0.031695403,-0.07647461,0.13261545,0.09067284,-0.048246097,-0.2318934,-0.031203335,-0.2011092,0.19909866,-0.08265378,-0.09845608,-0.07336008,0.29212824,-0.1015818,0.0939647,0.04701603,0.30753073,-0.20651142,0.18138061,0.3490996,-0.24718392,-0.15035881,-0.12987459,0.006768271,0.16786551,-0.024291757,-0.18362671,-0.06761641,0.012329813,0.08049788,-0.014780432,-0.09678836,0.34637824,-0.039554533,-0.1820146,-0.21807009,0.40875092,-0.022519063,-0.014333708,-0.024802197,0.12231756,0.3683801,0.14162548,0.18476374,0.206482,-0.11343051,0.01876177,-0.014499527,-0.04499782,-0.012388435,0.14775509,-0.23423924,0.011221129,0.0838746,0.2625807,-0.1429942,-0.059912615,-0.12519732,-0.047508016,-0.066757135,0.025993366,-0.086567074,-0.11325894,0.078396864,-0.12336554,0.030518124,0.16183394,-0.15889904,0.0825957,-0.05653282,0.028046148,0.03704625,0.07560982,-0.07549837,0.035583913,0.29178652,0.19568805,-0.09756962,0.15417884,0.07224771,0.25249806,0.12036106,0.1051223,0.003717722,0.007380959,-0.1881023,-0.1146316,-0.1979554,-0.10853479,0.26440954,0.2483616,-0.10674744,0.29167753,-0.0019968988,0.14067304,-0.13245405,0.15236987,0.17578094,0.13071114,-0.08930138,-0.28289875,-0.2111791,0.13183293,0.16677888,0.09582542,-0.19957234,-0.21866329,-0.12645859,-0.344451,-0.56593966,0.033640455,-0.32829654,-0.28498858,0.036902107,0.077558614,-0.09401439,-0.31981298,0.120742716,0.07457122,-0.06892744,-0.18555295,-0.18745574,-0.13035339,-0.25323272,0.018883236,-0.057862043,0.2327383,-0.031508308,-0.0579864,0.032385178,-0.020129055,0.41362867,-0.18005297,-0.39001969,0.22630796,-0.004725717,0.25371855,-0.0030460528,-0.05088385,-0.14042084,0.10231301,-0.021972166,0.1721868,0.15494703,-0.108760536,0.17859344,0.24625866,-0.13149945,-0.018932946,0.17987522,-0.026782712,0.01618827,-0.16344325,-0.07482267,-0.038367175,0.4180399,-0.17006922,-0.24514739,0.15394437,0.08660796,-0.027399652,0.35699672,0.07915072,-0.120877564,-0.102024645,0.22613612,-0.061427843,0.10398142,-0.107900895,0.32429054,-0.04632158,-0.03952408,0.14247273,0.016061008,-0.009489101,-0.057046976,-0.1009855,-0.13255104,-0.08463858,-0.08786793,-0.036983166,0.28547296,0.037725117,-0.2619262,-0.07295917,0.17065144,0.10840588,-0.058436003,-0.1334589,0.008206529,0.023407636,0.15474643,-0.37921646,-0.0392826,-0.014217735,0.18124093,0.10325814,0.19872884,-0.02924213,0.056743007,-0.33638155,0.16077206,0.33242983,-0.06590472,0.0806834,0.062680356,0.3197159,-0.015015936,-0.15863587,0.01928943,-0.03490243,0.24943495,0.03293139,-0.13379638,-0.07162102,0.017937422,-0.26262993,0.0040802853,0.19668163,-0.022840584,-0.03577729,0.22355403,0.21763821,0.1906568,0.036617115,-0.16403545,0.11977847,0.0065474,0.13659365,0.04617015,-0.049841993,-0.019751327,0.14917113,0.0121431695,-0.2512188,0.21738213,-0.09750515,0.40883622,-0.15479055,0.22105964,0.09950928,0.29150498,-0.054064132,0.061097834,-0.07762804,0.05614484,0.14817756,-0.1022729,0.00900101,-0.21801095,-0.121428035,0.18238215,-0.025383467,0.19975519,-0.19405523,-0.37484163,0.13170396,0.118551716,0.036301166,-0.17456834,-0.15126866,-0.043411687,0.17543747,0.08009508,-0.08216447,0.08811411,-0.30632958,0.28571942,-0.17968397,-0.032155506,0.062090438,0.1292419,-0.14629768,0.25951847,-0.08080259,-0.15011461,0.33782938,-0.14442904,0.12392958,0.009483395,-0.1790501,-0.031420838,-0.024572797,0.078407675,0.22460529,0.106118575,-0.03413479,-0.070964195,-0.12507112,-0.062922396,0.18938552,-0.031104537,0.20287356,0.19406453,-0.15767182,-0.08741258,-0.118894406,0.3840753,0.08506607,-0.07434768,-0.1331773,0.15648548,0.083365306,0.17754117,0.16024825,-0.1542232,0.08247478,-0.069178864,0.1013296,-0.14890254,-0.019861475,-0.16710392,0.029801317,-0.19705902,-0.0020326811,-0.14374742,0.10603201,0.15601669,0.029074492,-0.029177042,0.16179964,-0.053930283,0.22282834,0.10146331,0.11770807,0.15314187,-0.24117553,-0.090474665,0.124599926,-0.21557102,0.39650398,-0.3150163,-0.11449993,-0.006501467,0.07965369,0.27258596,0.21173641,-0.10454527,0.28043783,-0.054683037,0.13105807,0.00950711,-0.091740996,-0.012289775,0.0042409734,-0.16864096,0.058619164,0.0725729,0.30415493,-0.022580706,-0.15391973,-0.010104355,0.024545038,-0.14708702,-0.4249615,-0.108367845,0.34508353,-0.09456509,0.28663188,-0.23497567,0.12151797,-0.049057875,0.09965615,-0.11758813,-0.19059849,0.42688704,0.024540748,0.15856116,0.12613106,0.044783764,0.32414225,0.30705893,0.21607941,-0.1015573,0.11644301,-0.13934655,0.32296082,-0.079515465,0.17557403,0.2549972,0.18077518,0.018436216,0.027431948,0.04051859,0.014819702,0.12801932,0.07488068,0.04295845,0.07724375,0.067132495,-0.38465318,-0.070336945,0.060894255,-0.15611543,0.04150052,-0.023146112,-0.2499394,-0.019941727,-0.11514343,-0.022426967,0.020335386,0.06194703,0.0065704817,-0.008483317,-0.2755418,0.25829387,-0.19153368,-0.12958129,-0.15511179,0.17426716,-0.35614762,-0.18195444,-0.076275304,-0.18923442,0.2659363,0.02567676,0.13416535,0.27439284,0.005844739,0.008592008,-0.09809858,0.09193269,0.30970958,-0.10220689,-0.3767727,0.0020828182,-0.11095718,0.30251393,0.06331281,-0.078040704,0.33952373,0.23479132,0.10904484,0.31544855,0.2111004,0.24238501,0.00817462,0.08647977,0.0025166532,-0.05628324,-0.038024742,-0.14084168,0.060480557,0.15677643,-0.01406395,-0.11401125,-0.14559479,-0.02228822,-0.09282523,0.0659751,0.3631962,-0.23126432,-0.06366874,0.100859806,0.1668111,-0.092593014,-0.09876965,0.18535575,0.15872318,-0.16013789,-0.01933288,-0.051760618,-0.067862965,0.22580507,-0.06585912,0.27155954,-0.15578832,-0.106019795,0.16736455,-0.3084384,0.4875861,0.10470508,0.14681685,0.15832935,-0.3208385,-0.061601404,0.15554315,0.037792105,-0.22698005,-0.39921045,-0.16289826,-0.23685746,0.22373833,-0.15680973,0.06907522,0.01688475,-0.039890356,-0.024993397,0.087081134,0.023959775,0.040230595,-0.43406722,-0.20980358,-0.0074348063,0.082983956,-0.06227032,-0.12924552,-0.00038983556,0.0056153755,-0.2740892,-0.12204262,0.022605047,0.07794335,0.02634557,0.13488214,-0.04168609,0.15959494,0.23743081,0.022762353,0.007301232,0.18821192,-0.17574263,-0.12575705,-0.21293648,0.04594478,-0.0124649005,0.11480478,0.10362509,-0.28253445,0.26311857,0.06214964,-0.14710172,-0.23326518,0.02600234,0.34045973,-0.34533986,0.12884408,-0.049292255,-0.08447611,-0.16215836,-0.08652011,-0.04098285,0.1851677,0.12702821,0.2248012,0.11772497,0.1735639,0.07280288,-0.110185385,-0.017277906,-0.1505835,0.015717478,0.611297,0.077012055,0.06427996,0.03145671,0.06665989,0.056718376,0.074279964,0.0840302,0.015922377,0.038374588,-0.008289562,0.16824974,-0.10940262,0.28397062,-0.03998658,-0.1469514,-0.07351835,0.28970703,0.029762948,0.21885364,0.32370564,-0.10301049,0.2895322,0.0053920783,0.27905285,-0.055108707,0.30939484,-0.053833712,0.02137158,-0.09361799,0.19106625,-0.116277896,-0.04577142,0.10978691,-0.012689883,-0.13049717,-0.20385855,-0.09026925,0.034685697,0.003382287,0.20808607,-0.112008154,-0.042887483,0.08498775,0.1166076,-0.15548383,-0.29546866,0.053216994,0.4732507,-0.033302616,0.05616071,-0.08772231,-0.005942511,-0.21312557,0.09598874,-0.26023224,0.14969893,-0.01911667,-0.004553208,-0.05133782,0.21431856,0.100653075,-0.16801803,-0.13223226,-0.054334786,0.14012033,-0.18440172,0.06498758,-0.030445255,-0.004135775,0.03322639,-0.12447976,-0.035995882,-0.08725454,-0.16856816,0.022434374,-0.3108234,-0.01957325,0.13594735,-0.11371674,-0.085711956,0.074849255,-0.29874486,0.044407666,0.15268083,0.009073016,-0.07249397,-0.1111129,-0.012012635,0.036299635,-0.17311949,0.1611955,0.16361474,-0.003563227,0.12426596,0.020925956,-0.34325916,-0.05501588,-0.06166747,0.058144685,0.075757876,0.04941906,0.20895195,-0.113221,-0.23810191,-0.050676264,0.28517142,-0.12066094,-0.029845797,0.08207926,0.20903042,-0.073949374,-0.13045967,0.1503863,0.12287111,-0.054657385,-0.107667,0.12995857,0.09811963,0.15120299,-0.18632735,-0.012018531,-0.2823995,0.117260136,-0.085801266,0.16273159,-0.31023479,-0.19120324,0.15888427,0.17048955,-0.08463882,0.2356562,-0.06382525,-0.008575735,0.20903827,0.16796717,-0.14658356,-0.005171409,0.09812237,-0.24583957,0.40986663,-0.016257504,0.35055196,0.17054282,0.07855553,-0.06641491,-0.059363354,-0.10829264,-0.005731281,0.19068839,-0.12938006,-0.04654204,-0.34650218,-0.060932927,-0.040318176,-0.051657423,0.071782924,0.06263586,0.11785753,-0.14548346,0.10457666,-0.04956025,0.07325556,-0.06425826,0.047112904,-0.14624588,-0.17657708,0.06270394,-0.060129173,-0.06797099,-0.027261434,0.08661089,0.03564285,0.2752879,0.03729027,-0.024682924,-0.14317358,-0.017967038,0.28372085,-0.018737506,-0.05077294,-0.12162554,0.06057942,-0.21375065,-0.15497157,0.0914506,-0.06650924,0.27120447,-0.2556866,0.20221427,0.36608115,0.14407066,0.13652785,-0.048228987,0.020918947,-0.017840197,0.32093877,-0.15319303,0.15693964,-0.1366479,-0.17712602,-0.06010264,-0.11201319,0.24151999,0.1844989,0.12273729,-0.050441686,0.21520433,0.03341784,0.30609274,-0.13603932,0.047370628,-0.22731602,0.13360101,0.16775534,0.26186368,-0.28816944,-0.49246356,-0.24926317,-0.103720695,-0.008772157,-0.1438429,0.10104841,-0.005742904,-0.16113241,-0.011549494,0.25342885,0.09465349,0.056262195,0.06074424,-0.020421317,0.13282175,0.13180292,0.009915423,0.26037857,0.040243067,-0.20955552,-0.08203504,0.041022494,0.008287145,-0.22067688,-0.12671266,-0.12056431,0.0879973,-0.122544274,0.115215264,0.41865692,-0.0060493043,-0.05072509,0.15544501,-0.4182313,0.00017545169,0.546486,0.079428576,0.0686043,-0.1342559,0.17827596,-0.08762624,0.10184572,0.28965902,-0.39501694,-0.075178385,0.17623985,0.2977224,0.02413253,-0.15090162,-0.074886486,-0.30969977,0.076098084,-0.011115554,-0.031156052,0.29359856,-0.05478399,0.39719763,0.037393857,-0.09186465,0.20756502,-0.3260614,0.1080393,-0.029521182,0.33744672,-0.0025018337,-0.18727578,0.32255703,0.27143207,-0.05743229,0.040115505,-0.35799655,0.1045221,0.14141792,0.092498295,-0.13596259,0.011033617,-0.17276049,-0.058334358,-0.16558926,-0.15362494,0.011323585,-0.20243596,-0.0029220805,-0.26301134,-0.21438245,0.01119157,0.2130112,-0.05200653,-0.086390294,0.061426412,0.01112555,0.060664717,-0.016317762,0.1862522,0.24010922,0.15783851,0.1376455,-0.37847883,-0.012409276,0.20771655,0.40173894,0.09720487,0.065616645,-0.12577054,0.14700721,-0.3143118,-0.023276033,0.24721529,-0.29509345,-0.007874732,0.0077847415,-0.022404462,0.24515255,-0.26384142,0.06328624,-7.3184743,0.0022047372,0.18980162,-0.08749727,0.08491395,-0.22310689,-0.12382235,-0.25754774,0.095268816,-0.10602325,0.07162336,-0.04595428,0.2449953,-0.3184012,0.20496522,-0.07601343,-0.07209672,0.09356654,-0.20088752,-0.06807567,-0.049078047,-0.3507872,-0.017041763,-0.28857356,-0.21045527,0.006570169,0.1147935,-0.23278666,0.08617836,0.0065425523,0.058310427,-0.17237096,0.23909199,0.19398634,-0.19431332,0.14419657,0.23110573,0.0026425186,0.31358632,0.14141072,0.03178661,-0.10204824,0.10650335,-0.108658984,-0.034964226,0.054310918,-0.2574287,-0.07413051,-0.12931487,0.24502264,-0.100667596,-0.17716034,-0.24119522,0.13266763,0.17748828,-0.30659673,0.018163767,0.21064186,-0.012883504,0.13019924,-0.15643519,-0.09543269,-0.28545138,0.024158556,-0.030996742,0.10951127,0.07900958,0.14530069,0.07730697,-0.1307317,0.14910854,0.19480556,0.207397,0.1628252,0.18412645,0.1120405,-0.07099486,-0.072563484,0.045811966,-0.11501049,0.08390556,0.12726016,-0.026504941,0.0008704636,-0.023665817,0.3182068,0.38021278,0.18883073,-0.10275255,-0.2688267,0.27216405,0.008570155,-0.03983529,-0.16917817,-0.20962617,0.08051023,0.16737796,0.065424085,-0.13737461,0.21922739,0.2251107,0.14058095,-0.02762694,-0.07787784,-0.12416105,0.2584195,-0.028217006,0.05511854,0.3574378,0.27598158,0.20029113,0.0870212,-0.15449266,-0.14162813,-0.08491789,-0.066124104,0.21271311,-0.07458399,0.09018553,0.36757535
LYS_4_A,-0.1105353,0.10421269,-0.015910052,-0.010648728,-0.08179292,0.36274314,0.045521434,-0.0395578,-0.120445654,0.33425587,0.13735047,0.019567357,0.58464724,-0.04440708,0.27613974,0.10525579,0.15449202,-0.035502244,0.0905316,-0.22600667,-0.011776036,-0.27857876,0.14791214,0.12192362,0.2821122,0.17239362,0.18288781,0.032951396,-0.10150521,-0.04488452,0.028940527,0.03907965,0.047498826,0.034150325,-0.006595612,0.06319172,0.075660124,0.023037732,0.18385841,0.021758534,0.034285538,0.07661364,0.17913856,0.032469217,0.0022026272,0.07214702,-0.23279381,0.12775715,0.09862903,-0.21044983,-0.10940401,-0.1245961,0.079331465,-0.1710485,0.34133044,-0.10383945,-0.03858371,0.05492834,0.16204393,-0.16010864,0.015578425,-0.0028977972,0.060180657,0.30553654,-0.13392128,0.30336374,-0.13189885,-0.14494948,0.094984636,-0.107867636,0.15842603,-0.08208911,0.12329394,-0.03707182,-0.13322166,-0.06729023,-0.040440172,0.10790837,0.3268062,0.17959939,-0.035957158,0.10905503,-0.23628977,-0.07592245,-0.1513496,0.013565682,-0.16332833,0.010224275,-0.041561667,0.11139638,0.050865676,-0.037341,-0.07945909,0.045858506,0.017002376,-0.10264015,-0.15731886,-0.062401325,0.112035766,0.20055336,-0.04336099,-0.0078397645,0.010697526,-0.20339286,-0.07021399,-0.027519273,-0.14925507,0.109528475,-0.10096506,-0.086133026,-0.19824855,0.25989854,0.3014989,-0.13700366,-0.023893042,-0.009796109,-0.0004401089,-0.011673288,0.029012738,0.341644,-0.0245585,0.055562455,0.32565728,-0.07185569,-0.001210121,-0.18048805,0.000814573,-0.023512369,0.03837566,-0.01661451,-0.106596015,-0.052283533,-0.03550407,-0.08737815,0.26914558,0.018308986,0.10722779,0.012808977,0.1707353,-0.042795647,0.0021066715,0.03195665,-0.023772232,-0.20571232,-0.0013550941,0.23401369,-0.074445434,0.39916226,-0.10815547,-0.20025654,0.06049247,-0.16818541,-0.26451582,-0.25102952,-0.07013289,0.18966393,0.25413832,0.10474486,0.20597902,0.22432007,-0.15054233,-0.03105867,0.050387353,0.12465733,-0.1504474,-0.0027537087,-0.040068295,-0.14219889,0.06548474,0.2480749,-0.3035652,0.07402547,-0.032922175,-0.10584574,-0.1673886,-0.04688314,0.05303204,0.12943444,-0.25414106,-0.1552214,-0.09123066,-0.30119225,0.088118725,0.17103104,-0.31706384,0.050570942,0.049090303,0.28175297,-0.025147151,-0.014005046,0.04774283,-0.28145164,-0.00996244,-0.02073287,0.115033634,0.110507295,0.18532771,-0.037146825,-0.19065371,0.48235846,-0.28142458,0.013579054,-0.05066639,-0.12513155,-0.056501124,-0.10195537,-0.052156273,-0.1778103,-0.059366435,-0.020299267,0.05650109,-0.29202586,0.2555639,0.08381204,0.21538618,0.093537316,-0.18525401,-0.049133703,0.22413918,0.098882504,-0.046102647,0.051067214,0.16890804,-0.45374265,0.06502255,-0.3485326,-0.28008607,-0.04605254,-0.16928865,0.34362006,-0.15778291,0.08559026,-0.04564018,0.052968755,-2.316999,-0.04511053,0.1526737,-0.123382114,-0.12433729,0.3396536,-0.054056115,0.075963095,0.35315382,0.040002342,-0.08617157,0.10976872,0.10738089,-0.114125006,0.10404309,-0.22522259,-0.12235946,0.090179086,0.53981495,-0.030465562,-0.06878622,0.13777733,0.03250106,0.10912809,-0.01465385,-0.43182793,0.081810616,0.056335624,-0.096625514,-0.10109402,-0.2084295,0.18902682,0.05215479,0.24619035,-0.22780915,0.018941857,0.030643502,-0.07002571,-0.19448051,-0.1466932,0.11715865,-0.22931366,-0.0075599398,-0.031147746,0.23060612,0.19477649,0.012904548,0.11528666,0.05643155,0.1899491,0.24266829,0.12242149,0.0991795,0.08710748,0.02050703,-0.25109023,0.13010076,-0.22380263,0.010181991,-0.13544837,0.032776114,-0.062370416,-0.08126586,-0.03225937,0.018525662,-0.13410188,0.23793256,0.23573777,0.11571378,0.031151697,0.14972799,0.082603745,-0.03224137,-0.042892464,-0.29173145,-0.11117691,-0.042973388,0.0629467,-0.13465975,0.016371582,0.022382399,0.2575476,-0.111907944,-0.292782,0.25011694,-0.15372537,-0.19789787,-0.07435085,-0.026570143,-0.15255064,0.0862239,0.018054193,0.06940572,0.30865207,0.11429185,0.32222494,-0.11549221,-0.054688975,-0.049944326,0.06463917,-0.14805482,0.20093107,0.16529904,-0.14177515,0.13859437,-0.061307095,0.14960358,-0.00025034184,-0.06808089,0.08048478,0.12137581,-0.006692539,0.0057762833,0.053633682,0.043128308,-0.13268869,-0.31770423,-0.078224726,0.04068961,-0.07292301,0.410574,-0.3464038,-0.010913833,-0.044687174,-0.22447549,-0.18402232,0.15428439,-0.012128548,0.22443454,0.009175905,0.02212199,-0.04542028,0.13141589,0.06091456,-0.05373448,-0.2129464,0.17548469,-0.25504434,-0.031200754,0.051922996,0.015003168,0.24897414,0.22772656,-0.072478965,0.32580066,-0.052713826,0.037556212,0.040232398,0.096944496,0.012289725,0.3033765,-0.07153097,-0.21637762,-0.25258568,-0.005001439,0.050191425,0.2104992,0.029812707,-0.14901417,0.05705279,-0.11269725,-0.32039165,0.14592983,-0.3926275,-0.21544188,0.059535146,0.19492482,-0.16998136,-0.34392196,0.09046945,-0.1446234,-0.0030288543,-0.039037857,-0.011692263,-0.11575854,-0.20857318,0.10417339,-0.04625797,0.0223871,-0.0539563,0.16049744,0.053213023,0.1291175,0.32182688,-0.019681081,-0.31923154,0.21402627,0.17108779,-0.13134806,0.08110001,-0.116480835,-0.039312005,-0.10073148,0.14970905,0.07090103,0.19670016,0.12668504,0.08522986,0.15640888,0.15956281,-0.17971373,0.083720274,0.14225583,-0.045326512,0.059571024,-0.418888,0.0832783,0.15859826,0.068222046,-0.044096462,-0.061457817,-0.2793225,0.064703055,0.113102935,0.13166676,0.009447198,0.1569911,0.03508968,-0.079647034,0.081553526,-0.28807294,0.32878184,0.054770414,0.16153075,0.070674434,0.2939582,0.12711331,0.13536127,-0.1325806,0.040147435,-0.0480332,-0.0809635,-0.18811846,0.18963267,0.21680725,-0.12703522,0.2635963,0.1705149,0.13764508,-0.17092793,-0.24357508,0.06809906,0.062675625,0.20519745,-0.13013968,0.03521846,0.00788738,0.110846385,-0.028377196,0.17566742,-0.1306225,0.26731685,-0.1349798,0.12728189,0.2666003,0.0636124,-0.33906943,-0.008629594,-0.03552143,-0.098892726,-0.03999866,-0.1552333,0.20276216,0.049184263,-0.21315922,0.2483767,-0.034359418,0.25125512,-0.083553396,-0.039385792,0.051466517,-0.016562913,0.0058550313,0.195937,0.02788164,0.14771637,-0.0002969441,0.010871349,0.121848755,-0.0629294,0.18058927,-0.028881244,-0.08087289,0.04584079,0.35070503,-0.21388945,-0.00028796523,0.086375974,-0.11407511,0.13626386,-0.48513967,0.34417886,-0.01419383,0.22389026,-0.04897828,0.11671816,-0.20120735,0.033056702,0.055263992,0.21863662,-0.06561713,0.09239285,-0.17312565,-0.007950253,-0.25654066,0.09409805,-0.07597344,-0.15732723,0.33485377,-0.0772225,-0.2792263,-0.23668787,-0.096389845,0.20609285,0.1077255,-0.103034526,-0.011910539,-0.07492799,-0.105808005,-0.07000234,-0.20245527,-0.06688035,-0.0075746933,0.10614141,0.033027273,0.10806296,-0.17084175,-0.28676495,0.26024145,0.06799112,0.029640399,-0.13691482,-0.088203415,0.08301201,0.14117277,-0.16369148,0.083661556,0.060552675,-0.02700016,0.13417065,0.063816145,0.065901324,0.060927246,0.05458,0.09118181,0.14934736,-0.07719448,-0.20864101,-0.02014237,0.37727013,0.027754016,0.16367574,0.009375488,0.06378127,0.17576344,-0.008304186,0.27852428,-0.07205177,0.18711561,0.07752549,0.07251381,-0.08610398,0.011388745,-0.17773612,0.36995077,-0.0021771127,-0.10889539,-0.027095914,-0.110471375,0.1632718,-0.026060937,0.22585842,-0.074916616,-0.30143467,0.042950343,0.35847217,-0.019431446,-0.022545852,-0.12268433,-0.1675114,0.11106441,-0.36708644,0.5070923,0.025233349,-0.17364709,0.006668,-0.2827678,0.262068,0.01721101,0.103309244,-0.10159425,-0.038151987,-0.21244936,-0.053939324,-0.022585988,0.07368713,0.017317364,-0.05176959,-0.026605492,0.1714463,0.16359678,-0.19678909,-0.13568667,-0.019740624,-0.060805723,-0.14676015,-0.27026972,-0.18301864,0.15270577,0.070992894,0.025771195,-0.23313755,0.13213034,0.15969601,0.22286111,0.020119805,-0.07982862,0.040028725,0.12389133,0.044072114,0.036077507,0.03907785,0.25332108,0.24441288,-0.026294004,0.022106951,0.06326182,-0.32792503,0.16539459,0.017636161,0.09929021,0.23048057,0.17565846,-0.08769436,0.19358967,-0.063010104,-0.17248024,0.020680629,0.3132105,0.07530951,0.05238065,-0.014696224,-0.11104621,-0.243096,0.12983248,-0.20525432,0.1347256,-0.1144405,0.06838577,0.20080806,-0.04157555,-0.0040536304,-0.07418991,0.03347502,0.08945438,-0.2386607,0.13693085,0.18808252,-0.23191123,-0.03228302,-0.21372452,0.03221066,-0.38872492,0.0030454954,0.29264432,-0.16914539,0.13222258,-0.064116366,0.057560835,0.13808449,-0.014325228,0.06516557,0.01035379,0.044732098,-0.028980792,0.072958946,-0.035518527,-0.016875196,-0.075263,0.09095961,-0.07365105,-0.21289174,0.18759432,0.025878904,0.09586587,0.09101522,0.077692926,-0.024993172,0.19463196,0.13074134,0.16087472,-0.11687197,0.04194824,-0.030631905,-0.03256007,8.322634e-05,0.039551973,0.1381062,-0.24408828,-0.27038112,-0.17248915,0.075417235,0.84429157,-0.19427043,0.012230508,-0.0084694065,0.08874115,0.23434371,-0.09940042,0.08219431,0.11889733,0.12059935,-0.0867495,0.024609188,-0.13123012,0.1458128,-0.12850453,0.41432968,-0.01736151,-0.012101146,0.49029016,-0.30733508,0.28398225,-0.051556095,-0.028596928,0.036308188,-0.06825026,-0.16279581,0.09388017,0.19055492,-0.33376628,-0.38228345,-0.10961137,0.022841008,0.17008068,-0.10936337,0.25578633,0.10859555,0.18196003,0.021727521,-0.01108746,-0.18310677,0.006020805,-0.23633987,-0.17379896,-0.10889416,0.1048702,-0.027778102,-0.18144792,-0.25904948,-0.038459357,0.113825195,0.10641142,0.007640788,0.0906663,0.0043378845,0.15314771,-0.32711768,0.10476349,0.03815044,-0.0211838,-0.0121308295,0.11408549,0.043131426,-0.03537391,-0.10913893,0.036646258,0.101833194,0.17563973,-0.11457031,0.0044725346,0.1402119,-0.113205306,-0.11899157,-0.3296653,-0.1935975,0.19866179,-0.22533625,0.05295454,-0.04520547,-0.05680258,-0.2103483,-0.041079424,-0.16346724,0.25598317,-0.12360746,0.29853258,0.012887615,-0.099945754,0.32297426,-0.08869559,-0.0040629045,-0.34615114,0.038053665,0.25018096,-0.045392305,-0.11650493,0.031255722,0.122287564,0.10263628,-0.11080476,0.1737846,0.036334615,-0.24296495,-0.15574901,0.10374456,-0.1730781,-0.06996683,0.099063404,0.037199732,0.035734233,0.114922084,0.028699508,0.09179894,0.11827548,-0.122753374,0.1511843,0.057021286,0.10526201,-0.044660866,0.13877566,-0.03035514,0.1051665,-0.14084707,0.011178873,0.07102351,-0.068952896,-0.046608016,-0.2201617,0.0348788,-0.087224595,-0.12370465,-0.07278778,0.13395421,0.10107185,-0.070114344,-0.16344996,-0.027915996,0.28792155,-0.16920988,-0.05644363,-0.042448346,1.0175207,0.012904254,0.22326183,-0.23735002,-0.070016846,-0.0030066962,0.030612051,-0.17686553,0.15462257,-0.073910974,-0.10565779,0.14250427,0.112918764,0.20462534,-0.012713927,-0.027808191,0.0072850413,0.15729678,-0.2127464,-0.09809115,-0.042981446,-0.21982962,0.11667411,-0.12630948,-0.092315085,-0.26476252,-0.079983346,-0.0070021455,-0.06930306,0.0674776,-0.12432322,-0.11160361,0.024082009,-0.021554416,-0.17642304,-0.12945719,0.075036116,-0.04849752,-0.17232604,-0.24451603,-0.17972198,-0.15253526,-0.09239977,0.33682218,0.041206345,0.15732992,0.146005,0.032373678,-0.15305795,0.0374427,-0.2665553,0.047039885,-0.09702089,0.16234602,0.040209956,-0.20583333,-0.28500983,0.17229466,0.22074224,-0.013034318,0.17915288,0.16580267,0.18756714,0.2727818,-0.07919717,-0.12291079,0.059796914,-0.1602997,-0.36612445,0.09696093,0.026326807,0.1282876,-0.110183805,-0.09570046,0.041790478,-0.090801984,-0.12909064,0.118474334,0.076826915,-0.32983142,4.3269305e-05,0.030600002,-0.39954826,0.21663322,0.08286437,0.107739806,0.0006810803,-0.1710943,0.17481676,-0.012643885,0.23316956,-0.06725253,0.09809551,-0.074711494,0.26684225,0.058531564,0.081949696,-0.10725251,-0.093366355,-0.072576284,0.046403818,-0.031109797,-0.09178427,-0.24099226,-0.23397139,0.048132945,0.08391988,-0.18233047,0.19256014,0.25164694,0.03756235,-0.14944759,0.09443572,0.11584216,0.16879794,0.11273505,0.20963094,-0.0595107,0.031978898,0.08637351,-0.030174874,0.18921074,0.11045877,-0.052763183,-0.096651144,-0.14467055,0.16593,-0.0030325598,-0.050930772,-0.028105948,0.28739917,0.08126425,0.111843504,-0.14968003,0.08412505,0.09914646,-0.017692303,-0.046274282,0.05126114,0.06423403,-0.489534,-0.14046599,0.43845385,-0.035985835,0.27954617,0.033490278,-0.017844718,0.03288007,-0.046021212,-0.19423737,0.18876292,-0.018986516,-0.02351828,0.07121402,-0.086309716,0.15506023,0.06854447,0.18739244,-0.19830285,0.007374807,0.21200545,-0.011663674,-0.03214824,-0.018637696,-0.23439342,0.027852118,0.12788785,0.22794175,-0.2518277,-0.3798312,-0.12915234,-0.046298485,-0.10549815,-0.47013196,-0.04100952,0.32604888,-0.21402864,-0.12285129,-0.03232764,-0.05006967,0.2598135,0.1858695,0.112138905,-0.22260387,0.13586432,-0.16356213,0.0023650166,0.06107436,-0.08759238,-0.039716903,-0.28373146,0.23845124,-0.021603031,0.09121559,-0.08053402,-0.035727203,-0.10591237,0.16294147,0.18661103,-0.073177025,0.20760256,0.46357912,-0.15178293,0.05756443,0.30047002,0.08156505,-0.20043741,0.14144571,0.27156225,-0.008465714,-0.28562754,0.06424698,-0.20848666,-0.023376247,0.13636617,0.18156205,-0.105041526,-0.23760895,0.08530633,-0.21792492,-0.07714374,0.048610684,0.1683476,0.1659431,-0.13625897,0.33966607,-0.09087087,-0.061209876,0.14073665,-0.101496115,-0.13179754,-0.035670955,0.0026934033,-0.18116146,-0.13967517,0.19199789,0.1467945,-0.25638422,-0.036094416,0.040131524,0.089533895,0.35667408,-0.0030744616,-0.17357278,0.06286266,-0.20812516,0.1636603,-0.1642668,-0.13062899,-0.3352404,-0.23114629,0.17385624,-0.07785614,0.052221317,0.11622453,0.16873014,-0.04928397,0.057836007,-0.07759429,0.063267045,0.13831784,0.007083216,0.13313322,-0.029210016,0.07469047,-0.19165291,-0.067474514,-0.18510011,-0.012407274,0.49408048,0.19017822,0.019810306,0.047027975,-0.03147092,-0.1390318,-0.084457584,0.43227127,-0.26816043,-0.02909097,0.15731177,0.14087972,-0.006955721,-0.12171139,-0.02277147,-7.697235,-0.32728866,0.07905575,0.07940657,0.16828251,-0.31330523,0.016737062,0.06973135,0.07995984,-0.13223092,-0.05139723,-0.06808543,0.19450466,-0.25325486,0.10850074,-0.2070911,-0.079586364,-0.19243293,-0.35995904,-0.13322736,-0.21968482,-0.24207081,0.06799476,0.15697955,-0.20393415,-0.083961934,0.1598141,-0.2725936,-0.12681256,0.32358715,-0.047191642,-0.20827848,-0.09962173,-0.023992503,-0.050282158,0.055364445,-0.02305474,0.18317497,0.04317999,0.18578115,0.21004319,-0.14176999,-0.123370446,0.2208449,0.040718548,0.06353978,-0.508938,0.023213152,-0.23500066,0.078341424,0.1617892,-0.09846825,-0.1910167,-0.17929973,0.021453774,-0.30293885,0.018588604,0.33129722,-0.13413721,0.19451755,-0.05464944,0.00902727,-0.027066762,0.058921874,-4.118952e-05,0.12963617,0.077071704,0.08399241,-0.048030175,0.15895791,0.12435477,0.19638418,0.1908088,-0.023742646,-0.28216296,0.2000814,-0.15353653,-0.29615116,0.116416775,-0.23250242,-0.23433836,0.08376167,-0.1637133,0.01556276,-0.019474864,0.14908013,0.23338608,0.16649726,0.075004764,-0.13475059,0.20166716,-0.17504655,-0.11319089,-0.10742485,-0.067830935,-0.10178973,0.07623033,-0.028101465,0.15847118,0.0048261154,0.35888526,-0.038952753,0.43288985,0.263965,0.09535718,0.36684135,-0.01879962,0.10539404,0.28924882,-0.03345165,0.14199407,0.08937049,-0.24868762,0.11316434,0.09476829,-0.22445194,0.16222587,0.034965485,-0.026482917,0.10207205
ILE_5_A,-0.24666993,0.12807474,-0.00096042367,-0.09649658,-0.013680151,-0.024248278,-0.06837714,0.064488895,-0.23748901,-0.1227367,0.3525432,-0.15310593,0.16743208,0.2470585,0.0711615,0.18343812,0.26531732,0.10125739,0.16654386,0.02227252,-0.034708764,-0.037922103,0.07263773,-0.192846,0.2556871,0.2776328,0.16471817,-0.018780997,-0.16473372,-0.06653931,0.07550936,0.059515573,-0.26642236,0.06706376,0.13020657,0.10025692,0.15344593,-0.10583434,0.14065978,0.058977634,-0.037741743,0.30213937,0.39507267,-0.22139417,0.03159338,0.072412856,-0.32916638,0.037232053,0.11567201,-0.19570474,-0.14012122,-0.036405854,-0.10138333,-0.24337992,-0.0366495,0.17917572,-0.06915053,-0.14699087,0.21167183,0.13474393,0.16281149,0.12957661,0.31194603,0.12441796,0.13667047,0.21726827,0.14113447,-0.018257039,-0.01865936,0.053692203,0.0022980857,0.064165145,0.047177,-0.11176656,0.038131405,0.022312611,-0.085954085,0.2431291,0.11781093,-0.10062283,0.115049824,-0.23901771,-0.12128295,-0.015574901,0.020762842,-0.104216,0.14953147,-0.20628184,-0.24172927,-0.5022729,0.14203832,0.018575178,-0.05824567,0.020369578,0.050568115,-0.22815415,0.2248993,-0.0017339458,0.18216367,0.13139653,0.27675045,-0.30323812,0.06182447,-0.49608007,-0.12535597,-0.27325702,0.0022308452,-0.011985453,-0.27507058,-0.26229218,0.040402215,0.134476,0.20230548,-0.08291524,0.16421299,-0.13567568,0.029243555,-0.008819375,-0.16079366,0.118305065,-0.20989907,-0.018186029,0.1309418,0.06288383,0.083763175,-0.24182446,0.16946682,-0.046957094,-0.2105081,0.037912726,-0.0877978,-0.22079763,-0.12008085,-0.009585979,-0.18054967,0.33297977,0.10202327,-0.069076955,0.09370981,-0.005803009,0.1372311,-0.14771737,-0.06302086,0.34137186,0.09596719,0.17765577,-0.20794944,0.14842069,0.1976274,-0.26343077,-0.15931839,-0.14431502,-0.008616743,0.05088,-0.11131591,0.20295978,0.2658916,0.12608483,-0.2425936,0.020757824,-0.10601006,0.332788,-0.08364262,0.21034215,-0.26877326,-0.31045595,0.05408749,-0.06708961,0.16699886,0.09696385,-0.15594864,0.14204387,0.04654239,-0.13552722,-0.008579726,-0.09874472,0.033511057,0.08093175,-0.2611877,-0.09045341,-0.127421,-0.04032888,0.123609036,0.1870057,0.14372039,-0.02161324,-0.1593172,-0.02411155,0.245311,-0.080514595,-0.16970181,-0.10756229,0.03927859,-0.06432838,0.18115865,0.09469991,0.05396164,0.38198492,-0.16398686,0.22141558,0.115773715,0.09220052,0.16464788,-0.24005534,0.08033655,0.20618515,-0.25831217,0.056107376,0.08256138,-0.014766106,0.029443506,0.1819141,0.13223857,0.11574883,-0.06443224,-0.03282234,-0.044114385,-0.04039044,0.017882528,0.0023226067,0.14830609,0.24054354,0.30489916,-0.13163546,0.16949908,-0.0731099,-0.30967644,-0.11955022,-0.20737487,0.05710739,0.12171255,0.0799702,-0.03216638,-0.11847902,-1.1773047,-0.02261035,0.24646713,-0.27570674,-0.18116447,0.05962222,-0.12373079,0.001838665,0.2113026,-0.09813168,-0.09736526,-0.12109729,0.026912818,-0.12141091,0.10789873,-0.10470663,-0.19612488,-0.06560654,0.2503085,0.12223092,0.016272789,0.11740408,0.023154657,-0.19305053,-0.15325452,-0.3221238,0.24777684,-0.09606245,-0.16835423,-0.09372767,-0.09191638,-0.021764388,-0.17552616,-0.0014541652,-0.070696436,-0.03635859,0.019003954,0.15978195,-0.04803223,0.088475056,0.089837104,-0.24364457,0.3099006,0.14248723,-0.120603934,-0.04470737,0.056393582,0.10920061,-0.077254295,0.1219288,0.19995515,-0.018620731,-0.0034530116,-0.14489824,0.1675822,0.25484404,-0.02158173,-0.07887375,-0.040741608,-0.24711992,-0.027209599,-0.25176892,-0.087475844,-0.1266618,0.15743081,-0.047374405,0.28380555,0.09887818,0.32323143,-0.020735804,0.24457213,0.11783414,-0.13987465,0.015429575,-0.2105767,-0.15097904,0.06998613,-0.14247926,-0.043070436,-0.14375809,0.100174576,-0.062150236,-0.18662721,-0.20544726,-0.12380942,-0.09572611,-0.22347015,0.11927066,0.0070487624,0.07838836,-0.18086767,-0.15667452,0.07843326,-0.00055326463,0.060805406,-0.22191508,0.20432487,-0.106575295,-0.043846782,0.18567635,0.15447453,-0.04235168,0.2323813,0.027525967,0.07293197,0.013859102,0.21865252,0.004146734,-0.26155698,0.114722915,-0.1630421,-0.13868997,-0.1392838,-0.22680223,-0.15538396,-0.08214898,-0.21637388,-0.15856877,0.5098794,-0.1500294,0.13674141,-0.14849329,-0.14956921,-0.08233343,-0.036305796,0.13094871,0.15602134,0.18770345,0.08055597,-0.00010376738,0.17032921,-0.12102139,0.023261802,0.20724234,0.33147302,-0.19609989,0.02376978,-0.02550249,-0.10674576,-0.12600218,-0.21769364,0.18511209,-0.2115914,0.12046047,0.33480322,-0.31402254,-0.07587792,0.07099137,0.013781016,-0.0152632715,-0.03450247,-0.112171784,-0.46797225,-0.26845175,-0.025877176,-0.329738,0.0081299795,-0.01861122,-0.16197722,-0.167014,-0.048630953,-0.5190741,0.22245243,-0.23674949,-0.18344891,-0.0654888,0.23240303,-0.19381683,-0.117679395,-0.10654793,-0.35197192,0.049787935,-0.13138984,-0.19998387,-0.2127545,-0.11634559,0.02598943,-0.17107439,0.32930687,-0.4267801,0.121184304,0.101006225,0.1630794,0.4179292,0.26593575,-0.043648016,0.17727841,-0.09398274,0.2507321,0.21716322,0.01806611,-0.2059003,0.09415511,0.04978623,0.2620883,0.0673291,-0.0913663,0.27233464,0.2716753,-0.13124435,-0.14644195,0.23716535,-0.14780004,0.18183991,-0.11932476,-0.17569484,0.044603143,0.21331662,-0.19898358,0.024019508,0.10058151,0.30300888,0.07488197,0.009200359,0.2891207,0.10640072,-0.008320062,-0.20395611,-0.12960565,0.14978585,0.012308566,-0.07131867,0.27218384,0.17563935,0.012493011,0.24843174,0.20515107,-0.03570697,0.124773085,0.17066786,-0.21115007,-0.026229087,0.19211267,0.21656732,0.010278136,-0.09341979,-0.10992356,-0.15118961,0.018880501,-0.28511983,-0.21993454,0.13597728,-0.026455715,0.29354438,-0.3100991,-0.050266977,-0.0037621688,0.17428836,-0.21943636,0.24743798,0.059920844,0.097698376,-0.3363811,0.22591469,0.10762854,-0.112506196,-0.059605908,-0.024696747,0.069679126,-0.18200275,-0.18349703,0.15782396,-0.09922424,0.09617551,-0.06857816,0.03189719,-0.12525941,0.09955059,-0.30631208,0.14442685,-0.24369864,-0.2073852,0.106731296,0.22841588,0.15375489,-0.121744,-0.20331113,0.026253408,0.17737849,0.17525734,0.46607983,0.26919702,0.044884205,-0.20589022,-0.031405155,0.104797594,-0.20590182,-0.026086688,0.039161496,0.12212084,0.021028735,0.14169149,0.15408126,0.1010916,0.11152786,0.021585586,-0.15172988,0.12694216,0.06348978,-0.18120547,-0.0369675,-0.25721568,-0.036485847,0.18296511,0.105498426,-0.015671102,0.25372335,-0.10957409,0.30682573,-0.08044947,-0.12120602,-0.23051013,0.06810271,0.23886687,0.079907306,0.08050044,0.21755025,0.07180557,-0.14377083,0.3238576,0.0022447978,0.07962665,0.13152614,-0.0461396,0.03427248,0.20236827,-0.023674108,-0.28909954,0.053362817,-0.028915983,0.2965559,-0.07942256,-0.3110818,0.0759744,0.13868254,0.15069243,0.13531399,0.46442023,0.044388704,-0.30918851,-0.2979709,-0.06993226,0.2132377,-0.2460042,0.13935685,-0.06630122,0.0005978357,-0.15846719,0.00014805679,0.1122721,0.43880865,0.023925342,0.07885076,-0.05484019,0.039061967,0.06812563,-0.005984028,-0.108395085,0.1958699,-0.19025403,0.35642698,0.11272143,0.28103876,-0.06487633,-0.124929056,-0.19392355,-0.021741288,0.15459383,-0.07843064,0.022088178,0.119256325,-0.21876357,-0.21150829,-0.1522048,0.27421817,0.05050545,0.15862022,0.043462586,0.026392385,-0.14377666,0.04193952,-0.043245878,0.15270999,-0.24565521,0.1682954,-0.22201142,-0.0008854246,0.27228257,-0.070046134,-0.0836057,-0.13065197,0.061589755,-0.10100893,-0.16798976,0.13132247,-0.01698463,-0.07770067,-0.1995221,0.14961398,0.088662714,0.45960864,0.06742516,0.14796847,-0.23696084,-0.20384075,-0.14239983,-0.2801963,-0.26521012,0.38732424,0.06621674,0.053509384,-0.094594955,0.21805026,-0.06591685,0.09069438,0.014576832,0.027953992,0.3093098,-0.009388364,0.17866527,-0.031844437,-0.06411975,0.12542196,0.121793054,0.03316329,0.008979799,-0.20254123,0.03362693,0.08920524,0.022461928,-0.031919405,0.24211076,-0.19741887,0.0126739405,0.056171205,0.30368382,-0.26030263,0.07320456,0.003938138,-0.001019918,0.16333774,-0.039593495,-0.30791423,-0.09873386,-0.032614965,0.012782673,0.13324496,0.054387882,-0.1472685,0.2369944,-0.0071796128,-0.032313786,-0.34599078,0.18670148,0.032589328,-0.120519504,-0.48816827,0.022199135,-0.006566094,-0.1273514,0.08505296,0.13971393,0.015687492,-0.23702337,0.13551576,-0.160953,0.06062086,0.009896282,0.2606564,0.24330908,-0.052878153,-0.24651845,-0.028075308,0.013035759,0.15792352,-0.07589748,-0.29539627,0.049324457,-0.1540209,0.41007453,0.22492722,-0.12470368,0.33482447,0.18296868,-0.22169293,0.4303809,0.09530343,0.23210922,0.19111206,0.1878836,-0.219489,0.051265128,0.106660016,0.14850794,0.18809085,-0.26478967,-0.112956226,-0.11098127,0.0020372279,0.25526634,-0.21371111,0.31327125,0.5265333,-0.070404194,-0.3301549,0.42169744,0.095990695,-0.021988822,-0.0055460352,-0.0422836,0.25519156,0.048853535,0.031225117,-0.08256732,0.027254313,0.0024568604,-0.0106799,0.4422503,0.01999462,0.02105517,0.014772365,-0.068865165,0.33538043,0.030020153,0.10612696,-0.02569716,-0.46030533,-0.013397551,-0.11166551,-0.0019697107,-0.24711166,0.112122685,-0.18255396,-0.047048777,0.0017626556,-0.0037215573,-0.024303367,0.034106825,0.17788057,-0.13287447,0.2469408,0.16012067,-0.02155877,-0.3522265,0.09672807,-0.12444351,-0.053675514,-0.23739083,-0.13934435,-0.43302754,-0.19868901,-0.19510639,0.26328036,0.0080020595,0.1327077,-0.12506416,0.31086743,-0.03148679,0.15111445,0.50712615,-0.01575108,0.06649482,0.16680792,0.058841735,0.006668751,-0.12095365,-0.16367126,0.005889377,0.015242255,0.15139988,-0.15672007,0.032056756,0.00013697147,-0.060677726,0.11523062,0.0024312432,0.21245058,-0.26299173,-0.017506365,0.059652098,-0.007365636,0.08551033,-0.19689855,0.10110001,0.04678109,-0.050780002,0.040040996,-0.06687127,-0.1105557,0.24610387,-0.13784613,0.0422416,0.032137234,0.10481782,0.21801299,0.17479087,0.15363353,0.026593149,-0.017007625,0.10600495,-0.04655243,0.012452877,0.38656276,0.05391795,-0.079184264,0.24164145,-0.21759257,0.09274915,-0.2186773,-0.04387485,-0.022234866,0.26602226,-0.22883366,-0.0089580035,0.03800764,-0.070427164,0.3053143,-0.041057024,0.22017449,0.045089554,0.30683854,0.16009766,-0.00597334,0.06320112,-0.043447003,-0.14206073,-0.01647002,-0.034771122,-0.05281668,0.036640186,0.09988545,-0.12676957,-0.00916191,0.094272606,0.10098471,-0.081838936,0.052875865,0.3025325,0.14536895,-0.10193862,-0.03275767,0.044388853,-3.2090461,-0.026377967,0.20716128,-0.08306806,-0.07127023,-0.15505737,0.016755,0.11867083,0.102645546,-0.0073133903,-0.091224015,-0.047831353,-0.09377668,0.17199558,-0.069167316,-0.008382812,-0.12953046,0.16015024,-0.19056952,-0.015730504,-0.08851727,0.0099522425,-0.07311978,-0.019784996,-0.10190995,0.08634487,-0.01476321,-0.13526514,-0.03319856,-0.042070515,0.03080175,-0.014530525,0.20897819,0.05262697,-0.015863754,-0.12130021,-0.1513961,0.033822246,-0.28134397,-0.16642065,0.21367009,0.07653381,-0.070318095,0.20093018,0.3403393,0.21999426,0.075321645,-0.0456619,-0.01502935,-0.11244337,0.04047214,-0.04310153,0.18775925,-0.058793668,0.18602978,-0.23492306,-0.09020803,-0.18565193,0.48382756,-0.37446082,0.08751901,0.012698195,0.13785344,0.18073384,-0.06903724,-0.15195537,-0.19603246,0.09064417,-0.046912275,0.2133673,0.120459154,0.26862097,-0.35001895,-0.018758958,0.13266633,0.019260703,-0.08735158,0.34155953,-0.031577688,-0.14880279,-0.048280813,0.22054148,-0.0880829,-0.01661825,0.123696014,-0.15802181,0.043178566,-0.10441077,0.13925023,0.13834476,0.14790888,-0.08106708,0.29143384,-0.116391465,0.061487816,0.15639971,0.41022083,-0.065845735,-0.16377272,-0.01993575,0.12857597,0.29021695,-0.2597276,-0.20478874,-0.41597506,-0.055432297,0.24632716,-0.08726745,0.1706191,0.039316848,-0.007912586,-0.13083225,0.07358248,0.2742618,0.18658791,-0.08911798,0.18105926,-0.1292387,-0.12931195,0.12796937,-0.111027054,0.10090634,0.20410551,-0.0524245,0.01410596,-0.076661326,0.250841,-0.16073975,-0.20845468,0.12854593,0.115143105,-0.02488804,0.08267401,-0.38088372,-0.023664193,0.11415978,-0.23227221,0.119120546,-0.045210656,0.108432494,-0.32200465,0.17611474,0.3493828,0.22039914,-0.17385113,-0.08083191,-0.10655998,-0.11244684,-0.038878944,-0.34207806,-0.0020842955,-0.16142112,0.035963904,0.22187236,0.055497244,0.24367988,0.10690553,0.12904032,0.15769829,0.025380531,0.17159311,0.19029196,-0.283653,-0.25946435,-0.09261017,-0.11324224,0.22252522,0.08463654,-0.21330135,-0.044248316,-0.06357355,-0.43378755,-0.25420654,-0.1006981,-0.10642674,0.0657663,-0.07388817,-0.24597298,0.085033715,-0.16587433,0.087711185,0.2875511,-0.10413402,0.043766443,0.06480445,0.10115767,0.11483547,0.07371507,-0.10782927,0.015392144,0.11752317,0.18707955,-0.13756445,-0.1084183,0.010654979,-0.15065539,-0.32205972,0.21628547,0.3147657,-0.10223489,0.10776339,0.231175,-0.26769316,0.05939983,0.23563503,0.20851068,0.1289676,-0.17361638,0.17549957,0.15364999,0.17789158,0.68122745,-0.18288349,-0.093625724,0.28682306,0.39900598,0.16709703,-0.11533916,0.054734323,-0.22116199,0.1406005,-0.037381176,0.18357603,0.036690447,-0.0073931655,0.26735288,0.04390242,-0.08836995,0.06931064,0.08874403,-0.086280935,-0.10385115,0.0604031,-0.07082193,0.020214465,0.21812166,-0.2749581,0.04676039,0.03685004,-0.072735436,-0.010705859,0.20593107,-0.15374212,0.055243697,0.00742518,-0.18388191,0.07069686,-0.12587102,-0.33399448,-0.034673486,-0.20947732,0.28404504,-0.048922084,-0.08194696,-0.008440787,-0.020078855,-0.19912328,0.06205136,-0.07777629,0.029435994,-0.18686463,-0.15282053,-0.050319485,0.13529748,0.12375504,0.3255394,-0.18749662,0.09148246,0.23839705,0.3761425,0.101937264,0.032416515,-0.021295441,-0.16923453,-0.3216696,0.16315852,-0.03531066,-0.2014327,-0.007628131,-0.048918124,-0.057762798,0.3060481,-0.22028571,0.013663454,-7.3437767,0.10038786,0.14044859,-0.046705384,-0.074842505,-0.423076,-0.19543487,-0.21584725,0.10915822,-0.05931387,-0.058022153,0.060265988,0.17389771,-0.046786662,-0.0043517896,-0.14350349,-0.19504754,0.040999517,-0.18995777,-0.20879716,-0.26760665,-0.11945502,-0.25228056,0.15319654,-0.16677848,-0.1699337,0.27652264,-0.22369412,-0.048076473,0.008042564,0.124366276,-0.12214105,0.01932365,0.16641945,-0.19753815,0.20899783,-0.07872322,0.09596093,0.16991293,0.12407115,-0.119069375,-0.024184331,0.11919675,-0.51175797,0.1841618,0.07613835,-0.252394,-0.25974324,-0.23959395,0.015037415,-0.122517325,0.20425698,-0.058386937,-0.036115915,-0.047659498,-0.15632845,-0.037228186,0.094386876,-0.08840412,0.14151028,-0.15791687,-0.042434942,-0.14420277,-0.024793008,-0.020689514,0.14927214,0.080246754,0.12770492,0.034472805,0.024055816,0.027224526,0.0064615086,0.16278513,-0.16409656,0.23786084,-0.1345623,-0.07131793,-0.19106486,-1.8303093e-05,-0.20240429,-0.3524717,0.18700662,0.0512308,0.014217369,-0.15842907,0.20728078,0.1687101,0.21112363,-0.15576954,-0.12895684,0.1674536,0.1775912,-0.066538826,-0.176729,0.041420743,0.017652543,0.17580383,0.13498758,0.16155757,0.1381332,0.17732821,0.105461545,-0.22134925,-0.0866495,-0.005774919,0.08271414,-0.2641405,0.13445611,0.3740306,0.040771265,0.21365136,0.056422688,-0.13640302,-0.068348944,0.005501464,-0.15678044,0.17937726,-0.09182754,0.15054223,0.07927067
ASP_6_A,0.061078396,-0.12642238,-0.047819115,-0.057891328,0.08173489,0.27190608,0.04148689,-0.04177732,-0.07460195,-0.043268528,-0.05885393,-0.101598606,0.28921947,0.35826376,0.17783715,0.077433586,0.038896665,-0.33743438,0.011369211,-0.1178957,0.10291207,-0.0032733353,0.09599448,-0.07815601,0.39993247,0.12209005,0.30925566,-0.23572078,0.19695379,0.05241381,-0.008363569,-0.028060237,-0.1582752,-0.12517545,-0.19714625,0.085950196,0.06069731,-0.11047716,0.05338878,0.16786973,0.055056084,0.1279091,0.2953705,0.0817295,-0.18075143,-0.16735323,-0.24831979,-0.15998171,0.20621316,-0.11978222,-0.14881757,-0.042606693,-0.072952755,-0.09863675,0.33628005,0.11100905,-0.13865598,-0.042963445,0.23611191,-0.16734785,-0.22703403,0.066997305,-0.13990712,0.16071846,-0.011599861,0.2288218,0.08127002,-0.13371596,0.07223064,-0.07484786,0.14643441,-0.14695357,0.019311484,0.28330478,0.11065037,-0.19459581,-0.06841791,0.023271542,0.25118348,0.21588156,-0.03236256,0.00955633,-0.17617103,-0.040525444,0.00023291848,-0.039596584,-0.4375882,-0.11825131,-0.13900334,0.2396176,0.1899518,0.19679244,-0.08138038,0.079439476,0.21718937,-0.07358467,-0.05062124,0.052760217,0.21150778,0.13573565,0.19116223,0.041732818,0.06558531,-0.058685403,-0.14246057,-0.18024682,-0.22740772,0.51535743,-0.34339675,-0.13364871,-0.042109117,0.3165897,-0.04433517,-0.0058431076,0.12666897,-0.06558718,-0.21728341,0.025894148,-0.11437636,-0.05909259,-0.0128638055,0.116404444,0.12275779,0.14936204,-0.1981839,-0.20759596,-0.034525562,0.030303542,0.32247007,0.15357421,-0.17586833,-0.19039212,0.09970557,-0.096277304,0.12340046,0.30386627,0.124656856,0.15564305,0.22614296,-0.084157474,-0.033608776,-0.047404572,0.036774565,-0.11441548,0.18162996,0.27875346,-0.19482757,0.22895493,-0.2507512,-0.2721269,-0.18423307,-0.030935518,-0.105461694,0.22428621,0.07186118,0.16845205,0.14071845,-0.16407411,0.22602858,0.0008890026,-0.103549026,0.2296126,0.1034098,0.28434268,0.011499322,0.074681394,0.051126163,-0.17276634,-0.09945663,0.1942968,-0.30749825,0.17771609,0.14372799,-0.06886899,-0.07407677,0.1040021,-0.012455268,0.3925098,0.012933657,-0.042484976,-0.35352793,-0.18390496,0.03217826,0.16697396,-0.20686601,-0.036242027,0.040526036,-0.019683905,-0.08616791,-0.044088963,0.048958585,-0.07149593,0.046697073,0.037340425,-0.026688876,0.14695212,0.23514265,0.082685865,-0.22162652,0.31505582,0.08427732,0.0023280012,-0.14777826,0.012035683,0.04556865,0.03905376,-0.25945202,-0.06992135,-0.020828877,-0.16847895,-0.025859304,-0.18337551,-0.08341673,0.08255929,0.17107637,0.03457069,-0.053455427,-0.4271449,0.24376692,0.17766389,-0.14232515,-0.10768472,0.036045667,-0.25755757,-0.1709571,-0.17374751,0.0068281847,-0.14196627,-0.31361532,0.37110695,0.18849924,0.18651794,-0.23141336,0.1329207,-1.9630995,0.024185993,-0.11711311,-0.045885608,-0.026200205,0.10162482,0.043726783,-0.3125315,-0.25963318,-0.060207434,-0.123503126,-0.08117632,0.04451341,0.028955903,0.054283068,-0.30462468,-0.26846504,-0.034174204,0.23037067,0.08570151,-0.1303652,0.20516975,-0.08632017,-0.105956845,0.120118424,-0.13960761,0.148138,0.10580332,-0.08033224,-0.026982004,-0.3666971,0.24481927,-0.016330771,-0.14769286,0.03485389,0.05783378,-0.08501142,0.1232929,-0.1750396,0.061174754,-0.17525381,-0.03997177,-0.08293635,-0.037806094,-0.10320666,0.010548498,0.05027264,-0.22110716,0.2739031,-0.13973711,-0.04664837,0.08555262,-0.07008289,0.2240944,0.03217916,0.16692461,-0.25716805,0.01152147,-0.07200562,-0.07346939,-0.06706269,-0.050415367,-0.0457986,0.27123234,0.24239078,-0.013048313,0.14918816,0.3239238,0.16790776,0.0012797759,0.3983987,0.082087725,-0.07496178,-0.16463731,-0.17991139,-0.05346155,0.2774481,0.017747257,-0.27940553,0.062225495,-0.083481,0.16401473,-0.21762788,-0.14083351,-0.3187979,-0.11594103,-0.044575337,0.07662799,-0.19879378,-0.22357519,0.24686468,-0.20464699,0.09178281,0.40963867,0.0006509053,-0.023949897,-0.15393887,0.20926253,-0.03843816,0.21997555,-0.07298147,0.12523322,-0.0075966516,-0.056613687,-0.0064702085,-0.016811896,0.24910374,-0.06296239,-0.33330637,0.029922422,0.0022538013,0.0333132,-0.054627873,-0.0077249063,0.10730048,-0.076921836,-0.116094716,-0.0716159,-0.13256931,-0.26533547,0.2773474,0.0021264604,-0.21162795,0.013771256,-0.008134868,0.11352866,0.37533736,-0.059026893,0.16105653,-0.22830263,-0.18861963,-0.20641944,0.25475687,-0.001764684,0.15204331,-0.33035377,0.5345476,-0.38418815,-0.1045928,-0.09481465,0.2841049,0.2615369,0.0015180852,0.0016257218,0.11147011,-0.16796507,0.17577808,0.10209238,0.08234003,0.19669409,0.27449337,-0.2191834,-0.11707592,-0.16400288,0.2927922,0.13385968,-0.1061644,0.16716626,0.13528632,0.2261794,0.075671054,-0.17527543,-0.104572244,-0.33127186,-0.06485547,0.002982192,-0.024053132,-0.15796496,-0.44281605,-0.09639783,-0.016825864,0.13114794,0.0739674,0.17393795,0.034584414,0.00093721726,0.12683132,0.043155752,0.040678535,0.12368278,-0.070002824,0.28008682,0.009081296,0.1772408,0.27110195,-0.18523376,0.054431744,-0.26567382,-0.15417288,0.0027545502,-0.15108141,-0.06212202,-0.24749827,0.3285705,-0.08913494,0.11765763,0.1120974,0.03270577,0.058268458,0.14187747,0.05900854,0.18434179,-0.005441289,0.10266596,-0.018871022,-0.11911411,0.13542883,0.26432866,-0.042613026,0.051493578,0.11761307,-0.08876806,-0.116977826,0.21989255,0.13053693,0.025509905,0.29051298,-0.14104564,-0.08565526,-0.024094166,-0.2762664,0.09170319,0.2583492,-0.08547559,-0.04485686,0.36381006,0.28172567,0.06709327,-0.16790839,-0.13869153,-0.025611535,-0.23453641,0.004282833,0.23407668,0.2869619,-0.049525063,0.16020033,0.023974743,0.023167783,-0.009393563,-0.1864065,0.087568715,0.24142198,0.069865614,-0.22590841,0.047094833,0.07986448,-0.13271043,0.15391263,0.0064325975,0.15816319,0.1762036,-0.12135753,-0.09161774,0.092945375,0.25735733,-0.31078807,-0.10770985,-0.4432245,0.039399978,0.19599068,-0.19420147,0.063765876,-0.10280245,-0.253444,0.1995962,0.08391413,0.112641595,0.009698753,-0.15307842,0.007496747,-0.14658181,-0.079419665,0.121055745,0.035213396,0.16854748,0.16749987,-0.28866917,-0.020678433,0.23795095,0.44842458,0.022230564,0.054633074,-0.20796598,0.41816917,-0.09988791,0.15011877,-0.03561601,-0.1742399,0.12440523,-0.06336629,0.30011937,0.17863333,0.42822036,-0.21626575,-0.042771064,-0.015232137,-0.14662182,-0.02182419,0.14664939,-0.19594851,-0.17795534,0.06631832,0.03137144,-0.1102968,0.06784045,0.15959054,0.035618454,0.39748678,0.012822338,-0.1255144,-0.3104399,0.124420784,-0.21821906,-0.005994972,-0.017263282,0.19135188,0.18456985,0.020768676,-0.014327996,0.037890617,0.13547222,0.04041599,0.038948264,-0.13919988,0.27713493,0.015406694,-0.31989348,0.11642017,0.12979169,0.07351978,-0.11802493,-0.16229716,-0.029620195,0.4888462,0.078021504,-0.08391267,0.1921088,-0.11033912,0.15723988,0.27757978,-0.07983508,-0.09160888,0.007111675,0.1783388,-0.21985209,-0.25621444,-0.047141097,0.035291966,0.37323874,0.010734825,0.064050786,-0.039736215,-0.014467011,-0.08277942,-0.10788097,0.20093535,-0.25126112,0.085318364,-0.07100341,0.12983745,0.24295273,0.10097946,-0.05408424,0.038401995,-0.0039910255,-0.05760805,0.13121964,-0.24733645,0.028761275,0.101079226,0.5099048,0.08174684,-0.10283327,0.02298743,0.14871243,0.0013011283,0.21759613,-0.030664263,-0.1665197,0.10544385,-0.23671159,0.44928226,0.0965576,-0.22121611,-0.09112248,-0.0016792108,0.13417143,-0.2584346,-0.057464138,-0.21511114,-0.15892528,0.0029129614,-0.16151133,-0.02113549,-0.062439084,0.22291481,0.03534332,0.04049742,0.0023105196,-0.09182078,0.004505398,-0.15574712,-0.3003713,-0.1533575,-0.4482703,-0.16666426,-0.02415862,0.11470604,-0.04557669,-0.02615861,-0.3893463,0.17841625,0.051760912,0.180325,0.1438535,-0.16415127,0.115381055,-0.091449015,-0.23250942,-0.23760566,-0.05967854,0.20392624,0.4176102,-0.08014078,0.09411633,-0.25889102,-0.26594195,-0.40773782,0.0006631921,-0.061805997,-0.021365589,-0.038179085,0.08710237,0.1237209,-0.21600378,-0.20303605,0.13393986,0.09294671,0.1394649,-0.0052942624,0.038307883,-0.32819372,-0.029015401,0.14947583,0.1705428,0.15671673,0.010413677,0.07136228,-0.14266483,-0.06844429,0.060891703,-0.15146193,0.119851544,0.07107493,-0.20506963,-0.11790306,0.05709216,-0.1749012,0.042575233,0.030559467,0.07061183,-0.06307418,0.052045565,0.14911066,-0.11812867,-0.02684312,0.032485586,0.06258072,0.13760006,-0.06997573,-0.32446903,0.1373124,-0.10384864,-0.22793351,0.14749657,0.13959415,-0.020314263,-0.18282738,0.13925627,0.0076641766,-0.56899154,0.43295047,-0.19695647,-0.019611975,-0.039671462,0.252278,0.0350042,0.28200144,0.16986461,0.2511562,-0.24041866,-0.02851183,-0.028759684,-0.131188,-0.14382902,-0.0043011783,-0.058284495,-0.1553743,-0.042032726,0.045996718,0.2724529,0.5191471,-0.1341776,-0.23850086,-0.1953885,0.056651242,0.0837236,-0.16368417,0.06413678,-0.21623744,-0.071740694,-0.3068718,0.021062033,-0.003249905,0.07813104,-0.23908742,0.4040879,0.11057972,-0.15367047,-0.07187969,-0.3022655,0.32717264,-0.19662994,0.11806539,-0.14339198,-0.18221442,0.1421522,-0.17399059,-0.14486349,-0.24646145,-0.029379016,0.018789083,-0.08498108,0.17452052,0.0071458914,0.033681724,0.0009013452,0.19408031,0.01876289,0.013224039,0.04570526,0.20203389,-0.040507477,-0.0641995,-0.23876086,0.027570868,-0.033049557,-0.17066422,-0.20296404,-0.21386597,-0.13473228,0.37528142,0.024991682,0.0081417225,0.04053784,0.07231213,-0.22388193,0.027103243,0.003247118,-0.039730806,0.42522925,-0.08046033,-0.08155512,0.03978028,-0.20122543,-0.14421578,0.11637249,0.09136346,0.0756814,-0.18656874,0.06644019,-0.0053591533,-0.2686388,-0.23422818,-0.09895317,0.17569952,0.0600563,0.24104314,0.18152386,0.12703916,0.14197613,-0.32701617,0.18975697,0.43329152,-0.21903801,0.09122622,0.0031779646,0.12317065,0.4726526,0.11779221,-0.040859357,-0.1614324,0.0016171889,-0.07131249,0.22006398,0.08584273,-0.2756562,0.09929851,0.18107101,0.080201454,0.08437125,-0.16958284,0.07961802,0.0073444867,0.27612317,-0.1755242,0.029816246,0.018012049,-0.07975813,-0.11517798,-0.086147636,-0.11236565,0.22772086,-0.12837443,-0.056096748,0.16173047,0.059066135,0.2565468,-0.05609104,0.011471541,0.0053403787,-0.10174326,0.124598265,0.08235203,-0.017090766,-0.0948194,0.028444089,0.094561845,0.23233676,0.024505753,-0.0985371,0.013928252,0.5196178,0.1270971,0.10299477,-0.00091328967,0.32995948,0.15971085,0.0072694593,0.049780663,-0.026795212,1.6322064,-0.07577868,0.06823683,0.0017411162,0.38130704,0.045595914,0.027052911,0.046942882,-0.049100485,0.020841418,-0.05649826,-0.24196203,0.15527591,0.28902045,0.22445378,0.016213685,0.094140515,0.32800326,-0.13256817,-0.02111554,-0.435978,-0.19277324,-0.2061694,-0.13660866,-0.28300318,-0.24411029,0.0639422,-0.06598305,0.06658494,0.16358416,-0.0029466434,0.008314548,0.073568024,-0.023239942,-0.23328978,-0.23911655,0.181351,-0.030619582,0.007954712,-0.1253269,-0.1526683,-0.195414,-0.1709048,0.21375029,0.13218643,0.021610303,0.08856026,0.032937676,0.29710972,0.25473037,0.03995173,0.05036932,-0.32451746,-0.098425284,0.140226,-0.36391082,-0.07008219,-0.12902537,0.030665196,-0.21637084,0.23154114,0.32474962,0.1606516,0.23976922,0.0071672923,0.18817642,0.3177849,-0.07055816,-0.27907652,0.05771352,-0.24065192,0.11733329,-0.01476086,0.09747723,0.020335296,0.29453492,0.2919243,0.18082166,-0.024561826,-0.12373161,-0.023788763,0.03999417,-0.116713166,0.093186885,0.025601234,0.22468361,-0.006237138,-0.3396418,0.17162716,-0.13094729,-0.08650623,-0.13749787,-0.45276773,0.060736492,0.24029782,-0.15666103,0.16268219,-0.12995006,-0.022367835,0.0063765845,-0.18558367,-0.04979569,-0.30089587,-0.19513412,-0.44130364,0.14858384,-0.07110558,-0.37994924,-0.18329833,-0.00014462514,-0.25951385,-0.117247894,-0.11167489,0.10296853,0.12697195,-0.15869264,0.18377656,-0.30234304,-0.12055933,-0.121209025,0.03598966,0.008442227,0.024281451,-0.042143747,-0.10419822,-0.21969923,0.11158616,0.16648918,0.10693243,-0.018442938,-0.17773677,0.09980535,0.26128697,0.020356972,0.10692631,0.07144411,0.12573057,0.08365974,0.29465455,0.2828797,-0.31672674,-0.1540292,0.15122154,0.22875398,-0.00075104396,0.07895635,0.08992787,0.048894223,-0.18677185,-0.5517333,-0.09147497,-0.02046149,0.004343148,0.1165477,-0.043153733,0.14965303,0.12012656,0.17951964,0.106759876,0.2276519,0.06590651,0.18667677,-0.17779464,-0.041941565,-0.15935884,-0.10284285,0.08173812,0.18598914,-0.28255406,-0.20568271,0.3066725,-0.03193791,-0.18242308,-0.3097875,0.1832003,0.02732515,-0.19511664,-0.27339217,-0.010514619,-0.10233537,0.30073616,0.21707442,0.07072691,-0.06606493,-0.14611384,0.04483789,0.093089834,0.092989765,-0.08879168,0.15417948,-0.15292367,0.1307808,-0.08837293,0.012271105,-0.15798835,0.025107179,0.07282617,0.17238553,0.18964589,-0.20237875,0.08293059,0.27042207,-0.055516366,-0.10437902,-0.008222894,0.13699314,-0.054550752,-0.032009657,0.41100964,-0.039727654,-0.016500005,0.06675831,-0.08815234,0.058878202,-0.06414025,-0.11630644,0.26115853,-0.110812455,-0.06387615,0.02396873,0.22050524,0.27066702,0.07800749,0.14216046,-0.017751087,0.18084213,-0.13659275,-0.22441278,-0.031019064,-0.016054815,-0.08339462,-0.064552516,-0.09542062,-0.10715548,0.008638291,0.13539945,-0.24527815,-0.16224961,0.2231475,0.35723564,-0.02557661,0.21997245,0.19008525,-0.2562121,0.10494652,-0.2497244,-0.0031203807,-0.15350886,-0.015947979,-0.37442115,-0.10952107,0.08283187,-0.02823889,-0.101562336,-0.047712136,-0.06557506,-0.13415265,0.120464854,-0.06293236,-0.09259738,0.11950684,-0.13227978,0.06327313,0.15354759,-0.011877124,0.059850328,0.21687074,-0.034093853,0.059155427,0.50168836,0.1553469,0.1212993,0.060899332,0.267641,-0.010614757,-0.13070273,0.2657245,-0.28539425,-0.028999252,-0.15366454,0.00046289156,0.29260138,0.08555378,-0.02493473,-7.374099,-0.3437384,-0.060859952,0.09273441,-0.00850476,0.10397172,-0.25355986,-0.26001468,0.09846394,-0.15920061,-0.20534474,0.021695226,0.052624807,0.17326856,0.104982436,-0.039324477,-0.0067601837,-0.117235385,-0.26958454,-0.18556483,-0.23187068,-0.1798248,-0.075680874,0.18594049,-0.13160793,-0.20904955,0.1382206,0.07454179,0.11748826,0.3061552,-0.00517279,-0.047287107,0.019493151,0.29560304,-0.12202487,0.1698224,0.18761343,-0.011623471,0.26600415,0.23187941,0.019147852,-0.2377806,0.19997954,0.22572757,0.21896315,0.112826526,-0.42066726,-0.36727077,-0.15696083,-0.035559062,0.054216687,0.14069049,-0.4282289,-0.30346453,-0.0375655,-0.35286543,-0.054364946,0.2784882,-0.24709238,0.08334998,-0.124872856,0.10127793,0.0649705,0.1799761,-0.035474055,-0.13167536,0.07621149,-0.124274686,-0.15229528,-0.10956935,-0.11671307,0.14133477,0.15827198,0.16929227,-0.18567355,0.18919797,-0.33602437,-0.084758714,0.17036794,-0.08236364,-0.14154844,0.33101425,0.05808887,0.039067008,0.093873456,0.15673621,-0.13860469,-0.013260794,0.057245057,-0.00847284,0.07788683,-0.12670965,-0.10917525,-0.13190074,-0.11147307,0.0856424,0.070139244,0.20152205,0.08260409,0.10862176,0.38348565,-0.037631895,0.60478795,0.100670926,0.120255634,0.30513898,-0.21822046,0.15058291,0.19069614,0.07620689,0.17863058,-0.05176316,-0.17234755,0.08538227,0.15430371,0.015172597,0.15421602,0.048155,0.08906573,0.08400724
