residue_id,0,1,2,3,4,5,6,7,8,9,10,11,12,13,14,15,16,17,18,19,20,21,22,23,24,25,26,27,28,29,30,31,32,33,34,35,36,37,38,39,40,41,42,43,44,45,46,47,48,49,50,51,52,53,54,55,56,57,58,59,60,61,62,63,64,65,66,67,68,69,70,71,72,73,74,75,76,77,78,79,80,81,82,83,84,85,86,87,88,89,90,91,92,93,94,95,96,97,98,99,100,101,102,103,104,105,106,107,108,109,110,111,112,113,114,115,116,117,118,119,120,121,122,123,124,125,126,127,128,129,130,131,132,133,134,135,136,137,138,139,140,141,142,143,144,145,146,147,148,149,150,151,152,153,154,155,156,157,158,159,160,161,162,163,164,165,166,167,168,169,170,171,172,173,174,175,176,177,178,179,180,181,182,183,184,185,186,187,188,189,190,191,192,193,194,195,196,197,198,199,200,201,202,203,204,205,206,207,208,209,210,211,212,213,214,215,216,217,218,219,220,221,222,223,224,225,226,227,228,229,230,231,232,233,234,235,236,237,238,239,240,241,242,243,244,245,246,247,248,249,250,251,252,253,254,255,256,257,258,259,260,261,262,263,264,265,266,267,268,269,270,271,272,273,274,275,276,277,278,279,280,281,282,283,284,285,286,287,288,289,290,291,292,293,294,295,296,297,298,299,300,301,302,303,304,305,306,307,308,309,310,311,312,313,314,315,316,317,318,319,320,321,322,323,324,325,326,327,328,329,330,331,332,333,334,335,336,337,338,339,340,341,342,343,344,345,346,347,348,349,350,351,352,353,354,355,356,357,358,359,360,361,362,363,364,365,366,367,368,369,370,371,372,373,374,375,376,377,378,379,380,381,382,383,384,385,386,387,388,389,390,391,392,393,394,395,396,397,398,399,400,401,402,403,404,405,406,407,408,409,410,411,412,413,414,415,416,417,418,419,420,421,422,423,424,425,426,427,428,429,430,431,432,433,434,435,436,437,438,439,440,441,442,443,444,445,446,447,448,449,450,451,452,453,454,455,456,457,458,459,460,461,462,463,464,465,466,467,468,469,470,471,472,473,474,475,476,477,478,479,480,481,482,483,484,485,486,487,488,489,490,491,492,493,494,495,496,497,498,499,500,501,502,503,504,505,506,507,508,509,510,511,512,513,514,515,516,517,518,519,520,521,522,523,524,525,526,527,528,529,530,531,532,533,534,535,536,537,538,539,540,541,542,543,544,545,546,547,548,549,550,551,552,553,554,555,556,557,558,559,560,561,562,563,564,565,566,567,568,569,570,571,572,573,574,575,576,577,578,579,580,581,582,583,584,585,586,587,588,589,590,591,592,593,594,595,596,597,598,599,600,601,602,603,604,605,606,607,608,609,610,611,612,613,614,615,616,617,618,619,620,621,622,623,624,625,626,627,628,629,630,631,632,633,634,635,636,637,638,639,640,641,642,643,644,645,646,647,648,649,650,651,652,653,654,655,656,657,658,659,660,661,662,663,664,665,666,667,668,669,670,671,672,673,674,675,676,677,678,679,680,681,682,683,684,685,686,687,688,689,690,691,692,693,694,695,696,697,698,699,700,701,702,703,704,705,706,707,708,709,710,711,712,713,714,715,716,717,718,719,720,721,722,723,724,725,726,727,728,729,730,731,732,733,734,735,736,737,738,739,740,741,742,743,744,745,746,747,748,749,750,751,752,753,754,755,756,757,758,759,760,761,762,763,764,765,766,767,768,769,770,771,772,773,774,775,776,777,778,779,780,781,782,783,784,785,786,787,788,789,790,791,792,793,794,795,796,797,798,799,800,801,802,803,804,805,806,807,808,809,810,811,812,813,814,815,816,817,818,819,820,821,822,823,824,825,826,827,828,829,830,831,832,833,834,835,836,837,838,839,840,841,842,843,844,845,846,847,848,849,850,851,852,853,854,855,856,857,858,859,860,861,862,863,864,865,866,867,868,869,870,871,872,873,874,875,876,877,878,879,880,881,882,883,884,885,886,887,888,889,890,891,892,893,894,895,896,897,898,899,900,901,902,903,904,905,906,907,908,909,910,911,912,913,914,915,916,917,918,919,920,921,922,923,924,925,926,927,928,929,930,931,932,933,934,935,936,937,938,939,940,941,942,943,944,945,946,947,948,949,950,951,952,953,954,955,956,957,958,959,960,961,962,963,964,965,966,967,968,969,970,971,972,973,974,975,976,977,978,979,980,981,982,983,984,985,986,987,988,989,990,991,992,993,994,995,996,997,998,999,1000,1001,1002,1003,1004,1005,1006,1007,1008,1009,1010,1011,1012,1013,1014,1015,1016,1017,1018,1019,1020,1021,1022,1023,1024,1025,1026,1027,1028,1029,1030,1031,1032,1033,1034,1035,1036,1037,1038,1039,1040,1041,1042,1043,1044,1045,1046,1047,1048,1049,1050,1051,1052,1053,1054,1055,1056,1057,1058,1059,1060,1061,1062,1063,1064,1065,1066,1067,1068,1069,1070,1071,1072,1073,1074,1075,1076,1077,1078,1079,1080,1081,1082,1083,1084,1085,1086,1087,1088,1089,1090,1091,1092,1093,1094,1095,1096,1097,1098,1099,1100,1101,1102,1103,1104,1105,1106,1107,1108,1109,1110,1111,1112,1113,1114,1115,1116,1117,1118,1119,1120,1121,1122,1123,1124,1125,1126,1127,1128,1129,1130,1131,1132,1133,1134,1135,1136,1137,1138,1139,1140,1141,1142,1143,1144,1145,1146,1147,1148,1149,1150,1151,1152,1153,1154,1155,1156,1157,1158,1159,1160,1161,1162,1163,1164,1165,1166,1167,1168,1169,1170,1171,1172,1173,1174,1175,1176,1177,1178,1179,1180,1181,1182,1183,1184,1185,1186,1187,1188,1189,1190,1191,1192,1193,1194,1195,1196,1197,1198,1199,1200,1201,1202,1203,1204,1205,1206,1207,1208,1209,1210,1211,1212,1213,1214,1215,1216,1217,1218,1219,1220,1221,1222,1223,1224,1225,1226,1227,1228,1229,1230,1231,1232,1233,1234,1235,1236,1237,1238,1239,1240,1241,1242,1243,1244,1245,1246,1247,1248,1249,1250,1251,1252,1253,1254,1255,1256,1257,1258,1259,1260,1261,1262,1263,1264,1265,1266,1267,1268,1269,1270,1271,1272,1273,1274,1275,1276,1277,1278,1279
ILE_1_A,0.13136126,0.35568234,0.061439835,0.08097296,-0.11962361,0.10360101,-0.14967462,-0.38732597,0.16904412,-0.122565694,0.1271711,0.16633646,0.33275646,-0.053209104,0.092358254,0.11958191,0.3100415,-0.09680273,0.08928367,-0.038576502,-0.20001602,0.15668948,-0.039596092,0.23077647,-0.039279155,0.27789643,-0.13134687,0.18495008,-0.08711825,0.020157272,-0.11495432,-0.07213149,0.22213884,0.19157565,-0.07358043,0.24054824,0.22099878,0.032826796,-0.0023081794,-0.47937673,-0.00014952527,-0.23108967,0.16784638,-0.13507485,-0.017162314,-0.062383816,-0.16004686,-0.07742146,0.07902565,0.040520012,-0.25031853,0.20853253,0.036936913,-0.029983606,-0.25402725,0.15307276,0.14608201,-0.1271359,0.16129357,0.0031269023,0.060078885,0.031703703,-0.08462086,0.25575247,-0.099062346,-0.044175368,0.25807783,0.17140129,0.11161398,0.06900118,-0.057604026,-0.14775394,-0.026125927,-0.09617403,0.21536103,0.21485478,0.11351065,0.07011767,-0.15374245,0.04610602,-0.090718165,-0.29328036,-0.19026624,-0.08447358,-0.12241498,-0.097692385,-0.0863429,-0.009512318,0.086009346,-0.13100857,0.24312657,-0.06962425,-0.21545447,0.10838096,0.21629557,0.10828482,0.06574358,0.32521856,0.06049187,-0.19036518,0.23694408,-0.11601736,0.0097689,0.07592289,0.035490308,-0.30491206,-0.009598989,-0.37811035,-0.057089552,0.005629314,-0.2958585,-0.009718031,-0.113119334,0.274801,-0.05756169,0.29555368,0.011906058,0.15939681,-0.23232944,0.060891677,-0.074765,-0.03033881,0.08989232,-0.07047806,0.26930085,0.14919038,-0.18466412,-0.12310809,0.1963839,-0.14250125,-0.17434832,0.10493263,0.07120387,-0.025125917,-0.18675505,-0.002883306,-0.29007488,-0.022757338,0.06867421,0.026072219,-0.12760046,-0.07912269,-0.05913724,-0.20560601,0.20119776,0.12120333,-0.18994723,-0.19387889,0.113842264,-0.037258938,0.08752601,-0.02497768,0.15227716,0.10341766,0.15626152,-0.22663505,-0.24745776,-0.01268124,0.17634751,0.22290501,-0.078684874,0.022684919,-0.19271062,-0.21074292,-0.4849118,-0.0980421,-0.12817502,0.11016164,0.36145112,0.26224336,-0.26555544,0.059680488,0.24975996,0.039926976,0.063752964,0.026217401,0.20244217,0.087419905,0.22602153,-0.33351916,-0.17230564,-0.108786635,0.08283724,0.041278683,0.06734656,0.0209984,-0.24338287,-0.010488469,0.22969183,0.07651148,-0.0543226,-0.016033761,-0.33030528,-0.28379047,-0.0023188943,0.009542545,0.0017942641,-0.0066417563,-0.07715607,-0.0096651325,-0.22056188,0.056069087,-0.17919967,-0.3460638,0.07437233,0.10093618,0.12502638,-0.10133028,-0.19915333,-0.25203565,-0.0930384,0.3610074,0.034459803,-0.0055072317,-0.20265576,-0.06033348,0.010415591,0.12970844,0.018754296,0.27826843,-0.006965862,0.28538126,0.14014617,-0.2805514,0.11965495,0.008421096,-0.05338536,-0.20469703,0.1113214,0.1326097,0.41031486,-0.029800659,0.18401915,-0.20333038,-0.11514672,0.26278442,0.20520402,-0.30755362,-0.30818483,-0.33125016,-0.37916344,0.028716423,-0.03968541,-0.1700507,0.13317388,-0.14488389,-0.12071839,-0.0693787,0.18937017,-0.2495404,-0.060405653,0.13679522,0.22663988,0.1866349,0.08039392,0.076709606,0.046929587,0.060042884,-0.17900842,-0.0736161,0.5625613,-0.101049274,0.09705061,0.2735832,0.18641235,-0.031484067,0.034486566,-0.28935346,0.24593379,-0.10130793,-0.051414285,-0.23115708,0.13132903,0.16106421,0.2461562,-0.092764266,0.16066101,0.020200768,0.10200175,-0.2866653,-0.038321126,0.23087935,0.081375785,0.0009197532,0.0799361,0.030700127,0.014143704,-0.14524625,0.12302197,-0.21303603,-0.04752695,0.1318748,-0.027366716,-0.10572449,-0.11734997,-0.16183363,-0.21719791,0.059168685,0.16664095,-0.08217764,0.074847005,0.10950997,-0.084481075,-0.19420718,-0.060810633,0.038700406,0.33081865,-0.00836485,-0.06589908,0.30043998,0.37982962,0.056647163,-0.2209317,-0.15082227,0.2224572,-0.10330403,0.20205389,-0.13422476,-0.21507855,0.08904625,-0.23152895,-0.07675793,0.03366278,-0.12458374,-0.026655544,-0.002269425,0.023412816,-0.027109034,0.03481957,0.29172412,0.04483305,-0.14926203,-0.1967615,-0.38805726,-0.029922841,0.05522032,0.0128701655,-0.03752815,-0.07445499,0.057745196,0.14003733,0.05632904,0.047686003,0.14912638,0.08791927,-0.049496174,-0.12256517,-0.116641186,0.22535852,-0.5916942,0.16247502,-0.09781467,0.29815835,0.19921139,0.08504133,0.25122997,-0.15456574,-0.03317391,-0.12974434,-0.065673284,-0.009201371,0.28652248,-0.2804463,-0.29939047,0.1891202,0.026192296,-0.06280853,0.03089202,0.2073315,0.060809657,0.1834328,0.25660196,0.028823026,-0.317092,-0.24905269,0.0016104026,-0.44414267,0.022685574,0.084635295,0.05703042,-0.19409369,0.14314081,-0.04620031,-0.20578492,-0.032094885,0.225103,-0.12664646,-0.13835606,0.021058353,-0.100074574,0.15164101,0.060126282,-0.07412759,-0.12033835,-0.13396245,-0.21461415,0.03696828,-0.044197325,-0.27569756,-0.12693395,-0.34405237,0.10133661,-0.115372434,0.09896963,0.05196536,0.028921511,-0.0812613,-0.26094338,-0.12956685,-0.17338888,-0.14530581,0.16079542,0.28405324,-0.3723102,0.082377635,0.08081681,-0.074662656,0.5123188,-0.13654833,0.2176855,-0.13417068,-0.30466726,0.23141976,0.1499067,-0.36757532,0.13138719,-0.012335408,-0.12146138,0.5019417,0.029531538,0.020502668,0.08572159,-0.12032235,0.17991899,-0.025419995,0.2565034,-0.011831642,0.048448525,-0.010357513,0.15781353,0.1764141,0.13691026,-0.1728756,0.1144068,0.12275689,0.17212284,0.27052864,-0.15391263,-0.110033736,0.12141859,0.021068921,-0.015131497,0.07463239,0.082056224,0.107696936,0.054090425,0.4666116,-0.11091675,0.10297241,-0.0075552654,0.052225385,-0.0022171324,0.2244668,-0.12895241,0.4296969,-0.09900395,0.10829314,0.033527005,-0.16531631,-0.10511847,-0.2667757,-0.1258103,-0.00069116236,0.10262848,0.22528318,0.197371,0.046794675,0.25673229,-0.012093573,-0.26364085,0.27235267,0.03281479,-0.2185903,-0.025412071,-0.09978428,-0.2517538,-0.12674712,-0.007560202,-0.081966996,-0.25536886,0.3164028,0.01155737,0.27573478,-0.29208425,-0.16763227,0.42998764,-0.19928472,-0.150204,-0.09538068,0.08157798,-0.039863706,0.05148033,-0.06525157,0.10152399,-0.13679253,-0.14223346,-0.37612373,0.1380424,-0.004332441,-0.0634071,-0.20827338,-0.06699701,0.16968355,-0.061196588,0.23004839,-0.14789881,-0.18177252,-0.05618656,-0.0830689,-0.08903746,0.1659042,-0.22999014,0.32292262,0.045270998,0.09642771,-0.078691185,-0.007488753,0.24498978,0.004872756,0.12527144,0.1179829,0.30786762,-0.15353248,0.13628723,0.1399279,-0.09951532,-0.14918739,0.06260111,0.38782173,0.024525443,0.08852277,-0.061841197,0.33035013,-0.05076242,-0.30362773,-0.12669969,0.037215717,-0.035636928,-0.04002425,0.34311774,-0.09389693,0.13245666,0.005085208,0.072461076,0.07636809,-0.2292266,-0.18995826,-0.1585956,-0.37799507,0.1516684,0.22757807,-0.05819982,-0.07085309,-0.16864921,-0.0678247,-0.06399581,-0.10930703,0.27354246,0.055852927,-0.124096885,-0.015400175,0.23638807,-0.08146618,0.060263265,0.042638976,0.037654646,-0.21205162,0.006093452,-0.15476198,0.21877734,-0.049031932,0.13765882,-0.06873879,0.538449,0.072079055,0.13451032,-0.05115106,-0.11872027,-0.07425686,0.41525283,-0.05941773,-0.04305818,-0.09393745,-0.114879206,0.3633808,-0.068533264,-0.07345262,-0.08588807,0.2528375,0.091100484,0.05503911,-0.0035808403,0.30335575,-0.08313387,0.04501632,-0.16659574,-0.069837816,-0.10142864,0.16494922,0.24708028,-0.18746653,-0.30384156,-0.025394019,-0.023271112,0.13966303,0.27137232,-0.124193355,0.18517724,0.33649284,-0.07926144,-0.22285166,0.34010234,-0.16469607,-0.15659744,0.18790497,0.068625614,0.26055664,-0.14418405,-0.017724145,-0.13915987,0.015060738,-0.22540236,-0.23080543,-0.13331686,0.22919731,-0.092796475,0.19472499,-0.17179063,-0.005399076,-0.06471345,-0.2946975,-0.23966894,0.26584232,0.24172366,0.22994548,-0.07720537,-0.40160695,0.18021363,-0.022728425,-0.015245119,0.051832013,0.04272847,-0.013176289,-0.077036746,0.07101159,0.13559723,0.0034868228,-0.11186505,0.043561123,0.09602505,0.29843992,0.16499369,-0.03320318,0.2830641,-0.04351346,0.0949055,-0.082396545,-0.022522666,-0.12425357,0.30630302,-0.12976103,-0.06796835,-0.10740868,-0.12040727,0.37027174,-0.024495404,0.24189821,0.06271642,-0.03187016,-0.32546973,-0.23491913,0.21826695,0.20568854,0.14791499,0.09444423,0.03754663,-0.1875203,0.064425334,-0.1266521,0.064852394,-0.01888607,-0.07761478,-0.07777688,-0.09003932,0.18492311,0.07490681,0.32505167,-0.025920866,-0.037396785,-0.026933195,0.20360552,0.05851986,-0.1838568,0.037384547,0.098156326,-0.02597524,-0.22829969,-0.13807516,0.20154834,0.35288924,-0.032779787,-0.06844357,0.035493176,0.060518697,0.17849045,0.22454086,-0.074040785,-0.054566335,-0.012432768,0.26177537,-0.05344339,-0.25264212,0.3402143,0.19519335,-0.32955456,0.010426726,0.33962297,0.07102678,-0.12380877,0.1875479,-0.03939268,-0.06701071,0.27335948,0.36220488,-0.19019085,-0.08163428,0.7373032,-0.056213256,-0.23845592,0.006889546,0.3727462,-0.031211505,-0.21069679,-0.3578314,-0.07609352,0.22575606,0.010756654,0.02564667,-0.004193834,-0.068726115,0.005338292,0.0015042098,0.16537559,-0.114903204,-0.051603448,0.25509933,-0.18450515,0.20081572,0.026369767,-0.2170082,0.06484861,0.28632316,0.078409724,-0.006001234,0.033652525,-0.0011620183,-0.14859305,0.21077275,-0.21264334,-0.17023893,0.19411385,0.0023084707,0.027758852,0.23815444,0.104320824,0.1359282,-0.036527447,-0.38093185,-0.15580548,0.102010906,-0.010518584,-0.039006606,-0.11300288,-0.032032326,-0.2413407,-0.3883642,0.25796852,-0.05431255,-0.053521544,-0.15651116,0.23965463,-0.29841703,0.011048469,0.15913774,-0.35220712,-0.28376126,0.19650532,-0.22147149,0.25768712,-0.08983769,0.08590972,-0.01461896,0.099480264,-0.10472561,0.18579172,0.3202728,-0.03132662,-0.0017303529,-0.24485958,-0.0525389,0.23144612,-0.14499918,0.21353702,0.07833184,-0.032000083,0.13050795,0.057162795,-0.22151126,0.045976967,-0.07062403,0.18212897,-0.040187694,-0.3593049,-0.26002747,-0.06673867,0.057528403,0.20759256,-0.0065827137,0.26939294,-0.1272385,-0.17834732,-0.04491079,-0.29079363,-0.11702945,-0.1363368,-0.07792273,0.7871704,-0.26647404,0.20741273,0.12250695,-0.21557683,0.485553,0.033281803,-0.0939389,-0.013751845,0.02451743,0.0018766387,5.6262958e-05,0.10626581,0.031746686,0.20063242,-0.14593272,-0.14385329,-0.17421483,0.038126644,-0.18611552,-0.14622615,0.31310064,0.20392406,-0.07952056,-0.17703776,-0.13306384,-0.08882729,0.048443843,0.21577288,-0.3581751,-0.1800665,-0.021040464,-0.07127625,0.026313368,0.26520655,0.1690077,0.1946996,-0.06324414,0.107954316,-0.13836546,-1.637051,0.0497915,0.15398405,0.17398827,-0.18818836,0.07505352,0.2494294,0.29074717,0.056334324,-0.17438132,0.042794645,0.35346764,0.030843193,0.1957539,0.23940104,-0.00738151,-0.16235422,-0.15803435,-0.08745667,0.14581369,-0.14005663,-0.12066192,-0.30551422,0.0846479,-0.19573265,0.22590737,0.4075151,0.02319628,-0.093766384,-0.019942,0.053524982,0.086289406,0.16589183,0.11937988,-0.15333886,0.11707622,0.02854326,0.0960827,-0.34501147,-0.15328954,0.21960925,-0.0381596,-0.15164706,-0.28383908,0.040468585,0.120685905,-0.18479674,0.2692918,-0.1527766,-0.037452973,0.107809134,-0.12617587,-0.09638012,-0.20039661,0.20089635,-0.0044790786,-0.13622686,-0.07986357,0.12490237,0.07944254,-0.3173954,0.0543673,0.043241683,0.25834462,0.014318254,0.06845307,0.36669874,-0.016328484,-0.021790741,-0.042996045,0.042704098,0.061995447,-0.2879254,-0.17915498,0.34847626,0.17950185,0.17832346,-0.055347987,-0.33482155,0.059546173,-0.15974414,0.20465484,0.1083594,0.06317365,0.46297967,0.18740875,-0.12047525,-0.0131514715,0.15710348,-0.20261137,0.015932405,0.0887912,-0.14513284,-0.25688758,-0.030522013,0.27830344,0.16985942,-0.023107367,-0.059437882,-0.118312255,-0.24375576,0.0036869985,-0.008700217,0.2052263,-0.00771327,-0.13900955,-0.011697328,-0.13547154,0.17528918,-0.08816087,-0.10308291,0.030711511,0.16140383,-0.1986911,0.059246235,-0.1388493,0.0091469,-0.06837852,-0.2832353,0.106857285,-0.056906436,-0.11224939,-0.025292197,-0.22985995,-0.24159564,-0.051735036,0.027068628,-0.07251549,-0.29262388,0.27273658,0.16318744,-0.12771069,0.30744258,-0.06002795,0.14341171,0.037873924,-0.10475636,0.22777766,-0.11750302,-0.03306375,0.05725353,0.33608755,-0.19451511,-0.05836084,-0.3327119,0.3889883,0.22064523,-0.25996026,0.005222308,0.1068978,-0.36846823,-0.099289134,0.020847464,-0.18873587,-0.18957622,-0.011366339,0.12387227,0.11129999,0.09564638,0.08269584,0.2977042,-0.3342951,0.061949506,-0.16737172,-0.27753356,0.14455953,0.1387221,-0.06095003,0.10945908,0.2564893,0.041457023,-0.27745157,0.030196603,-0.10619287,0.1025209,-0.2405559,0.28992516,0.013563028,-0.10051171,-0.39803618,0.23089582,0.09732597,-0.040000252,-0.14691578,0.29728773,-0.2803088,0.24164926,-0.2508959,-0.21397844,0.14815918,-0.119844384,-0.10664915,0.35415825,-0.36476082,0.13126348,0.13103233,0.08209148,-0.31502974,0.07261086,0.2306919,0.021160584,-0.13005891,0.019554272,0.10161456,-0.13477829,-0.096821755,-0.09823497,0.036853556,-0.13049324,0.3174153,0.19746955,-0.07919185,0.19075744,-0.010715761,-0.056053713,0.14061908,-0.022403995,0.15910578,-0.11206306,-0.051218104,0.07819108,-0.00639288,0.090578996,0.012317619,-0.021634186,0.11917415,0.30197087,0.0598525,-0.06925883,0.08945855,-0.086790115,0.072938465,-0.19286638,0.056323636,0.052080538,-0.21847555,-0.115851335,0.030368388,0.07971511,0.042424593,-0.039278936,0.14415695,-0.16293333,0.036270328,0.47106624,-0.23615833,-0.1826827,0.07193478,-0.24999025,0.018866628,0.05912662,0.053334333,0.06882601,0.23277871,-0.05160731,0.01827288,-0.3429993,-0.007031965,-0.0740343,-0.034902155,-0.31907666,0.12701586,0.23671514,0.008195691,0.038534995,-0.23777013,-0.10031517,-0.011333763,0.11746146,0.034072664,0.41958094,-0.086193636,-0.022192365,-0.38039237,-0.08117406,0.08242002,-0.08706061,0.02845049,-0.06685876,0.0355443,0.06769972,0.014628087,-0.26951677,-0.28977376,-7.1346455,-0.02862568,0.14344415,-0.07227908,0.077533744,-0.20973511,-0.30621925,-0.19802058,0.37920025,-0.14434092,-0.014992082,0.045440543,0.0027155033,0.16231002,0.06757516,-0.004826235,-0.33473068,-0.32848728,0.18778165,0.04593568,-0.12737325,0.006521352,-0.19701189,0.16307908,0.122287475,0.1065122,0.10120405,-0.11180657,-0.12732418,0.2020838,-0.13731202,-0.10126521,-0.32388392,0.2504483,0.058654346,0.03492889,0.023394575,0.13427773,0.1235232,0.3366332,0.27034232,-0.1498199,-0.18058652,-0.18867771,0.442739,-0.25155663,0.055472746,-0.2098667,0.18815343,0.107525654,0.050518423,0.20640029,-0.013375433,0.2920291,0.006555732,-0.30297562,-0.14396086,0.35153982,0.022049975,0.044072162,-0.21129657,0.19824532,-0.026555497,-0.14628714,-0.15876108,0.017094085,0.08122573,-0.33716872,-0.30640876,-0.20344608,-0.2378697,0.05913485,-0.15268415,-0.6427786,-0.05467496,-0.04680927,0.0068662595,0.22767389,-0.088488676,0.018532673,0.110123195,0.06714807,0.03609063,-0.07538784,0.4732727,-0.3820924,0.14571276,0.23115988,0.0096293185,0.3803841,0.037460554,0.070685446,0.11910617,-0.07661012,0.20308717,0.2010084,-0.11034282,0.017199323,-0.11800883,0.09423524,0.15706608,-0.17441927,0.105252266,-0.023905145,-0.006465601,-0.32303742,-0.13638178,0.32116288,0.056387953,0.5285497,-0.10886018,0.14786798,0.23602149,0.21743588,0.10144124,0.12150113,0.16211134,-0.12616357,0.24573117,0.33658424
ALA_2_A,-0.09507427,0.31989616,-0.043536857,0.2321076,-0.14226593,0.23996809,-0.16675158,-0.47024268,0.0600696,-0.353237,0.10181132,-0.36001605,0.088210806,-0.04927689,0.12666033,-0.13703454,0.36950082,0.117001414,0.09940106,0.16226879,-0.009566535,0.0057644574,-0.027441366,0.17910792,0.33407944,0.14634198,0.014597767,-0.038410578,-0.23395754,-0.22179776,0.101712555,-0.17857897,0.5036972,-0.16979294,-0.2001384,-0.10853728,0.16987719,0.13787842,0.07454731,0.1869764,0.088065,0.33310553,-0.1893873,-0.20803657,0.056264035,-0.05838026,-0.01314117,0.2251881,0.4538396,0.07345442,-0.031200944,0.114446625,-0.1383895,0.16454561,-0.023043914,0.194909,0.13646275,0.07989505,-0.17082152,-0.25488415,0.12594686,-0.22642714,-0.25322834,0.2592456,-0.06421031,-0.27574664,0.021000167,0.33361235,0.14705408,0.16774684,-0.028874552,-0.11609043,-0.14005592,0.08979035,-0.15033214,0.09618471,-0.077601396,0.22414032,-0.010829174,0.13703819,-0.109570086,-0.32100016,-0.09604967,-0.26698884,-0.3379608,-0.23043926,-0.08132632,0.064138874,-0.012477675,-0.47598246,0.01653844,0.0625355,-0.32389152,0.1338558,-0.17383283,0.3634629,-0.23073886,-0.058884393,0.49245316,0.10661337,-0.04584698,0.12301835,0.05464186,0.1289019,0.095147006,0.0104506435,-0.2593417,-0.42725375,-0.0097574685,0.42924163,-0.08522633,-0.24767268,-0.45560873,0.11672914,-0.31098846,-0.13991915,0.13142729,-0.14015326,-0.21676283,0.33412144,-0.18351321,0.20517103,-0.057094634,0.177177,-0.115781486,0.48933762,-0.048220683,-0.0602687,0.15284863,0.0013458845,0.1712195,0.20613578,0.13897935,0.21613765,-0.11899532,0.19168282,-0.18698105,-0.027974913,0.34064302,0.100367315,0.052610543,-0.11814432,-0.0019357987,0.19236693,0.09247679,-0.16532971,-0.09082499,0.027674403,0.3429859,0.052505072,0.07283614,0.0036798278,0.009267509,0.26248285,0.046914537,-0.32076335,-0.15010145,0.16094203,0.1264306,0.06922982,0.117048316,-0.08322855,-0.00061386207,-0.43704876,-0.09531568,-0.07428289,-0.05306739,0.33388367,0.1734626,0.22753048,0.11295221,0.3156887,0.20449418,0.017959796,0.03040245,0.07620726,0.05607288,0.43269974,0.3543677,-0.39772654,-0.01693195,-0.114914484,0.19530669,-0.42443436,-0.2414738,0.113493636,-0.0025885056,-0.13854624,-0.012757454,-0.10032319,0.09461478,-0.04288609,0.21402957,-0.11543559,-0.069196,-0.08509723,-0.12230559,-0.39249972,-0.108368866,-0.14369878,-0.12676054,0.13359666,-0.08990655,-0.005956556,-0.25547296,0.12053962,0.11965184,-0.14035578,-0.0669275,-0.16750099,0.08966778,0.35357666,-0.065659255,-0.30374807,0.01224275,0.13472897,0.13169721,-0.10334284,0.01562607,0.12506886,-0.1216249,0.0074370587,0.2940976,0.16056955,0.021473328,-0.034625836,-0.01979728,0.039099947,0.1447813,0.09483315,0.2692045,-0.141404,-0.12742296,-0.30832818,-1.2474307,-0.28718713,0.007706834,0.05497411,-0.16827732,-0.22282344,-0.12441014,-0.058369283,0.21012187,0.17706901,-0.035465095,-0.08942913,-0.17716002,0.2215403,0.26304936,0.014275669,-0.30752608,0.12996878,0.28476158,-0.07347629,-0.17683947,-0.13853045,0.007054634,-0.16510843,-0.19701546,-0.15098107,0.24837609,-0.3066645,0.07578033,0.112824395,-0.031330843,0.13112652,0.2148625,-0.50053096,0.18800533,0.10301505,0.09687823,-0.36818007,-0.03705556,0.22543697,-0.07474595,-0.28453144,-0.042496946,-0.13352217,-0.3323083,0.05270277,0.23286809,0.30231625,-0.14568354,0.35351306,0.088784404,0.2433829,0.077969894,-0.30526328,0.22493976,0.03361596,0.044738084,-0.089169726,-0.17588338,-0.2684519,0.054728486,-0.1892996,-0.2055049,-0.2006294,0.31345755,0.16018055,0.39771864,0.114449844,0.30374023,-0.25774208,-0.086652294,0.08737868,0.2467009,-0.3378227,-0.11386089,0.010518808,0.10554673,0.09597868,0.16376202,0.21457061,-0.10005137,-0.11852726,0.16170536,0.23547758,-0.02339688,0.14715664,0.010540582,0.08312121,-0.36200655,0.13251409,-0.13307653,-0.076612346,-0.29983598,0.15175176,0.33847576,0.3137162,-0.02178129,0.0020128363,-0.071508735,-0.044847444,0.029909141,0.49498355,-0.24706595,-0.21350735,0.028025374,0.018442106,0.06037761,-0.0070102257,-0.2211375,-0.07573116,0.19203,-0.2125762,0.14410731,0.008752662,0.22140989,-0.25093263,-0.25518882,-0.19802512,0.1837133,0.07890575,-0.05020743,0.25315902,0.13951132,-0.18856058,0.011150415,0.1062209,0.19420385,0.51030076,-0.033800144,-0.1656393,-0.29634407,0.067199714,-0.17342478,-0.13529763,-0.004341485,0.22414729,0.26592374,0.24336313,0.07458311,-0.09370696,-0.08109433,-0.023758957,-0.03509213,0.0904067,0.34524792,-0.19107938,-0.06826932,-0.012117666,-0.13292234,-0.20752956,0.076282226,0.12538892,-0.08750003,-0.032132346,-0.1401102,0.010932545,-0.020005234,-0.10480774,-0.009545822,0.27607596,0.077295125,-0.35151565,0.043355573,-0.05479098,0.08275827,-0.2955748,-0.21635772,-0.035626892,-0.20926502,0.2216341,-0.07846493,-0.12626033,-0.06312942,-0.05923068,-0.056430172,0.0073283906,0.017286407,-0.15671705,-0.16082382,-0.089158855,0.3072585,0.05070887,-0.15010652,0.15380906,-0.24122548,0.3167987,-0.21476632,0.066228256,-0.40472567,-0.2502982,-0.20008637,0.22905035,0.06344278,0.08581102,-0.08087345,0.13392887,-0.008152755,-0.28135818,-0.08555684,0.138732,0.095712945,0.08716748,0.4127615,-0.07025493,0.38821876,0.11999479,0.17584266,-0.0018609565,-0.20136459,0.27412814,0.036645375,-0.21704032,0.24605654,-0.16238402,-0.16735898,0.21522178,-0.13937022,0.08620746,0.09884337,-0.033867422,0.23579633,-0.17648737,0.04024823,0.09852984,0.15965798,0.25746283,-0.04154039,-0.16059504,0.06948302,0.104032226,0.24657993,-0.14249983,0.15353175,-0.005333105,0.26721486,-0.16724804,-0.80108154,-0.1547861,0.10581517,0.29192558,0.16509357,0.0951537,0.13895687,0.07421863,0.52987427,0.08317016,-0.089875385,0.17964236,-0.27564725,-0.05394549,-0.33290273,-0.00096608495,0.10766093,0.15435635,-0.0023292252,0.14958085,0.043167975,0.017290996,0.2011728,-0.2144583,-0.12240272,0.14573202,-0.36554173,-0.18822344,-0.5213051,0.07139638,-0.002458428,-0.04874477,0.088903606,0.15166731,-0.21491261,-0.017855551,-0.3270541,0.5452505,0.2729968,-0.044683624,-0.17393047,-0.3516507,0.050716612,-0.123899914,0.014878715,-0.06751446,0.372142,-0.020936236,-0.04918184,-0.057054263,0.016301643,0.24668147,0.23584458,0.2917693,0.10831042,-0.13631749,-0.090858124,0.21689947,0.19475064,-0.25131258,0.12436329,0.627232,0.30113122,-0.11461411,0.040665105,-0.255577,-0.45569932,-0.1305829,0.28931785,-0.06835125,0.24810174,-0.010476652,0.23425789,0.018090986,-0.37593436,-0.4101729,0.33814424,-0.22846624,0.4651946,0.3326932,0.15807253,0.564202,0.096044764,0.18847919,0.036761325,-0.468854,0.08254785,0.03194785,-0.32716843,-0.045562483,0.24887852,-0.036903143,0.0039290152,-0.17691518,0.00327672,-0.18729198,0.038010575,-0.034156136,-0.29234168,-0.05729521,0.15955247,-0.03525429,0.11115759,0.017740052,0.062150657,0.1816406,-0.18669799,-0.012740848,-0.073080346,-0.01872223,-0.060776748,0.6394757,0.037134796,0.2731996,0.054587334,0.14768997,-0.2320128,-0.03583356,-0.14962204,0.095561974,-0.223597,-0.0010103707,0.024332691,-0.26752412,0.26378104,0.15617575,-0.09125789,0.031773083,0.0061157667,-0.009192227,0.34479088,0.13516103,-0.11442081,0.0024223486,0.37405443,0.08315919,-0.089470826,-0.08944228,-0.00980933,0.19630566,0.018793605,-0.12797107,0.3452843,-0.2837052,-0.43484032,0.10351667,0.11234682,0.106542274,0.038764786,0.20999281,-0.34591013,-0.057096984,-0.30518314,-0.15638918,0.101279296,-0.031194836,0.39052805,0.16877353,0.22833148,-0.05435051,-0.30126098,-0.3191035,0.14739212,0.121018246,-0.093149416,-0.3836317,0.30385584,-0.32481655,0.26777613,0.1664677,0.03595033,-0.2738711,0.49888694,0.13177745,0.080116175,-0.034993246,0.16852461,-0.26684472,-0.093283094,0.13896379,-0.18311371,-0.018708916,0.5411732,-0.15221803,0.26830575,-0.026407467,0.34574264,0.06949871,-0.048141714,-0.0064419033,-0.21790192,0.11439352,0.09554499,0.2240907,-0.017084515,-0.017583914,0.090120524,-0.53191394,0.12037155,0.020894794,0.27118364,-0.009262961,0.04564064,0.5426843,0.005516649,0.07932361,0.39641914,0.08219393,0.13411206,-0.22672874,-0.074896246,0.3486966,0.24796966,-0.12017831,-0.32733184,0.31574693,-0.115132436,0.22978923,-0.46796224,-0.15831016,0.69947726,-0.06994471,-0.2331053,0.12644002,-0.12805976,-0.1770529,0.27542996,0.27420387,0.09083397,0.19676003,-0.087253824,0.38545185,-0.030951,-0.24239959,0.07074856,-0.13350573,-0.009675369,-0.15214713,-0.03513533,-0.17173369,0.03967616,-0.19828014,-0.05149893,-0.047761373,0.043913383,-0.1096426,-0.068412356,0.096712045,-0.12542866,-0.19577853,0.077313796,0.07492127,0.029008705,-0.046599064,0.098369636,0.112159826,0.07605417,0.4454518,0.028033148,0.012669643,0.08774294,0.23452681,-0.01134383,0.12126858,-0.15661807,0.047355324,0.7838906,-0.09309548,0.099103235,-0.13757233,-0.14582552,-0.020495843,-0.12135178,-0.07701461,-0.23336093,0.22048824,0.00083760166,0.03714142,0.19762166,0.30638584,-0.04337269,-0.1293857,-0.28833148,-0.3972467,-0.32403037,-0.073975965,0.22744389,0.13231109,-0.18560803,-0.6847769,-0.36615193,-0.025177175,-0.066508204,-0.12197565,0.16302586,-0.2893974,-0.49346018,-0.32426277,-0.2674177,0.15954705,-0.01221022,-0.07987316,-0.12980448,0.11278444,0.10855178,0.109707475,0.14905551,-0.19775546,0.15820752,-0.07743759,-0.11006051,-0.19692014,-0.19226485,0.0056184493,-0.23815392,0.08357899,0.47029477,-0.060691673,0.06994868,-0.29525608,0.061228957,0.20004211,-0.0761401,-0.06645157,-0.019203799,-0.26721838,-0.31513816,-0.2944087,0.4588821,0.042194698,0.13484803,-0.118801385,0.14234307,-0.34339935,0.15688759,0.23463358,0.14607458,-0.12829691,-0.26982185,-0.3253895,-0.07367195,-0.16844125,-0.1307925,-0.087816,-0.05837332,0.06907377,-0.27795583,-0.17014827,0.3310154,0.01734324,0.2635194,-0.18030041,-0.3431525,-0.17194599,-0.12363584,0.098605916,0.26111698,0.2296723,0.13240096,0.022352386,-0.17040768,-0.05256071,-0.2350979,-0.0016604206,-0.047114383,-0.021198109,0.5023662,0.013963682,0.2394729,-0.059386343,-0.06571888,0.28595734,0.13124225,-0.16001746,0.13941947,-0.034219664,-0.15492655,-0.43885925,-0.05825132,-0.44821915,0.047806248,-0.19131222,0.10524774,-0.15598276,-0.06501944,0.030862853,-0.17182782,0.42181602,-0.17590357,-0.022715699,-0.12387682,-0.10401595,-0.10427883,0.17017126,-0.09948071,0.48751378,0.10593631,-0.07728081,0.17635351,-0.18771943,0.06661397,-0.13402899,0.25829336,-0.18173662,-0.037579678,-0.17968692,0.24649121,-0.09647495,-0.23466776,0.06584598,0.13462512,-0.035378933,-0.008430271,0.23200923,0.12930991,-0.054931976,-0.1812112,-0.06737332,0.11752031,0.35348916,0.34136292,0.32593897,-0.10819617,-0.2712901,-0.28277352,0.101484284,-0.24825811,-0.34049097,0.25501794,0.12792161,-0.42622465,-0.09796754,0.12162052,0.061017532,-0.20202981,0.120955296,0.18509375,0.17671886,0.021344434,-0.13138321,0.22543469,-0.17917314,-0.03332634,0.33870324,0.16398372,-0.051669188,0.056037437,0.17907627,-0.091556825,0.1328901,0.19853485,0.06400568,-0.11634752,0.54412633,-0.1295257,-0.17672549,0.11297772,0.27067873,-0.43717563,-0.05980572,0.58416384,0.04377096,-0.21677217,-0.6349877,0.13590375,0.60758865,-0.3066064,0.40153354,0.05953974,-0.24282826,-0.10098355,0.22624512,0.10835549,-0.065801665,0.07663671,-0.21665396,0.15584323,0.036131095,-0.31314534,-0.36141387,0.19760022,0.3378014,0.17852828,-0.035630558,0.044297755,0.17025973,-0.111909024,-0.043665975,0.09677145,0.13113566,0.07526905,0.097350895,-0.39926583,0.20425764,0.2168302,-0.11793025,-0.22620338,0.087919265,0.12816702,0.1546983,0.035168543,-0.19105025,-0.050154295,0.02461601,-0.07989228,-0.03796838,0.023351692,-0.009204777,0.25460243,-0.025518315,0.18815659,0.32329583,-0.18381767,-0.024303019,0.05469417,0.022532903,0.05878057,-0.08532782,0.07743959,-0.19806278,-0.13194823,-0.10820852,-0.097905405,-0.0563541,0.19910629,0.022870228,0.07281778,-0.21413542,0.0009913824,0.16013484,-0.23498406,-0.03044022,-0.40597832,-0.07687032,-0.061409,0.093591295,-0.03769751,0.048701912,-0.10960609,0.04445483,0.17987928,-0.027427595,-0.050703034,0.18257755,-0.25108057,0.32025588,0.26339993,0.07276165,0.00023539181,-0.030152658,-0.05143156,0.33673117,0.10614852,-0.07277698,0.08529448,-0.0020563535,-0.48423958,-0.03832858,-0.29764137,-0.07867482,0.2724014,-0.043575816,-0.0800567,-0.06458354,-0.0044087265,0.49353307,0.25784802,-0.20941824,0.17630804,0.14016259,-0.03369808,-0.33323237,0.005240644,0.041416127,0.1044755,0.05124577,-0.09727114,-0.25619274,0.28146788,-0.24887897,0.2235263,-0.2117264,0.16752043,-0.05825349,-0.17998235,0.052493375,0.14975114,-0.07531917,0.09836149,0.12026204,0.17555667,0.10118356,0.33361757,-0.16725111,-0.088028975,-0.01136744,-0.10402661,0.10932568,0.22548884,0.0828884,0.28856277,0.10560195,0.0905991,0.100962974,0.098472774,0.38599038,-0.4097081,0.0003222776,-0.09198225,-0.0279078,-0.17020027,-0.24038327,-0.07486949,-0.11395917,-0.16747326,0.123545825,0.036795966,0.22276989,-0.08895645,0.07453467,-0.021145634,0.16737457,0.059710752,0.08138471,0.08789433,-0.04373627,0.11988273,-0.028228395,-0.118582055,0.023230143,-0.1776843,0.04196414,0.27382347,0.01638794,-0.115326986,0.015727993,-0.16170305,-0.03222483,0.03812835,0.14060974,0.21200779,-0.18147941,0.086957455,-0.28824064,-0.22832943,0.26322946,-0.14275831,0.15622531,-0.35386023,-0.22310409,0.32404056,-0.13294308,-0.059967235,-0.11149036,-0.06726855,0.17731373,0.03064352,0.32815322,0.107365616,0.03637609,-0.21766831,0.12932456,-0.26361376,-0.3486157,-0.19481492,-0.25158346,0.29694507,0.26344046,0.11969468,0.056115158,0.24315074,0.19769642,0.15697448,-0.15841113,0.14204863,0.19548915,-0.13569506,-0.4637474,-0.044218384,-0.40024295,0.3796173,-0.19316696,0.2851658,-0.019499304,0.34880427,-0.35427254,0.08759055,-0.0865196,0.037307557,-0.19647406,-5.8499866,-0.2528835,0.16464579,-0.59407026,0.16873707,-0.048866734,-0.52966803,-0.059754677,0.20709144,-0.30321935,0.10034904,-0.059873547,0.42031857,0.19412743,0.032114044,-0.015244076,-0.09968973,-0.16748865,0.2546915,0.04930607,-0.07792441,-0.11751414,-0.21244925,0.127955,-0.23484287,0.3450132,0.12338154,-0.08186164,0.23535387,-0.03877115,0.2697541,-0.21019259,-0.10462597,0.14753743,0.14397922,-0.08661048,-0.14402474,0.101844676,0.11111251,0.30025104,0.1264239,-0.26409438,-0.00951819,0.015385624,0.57468504,-0.17893936,0.0950168,-0.072108574,-0.041981366,0.4808067,-0.37193003,0.20045446,-0.16261418,0.44268078,0.12512872,-0.2741782,-0.121843055,0.33753806,-0.19190538,-0.16036081,0.18935531,-0.046092056,-0.48294315,-0.31369317,0.05326525,-0.2890658,0.030589812,-0.12225085,-0.12234075,-0.19782992,0.07568281,-0.39230725,-0.053069394,-0.12797058,-0.0082808975,0.19666351,-0.20036508,-0.001477022,-0.13727269,0.08603361,-0.0934568,-0.057388958,-0.08315186,-0.20186837,0.26016802,-0.2734315,0.17479697,-0.14931388,0.056171067,0.040253744,0.03186892,-0.097797394,-0.13472801,0.1113377,0.08636065,0.05202727,-0.215338,-0.12681383,-0.31817472,-0.05836829,0.01992006,0.37796018,-0.07215275,-0.068049744,0.39470765,-0.39113814,0.16629548,0.24870692,-0.30194172,0.5364075,0.3995771,-0.30821377,-0.035890207,0.14004302,-0.20552604,0.14285056,-0.21649863,0.03895285,0.10493605,0.027448969
GLY_3_A,-0.15948308,0.28761694,0.27432758,-0.12825763,-0.11985208,0.36496684,0.14352575,-0.5854481,-0.22049454,-0.24390776,-0.3814599,-0.045054317,0.13966943,0.11470944,-0.23561576,0.09508142,0.03566489,0.18696919,0.08314223,-0.1600059,-0.020254401,0.08281788,0.300708,-0.27484548,-0.040016573,0.0069812904,-0.10888457,0.16949491,-0.2511618,-0.12761487,0.085951716,0.299396,0.17202382,0.118519254,-0.08598299,0.09221119,0.19336487,-0.0360188,-0.14392847,-0.012916565,0.065241076,-0.14616962,0.15859985,0.1285638,-0.32870525,0.22032979,0.08929942,0.1995924,0.19306813,-0.19266213,0.14163558,0.35254994,0.09799847,0.15143344,0.008597725,0.03934187,0.26069745,0.14163677,0.006690556,-0.12064073,-0.038428813,0.17806011,-0.33415034,0.18001059,-0.34664783,-0.15399441,-0.1624352,-0.10368719,0.17939325,-0.13154498,-0.09663461,-0.18866812,0.3216574,-0.114857465,-0.3689941,0.13677147,-0.02195153,0.12744908,-0.24762781,0.21477447,-0.15200792,-0.19154467,-0.4275557,-0.17472923,-0.36668918,-0.2792808,-0.18422374,-0.1392161,0.21663323,0.30080396,-0.12699386,0.24890637,-0.354674,0.12754029,-0.08500103,0.29493254,-0.21580882,-0.19376267,0.09553163,-0.27384213,-0.16548388,0.32871836,0.11465627,-0.2332068,0.08959453,0.07379612,-0.25427032,-0.6328655,0.08194991,0.16012475,-0.07267276,-0.14929865,-0.11272692,-0.20800965,-0.049829517,0.19433412,-0.07838261,-0.08103061,-0.1393504,0.37854305,-0.07008512,0.43543923,-0.06433681,0.11158877,-0.14478517,0.09521376,0.32466683,-0.27248943,0.050494384,0.26067868,-0.074639186,0.07166904,0.1472409,-0.017022435,0.08364974,0.27924678,0.016652012,0.006078852,0.39492327,-0.20270029,-0.0045178425,-0.0056925756,0.17550899,0.33124378,-0.046742443,0.31954843,-0.42791095,0.10992762,-0.3067163,0.2074865,0.19263883,-0.54814774,0.062094465,-0.15247187,0.17952728,-0.4894282,0.08410338,0.14178164,0.024787873,0.070166364,0.07710661,0.17684154,-0.21523266,0.023312587,0.16568781,-0.004887885,0.45057014,0.064907916,0.020985777,0.3037103,-0.20617259,0.39811775,0.026498914,-0.011287129,-0.17417793,-0.24013458,0.007595756,0.3205726,0.050767645,-0.018944897,-0.2621931,-0.2267607,0.015485412,-0.42124942,0.09022114,-0.25988877,-0.07525344,-0.20217282,0.2859186,-0.16771284,-0.13244869,0.10528059,-0.10922487,-0.27599207,-0.02859278,-0.16741472,-0.1996217,-0.28800452,0.028871585,-0.2973116,-0.19282742,0.22312276,-0.13546138,0.20381498,-0.17273223,-0.09318573,0.06360714,-0.012080574,-0.014861442,-0.5366125,0.22820315,0.11609424,0.19768062,-0.45437407,0.16231191,0.14201792,-0.1371216,-0.10362672,0.32460627,0.30088213,-0.21406786,-0.27820536,0.3913812,-0.16673113,-0.032035932,0.08202277,-0.028381666,-0.170815,0.04973501,-0.053297743,0.40460643,-0.009922708,0.2887879,-0.14875239,0.8279661,-0.11575572,0.18668744,0.08623167,-0.11159203,-0.398792,-0.26276267,0.2546444,-0.030232966,0.2074107,0.051998913,0.16022897,0.049180947,-0.08508125,0.25513008,-0.071830295,-0.45973134,0.030690687,0.29154912,-0.10192833,-0.10210961,-0.28954476,-0.49388131,0.0115370015,-0.1386089,0.025970705,0.27336326,-0.24172898,0.21883194,0.022193285,-0.22041954,0.37325275,0.23926607,-0.08034645,0.35005623,-0.052057337,-0.3139197,-0.24441694,0.0019333786,0.17261821,-0.037546597,-0.15547615,-0.25936115,-0.24854657,0.331275,-0.0987501,0.0151611855,0.26973397,0.00936663,-0.067932315,0.2843644,0.21718228,0.05026738,-0.010221261,0.13099071,0.11098,0.27272052,0.028884713,-0.21606661,-0.18120387,0.18111183,-0.13688254,-0.18660492,-0.13007455,0.4820507,0.069503635,0.35881102,-0.08759646,-0.04448389,0.10875982,-0.12313302,0.061442144,-0.036193598,0.28380674,0.21665746,-0.19888432,-0.18515031,0.21173328,0.034095965,0.06753204,-0.23971345,-0.21063846,-0.009155311,0.00037009065,-0.21183184,-0.059455015,0.2174795,0.11814437,-0.21804684,-0.1191541,-0.045633458,-0.13965052,0.2123016,-0.3162522,-0.02108576,0.33230653,-0.20013493,0.1773957,0.06874809,-0.007197957,-0.54160035,-0.025520522,-0.08017048,-0.24899228,0.08551758,-0.11800134,0.15060216,0.047555465,-0.06795461,0.18145785,0.3587497,-0.2947911,-0.1345666,0.17093451,0.053248886,-0.29530278,-0.18212256,-0.0058762487,0.27684495,0.18557197,0.018946953,0.20345685,0.4866064,-0.08018705,0.26870167,0.3858431,0.13084942,0.6640374,0.013282058,-0.1399981,0.02476192,0.03696521,0.09700499,0.18192706,-0.12648316,-0.3363164,-0.00020911572,0.093584165,0.07211938,-0.11155473,0.22156942,-0.29521394,-0.048508886,0.11671295,0.19924846,-0.23748475,-0.07799169,0.20067461,-0.00065876,-0.027030598,0.047047462,0.14899412,-0.29180807,0.08836785,-0.10424684,-0.12906103,0.066589266,0.1430387,-0.16130461,-0.038136408,0.12939873,-0.36099875,-0.03303375,-0.2571992,0.08879433,-0.13331753,0.0142121725,0.18985395,-0.25379935,0.3651005,0.20805697,0.18036586,-0.022743963,-0.1788037,-0.2075684,-0.2563168,0.08498144,-0.2104499,0.14922528,-0.20043252,0.29323563,0.35343546,0.026462756,0.6041171,-0.44144,0.20888421,-0.15777162,-0.33287185,-0.37083432,-0.061193578,-0.27046913,0.02591777,-0.15601237,0.22326891,0.17149101,0.026293583,0.37444794,-0.16082533,-0.030321004,0.025757803,-0.21156214,0.0092014,-0.043777768,0.1447777,0.36163396,-0.01044067,0.36863884,-0.17989865,0.16307558,-0.011275034,0.47872448,-0.021772146,0.3906346,0.4023749,0.31239116,-0.22701526,-0.1395796,0.045906834,0.17182408,0.124384865,-0.10013759,0.07136024,0.11400356,0.25448176,0.061464414,0.4552114,0.22898012,0.019112116,0.05987202,0.20155694,0.358999,-0.6493157,-0.11664852,-0.043912154,0.22520807,0.06174586,-0.12456797,0.031255357,0.36071694,-0.059236232,0.19533059,-0.011401166,0.21583882,0.2050092,-0.3473001,-0.17428313,-0.2609313,-0.104309276,0.047745924,-0.28042594,-0.20543824,-0.11708689,0.10065626,0.048890825,0.23880675,-0.018276663,0.20433944,-0.12162427,0.029719051,0.034251284,0.015228381,0.40307647,0.3540946,0.1729842,-0.16801748,0.06146994,0.031374384,-0.54067975,0.11792974,-0.028974941,0.17906766,0.09057244,0.3110195,0.6026051,0.14405143,0.08678493,-0.3893505,-0.08662759,0.16538785,-0.28949547,-0.18770696,-0.08037222,0.28918532,0.13309905,0.03219758,-0.5533367,-0.08582731,0.10882029,0.05927255,0.5448486,-0.052053813,0.12669343,-0.11233205,0.4991443,0.13459802,-0.1443736,0.07974062,0.18080013,0.014006821,-0.15607677,-0.06948645,0.112026855,-0.36949962,0.105660364,-0.19902799,0.065393895,0.13387053,-0.37983695,-0.2168554,0.10299538,0.14162868,-0.27464548,-0.10925055,-0.28499016,0.0045384215,-0.25599757,-0.06216497,0.11438491,-0.049561273,0.1741264,0.32959118,-0.0147542115,-0.24926054,-0.10055512,0.118846014,0.026466407,0.2462709,-0.3950579,0.098028,-0.044224635,0.3736352,-0.39419135,-0.07869249,-0.018484326,-6.4437045e-05,0.040179517,0.29217792,0.3612197,0.008193309,0.13490641,0.24960169,0.47312382,-0.16576806,0.03771608,-0.15520065,-0.018933743,0.096327856,0.23032708,0.092956424,0.4207283,0.068047896,0.282589,0.083736755,-0.067378595,0.12912084,0.21205729,-0.38268697,-0.0490441,-0.13582046,0.018354997,0.39188838,0.0893969,0.043225355,-0.41183478,0.2041558,-0.120395824,0.2879191,0.11378864,-0.35529423,0.025586816,0.15132968,0.16431034,-0.23524314,0.030154243,0.16031861,0.26758826,0.2473534,0.03486126,-0.1106021,-0.38048506,-0.28357425,-0.02245957,0.18571685,0.17454329,0.11856575,-0.05178247,-0.11346865,-0.14550118,-0.39970326,0.075693,0.3871256,-0.04078384,0.16512932,0.3234727,0.016638573,0.14113255,0.08169976,-0.1559977,-0.14396915,-0.2438728,-0.22480565,-0.32489663,0.14724144,-0.32963768,0.25426534,0.20228656,-0.10579991,-0.19469495,0.25231874,-0.17141753,-0.22727133,-0.09533923,0.4119378,-0.12032843,-0.28804588,0.06203175,0.07761414,-0.074926704,0.2655405,-0.30629736,0.019110795,-0.1553941,-0.050319687,0.0457744,-0.2828217,0.2599264,-0.2896389,-0.016787848,-0.35003853,0.19228527,-0.014402343,-0.23080927,-0.013486693,-0.4185852,-0.20863517,0.066648774,-0.04695301,-0.25349537,0.09850224,0.28895363,0.26529077,0.13098168,0.03949659,-0.34674323,0.13888206,-0.46718538,-0.0985372,-0.06741567,-0.14022636,0.039329134,-0.16054061,-0.10149414,0.13889816,0.1282043,-0.22371754,-0.29595646,0.31559852,0.039753336,-0.11649497,-0.05571157,0.12791702,0.12976725,0.49378896,-0.16909914,0.128183,-0.010742899,0.1775173,0.4243508,-0.16873673,0.064025335,0.39695653,0.4047189,0.05774201,-0.18635526,0.50123197,-0.117664985,-0.068232134,-0.30146533,-0.08429231,-0.1282785,0.1448535,-0.3352779,0.06444562,0.68532807,-0.059745923,0.030276535,0.004494291,-0.1442762,0.10524107,0.0524506,-0.21109788,0.3883235,0.107433334,0.38342556,-0.120371416,0.32047936,-0.14914078,-0.025618562,0.06452128,0.048510086,-0.22771925,-0.0012862476,0.5366003,0.09816563,-0.124998555,0.072172426,-0.14827642,-0.042372562,-0.019660745,-0.14788358,-0.13563235,-0.06420166,-0.10232415,0.1708826,0.3058475,0.12561084,-0.518416,-0.2505606,-0.1304831,-0.1346761,-0.11157,-0.08938341,0.36404264,0.16589153,0.060639396,-0.6543934,-0.002187889,0.09281381,-0.11633852,-0.04185533,0.07904658,-0.27393436,-0.21784432,-0.4333192,-0.3158069,-0.107946396,0.28071228,-9.9483215e-05,-0.13956778,0.10987274,-0.2609153,0.23699771,0.17560485,0.13021864,0.07417149,-0.23572282,-0.15196393,-0.23760387,0.04997143,0.20276424,-0.2997372,0.21719438,0.15358166,0.12742414,0.07273841,-0.14521024,0.24593055,-0.10949836,0.1058545,0.021024797,-0.07016393,-0.19693628,-0.07506569,-0.4534232,0.45467377,0.27792877,-0.06027011,0.04139136,0.034182444,-0.1418302,0.19345915,-0.17662692,0.3516062,-0.0041323584,-0.2215725,-0.2799644,0.09337968,-0.13498023,0.17661917,-0.37460816,-0.0077433866,-0.18420772,-0.09167324,-0.07678399,0.17369044,0.01433843,0.5152714,-0.099338196,-0.25314233,0.14279027,-0.188858,0.00777868,0.083881415,-0.0671601,0.19456361,0.123087145,0.0040520416,-0.5532175,-0.15869944,0.08053168,-0.025919514,-0.1953595,-0.01672558,0.08557653,-0.22868903,0.20605852,-0.3165428,-0.017578859,-0.21101582,0.14719667,0.20917903,0.0054529007,5.3086016e-05,-0.2229347,0.06966041,0.048542,0.10956584,-0.12896849,-0.26327974,0.128493,-0.30385342,-0.030959291,0.21874233,0.34136313,0.017061224,-0.2859682,-0.11767761,-0.19207211,0.12174069,-0.10738845,-0.26195073,0.33935463,0.47836137,0.17518294,0.27321994,-0.2700609,0.030886946,-0.09847625,0.36015582,-0.18828242,-0.0029330065,-0.2052648,1.5501248,0.011628526,0.111886695,-0.018779844,0.07651873,-0.072474495,0.024840044,-0.020977296,0.12478841,-0.006110567,-0.5579795,-0.22783016,-0.1020965,-0.05751384,0.16732636,0.478077,-0.07674378,-0.057020094,-0.18341422,0.089181885,-0.1894168,-0.2874577,0.35073096,0.22363319,0.002379722,0.09982985,0.16561584,0.10116523,0.052697457,0.07261904,-0.15431687,0.367812,0.22550072,-0.06767454,-0.07334476,-0.19518633,-0.24694258,-0.045045067,0.44692254,-0.1000562,0.20552346,0.16629386,-0.019871958,-0.08464648,-0.09855307,0.12954615,0.13097623,0.17338608,-0.52680725,-0.06056856,-0.41615304,0.24279332,-0.03015972,-0.302189,0.41226828,0.15470959,-0.14908427,-0.4540901,-0.17129739,0.560005,-0.063428044,-0.07197847,-0.14501847,0.021914365,0.3038703,-0.13005726,0.15318066,0.089616045,0.012024334,-0.17451279,0.10548619,0.0014526857,-0.3673014,-0.3651971,-0.11734017,0.26986265,0.3260397,0.07424353,0.4040675,0.0036422198,-0.033547282,0.11170184,0.038510885,-0.057165544,0.1034642,-0.13554767,-0.08205044,-0.16238487,-0.11458484,-0.039160416,-0.42352203,0.15000483,-0.18072724,-0.075250626,-0.057715546,-0.09590274,0.037435967,0.17448837,0.13983846,-0.03893685,-0.058428407,0.1403107,0.17828919,0.08635118,0.084532216,0.32444766,-0.06525564,-0.0010188521,0.1824541,0.18716066,-0.23169993,-0.13788009,-0.023646085,-0.30006936,0.348056,-0.3590042,-0.2054505,-0.3580741,-0.014630968,-0.28779104,-0.06240494,-0.22855878,0.16960512,-0.10606589,0.035831686,0.12707198,-0.35459158,0.12227369,0.012170554,-0.008832489,-0.3287899,-0.022296725,0.022130776,0.35522076,0.28699407,-0.28711492,0.42685118,0.0031070376,0.21383762,0.3416975,-0.012551696,0.3653384,-0.17080054,0.084383376,-0.3629145,0.111430675,0.17033546,0.2138547,0.024356423,0.36018085,-0.3271101,-0.14036657,-0.12449091,0.12656239,0.1902836,0.070659176,-0.23766764,-0.021317817,-0.2215822,0.14220142,0.19753242,0.2897081,0.03301761,0.026619703,0.25229773,-0.44551685,0.3356349,0.062556475,0.022872385,0.035452727,-0.21043937,-0.17606847,0.12675215,-0.017166104,-0.24669199,-0.033217907,0.2798372,0.121995375,-0.17696238,0.2364326,0.19852686,-0.117397696,0.43546277,-0.02471582,0.35650262,0.24947071,0.13655636,-0.19060649,-0.060907055,-0.115160815,-0.38205314,0.3269959,0.35278222,-0.0939898,-0.16960649,-0.04440508,-0.06277204,-0.52956504,0.19432665,0.2728305,0.17674874,-0.118410915,0.0026559643,0.34757665,0.033896353,0.09938802,-0.22642107,0.090550706,-0.33849657,0.15074293,0.026185816,0.33963388,0.04617131,0.2802468,-0.07221016,0.13672674,0.01110652,0.14901564,0.16205506,0.25361043,-0.11631383,-0.08888578,-0.09336434,-0.04897273,0.0042095114,0.109758355,0.18408272,0.0017946565,0.027231283,0.098097615,-0.21339817,0.23243207,-0.3077403,-0.026553847,-0.18563107,0.20057397,0.05360119,-0.06995929,-0.22294272,0.0941811,0.17376575,0.14770402,0.19351934,-0.1599541,0.20416473,-0.13343048,-0.12734461,-0.32570893,-0.23230928,-0.14748949,0.021001901,0.25043112,-0.18170519,0.2896598,-0.36782074,0.02558415,0.16864,0.06883789,-0.0066724294,-0.49477237,0.18025851,-0.020608298,-0.34546685,-0.26233286,-0.03175881,-0.1413845,-0.033271816,-0.07814989,-0.25029013,0.274243,0.25718513,-0.31454113,0.03418842,-0.3078637,-0.053800225,-0.3020557,0.2343342,0.17443413,0.038190104,-0.0058377613,-0.06715037,-0.05238524,-0.15729791,0.02572974,-5.3927984,0.06700847,0.17822264,-0.3352878,-0.1514272,0.049285635,-0.27251187,-0.13891141,0.23433217,-0.06931997,0.13003063,-0.17862079,0.28214285,0.016246349,0.06653031,-0.088854134,-0.19124474,-0.1022283,-0.02161187,-0.36789468,0.24332918,-0.0719017,0.11111218,0.37291548,-0.08938172,-0.21815234,0.28734332,0.28624952,0.17269722,0.32819518,-0.23489976,-0.47178936,-0.18792662,-0.10212243,-0.053837482,0.10135893,-0.15816957,0.4847535,0.13912357,-0.258545,0.29983652,-0.110769585,0.018475195,0.3015539,0.40653324,-0.49829626,-0.242764,-0.17650379,0.3791864,0.10763875,-0.49935767,-0.20541503,0.16508304,0.265906,0.07414614,-0.12016418,0.01505903,0.35116416,0.22733507,0.20668699,0.5546222,-0.1650196,-0.08706318,-0.22888443,-0.20307583,-0.087799996,-0.20159847,-0.36072016,0.3385641,-0.30696517,0.1631306,-0.4075889,-0.18096848,-0.46325606,-0.11104725,-0.33981517,-0.038735986,-0.20784749,-0.18190296,-0.040756576,-0.16962144,-0.22250542,-0.0058895354,0.18772362,0.26315123,-0.06518712,0.073530875,0.18310876,0.17455259,0.04196221,0.32503363,-0.11581041,-0.20928857,0.006534268,-0.009861112,0.0017172928,-0.2830727,0.090271145,0.032109335,0.13249774,0.46552882,-0.14003347,0.13103749,0.17260255,0.51553154,0.1560482,0.078579545,-0.14899653,-0.068776876,0.47642043,-0.09542734,-0.16876043,-0.108696185,-0.028775288,0.094291255,0.23443641,-0.14202236,-0.36129823,0.14564475,0.25057292
GLY_4_A,-0.018795988,-0.06263408,0.11788525,0.015695097,-0.3299746,0.11648275,0.17182322,-0.17117018,-0.047861956,-0.33091688,-0.1773567,0.26215276,0.18523334,0.057679057,0.16841596,0.11099577,-0.07803154,0.07192343,0.10885176,-0.22164866,0.37257004,0.23883875,0.3233905,-0.14174995,0.24870189,-0.017582685,0.0034962462,-0.26080966,0.054523196,-0.19126126,-0.030288886,0.14156424,0.15140776,0.16386169,-0.19560072,0.22557749,0.11398016,0.13775432,-0.23686996,-0.26192757,-0.16433538,-0.38756862,0.32294345,0.19745643,-0.25709152,0.1700222,0.38242432,0.054765124,-0.17388637,-0.019143824,-0.0719628,0.23551658,0.12777829,0.5022031,0.07852433,-0.1619305,-0.013518102,0.19956528,0.21925329,-0.22938272,-0.02398837,0.013406623,-0.23517452,0.31372437,-0.29713246,0.092097096,-0.32201913,-0.25493643,0.07278867,-0.19738382,0.12071247,-0.092824884,0.18542609,-0.44398883,-0.024971375,-0.0663926,-0.011514401,0.2784465,-0.43046784,-0.10442895,0.18819849,-0.034808625,-0.59259725,-0.04268296,-0.50589037,-0.013781267,0.27222288,-0.10041811,0.28528184,0.8137235,0.04799578,0.24730296,0.0013659596,0.2818708,0.111366235,0.0020363287,0.037569698,-0.3161247,-0.19579403,-0.1515165,-0.14573324,0.10301176,-0.21492939,-0.28549123,0.11949384,-0.115634546,-0.40710872,-0.3957195,0.23313189,0.07068387,-0.07797262,-0.05999456,-0.05841286,-0.1763494,0.07438987,0.3088183,-0.29799107,-0.08831615,-0.11439009,0.28014433,-0.10595658,-0.11470037,-0.03985932,0.110106975,0.14256446,-0.16144592,0.20875491,-0.17894164,0.03382926,0.1583283,-0.18128975,0.087755375,-0.13395013,-0.42536178,0.11357289,0.008647975,0.28829294,-0.01804451,0.15972379,-0.028197493,-0.09832353,0.08017724,-0.27778584,-0.08021088,0.26069868,0.16468543,-0.5465221,-0.09230939,-0.17416872,0.13436005,-0.15192416,-0.35782412,-0.2656037,-0.13689454,0.07436231,-0.30492905,0.13144045,0.004148558,0.25831285,-0.28817046,-0.011857065,0.4566268,-0.06516441,0.034755334,0.03809034,0.26403853,0.39660576,-0.06421985,0.25316182,0.3975418,0.22389148,0.4265555,-0.109100014,-0.052188013,0.05300062,0.10195981,0.07781254,0.0113690235,0.1227419,0.19808732,-0.12578969,-0.13602112,0.25472564,-0.30764848,0.36222044,-0.17229232,0.14174469,0.027311336,0.025066074,0.19166267,-0.054186486,-0.032446038,-0.17480418,-0.31601024,0.14636599,-0.24438454,-0.26376233,-0.06198893,0.08241875,-0.40281188,-0.08178119,-0.09238492,0.03372779,0.039065357,0.088169456,-0.09526253,-0.06712223,-0.20294401,0.0078032487,-0.689326,0.10237655,0.19427945,0.24685612,-0.47959864,0.3385202,0.301679,-0.26108575,0.024695024,0.42967975,0.12645888,-0.1810121,-0.7146086,0.21648243,-0.47276416,-0.08675932,0.08996259,0.07542255,-0.020258984,-0.01847326,0.0383555,0.2912217,0.0031356704,-0.09139,0.09015923,1.5942976,0.054179195,0.17407286,0.20899105,-0.018081112,-0.32163557,-0.10067373,0.03662406,-0.11998069,0.19153462,-0.11514437,0.050337587,-0.17472745,-0.038864095,-0.109632425,-0.25539234,-0.4087021,0.14393179,-0.097089656,-0.24313323,-0.0392431,-0.011204657,-0.17158085,0.1633973,-0.31963384,-0.23038955,0.083885826,-0.1010028,0.17352057,0.26461273,-0.2917492,-0.18009916,0.33070123,0.1432077,-0.045285493,-0.14822808,-0.3847571,-0.5560579,-0.0563497,0.31356946,-0.11332963,0.22319353,-0.19847806,-0.13295358,-0.1912675,-0.20985472,0.11690552,0.052711364,-0.0041078697,0.0005356889,0.20353882,-0.3115858,0.18143229,0.15844883,0.1147914,0.17348076,0.39319137,0.18889073,-0.04213483,-0.1369687,0.35705453,0.03791845,-0.06694172,-0.083663,0.4251606,0.1164789,0.30198178,0.014179739,-0.134232,0.22500691,0.27246207,0.19597115,0.026875408,0.3049384,0.15975899,-0.11485447,-0.056447137,-0.07832951,-0.0042599845,0.24565579,-0.3709278,-0.19380604,0.23538026,0.09637203,-0.2923511,0.029656215,0.34909043,0.18280648,-0.1520394,0.0647963,-0.16620782,0.033904906,0.049935915,-0.15977348,-0.055868357,0.1367072,-0.08253409,0.15788895,0.11292516,-0.048761923,-0.3429963,0.123401545,0.13804606,-0.23362248,-0.028926868,0.0075109457,0.21508226,-0.01753109,-0.0835707,0.08569929,0.19768135,-0.46166232,-0.4286331,0.32318985,-0.054192886,0.01572235,-0.22124103,-0.19042479,0.08036589,0.40519542,-0.0008218537,-0.010990596,0.07363637,-0.24279723,0.12572019,0.38493168,0.2727997,0.43703547,-0.15442614,0.21617912,0.120412074,0.24735759,-0.006743702,0.32634625,0.081328,-0.23950411,0.53047246,-0.27505496,0.0033932955,-0.28765243,0.08317945,-0.08227281,0.10721605,0.03930006,0.32309893,-0.03569209,0.16219494,0.24615897,0.19175738,-0.16937163,0.0077651334,0.08023225,-0.3136655,0.098364055,-0.014567835,0.25046143,0.12813164,0.0719787,-0.015216838,0.1653748,0.1824595,-0.16382459,-0.20046847,-0.102976374,-0.0035643098,-0.3549555,-0.10616541,0.21608405,-0.3903254,0.4432557,0.20715201,0.29420695,0.019996846,-0.59142214,-0.20896076,-0.19296022,-0.0026366117,0.04221968,0.2499049,-0.20756182,0.4382826,0.2631553,-0.07274478,0.37754864,-0.18933898,0.34379575,0.06559071,-0.28734788,-0.16623566,0.09383447,-0.050884653,0.085066214,-0.11286531,-0.07458367,0.26248443,0.027564649,0.42991617,-0.11483546,-0.23305142,-0.11161694,0.11453364,0.11195186,0.05602735,0.22254516,0.39650515,-0.2899112,0.07755829,-0.18217325,0.23103218,-0.1489926,0.13294433,-0.31803283,0.25881025,0.024842916,0.4543748,-0.32489735,-0.20517813,-0.045721505,0.013980997,0.39795837,-0.36214182,-0.0293618,0.18198006,0.3995085,0.106918134,0.45797777,0.10027647,0.07751835,0.0020712002,0.32793552,0.31699774,-0.4614952,-0.03509665,0.34336114,-0.026936444,0.1772348,0.060783695,0.07205851,0.40974563,-0.16168383,0.19388644,0.012309449,-0.014366006,0.11345061,-0.17409815,0.036869686,-0.22250906,-0.023805225,-0.34643665,-0.45780146,-0.016621418,0.10409303,-0.019055048,0.0693046,0.29425952,-0.048492417,0.27584657,0.2792209,-0.28558332,0.22985701,0.03604555,0.4303973,0.052862085,-0.13875632,-0.21772186,0.2458256,0.045257308,0.01667476,0.18469709,-0.04508403,0.21822548,-0.15038712,0.15438747,0.6559553,0.44412777,0.11365286,-0.2621022,-0.16899037,0.1574217,0.04504875,-0.06943796,-0.2638278,0.42360336,0.017978154,-0.036730997,-0.31133196,0.011032811,-0.3082025,0.02481278,0.23335348,0.067596994,0.14540786,-0.12121423,0.10057946,0.015806872,-0.40658885,-0.1996531,0.17764659,0.008659152,-0.11627788,0.08802818,0.34343788,-0.30401447,-0.112449534,-0.45423126,0.2286926,0.03969556,-0.25255778,0.0049946858,0.20541726,0.10321473,-0.29297557,-0.17786993,-0.32359388,0.07262491,-0.28013507,-0.013850824,0.0837895,-0.04156991,0.5171177,0.2502324,-0.21325852,-0.5870928,0.04001758,0.22502497,0.014521396,-0.052712325,-0.017400844,0.26601306,0.045008834,0.30694532,-0.500063,0.0589789,-0.04623758,-0.109427825,0.2167606,0.05653546,0.5784027,-0.009862044,0.19919132,0.15878634,0.6179146,-0.13149923,-0.24588354,-0.17904842,-0.044769652,0.23153542,0.09193315,0.1161607,0.20283163,-0.17790897,0.29523063,0.06364215,-0.046519823,0.13557486,0.20449781,-0.12501693,-0.13215716,-0.093173034,0.26395258,0.29418355,0.07465188,-0.018713977,-0.105177656,0.20579274,0.028407224,0.26065293,0.4527323,-0.3873912,0.22506005,0.17155409,0.27050477,-0.15825164,-0.015933394,-0.050338145,0.50194,0.012380183,0.04759893,-0.1895329,-0.1365262,-0.06895739,0.057278372,0.021108847,0.10779563,0.012423291,0.16708246,0.047499698,0.08636894,-0.32155648,0.12223787,0.051992863,0.2141704,0.067403585,0.18765068,0.06448704,-0.03241352,0.20941643,-0.20057832,-0.27530664,-0.30140126,-0.15406479,-0.2058804,-0.07746529,-0.054669466,0.44329166,0.40754715,0.06564543,-0.116911426,0.35185924,-0.003048151,-0.18305218,-0.3803779,0.28298002,0.06482146,-0.27143157,0.24198803,0.108597174,0.067367285,0.13812213,-0.20582427,0.0927061,0.0510276,-0.09584644,0.089666545,-0.47513524,0.35410386,-0.39985147,-0.13918889,-0.203922,0.18752782,0.010775863,-0.5601772,0.14108522,-0.47614092,-0.008359196,-0.072202675,0.12393578,-0.048711672,-0.19896236,0.048108816,0.28133565,-0.065409295,0.35935572,-0.13093206,-0.01765412,-0.27794996,-0.14044565,-0.0009456174,0.080544956,0.3339121,-0.137487,-0.099692605,0.3931623,0.1628525,-0.19874614,-0.22670396,0.15241413,0.09765086,-0.16533467,0.19759783,0.39818516,0.027326187,0.13172634,-0.06786349,0.093676955,0.10181856,0.36740524,0.16204831,-0.0138651505,0.024376264,0.146808,0.25990218,-0.26089263,-0.04944317,0.21728995,-0.04789842,-0.049843807,-0.35550094,-0.30635315,-0.20251492,0.0064165555,-0.12225896,-0.2986754,0.30677193,-0.16108347,0.19191076,-0.018373448,-0.50241816,-0.09118877,0.17572127,-0.430936,0.13573954,0.026610775,0.3137792,0.24413782,0.18898842,-0.16697463,0.069203205,0.17107764,0.17830285,-0.08163033,0.03934583,0.80995125,-0.2786391,-0.54761595,0.079483934,-0.15093923,-0.15955931,-0.052713517,-0.38032806,-0.27695888,-0.0034173296,-0.16035005,0.35839388,0.48863086,0.025557095,-0.18602923,-0.29428098,0.06536069,-0.1676115,0.053852037,0.15580246,0.09254487,-0.0032877005,-0.2083751,-0.46892205,-0.38865414,0.28062472,0.24704038,0.21425454,0.35625976,-0.041358996,-0.21166253,-0.3511995,-0.12476915,-0.05865931,0.18794599,-0.046476685,-0.20191278,0.055628583,-0.1176899,0.33329922,0.22316699,0.14146066,0.2283295,-0.20559743,-0.17630605,-0.038563956,0.012836057,0.36479005,-0.2750648,0.009977386,0.043909304,0.09591201,0.18978906,-0.021027772,0.19359507,-0.065217026,0.5823817,0.03195113,-0.036028825,-0.06429175,0.04999557,-0.29400072,0.20158145,0.786432,0.021195382,-0.12538284,0.037787855,0.0008837979,0.061925244,-0.20013845,0.12098583,-0.12663616,-0.2363652,-0.34528875,0.11242766,-0.6107806,0.2534058,-0.09837847,0.16881041,0.06368398,0.10019512,-0.24740036,0.049346417,0.15036303,0.2885303,-0.31957698,-0.43138057,0.187428,-0.042434663,0.23373462,0.13540427,-0.052659843,0.3526638,0.042099476,0.03436874,-0.12224856,-0.17865825,0.08754304,-0.02665581,-0.13433519,0.24115591,0.17929979,-0.22200061,0.29668075,-0.27751026,-0.19150418,-0.1708831,-0.0261675,0.0054572136,-0.0071241544,-0.2634521,0.15400288,-0.16527154,-0.16762632,-0.08431103,-0.12674746,-0.18313375,-0.08453845,-0.2015415,-0.15675305,-0.0083117755,0.08508264,0.2680311,-0.040593542,-0.2329932,-0.20867962,0.08865489,-0.14514737,-0.050004933,0.12450959,0.10283221,0.065232314,0.22954246,-0.2216012,-0.114848375,-0.14830567,0.21209203,-0.152922,0.23099147,-0.22956282,1.6475443,-0.1537207,0.07782444,-0.10577463,0.14465667,0.04504668,-0.0077367304,-0.45457962,0.116071366,-0.046985574,-0.3796227,-0.05749111,0.1621178,0.026384095,0.07624376,0.15628853,-0.042488754,0.040429458,-0.07162239,-0.068497986,0.023442613,-0.3096275,0.25815025,0.43721288,0.054746877,-0.021678267,-0.040177744,0.09110528,-0.031535756,-0.10553228,-0.27120277,0.30279234,0.15523808,-0.16402495,-0.29994872,-0.16370334,-0.32874548,0.00959956,0.058491834,-0.07211365,-0.030888496,0.16083424,-0.011615474,0.009701755,0.06178575,-0.08269602,-0.1006915,0.14584461,-0.28328937,0.14443803,-0.23402864,-0.13517134,0.19943976,-0.1402411,-0.08214516,-0.2677033,-0.15044093,-0.26751366,-0.13892001,0.43580937,-0.047064457,-0.11400528,-0.18269071,0.014188059,0.0012242532,-0.08587901,0.05040243,0.21481676,-0.19583844,-0.11121299,-0.022567559,-0.043347307,-0.30916092,-0.43920842,-0.16329074,0.1341915,0.07117448,0.010252013,0.29202154,-0.08983709,-0.07371193,-0.006149151,-0.27776605,-0.19863103,0.1728099,-0.19587293,-0.05888024,-0.31311837,0.30140397,-0.07214807,-0.49633545,0.31547475,-0.12149893,0.19371904,-0.13010746,-0.07797695,-0.02584615,-0.071530856,0.02907709,0.1378082,-0.18087646,0.16685703,0.38106817,-0.058492623,-0.32322443,0.28508866,0.012264193,0.060273647,-0.053067327,-0.21065147,-0.18391307,-0.14277719,-0.04102814,-0.26810837,0.22160605,-0.25123772,-0.18104823,-0.24714552,-0.26755416,-0.3696183,-0.06541248,-0.25220898,0.23313266,-0.28390586,-0.34911004,0.1896972,-0.7501576,0.36608997,0.18632093,-0.13143449,-0.31409118,-0.006156469,0.4870413,0.14047259,0.19788809,-0.12250479,0.4122948,0.055277754,0.098515935,-0.117490046,-0.20891272,0.14617015,0.0547098,0.024647199,-0.4460699,0.42004997,0.2866792,0.15373188,0.01365792,0.09992274,-0.32074898,-0.11667228,0.12776859,-0.18492903,0.21060824,-0.17142302,-0.24998079,-0.4367605,-0.4358113,-0.038345598,-0.02712897,0.11661618,0.18390179,0.08646066,0.12694961,-0.14351949,0.16755009,0.18178004,-0.15328948,0.23730606,0.009222985,0.05671516,0.111923456,-0.111801885,-0.18157871,0.1865083,0.4383004,0.0733515,-0.094986156,0.031426705,0.1865957,-0.02635694,-0.065737404,-0.1494354,-0.03729335,0.06504636,0.100732595,-0.27586827,0.12908015,-0.12729621,-0.31090838,0.25579095,0.151384,-0.02621276,-0.4131525,-0.107566714,-0.06660079,-0.38086942,-0.021626335,0.11979614,0.22407877,-0.37918818,0.037037775,0.39861482,0.19093704,0.07032625,-0.38266364,0.05872664,-0.1929147,0.08523967,-0.19722342,0.2054353,0.43753907,0.24871095,-0.20135032,0.1281779,-0.20789199,0.15825054,0.35019162,0.0611881,0.09956122,0.11664598,0.039855532,0.011619749,-0.0034213972,-0.0030121894,0.020974046,-0.1639699,-0.2162834,0.06622096,0.016132815,0.33986196,-0.45389223,0.044609863,0.19911431,0.09821384,0.17774077,-0.066032015,-0.14975567,0.58456117,0.007938691,0.03034726,0.22352225,-0.24221906,-0.062318154,-0.62318045,-0.39982843,-0.18793167,-0.32173753,-0.39464623,0.013900723,0.23707871,-0.26076657,0.03418206,-0.21924844,-0.1790469,-0.13271554,-0.0435496,0.12555777,-0.20310248,0.20098461,-0.023426464,-0.013068808,-0.36536884,-0.044579376,-0.08185854,0.08885146,0.10176681,0.018847574,0.07012918,0.38344634,-0.2650688,-0.04958758,-0.120388746,-0.0987684,-0.44541723,0.24776785,0.14522287,0.01671932,-0.049085263,0.115129285,-0.0007333395,-0.18252,0.048722524,-5.195598,-0.19481182,0.21535882,-0.07779286,0.1157552,0.15099914,-0.014966135,-0.13491438,0.016005734,0.008939675,0.14407921,-0.38729164,0.10375891,0.2449836,-0.047699053,-0.2195053,0.24550495,-0.07969717,0.20068079,-0.036407184,0.13303757,-0.08969469,0.2719117,0.29859236,-0.027594477,-0.020437116,-0.073571935,0.29037613,0.09909979,0.002211896,0.092497244,-0.49851853,-0.22205316,-0.017703058,0.010689895,0.09451268,0.08778621,0.5518909,0.17395787,-0.05171533,0.29069924,-0.02194311,-0.018956453,0.4109491,0.23142691,-0.37796798,0.0558351,0.0103390245,0.5513359,0.21362068,-0.17694576,-0.01164783,0.22402048,0.0062267813,0.35700837,-0.06775952,0.01970681,0.5741704,0.16931778,0.22587611,0.37962368,0.076380335,-0.36624882,0.092105135,-0.04314941,0.06301157,0.028886538,-0.18682146,0.26284388,-0.2527968,0.30364117,-0.5988086,0.17723432,-0.05084617,-0.06678196,-0.32672724,-0.32464713,-0.27638638,-0.013155151,-0.2544266,-0.18339637,0.14873008,-0.19147292,0.16770224,-0.033961132,0.026934497,0.1342017,0.3366683,-0.08339995,0.10595421,0.15413205,-0.058098998,-0.18118392,-0.0030456434,0.17320707,-0.13922468,-0.3642925,-0.0011413901,0.19343977,0.22419566,0.6924862,0.05266522,0.24590266,0.15067938,0.24913336,-0.106975526,-0.11610123,0.03177833,-0.07547226,-0.08619495,-0.13139752,-0.18206191,-0.18519925,0.07424586,-0.11626041,-0.04037693,-0.12499333,-0.3730656,-0.0066608815,0.06262118
GLU_5_A,-0.060860723,-0.22821674,-0.24655898,-0.08273236,-0.25031096,-0.08831668,-0.07425277,-0.39144364,0.20368624,-0.27132306,-0.13080104,-0.015714403,0.045331147,-0.08016151,0.20270893,0.051946305,0.15593329,-0.16044305,0.33111992,-0.030557867,0.15362006,-0.13913172,-0.055133518,0.08630909,0.25961977,0.32527998,0.015698396,-0.09580689,0.08714246,-0.016444003,-0.20349751,0.08148091,0.35200027,0.104201555,0.0064789983,0.2984012,0.19754477,0.18748379,0.1434207,-0.19583358,-0.089747794,-0.0095086945,0.08038645,-0.0007312434,-0.0005381487,-0.20056358,0.103095464,0.07882417,0.5526356,0.37595648,-0.041531928,0.24893622,-0.031715535,0.40659586,-0.25879347,0.46835265,-0.083293356,0.35234323,0.00849646,-0.021012727,-0.2230716,0.2599947,0.11278883,0.04433001,-0.040422864,-0.13792169,-0.09993224,-0.06856031,-0.049138527,-0.05921262,-0.056097846,-0.103753015,-0.29045674,-0.055096854,-0.08713062,-0.12477042,0.16070698,0.28023303,-0.04318209,0.20914644,0.053644564,0.15216285,-0.07492811,-0.14558575,-0.25312522,-0.26084873,0.1549192,0.33653098,-0.16012229,-0.22312787,0.24575856,0.040151387,-0.19268136,-0.063475706,-0.057660513,-0.052850235,0.049872436,-0.14272712,0.23547357,0.10347995,-0.059453182,-0.20084375,-0.30147985,0.007154868,-0.24928512,-0.053088233,-0.12995611,-0.11187009,0.10445778,0.07184327,0.2097481,-0.22306801,-0.2854057,-0.038507525,0.14899574,-0.28838733,0.17915933,-0.39515236,-0.067613095,-0.062962264,-0.24834128,-0.01931679,-0.041951306,-0.032308236,-0.14644887,-0.030774333,-0.06742892,0.0039749667,0.0010627635,-0.1423344,-0.0567995,-0.054834243,-0.07934749,-0.16812181,0.051301517,0.17776926,-0.22090597,0.15956306,0.038818665,-0.130549,-0.16457455,-0.23255982,-0.15820898,0.08283084,0.14392294,0.18685848,-0.050220057,-0.03387353,0.41886207,-0.20124874,-0.0905837,-0.19403766,-0.080920435,0.08290883,-0.044047695,-0.047067504,-0.19840325,0.010580611,-0.19988026,0.28384736,0.13885593,0.096981764,0.23202634,-0.28528953,-0.07004884,0.16063374,-0.076443836,0.09251945,0.29580772,0.2434918,-0.27265874,0.29545313,-0.19954097,-0.16107358,-0.079795554,0.0897854,0.343797,0.09537525,-0.087683216,0.16329193,-0.018626755,-0.19707271,0.08906802,-0.16017866,0.28548592,-0.15794165,-0.21658759,0.012291261,-0.21264818,-0.032859825,0.048286293,0.1501858,-0.25905427,0.14256576,-0.28324917,-0.0018055596,0.2283057,-0.30195713,-0.07795325,-0.009104804,0.3795796,-0.06354703,-0.2294944,-0.3653207,-0.17136635,0.22800374,-0.09876328,-0.13203314,-0.13554949,-0.23234598,-0.11657632,0.04689416,0.08532435,-0.3631099,0.117296055,-0.0033158194,0.21784015,0.19577347,-0.02960807,0.32527104,-0.08957268,0.03992564,0.094990574,-0.018157685,-0.07974274,0.13069512,0.14388059,-0.33263972,0.093499124,0.13109715,0.35074624,-0.08547594,-0.1771261,-0.14307646,-0.6520331,-0.25936297,0.24907927,0.1254099,-0.1489258,-0.03802057,0.10354017,-0.023119118,-0.12939326,0.048228245,-0.3906403,-0.18210438,-0.17493762,0.20171078,-0.0056220344,-0.07074909,-0.07253066,0.113825865,-0.12814239,-0.076716535,0.017229844,-0.142782,-0.10780115,-0.20239773,0.1670404,-0.2993039,-0.17471719,-0.27936205,0.25966185,0.13029149,-0.12141096,-0.13132757,0.056707647,-0.28827047,-0.123974904,0.2523214,0.059889402,0.1745743,-0.20125085,0.28923482,-0.06266107,0.15164678,0.042059314,-0.29725075,-0.20756479,-0.4549563,-0.2247983,-0.23302832,-0.18990262,-0.21021701,0.0060367878,-0.090624094,0.10424969,-0.08099041,0.040858775,-0.017696282,0.4111026,-0.012959772,-0.028416919,-0.033997696,-0.032457344,-0.0053233276,-0.22606026,0.14862873,0.17035837,-0.06894548,-0.09555863,0.07463287,0.048384964,0.089403346,0.49491513,0.13884461,0.3052141,-0.40605098,0.28763518,-0.09110974,-0.15699871,-0.08915662,-0.024996368,0.263943,-0.03797024,0.027929243,0.23854457,0.2713568,-0.34535822,0.17704764,-0.24508055,0.00801296,0.0014323525,-0.29011,-0.21011025,0.26195097,0.15278327,0.4675378,0.029010195,0.110275246,-0.03349569,0.012144154,0.30403978,0.007221258,-0.030783016,0.19049157,0.1381884,-0.2317388,-0.22047764,0.11062615,0.24386764,-0.28808784,-0.029677173,0.09523773,0.37168092,-0.18470025,0.25465375,-0.35280046,0.48928243,-0.16839494,-0.16879466,-0.18070208,0.24036817,-0.07490192,-0.046523586,0.02069429,0.14757483,-0.2270293,-0.12949619,0.16628379,-0.17352208,0.10823367,0.09973511,-0.1986871,0.15494695,-0.05041812,-0.079760045,-0.11643891,0.17837891,0.22208604,0.29642078,0.0052875965,0.022786494,-0.27767184,0.22775258,-0.078227594,0.0042545865,0.044146627,0.2896759,0.055325106,0.081867576,0.09275208,-0.26092863,-0.3516173,-0.009621097,-0.0873519,0.122685224,0.085555695,-0.17944059,-0.023297744,0.20200449,-0.035181604,0.038200956,0.4444546,-0.4262843,-0.15389648,0.020405576,0.03457261,-0.006905673,-0.5108132,-0.22604367,-0.04193714,0.05440231,0.13616988,-0.47799355,-0.011841212,0.25406352,-0.21517503,0.29191515,0.0020637386,0.23631014,0.22695735,-0.03933462,-0.014043217,0.15796465,0.36053252,-0.0137357665,0.03126583,-0.22265625,0.23140642,0.16614124,-0.08303436,-0.08742601,-0.1605479,0.037930872,0.20655476,-0.32297465,0.21045694,-0.060077358,0.2379162,0.16513872,-0.036047593,0.123261414,-0.09212408,-0.03231524,0.01861908,-0.03462031,-0.10755486,0.3123805,0.09728634,0.004421874,0.14993559,0.062111773,0.115393266,0.070686854,0.29408818,0.08707168,-0.30054778,-0.12598102,0.31738788,-0.314836,0.103062086,-0.23496392,-0.04760052,-0.15461639,-0.15406631,0.10487599,-0.0051074633,0.11885465,0.011096175,-0.051949322,-0.14315534,0.24897999,-0.12169827,0.22724506,-0.07385398,0.13845211,0.16096471,0.32086405,-0.32925546,-0.3473153,-0.2067388,-0.26045737,-0.27453536,0.2135513,0.21947746,0.24370115,0.17761526,-0.17702813,0.07353293,0.28917336,-0.049125925,-0.2553609,0.040047668,-0.16959569,-0.12423779,0.006772932,-0.099984504,0.22285768,0.11096054,0.09549831,0.13508068,-0.069220886,0.18231179,-0.08034782,0.34130114,-0.36046714,0.0029832043,-0.53743327,0.029887514,0.04851571,-0.08169439,-0.27071622,-0.09541394,-0.1515034,-0.20167838,0.07059452,0.22367664,0.23125999,-0.28529954,-0.25521967,-0.048504416,0.031877004,-0.13969025,-0.09151052,-0.024157885,0.11941383,-0.23008624,0.016297102,0.06547876,0.026839288,-0.26311186,0.4101085,0.25900376,-0.15498054,-0.13162808,0.31739485,0.26224512,0.0013754779,-0.3673014,-0.051854372,0.2567514,-0.0011077827,-0.09273687,-0.0288849,0.3527798,-0.30495852,0.08685436,0.38031834,0.009177808,0.10917642,-0.09278704,0.18092279,0.32603058,-0.000768067,0.18334013,-0.110712014,-0.17143168,0.3256838,0.46190286,-0.1718279,0.27555695,0.034946926,0.0047576725,0.29745737,-0.11786779,-0.116139606,0.23744977,-0.3148938,0.23686461,-0.49736604,-0.07487249,0.22306609,-0.2560276,0.062727086,0.4668446,-0.39167833,0.3875931,0.014099814,-0.32271233,-0.48733175,0.21796174,0.045933757,-0.21307686,0.092040025,0.07971796,0.039280865,-0.05724816,-0.18712665,0.15456896,0.0076780473,0.39616835,0.08391049,-0.07755061,0.027795607,0.043888237,0.062507086,0.043112256,0.31928816,0.24019626,0.052769348,0.13192277,0.048908576,-0.054868907,-0.004707518,-0.06708745,-0.06598528,0.017749786,-0.042522736,0.044238124,-0.30072498,-0.2694737,0.28485557,0.12808898,0.15255095,0.1971376,0.07401627,0.15650378,0.054529574,0.16122909,-0.18032701,0.26350775,0.09868543,0.036453202,-0.19097959,0.2889541,0.15423077,0.45157036,0.33639634,0.08269583,-0.20400634,0.05330198,-0.052309252,0.029656423,0.06271105,0.028070386,0.31180042,0.053740643,-0.048847087,-0.2941552,0.07012757,-0.11408929,-0.13451636,0.19356664,0.010035384,-0.15772174,-0.072859414,-0.3052265,0.2364945,0.4392432,0.012254843,-0.02711918,0.14524195,0.21597847,0.14774083,-0.1279019,0.2659474,-0.43921605,0.33415523,0.2270906,0.14595427,0.20752768,0.2584788,-0.05775299,-0.11080262,-0.301583,0.12728623,-0.13933,0.10011151,0.50852627,0.10523301,-0.13960983,0.028118571,0.20350814,-0.06618648,-0.10925169,0.0024896744,0.10291785,0.06866394,-0.1487858,-0.027906451,-0.22933045,0.1079411,0.03208799,-0.008480318,0.009614542,0.1478093,0.25771993,0.0043711127,0.0042923735,0.021913359,0.24221158,-0.021006655,-0.034344453,0.20424011,0.045916136,-0.07495904,0.020542417,-0.115506604,0.17040552,0.2715346,-0.039971642,-0.19531788,0.19442114,0.19049212,0.07949433,0.088345334,0.25587577,0.018471912,0.18363835,0.23043902,0.53283536,0.07189713,-0.23498432,0.21314853,0.255652,-0.023461599,0.2709015,-0.08067642,-0.14671408,0.0024123085,-0.048425887,-0.04483609,0.018615125,0.07946507,-0.048809312,0.11103687,0.20557667,0.0561094,0.17390408,0.28610918,-0.13221957,-0.10292769,0.35200885,0.09808834,0.13289514,0.07204187,0.44740108,0.6714747,0.68805873,-0.084217,-0.27035767,0.00885297,0.29074138,-0.31349978,-0.07524649,0.22959459,0.03447847,-0.2758558,0.07596258,0.33580342,-0.20474178,-0.18406704,0.10917675,0.097751565,0.0032209337,-0.11579156,-0.013148153,0.45593855,-0.20996287,-0.057728425,0.14050506,0.123428814,-0.42111906,-0.3164885,0.16458917,0.23023981,-0.046244793,0.01803395,-0.42872962,0.034155287,0.15369473,0.027917597,-0.1537633,-0.16998993,-0.27263802,-0.3851515,-0.04191368,0.16908719,0.23357365,0.17860815,-0.5265425,-0.17386343,0.26637292,-0.041006144,0.19071035,-0.001947099,0.1953254,0.3095738,-0.17415786,-0.26262364,-0.2322572,-0.12221692,-0.21389572,-0.41450566,-0.41822815,0.21048862,0.31189454,0.025150148,-0.24256963,0.32236776,-0.009299403,-0.021077923,0.12146125,-0.06220587,-0.218999,-0.32913223,-0.18704261,0.13891451,0.39223418,0.07157147,-0.272523,0.048677865,-0.0016733209,0.02329311,0.06787686,0.040637393,-0.39520663,0.03906087,-0.1625782,0.20025414,-0.12403005,-0.055603158,-0.14585865,0.04093838,0.39196882,0.09046501,-0.12967929,-0.21171975,0.017993229,0.33403233,-0.2497858,-0.016013134,-0.10554402,0.04033647,-0.1294458,0.36039802,-0.06684581,0.2767759,-0.33652607,-0.19615516,0.0012154094,-0.31652284,0.33425477,0.07677207,0.029502299,0.36520362,-0.060579237,0.27904606,-0.14005262,-0.24426416,0.1263946,-0.17005135,-0.032995973,0.05494438,-0.01874458,-0.07177675,-0.09975281,-0.14414364,-0.23581904,0.29644158,-0.002567894,0.07214499,0.0599643,-0.3043783,0.10552339,0.099445,0.15409082,0.2035672,0.09949637,0.15092373,0.22382368,-0.091975294,0.46381173,-0.20782594,0.2627558,0.2652094,0.07882315,-0.04959338,0.052895024,0.10078587,0.21624362,0.5108262,-0.3723656,-0.3130294,0.15455492,1.1733795,0.023073623,-0.17623754,-0.0316652,0.028980404,-0.18158692,-0.19482744,-0.053662583,-0.2335863,-0.30565003,-0.07671052,0.12698668,0.27630293,0.026239555,0.04896287,-0.29859397,-0.10808074,0.2645989,0.042493157,-0.14130943,-0.041324545,-0.34613106,0.23634206,-0.3245767,0.052859478,0.07553511,0.04924341,0.08039846,0.27654076,0.4250848,0.059368197,-0.13467874,-0.039155994,-0.14933108,-0.042086832,-0.29629883,-0.31857947,0.008493562,0.13511276,-0.115283825,0.29117006,-0.56841594,-0.13764255,0.0035388598,0.15578368,0.043034818,-0.1585906,-0.14558029,-0.07428298,0.25732237,-0.050377067,0.08356491,-0.11650222,-0.12470795,0.19959956,0.04349318,-0.30014214,-0.42162278,0.1900567,0.33848208,-0.124177575,0.14736088,0.20672736,-0.15219349,-0.166462,0.011335188,0.27529785,-0.11484813,-0.08327938,-0.07741487,0.14782882,-0.02404352,0.013340669,-0.2873281,0.1596481,-0.005079631,0.47341874,0.029191056,0.020054357,0.37068295,0.15989487,-0.1188382,0.25569338,0.21106973,0.23248696,-0.07304425,0.09215116,-0.0052805343,-0.010245739,-0.20471814,0.11514958,-0.2786962,0.07088804,0.19798781,0.0039347755,-0.03523307,0.1042151,-0.2536504,-0.07540785,-0.24147852,0.084146366,0.134564,0.5989538,-0.15566927,-0.06675554,0.15863885,-0.17527874,0.0725382,0.300025,-0.02850202,-0.09250108,0.26002222,-0.055300787,-0.17050077,-0.012360735,0.23037428,-0.12619774,0.16521232,0.2699014,0.08480278,0.109442435,-0.14093326,0.30698916,0.06841299,0.102277726,0.06368932,-0.08181456,0.15977268,-0.23837978,-0.05369048,0.1699553,-0.02863836,0.066154405,0.20241603,-0.24753788,-0.12253114,0.41926166,0.29658955,0.11734967,0.18682522,0.20270622,0.19297,-0.0012027803,-0.04529224,0.13515206,0.529656,0.068577245,0.08696482,0.07168047,0.08659103,-0.089189224,0.08827444,-0.4848575,-0.42628685,0.19729172,0.24804452,0.038945995,0.24145855,0.29585952,0.205344,-0.0025093835,0.05261438,-0.0420564,-0.12230131,0.12978724,0.30423924,-0.056840703,0.24954264,-0.11515876,0.13901702,-0.100033864,-0.20225799,-0.122095965,-0.019684458,-0.009768156,-0.330719,0.1095938,0.073625885,-0.1361464,-0.31260106,0.13604021,-0.1402555,0.28440216,0.13381308,0.07063281,0.0969135,-0.048673224,-0.23054212,-0.092806086,-0.03298862,-0.095196374,-0.16624185,0.03122844,-0.25819534,0.47621036,-0.005935835,0.040476356,-0.14060445,0.08016504,0.0034730735,-0.33601937,0.0049073696,-0.054660916,0.1587489,-0.18533933,0.025547616,0.093054734,0.028690146,0.032955278,0.22400188,0.07175164,-0.25997022,0.24035913,-0.09342898,0.20391658,-0.1602719,-0.24754234,0.5571575,-0.14025836,-0.15465419,-0.017184138,-0.188917,-0.11654534,0.024131913,-0.114691876,0.112474225,0.16989714,-0.280494,0.12342056,0.048825487,0.16709465,0.13858429,-0.36439607,-0.12552269,-0.09174544,-0.37107646,0.11930012,-0.17050204,0.15929773,0.14208946,0.018015748,-0.020412466,-0.056089424,-0.049499124,0.08533712,-0.149641,0.008160965,-0.4430175,-0.28862435,-0.25205272,-0.064726874,0.15721297,0.076961644,-0.038425896,-0.13273834,-0.034306224,-0.27112702,-0.11437296,0.36224756,-0.35939378,0.17110159,0.2262871,-0.1348675,-0.050235827,0.054896772,-0.051967815,0.39392054,-0.14990564,0.04996736,-0.2522679,-0.017778875,-0.24724828,-0.07036769,-0.18545903,0.030510964,-0.46536574,-0.11797081,-0.1479413,0.154535,-0.20410524,0.064228505,-0.27181628,-0.22178203,0.08575606,-6.1111736,0.15128563,0.22792442,-0.33252496,0.0024203826,0.023936132,-0.29782766,-0.04310167,0.065921955,-0.18570241,0.2197811,0.067480855,0.016101407,-0.019099172,0.26305166,-0.20608728,-0.07165492,-0.2965044,0.0018148524,0.1586006,-0.2092424,0.011316209,-0.022648517,-0.23639603,-0.18789549,0.19435303,0.12108404,0.06265221,0.38830912,0.48369482,0.24938297,-0.26275465,0.38027713,0.39830315,-0.05592301,-0.08535341,0.4567671,-0.07265357,0.2840717,0.021257414,0.19128112,-0.35638276,-0.22510438,-0.14911838,0.18640676,-0.19248724,-0.15896332,-0.5481075,0.14205681,-0.1381828,-0.40469208,-0.16727555,-0.32206106,0.25188386,-0.2607306,0.05965376,-0.33972937,-0.16326994,-0.06913503,0.11971241,0.23711145,-0.08670346,-0.4770251,-0.0222229,-0.027442962,-0.2363556,-0.16400428,-0.084394254,0.022156214,-0.36931866,0.2783638,-0.23914428,0.2278855,0.09559929,-0.33486736,-0.4440245,-0.09382856,0.10747159,0.0231219,0.09901625,0.019042023,0.21743754,-0.18846731,-0.21951374,0.40499327,0.028950024,0.25540793,-0.23511891,-0.11502881,0.29700384,0.043864284,0.0009957583,0.0025526118,-0.07019192,-0.21887113,-0.24071227,-0.17225143,0.06888595,-0.018540865,0.012072637,-0.12725423,0.22598167,-0.15288317,-0.02765475,-0.077800535,-0.39904103,0.075446784,-0.099829726,-0.23467512,0.26021907,0.35366827,-0.1674242,0.080965824,-0.25719306,-0.10905954,-0.023534652,-0.034648865,-0.19513074,0.10578235,0.040297493
ALA_6_A,-0.14385852,0.31623158,0.12329161,-0.0777871,0.105139755,-0.22547455,0.5022958,-0.44743168,-0.3492337,0.1456488,-0.02300818,0.29406157,0.28243083,0.2402447,-0.08209252,0.2721446,0.4103341,0.081687026,0.05811166,0.073049664,-0.11538918,-0.21591678,-0.1927658,0.021569999,0.105940074,0.21703945,0.10196638,-0.2852613,0.23135777,0.022065299,-0.1335352,-0.18979038,0.6018277,0.40850177,0.028179303,0.5723284,0.10736923,0.35895965,0.44879735,-0.25506547,-0.38186303,0.09460131,-0.057897557,0.05958305,-0.02390064,0.013839521,-0.13785528,-0.074314356,-0.021645164,0.033997018,-0.15556575,0.010678889,-0.023370812,0.11557423,0.16213943,0.14510468,-0.11693474,-0.07863399,0.50245625,-0.103641234,-0.2348366,0.11765223,-0.2632975,-0.013977878,0.12746009,0.0364337,0.08627116,-0.055087745,0.2122388,-0.14017607,0.24194607,0.063575126,0.0036343725,-0.34158915,-0.02505113,-0.022040684,-0.31997013,0.10554702,-0.14644541,-0.14503762,-0.0064515383,-0.015220822,-0.12802368,-0.008188952,-0.27730665,0.023882762,-0.19124402,-0.0535791,0.21133189,-0.17799188,0.39240092,0.2599687,0.2889465,0.046311364,-0.072274834,0.14139318,-0.114680186,-0.043811057,0.7374199,-0.07121478,-0.08470515,0.1759554,0.22205131,-0.15849991,-0.12546732,0.221594,-0.29251108,-0.16844046,0.013844459,0.29317886,-0.19325839,0.09605536,-0.37406096,-0.14529206,0.09377455,0.020823784,-0.08224702,-0.33406582,-0.109347,0.46696612,-0.15242423,-0.1292325,0.23335676,-0.00850598,-0.2864254,0.20729901,0.10006231,-0.06611455,0.28390217,-0.04877209,-0.18041506,0.17163135,0.036151104,-0.27262014,0.08796983,0.461566,-0.060243435,0.013293298,0.40808603,0.2017295,0.12475313,-0.087094724,-0.1351678,0.23054858,0.13172817,-0.16991712,0.24189822,-0.06271833,0.0950398,0.1851941,0.35183915,-0.24770321,0.11034872,-0.001845947,-0.23493819,-0.37094557,0.09871974,0.2904426,0.03926482,-0.0102384435,0.12503329,-0.16637325,0.15110484,-0.42113996,-0.059039123,-0.15803565,0.2924005,0.27232704,-0.062453795,0.1315897,-0.07859526,0.28271365,0.1593471,-0.3960096,0.19683608,-0.12402752,0.09687063,-0.21114463,0.0101716425,0.33419892,0.119773164,-0.329715,0.15754189,-0.3624613,-0.17173153,-0.0007885311,0.010764392,-0.2782959,0.09174659,0.1855331,-0.28734848,-0.07655342,0.05654548,0.1323547,-0.5093645,-0.08017973,-0.19583538,-0.12830457,-0.07970316,-0.028713053,0.08579472,0.0962666,-0.34953618,-0.19586715,-0.08557121,-0.11604775,-0.056334272,-0.16301903,-0.13619067,-0.34697187,0.16671653,0.17998046,-0.18549144,-0.5775303,-0.15800753,0.19478849,0.1926078,-0.29178074,0.028851865,0.23297895,-0.13454135,-0.15974745,0.22928901,0.13122544,0.041115835,-0.11605991,0.00023918705,0.25986227,0.33215383,-0.07176782,0.32465696,0.1215119,-0.060611706,-0.235875,-0.09603927,-0.07932623,0.29229805,0.047251705,-0.11194132,0.02171142,-0.02339942,-0.088626936,0.097438626,0.22080573,-0.0017714342,0.014326932,-0.17417984,0.1877389,0.17999966,0.13445246,-0.2961786,0.17541528,0.015028414,-0.004162094,-0.13819236,-0.38814422,-0.059569582,-0.26861644,0.049315367,-0.13477117,-0.015594472,-0.42977422,0.004835012,0.2139188,-0.37852398,-0.06770391,0.21043822,-0.048220173,0.067121334,0.09142418,-0.024056528,-0.28517458,-0.1176308,0.23239073,-0.17040697,-0.2888081,-0.32286072,-0.123168126,-0.23296088,-0.09876523,0.17286624,0.0009951418,0.36103654,0.29928678,-0.0045942804,-0.14326052,-0.14066705,0.13590008,0.13061403,0.07210719,0.16873546,-0.019238591,0.12793303,-0.37564307,-0.07931966,-0.013415085,0.0848971,0.11530254,-0.0006791406,0.22353056,0.29843396,0.1888214,-0.20428592,0.039062925,0.61086625,0.22568291,0.29787612,0.055194627,0.48856938,-0.14199577,0.0293803,-0.18184184,0.03967908,0.44777662,-0.15419152,-0.07323882,0.13940549,-0.0075213844,-0.015097724,0.1025436,0.13238895,0.18899508,0.07717071,-0.39585784,-0.0938901,-0.2701394,0.08350389,0.08600893,0.09969251,0.2705651,-0.23940714,-0.014756657,0.14845522,-0.30054897,-0.11489266,-0.06752641,0.14370456,0.11885694,0.023181815,-0.15950742,0.14853579,-0.055302408,-0.1633189,0.16365784,-0.06298379,-0.21062239,-0.07734224,0.0777582,0.09393376,-0.013478169,-0.31005794,-0.105795465,0.30201477,0.24745762,0.17431597,-0.08378673,0.09492315,-0.070381545,-0.0795309,-0.36702928,0.18447536,0.50223076,-0.24195606,0.016772985,0.09637631,-0.2564645,-0.0032510571,-0.09580341,0.011739041,-0.11283072,0.43970066,0.04180144,0.22146863,0.08076877,-0.2973053,-0.11896257,0.3048373,0.5590646,-0.14135014,-0.31837258,0.13826126,0.213815,-0.5078168,-0.22478238,0.4484333,0.10663671,-0.08930944,-0.049275152,0.0029754161,-0.06088896,-0.04869494,-0.08183507,0.314263,0.1539312,-0.023102835,0.07112876,-0.04902143,0.12649587,-0.04639701,-0.005369014,0.028785802,-0.04792483,-0.1349234,0.28062254,-0.25356397,0.0038771392,0.031557005,-0.30657092,0.07255354,0.008837869,0.07805028,0.09646583,-0.3066919,-0.037305333,0.0981552,0.3538376,0.03399714,0.25650954,0.031198155,-0.25035077,-0.081825316,-0.10420872,-0.04014227,-0.1531576,0.12608512,-0.10434688,-0.34898505,0.52047575,0.50227785,0.053077146,0.17230523,-0.30780742,0.050262034,-0.04298692,0.23689987,0.012314131,-0.059112716,0.10792827,-0.28011534,-0.34483683,0.1981384,-0.037858292,-0.16173564,-0.13360338,-0.08664786,-0.37019396,0.23538479,0.07690211,-0.03937499,0.13489896,-0.08737308,-0.05329179,-0.12072975,-0.18129976,-0.06683207,-0.029250972,0.31829497,0.27029285,0.34265447,0.5038315,0.16250814,0.21693891,0.15552056,0.18838604,0.11924663,-0.35448575,-0.023196096,0.1412838,0.2590148,0.20521809,-0.34256768,0.015960297,0.3368898,0.053260185,0.2895619,0.11227023,0.0034882217,0.12513424,-0.18640043,0.23275417,0.03963633,0.23035073,-0.18147461,0.2877318,-0.43255207,-0.08607177,0.2160182,-0.0517271,0.36935037,0.5703538,0.068448685,-0.22181007,0.10843814,-0.0624741,-0.2544072,0.034902297,-0.18255565,-0.25288835,-0.4199656,0.09510323,0.2091885,0.2123597,-0.097051434,0.06698316,-0.08731991,-0.042119525,0.025536055,0.17718226,-0.10236036,0.053230174,0.059474446,-0.15700318,-0.09050803,-0.41117397,0.26769084,-0.4496904,0.5304917,-0.31164765,0.27022454,-0.0016656144,-0.010020977,-0.45183313,0.012844291,0.15093416,-0.40163514,-0.2334384,-0.11435468,0.07144436,0.18763956,-0.28449324,0.23247166,0.34073398,0.03891141,0.14794746,-0.2025788,0.16180247,-0.13618556,-0.07328838,0.046654817,-0.19769001,-0.021395283,-0.008137865,0.38069516,-0.017383756,-0.1245141,0.23018047,0.022507032,-0.14547749,0.3407883,-0.14918122,0.1928398,0.11129044,0.2232502,0.495647,0.06507975,-0.07532315,-0.022318397,-0.24069199,-0.09650464,-0.47947076,0.089082636,-0.1743517,0.16894194,-0.0042539486,-0.11372411,-0.18754058,-0.11321313,0.17215618,0.067223065,0.030833878,-0.25597984,0.38259962,-0.13535286,0.13250574,-0.12890188,0.50079566,0.049169842,-0.01987083,-0.116036355,0.046365444,0.031174025,0.10329386,0.10455534,-0.0024490384,-0.08021201,0.087902196,-0.2838599,0.18227072,0.28473517,0.33069432,-0.18131742,0.19592519,0.06957805,-0.42290184,0.3636462,0.0832342,-0.61132914,0.014935939,0.4217364,0.3885816,0.17181148,0.116707675,-0.3615641,0.15109807,-0.23687214,0.25125134,-0.22547178,-0.31323722,-0.034050144,0.4715161,0.03656077,-0.04406861,-0.023141723,0.040543485,-0.09185058,0.21942292,0.2258973,0.26087523,-0.12705036,0.43009445,-0.5177237,0.31250656,-0.1302299,-0.0054180208,-0.16574264,0.17998323,0.09465348,0.07104785,0.111092135,0.09775844,0.058700245,0.26792735,0.50370765,0.0049649198,0.23204334,-0.27003062,-0.10167904,-0.051439673,0.21606189,0.16783069,0.112926014,0.16844758,0.18692388,0.1580017,-0.35884956,-0.40590698,0.21535453,-0.096587755,0.07552255,-0.07919565,0.08899338,0.3914347,0.38082203,-0.21107869,0.13830875,-0.16459504,-0.018845957,0.25794807,0.07918213,0.22293544,-0.07613035,0.18508781,-0.11560687,0.12105125,0.013291571,-0.031950276,-0.05545763,-0.017551977,0.054264497,0.07356773,-0.054705143,0.06700685,0.0049101342,0.032204263,0.2006415,-0.122349344,0.14440824,-0.092545345,0.1153894,0.1067417,-0.08973494,0.17246465,0.17695329,0.18803686,0.3242425,0.21365437,0.21370055,-0.08939737,-0.1042847,0.041032195,0.4916771,-0.10645035,0.014201303,0.076413006,-0.29100126,0.20022938,0.14903596,0.064394735,-0.060805395,0.06715423,0.35718456,0.34182984,0.04625374,-0.10055847,0.1982181,0.098549746,0.07195072,-0.30150715,0.2713759,-0.25508595,0.12186426,-0.22948055,-0.341104,0.04721231,-0.44245178,-0.03668401,0.39825022,0.10928609,0.31458804,-0.2971132,-0.15358177,-0.12405722,0.42154643,0.0020194482,-0.040154092,-0.15930198,-0.016449803,-0.012855129,0.48835778,0.18677577,0.12892202,0.19465184,-0.0054780683,-0.1578112,-0.20549142,-0.16085123,0.51643646,-0.23606585,0.0012289651,-0.2071663,-0.051217403,0.17637926,-0.16830453,-0.39082426,-0.2902224,0.31968576,0.025627878,-0.26184902,0.33477122,-0.28030458,-0.22698951,0.18845232,-0.3226392,0.2842469,-0.2846566,0.15781602,0.06668911,-0.011557196,0.010602977,-0.4791791,0.15903652,0.08584333,0.07922668,0.13809207,-0.20030318,-0.3145119,-0.047683224,-0.40638295,-0.2787892,-0.0679877,0.46072087,0.15643975,0.0016493205,0.20279516,-0.04158544,0.21741888,0.51108116,-0.07451589,0.22982578,-0.024162779,-0.15868807,-0.12554193,-0.24256112,-0.076975845,-0.24891676,0.2122628,0.2613114,0.14791115,0.2744744,0.073528215,0.23959869,0.13048765,-0.1380045,-0.15098415,-0.27263823,-0.17528117,-0.29307792,0.06733692,0.07385926,0.18323022,-0.15174621,-0.03508043,-0.060767863,0.054928828,-0.1767793,-0.10705358,0.05079861,0.2233261,0.050367843,-0.03214321,-0.008046537,-0.091549784,-0.06886385,-0.31849635,0.07516468,0.21326981,-0.22107029,-0.25020114,-0.26511103,0.08569986,0.32485595,-0.189985,-0.29579267,0.020848703,-0.08176825,-0.06878375,0.120905586,0.2577492,0.18501556,-0.112284765,-0.14840068,0.05030659,-0.06919236,0.22544235,-0.08950383,0.10373706,0.38596022,-0.1682048,0.1339271,0.26149434,-0.33666152,0.01649365,0.12989278,0.27990025,-0.19667548,-0.12103989,-0.09947925,-0.37029898,-0.09623448,-0.39572456,0.4022975,0.0072936323,-0.020306833,-0.153012,-0.019983057,0.12065658,0.4277695,0.062475998,-0.19474904,0.31997102,-0.091249704,-0.04333764,0.19108865,0.08225787,-0.5142388,0.22722894,0.10389657,-0.27531883,-0.19614115,-0.42394546,0.34705776,-0.0764315,0.48472443,-0.19369659,0.3059752,-0.14231224,0.5102183,-0.22197534,0.15364383,0.15060757,0.16499707,0.36200577,-0.2647613,-0.0942914,0.07383365,0.010819843,-0.011347201,0.36852586,0.0022358175,-0.08807031,0.25198787,-0.15955687,-0.18389633,-0.2163842,0.13996468,-0.07583415,-0.53875184,-0.33903953,-0.22378671,0.22249652,-0.11737415,-0.005400136,0.16313869,-0.0878439,0.23909144,-0.19436264,-0.2284076,0.19753827,0.3872948,-0.37328875,-0.07415339,-0.36074495,-0.009097504,-0.09700489,0.028935106,-0.22311267,-0.031624336,-0.1724643,-0.009791722,0.0667666,0.5517275,-0.22576569,-0.23859915,0.09464058,-0.41037452,0.13334213,-0.022707196,-0.2761716,-0.14036722,0.33949196,0.52899903,-0.034541834,-0.16577363,-0.41531703,-0.089634955,-0.11926052,0.016675957,0.22711684,-0.1559471,0.043869,-0.2201204,-0.112497024,0.10189933,-0.17827208,-0.19023192,-0.15043002,-0.049496096,-0.015439007,-0.021454096,-0.38700706,0.08454929,0.16703193,0.65095174,-0.1265584,0.1609628,0.11042195,0.16958372,0.0010526419,-0.28544444,0.19797692,0.18230234,-0.13212568,-0.15250824,-0.1991895,0.056439888,-0.28031352,0.30835912,-0.23476131,-0.17371263,0.36467078,-0.033446636,-0.0656734,0.36374477,0.06579069,0.16187245,0.09617005,0.0364568,0.36132503,0.2449381,-0.052817877,0.077577986,-0.016660424,0.13553904,0.10428632,0.31784296,0.20134628,-0.20551303,-0.01551704,0.1054262,0.021534877,-0.18902323,0.232162,-0.15121543,-0.14328071,-0.24050087,-0.1900529,-0.06244346,-0.3776898,-0.10223834,-0.055662304,-0.31649932,0.041007306,-0.26411834,0.2985707,-0.24522163,-0.29191253,0.018656965,-0.022749178,-0.16215502,-0.1426294,0.22611979,-0.040465422,0.3741251,0.015863929,0.10890432,0.04664363,0.019426726,-0.0073634563,0.071031965,-0.25171626,-0.022729155,0.6500888,0.23906614,0.09573003,-0.35443234,-0.041471545,-0.1992869,0.10015968,-0.24889502,-0.14837351,0.07967743,-0.012493085,0.11226049,-0.07490231,0.0026813848,0.1817649,0.04098932,-0.21890238,0.09348138,0.2732202,-0.0103097875,0.4045773,-0.09385423,-0.19496393,0.247908,-0.0499247,-0.03526763,-0.1491903,0.0455697,0.22662516,-0.14305638,-0.3605624,0.08240559,-0.02529191,-0.25242972,-0.14644602,-0.2029699,0.18647912,0.063426554,-0.16080055,0.10534263,0.25457075,0.109224916,-0.35419118,0.046546407,-0.2408532,-0.29661334,0.13219604,0.20380878,-0.004516436,0.105328225,-0.16113411,-0.23128276,-0.1548411,-0.1169299,0.32487732,0.036406085,0.08468967,-0.11552991,0.18078013,-0.014094623,-0.26293024,-0.29283106,-0.40465656,0.095509335,0.36421052,-0.3314874,0.26587212,0.18932395,-0.31901565,-0.032264754,0.18989879,0.14635764,0.14281645,0.3598015,0.08455555,-0.006593567,0.15471807,-0.06951674,-0.17779316,-0.051135138,-0.04001829,0.120250344,-0.3108614,-0.37785238,-0.24028121,-0.09097158,-0.28607026,-0.53985626,-0.044202413,-0.111453645,-0.15542606,-0.14175503,-0.26031825,-0.103836946,-0.04675177,-0.3120145,0.16180101,-0.21893224,0.0037624268,0.13268173,-0.110964015,-0.07685783,-0.42283025,0.02482806,-0.02164104,-0.2440755,0.12473493,0.2514333,-0.18293525,-0.2087192,-0.15851206,-0.28339073,0.35499832,-0.14902982,-0.4427864,-0.025646973,-0.019374724,-0.084206805,0.0043818853,0.07373816,-0.13336198,0.039310742,0.095584445,-0.3664577,-0.3074413,-0.10611023,-0.32579163,0.16987355,-0.15827103,0.104305394,-0.2119852,0.02694332,0.015535743,0.11845764,-0.037075642,-0.26279336,0.12607156,0.23827869,0.22214776,-5.4773264,-0.7045652,0.26373494,-0.11278972,0.025341434,-0.20541717,-0.25781778,-0.25565487,0.1743527,-0.15382165,0.2005794,-0.27514678,-0.039036613,-0.15126374,0.112983614,-0.14120494,0.07809763,-0.4948516,-0.0029496844,-0.27935982,-0.15467812,0.28020814,-0.0061921575,0.1590414,-0.12886657,0.13028406,-0.25142515,0.53626114,0.24016613,0.08865126,0.014874809,-0.33110198,0.23548567,0.31405702,0.30537343,-0.2592721,0.1769829,-0.035645287,0.10644036,-0.092912726,0.2077219,-0.27668688,-0.16572766,0.18837397,-0.14322759,-0.2646624,0.14196734,-0.3133933,0.15660246,-0.062386032,0.099263735,-0.3095627,0.0022472343,0.09876444,-0.27680886,-0.40739468,-0.14013918,-0.013940433,0.24741319,0.12554495,0.2929685,-0.20523739,0.022012915,-0.064764746,-0.04306271,-0.14098495,-0.101435564,-0.07820086,0.109405145,-0.51124775,-0.25084066,-0.03639283,0.22587925,-0.11408741,-0.12860836,0.037316844,0.14106736,0.2178667,0.1354096,-0.006141915,-0.12453973,-0.21813901,0.04745245,0.074956164,0.38131568,0.029139556,-0.1496334,0.08818406,0.31801027,0.28510138,0.22592363,0.085008584,-0.12336036,0.06106348,0.09305047,-0.31585094,-0.019571235,-0.21482499,0.27910277,0.3052399,-0.14729463,0.109022446,0.2745245,0.056996703,0.26539263,-0.40573895,0.14355434,-0.14384206,-0.08224375,0.44491768,0.047013912,0.14249949,-0.10397605,0.11788561,0.034926895,0.10984768,-0.0023965493,-0.004803039,-0.44327492,0.18692096
