residue_id,0,1,2,3,4,5,6,7,8,9,10,11,12,13,14,15,16,17,18,19,20,21,22,23,24,25,26,27,28,29,30,31,32,33,34,35,36,37,38,39,40,41,42,43,44,45,46,47,48,49,50,51,52,53,54,55,56,57,58,59,60,61,62,63,64,65,66,67,68,69,70,71,72,73,74,75,76,77,78,79,80,81,82,83,84,85,86,87,88,89,90,91,92,93,94,95,96,97,98,99,100,101,102,103,104,105,106,107,108,109,110,111,112,113,114,115,116,117,118,119,120,121,122,123,124,125,126,127,128,129,130,131,132,133,134,135,136,137,138,139,140,141,142,143,144,145,146,147,148,149,150,151,152,153,154,155,156,157,158,159,160,161,162,163,164,165,166,167,168,169,170,171,172,173,174,175,176,177,178,179,180,181,182,183,184,185,186,187,188,189,190,191,192,193,194,195,196,197,198,199,200,201,202,203,204,205,206,207,208,209,210,211,212,213,214,215,216,217,218,219,220,221,222,223,224,225,226,227,228,229,230,231,232,233,234,235,236,237,238,239,240,241,242,243,244,245,246,247,248,249,250,251,252,253,254,255,256,257,258,259,260,261,262,263,264,265,266,267,268,269,270,271,272,273,274,275,276,277,278,279,280,281,282,283,284,285,286,287,288,289,290,291,292,293,294,295,296,297,298,299,300,301,302,303,304,305,306,307,308,309,310,311,312,313,314,315,316,317,318,319,320,321,322,323,324,325,326,327,328,329,330,331,332,333,334,335,336,337,338,339,340,341,342,343,344,345,346,347,348,349,350,351,352,353,354,355,356,357,358,359,360,361,362,363,364,365,366,367,368,369,370,371,372,373,374,375,376,377,378,379,380,381,382,383,384,385,386,387,388,389,390,391,392,393,394,395,396,397,398,399,400,401,402,403,404,405,406,407,408,409,410,411,412,413,414,415,416,417,418,419,420,421,422,423,424,425,426,427,428,429,430,431,432,433,434,435,436,437,438,439,440,441,442,443,444,445,446,447,448,449,450,451,452,453,454,455,456,457,458,459,460,461,462,463,464,465,466,467,468,469,470,471,472,473,474,475,476,477,478,479,480,481,482,483,484,485,486,487,488,489,490,491,492,493,494,495,496,497,498,499,500,501,502,503,504,505,506,507,508,509,510,511,512,513,514,515,516,517,518,519,520,521,522,523,524,525,526,527,528,529,530,531,532,533,534,535,536,537,538,539,540,541,542,543,544,545,546,547,548,549,550,551,552,553,554,555,556,557,558,559,560,561,562,563,564,565,566,567,568,569,570,571,572,573,574,575,576,577,578,579,580,581,582,583,584,585,586,587,588,589,590,591,592,593,594,595,596,597,598,599,600,601,602,603,604,605,606,607,608,609,610,611,612,613,614,615,616,617,618,619,620,621,622,623,624,625,626,627,628,629,630,631,632,633,634,635,636,637,638,639,640,641,642,643,644,645,646,647,648,649,650,651,652,653,654,655,656,657,658,659,660,661,662,663,664,665,666,667,668,669,670,671,672,673,674,675,676,677,678,679,680,681,682,683,684,685,686,687,688,689,690,691,692,693,694,695,696,697,698,699,700,701,702,703,704,705,706,707,708,709,710,711,712,713,714,715,716,717,718,719,720,721,722,723,724,725,726,727,728,729,730,731,732,733,734,735,736,737,738,739,740,741,742,743,744,745,746,747,748,749,750,751,752,753,754,755,756,757,758,759,760,761,762,763,764,765,766,767,768,769,770,771,772,773,774,775,776,777,778,779,780,781,782,783,784,785,786,787,788,789,790,791,792,793,794,795,796,797,798,799,800,801,802,803,804,805,806,807,808,809,810,811,812,813,814,815,816,817,818,819,820,821,822,823,824,825,826,827,828,829,830,831,832,833,834,835,836,837,838,839,840,841,842,843,844,845,846,847,848,849,850,851,852,853,854,855,856,857,858,859,860,861,862,863,864,865,866,867,868,869,870,871,872,873,874,875,876,877,878,879,880,881,882,883,884,885,886,887,888,889,890,891,892,893,894,895,896,897,898,899,900,901,902,903,904,905,906,907,908,909,910,911,912,913,914,915,916,917,918,919,920,921,922,923,924,925,926,927,928,929,930,931,932,933,934,935,936,937,938,939,940,941,942,943,944,945,946,947,948,949,950,951,952,953,954,955,956,957,958,959,960,961,962,963,964,965,966,967,968,969,970,971,972,973,974,975,976,977,978,979,980,981,982,983,984,985,986,987,988,989,990,991,992,993,994,995,996,997,998,999,1000,1001,1002,1003,1004,1005,1006,1007,1008,1009,1010,1011,1012,1013,1014,1015,1016,1017,1018,1019,1020,1021,1022,1023,1024,1025,1026,1027,1028,1029,1030,1031,1032,1033,1034,1035,1036,1037,1038,1039,1040,1041,1042,1043,1044,1045,1046,1047,1048,1049,1050,1051,1052,1053,1054,1055,1056,1057,1058,1059,1060,1061,1062,1063,1064,1065,1066,1067,1068,1069,1070,1071,1072,1073,1074,1075,1076,1077,1078,1079,1080,1081,1082,1083,1084,1085,1086,1087,1088,1089,1090,1091,1092,1093,1094,1095,1096,1097,1098,1099,1100,1101,1102,1103,1104,1105,1106,1107,1108,1109,1110,1111,1112,1113,1114,1115,1116,1117,1118,1119,1120,1121,1122,1123,1124,1125,1126,1127,1128,1129,1130,1131,1132,1133,1134,1135,1136,1137,1138,1139,1140,1141,1142,1143,1144,1145,1146,1147,1148,1149,1150,1151,1152,1153,1154,1155,1156,1157,1158,1159,1160,1161,1162,1163,1164,1165,1166,1167,1168,1169,1170,1171,1172,1173,1174,1175,1176,1177,1178,1179,1180,1181,1182,1183,1184,1185,1186,1187,1188,1189,1190,1191,1192,1193,1194,1195,1196,1197,1198,1199,1200,1201,1202,1203,1204,1205,1206,1207,1208,1209,1210,1211,1212,1213,1214,1215,1216,1217,1218,1219,1220,1221,1222,1223,1224,1225,1226,1227,1228,1229,1230,1231,1232,1233,1234,1235,1236,1237,1238,1239,1240,1241,1242,1243,1244,1245,1246,1247,1248,1249,1250,1251,1252,1253,1254,1255,1256,1257,1258,1259,1260,1261,1262,1263,1264,1265,1266,1267,1268,1269,1270,1271,1272,1273,1274,1275,1276,1277,1278,1279
SER_1_A,0.2507667,0.037746012,-0.045219146,0.09082298,-0.18304244,-0.14205708,0.03135907,0.18450916,-0.013394702,0.06730592,-0.2277353,0.20452836,0.13634354,0.1124465,0.041158076,0.17234078,-0.19442688,-0.25175452,0.05675266,-0.12646776,0.20692365,0.06482882,-0.038786717,0.27648652,-0.002728333,-0.16915931,0.02310179,0.0995405,-0.098262034,0.15927443,-0.075277776,0.006877284,0.07728316,-0.28250343,-0.14154004,0.019692402,-0.11402461,0.07604739,0.14414896,-0.14558658,0.37158158,-0.041346833,0.02920086,-0.033978302,-0.07391582,0.025250494,-0.18544117,-0.041180372,-0.1908077,-0.014247659,-0.248238,-0.14486392,-0.13126758,-0.19767034,0.033774365,0.15703627,0.22579409,0.08776384,0.23285475,-0.08545244,-0.13785899,-0.07135779,0.04267474,-0.36499706,0.12551537,0.14673622,0.30588666,0.30306908,-0.07684537,0.10835096,0.14739354,-0.3265772,-0.21070828,0.03993742,0.12228411,-0.021540817,0.078070246,0.01733227,0.029822104,-0.03247797,0.082334705,-0.18695565,0.024887564,-0.12650728,0.027185341,-0.12697178,-0.31090066,0.20495898,0.10813534,0.05713298,0.07907886,-0.052920647,-0.07751252,0.12838233,0.018483138,-0.30339545,-0.24346592,0.21300007,0.094736375,-0.15732098,0.08558434,0.082289174,-0.024954908,0.15616319,-0.19605964,-0.042512298,-0.061157476,-0.038776852,-0.20571706,-0.051496256,-0.14518507,-0.010940134,0.40606862,-0.1585004,-0.0723524,0.44772232,-0.4262761,0.15556416,0.2075189,-0.032222204,0.03857251,-0.22551054,-0.08562781,0.033239912,0.26871976,0.04141157,0.071982495,0.082562104,0.22039348,-0.14502662,0.124391235,-0.062447347,-0.07073023,0.021339722,-0.0581537,0.13378115,-0.17228948,-0.021415481,-0.1463884,-0.24483585,-0.008906327,0.21137138,0.14726564,-0.122258626,0.080455504,0.18532732,-0.12580399,0.2667964,-0.04612734,0.08335939,0.1551403,-0.31343666,0.052224327,-0.2643661,0.27375898,-0.26329187,0.17242917,0.14382409,0.12470508,-0.01236111,-0.12518735,-0.17507891,0.018953528,0.052156404,-0.3351307,-0.0760933,-0.07268789,0.028604597,0.13238782,0.09466174,-0.28225687,0.1429111,0.308606,0.18036738,-0.1226188,-0.037443817,0.08325192,0.040744804,0.33796075,-0.077297494,-0.018475236,0.09319586,0.22412492,0.014565855,-0.0057495935,0.21377902,0.06324191,-0.19969794,0.013136926,0.3414177,-0.06981339,-0.2473652,-0.22411661,0.080563925,0.3767617,-0.10490175,0.20223491,0.05293993,0.14939636,-0.20717706,0.20436631,-0.101556554,-0.41348025,0.051916353,0.30333102,-0.0318771,0.17720887,0.13222446,-0.43529993,-0.02291692,-0.09633994,0.09886894,-0.2798887,0.064990625,0.043074574,-0.15080637,-0.0299521,-0.04484034,-0.05868781,0.030579964,-0.013797887,0.08309478,0.63256156,-0.00906332,0.11861848,-0.026465291,0.1691165,-0.12397999,-0.3904882,0.14201088,0.31190133,0.17275809,-0.10353526,0.2473348,-4.7159534,0.4878316,-0.1507132,-0.01695807,-0.10339116,-0.012806346,0.01797077,0.13886052,-0.2707513,-0.29918724,-0.010037358,0.106105916,0.01643841,0.080853246,0.077697836,0.07002313,0.08827913,0.2344484,-0.046486333,0.19366884,0.07339367,-0.046660367,-0.046098713,0.23780133,-0.34159476,-0.11204031,0.2448386,-0.0075201406,0.09587991,0.21128784,0.15748794,0.08108088,-0.14361738,-0.18853316,-0.050759677,-0.013872061,-0.31049943,0.26461917,0.17130753,-0.0075406795,-0.029347355,-0.00434632,0.33905578,-0.058706537,-0.119975835,-0.23582283,0.051302258,-0.2092556,-0.18169841,-0.0065554455,-0.029311353,-0.109082505,-0.16916463,0.19089727,0.020254703,-0.04650095,-0.3435479,0.08891346,-0.21052098,-0.0011944857,0.06285915,0.029744059,0.13179035,0.013012973,-0.24318346,-0.16171846,0.14804699,0.30800578,-0.54978496,0.17024073,-0.032076977,-0.15453713,0.08427697,0.24395551,-0.087439455,0.2300897,0.110790044,-0.025622481,0.12085467,-0.23006831,-0.14976445,0.029759524,-0.05368125,0.020267073,-0.1638071,-0.10832912,-0.168999,-0.098879665,0.0011357846,-0.18702061,-0.0715631,-0.09026203,-0.0034034639,0.25288108,-0.121096514,-0.18999745,0.16553457,0.06560531,-0.13828059,-0.14620075,-0.15360005,-0.15657523,-0.21229637,0.14544472,0.030143691,0.03498717,0.3566477,-0.015682597,-0.0240167,-0.047220398,-0.23004718,0.041876774,-0.12770896,0.035446238,-0.15551065,0.031006664,-0.13951838,-0.03443758,0.077264816,0.16409568,0.2000284,0.09839464,-0.029778624,-0.058886994,0.006288992,-0.01068165,-0.015280657,0.07634149,0.0730809,-0.1385213,-0.01587909,-0.029787514,0.025167154,0.02962616,0.13665044,0.04054092,-0.17515776,0.11873393,-0.14193282,0.008635825,0.08773727,0.418411,-0.053579547,-0.2273761,0.03301497,0.050545476,-0.12955141,-0.16303822,-0.047534592,0.057321902,0.18871741,-0.056042865,-0.29644457,-0.4800916,-0.023446208,-0.04553833,0.06350788,0.049841836,-0.09151426,-0.15825978,-0.3935506,-0.041187022,-0.022728655,-0.060468122,-0.13742472,0.020391013,0.11785085,0.09261765,-0.16132209,-0.03869195,0.23960835,0.0196651,-0.21445791,-0.059511017,-0.3010092,-0.20067197,0.03054586,0.007702619,0.14983383,-0.19863941,-0.18088655,-0.0023105165,0.0072174226,0.034153502,-0.18169466,-0.111659065,0.17151485,0.20787159,0.10176523,0.2541889,0.069517665,0.16492492,-0.046708826,-0.060441077,0.1445223,0.15033484,0.05221888,0.37272397,-0.1342593,-0.031709433,0.33852416,-0.056814607,-0.018373303,-0.12213606,-0.1501767,-0.10448966,-0.07508043,0.0013302976,-0.09793477,-0.19588685,-0.07781233,-0.025250578,-0.14967026,0.024639694,-0.25568646,-0.22936346,-0.2856749,0.2920683,0.08812898,0.067967206,0.06439791,0.072098486,0.16778405,0.002451325,-0.15466875,-0.073866636,-0.17313649,-0.0021688277,0.05107709,-0.29188672,0.17767178,-0.22554852,0.041116368,0.34697214,-0.06439078,0.21113527,-0.012786927,-0.0858454,-0.08808336,-0.073919274,0.08163171,0.10804645,-0.13590953,0.0716542,-0.06211942,-0.061666332,0.049503397,0.010205975,-0.04601447,-0.046242367,0.16255756,-0.14696828,0.3720408,-0.10853253,-0.18001632,-0.104240105,0.14033687,0.2703674,-0.17581135,0.17968468,-0.04003414,0.06915582,-0.28223172,-0.1651627,0.014121593,0.056059245,-0.31533486,0.34272343,-0.09856311,0.124868415,-0.1062068,-0.11144962,-0.061520223,0.17896923,0.19938184,0.0388877,-0.35668308,-0.085370876,-0.01362814,-0.18214922,0.19121084,0.030184794,-0.11262544,-0.17248958,-0.2273068,-0.14720558,0.23138301,-0.24294095,0.2423528,0.052992262,-0.09442944,0.050150078,0.118798845,-0.049653284,-0.020988269,-0.0043037967,0.012935494,-0.037744723,-0.08988757,0.09179155,-0.18310818,0.100397356,0.14693269,0.16879818,0.08018365,0.1265289,-0.04178325,0.0320408,0.25220707,0.20819795,-0.12610447,0.010891183,-0.22592795,-0.058382295,0.20960027,0.0580047,-0.42954674,-0.22007117,-0.26636133,0.1180192,0.23800968,0.026143549,-0.110268176,-0.12544438,0.117230065,0.052548062,0.00825772,0.044575986,0.09527129,0.05076858,0.12941559,0.10598599,0.15604973,0.05381512,0.29593492,0.11020156,0.1402152,0.20963517,-0.059470225,0.11681527,-0.18684411,0.2915425,0.14233106,0.13954489,0.055345125,0.23083852,-0.10075962,-0.097384736,0.0010731545,0.41558188,-0.18765672,0.09552752,-0.04773141,-0.0356031,-0.4201709,0.38590503,0.1427353,-0.20339186,0.14577785,0.08642957,0.13536923,0.10952541,-0.03606844,0.16851129,0.29133543,0.19433111,0.12177372,-0.009125942,0.09172331,0.0913584,-0.40010184,-0.26800224,0.23567463,0.11484931,-0.020734243,0.0428475,-0.10370062,-0.20446886,-0.06927407,0.06471345,0.10706751,0.20278828,0.07649037,0.030467639,0.111104116,-0.12602451,0.053524017,0.19023852,-0.038235053,0.22936282,0.23942414,0.060159102,0.25640887,0.012739779,0.05856148,0.12896363,0.05185844,0.17727208,0.16867468,-0.0744696,0.17741488,0.24806733,0.049681757,-0.025743505,0.055327617,-0.19764753,-0.053819425,0.005058557,0.14204556,0.021585038,0.08070458,-0.23916408,-0.016079256,0.017591527,-0.20181225,0.03555402,-0.029067898,0.12045408,-0.0317752,-0.098555654,-0.22541401,0.000665358,-0.22697575,-0.25986287,-0.012888632,-0.31176412,0.49506962,-0.1594361,0.19147569,-0.0923049,0.311761,-0.08426349,0.17576784,0.37555745,-0.03891127,0.33953813,-0.02150016,-0.04677605,0.06987897,0.1096502,0.32556638,-0.20173417,-0.20819211,0.26635453,0.08072798,-0.113321215,0.09180519,0.12327222,0.049510226,0.13739581,0.19603796,-0.16428636,-0.044126026,0.055487767,0.0462053,-0.13771823,-0.22269739,0.21064775,0.060433652,0.08902809,0.12993166,0.23266956,0.037609696,-0.075779974,-0.058009535,-0.0066232667,-0.042020667,-0.085095264,-0.020687161,-0.07068856,0.22876884,-0.1352613,-0.28309914,0.017411046,0.039244443,-0.02799321,-0.032779478,-0.20315813,0.111187756,0.12649955,-0.082800224,0.2950397,0.079879686,0.25689626,0.11801512,0.07171323,0.07361247,0.012408852,0.2814674,-0.028710306,0.045084804,0.016667174,0.20989482,0.004284841,0.047070533,0.033151817,0.090496406,0.012626359,0.2387397,0.09291998,-0.11726742,0.16543843,0.72081393,0.29249895,-0.011452634,-0.057824057,0.20523207,0.015812824,-0.108491585,-0.29310766,-0.267769,0.086230874,0.18479125,0.057301354,0.094595626,-0.27859947,-0.054015055,-0.116481915,0.25191078,-0.012232927,-0.13941014,0.055217672,-0.055265103,0.135688,0.12097776,0.05823631,-0.1935003,0.046697173,-0.063084185,0.11102307,0.13573745,0.26501042,-0.07255294,0.17531835,-0.0803283,-0.02403469,0.17310691,-0.039239395,0.035071388,-0.33055058,-0.053908993,0.21683946,-0.100785784,-0.4768677,-0.28250226,0.11539034,-0.1437767,0.17418234,-0.020361235,-0.27535507,-0.12377095,-0.061296634,-0.0040370724,-0.016384333,0.022454957,-0.10033004,0.023647074,-0.11254824,-0.10095437,0.024766117,-0.06368376,-0.21478131,0.2156058,-0.18542701,-0.081544496,-0.017520905,0.204563,0.11610763,0.10200377,0.03303994,-0.22948349,0.23386773,-0.13127573,-0.0023501625,-0.11996377,0.026885934,0.012304187,-0.021848785,0.06329094,0.024730247,0.023097852,0.22102426,-0.09976926,0.16597298,0.064163685,0.15714929,0.4125682,0.12242061,-0.19025108,-0.23208486,0.054678462,0.13378023,-0.14332676,0.0065741274,0.1731257,-0.0945155,-0.22366665,-0.11221135,-0.17005233,0.054730494,0.08553864,-0.011003457,0.41776496,-0.087078795,0.17155187,-0.12215922,0.037274297,0.13077387,0.18689866,0.25178546,0.1718161,-0.15979412,0.17930126,0.3682957,0.19102365,-0.014969528,-0.09101139,-0.24873675,0.39775798,-0.21874456,-0.099725634,-0.2376321,0.08656553,0.23586084,0.08784737,0.16676655,-0.1032151,-0.10344339,-0.11029451,-0.13449334,0.05940587,-0.00019298037,0.27523565,-0.012854838,0.118389085,-0.08971357,-0.017344091,0.07254237,0.26237687,0.114618234,0.012361015,-0.16988696,0.47976276,-0.037966445,0.1285941,0.013680704,-0.08724323,0.1936386,0.025744457,-0.30907097,-0.12349054,0.049527284,0.18905878,0.23953028,-0.24422169,0.07139372,0.091768526,-0.046898562,0.09756207,-0.059167843,0.03582412,-0.23922321,-0.027594393,0.21624753,-0.1922324,-0.07210958,0.08142411,-0.012415474,-0.18815279,-0.06965536,-0.107249364,0.113077335,0.036949914,0.18278927,-0.031261936,0.09870543,-0.10415716,-0.08527082,0.0033735821,-0.2364262,-0.08940398,-0.081978425,0.012371958,-0.15331697,-0.17413542,-0.14636756,-0.013159281,0.111589946,0.09933732,0.018219257,-0.04305366,0.12440224,-0.09380909,0.103819005,-0.10859988,-0.33865437,-0.27325064,-0.092679195,-0.039093204,-0.030407885,-0.29236448,-0.21305571,-0.031985667,0.20519337,-0.1533986,0.13095087,-0.05223367,-0.20072892,0.11709558,-0.08206767,-0.094964765,-0.003675341,0.06861333,-0.10975616,0.09786785,0.1903973,0.1684303,0.13129665,0.0760746,0.08940844,-0.13645743,0.066983566,0.100774094,-0.0049982336,0.07762465,0.21128727,-0.091171145,0.17014083,-0.024523707,0.1331783,-0.034704372,-0.016563615,0.1384054,-0.29237592,-0.09343051,-0.34555966,0.08215203,-0.042129453,-0.082551755,0.33247784,-0.018786687,0.2967941,-0.18810746,-0.03111052,0.21853203,0.24693066,-0.13159259,-0.06690657,-0.19707483,-0.09229272,-0.024198802,0.10541842,0.031174695,-0.014377394,0.14626297,0.18310362,0.14584824,0.02123784,0.09011599,0.0842047,-0.1418726,0.04050498,-0.15077454,-0.24036103,0.07154948,-0.13065855,-0.22921982,0.033212937,0.3046549,0.089896165,-0.056090314,0.04670079,0.30603576,0.14478539,0.024284475,0.01558922,0.13071924,-0.03516156,0.07294018,0.3297233,0.14144248,0.13084894,0.15147154,0.050131284,-0.036249705,-0.085074395,0.09559654,0.11610383,-0.14861126,-0.3414351,0.017585926,0.12817584,-0.32074386,-0.039339174,0.117397204,-0.09969794,-0.2241288,-0.1265218,0.32847103,0.077095464,0.18213677,-0.070187904,0.061207917,-0.25472596,-0.17289004,0.21684128,0.12087126,0.2931507,0.003612054,-0.2532644,-0.021826575,-7.109031e-05,0.09432713,-0.025344498,0.021511724,-0.020281808,0.12641379,0.15684256,0.016181497,-0.088614106,0.0036193721,-0.12167682,0.02560512,0.1615726,0.2697359,-0.38773277,0.18451117,-0.12246894,-0.09129365,0.17350894,0.09579099,-0.12120753,0.027104376,-0.13147448,0.022095589,0.07643579,0.33985075,-0.021421192,-0.20640425,-0.38213578,-0.04494145,0.054884057,0.15494746,-0.0027735825,0.24719197,-0.07717813,0.048027087,-0.0046571377,0.08953461,0.17406589,0.4227878,-0.15172735,0.2962668,-0.10894428,-0.037563592,-0.11495823,-0.007781855,-0.0036749863,0.16574845,0.0055892426,-0.12502553,-0.12256368,-0.19542783,-0.25210276,0.39687324,-0.019954579,0.022034751,0.17230314,0.113732755,0.16134986,-0.12688781,0.04220122,0.14055514,0.08819392,-0.17544377,-0.07222947,0.07175567,-0.06710241,0.29294246,-0.046802633,0.0042295353,-0.1024691,-0.043083802,-0.05606161,-0.15315153,0.09293634,0.017157763,-0.0872309,-0.3022142,0.11214485,-0.0064930543,-0.11189171,0.022144346,-0.027152753,0.080597214,0.20600429,0.14149944,-0.15245447,-0.22738844,-0.10579574,-0.28489488,0.22057067,-0.22174065,-0.13172191,0.19081539,-0.034126714,0.048261695,-0.08686667,-0.17041558,-0.27377042,-0.09725651,0.19753277,0.32651585,0.0395962,-0.15177026,-0.36839435,-0.11404018,-0.0955313,-0.012150829,-0.039687846,0.10988137,0.1469966,0.261606,-0.10843967,-0.3816887,-0.051332712,-7.0341673,-0.071048416,0.2388275,0.088667855,0.22869211,-0.19151874,0.056045894,0.00089208,0.32079783,-0.02146938,0.03452003,0.27828088,0.05475464,-0.021563806,0.35117498,0.12194348,-0.25146502,0.13646697,-0.07644701,0.3248908,0.09751614,-0.16924585,0.017100621,0.19010727,-0.051354934,0.08566366,0.06169262,-0.17779747,-0.033550452,-0.16288242,-0.040376615,-0.031336263,-0.14702247,0.21678613,-0.11980183,0.071855456,0.06491827,0.012590971,-0.060199372,-0.02896399,0.41302395,0.11561542,0.16398922,0.14952819,-0.13595484,0.08327642,0.227771,0.06537219,0.060400248,0.36366323,0.1414248,0.05419876,0.08308054,0.123739906,-0.10956236,-0.16189682,0.10368756,-0.016050879,0.30519426,-0.15578409,-0.16701683,0.0022185473,-0.09000403,0.10938799,-0.030725434,-0.033001352,-0.06706699,-0.2932943,-0.23138638,-0.1712658,-0.020280596,0.056003176,-0.26107964,0.18030545,-0.012695517,0.15305638,0.244425,0.041342035,-0.15729198,0.294708,0.07247428,0.3603972,-0.21879633,-0.004138777,-0.042868186,-0.15544875,0.0030625681,0.17442709,-0.18700902,0.256209,-0.051515955,-0.3256023,-0.01961275,0.13851637,-0.031097744,0.020902935,-0.12665275,-0.27676225,0.09236259,-0.0039109024,-0.32288456,-0.1774008,0.2512761,-0.117469095,-0.12610507,0.100273915,-0.06293626,0.03650496,0.23190053,0.017629767,-0.11799713,-0.10203396,0.1085391,0.013766071,0.09961004,-0.020045567,-0.324442,0.0017720391,-0.27352098,-0.02366226
PRO_2_A,0.20974725,-0.07902397,0.03482536,0.06775376,-0.37623465,0.076965556,0.07990862,0.32837203,0.1842985,-0.1058724,-0.078013994,-0.08573824,0.07683474,0.23862262,0.18472807,0.106170416,-0.30183694,-0.009691921,-0.13860996,-0.010331301,0.11856156,0.15810394,-0.0066847773,0.13877371,-0.19630456,-0.09082416,-0.08506766,-0.088493004,-0.021473037,0.0929838,-0.015967347,-0.033770915,-0.06424045,-0.37714654,-0.13745686,-0.05837962,-0.23093773,-0.02919365,0.081493154,-0.06419376,0.24922675,0.07141747,0.08930824,0.055083595,0.13882539,0.0103908675,0.0494761,0.41926673,0.06094627,-0.031124461,-0.07665189,-0.15907207,0.11118938,-0.18907954,-0.1680346,0.23717843,-0.043740194,0.018327512,0.067246936,-0.282291,-0.17527032,-0.12923725,0.05068491,-0.38760215,0.15608054,0.17999585,0.105052605,-0.11036543,0.2500627,0.06120193,-0.0647778,-0.104528025,-0.123486765,0.055291254,0.16229561,-0.10100154,0.19297016,-0.051379897,0.1538208,-0.0019325231,0.29299444,-0.09040739,-0.027738633,-0.019925294,0.017979488,0.022021398,-0.0358686,0.26997593,0.10186866,0.12296021,-0.08594874,-0.13149427,-0.08827776,-0.03025305,-0.031127017,-0.3110964,-0.1416212,-0.15755925,0.039629843,-0.064292215,-0.15029624,0.19511814,0.037102513,-0.29418126,-0.11826895,-0.09005299,-0.25545612,-0.2600506,-0.055385835,-0.19577032,-0.082859896,-0.09864805,0.22581075,-0.22754848,0.03243236,0.24163537,-0.106490634,-0.033223692,0.049195558,0.21590672,0.15324935,0.11645512,-0.23229273,0.07424877,-0.14067005,0.02370369,0.04019022,0.1967274,0.10856666,-0.10106737,0.21267715,-0.28356764,-0.0013806742,-0.052731197,0.10202165,-0.03336516,-0.01590249,-0.071012236,0.24024877,0.013832497,-0.1593949,0.08791394,-0.15282081,0.082604066,-0.12690844,0.06256876,-0.23466593,-0.09357032,-0.28259408,0.10073861,0.079761475,0.12838288,-0.03992678,-0.25562572,0.21939358,0.0057337605,0.23970747,0.089725554,-0.0713316,-0.26941702,0.03926982,0.124612026,-0.068319134,0.075015604,-0.06060382,-0.07336371,0.08516243,-0.08360937,0.06973001,0.18426894,-0.021737957,0.15863681,0.15077639,0.05028856,-0.2966825,0.030434549,-0.027452646,-0.08402659,0.201744,0.15665022,0.012438067,-0.15212472,-0.0013209946,0.03654746,-0.10738763,0.06551117,0.024356067,-0.22939524,0.02741626,0.22687621,0.15446912,-0.04788838,0.066619545,-0.03902027,0.068728134,-0.19570602,-0.018529385,0.11120526,-0.093114555,-0.3675632,-0.03592461,-0.2199692,-0.25609517,0.26329768,0.26990923,-0.016361214,-0.045593325,0.22190382,-0.42191914,0.09651607,0.17648059,-0.100489214,-0.032424543,-0.08898271,0.052372888,-0.19764291,0.07665562,0.15688862,-0.09856832,0.18742613,-0.0779976,0.13021642,0.2777624,-0.04270191,0.22100334,-0.047115672,0.22435947,-0.016679736,-0.51216495,0.24004564,0.04152049,0.110509805,-0.23539725,0.103158526,-5.219579,0.08075867,-0.19588813,0.09526304,0.06463906,-0.30464697,0.31803018,0.19991775,-0.2998493,-0.12222397,-0.15385082,0.22467835,0.15101217,0.26508242,-0.10204495,-0.02858908,0.03808576,-0.027204532,-0.08142174,0.1822368,-0.016972825,0.046934854,-0.19963126,0.09776923,-0.09590848,-0.27128324,0.22943532,-0.15713716,-0.07997043,0.048441984,0.2422384,0.30577284,-0.19965461,-0.052888796,-0.25062826,0.01508481,-0.2142568,-0.30333638,0.13093413,-0.20983385,0.11038679,0.26207265,0.20206276,-0.091337465,0.115682796,-0.16900608,-0.051452618,-0.33609974,0.012813759,0.048207242,0.18149982,-0.08137621,-0.24703968,0.03269931,0.013507273,0.102607764,-0.10240041,0.03341795,-0.122677565,0.0013848254,-0.07424812,0.022969708,0.17878945,-0.059118424,0.064830154,-0.13838467,0.06587888,-0.05202017,-0.5056182,0.11914749,-0.10527518,-0.13712826,-0.038186774,-0.1526121,-0.070182025,0.040608075,0.1235563,-0.0024277938,0.10580635,-0.03759217,-0.18967006,0.08544261,0.1185945,-0.086301565,0.026292382,0.0084364,-0.062175114,0.21290201,0.06263019,0.06673536,0.21859589,0.049108822,0.16949382,0.14808479,-0.2682317,-0.28352287,0.19618653,-0.01145228,0.059604455,-0.28998542,-0.2289985,-0.1411447,-0.14653532,0.17059937,-0.07174813,0.23997907,0.055150744,-0.018379657,-0.007749658,-0.016979381,-0.10146103,0.092485406,0.047084685,0.1322014,-0.12793338,0.12967132,-0.029546125,0.09783988,0.19003332,-0.093197905,-0.0049410607,-0.11510669,0.069160536,-0.10404338,-0.17595553,0.06626158,0.0813947,-0.036247168,-0.082817055,-0.067452446,-0.17227095,-0.012445327,-0.09682916,0.088326305,0.3474388,0.02339935,0.1296431,-0.10861753,0.012306306,0.20046408,-0.011862443,0.17850053,-0.010303645,0.037355673,0.08511074,0.03568921,0.027141133,-0.20032191,-0.01855167,0.14276275,-0.053833693,0.017706156,-0.17485899,-0.37894592,0.039460976,0.1235196,0.19813807,0.15928137,-0.011393396,-0.18085712,-0.2703631,-0.16151752,0.37618425,-0.24605003,-0.017607791,0.15496293,0.28685817,-0.3041963,-0.048444573,-0.15361597,0.2350565,0.025559828,-0.0040272465,0.035607614,-0.052123453,0.16005488,0.13577344,-0.023164064,-0.07048866,0.05495474,0.04684464,-0.015169353,0.08470034,-0.017380789,0.05404866,0.025747107,0.036041923,0.398738,0.1220162,0.23529923,0.10709339,-0.19179717,0.0155793475,0.03834595,-0.0032029152,0.07645902,0.062475424,0.071533196,0.30639943,-0.022444615,0.26287222,-0.056767795,0.04726185,-0.12405247,-0.24754022,-0.16184248,-0.21599573,0.013216343,-0.25921282,-0.14262126,-0.008112869,0.00089036126,-0.06534338,0.10486294,-0.1926422,0.1921658,0.017282188,0.19120137,-0.10332659,0.21245287,0.1247053,0.03335874,0.14429942,-0.27342382,0.034898464,0.078664884,-0.0791389,0.27968308,-0.14391863,0.25989807,0.019640662,0.03526252,0.23654617,0.14775103,-0.026938343,-0.18550414,0.04717923,0.012123278,0.070149854,-0.1662467,0.03560601,0.0957718,0.24620168,0.27816594,0.03855641,0.017688029,-0.049389675,0.10310727,0.142634,0.16824265,0.23929948,-0.19934352,0.016980259,-0.1966095,-0.16351822,0.030655023,-4.1210627e-05,0.20749992,-0.15352014,0.15838827,-0.12819694,-0.098523594,0.059388995,0.020714732,-0.2803833,0.24171698,-0.36568195,0.2163205,-0.2047769,-0.041081898,0.015287916,0.09274944,-0.17343633,0.10632869,0.31464002,-0.0076064295,0.11453216,-0.19855809,-0.17704573,-0.23819697,-0.19876449,0.15291514,-0.040874217,-0.034545727,0.019763254,-0.11391493,-0.03309617,-0.2601554,-0.05084907,0.048923884,-0.022035938,-0.012373873,0.21358338,-0.032109726,0.0016967412,-0.19834346,0.07826953,0.032132488,0.11906824,0.048724595,-0.1184897,-0.15492979,-0.11317807,-0.17679304,0.21209113,-0.04466127,-0.12542097,0.144061,-0.17019248,0.09395704,-0.17199692,-0.03406494,-0.002388471,0.19214143,0.14972499,0.17592964,-0.28463113,-0.06935579,-0.14420325,-0.20930044,0.43007803,-0.041236427,-0.10279314,-0.14475888,0.010376746,0.24831854,-0.09843813,-0.07728332,0.13571669,0.003503673,0.1684276,-0.024632234,-0.060955737,-0.14528924,0.31542724,0.009628058,0.10152148,-0.1341306,-0.113563195,0.10761803,-0.11513043,0.31362134,0.24706033,0.25937107,0.13290788,0.20476802,-0.058076132,-0.1115389,-0.18754214,0.22577043,0.020570794,0.15787354,0.293586,0.0150683215,-0.058184944,-0.05321031,0.05811381,-0.0074916524,0.017099887,0.09781171,0.11262318,0.18099874,-0.043594923,0.29114982,0.067014426,0.04279699,0.032842044,-0.13583456,-0.16302884,0.24614324,-0.06770152,-0.35620832,0.20198373,-0.15142868,0.07659073,0.30430782,0.03640593,0.08818058,-0.24237639,-0.062243666,0.042116873,0.096458904,-0.08031966,-0.11558096,0.045753147,0.16334158,0.22506206,0.013489423,0.05392489,-0.025065722,-0.0054757525,0.15426156,0.32525784,-0.20525871,0.15547349,-0.040705703,0.09490327,0.16673698,0.15972443,-0.019685859,0.17452401,0.04472916,0.016670221,-0.21443905,0.21444939,-0.47164592,-0.017489797,-0.013496159,-0.07742285,-0.05356889,0.11917894,-0.32317808,0.06449713,-0.08912974,0.059320573,-0.30279768,-0.005470003,0.09337733,-0.27855062,-0.121792294,-0.061720144,-0.42367676,-0.06288991,-0.063773826,0.001086096,0.1435497,-0.10756092,-0.10393809,0.058364473,-0.15987156,0.30194122,-0.19874747,0.16637014,-0.123868175,-0.18723744,0.3091521,-0.08646053,-0.13771169,0.25447592,0.20033427,0.15607004,-0.010408147,-0.11645642,0.069318056,-0.1800552,0.15405177,-0.014219828,-0.0046315193,0.03682818,0.1766091,0.16854563,-0.4352591,-0.049919203,0.21525392,0.028069941,-0.17697364,0.14469704,0.18757626,-0.120241694,-0.033115946,0.0172388,0.12317225,-0.18430118,-0.15008429,0.2456048,0.13762614,0.21923159,0.107886255,0.16903332,0.24410936,0.07359856,0.17390881,-0.12775935,0.155007,-0.05409047,-0.051480908,0.06954684,-0.24603203,0.09175236,0.1522158,0.008048527,0.03324698,-0.08385619,0.12808597,0.10031335,-0.098507,0.29926932,0.027095327,0.23326334,0.10134046,-0.059301004,-0.31403494,0.15565573,-0.18056041,-0.08474352,-0.11110017,-0.12033479,0.04351182,-0.0823546,-0.09132761,-0.1660375,0.0577105,1.0714085,0.17054981,0.09546719,-0.097671874,-0.07538226,0.012585757,-0.22897448,-0.20692194,-0.25558573,-0.15540114,0.18073091,-0.053940214,0.32087132,-0.111135274,-0.036425292,0.14789052,-0.21522427,-0.16726594,0.17365563,-0.13020879,0.18612063,0.18928018,0.022586958,0.10566922,0.14541367,0.060457367,0.08584776,-0.13397908,-0.0041990094,0.20345221,-0.070349835,-0.13058725,-0.030352795,0.16759858,-0.08115002,-0.12091263,0.01830584,-0.10432896,-0.14779773,0.32592806,0.020629708,-0.27378544,-0.019372102,-0.05359118,-0.16818044,0.18414196,0.0633265,-0.0033115146,0.17618237,-0.052241374,0.112070665,-0.026260396,0.024491992,-0.14930622,0.012898676,0.046997633,-0.14647762,0.047340117,-0.27808642,-0.12187643,0.019867273,-0.30070117,-0.14423016,-0.006194029,0.14315702,-0.25725666,-0.03893451,0.047447782,-0.04447017,0.24349786,0.2904951,-0.15094988,0.14502972,-0.091456294,-0.24601036,-0.06129543,-0.0024495323,0.11617176,-0.096176006,-0.024005948,0.29585314,0.20286179,-0.037655003,-0.053363092,0.2842184,0.03980232,-0.2578075,-0.07150834,0.0021815072,0.19347428,0.28497806,0.048876967,-0.028640283,0.14423338,-0.007115823,-0.3746723,0.0426906,0.1560302,-0.0021003692,0.043676842,0.10431439,-0.12704317,0.19270547,-0.1876397,-0.02798543,0.02928639,-0.012507465,0.045899443,-0.027224287,0.0107699465,0.12070424,0.17534712,0.10554274,-0.0072077084,0.03292751,-0.18870473,0.0905052,-0.08445464,-0.059806507,-0.20128559,0.116007134,0.24049333,0.16299702,-0.14484219,-0.050235588,-0.04954747,0.06259855,-0.13804932,-0.14202383,0.022766432,0.26087213,-0.023051364,-0.20175809,0.028602827,0.021447588,-0.13487358,-0.13758448,0.11426594,0.11403199,-0.027583998,0.8569,-0.02670208,0.34780145,0.18168251,-0.023953045,-0.055663288,-0.118426576,0.08388602,0.061673805,-0.31951895,-0.13490005,0.011464609,-0.18934552,0.1039446,-0.036984794,-0.13996191,-0.027573928,0.16583179,0.078323126,0.059624426,0.21530806,-0.0039036374,0.010584984,-0.07990426,-0.0449987,-0.13383433,-0.41963786,0.11650075,0.16156417,0.17565145,-0.16595505,0.03634525,-0.048634462,-0.11449294,-0.11451698,-0.083789535,-0.0022442786,0.13097085,0.04388812,-0.0590673,-0.14416504,0.12651715,-0.036261953,0.01587576,-0.015530565,-0.09131046,0.13861232,0.056717634,-0.042830817,-0.010066619,-0.003484445,0.010879653,-0.14620797,0.013999042,0.13151105,-0.081242174,-0.1748849,0.083426505,-0.19578941,0.0012959003,0.0049986527,0.22932091,-0.2880948,-0.14697827,0.13356324,0.103929356,0.12395288,-0.07314884,-0.023453876,0.013946508,0.19996235,0.025685202,-0.11565316,0.10126667,0.26290902,0.13576858,0.079501905,0.27276763,0.0819942,0.04010953,0.1255156,0.18327142,-0.05644042,0.14364503,-0.17604056,-0.006723804,-0.18257043,0.0996917,0.036712103,-0.028679637,0.03490346,-0.16996416,0.035057697,-0.20800596,0.089268014,0.27410695,-0.16045055,0.29551116,0.12229342,0.16627148,-0.092759475,-0.01720168,0.25558168,0.081536606,-0.1682793,0.10302227,0.13353707,0.081103705,-0.374033,-0.106358685,-0.14355212,-0.32508007,0.35158473,0.022314845,-0.06361506,0.4333188,0.42099172,0.27353036,-0.24981323,0.10058938,0.10678316,0.03897317,-0.034598805,0.35724106,-0.2509918,0.0289388,0.2001943,-0.16019219,0.07250199,0.2527976,-0.13656949,0.18755874,-0.0074811555,-0.013286801,0.3447366,-0.08928177,0.06528085,0.35991606,0.03168571,0.18254523,-0.073940724,0.031119313,-0.21859153,0.080898136,0.046982348,0.07505824,-0.011315338,-0.17668597,0.20932196,0.026705256,0.050104868,0.028385952,-0.07283775,-0.0038331249,-0.051643644,-0.0664508,0.1575668,0.034943726,-0.07063418,0.1781989,0.037009697,-0.011328347,0.093367964,0.15110241,0.27218878,-0.13259436,-0.045960337,0.09441267,0.13222317,0.063479535,-0.021085957,0.020823052,-0.011432145,-0.20904176,-0.20294566,-0.11282537,0.07650529,-0.018758472,-0.14518103,0.09354336,-0.017154427,0.082524754,0.17840695,0.0021870288,0.02278872,0.032093976,-0.18549535,0.093978345,0.25861454,0.08320999,0.22265776,0.14967147,0.16291676,-0.24375106,0.07996421,0.10323619,-0.45738488,-0.22081862,0.0038952082,-0.056927957,-0.024942933,0.2733257,0.054747354,0.047053345,-0.11371888,0.017190851,-0.53966594,-0.18696749,0.42554903,-0.11884649,0.44188568,-0.0932355,-0.008121117,0.17794915,0.014146465,0.0015782821,0.11763443,-0.3041308,-0.09010063,-0.33324587,-0.23979563,0.105435304,0.17562059,-0.11900759,-0.00051891414,0.20858668,0.0783939,-0.059384126,-0.009624081,-0.12218518,-0.029874379,0.13022372,-0.099871494,-0.11335034,0.069664046,0.052253418,0.23326406,0.17087534,-0.1287698,0.043690562,0.011858951,-0.036908183,0.20255487,-0.09867462,-0.05274094,-0.07016277,-0.29310128,0.09811261,-0.06360918,0.25544655,-0.15351753,0.012800831,0.11253019,0.09121706,0.019540159,-0.32194847,0.0011386558,-0.11034432,-0.17835888,0.013682098,-0.17371252,0.13409223,0.19708972,0.1124516,0.083328605,0.24810924,-0.16658708,0.12669317,-0.054554485,0.3287768,0.16974244,0.1841863,-0.1585301,-0.12472379,-0.12831698,-0.044247396,-0.065304354,-0.3933094,-0.17828599,-0.1737758,0.20957889,-0.123340726,0.09147093,-0.21236777,-6.9718046,0.04351165,0.29834905,0.21775714,-0.06505738,0.12595941,-0.059820123,-0.2012177,0.009054765,0.17157644,0.15323257,-0.31530842,0.037462424,-0.108938344,0.019196495,0.31930217,0.048822228,0.15493518,0.16005096,0.09503116,0.03516561,-0.22702773,0.12429516,-0.1115427,0.10286097,0.20838179,0.2380601,-0.35175437,0.31320006,0.01300608,0.16973303,-0.1580307,0.00376326,-0.086833626,-0.1878465,-0.11653805,0.018695576,0.041853607,-0.07644345,0.13405792,-0.084342785,-0.08848157,0.035286084,-0.09415109,0.09096238,0.013482126,0.108329535,0.03614132,-0.09238746,0.041209083,0.07206587,-0.08186274,0.1637935,0.041450843,-0.011993225,-0.07499655,-0.30983865,-0.16466597,0.07156797,-0.21934715,-0.11764304,-0.11984823,-0.27411988,0.012893392,-0.2153908,0.08842864,0.25622025,0.10514704,-0.01238179,0.06927921,0.31567025,0.089149676,-0.1086755,0.017600756,0.3716248,0.2048134,-0.10142118,-0.10174024,0.06023403,0.19775465,0.112889834,0.28514904,-0.12803857,-0.050847303,0.16035666,0.31516522,-0.07067789,-0.22016677,-0.24569236,0.025135167,0.1525455,-0.24874562,-0.08908354,0.14665191,-0.0568575,-0.14105055,0.05270045,-0.23361416,-0.09416151,0.13961385,-0.17591543,0.006749194,0.26432386,0.06260512,-0.10701037,0.19231014,-0.12879919,-0.0014184626,0.16744238,0.057348244,0.26038796,-0.089450255,0.078176305,-0.0034672094,0.226037,0.086960785,0.15098545,-0.049933124,-0.018451678,0.14597227
TYR_3_A,0.14406496,0.10027411,-0.003894041,0.13030104,-0.35004315,0.09396748,0.12356946,0.16776802,0.037474606,-0.060185213,0.060937423,0.02982628,0.089380026,0.035640273,0.06440704,0.097969346,-0.22935821,0.11991569,-0.05786115,-0.07960064,0.18979128,0.055260625,0.15496545,0.06527373,-0.18885678,0.018486721,-0.22186041,-0.13047016,-0.1523898,0.090289414,-0.08407511,-0.017211847,-0.12217107,-0.13646175,-0.1686085,-0.1057617,-0.22417133,-0.038355358,0.07763149,0.1556112,0.23245625,0.1364609,0.06403033,-0.05421098,-0.035922274,0.056809228,-0.030272061,0.16379784,-0.29899868,0.1406217,0.02281962,-0.081002966,-0.042502474,-0.24970946,-0.07483727,0.18603566,-0.06423704,0.17510246,0.0027505343,-0.264215,-0.056634337,-0.04798594,-0.06283095,-0.28120112,0.048834722,0.10813252,0.09642044,-0.034372218,-0.042788107,-0.02748453,0.22414467,-0.183292,-0.28046605,0.21233465,-0.15128593,-0.049124457,0.09313159,-0.05148675,-0.056624383,0.16085012,0.18124819,0.13162799,0.13653351,0.03703759,-0.19072731,-0.044388216,-0.08795656,-0.039400686,-0.011003753,-0.089141056,0.18430461,-0.20463513,-0.23311478,-0.016993891,-0.07915263,-0.16219087,-0.0863189,-0.13462445,0.030301098,0.17181285,-0.01415412,0.037427593,0.0823667,-0.34766442,0.061423853,-0.03924406,0.03231875,-0.00467323,-0.0004758119,-0.09452808,-0.17939697,0.014017348,0.26266986,-0.20803595,0.15031506,0.07511362,-0.1109399,0.0052145957,0.14500393,0.117243044,-0.063649714,-0.012292781,-0.12817857,-0.017163856,0.05787836,-0.056154776,0.20230454,-0.04588085,-0.039974272,-0.13307893,0.1694992,0.01638924,-0.31301475,0.12697794,0.20242935,0.09368318,-0.065369524,-0.11860336,0.21206671,0.22346458,-0.12223308,0.07253574,0.043401737,0.010836762,-0.14346544,0.1409275,-0.15004013,0.10441752,-0.12603885,-0.0509268,0.12779582,0.04893957,-0.054261815,-0.11472944,0.34537345,0.21903454,0.21122728,0.17106934,0.09774416,-0.16356406,0.12647241,0.20914608,0.13984168,-0.10674993,-0.060651876,0.069478646,0.37664717,-0.053750418,0.0437325,0.13574874,0.08974439,-0.12055109,-0.021816298,0.1151327,-0.13672052,0.01941722,-0.022163628,-0.18382163,0.1947841,0.036469486,0.0014242743,-0.20546044,0.101440266,-0.0877637,-0.2094713,-0.1683324,-0.02177571,-0.19614427,0.06977213,0.41293538,0.16880912,-0.049731325,-0.0866137,-0.01362252,0.12352984,-0.14453135,0.15413234,-0.1399611,-0.0155432485,-0.037519306,-0.08001423,-0.16007592,-0.05996172,0.09147678,0.23186357,-0.047461078,-0.019810863,-0.025275912,-0.19984873,-0.039568394,0.13436602,-0.0022582582,-0.0017541706,0.14425117,-0.034781206,0.07753063,0.04165182,-0.17659144,0.016990462,0.16939737,0.025209453,0.11590695,0.22478996,-0.15934877,0.38369685,0.023101166,0.21026337,0.1390771,-0.465416,0.13126746,0.067612365,0.1790515,-0.30468374,0.12631454,-5.172049,-0.024387404,0.039216787,0.13178542,0.082153596,-0.16790943,0.16425242,0.15621814,-0.15071608,-0.10336017,-0.11099721,0.32095703,0.07872784,0.090009704,-0.20090903,0.14630145,0.1379527,-0.19895713,-0.15250914,0.1588384,0.016816411,0.32444432,0.018124055,-0.12142294,-0.1710995,-0.2215969,0.35085347,-0.08997024,-0.118378416,0.24602072,0.028377099,0.260757,-0.08907733,-0.06425574,-0.090790056,0.05217234,-0.13318828,-0.1292322,-0.015180117,-0.254504,0.0029576817,0.030075243,0.36365852,-0.074581474,0.027456978,-0.39391902,0.19935536,-0.07687309,-0.11599516,-0.070718415,-0.09543559,-0.23985198,-0.118938066,0.12903604,0.03615854,0.1929124,-0.20399272,0.014745032,-0.2944389,0.12687661,0.028638989,-0.05567143,0.030802568,-0.04114142,-0.06440179,-0.037293714,0.15714322,0.08040864,-0.33498377,-0.24672018,0.0022908477,0.00059720094,-0.12366242,0.061782654,-0.30627567,0.07860355,0.052332617,0.09634395,0.107140504,-0.079236664,-0.12864107,0.06432312,-0.0039117113,-0.20075575,0.12536435,-0.13647524,-0.032749556,0.029275313,-0.11481432,0.09428519,0.016017493,0.06163969,0.118683666,0.2557334,-0.07030723,-0.06338852,0.04787052,0.07631156,-0.12122718,-0.18611933,-0.24966015,0.09198842,-0.28587925,0.013616738,-0.10857376,0.12252094,0.31858462,0.112203434,-0.07289587,0.0119019225,-0.13704021,0.0640449,0.19884612,0.025307233,0.0026671372,0.16244411,0.113276884,0.13014244,0.12780182,0.045413062,-0.050034143,-0.0635006,0.16970389,-0.040160127,-0.12959962,0.2909599,0.13968134,-0.04900144,0.0053141965,-0.10479027,-0.13529147,-0.19480355,0.009545102,-0.11461492,0.2826406,0.094660945,0.18678539,-0.029823527,0.019463927,0.06872316,-0.0032347308,0.09763507,-0.080706224,-0.08779859,-0.03363266,-0.0058200457,0.13386407,-0.18999791,-0.061801217,0.089419805,0.14037059,0.03183275,-0.10418174,-0.23710336,-0.055117376,0.10335578,0.13715816,0.009042836,0.13280202,-0.09589982,-0.2714126,-0.10729978,0.15571266,-0.048436277,-0.011201758,0.055321872,0.13504434,0.014680018,-0.082313634,-0.13799183,0.3261608,-0.042356703,-0.16502614,-0.10919468,-0.18228157,0.17762178,-0.03111807,-0.1719399,-0.2184861,0.013492205,-7.382608e-05,-0.011362859,-0.010156751,0.24536988,-0.08180385,0.07564565,-0.19984609,0.0716531,0.034057632,0.1552587,0.10326589,-0.1540364,0.045324985,-0.11541322,0.10605625,-0.1392559,0.035184164,0.124480024,0.18982334,-0.0447611,0.0132735465,0.08921402,0.0585083,-0.16556652,0.053699918,0.13525915,-0.25630847,0.0776342,0.013466134,-0.084224455,0.04792471,-0.11583753,0.07040771,-0.031747796,-0.030857295,-0.07830177,-0.2044678,0.18304072,0.06816161,0.23593755,-0.062238745,0.10166461,0.17032558,0.12275701,0.014771522,0.31087014,0.031784967,0.20993885,-0.09500587,0.086549155,-0.07148751,-0.02381978,0.022955524,0.2588343,0.048744705,-0.0029589122,-0.084179625,-0.041305143,-0.075951375,-0.06423331,0.041465618,-0.017428916,0.09338816,0.30224475,0.05692406,-0.054282084,-0.07971909,-0.07645874,0.067002945,-0.14086033,0.37515536,0.122691944,0.16116972,0.031596106,-0.112649865,0.025683293,0.16539761,0.28633568,-0.020601632,-0.14148624,-0.13076456,-0.10144745,-0.10363211,-0.041753784,0.0133919045,0.26449025,-0.20507084,0.008567392,0.01449484,0.03689588,0.18706812,-0.16516505,0.12073945,0.23528996,-0.0016817814,-0.036726654,-0.057354774,-0.19810139,-0.1518215,-0.21270107,-0.22344819,-0.099400625,-0.22279067,-0.12320655,0.02520437,-0.23506296,0.023503866,-0.35061392,-0.07802314,0.057028215,0.18181784,0.08557668,0.054174926,0.02905351,0.009355457,-0.029480439,-0.052293975,-0.074049756,-0.009268853,-0.1878289,0.09408007,-0.060752515,-0.17843443,0.005651725,0.07343923,-0.021080676,-0.1907409,-0.07765046,-0.04929885,0.11001805,-0.16293387,0.24044178,-0.034269754,0.24501953,0.13644134,0.16077206,-0.26533744,-0.102779366,-0.2099079,-0.1675276,0.4602123,-0.22114336,-0.26347494,-0.10740444,0.1302662,0.026673267,0.02976538,0.08171034,0.041945025,-0.041267563,0.31748813,-0.096549615,-0.09940481,0.21311092,0.11043358,0.08902542,0.014084395,-0.108721405,-0.08372806,-0.07574275,-0.15922303,0.19419597,0.0847863,0.27175575,-0.060320277,0.20289874,0.03967346,-0.13852817,0.050447423,0.15101321,-0.07322628,0.1585302,0.17376663,0.054973956,-0.032343943,0.03210035,0.21328224,-0.02140686,-0.07224216,0.106475025,0.18997413,0.06962101,0.084550336,0.06842456,0.15293376,0.019370936,0.2199963,0.0669533,-0.115273856,0.059422806,-0.14283101,-0.14721456,0.2176994,-0.1389209,-0.073757365,0.0189624,0.017692262,0.1172172,-0.18370794,-0.08743991,0.051120687,0.09913401,0.15121557,0.0026019947,0.2371828,0.04552341,-0.010797874,0.0051116454,-0.052867413,-0.024663152,0.10530332,-0.04073499,0.2478771,-0.4564508,-0.015621517,0.050301325,0.09408938,0.079526484,0.16877595,0.2000893,0.1669883,-0.07848902,0.057414286,0.13235945,0.043205652,-0.2633582,-0.014001132,0.1604139,-0.19830793,0.03611101,0.1337661,-0.21663977,0.329923,0.12008503,0.023472961,0.05773739,-0.07389034,-0.00828001,-0.23867495,-0.17049547,-0.046027724,-0.27659017,-0.13211365,-0.17457269,-0.092725225,0.055826053,-0.23637724,-0.2051475,-0.0030255932,-0.21720427,0.09589278,-0.31059855,-0.024613954,-0.03408424,-0.098962374,0.06802514,0.074513786,-0.4090852,0.062479008,0.11285345,0.29915836,-0.19089946,-0.056402836,0.15924828,-0.06132725,0.085856,0.13581948,0.12241126,0.16534148,-0.0039389455,0.055091865,-0.31812814,-0.067275874,0.11226939,0.04308227,-0.12904611,0.06133868,0.43848902,-0.15964815,0.017863926,0.31033078,0.11753645,0.1432133,-0.029792124,0.0718185,-0.16788161,0.0055672824,0.05425874,0.09090924,0.3602038,0.08207708,-0.10999105,0.14592595,0.22740123,0.022464156,0.053189296,0.294946,-0.11219581,0.04203439,0.13641308,-0.061626103,-0.045295257,0.05320499,0.1056071,-0.04031825,-0.081065975,0.23378012,0.4367475,0.16733228,0.192763,-0.054553572,-0.17494315,0.095177166,-0.018975671,0.18237847,0.078607954,-0.16106299,0.16077177,-0.19914462,0.06630838,-0.098525934,0.17634708,0.88077587,0.056048907,0.15542142,-0.04919317,0.17291714,0.068881914,0.053233374,-0.05456128,-0.07891654,-0.25331426,0.022980383,-0.15680857,0.00704503,-0.12835099,-0.022632988,0.331311,0.22874492,-0.04693225,0.09381381,0.03681508,0.11711683,-0.06980525,0.048065614,0.27824008,-0.06804084,0.013276342,-0.09262643,0.080479376,-0.08147296,-0.12022535,-0.08802179,-0.06775788,-0.10176162,-0.3194021,-0.02270392,-0.15436557,0.01765006,-0.12269026,-0.13438794,0.28379494,0.0035620101,-0.22166002,0.103025526,0.06905743,-0.14593507,0.09894173,0.16014434,-0.08263255,0.12233609,0.054489452,0.16893081,-0.07285678,0.1865989,-0.0670299,-0.026453454,-0.22776273,0.10649701,0.16861205,-0.07146039,-0.10869139,-0.0338801,-0.16207477,-0.14075957,-0.007156183,0.10584781,-0.061578542,0.1481702,0.1497636,-0.22558247,0.028177354,0.27337345,0.061353832,-0.04602395,-0.01402618,0.069901936,-0.3507747,-0.106230274,0.045756146,-0.18805993,0.038455654,-0.14105643,0.05767244,0.12737665,0.04009628,0.2085966,0.12940419,-0.2453441,-0.0983709,0.11766207,0.056565043,0.0069596306,-0.09444249,-0.17441313,0.08026861,0.002949146,-0.082807235,0.047188107,0.19865076,0.021660129,-0.037771806,-0.05039435,-0.073923804,-0.036048338,-0.3201249,-0.013827647,-0.09692221,-0.11662098,0.114768684,0.074853085,0.1624376,0.3313294,0.026230218,0.20094112,-0.08356305,0.03823632,-0.14776495,0.10627715,-0.19498684,-0.14788438,-0.19306584,0.2855303,0.12525864,0.28400072,0.036830567,0.01983892,-0.124290615,-0.074007235,-0.23220088,-0.22216201,-0.073647976,0.09161259,-0.13006538,0.07537417,0.044962432,-0.068632744,-0.09751114,0.03554589,0.10689046,0.10291923,-0.12904596,0.1698799,0.010461887,0.13916895,-0.051196493,0.13270412,0.09680325,0.19534723,0.058423053,-0.1081929,-0.43411836,-0.087740615,-0.11907119,-0.06932852,0.1198931,-0.046358958,0.022512736,0.008522793,0.08674242,-0.057788253,-0.09970248,0.17241858,-0.0013377195,0.1148199,-0.031232601,-0.041652948,-0.30578354,-0.21294504,0.1505449,0.0029941406,-0.26377344,0.107468374,0.11508971,0.014483093,-0.054816335,0.033264372,0.024910733,-0.15878358,0.12543854,0.027100503,0.057733268,-0.053193145,0.2697222,0.026124137,0.11539631,0.22631738,-0.21451044,-0.070839606,-0.05789208,0.11744925,-0.003966983,-0.07132275,0.002055164,-0.11591597,-0.05580815,0.07241378,-0.20461352,0.17516015,0.10035987,-0.2511895,0.019669265,0.012676704,0.06307246,-0.16077149,0.014306017,0.029591875,0.15472949,0.21587433,-0.07475544,-0.1548106,0.039154228,0.24250884,-0.05167391,0.04921228,0.1884253,0.21203898,-0.033467304,0.011319428,0.15572092,-0.18332152,-0.04858615,0.07842135,-0.15365532,-0.15887405,-0.2060234,-0.20927772,0.08540632,-0.08700808,0.039007686,0.16759412,0.027395727,-0.0071350494,-0.109170064,0.104796305,-0.26629993,0.137227,0.14151089,-0.1127157,0.25865456,0.11008768,0.110680714,-0.085052736,-0.01858779,0.31917363,-0.1278344,0.021594312,0.13638824,0.16770554,-0.06442442,-0.16066447,0.07300837,0.066427626,-0.14926381,0.42573372,-0.1684272,0.015684867,0.23016255,0.22060937,0.13527505,-0.032991208,-0.031095153,0.09067834,0.2163806,-0.00508242,0.1723483,-0.0771138,0.03872675,0.23916157,-0.25647324,0.0311131,0.120068006,-0.00035294337,0.20107979,0.004442785,0.06603661,0.068814725,-0.25907052,0.09689961,0.19119726,-0.024663894,0.06542703,-0.03940067,-0.13401185,-0.032671526,-0.0011890576,0.12652263,0.043233935,0.060986165,-0.27848688,0.31575558,-0.033988975,-0.057906657,-0.08458929,-0.13674408,0.017373718,0.12095363,-0.21457794,0.09811843,0.06515228,0.020658065,0.1558607,-0.10387476,0.13516243,-0.17640777,0.16801988,0.2969631,-0.062229313,0.06681877,-0.21326214,0.05162944,-0.011296371,-0.14405179,0.08466357,0.036504965,-0.12650216,0.069078885,-0.122864544,0.09933914,0.015472518,-0.094234996,-0.12840933,-0.02512517,0.26758552,-0.02351498,-0.08535374,0.07875889,-0.05655139,-0.18306786,0.09095451,0.23007768,-0.093550205,0.07780552,0.19398838,0.17598477,-0.028107183,0.1209138,-0.14461769,-0.21045062,-0.37224606,-0.051984437,-0.1656542,-0.045549396,0.25868258,0.13634314,0.19463459,0.20163299,-0.07701571,-0.46111715,-0.03580659,0.16429295,-0.084249265,0.38541275,-0.029529657,-0.20867126,0.009749505,0.06195979,0.0078040212,0.20573986,-0.27780375,-0.13257091,-0.18682733,-0.17828186,-0.0060363724,0.4475168,0.18497677,0.21350415,0.29189706,0.030951224,0.04948798,-0.07636821,-0.045564312,0.11572569,0.13761058,-0.14229962,-0.060365587,0.11024918,0.17674845,0.11294147,0.048320677,-0.060439393,-0.08834287,-0.08613982,0.017246338,0.11693707,0.04191613,0.110283226,0.0321293,-0.11981018,0.010729608,0.033501107,0.16892351,0.059741914,-0.12542228,0.17167874,-0.011344859,0.2228049,-0.14282992,0.12913515,-0.11189378,-0.09902268,0.20637585,0.035844605,0.108825244,-0.10097236,0.045444556,-0.029406143,0.22213593,0.058448303,0.1397067,0.029887771,0.20265883,0.014562852,0.05771282,-0.03926712,-0.2977633,0.12000509,0.120170996,0.27947873,-0.09312877,-0.017629266,-0.100985825,0.097133875,0.07767398,-0.058057413,-0.16833256,-7.438279,-0.10652576,-0.065603055,0.04914771,0.05058811,0.07062254,-0.07929086,-0.2898994,0.033990707,0.059509497,0.2328976,0.23098493,0.10218567,-0.007517806,0.024696147,-0.01231248,-0.085197814,-0.06280526,-0.059660345,0.13019519,0.16509254,-0.08783234,0.22467841,-0.14734305,0.07428654,0.056399543,0.13429102,-0.14099075,0.19694737,-0.1766593,0.04835356,-0.18283153,0.06308551,-0.13057119,-0.05198216,-0.0024220368,-0.03261822,0.01398884,-0.048287425,0.23735255,-0.12368019,-0.20671338,0.0032487877,-0.018280877,0.070429444,0.042277716,0.00010317761,0.1966128,-0.2858043,0.11323867,0.020618541,-0.19320643,0.11982908,0.0086451955,0.14303866,-0.1300423,-0.14121589,-0.078547664,0.021580612,-0.26208696,-0.08936278,-0.232556,-0.3601798,0.08839875,-0.14049079,0.057807624,-0.039483346,0.075837515,-0.22111952,-0.0042791963,0.15730703,0.047432978,-0.11598702,0.023195775,0.27503827,0.2596952,0.13047147,0.11628544,0.11619679,0.11218905,0.29109797,0.19198085,-0.101536065,0.24085715,-0.0026664897,0.29835445,0.035015482,-0.18891205,-0.14588405,-0.12388183,0.20191745,-0.45436746,-0.1634028,0.29721403,-0.06442361,-0.11309057,-0.19086142,-0.1376456,-0.087491415,0.18763985,-0.16908735,0.060784165,0.17938033,-0.026166275,0.01673701,-0.22507562,0.08159653,-0.18293083,0.07141311,0.062344044,0.09632091,-0.097868875,-0.11795822,-0.07389886,0.29685023,0.10369563,-0.06425982,-0.17518795,0.18451667,0.030192247
SER_4_A,0.18039528,0.28530028,0.19494694,0.1483565,-0.44499034,-0.16730353,-0.016502459,0.33668655,-0.07582476,0.042659104,-0.15855344,0.0067804432,0.060174942,0.04651451,-0.15303136,0.035478674,-0.3561788,-0.029614903,-0.09516483,-0.21076699,0.33358628,0.13681632,0.16944753,-0.10032059,0.046073146,-0.1993579,-0.1121859,0.022028446,-0.1489421,-0.081728086,-0.32080287,0.059925333,-0.15093395,-0.073298015,-0.14523609,0.15229131,-0.06860781,0.07106031,0.06405136,-0.026124755,0.3107964,0.13303426,0.18254258,0.04218525,-0.25293747,-0.1778258,-0.09365338,0.33597735,-0.18691806,-0.052572224,-0.17807469,-0.21438423,-0.08282744,-0.26395026,0.003744546,0.16574456,0.14463423,0.08323676,0.17262936,-0.12767982,0.051606353,-0.05359656,-0.17209268,-0.12757088,0.036813796,0.1205512,-0.044177245,-0.0705114,-0.07221758,0.16860127,0.14485857,-0.29299995,-0.48467726,0.13867708,0.008700773,0.07172059,0.06855465,-0.011984345,-0.030822435,-0.018468106,0.14256188,-0.12576146,0.10274962,0.0835446,0.07605556,-0.252087,-0.165372,-0.060983554,0.07337682,0.05398844,0.17543052,-0.11954418,-0.2491423,0.0074317157,-0.19319354,-0.41637364,0.114496514,-0.063120306,0.04006048,0.19369982,0.06647659,0.05723891,-0.105401255,0.10082484,-0.10819348,-0.23594573,-0.1453567,0.08505586,-0.040516302,-0.16426043,-0.14278488,-0.08961877,0.2557195,-0.13448027,-0.09569192,0.10529014,-0.2602315,0.13029608,0.26821,0.18852273,0.04246635,-0.0074395034,0.12140252,-0.062374495,0.12243524,0.016605752,0.033744995,-0.021022636,0.02308486,-0.18186502,0.22853246,0.15401098,-0.31304953,-0.23574202,0.012088646,0.13608935,0.017491255,-0.12214062,-0.13243325,0.22971962,-0.08695653,0.034099,-0.033284716,0.00883906,0.11920999,0.07148284,-0.15148365,0.10984615,-0.06459577,-0.19535531,-0.04658873,0.0494333,0.014529123,-0.26241466,0.33385175,0.017503228,0.2694406,-0.0070732967,0.22509721,-0.06293043,0.05574129,0.11469183,0.06740452,-0.016147165,-0.060981236,0.026532417,0.061977006,0.03605018,-0.041754436,0.2788943,-0.048676345,-0.02649667,0.08489133,-0.03374619,-0.3360797,0.017950596,-0.12080598,-0.06869435,0.3205381,-0.019951258,0.06205896,0.025790768,0.15917316,0.09559946,-0.1912315,-0.060594793,0.18388732,-0.15639131,0.0638251,0.33368704,0.0028283594,-0.27698854,0.035738427,-0.023164917,-0.018967772,-0.3588754,0.1378282,0.060655106,0.069497846,-0.25489378,-0.25113046,-0.17728977,-0.10160287,0.17559299,0.36578137,-0.26102528,0.20133616,0.32916516,-0.3039232,-0.17214064,0.21149397,0.0183398,-0.08435334,0.04215218,-0.06616843,-0.031171538,0.24965495,0.0021439705,0.003344001,0.17706646,0.19596024,-0.021889903,0.30621633,0.05823637,0.1196259,-0.2224666,0.20139612,0.07617206,-0.40118134,0.19893,0.11120956,0.23887067,-0.28731856,0.2049366,-5.450662,0.08985786,-0.30097678,-0.08169068,-0.053362343,-0.21880803,0.13178186,-0.027661387,-0.25575757,-0.22661977,0.04745755,0.21132459,0.10118563,-0.14355233,0.08986122,0.15808074,0.08261291,-0.034612514,-0.058462285,0.1412432,-0.051089298,0.109094575,0.09689062,-0.006411124,-0.07458631,-0.2865153,0.23632763,-0.021837678,-0.19405241,0.15749049,0.075163476,0.27175897,-0.1633429,-0.15435363,-0.097454324,0.111896835,-0.12765072,0.08172173,0.012385734,-0.21103626,-0.050054748,-0.040757857,0.24842462,-0.21123675,-0.14795575,-0.15695663,0.084766574,-0.15745881,-0.15280318,0.036823507,-0.015813531,-0.3430406,-0.050041437,0.077384755,-0.0076203276,0.35821238,-0.36787513,0.053329572,-0.094138846,-0.030338151,-0.15752505,0.09838475,0.118831545,0.01843333,-0.08239042,-0.02037428,0.12923317,0.13578321,-0.4857687,0.06821869,-0.08725707,-0.05848849,0.04474235,0.059219327,-0.11503229,0.20238271,-0.036082637,-0.15101138,0.1562532,-0.21985589,-0.076426424,0.12472264,0.05039969,-0.18870994,0.0017897686,-0.17867096,-0.15437987,0.080652826,-0.18483207,-0.065467596,0.38999334,-0.1097359,-0.001556098,0.24024697,-0.13976254,-0.27670512,-0.02543178,0.24306217,0.15335497,-0.43075702,-0.15230517,-0.25601426,-0.3275433,0.16262224,-0.115654856,0.28609958,0.18002015,0.079865076,0.05580093,-0.005475491,-0.23750724,0.09877593,-0.034815703,0.08525861,-0.0015984582,0.12740314,-0.033000126,0.005960221,0.26049447,0.034490988,-0.04711765,0.020746188,0.26769108,-0.009173228,0.011891525,-0.011629321,0.15369298,0.021397244,0.030596135,-0.26452658,-0.15267329,-0.20619056,-0.13173667,-0.20588021,0.19516398,0.000180561,-0.004779041,0.1953822,-0.020795437,0.12951131,-0.181811,0.28166574,0.05926542,-0.10016395,0.09532883,-0.22862406,-0.044089843,-0.0016850538,-0.08986739,0.13641223,-0.10454953,-0.23794082,-0.27383307,-0.21232174,-0.20935187,-0.0093729235,0.032733962,-0.12310496,0.012191883,-0.062345095,-0.039653413,-0.22298564,-0.051768005,-0.113368034,0.03630347,0.09771106,0.12207174,-0.22495961,-0.0011997863,-0.032208975,0.041483313,0.05290169,-0.0059687016,-0.18865769,-0.21916553,0.009800944,0.105711505,0.26458365,-0.04962757,0.06527902,0.0665206,-0.014692477,0.22785592,0.06533522,-0.030713191,0.043430947,0.05388416,0.33361152,-0.04979983,0.28923967,0.1493101,-0.20316297,0.10609411,0.15194868,0.17965189,-0.070805624,-0.04859598,0.08685709,0.17246081,0.055523295,0.24371547,-0.09849832,0.00178179,-0.2888452,-0.16285384,-0.085126534,-0.1429843,-0.014622269,-0.17542069,-0.010904264,-0.18037921,0.057210006,0.024028942,0.1244847,-0.10631371,-0.26654184,0.14584324,-0.07924078,0.09315588,-0.02794196,0.050357826,-0.19551095,0.09267854,0.07758856,-0.14617829,0.41829622,0.018897785,0.32105234,0.009537864,-0.068102,-0.07819391,0.026384937,0.021079581,0.28524828,-0.13754189,0.029423453,0.14442922,-0.21602865,-0.06985726,-0.24066739,-0.018308839,0.014410488,-0.022668852,0.023747975,0.070067994,0.08129252,0.11575907,-0.03797083,-0.072319046,-0.16463159,0.14665459,0.033284876,0.31970713,-0.06907017,-0.2670087,0.07020682,0.015860682,0.2770066,-0.20837334,0.004643287,-0.07733799,0.057503313,-0.04605963,-0.25235024,0.013004732,0.10814127,-0.2271329,0.1632972,0.0054183747,0.07203376,0.12946294,-0.17936036,0.009328445,-0.0007628147,0.13918166,0.022921756,0.13800311,-0.022788811,-0.18921962,-0.20538107,0.06663095,0.07773294,-0.116174325,-0.41753697,-0.14516068,-0.25031736,-0.012991238,-0.3632845,-0.021299658,-0.13200931,0.16430293,0.1794152,0.07840087,0.0117247505,0.05064358,-0.24327153,-0.24844483,0.13976434,0.032099873,-0.07321083,-0.013509497,0.084926985,-0.102131166,0.020370284,0.03569917,-0.10272465,-0.2047963,0.11022106,-0.14356643,0.15342076,-0.33189443,0.050620023,0.06678086,-0.13890879,0.19439434,0.11225883,-0.35407695,-0.05221647,-0.051447712,0.040589284,0.22509691,-0.04203338,-0.1731025,-0.091843635,0.041436773,0.3241264,0.029108789,-0.08436391,0.074626826,-0.15340236,0.13982613,0.014495441,0.0572979,0.11225868,-0.070213735,0.0015476346,-0.024224618,0.07765715,-0.07121375,0.08194446,-0.36449447,0.25584146,0.1972334,0.063642554,0.0021218115,0.21206445,0.001534869,-0.10634347,0.08930871,0.0108662695,0.033975773,0.0770376,0.015675077,0.10905112,-0.0597514,0.08975613,0.24792878,-0.1060668,0.16334844,0.022070121,-0.08232762,0.21039589,-0.11003934,0.1943601,0.21219082,-0.011165361,0.2720532,0.14870284,-0.29021823,0.17350645,-0.29938877,-0.22026902,0.24333633,-0.07520683,-0.07382913,0.08733664,0.2768106,-0.100078315,-0.16988759,-0.23824982,-0.10753853,0.17589943,0.040264044,0.0023745676,0.037124798,0.012062376,0.028934369,0.1378223,-0.050641388,0.173248,-0.10082834,-0.059254784,0.2808137,-0.14597453,0.11730928,0.066470146,-0.13547379,0.25531787,-0.05497581,-0.04850513,0.16611202,-0.026915452,0.011368286,0.17580272,0.006767043,-0.35692644,-0.04817188,0.03166198,-0.07677005,0.25815848,0.29243213,-0.3024549,0.067694545,0.21600714,-0.06772881,-0.02962092,-0.03926828,-0.16972508,-0.019032037,-0.15252146,-0.04146253,-0.21217716,-0.044871908,-0.16364364,-0.052865725,0.1571008,0.12856384,-0.2622348,-0.1640767,-0.3444242,0.053827427,-0.33677223,0.010217774,0.1846361,0.07946285,0.1798197,0.20497717,-0.09819038,0.27284008,0.14438285,0.3216188,-0.14286762,-0.21554334,0.10884923,0.072925046,0.0010144813,-0.0761292,0.23625971,0.11664318,-0.08736381,-0.008710557,-0.3258045,0.022263648,0.10731762,0.2448709,-0.06950987,0.044188134,0.15794186,-0.016460402,0.07151564,0.06527374,0.15030316,0.026782803,-0.011328088,-0.081307426,-0.03001412,0.023136672,0.12598221,0.08817415,0.254813,0.3301076,-0.07115986,-0.020109547,0.081174225,-0.08998938,-0.06236428,0.027645696,-0.20547949,-0.01915213,0.16018642,0.018699452,0.125153,-0.046561908,0.05026567,0.07666616,-0.119394794,0.21866651,0.28416938,0.40221912,0.101403914,0.11531929,-0.19694364,0.11820454,-0.09409469,0.2208646,-0.107300006,-0.13948482,0.28016183,-0.030104216,0.16496837,-0.089547195,0.2676882,0.87947416,0.16450177,0.12700197,-0.07684339,0.015960312,-0.11529699,0.14463079,-0.09381631,-0.053321753,-0.18317364,-0.12119702,-0.23028052,0.19962196,-0.09334057,0.087220185,0.28028014,0.23622717,0.044109657,0.2556538,-0.058446497,0.07232507,0.021246,0.07675255,0.04932501,0.044183258,-0.07304923,0.07842808,0.005620073,0.12609151,0.14828053,-0.0087432545,0.04680176,-0.16246824,0.10354574,0.11679154,-0.09423896,0.16526923,-0.10417483,-0.023236098,0.24669431,0.13013285,-0.18118656,-0.07226979,-0.120688744,-0.18724747,-0.005110035,0.04426462,-0.18903077,0.22215009,0.014439362,0.10915481,0.039412387,0.019286534,-0.16636102,0.0480313,0.0022923285,0.11100353,0.046216782,0.07958214,-0.008568503,0.07809234,-0.026908757,-0.071116865,0.19477707,0.2880208,-0.09832979,-0.022659393,0.051473018,-0.31781656,0.102578,0.2512581,0.0054691327,-0.1285471,0.14241171,0.15108146,-0.22875977,0.04140216,0.0385075,-0.13339731,0.058194168,0.03746935,-0.002733129,-0.037342,0.085077055,0.41973808,0.077307194,-0.029292762,-0.0104198195,0.012975517,-0.041932046,0.14213346,0.02598836,-0.18234277,-0.17342135,0.07196853,-0.094366916,-0.04510128,0.12673649,0.1442464,-0.16567022,-0.080828175,-0.19451994,-0.09508169,-0.17365628,0.020250533,-0.06436244,0.16284657,-0.003333541,-0.044955272,-0.045566466,0.05515028,0.22144845,0.20548871,-0.076778084,-0.15924506,-0.30973458,0.22847235,-0.25469458,-0.028741328,-0.10547272,0.3545537,0.23993926,0.22769739,0.054462682,-0.09833343,-0.06983664,0.033352334,-0.0337644,-0.24286573,0.003587394,0.11669165,-0.03394206,-0.0067514703,-0.037027463,0.023797235,-0.20638104,0.01666749,0.065649085,0.058709435,-0.21570131,0.9219077,-0.02370729,0.10824893,0.1976181,0.2205672,0.32347107,-0.05729463,-0.19774926,-0.037763584,-0.2207729,-0.14179845,0.09571307,0.021648042,0.072078995,0.069840066,-0.033495784,0.026120989,0.102277026,0.0324381,-0.21902609,-0.044406313,0.091412894,0.09358509,0.07403986,0.28049564,-0.26087087,-0.08948193,0.021490833,0.02199427,0.1505033,-0.08470484,-0.12025682,0.025686247,-0.12865286,-0.057223275,-0.12343817,0.003478779,-0.060168263,-0.024457932,0.1330298,-0.16975464,0.07047171,0.06659603,-0.061658084,0.21694836,0.08635043,0.07795694,0.04312739,0.066317484,0.19985466,0.020257438,0.06128606,-0.017332453,-0.18827322,0.00029888173,-0.17099378,0.029963246,0.07205821,-0.13339919,-0.025768157,0.041204724,0.21445769,-0.19998394,0.105304666,0.038702566,0.059173107,-0.1154026,-0.088192396,-0.28998312,0.13910717,0.32270902,0.025217881,-0.02115293,0.027990948,0.20852973,0.15662049,0.23744908,0.12774797,-0.07783901,0.056615777,0.04743084,-0.07632355,-0.061736777,0.13752416,0.0936223,0.13914287,-0.3148114,0.17495556,0.052765336,-0.012497587,0.09855046,-0.1929214,0.022505881,-0.16847587,0.11052071,0.2985346,-0.16910629,0.263676,0.08707155,0.24941997,-0.023349617,0.07288534,0.3354276,0.06780632,-0.116308354,0.103391126,0.069765784,0.035865635,0.0013846004,-0.034481935,0.11990999,-0.08347998,0.31128705,-0.02974841,0.14662062,0.1335716,0.24210761,0.16324036,0.07885273,0.039107706,0.020820212,-0.10918189,-0.11152373,0.26720345,-0.19618627,-0.008130262,0.17395453,0.023067854,-0.07704797,0.091542676,-0.15779057,0.13216302,-0.028931651,0.11738194,0.11063867,-0.13957618,0.35226625,0.3212736,0.15405644,0.14966261,-0.06406119,-0.027320443,0.058727715,-0.09043909,0.07618582,0.1162134,0.17035061,0.010425148,0.2992205,0.028543068,-0.04814063,-0.14149652,-0.0030582433,0.1219185,0.07945455,-0.10855863,-0.023869203,0.104895964,-0.06888815,0.017560525,-0.023434462,-0.10972958,-0.21759221,0.17588615,0.1459718,-0.018234685,0.038211208,0.077999644,0.14043255,0.028329602,-0.10070639,0.08509382,-0.018488688,-0.13135421,-0.0018786083,-0.024403935,0.27500793,-0.1709883,-0.11592015,-0.32756338,0.023887442,0.0423226,-0.07887511,-0.3066707,0.256637,-0.35062593,-0.16325936,0.2452971,0.2099119,-0.074949354,-0.08706777,-0.01815559,0.25493982,0.2225457,-0.020426363,-0.100797705,-0.32703748,-0.22973219,-0.32669994,-0.11559356,-0.020421987,0.1832242,0.11816488,0.19878642,0.15777707,0.07942376,-0.15282232,0.010123247,0.31707457,-0.19867079,0.23789707,0.18053459,0.05874028,0.050810464,0.047943097,-0.008816501,0.024267428,-0.2249339,0.1907296,-0.263197,-0.15256716,-0.0811106,0.42007938,0.080934,0.19181412,0.25104707,-0.095465094,-0.10166482,-0.0427496,0.029343512,0.23824573,0.2922816,-0.20941445,0.011386389,0.2104687,0.12498373,0.4520884,-0.009895287,0.039951026,-0.017709928,0.13453653,-0.031034786,0.056109373,0.022202058,-0.13794985,0.05436778,-0.083169155,-0.08656504,0.025370637,-0.019263536,-0.10259233,0.034856416,-0.07181725,-0.013648152,0.19404897,-0.30843025,-0.20161629,-0.19986944,-0.2776958,0.18198001,0.13358474,0.21314143,0.00043061917,0.100729495,0.22994334,0.3133499,0.047516085,-0.1255672,-0.08718753,0.43908045,0.25888008,-0.01717804,0.06429429,-0.1574549,0.12266462,-0.094664305,0.2266777,0.00095845474,-0.092415854,-0.042312995,0.12410558,-0.22351953,-0.18094939,-0.16002297,-6.945407,-0.25323403,0.08834088,0.16344944,-0.031024322,0.025788087,0.0004306491,-0.24078532,0.32038304,0.06392913,0.3349764,-0.20046113,0.055061392,-0.03216135,0.17404361,0.12181602,0.043913476,-0.015523565,-0.18312559,0.3003641,0.016589195,-0.22354752,0.23324166,-0.05347251,0.02795037,0.06468603,0.21672311,-0.121141665,0.07889593,-0.18448181,0.022956772,-0.10908303,-0.0662322,-0.0667551,-0.12029358,0.07945257,-0.015890583,0.1450216,-0.046378065,0.11952106,0.026170209,-0.21811849,0.019251745,0.23724382,-0.013117161,0.021847852,0.026375638,0.01593434,-0.07223808,0.17637372,0.40579626,-0.20508689,0.12802537,0.25984454,-0.06629492,-0.1333017,-0.031290554,-0.11113314,0.056283284,-0.16998208,-0.29227257,-0.20411175,-0.28245047,-0.05470171,0.027455712,0.114329465,0.17449266,-0.04091184,-0.021589575,0.020492386,0.4524448,0.12044275,-0.12536155,0.0033045309,0.34425572,0.17925088,0.003237456,-0.038492717,0.10200796,0.17696209,0.05530735,0.3591174,-0.22305432,0.006740123,-0.12879807,0.094435416,0.020398675,-0.14374262,-0.11869333,0.1603121,-0.11090879,-0.27600637,-0.18870641,0.079328984,-0.21147159,-0.13943918,-0.042536758,-0.101570494,0.19774573,-0.042967666,-0.21604252,0.108897544,-0.15200019,0.069763914,-0.057732865,0.054498807,-0.041447755,-0.028480673,0.04343369,-0.019649127,0.24890274,-0.1995536,-0.13000432,0.14316796,0.07878338,-0.1521476,-0.29756165,-0.11033977,-0.13630371,0.18166435
ALA_5_A,0.049792424,0.20552924,0.07393821,0.117850654,-0.42229256,0.066100545,-0.015192952,0.19453876,-0.09983448,0.17265317,-0.16510145,-0.07923131,-0.0045891698,0.10746756,0.071330965,0.25879934,-0.13736933,0.04025202,-0.06503738,-0.16672225,0.15814082,0.22645727,0.24311206,-0.09571637,0.13824,0.03451732,-0.009598504,0.05423193,-0.10119202,-0.062976226,-0.34848478,-0.1448553,0.011453665,-0.2609941,-0.18901667,0.16984999,-0.13501908,0.07863575,0.09640634,0.042467676,0.14114311,0.033028856,-0.03073575,0.05055799,0.070142835,-0.13291667,0.14882591,0.44146073,-0.18554291,-0.13897556,0.04580241,-0.22975346,-0.035123367,-0.33387402,-0.07116016,0.15975218,0.0234781,0.16977458,-0.0016818781,-0.1538012,0.076931395,-0.0789984,-0.11742823,-0.2579715,0.114871755,-0.05616399,0.015285597,-0.017433904,-0.020467745,0.13174714,0.004338928,-0.0076140007,-0.35291955,0.0295586,0.23605816,0.05051738,-0.0055219117,0.012454988,-0.1090402,-0.093546525,0.21531379,-0.34286988,0.08327842,-0.020674422,0.091848195,-0.07682126,-0.16421174,-0.23162487,0.02416227,-0.0014442299,0.19046445,-0.0138417315,-0.21435578,0.07636919,-0.09428624,-0.027809504,0.04643123,-0.098438226,0.12412057,0.18978041,-0.09556166,0.21962419,0.08951305,-0.019758357,0.117534295,-0.11796745,-0.17370145,0.12393709,0.031832464,0.036719456,-0.03689977,0.117570035,-0.0076932316,-0.14162771,-0.024336655,0.22072217,-0.12779915,0.0094496375,0.16533373,0.42037755,-0.022932483,0.06779225,-0.021002403,0.29750896,0.12956412,0.1507326,-0.121163875,0.0006725676,0.007851437,-0.2530103,0.06354157,0.1475395,-0.295399,-0.1873837,0.079760805,0.2305945,-0.07653598,-0.09944648,0.17017297,0.20318069,0.00946322,0.16679148,-0.09290928,0.050040543,-0.022407243,0.10772968,-0.008010829,0.1431156,-0.0076673096,0.18581973,0.024449373,0.030479696,0.12394561,-0.09158419,0.12198852,0.10172467,0.13155065,-0.029988127,0.15323326,-0.23748815,-0.015111244,0.07727948,0.024618102,-0.16035387,-0.055132516,0.05128124,0.15044463,0.15192868,0.16241717,0.25769728,0.033694465,0.034125347,-0.008056723,0.09813375,-0.23318128,0.1543256,-0.123674095,-0.13892259,0.23745412,-0.10491275,-0.011343791,-0.085753575,0.21002902,-0.26112738,-0.17741708,-0.108595535,0.053467844,-0.2975698,0.06537547,0.16963421,-0.0985444,-0.06892056,0.04363305,-0.06444152,0.12883309,-0.20033503,0.05555097,0.16119853,-0.279689,-0.09384606,-0.036235135,-0.38648707,-0.07401948,0.043413058,0.1654611,0.04104046,0.033762358,-0.0136845615,-0.21886952,0.0020950157,0.24711625,0.026421936,-0.12641647,-0.12074799,0.06797205,-0.048285294,0.05531101,-0.19304223,-0.049253624,0.014882997,0.08554002,-0.18111818,0.4389443,0.22399351,0.16318831,-0.08495946,0.0545646,0.04907995,-0.26446298,0.3017267,0.1608334,0.09924762,-0.34419236,0.08839107,-5.607385,-0.18647052,-0.16417903,0.11062382,-0.010960278,-0.2943651,0.10841396,0.02706413,-0.19132689,0.03680129,-0.109593734,0.029039143,0.079981685,0.17680016,0.08876549,-0.021149961,0.050492976,-0.047645055,0.060308997,0.16378573,-0.08134476,0.34501636,0.0152434725,-0.07425022,-0.050313905,-0.37607554,0.2578577,-0.14642458,-0.055438407,0.015249913,0.048282057,0.25035864,-0.22692306,-0.046333637,-0.10099968,-0.028658532,-0.02844462,-0.0077562016,0.10553584,-0.1367533,-0.08524155,0.068204895,0.12680593,-0.06381856,0.052657954,-0.17103519,0.17356004,-0.14989375,-0.2048896,0.09637655,-0.06331475,-0.1981553,-0.029639274,0.1289348,0.03413199,0.2722164,-0.10826033,0.0905102,-0.106190905,-0.1515904,-0.0030766896,-0.07956178,-0.02604345,-0.13979475,0.15282068,-0.08062635,0.099639796,-0.036565132,-0.12839174,-0.18065669,-0.004512773,0.27726173,-0.115318105,-0.055562858,-0.24998869,0.07963866,0.20054466,-0.16651428,0.027394999,-0.05931922,-0.03881079,-0.26461998,0.15300864,-0.09716264,-0.036929622,-0.07658115,-0.03490358,0.015531223,-0.27405313,0.087623455,0.26102254,-0.14381993,-0.024229033,-0.11430024,0.03156198,-0.2139262,-0.13223295,-0.054405037,-0.15119967,-0.15842235,-0.26543546,-0.109288216,-0.076391585,0.18514147,-0.016060302,0.0504976,0.32916358,-0.043507833,0.04303369,-0.09341675,-0.19840461,0.14146991,-0.06427972,0.0010103944,0.037463088,0.060536873,-0.041983258,-0.035003442,0.19038914,0.028091133,-0.22578453,0.017719595,0.096425705,0.07388423,0.02381848,0.09479771,0.47477633,0.08288409,-0.003736222,-0.22815911,-0.31874648,0.020492597,-0.10812415,-0.1540722,0.26601982,0.07175297,-0.06896142,0.023587963,-0.07164302,0.0028840299,-0.2446605,0.20213081,0.050919086,0.00019623763,-0.058125615,-0.1464417,0.0041134357,0.007864437,-0.20519699,0.26131955,0.02788606,-0.11625958,-0.23525329,-0.1012923,-0.08441619,-0.09001159,-0.08650741,-0.12720434,-0.05173377,0.039809316,-0.07454449,-0.17083983,0.029500103,0.0008717245,0.082622424,0.05510827,0.14696255,-0.044452745,-0.31082872,-0.030614821,0.08302633,0.036118638,0.100977,-0.10585573,-0.051708676,-0.009453322,-0.022643453,0.03295992,-0.16920584,0.2292859,0.18020283,0.008286365,0.17730093,-0.10726359,0.10559724,0.21994624,-0.20913833,0.32335722,-0.23027933,0.1383052,-0.020932242,-0.14264682,-0.046799064,0.24064496,0.0006062543,-0.1448094,0.11756053,0.003525778,0.28225625,0.07522884,0.09236146,0.009731853,0.18390308,0.047546912,-0.08920199,-0.011635359,-0.23878965,0.0907871,-0.4140606,0.050631884,-0.3786426,-0.24819411,-0.05950981,0.105568774,-0.06374096,-0.1547938,0.05386753,0.06126349,-0.035967074,0.063499585,0.057240065,-0.05843324,0.2885716,0.3086422,0.02866423,0.24236271,-0.081042655,0.28778353,0.075965665,0.1896693,-0.09164611,-0.128047,0.09634966,0.13361911,0.013591314,0.2280925,-0.019200776,-0.15219079,-0.040829793,-0.036812887,0.12272136,-0.09094997,0.114489265,-0.039512068,0.07630447,-0.017133866,-0.03260797,-0.0057391915,0.034015145,0.05741711,0.12955905,0.3039069,0.19107698,-0.03186976,0.00960483,0.032792795,-0.1646583,0.14435448,-0.0640937,-0.006421132,-0.1287604,-0.1317456,-0.10299979,-0.16948661,-0.21333735,0.40253344,-0.18109006,0.26119816,-0.015468116,0.14388603,-0.029264562,-0.11953668,-0.06314534,0.23741771,0.13369066,0.18252458,0.18014546,-0.014170226,-0.15760633,-0.020092538,0.1264023,-0.06506327,0.12727419,-0.240728,-0.08255524,-0.11808907,0.020160062,-0.11367142,-0.121077076,0.08307814,-0.014001189,0.09852718,0.15162823,-0.019562433,0.09887119,-0.119575106,-0.07532409,0.36857367,0.1713188,-0.029342163,0.13446884,-0.029536389,-0.18774042,-0.16468652,0.03374295,-0.12519486,-0.31069922,0.10079241,-0.027230775,-0.023693258,-0.30991122,-0.109737076,0.2549302,0.18552354,0.26724172,-0.03876238,-0.13469972,-0.044720653,-0.23407473,-0.11841538,0.27710786,-0.1564352,-0.25383624,-0.13239124,0.016111828,0.04698163,0.15227842,0.08023069,0.13326226,-0.092269585,0.044178896,-0.16600482,-0.07029747,-0.129258,0.020856474,0.23960698,0.09965385,-0.13757625,-0.13202131,0.24325399,-0.19567007,0.3275643,0.10164612,0.108594626,-0.13029188,-0.022739349,-0.15478387,0.066955656,-0.023002593,0.13553952,-0.03661291,0.29698405,0.06740956,0.25191933,-0.074336484,-0.01614555,-0.0046860576,0.07793292,0.09232332,-0.25674707,0.0618503,0.38838434,0.010590055,0.13698259,0.034811493,-0.12457077,0.14292553,0.2611261,-0.11725867,0.20919888,0.048552666,-0.17718768,0.22715475,-0.300947,-0.13077857,0.22529005,0.2268304,-0.086138785,0.030033693,-0.026389515,0.012815017,-0.035858016,0.09089476,0.02613612,-0.15580545,0.010363827,0.14512385,0.1543058,-0.023792045,-0.036038864,0.026532555,0.07864043,0.2782558,-0.37496176,0.13136205,0.008632785,0.095948935,0.12331831,0.04317135,0.13880768,0.164109,0.104543425,-0.06426058,0.01532688,0.06791227,-0.16024238,-0.012780803,-0.03420348,-0.09034317,0.30554873,0.11573755,-0.27239758,0.21885814,0.03914868,-0.2336412,-0.003604028,-0.008900217,0.17916898,0.040009174,-0.1871606,0.050204813,-0.045632247,0.25750995,0.02240184,-0.1829016,0.079488866,-0.1754438,-0.15006128,-0.17303908,-0.1856864,0.13440067,-0.06366504,-0.10855723,-0.12463402,0.09416709,-0.10196787,0.13673027,-0.025263645,0.13128777,0.26659837,0.18999794,-0.14289856,-0.058767784,0.050419766,0.012093094,0.13640079,0.06937418,0.11347033,0.13465834,0.0679774,-0.1206606,-0.10632873,0.029113032,0.10205273,0.07914517,-0.031731505,0.2670534,0.26199615,0.14456019,0.012824956,0.17065242,0.14006086,0.11411802,-0.079489045,0.22734873,0.037942972,0.04271243,0.10505851,0.1491946,0.20890652,0.34117484,-0.1840094,0.09545996,0.038495403,-0.02639177,-0.060246713,-0.003308232,-0.10745804,-0.031389803,0.03569719,-0.31382355,0.14568494,-0.061705794,-0.0039131152,0.053502638,-0.2787362,0.18318947,0.19694668,0.38123733,-0.032266203,0.11649334,-0.35245964,0.01735884,-0.018497335,0.03795548,-0.1719164,-0.31936616,0.09818614,-0.1914728,-0.0545967,-0.110672995,0.05794382,0.98102844,0.23629324,0.15965798,-0.2290419,0.07393764,-0.25451586,0.1668856,-0.05906736,-0.017375689,0.026940143,-0.14456043,-0.26668563,0.03862173,-0.11016393,-0.024744127,0.34396893,0.21523586,0.01243973,0.015801044,0.027630499,0.078671,-0.025823997,-0.076970726,-0.036493696,-0.16075912,-0.09891689,0.014144271,0.112386115,0.014775969,-0.03375329,0.08309832,-0.0909214,-0.07219583,-0.09161949,0.019932484,-0.12990333,0.33530256,-0.16462311,-0.15077317,0.16947371,0.08881043,-0.05384638,0.14208959,-0.22284766,-0.2416288,0.21346033,0.017193263,-0.09473179,-0.008428953,0.05319791,0.2456658,0.053431027,0.077212185,-0.0970868,0.08715011,0.10160453,-0.14852144,0.0841156,-0.032476056,0.13229036,-0.16604523,-0.16305318,-0.09008109,0.0035919533,0.0877835,-0.13285083,-0.21481296,-0.044214975,-0.1640452,0.15441601,0.2905745,0.05258798,-0.038096227,-0.013483163,0.08407548,-0.33946002,-0.15571986,-0.04650468,-0.05892504,-0.016867137,0.012483061,0.05323684,0.11001424,0.05685947,0.2764935,0.0847512,-0.15925215,0.033097494,-0.008638098,0.14431182,0.08437077,0.15707849,0.080821246,-0.18607266,0.06438079,-0.14113793,0.10468956,0.19217591,0.05213978,-0.0022265501,0.13086644,-0.14804164,0.00698274,-0.14132047,-0.13918196,-0.09687206,0.06870342,0.13076004,0.086957134,-0.059719156,0.2699086,-0.048141826,0.1266693,-0.21448994,-0.08838477,-0.09192724,0.22861671,-0.19909073,-0.1304543,-0.026957106,0.20294607,0.2100461,0.015544885,-0.07349974,-0.13088992,-0.0578275,0.0494451,-0.10116195,-0.27281877,0.08787155,0.04133904,0.034933228,-0.0034394304,-0.10929634,-0.082256936,-0.16213383,0.24397725,0.038942363,0.049427018,-0.18507408,0.7962506,-0.048484106,0.13809347,0.0128693525,0.23631553,0.09973994,-0.2075859,0.058151625,0.0695874,-0.3963084,-0.028370334,0.15645248,-0.033562675,0.16958414,0.11400147,-0.00964543,0.20598288,0.041842375,-0.030786913,-0.060089454,0.051880475,0.031102685,0.03320632,0.107029505,0.047879145,-0.13092966,-0.12418268,-0.10227873,-0.056068473,0.06657857,-0.049614638,-0.010155375,-0.02971462,-0.30592823,0.0682846,-0.09648223,-0.03077253,-0.05008178,0.09216321,0.07838619,-0.100993454,0.13936612,0.010678887,0.071491726,0.35327244,0.013356824,0.032731105,0.13742422,0.03140801,-0.059724867,0.0038682136,-0.069864094,-0.080330685,-0.098448366,0.07933971,-0.15842946,0.054810762,-0.037274245,-0.25054163,-0.14377065,0.02054449,0.29579955,-0.26848203,-0.12089176,-0.010737558,-0.07525408,0.17056103,-0.124427296,-0.21762085,0.2014188,0.1163773,0.11938174,0.10678589,0.08668523,0.22198427,0.17583735,0.18362163,0.06926209,0.03364164,0.033571035,-0.17442903,0.05953537,-0.081405334,-0.21831687,-0.06621754,0.11009758,-0.33317,0.32418233,-0.007137065,-0.118336715,-0.00497856,-0.16688143,-0.044824924,-0.20869866,0.2805691,0.060255848,-0.14805312,0.32566094,0.250423,0.17372312,0.053619996,-0.082524285,0.115201,-0.004051457,0.16537344,0.22942649,0.20769757,0.16844982,-0.21698551,0.06497071,-0.010223144,-0.23575789,0.20486394,-0.058828346,-0.04561427,0.028676119,0.10267029,0.13145244,-0.016898029,-0.02942445,-0.019784551,-0.096127935,0.07936942,0.19766626,-0.22802499,-0.0435557,-0.12660702,-0.07620989,-0.010333103,-0.0024164554,0.097980894,0.19527407,0.025861315,0.011330035,0.38804954,-0.13088274,0.17253911,0.18048531,0.076507114,0.050016128,-0.069200814,0.071854964,0.008558361,0.17440121,0.1567758,-0.22406743,0.0022810062,-0.076681025,0.3029132,0.06433727,-0.12660623,-0.13915214,-0.21863084,0.106576905,0.103451625,-0.2238525,-0.03856189,-0.024039585,-0.0038576613,0.18746133,0.040778823,-0.09906895,-0.10082968,0.23663649,-0.111676596,-0.3936299,-0.009936219,0.10379125,0.14028747,0.055809252,0.15497474,-0.07502731,0.194917,0.037342656,-0.13483775,0.23798594,0.16023082,0.034870677,-0.058718372,-0.16880858,0.16742279,-0.008836506,-0.039345775,-0.22208914,0.024203686,0.035126768,-0.017781405,0.3548961,0.23181684,-0.015929116,0.055254415,0.296251,0.24945752,0.055820066,-0.12137849,0.028007545,-0.16371377,0.0225943,-0.17362657,0.17563397,-0.23133181,0.09689474,0.009747624,0.10416296,-0.038161892,-0.054456506,-0.3712713,0.028984856,0.33517754,-0.18981673,0.2197596,0.2597994,0.10499962,-0.06849694,-0.13416213,-0.045004018,0.08648,-0.33182523,0.0046243705,-0.007767269,0.08743083,0.2382813,0.15916409,0.07943208,-0.03197002,0.25540414,-0.13622878,-0.052770935,-0.056523066,-0.1403644,0.08834111,0.04602174,-0.17268997,-0.15531792,0.010049173,0.027370015,0.18952842,0.060538277,-0.11530178,0.13442492,-0.18592593,0.08371561,-0.048614174,-0.09514365,0.022793518,-0.00094907556,-0.14170353,-0.005490335,0.13410643,0.06622971,-0.20974195,0.25526202,0.17861535,0.0063453913,-0.08984525,-0.17598817,-0.06105075,-0.20651217,-0.2408613,0.11458014,-0.003321281,-0.036068052,0.118906274,-0.0014390904,0.12387413,0.33605376,0.053427294,-0.026082931,0.060505573,0.38782346,0.08506779,-0.023785066,0.163746,-0.06974181,0.20828775,-0.016409544,0.17626166,-0.08360578,0.20646726,-0.19895792,0.13029084,-0.16629645,0.020709964,-0.3083394,-7.180599,-0.06390746,0.0717181,0.013941869,0.060217552,0.13826723,-0.02476563,-0.091092534,0.18067007,0.10344146,0.39576223,-0.17105573,0.024898909,-0.1130576,0.15634285,0.0674273,0.17202713,-0.29359484,-0.19040248,0.14286916,-0.08869287,-0.2592237,-0.12493258,-0.002762496,0.0031364893,0.029410278,0.15273605,-0.12901407,0.28882602,-0.11465365,0.074360654,-0.17455602,0.08344049,0.185288,0.054455794,-0.13757826,0.08986464,0.07828625,0.05110775,0.12521355,0.021757398,-0.062725194,0.013100777,0.062007844,-0.020709325,-0.094009906,0.18320154,0.0027437948,-0.13976276,0.14983784,0.23421535,0.024541428,-0.14344168,-0.043765444,-0.06517721,-0.058702067,-0.03712732,0.022331912,-0.03301775,-0.27413368,-0.20883507,-0.22553892,-0.35893744,0.00038723435,-0.10313984,-0.0037681079,-0.012430915,-0.0019350715,0.07266776,-0.032648526,0.37862685,0.17664005,0.023833642,0.21365799,0.29310915,0.16351016,0.07255564,-0.14184493,0.26988414,0.2204483,-0.009883697,0.18125005,0.003978743,0.03324338,-0.04347849,0.09973799,-0.16568176,-0.063919865,-0.19388686,-0.107123144,0.20614189,-0.34702525,-0.12191676,0.24756198,-0.10789725,-0.15304129,-0.15300418,-0.27031285,-0.07264763,0.15022479,-0.19549318,0.1662696,0.017589293,0.13993536,0.045227453,-0.110386275,-0.14368379,-0.049379464,0.053346843,0.08618389,0.1401689,-0.19112274,-0.28335413,0.10146179,0.05872893,0.1785756,-0.19117445,0.031845022,-0.04624594,0.26497528
ALA_6_A,0.081718,0.18345094,0.057080228,0.119111836,-0.46151376,0.060020395,0.0547833,0.21757482,-0.03881629,0.16590025,-0.022602446,-0.079166844,-0.074192025,0.04652435,0.0158415,0.21971893,-0.08897704,0.086264476,-0.034149993,-0.089492075,0.20814547,0.12042123,0.19714083,-0.026165178,0.06183448,-0.009777583,-0.06710402,-0.12884769,-0.022585738,-0.10245732,-0.2090217,-0.16075598,0.18358453,-0.3167745,-0.17980929,0.17269246,-0.2006646,0.06165029,0.03452341,0.014995796,0.15345031,0.018313091,0.033194773,0.1664036,0.18572935,-0.20502645,0.2018686,0.4162689,-0.06229909,-0.11299309,-0.0007731173,-0.163626,-0.097910985,-0.24525532,0.0018221632,0.1659891,-0.040487535,0.14674199,-0.047286388,-0.30175096,0.06627525,-0.019580655,-0.18885641,-0.26292837,0.2540163,0.03143316,0.13132346,-0.091161914,0.02783721,0.08641317,-0.020594472,-0.04204567,-0.34684375,-0.076887704,0.18401687,-0.06491449,-0.052286126,0.04636134,-0.021171618,0.013967924,0.04423082,-0.21941303,0.033946864,0.09796989,0.10039436,-0.14483081,-0.1909548,-0.070036836,0.1294311,0.0943696,0.23855,-0.09473599,-0.30688193,0.12324497,-0.21071222,0.013657252,0.09697891,-0.18789949,0.07770439,0.029899357,0.0017834788,0.20048915,0.107232094,-0.10910786,0.17633651,-0.062241655,-0.15884754,0.13038932,-0.0634801,0.116549075,0.020805553,0.15574114,0.028396886,-0.16185,0.09763097,0.12502602,-0.00493138,0.2010088,0.06495777,0.3230792,0.014377508,0.10131387,-0.0015762903,0.21203913,0.06807817,0.15947735,-0.087135546,-0.07337227,0.041440032,-0.18459815,0.12754239,0.07345494,-0.23925678,-0.20655517,-0.01713345,0.15988633,0.0585952,-0.023812115,0.1012497,0.14480394,-0.12045686,0.20024066,-0.16549718,0.18640114,-0.1297003,0.15732282,-0.08736707,0.07362372,-0.1284036,-0.036117725,0.10820459,0.021698412,0.29053983,0.10553895,0.10392358,0.20215037,0.10473733,-0.012492997,0.17303611,-0.34237325,0.053604417,-0.01148403,-0.00947773,-0.14065877,-0.08835672,0.088026136,0.086425535,0.3057394,0.27602074,0.13465373,0.09289697,0.13916792,0.14323474,0.049573723,-0.094236806,0.30901167,-0.07691272,-0.20080815,0.19522703,-0.10959116,-0.14103948,-0.06365256,0.092399925,-0.1852285,-0.3887613,-0.08016328,-0.031432997,-0.32872346,0.0852548,0.3150526,-0.049465768,-0.061082825,0.021129025,-0.072026685,0.11540691,-0.10072093,-0.099828,0.023866719,-0.21416885,-0.07749534,0.016417168,-0.3072236,-0.23400617,0.19278799,0.14721909,0.036531445,-0.024183879,-0.08943784,-0.1869006,0.07715049,0.3357694,-0.096512,-0.051241737,-0.05029872,0.16018334,0.04778703,0.010761603,-0.110432565,-0.056288227,0.16176014,0.13075376,-0.2425304,0.44756368,0.15727042,0.2597546,0.029457886,0.0158807,0.1107224,-0.34904426,0.3132683,0.2474883,0.07136644,-0.1363236,0.027265936,-5.457235,-0.060900133,-0.068039276,0.1464856,-0.06967753,-0.34298354,0.08490714,0.018462572,-0.0772269,0.092499755,-0.15106885,0.006006494,0.10689929,0.25266594,-0.05302449,0.17009127,0.21183312,-0.04266936,-0.05166973,0.21966065,-0.17643748,0.23838367,0.14997132,-0.08285964,-0.063603014,-0.4661887,0.24258098,-0.12909018,-0.07350312,-0.043517403,-0.0022561885,0.060053445,-0.14713015,-0.15311484,-0.1733414,0.002237805,-0.02984275,-0.15025228,0.07347973,-0.13862428,-0.013019987,0.012256873,0.15914571,-0.10863498,-0.034295794,-0.09498451,0.20667659,-0.1613006,-0.13554943,0.17825033,-0.060219605,-0.30876988,-0.11388022,0.033891376,0.017303223,0.1848824,-0.037817944,0.19758771,-0.10008995,-0.118571006,-0.028069137,-0.031997755,0.017161783,-0.039183192,0.15706596,-0.056102812,0.040060546,-0.06405561,0.027569955,-0.2938621,-0.00409424,0.30149445,-0.09418572,-0.0065127164,-0.22005573,0.11783881,0.28619397,-0.09427726,0.08147392,-0.008207394,-0.13900551,-0.24407654,0.049464565,-0.0858666,-0.062024206,-0.09886414,0.09455146,-0.027621998,-0.19449657,0.06834691,0.3733336,-0.05176718,-0.09051182,-0.060577806,-0.014092351,-0.27092066,0.08104356,-0.1768346,-0.05332545,-0.2249616,-0.21307583,0.055835202,0.07350907,0.07623306,0.118781745,0.07062447,0.3483168,0.02421739,0.071366794,-0.05930612,-0.09908139,0.31241027,-0.14555368,0.055655424,0.1086923,0.093110286,-0.046728626,0.005004275,0.2665423,0.028442167,-0.3386157,0.045931716,0.051651828,0.08018121,-0.00087047444,0.06575784,0.5121521,0.09907535,0.10912222,-0.21870558,-0.23344019,-0.12592457,0.036497615,-0.16731562,0.32441488,0.14291242,-0.013552636,-0.005777062,-0.107146,-0.16318232,-0.3390059,0.27186948,0.06876134,0.062421244,-0.16596967,-0.20460704,0.098993696,0.059051856,-0.2891986,0.2515466,-0.03387146,-0.00824507,-0.19801985,0.011811477,-0.025401527,-0.10513705,-0.05485857,-0.013282288,-0.0820574,0.063972175,-0.036419503,-0.12246171,0.120206945,0.11101877,0.15209201,0.057875704,0.16267045,-0.09423935,-0.31849912,-0.06107211,0.077557385,-0.02351025,0.029715348,-0.12792656,-0.08847025,0.005082788,0.008608775,-0.039702073,-0.20021494,0.14732681,0.21024357,0.029309105,0.23257242,0.006248119,0.14678709,0.21638463,-0.43622363,0.29277277,-0.3258364,0.06353351,-0.007562803,-0.06460189,-0.10318996,0.06608668,0.0913294,-0.33521155,0.13001187,0.07231593,0.28653696,0.009598232,0.08883372,0.038991638,0.083426885,-0.0073436927,-0.10521773,0.07579672,-0.18408905,0.16641343,-0.20128728,0.027096752,-0.354784,-0.19661893,-0.025188137,0.087345086,-0.0963371,-0.17734966,0.09806815,0.17868975,-0.016457995,0.056755874,0.09940441,-0.14349782,0.11149878,0.30375484,0.056137085,0.19484799,-0.11899846,0.23382373,0.1287606,-0.040711198,-0.0998247,-0.11781569,0.1174206,0.11144722,0.02876288,0.02173405,0.0062964344,-0.12484832,-0.03847276,-0.12650178,-0.101140596,-0.02956694,0.012493047,-0.023345832,0.16791064,0.0666171,-0.175908,-0.020848596,-0.08433641,0.016388712,0.13608086,0.28945658,0.06914418,-0.039710984,-0.0073869447,0.04254002,-0.017294873,0.036165204,-0.094734885,-0.059248894,-0.037728436,-0.07037609,0.012547776,-0.1962565,-0.050987124,0.42265487,-0.25552392,0.23875847,-0.064327,0.08126955,-0.060774896,-0.11950434,-0.13953337,0.2123187,0.117516674,0.1459722,0.21844979,-0.03255543,-0.15939963,0.02770775,0.15889688,0.04820916,0.104335,-0.22798787,0.107961744,-0.20219062,-0.058770597,-0.055397164,-0.09301243,0.013773371,-0.08924878,0.073432304,0.058594745,-0.032128755,0.043737296,0.023852335,0.14715432,0.44211906,0.09900424,-0.009724029,0.120507404,0.088348754,-0.10545733,-0.2521698,0.08923605,-0.19704345,-0.21271229,0.17257641,0.00091242866,0.10861591,-0.2891253,-0.123911895,0.2528971,0.20761736,0.3216534,-0.006695588,0.14266914,0.10015476,-0.11636618,0.039445296,0.09591461,-0.099753685,-0.13197431,-0.15552951,-0.10082491,-0.04116961,0.03933885,0.025413772,0.111326054,0.0798672,0.08866935,0.0037755063,-0.20899339,-0.049491838,0.07053701,0.16846539,0.2672744,-0.19762951,-0.058389485,0.31642956,-0.15094689,0.38530135,0.13389517,0.085441545,-0.12256514,0.03914163,-0.13747557,0.2139654,-3.168329e-05,0.19225597,-0.10843239,0.15938799,0.040803716,0.18445224,-0.09900131,-0.007824639,-0.07312124,0.018297907,0.10071244,-0.15075257,0.022294456,0.25268698,0.068764254,0.065650225,0.037558198,-0.12010654,0.1539682,0.18135294,-0.12783292,0.21835868,-0.074848205,-0.24208544,0.124681205,-0.18698864,-0.09364792,0.23379798,0.056896828,-0.09514964,0.047472917,-0.04304314,-0.09088058,-0.067502216,0.2663084,-0.06056075,-0.13546312,-0.01238979,0.04308697,0.16534334,-0.045455642,-0.024660718,0.1481833,0.09920281,0.17051466,-0.28443506,0.076126546,-0.1198483,-0.093921505,0.19586809,0.007961216,0.08165845,0.09111724,0.098914,-0.1858986,-0.11209515,0.06430935,-0.0666792,-0.112516075,-0.0530257,-0.0010972996,0.2739122,0.1500047,-0.28551775,0.26311192,0.05380564,-0.1851151,-0.13801885,-0.03922454,0.19733222,0.050108496,-0.03805232,0.12574108,-0.059054118,0.22757134,-0.010902202,-0.087098464,0.041482665,-0.23917899,-0.21473531,-0.11773405,-0.07126624,0.15989813,-0.051840648,-0.082314216,0.030931434,0.059252113,-0.055891044,0.17453784,0.05004275,0.07135676,0.21800531,0.1357152,-0.1636342,-0.031216744,0.08954848,-0.030537045,0.13644555,0.16702573,-0.044368844,0.20566025,0.045615647,0.031647533,-0.15535879,0.11092393,0.022453127,-0.08067614,0.08433804,0.09385751,0.2491381,0.041894678,0.018967267,0.12506682,0.19768725,0.008758276,0.008735292,0.10361544,0.13045615,0.07268655,0.21860082,0.09216009,0.17279129,0.35397598,-0.17632394,0.123275496,0.049821407,0.017394254,-0.09041821,0.027127715,-0.1394769,-0.03995437,-0.022669647,-0.20102867,0.12497465,-0.015826566,0.05751723,0.0188659,-0.28164163,0.19763964,0.09623928,0.30791143,0.003694062,0.19175097,-0.25242373,-0.018777393,0.036783136,-0.042624757,-0.19071229,-0.29702544,0.085945025,-0.19446099,-0.13705733,-0.14478038,0.006632849,0.8667663,0.302379,0.14101478,-0.23914392,0.17821127,-0.17625447,0.122913904,-0.05217361,0.066728994,-0.0063674343,0.028904565,-0.20755796,0.055400968,-0.0782187,-0.046095513,0.123325996,0.08915502,-0.0070111556,-0.1337074,0.009601548,0.09917778,-0.14856388,0.024911325,-0.07717172,-0.17348655,-0.15321642,0.080705814,0.11987426,-0.014329495,-0.09426472,-0.17991036,-0.14421336,-0.05676444,-0.121283956,0.002680365,-0.041114293,0.20621604,-0.17369717,-0.10904783,0.09199087,0.0871981,0.018906157,0.047918007,-0.12898931,-0.0849925,0.07092052,-0.0139038665,-0.013635786,-0.011195594,0.05461522,0.12604022,-0.07615098,0.14859909,0.009881596,-0.0040002735,0.008697079,-0.31625575,0.02631015,-0.059285846,0.14838748,-0.1946428,-0.19123377,-0.04926549,-0.13988414,0.07189881,-0.19547944,-0.17484851,-0.015967589,-0.16377963,0.17394795,0.2642312,0.068033844,-0.016411858,0.09491761,0.051093202,-0.29962727,-0.23087692,-0.007240146,0.04506221,0.019397525,-0.08843972,0.04051811,0.16804102,-0.02627147,0.21591793,0.07526576,-0.12262489,-0.012451827,-0.08778937,0.07725423,-0.09461695,-0.0488346,0.09604939,-0.03067446,0.19349356,-0.124209784,0.11008737,0.20829573,0.10560153,0.010347999,0.10880369,-0.1714867,0.14502244,-0.119275466,-0.061437245,-0.15513799,0.020060752,0.046280637,0.07077497,-0.04077043,0.3032133,-0.012126833,0.15495646,-0.29794303,-0.10228796,-0.12256036,0.036230076,-0.13079484,-0.20495519,-0.1503036,0.17182995,0.1827574,-0.008896789,0.1338649,-0.11745685,-0.22437221,0.066180184,-0.0777977,-0.27607274,0.14286225,0.03135096,0.108768135,0.13563186,-0.08184917,-0.18949535,-0.16413318,0.26336157,0.12485268,0.07962032,-0.22640772,0.8424115,-0.07858171,0.11244931,0.023161802,0.28648606,-0.07100051,-0.19996545,0.1308465,0.102199495,-0.3158656,-0.05305818,0.18727224,-0.045229673,0.1774405,0.05502125,-0.08381823,0.16579184,0.09191091,-0.01023986,0.002870061,0.04499048,0.003886985,0.09767125,0.1627134,0.11411389,-0.04998241,-0.17743714,-0.13503325,-0.04718539,-0.0012552176,-0.12627655,0.043430507,0.108762585,-0.16715933,-0.047469024,-0.020391714,-0.023485437,-0.1649998,0.022558259,0.14163214,-0.0031893936,0.057527687,0.050503433,0.07147597,0.30897808,0.032462884,-0.025163975,0.19236271,0.01953719,-0.05820843,0.01445612,-0.055905666,-0.17618048,-0.005716458,0.120883375,-0.16960582,-0.00782919,-0.018894812,-0.23613551,-0.11897961,-0.029061137,0.1602005,-0.23516987,-0.17979306,0.07987333,-0.0463611,0.1103149,-0.04816671,-0.23099025,0.20986092,0.08552897,0.11912761,0.07362305,0.16457699,0.18706773,0.12661825,-0.0008129957,-0.0451659,0.0519404,-0.043492485,-0.048651483,0.02369077,-0.061145067,-0.2756845,-0.04025589,0.0772672,-0.29515305,0.22979161,-0.036476154,-0.11329749,0.012475248,-0.11016285,0.003256074,-0.25941426,0.19329347,0.030897435,-0.18008879,0.369633,0.1340048,0.16263719,0.03716564,-0.096979596,0.11731982,0.071060546,0.16280866,0.12079052,0.15471207,-0.037250184,-0.31075194,0.09627509,-0.039913192,-0.25585046,0.07270542,-0.059963536,-0.031466845,0.075608075,0.22783072,0.107384086,0.1672904,0.112111,-0.068892665,-0.044826854,0.018531527,0.19195789,-0.094221026,-0.016137773,-0.26502916,-0.06183568,0.02057042,-0.052648026,0.042267054,0.13428256,-0.08098423,-0.015132233,0.38895112,-0.08833929,0.23182349,-0.026516648,0.0076946355,0.14563791,0.056226254,0.1522825,0.20606463,0.12388665,-0.08083673,-0.15505457,0.2096808,-0.17755933,0.16762306,-0.051694844,-0.14438786,-0.053684693,-0.14482103,0.10986899,-0.0076215,-0.12095199,0.04446139,0.0153402025,0.0022227631,0.0697682,0.24295712,-0.23074704,-0.0005398433,0.19809921,-0.018451354,-0.28659427,-0.08827283,0.00775578,0.0033984734,0.07492784,0.038468733,-0.06589235,0.110775925,0.03386367,-0.1521347,0.10713608,0.19124,0.07719343,0.06319583,-0.13271384,0.11069452,0.07018212,0.01577098,-0.10183786,-0.028904565,0.053188007,-0.09964269,0.07589703,0.115030065,-0.109487906,-0.010208662,0.2076726,0.34404725,0.15393695,-0.17385809,0.041248064,-0.15391071,-0.034902886,-0.17484777,-0.043982897,-0.3333856,0.071722426,0.097938776,0.09665941,-0.07962639,-0.106296174,-0.38117346,0.010197524,0.25443184,-0.14505081,0.1648991,0.057964947,0.026259039,-0.014678897,-0.13478407,0.03335441,0.028713703,-0.25451708,-0.08445884,-0.093305446,-0.008333447,0.17316945,0.16535512,0.1411712,0.005051149,0.15937193,-0.12638085,-0.048069254,-0.06583374,-0.12665273,0.1035974,-0.02344945,-0.031306367,-0.12108414,0.06846785,-0.040432792,0.1862146,0.015436607,-0.1810909,0.25203356,-0.1490476,-0.031200672,-0.13682835,-0.04459397,0.019350283,-0.014716232,-0.24511558,-0.057908196,0.2052596,0.07509816,-0.2206823,0.19971737,0.36229435,-0.020640673,-0.119265415,-0.10285222,-0.06611035,-0.00019779672,-0.21100721,0.08051952,0.020798774,-0.010719522,0.0981488,-0.0050997892,0.00023538753,0.28133297,0.013416008,0.010375339,0.01591713,0.2750898,0.014922975,-0.090640895,0.119754195,0.09315107,-0.038817547,-0.0838934,0.17191161,-0.13297173,0.3372087,-0.034271218,0.12086761,-0.111746185,0.101991944,-0.29952744,-7.343054,-0.25350526,0.116896614,0.095558204,0.14152025,0.15482813,0.028496278,0.10055172,0.12739083,0.095098175,0.29282075,-0.14216702,0.12118895,-0.063361995,0.1777356,0.029568577,0.28905904,-0.17427862,-0.074604146,-0.00071550877,-0.11857385,-0.2921013,-0.066183105,0.021903593,-0.05989134,-0.075628586,-0.011306336,-0.13950633,0.10227597,0.09173919,-0.08266766,-0.20929536,0.11443894,0.14082283,-0.073587954,0.011180904,0.077630684,0.012121039,0.02495176,0.07367358,0.05957712,-0.048694167,0.13721341,0.029208884,0.109737985,-0.06219219,0.1104593,-0.09338677,-0.0665701,0.058372132,0.1742179,-0.06467935,-0.12217979,0.07107709,0.12803943,-0.14048164,0.002740369,-0.024535242,0.02186364,-0.19279182,-0.24474034,-0.1947377,-0.29102606,-0.22153798,-0.013169943,-0.08907753,-0.0085052205,-0.07997915,0.074910365,-0.051192235,0.27172256,0.25540054,-0.0055796998,0.18660785,0.32674888,0.1862187,0.010914027,-0.08040311,0.29911354,0.16295701,0.019039143,0.20114656,0.076002754,0.11916796,0.037499055,0.15229273,0.03031803,-0.053412028,-0.19486067,-0.05169004,0.22088225,-0.26147094,-0.12388699,0.21889803,-0.11624174,-0.16513023,-0.26663518,-0.21483593,-0.24510679,0.1412618,-0.27218884,0.043971002,0.117676206,0.04758069,-0.057175897,0.0226216,0.017929005,0.027609592,0.021798339,0.08414453,0.049569674,-0.06194923,-0.20638241,0.13554876,0.1528462,0.100878604,-0.07128592,0.10828768,-0.054368906,0.11666037
