residue_id,0,1,2,3,4,5,6,7,8,9,10,11,12,13,14,15,16,17,18,19,20,21,22,23,24,25,26,27,28,29,30,31,32,33,34,35,36,37,38,39,40,41,42,43,44,45,46,47,48,49,50,51,52,53,54,55,56,57,58,59,60,61,62,63,64,65,66,67,68,69,70,71,72,73,74,75,76,77,78,79,80,81,82,83,84,85,86,87,88,89,90,91,92,93,94,95,96,97,98,99,100,101,102,103,104,105,106,107,108,109,110,111,112,113,114,115,116,117,118,119,120,121,122,123,124,125,126,127,128,129,130,131,132,133,134,135,136,137,138,139,140,141,142,143,144,145,146,147,148,149,150,151,152,153,154,155,156,157,158,159,160,161,162,163,164,165,166,167,168,169,170,171,172,173,174,175,176,177,178,179,180,181,182,183,184,185,186,187,188,189,190,191,192,193,194,195,196,197,198,199,200,201,202,203,204,205,206,207,208,209,210,211,212,213,214,215,216,217,218,219,220,221,222,223,224,225,226,227,228,229,230,231,232,233,234,235,236,237,238,239,240,241,242,243,244,245,246,247,248,249,250,251,252,253,254,255,256,257,258,259,260,261,262,263,264,265,266,267,268,269,270,271,272,273,274,275,276,277,278,279,280,281,282,283,284,285,286,287,288,289,290,291,292,293,294,295,296,297,298,299,300,301,302,303,304,305,306,307,308,309,310,311,312,313,314,315,316,317,318,319,320,321,322,323,324,325,326,327,328,329,330,331,332,333,334,335,336,337,338,339,340,341,342,343,344,345,346,347,348,349,350,351,352,353,354,355,356,357,358,359,360,361,362,363,364,365,366,367,368,369,370,371,372,373,374,375,376,377,378,379,380,381,382,383,384,385,386,387,388,389,390,391,392,393,394,395,396,397,398,399,400,401,402,403,404,405,406,407,408,409,410,411,412,413,414,415,416,417,418,419,420,421,422,423,424,425,426,427,428,429,430,431,432,433,434,435,436,437,438,439,440,441,442,443,444,445,446,447,448,449,450,451,452,453,454,455,456,457,458,459,460,461,462,463,464,465,466,467,468,469,470,471,472,473,474,475,476,477,478,479,480,481,482,483,484,485,486,487,488,489,490,491,492,493,494,495,496,497,498,499,500,501,502,503,504,505,506,507,508,509,510,511,512,513,514,515,516,517,518,519,520,521,522,523,524,525,526,527,528,529,530,531,532,533,534,535,536,537,538,539,540,541,542,543,544,545,546,547,548,549,550,551,552,553,554,555,556,557,558,559,560,561,562,563,564,565,566,567,568,569,570,571,572,573,574,575,576,577,578,579,580,581,582,583,584,585,586,587,588,589,590,591,592,593,594,595,596,597,598,599,600,601,602,603,604,605,606,607,608,609,610,611,612,613,614,615,616,617,618,619,620,621,622,623,624,625,626,627,628,629,630,631,632,633,634,635,636,637,638,639,640,641,642,643,644,645,646,647,648,649,650,651,652,653,654,655,656,657,658,659,660,661,662,663,664,665,666,667,668,669,670,671,672,673,674,675,676,677,678,679,680,681,682,683,684,685,686,687,688,689,690,691,692,693,694,695,696,697,698,699,700,701,702,703,704,705,706,707,708,709,710,711,712,713,714,715,716,717,718,719,720,721,722,723,724,725,726,727,728,729,730,731,732,733,734,735,736,737,738,739,740,741,742,743,744,745,746,747,748,749,750,751,752,753,754,755,756,757,758,759,760,761,762,763,764,765,766,767,768,769,770,771,772,773,774,775,776,777,778,779,780,781,782,783,784,785,786,787,788,789,790,791,792,793,794,795,796,797,798,799,800,801,802,803,804,805,806,807,808,809,810,811,812,813,814,815,816,817,818,819,820,821,822,823,824,825,826,827,828,829,830,831,832,833,834,835,836,837,838,839,840,841,842,843,844,845,846,847,848,849,850,851,852,853,854,855,856,857,858,859,860,861,862,863,864,865,866,867,868,869,870,871,872,873,874,875,876,877,878,879,880,881,882,883,884,885,886,887,888,889,890,891,892,893,894,895,896,897,898,899,900,901,902,903,904,905,906,907,908,909,910,911,912,913,914,915,916,917,918,919,920,921,922,923,924,925,926,927,928,929,930,931,932,933,934,935,936,937,938,939,940,941,942,943,944,945,946,947,948,949,950,951,952,953,954,955,956,957,958,959,960,961,962,963,964,965,966,967,968,969,970,971,972,973,974,975,976,977,978,979,980,981,982,983,984,985,986,987,988,989,990,991,992,993,994,995,996,997,998,999,1000,1001,1002,1003,1004,1005,1006,1007,1008,1009,1010,1011,1012,1013,1014,1015,1016,1017,1018,1019,1020,1021,1022,1023,1024,1025,1026,1027,1028,1029,1030,1031,1032,1033,1034,1035,1036,1037,1038,1039,1040,1041,1042,1043,1044,1045,1046,1047,1048,1049,1050,1051,1052,1053,1054,1055,1056,1057,1058,1059,1060,1061,1062,1063,1064,1065,1066,1067,1068,1069,1070,1071,1072,1073,1074,1075,1076,1077,1078,1079,1080,1081,1082,1083,1084,1085,1086,1087,1088,1089,1090,1091,1092,1093,1094,1095,1096,1097,1098,1099,1100,1101,1102,1103,1104,1105,1106,1107,1108,1109,1110,1111,1112,1113,1114,1115,1116,1117,1118,1119,1120,1121,1122,1123,1124,1125,1126,1127,1128,1129,1130,1131,1132,1133,1134,1135,1136,1137,1138,1139,1140,1141,1142,1143,1144,1145,1146,1147,1148,1149,1150,1151,1152,1153,1154,1155,1156,1157,1158,1159,1160,1161,1162,1163,1164,1165,1166,1167,1168,1169,1170,1171,1172,1173,1174,1175,1176,1177,1178,1179,1180,1181,1182,1183,1184,1185,1186,1187,1188,1189,1190,1191,1192,1193,1194,1195,1196,1197,1198,1199,1200,1201,1202,1203,1204,1205,1206,1207,1208,1209,1210,1211,1212,1213,1214,1215,1216,1217,1218,1219,1220,1221,1222,1223,1224,1225,1226,1227,1228,1229,1230,1231,1232,1233,1234,1235,1236,1237,1238,1239,1240,1241,1242,1243,1244,1245,1246,1247,1248,1249,1250,1251,1252,1253,1254,1255,1256,1257,1258,1259,1260,1261,1262,1263,1264,1265,1266,1267,1268,1269,1270,1271,1272,1273,1274,1275,1276,1277,1278,1279
THR_1_A,-0.06940548,0.049480367,-0.12335241,-0.0012335597,-0.010553906,-0.004358322,-0.16911907,-0.093844645,0.011391769,0.010071284,-0.04080552,0.18493053,-0.117781445,0.012480831,-0.12658371,0.06275172,0.0766331,-0.07889488,0.045136377,-0.013556058,-0.1384801,-0.121471316,-0.1211831,-0.017722901,0.0015165911,0.365001,-0.12998474,0.27723747,0.15475944,0.07236604,0.07767007,0.14939913,0.025392981,0.004177268,-0.15725163,-0.14763142,0.00807703,0.09688037,-0.12596487,-0.034042172,0.14166531,0.082711086,-0.013540347,-0.040265746,0.24533431,-0.08625052,0.010117419,0.12657045,-0.10158552,0.09273341,0.07403302,-0.17525648,0.036804892,-0.1931566,-0.24913032,-0.12767985,0.007009784,0.12433794,0.09050126,0.00131433,-0.04287204,-0.11865248,-0.18927816,-0.037220515,0.1040257,-0.06474228,0.10020832,0.16439383,0.047727503,0.10488294,0.12877667,-0.22692274,-0.09869291,-0.099340975,0.13928752,0.24022135,0.15955622,-0.03831431,0.09139111,-0.024434986,-0.029959086,-0.2660878,0.19252403,-0.074065536,-0.059333608,-0.02608383,-0.042380184,0.065794274,0.08418646,-0.14358185,0.022567071,0.12236982,-0.12095481,-0.05683083,0.0338147,0.20044672,0.09430232,0.025128687,0.1007809,-0.0326171,0.114818804,-0.14049096,0.111116044,0.2574047,0.0012537572,-0.21612398,0.058733966,-0.025071412,-0.086273156,-0.059722286,-0.038267165,0.012564744,0.085270904,0.058672685,-0.16452861,-0.04221095,-0.14433427,0.18018639,-0.23325582,-0.0862167,0.008393592,-0.14411597,-0.206486,0.24835202,0.101116255,0.11011683,-0.18942349,0.04969053,0.0570839,-0.12932844,-0.098877415,0.0919819,0.0327883,-0.0798296,-0.012451784,-0.029437108,0.046618313,0.11515528,-0.043850612,-0.043696713,-0.19660516,0.16139318,0.28247407,-0.13053942,-0.03769781,0.15086417,-0.19276345,-0.0005212244,0.020974968,0.06782363,0.16702643,-0.2381628,0.027197825,-0.09507037,0.047919,-0.2077627,0.042845935,0.0006306585,-0.070865884,0.12667431,-0.124542534,0.06033357,-0.12156693,-0.0005253701,-0.10032911,0.013822559,-0.2109226,0.15887502,0.10406059,-0.009361706,0.0057952814,0.14217705,0.13925998,-0.004518441,0.22004901,0.019783664,-0.042699367,-0.0068217707,0.13003086,-0.031123167,0.09138827,0.11785836,-0.10167139,0.06663603,-0.03365658,0.072286844,-0.122636095,-0.12207837,-0.033749986,0.12386757,-0.16289553,-0.2429123,0.12888923,-0.013828892,0.1638972,0.025246907,0.03778176,-0.07071891,-0.0336362,0.075401366,0.07196356,-0.101269595,-0.23081519,-0.14637703,0.16724358,-0.013089341,-0.122550026,-0.38215888,-0.19139217,0.011815834,-0.042688474,0.018614551,-0.3066228,-0.070510566,0.0056909667,0.038842052,0.1637346,0.026375843,-0.16089626,0.0015890835,0.23104388,0.12733778,0.057162076,0.032955483,0.042980466,0.014483238,0.15333818,-0.075366765,-0.011448652,0.03916032,0.07267421,0.09955658,0.041277405,-0.019017275,-1.4800084,0.26345164,-0.13742527,-0.05720375,-0.09078493,-0.19086826,0.008653983,0.068122976,0.016144421,-0.046435058,-0.017093241,-0.106429555,0.009188217,-0.057005044,-0.009581243,-0.03355898,-0.074149355,0.104700334,-0.04848441,-0.037669558,-0.07894063,-0.02822759,0.026527345,-0.03655493,0.10070037,0.05723967,0.06377237,-0.098547146,-0.18104754,0.053753953,0.21464805,-0.20298284,0.054194033,-0.20483865,-0.08365912,-0.109418385,0.011683506,0.017229488,0.018740142,0.26911283,0.13010994,0.27305448,-0.026198182,0.23291598,0.32098547,0.034888357,-0.08219855,0.28695852,0.024654297,-0.06770575,-0.039550286,-0.085667774,0.07332717,-0.05427506,0.06130186,-0.16022685,0.051870283,0.0043927724,0.040277906,0.117540784,-0.17876214,-0.07767178,-0.092077985,0.010402597,-0.04005217,-0.06412197,0.050062824,0.2640735,-0.16141196,-0.12635073,-0.18249823,-0.090262756,0.06535177,-0.087905705,0.18928806,0.31281593,0.15130363,-0.0005888966,-0.17892827,0.099360466,-0.0048665837,-0.11631133,0.06632473,-0.04475437,-0.25328627,0.007928277,-0.30355138,0.07573597,-0.1528818,-0.101051,-0.014664758,0.041515082,0.1373315,-0.05758631,0.0024712519,0.09836502,0.051184647,-0.010962223,-0.25103295,0.0075756763,0.32711676,-0.059311956,0.012583671,0.073033094,0.07362414,-0.10517419,0.010481516,0.03826395,-0.12888132,0.09101827,0.051286776,-0.23909159,-0.035638355,-0.13517629,0.06240145,0.021425173,0.27559203,0.02535358,-0.11727615,-0.01551661,0.22114718,0.27086875,0.0014851689,-0.024982916,-0.028520314,0.057773292,-0.111482665,0.22240977,-0.0567527,-0.1361148,0.05426959,-0.23657133,-0.1504312,0.15394348,0.0860524,0.066512465,0.07196961,-0.06977745,-0.1129449,0.02895067,0.110698014,0.19150415,-0.1275189,0.019144112,0.20350794,0.109238505,-0.2845199,-0.018995943,0.035050668,0.19595927,-0.014546899,0.087227896,0.10659218,-0.12631285,-0.0014517508,-0.068560824,-0.031244528,-0.07596018,-0.13388285,-0.13882458,0.14727126,0.03327928,0.19809309,0.24857645,0.01223779,-0.13240795,-0.21237808,0.100815974,-0.061594393,-0.07475042,0.13426273,0.032376986,0.09804562,-0.19366843,-0.34603405,-0.2822227,-0.21776994,-0.075598925,0.07483651,0.03288428,-0.2353952,0.11298973,0.103013605,0.027542638,0.013535568,0.25851506,0.0016916309,0.08483205,-0.08149132,0.11495452,-0.007210134,0.05040372,-0.037110362,0.16235843,0.19190279,0.10081389,0.04170771,0.38521868,0.005597842,0.17433321,-0.010718001,0.042552862,-0.0047853966,0.04839178,0.10341941,0.14506419,0.10148059,0.034717098,-0.050335597,-0.18073104,0.16272911,-0.011077281,0.107661426,0.13583365,-0.110675,-0.04183109,0.2938788,0.11764697,0.21756239,0.1512526,0.048872992,-0.021137938,0.19626178,0.10390599,-0.1206105,-0.12414415,-0.12125946,-0.06823058,0.13886265,-0.20915781,0.1219373,-0.07446405,0.061272115,0.06017701,-0.19948782,0.09522199,0.029926402,0.009713265,0.022156162,0.12085117,0.025272457,0.039497867,-0.018471658,0.051488966,0.11316256,-0.049416702,-0.060552485,0.028196367,-0.034081105,-0.059264258,-0.003993434,0.015715484,0.06692781,0.08737347,-0.0960013,0.10691991,-0.039789077,-0.19231212,-0.028520742,0.041305467,-0.019345589,0.11642491,-0.054619573,0.062321804,0.04927268,-0.11979039,-0.11336738,-0.18337934,0.03992523,0.25232095,0.09853118,-0.051926244,-0.11482449,-0.10670412,0.09800377,-0.16942541,-0.022122048,-0.11112576,-0.030099029,-0.08950855,0.24255565,-0.06998656,-0.007538823,-0.034665924,-0.04814602,0.026459377,-0.031549882,-0.20955066,0.081525855,-0.031010564,0.18271865,-0.047232926,-0.16124558,-0.049378157,-0.15034544,0.06365269,-0.15813021,0.15537287,-0.22349502,0.062685356,0.18006256,-0.07381682,-0.18871778,0.049708497,0.12622665,-0.04771261,-0.018820668,-0.11021357,0.13038261,0.15554348,-0.19123061,0.024284106,-0.044822946,-0.04228744,0.25281796,0.124804564,-0.041504323,-0.15853022,-0.025028788,0.15299527,-0.052514795,-0.20834927,-0.33566576,-0.21457541,-0.09422775,0.16249818,0.15681964,-0.011385481,-0.088879004,0.019145641,-0.13061929,-0.016082795,0.15335982,0.17348818,0.18788299,-0.09362651,0.19859143,0.2205432,-0.15501428,0.26463106,-0.043684624,0.40518057,-0.009025314,0.18976669,0.033925757,0.28013995,-0.12984066,0.09286009,-0.09461761,0.4086117,0.043906294,0.017625257,-0.13197656,0.008712919,-0.17068014,0.24606657,-0.076439306,-0.09656562,-0.03302741,0.003344477,0.2631592,-0.003558076,-0.18936843,-0.103585295,0.0998197,0.011689031,-0.029204775,0.018027427,0.045794006,0.17447786,0.2332256,-0.16068901,0.021039542,-0.025834138,-0.06473771,0.07491811,0.13714159,-0.112171404,0.050311517,-0.038309388,0.032990366,0.22515701,0.08179413,-0.23347777,0.10168318,0.0020422773,0.031467326,0.19944093,0.055938017,0.076510504,0.09453229,-0.0082004005,-0.039069846,0.15189736,0.12340349,0.12218327,-0.10789337,0.050181296,0.022009462,0.106417485,0.031649422,0.07447979,0.1629453,-0.0037374794,0.017662631,-0.1474894,0.05963954,0.07798411,0.12602624,0.024821095,0.011037748,0.13337019,-0.26581293,-0.12549974,0.017300723,-0.10966271,-0.0716737,0.30442774,0.086346865,-0.16003725,-0.0102896895,-0.09013108,-0.21689776,0.057384778,-0.13238792,-0.06003044,0.14751609,0.022795087,0.07671925,0.011584193,0.15275845,-0.3027506,0.2225515,0.0167839,-0.099611856,0.036852766,-0.12928575,-0.21833362,0.030758787,0.022929015,0.26372236,0.10141052,-0.18363854,-0.08442211,-0.13588402,-0.24173063,0.02175618,-0.07784145,0.04804172,0.2851118,0.07090246,0.068275005,0.048575446,-0.06856951,0.20070358,-0.035207953,0.10003054,-0.13076133,-0.031237898,0.08712111,0.22707422,0.13728148,-0.0731539,0.057386477,0.25920698,-0.027541947,0.020460002,-0.12340213,0.080919966,-0.009262859,0.0143794855,-0.014603787,-0.10127264,-0.19163755,0.045568455,0.025882075,0.023980057,-0.17461315,0.03281024,0.11536292,-0.079741046,-0.019959603,-0.17634709,0.17882572,0.030637754,0.23998502,-0.21224904,-0.07902817,-0.06990056,-0.011473545,-0.1910191,0.13446765,0.24862362,-0.06490551,0.01433139,0.25645122,-0.19051398,0.039757475,0.2265316,-0.15180032,-0.20173565,0.16818371,0.17230876,0.1454584,0.06404021,-0.016522072,0.16585474,-0.008833982,-0.061739735,-0.1179262,-0.081357665,-0.19775788,0.12100377,0.19844311,-0.017115375,-0.10126042,0.08430916,0.08457918,0.22533733,0.003714599,0.049774636,0.0639695,-0.11525011,0.13265425,-0.015236604,0.1338873,-0.032813672,-0.061526585,0.19603696,-0.05419385,0.33795884,0.23995842,0.14711122,0.031491525,-0.099986956,0.14060198,0.098539814,-0.08697858,0.11321954,-0.15879725,0.15418641,0.19719434,-0.03549128,-0.23588344,-0.16210377,0.11995939,0.009047905,0.033918396,0.108375534,-0.051123064,-0.22437665,-0.061576355,-0.024110889,0.17151178,0.2800973,-0.050283425,0.008184109,-0.14455293,-0.10620778,0.08602611,0.07974079,-0.24850029,0.21529481,0.012147151,0.013568367,-0.0901991,0.069748364,-0.08543847,0.12740155,-0.17234527,-0.036966495,0.11248951,-0.17114757,0.029963402,-0.19306919,0.017137103,-0.011055921,-0.087118804,0.025190132,0.09630026,-0.061490174,-0.04394454,0.12921958,-0.08043469,-0.124133855,-0.10667399,0.17400284,0.04707266,-0.29818323,-0.1975542,-0.042235564,0.0375066,-0.18038519,-0.09545597,-0.015732821,-0.12866393,-0.18262263,-0.049912196,0.0034866661,-0.032692686,0.03349241,0.046100397,0.46127754,-0.019110415,0.14558719,-0.14088094,0.057035036,0.098336585,-0.25635839,-0.020841362,-0.14180797,-0.012966292,0.34566486,0.22489962,0.07728129,-0.23040071,-0.12358556,-0.15927903,0.06541835,0.06706801,0.10544025,-0.122939944,0.10168102,-0.07428687,-0.0045948694,0.07255793,-0.11507203,-0.16403751,0.100634195,0.011797641,-0.08318485,0.013628317,0.083740406,0.061206385,-0.0304876,-0.09794168,0.14535211,0.04709971,0.1631714,0.03180237,0.013369474,-0.022436185,-0.110652365,-0.21264806,0.03286213,-0.08109305,-0.0038490898,-0.24937917,0.15628129,0.0044273846,0.028130576,0.0008335452,0.1551727,-0.006270148,-0.021465909,0.09830751,0.08497266,-0.091762826,-0.11979347,0.11235492,-0.014700571,0.05492044,-0.052296847,-0.1686376,-0.102768034,-0.023670834,-0.082911484,-0.13049224,-0.085173056,-0.022757322,0.16059183,0.09234643,0.0377337,-0.12739007,0.02987936,0.15787494,-0.048844606,0.043322556,0.035384905,-0.05872848,-0.075382866,-0.044069942,0.07946862,-0.014313054,-0.13565318,0.034736104,0.014434233,0.04494566,-0.123404026,0.028375385,0.16927776,0.03021825,0.0785668,-0.16813782,-0.10597432,-0.078689046,-0.075938694,-0.28260183,0.033186812,-0.09797374,0.052252885,-0.23689829,-0.10145383,-0.12899055,0.053234562,0.15985619,-0.14431074,-0.060898375,0.15168282,-0.18780553,0.09213623,-0.076270714,0.019170865,0.14118388,-0.06250817,0.051527057,0.29183114,0.021442946,0.04294467,-0.0050912234,-0.04189821,-0.016034516,0.094738916,0.07149004,0.14339347,0.03436978,0.2722667,0.13499096,-0.13819943,-0.030237887,0.036919102,0.09003993,0.0008018408,-0.024268301,0.06857707,-0.045729145,0.044275798,0.10020254,0.004140794,0.20588972,-0.122874066,-0.07441782,-0.17469323,0.21845557,0.11183171,0.17682801,0.22720945,0.11591343,-0.0012056069,0.041761883,0.08914074,0.14160413,-0.11787328,-0.097926356,0.04339812,0.16203742,-0.106610134,-0.15386295,0.005475693,0.13028301,-0.32508904,-0.0351499,0.061709426,0.044951133,-0.106938474,-0.11661174,-0.26890194,0.003760287,0.23035273,-0.19126631,-0.121498205,0.20234153,0.11820802,-0.056622963,0.1495372,-0.050517853,0.048883237,0.03622114,0.052639328,0.1550642,-0.007959116,-0.21288632,-0.082863905,0.14176467,0.0070475573,0.13355607,0.053707343,0.07498035,-0.059451498,-0.21610983,0.17950307,0.1641598,-0.26940927,-0.16542305,0.1357466,-0.028438328,0.020515198,0.043146864,0.17555737,0.049676582,0.08794715,-0.05371644,0.11159357,-0.025043244,-0.005035403,-0.1859362,-0.110715844,-0.089350484,-0.09930859,-0.061955225,0.20223264,0.07562081,-0.117376745,0.12975809,0.09410657,-0.16113125,0.0727099,0.1675183,0.13900799,-0.07405175,-0.1049926,-0.022564426,0.07510001,-0.14445746,0.16600507,-0.13328056,0.25247452,-0.12861966,0.024493188,-0.19016285,-0.037070256,0.10185138,-0.001356661,-0.16690734,0.13197067,-0.01820987,0.08663349,0.20134595,-0.07322281,-0.18915679,0.032041218,0.07694523,-0.04460084,-0.075596,0.27533555,-0.17578174,0.10849,-0.049126826,-0.022361722,0.12472012,0.003601635,0.16481291,0.19039313,-0.08260641,0.08903806,0.025296986,-0.11801997,0.081359364,0.09458528,-0.26780346,-0.11714527,0.3012448,-0.21049565,-0.22725947,0.12087471,-0.085767224,-0.07084655,-0.100927815,0.2669017,0.043502923,-0.20564039,0.052461702,0.053558085,0.08247019,0.030142754,-0.15226993,0.11936619,-0.08629701,0.101701535,-0.029799016,0.240565,0.10165353,-0.064394124,-0.08380433,-0.22130093,0.20072193,0.14428926,-0.16024536,0.00496035,0.12723368,-0.17187083,0.061937984,-0.040155392,0.02613512,0.026063425,0.2332621,0.0074796607,0.12548034,-0.10756007,-0.26984158,-0.105923116,0.13051565,0.023427673,-0.15698355,0.12792693,0.0336976,-0.012241479,-0.20122716,-0.17057583,-0.1689537,0.119250156,0.09677743,0.17261983,0.0092820795,0.030802086,-0.050441485,0.06533227,-0.13815442,0.02777428,0.06948508,-0.07274844,0.032815084,0.23704015,-0.010271728,-0.120854974,-0.084761426,-8.717104,-0.20913954,0.04427728,-0.07553331,-0.14153768,0.02611396,0.057666257,-0.090606414,0.0071842154,-0.034423664,-0.10270263,-0.11959442,-0.09830234,0.050233208,-0.07898898,0.05815724,-0.109290816,0.06069191,-0.009676167,0.17902233,-0.13108134,-0.0738756,-0.009168064,0.28644946,0.070232585,0.06166672,0.17978284,0.13443585,-0.120203584,-0.0818186,0.039458983,0.0036362815,-0.055313863,0.16448417,-0.04073817,0.0344916,0.14892723,-0.080195315,0.045176357,0.16275118,0.40434957,0.02037551,0.039344747,0.16047391,0.08845089,0.20714605,0.037735064,0.07830688,0.21511771,0.015405809,0.10075331,0.112705715,-0.102104254,0.051235404,0.078379326,-0.15114115,-0.15007858,0.28108048,0.005462647,-0.06222913,0.034491405,0.11793012,0.05340274,0.19757128,0.040504847,0.13249825,-0.18527324,-0.1378005,-0.20360968,0.19675021,-0.03293678,0.0027020287,0.18905818,-0.047414046,-0.09423483,0.014822966,0.070961,0.10578994,0.039621506,0.16142464,0.019085828,0.08441439,-0.0026935844,-0.07864176,0.24624392,-0.26413238,0.058481827,0.016779987,0.056308836,0.16000204,0.14718674,0.0055472273,0.15220085,0.05780054,0.031409543,0.05632164,0.08006187,-0.03180895,-0.06709461,0.12505288,0.15261893,-0.1727276,0.01057848,0.012004641,-0.13020372,-0.15847576,-0.19262251,-0.029273618,-0.06665703,0.09959954,-0.11752496,-0.025646277,-0.066821836,0.16252668,-0.022024913,0.17674342,-0.21467225,-0.09617833,0.018168997,-0.029069882
ASP_2_A,0.18146257,-0.025609896,-0.082255974,-0.026885182,0.06765563,0.1716537,-0.0009534671,-0.08312478,-0.10076201,-0.06912372,-0.124045126,-0.0098130135,-0.025126869,0.096214674,0.025413986,0.14733127,-0.048583116,-0.102355815,0.0024944837,0.22626339,0.08618475,0.15623944,0.09366332,0.07988327,0.26105568,0.29146653,-0.097048745,-0.012302206,0.008879833,-0.00019597581,0.053026985,0.086974464,0.034876846,-0.00391309,-0.16238965,-0.010300981,-0.051215976,-0.014575309,-0.21753374,-0.013165353,0.18674661,-0.12712261,0.053299904,-0.024752583,0.12560846,0.03387392,0.069494575,0.01762681,0.022077886,0.17489675,-0.0023853218,0.028374095,0.037872925,-0.23134053,-0.0047389204,0.20954455,-0.22210819,0.3458576,0.038259476,-0.15116352,0.18651332,-0.08236913,-0.1188411,0.20391846,0.003398241,-0.10395138,0.12429037,0.0005378109,0.12899293,-0.003877532,0.19223568,-0.18643433,-0.06275047,-0.01962216,-0.11836663,0.10062625,0.032478537,-0.09212079,0.116882294,0.10070396,-0.17111263,0.03699325,0.110649,0.0022571795,-0.13100608,-0.1665186,-0.11224663,0.15021065,-0.11630919,0.18392785,0.13018432,0.35594317,-0.018356163,0.13154903,0.009638992,0.100117184,0.0866914,0.029940376,0.0744975,0.03551737,0.03053603,-0.11238856,0.031350955,-0.013494663,-0.07886826,-0.39931142,0.013135065,0.16087416,-0.25821808,0.22263515,0.03231726,0.0073828967,0.03995151,0.105447784,0.063024096,0.05785876,-0.045608338,0.16082528,-0.09913881,-0.24915442,0.24593094,-0.11488717,-0.007275322,0.21821296,0.08753872,0.1619592,-0.13876154,0.17977601,0.07542786,-0.081430525,-0.18969335,0.04815131,0.008226454,0.03554845,-0.013448282,0.031077854,0.063354224,0.20323183,-0.027251802,0.16805017,-0.14667547,0.009538036,0.1349784,0.09427544,-0.14524369,-0.12272819,-0.05290747,0.09307048,-0.20906241,0.104243726,-0.019433856,0.043948323,0.1661737,0.14972521,-0.17080063,0.15213962,-0.1390794,0.012956238,0.049539983,-0.14521794,0.070208766,0.066901095,-0.057868727,-0.032489717,0.053987373,0.03986103,-0.07647587,0.033555366,0.16578327,-0.031822883,-0.058525775,0.3224962,0.2784344,-0.04404428,0.08585157,0.084345505,0.107008934,0.21941957,0.13639317,0.06254338,0.0904178,-0.28867146,-0.111246705,0.046783336,-0.119094595,-0.0009096897,-0.08306883,0.001034037,-0.14587224,-0.05621939,0.09645645,-0.1876044,0.05657755,-0.08250238,-0.040159952,0.16851987,0.0695014,0.14076191,-0.12427782,0.1357177,0.18776092,0.0024128763,-0.14382264,0.08103268,-0.045257106,0.076903954,-0.060939543,-0.25630453,-0.12701443,-0.11942945,0.08138846,0.1321468,-0.10526941,-0.22629915,-0.016240768,-0.0011232637,0.08578354,-0.12637216,-0.020772062,-0.046979457,0.12957652,0.09647649,0.096087195,0.028108204,-0.18415645,0.13227282,0.15412207,-0.09846791,-0.24911667,0.10396319,-0.011951167,-0.026181158,-0.033931114,-0.12048343,-2.9645119,-0.078431435,-0.12769729,-0.009314091,-0.13812163,-0.21090364,-0.044811524,-0.19248787,0.026950547,0.058151495,-0.27815562,-0.11849865,0.18933886,0.04810155,-0.05552793,-0.045354243,-0.10567475,0.083133996,-0.17733306,-0.033691548,0.11597555,-0.052779756,0.16510433,-0.012152215,-0.06757908,0.03443255,0.046766315,0.15415967,-0.03556769,-0.17119537,-0.13926165,0.09697942,0.030969266,-0.2574612,-0.03185978,-0.017953914,-0.18286292,0.1468069,0.0188703,0.022657977,-0.11318259,0.08993765,-0.050577074,0.053394,0.23989284,-0.10116414,0.20159715,0.017550616,0.0504162,-0.12239246,0.10259686,-0.05361064,0.0042575025,0.111391604,-0.111921206,0.10476483,-0.2481968,-0.09175999,-0.06782229,-0.002927407,-0.03885,0.0014430977,-0.07814909,0.14757949,0.13633616,-0.12528674,0.011277343,0.105216324,0.10690205,-0.094716944,0.019942783,-0.011088338,0.03159962,-0.13557054,0.068684705,0.1560979,0.113973305,0.27938697,-0.15523104,0.06304225,0.14868072,-0.026579386,0.07869765,0.028164422,-0.36752087,0.00030743284,-0.090967745,0.1389836,-0.20928386,0.078998074,0.2158921,-0.025214342,0.105021045,0.12491769,-0.0022361507,0.064510085,0.061598103,0.00082079775,-0.15667611,-0.095538646,-0.07921426,0.021960841,-0.092691086,-0.072614215,0.066076525,-0.10506961,0.06217607,0.018157383,-0.006668481,-0.0070919935,0.1299285,-0.020152701,-0.017676966,-0.034657877,0.1101722,0.1737941,0.2718537,-0.048072133,-0.014796289,0.054965697,0.0034058036,0.16452374,0.08069826,0.13688348,-0.0901293,0.049797527,-0.10293397,0.19822997,-0.15529217,-0.13499083,-0.07628553,0.06747809,0.07567418,0.13243528,0.032015175,-0.10763968,0.1734566,-0.08970021,-0.024894664,-0.112275094,0.123095475,-0.04163645,-0.08025578,0.009166189,0.16770963,-0.06773965,-0.085318424,0.16005422,0.10555466,0.095667146,-0.009727541,0.14921741,0.0051800595,-0.09549124,-0.14329018,-0.01925218,0.057566732,0.20915335,0.27950543,0.09998289,0.069690414,0.06733239,-0.20033336,-0.102818996,-0.0020513984,-0.14487343,-0.2161464,0.0033448713,-0.14199093,-0.14540946,0.28487986,0.2688982,0.17852065,-0.15933432,-0.04346761,0.062375333,-0.054623608,-0.111539796,-0.12448143,-0.012986316,0.010162268,0.20674597,-0.060631372,0.031504545,-0.00075794203,0.09868177,0.030365046,0.069400944,0.0014741361,0.049685728,0.004370669,-0.03955243,0.06363332,0.11482733,-0.054559823,-0.05853948,0.14210916,0.15035559,-0.043988783,0.027869642,-0.079923816,0.036569536,0.20314316,0.06261203,0.14302015,-0.08567376,0.14005941,-0.11206162,0.0829201,-0.23196968,-0.008922873,0.074624375,0.040654946,-0.054764308,0.008728336,-0.20109215,0.23798293,-0.18325408,0.19020219,0.050261095,0.07925591,0.043591633,0.050595082,0.14867723,-0.014219326,0.14763783,-0.029310184,-0.0684947,-0.034794684,-0.14504385,0.10966855,0.090395324,0.12736888,0.029792182,0.15651451,0.1257774,-0.100600906,-0.120942526,-0.07870575,0.11810519,-0.124432765,-0.033421475,0.048444897,-0.14754985,0.05765835,-0.026947537,0.0016438444,-0.09085286,0.15704457,0.05221684,0.016119141,-0.103425376,0.18187232,-0.065077126,-0.037783902,0.22306561,-0.054573722,-0.0050701173,-0.078589894,0.069836214,-0.061760925,-0.019430507,-0.016240384,0.11709969,-0.24077573,-0.008367424,-0.06641307,-0.06279743,0.08775336,0.19792959,-0.11019802,0.06414028,0.042224836,-0.09368874,-0.08835994,0.17372605,0.09125353,-0.015212142,0.03426012,-0.1910476,0.11790409,-0.17027819,0.0049642776,-0.028879218,0.06708148,0.06819468,-0.1727639,-0.08121147,0.042368438,0.19477959,-0.07284186,-0.31524825,-0.11725205,-0.16924357,-0.1330425,0.027119327,-0.13105722,-0.034468126,-0.09023069,0.08611203,0.014886219,0.05795339,-0.19522095,-0.09001706,-0.13515222,0.08334136,-0.13475467,0.22265932,0.007219283,0.10972762,-0.13908783,-0.03443263,0.06404663,-0.1015642,0.14209351,-0.20007128,0.13262999,0.18545698,-0.11992854,0.17842418,-0.10092351,-0.06364248,-0.20117295,-0.058529694,-0.024782484,0.19417451,0.11001745,-0.14847492,-0.11153002,0.09685663,0.097482026,0.0025453728,0.13921057,-0.056251284,0.027506892,-0.040477358,0.0052873855,0.08233424,-0.0154013615,0.16028965,0.010320125,0.054352425,0.05682983,0.13388614,0.09319618,0.08717104,-0.029858544,0.14410506,0.04591462,0.28489098,-0.048692208,-0.024781942,-0.008138068,-0.06700347,-0.05221394,-0.048792794,-0.061893854,-0.09783218,0.00787151,-0.036655344,0.24362056,0.031528544,-0.07587323,0.006797728,-0.1525881,0.038111813,0.06512936,0.14816035,-0.0023871309,0.22401069,0.18800303,0.07621374,0.046805542,-0.07930651,-0.07108668,0.016271465,0.0041656,0.06798173,0.26756743,-0.171525,-0.19079044,0.1672573,0.29304203,-0.14358303,0.11756913,0.22168685,0.026167993,0.24030207,-0.16335829,0.07422147,0.023176033,0.07454239,-0.078080125,0.1046685,0.033055462,0.19673379,-0.044260968,0.041168623,0.02861289,0.02436725,-0.08663633,0.003979107,0.045970425,0.12939054,-0.03691623,-0.33203804,-0.0045500216,0.09108435,0.28100538,0.055976447,0.07122667,0.010520835,-0.14595294,-0.12272899,-0.08884358,0.07062891,0.06896245,0.037730273,-0.26074263,-0.05592602,-0.20239368,-0.11618993,-0.14289998,0.19387591,-0.2342972,0.032122873,0.1242318,-0.18385322,-0.109330945,-0.10455178,0.13715851,-0.20608312,-0.1468003,0.06276862,0.0017752196,-0.05814896,-0.06425279,-0.13408105,-0.027556296,0.24659775,0.01613805,-0.1414926,-0.014936794,-0.161393,-0.27609617,-0.18804942,0.19069725,-0.1616389,-0.03632107,0.07461015,-0.14821632,-0.16863926,-0.08125961,-0.041598313,0.1986633,0.06975339,0.1664925,0.19024232,0.06854888,0.03794439,0.2001799,-0.15216531,-0.12146658,-0.08093992,0.10764248,-0.13524516,0.017916927,0.0905027,0.0773843,0.17917764,-0.04458823,-0.012246939,0.03313262,-0.12788258,-0.09411503,0.2089367,0.062763885,-0.10562144,0.010099777,-0.048464376,-0.039982997,-0.0638719,-0.053039156,0.117413655,-0.0712958,-0.014802174,-0.09599007,0.15798089,0.23924315,-0.12025538,-0.21262707,-0.010682688,-0.01519659,-0.13472372,-0.1242652,0.16898757,0.11840152,0.062008463,0.078388035,0.10476708,-0.13790637,0.17012365,0.2877154,-0.06341796,-0.04296259,-0.06913198,-0.012087127,-0.011574587,-0.15009432,0.011075824,0.0949848,-0.008156428,0.042693708,-0.009024117,-0.10704063,0.07813218,-0.22331536,0.22041701,-0.028493261,0.053741585,-0.2387236,0.015241783,0.025466686,0.022195961,0.057578582,0.0005234812,-0.18909054,-0.09968163,-0.0150240455,0.000121898775,0.022604369,0.04196982,0.18245552,-0.12363763,-0.123357445,0.01060908,-0.021903174,-0.10122029,0.083084285,-0.07857774,-0.032344226,0.101496324,0.029385308,0.03868083,-0.12129551,-0.10561185,-0.15973994,-0.22343445,-0.18377315,-0.12868181,0.029546652,-0.036311418,0.19359244,0.039097566,-0.066372275,0.040958032,-0.057088703,0.178289,-0.22232732,0.22415009,-0.008589153,0.061478175,0.010851353,0.16491564,0.15604976,0.057359014,-0.018821374,0.010498111,-0.060046546,-0.044163432,0.024051957,0.10294764,-0.23415115,-0.06531527,-0.28701496,-0.17186801,-0.0612996,0.080713324,0.010173532,-0.060696755,-0.060237497,0.22604908,-0.15210746,-0.17547818,0.12565832,-0.122805186,0.12726632,-0.08833508,-0.10675715,0.094138555,0.0690824,-0.13013723,0.25698727,-0.16516292,0.14927444,-0.08110883,-0.15488517,-0.15080792,0.041920178,0.10660349,0.15035625,0.13407095,0.05582878,-0.018147534,0.04944312,-0.014689273,-0.03466602,-0.11314285,-0.17479718,-0.09651751,-0.020106077,0.049325082,0.06241371,0.23301093,-0.07538075,-0.20004667,-0.023918103,0.005241991,0.00076179364,0.023954006,-0.033332694,0.08856474,-0.072711915,0.051554937,0.16090606,-0.0432224,0.12509751,-0.07329639,0.08193934,0.10078142,0.0839792,0.033058964,0.15292473,0.0052920626,0.08313005,0.19335197,0.027968263,0.09583289,0.18459901,-0.09072617,0.054897476,-0.002588848,1.7586042,-0.10036915,-0.24203819,-0.15449429,0.046648864,-0.06463059,0.007847719,0.20797087,0.018859124,-0.08660125,-0.13137326,-0.12178243,-0.053836163,0.15976472,0.078498356,-0.08524302,-0.032450724,0.31760386,-0.15316343,0.047003336,-0.13254888,-0.19834037,-0.12463688,-0.061547883,0.027771547,-0.18783747,0.05314137,-0.16316554,0.17462394,0.17634141,-0.08684783,-0.0944294,-0.111289605,0.057433575,-0.24374808,-0.005132234,0.049300935,0.09738622,0.09919574,-0.061439466,0.021336181,-0.21018156,-0.07786955,0.10764016,0.09067108,-0.08712882,0.081971005,-0.09077344,0.28086683,0.22002487,-0.07133082,-0.08227488,-0.18440153,0.1901244,-0.015933998,-0.0011199755,0.12581739,-0.08983643,-0.23328367,0.15047185,0.10823539,-0.10842862,-0.06979513,0.1953878,-0.17424428,0.027150732,0.21584709,-0.09202062,-0.073449045,-0.013881432,-0.1724155,0.20249972,0.12114716,0.17165263,0.10160743,-0.0064608622,0.23459166,-0.051698733,0.026331145,-0.22654198,0.074125834,-0.056412764,0.0059058634,-0.119770676,0.06131491,0.091536015,0.09158577,0.032539375,-0.030351195,-0.061586905,-0.2109728,-0.06122127,-0.016733918,0.24522766,0.13062324,0.030763855,-0.13170367,0.18440224,-0.010946876,-0.019333718,-0.115762085,0.0010786835,-0.11698277,0.031065319,0.14297484,0.14021102,0.08882936,-0.08103172,0.11612252,-0.01780861,-0.22837287,0.094588675,-0.10783292,0.13684158,-0.10475114,-0.22329056,-0.10445096,0.052966584,-0.17817889,0.024356095,0.016769597,-0.11884911,-0.016705276,0.015665224,-0.15968162,-0.015895268,-0.042444233,-0.029723633,-0.079911254,0.12448506,-0.021243177,0.001579885,0.10121396,-0.11815325,0.024497043,0.087604694,0.06857203,0.009594885,0.00077939813,0.17122686,-0.06560623,-0.15091261,0.2140494,0.15975858,0.29852018,-0.056103803,0.020395145,-0.044621192,0.028984511,0.03146413,-0.14529836,-0.080463916,0.22117084,-0.05594134,0.09645876,-0.053015124,-0.039144643,0.17602311,0.0112525895,-0.084293015,0.13006487,0.052321408,0.008796808,-0.031227494,-0.19334148,0.054444503,-0.09867633,0.1344272,0.096898645,0.02367083,-0.08131518,0.11292441,-0.041640155,0.038017496,0.082796715,0.15472573,0.05678021,0.0050968383,0.14571962,0.009074743,0.014862311,0.08878723,0.25664747,-0.1290437,-0.05272058,0.1977983,-0.053853124,-0.11636218,0.20699166,-0.051265903,0.029685682,0.14015102,0.04110364,-0.022200828,-0.024214339,0.026472392,-0.19626455,-0.24927668,-0.13682403,-0.048656695,-0.2014215,0.15384607,-0.061994802,-0.07101661,0.16170128,0.026640233,-0.060961343,0.24738517,0.1530054,-0.022737667,0.104193896,0.08848481,0.30213785,-0.036120962,0.031447873,0.092948966,0.0510951,-0.28036407,-0.03365842,0.25867793,-0.08670745,0.08592699,0.07189498,-0.031651508,-0.10675716,0.10596763,-0.08938459,-0.07157718,-0.2114048,-0.07507864,0.0048034764,0.2113205,-0.25685278,-0.0697117,0.12702921,-0.05224117,-0.17058635,-0.13895288,0.12345055,0.12652023,-0.0901487,-0.11071671,0.03218369,-0.021802664,0.054051764,-0.018652689,-0.05193317,0.05075468,-0.021748284,0.108850405,-0.13896482,-0.04088126,0.027766986,0.19997841,0.092159085,0.13913497,-0.017941795,-0.035896342,-0.1546552,-0.05890907,-0.0048006717,-0.1478664,-0.013464411,0.11236644,0.051589195,0.14268877,0.091658555,-0.15649705,0.111230105,0.21669565,0.13374932,0.16154851,0.14725,0.026146395,-0.08282133,0.044212945,0.21870409,0.03727486,0.038771853,-0.24094477,0.17190011,0.045556683,0.05062424,-0.03383843,-8.5566845,-0.37201554,-0.044207916,-0.08444064,0.0038134286,0.19547702,0.03380091,-0.1013656,0.078658044,-0.046031293,-0.052871976,-0.06890226,-0.13938405,0.079762,-0.1528108,0.1331998,-0.01752067,0.0997559,0.103718266,0.25829008,0.041065093,-0.053142406,0.07838853,-0.025108524,0.1380007,-0.1564024,0.058967683,0.10945363,0.097885594,0.075231574,-0.12250182,-0.0025476704,-0.12429893,0.10137398,0.063973196,0.09977029,0.21069302,-0.1197858,0.09150537,-0.0373571,0.26904178,0.03761426,0.36343306,0.47293836,0.09857358,0.028439414,0.03719437,-0.13110594,0.06773056,-0.08027786,-0.22987674,-0.11468456,-0.0935993,-0.090685785,-0.13481769,-0.15931489,0.15309711,0.31927308,-0.019094177,0.031664174,0.10593702,-0.044554405,-0.12518719,0.4482558,-0.010129824,0.005911036,-0.08216362,-0.13719112,-0.08991091,0.059810236,0.18775477,-0.028942244,-0.037614785,0.09075333,-0.11732064,0.09623286,0.13184218,0.2203035,-0.004760693,0.19977172,0.021893397,-0.05029201,0.046656415,-0.04131548,0.053596396,-0.071801215,0.1308364,-0.102060914,-0.091079384,0.017726984,0.14601967,0.23174378,0.082117066,0.10736393,-0.13403426,-0.08722354,0.01586047,-0.17217363,-0.07270646,0.04287074,-0.013427151,0.012516355,0.03735245,0.28130913,-0.09352852,-0.16342111,-0.32218742,0.0064604725,-0.08500785,0.033320367,-0.30564216,0.018345082,0.004626493,-0.02145157,-0.02863879,0.22845107,-0.08910486,-0.13621472,0.17684644,0.045986675
ARG_3_A,0.05555861,0.11057793,0.10825075,-0.06645661,-0.042532213,0.16345105,-0.065504745,0.0917133,-0.13086312,0.0672744,-0.25121212,0.16345856,0.06294914,0.1358774,-0.13889545,0.18819475,-0.18877973,0.1673685,0.032397177,0.14647551,0.11472275,0.08367069,0.10013932,-0.13581312,0.2507836,0.3535844,-0.11775615,-0.08041423,0.19003136,-0.07190744,-0.07150826,0.006947122,0.075759664,-0.1699658,0.05338592,-0.019072868,0.009114852,0.010745394,-0.020974116,-0.14328331,0.20127024,-0.18602057,-0.0027737366,0.05727386,0.089484185,-0.12103562,0.052037947,-0.2748538,0.08644305,0.038680308,-0.17282838,0.061222646,0.04807282,-0.041119542,-0.16791488,-0.052947696,-0.13650754,0.26839885,0.13557503,-0.072962165,0.10131427,-0.15154172,-0.14431481,0.07510862,-0.27178442,-0.12153178,0.0099329,-0.24378797,0.0053061987,0.08722357,0.096318066,-0.18072568,-0.14092751,-0.11737478,0.013883992,0.015585318,-0.07584928,0.1279856,0.06550479,0.10854657,-0.035551917,-0.065706074,0.08693971,0.021487871,-0.013259692,-0.17733803,0.09554629,0.14478251,0.036264937,-0.15829381,0.21891396,0.12884381,0.0578551,0.032518163,-0.008980737,0.050121356,0.22966646,-0.062993556,-0.054420225,0.19152936,0.030647615,-0.22408865,0.069434814,-0.03640018,-0.23975492,-0.26462996,0.03314452,-0.23516926,0.040924948,-0.027131302,0.04199095,0.044193096,0.15916272,0.06442915,0.05776219,0.023472637,0.076911286,0.31766045,-0.07036996,-0.14222868,0.02868035,-0.12630124,0.12234504,0.17577481,-0.0070485426,0.33872476,-0.22993872,0.0507292,0.15813076,-0.24484001,-0.17364761,0.020499261,-0.06314382,-0.05888736,0.030184414,-0.038026784,-0.09732719,0.17356785,0.08386468,0.17845783,-0.004738207,-0.10486136,0.042142406,0.077180155,-0.18725406,-0.056746166,-0.021646295,-0.036592066,-0.06289101,0.20501155,0.017227564,0.020596417,0.1272428,0.010975744,0.06791971,0.06955389,-0.07147601,0.10213692,-0.11268906,-0.04904116,0.17175765,0.06639677,0.030453915,-0.15032156,0.08127758,0.20617291,-0.1250868,0.23964858,0.10437425,-0.078234926,0.011512633,0.23722765,0.14700201,-0.06595403,0.18246809,0.022827154,-0.035612177,0.046772413,-0.12877098,0.021658203,0.07537407,0.08209637,0.06226311,-0.29773012,-0.11176424,0.017670957,-0.12780449,-0.2065733,0.07238067,0.04948944,0.28822494,-0.092559084,0.016830288,0.095422186,0.037990343,0.19089949,0.023381237,-0.109467626,-0.16382658,0.29949018,0.11993755,0.14333183,-0.10759351,-0.000450021,0.088785894,-0.0028878143,0.1045316,-0.13988389,-0.14798465,-0.05205976,0.036523987,0.10973736,-0.12316796,-0.13581821,-0.2578375,-0.0070910086,0.096780725,0.17299794,0.124273054,-0.023237633,0.29837555,-0.04480473,0.042829536,0.07957626,0.05281841,0.1982948,0.15119375,-0.027597498,-0.27453125,0.15022138,-0.046864208,-0.018685795,-0.06262737,-0.05202676,-2.3992355,-0.071491204,-0.11571078,-0.18535858,-0.17427891,-0.17579876,-0.011833646,-0.18652314,0.109169796,0.110813074,-0.2252688,-0.1342262,0.13301326,-0.124045536,-0.03230773,0.2767209,0.23813908,-0.009672646,0.061208323,0.08119899,-0.023736466,-0.28766328,0.019580817,0.072677754,0.19079207,0.009800797,-0.021276966,0.16290787,-0.09185898,0.049049694,-0.26474565,-0.27959388,-0.034671955,-0.24804278,-0.13631442,-0.086474136,-0.013127097,0.049926642,0.0114843445,0.1316462,-0.044004466,-0.082089245,0.09473295,0.050262403,0.26427966,-0.016368045,0.036633167,0.054747738,-0.25820816,-0.1805485,-0.058142472,0.038644746,0.13775173,0.04308329,-0.10244854,0.067232,0.048901517,-0.133196,0.12089141,-0.17531578,-0.1138998,0.045233637,-0.10037939,0.085828975,0.20077316,-0.13328429,-0.058294766,0.0519879,-0.06251042,-0.09408507,-0.109691754,-0.048760034,-0.17365839,0.030860461,0.15355624,0.14762326,-0.01243338,0.2584897,0.050967272,0.034909915,0.08363198,-0.049031634,-0.06606874,0.16941038,0.1624899,0.021071136,-0.07203201,0.11490723,-0.051112246,0.06342083,0.09736835,-0.039789345,0.289455,0.05064922,-0.021042949,0.29621586,0.018795071,-0.18000805,0.22718383,-0.107782446,0.038398724,0.047534317,0.057645127,0.08002179,0.10952859,0.06494838,0.042516798,0.06600823,0.020592086,0.055205904,0.008887809,-0.033151656,0.002748028,0.16452196,0.15283787,0.1167923,0.22159567,0.058646,-0.05396962,0.04327641,-0.014476848,0.07200223,-0.06969833,0.06630708,-0.061579406,-0.07086592,-0.098175704,0.11491326,-0.18242793,-0.2995487,0.0396807,0.17495596,-0.06267649,0.07370793,-0.059339803,-0.23534083,0.08012858,0.041425277,-0.17189838,-0.056083355,-0.09669817,0.0014350623,0.008898011,-0.019694498,0.21251959,-0.049838327,0.02933045,-0.123943634,0.012813636,0.13764355,0.20976998,-0.18407525,0.17488475,-0.02147417,-0.0014838167,0.012832986,0.08250164,0.011501973,0.2161601,0.1571247,-0.018753918,-0.08754071,-0.0015938297,-0.009084294,0.080130145,0.01686576,-0.067478366,-0.08401275,0.12575683,0.0042919056,0.18962382,0.122318335,0.17836332,-0.22733516,-0.37875006,-0.045197673,0.14554375,-0.0018627098,-0.09384752,0.21004875,-0.04322252,0.0034516868,-0.0069217794,-0.032240666,-0.00042534235,-0.13426293,-0.197261,-0.027368162,0.002568395,-0.12709455,0.050744127,0.09580184,0.26716807,0.10031147,0.24828088,-0.23131582,0.12341039,0.0761826,0.099778235,0.2622575,-0.1540015,-0.10692689,0.19857168,0.039810255,-0.003354819,-0.22343697,0.2458069,-0.21598941,0.12214886,-0.287694,-0.08781124,0.12386231,0.067872874,0.15555827,0.10950417,-0.21383967,0.09837356,-0.20852496,0.08371023,-0.06407383,-0.110251375,0.017878143,-0.23375057,0.21870913,-0.09018102,-0.04918292,-0.11371959,0.17366864,-0.025562285,-0.14791563,0.030695753,-0.08096088,0.1369027,0.27836367,0.12198229,0.016343875,-0.22677524,-0.0544781,0.09798393,0.17051221,-0.0924533,0.047485273,0.1878893,-0.075344145,0.20101103,0.013520657,0.042996425,0.12126737,0.21046674,0.007788249,-0.050392315,-0.14536446,-0.03557001,0.07958437,0.006332863,0.078353494,0.2802877,0.03904701,-0.045044962,0.11694557,-0.076091506,0.23573473,-0.056705248,0.03756743,-0.12287999,-0.074011706,-0.11037601,-0.09827031,-0.21539776,-0.02606062,-0.056923218,0.096143946,0.07044283,0.05685881,0.031955365,-0.03354473,0.16533478,0.102944046,-0.021884162,0.053540222,0.23178387,-0.0027300275,-0.079997726,-0.17287393,0.013535776,-0.113882154,-0.12430026,-0.011575858,-0.08561409,0.20186262,0.019796519,-0.1941029,0.036173407,-0.047253944,-0.114812955,0.1299978,-0.13861617,0.037802685,-0.25264964,0.058850937,0.11871347,0.16846608,-0.17489104,-0.111977465,0.023398526,0.09574863,-0.27130103,-0.045962747,0.18208621,0.17429571,-0.1521665,0.087072946,0.2025933,0.14112316,0.24826422,-0.039595805,0.12664703,0.009911772,-0.1636965,0.14894895,-0.100345574,-0.09385416,-0.16093804,-0.091230415,0.08554476,0.15654962,0.15757431,-0.020049505,0.06012342,0.008977204,0.20280781,-0.010592426,0.25583732,-0.008978697,0.09510443,0.043337688,0.18621175,0.049141414,0.13380757,0.055427533,-0.1211352,-0.061425738,0.021276817,0.25228012,0.14109506,0.09330731,-0.111719795,0.18298267,0.027805436,0.26247093,-0.17551565,-0.063562594,-0.124588475,0.1294514,-0.19594486,0.071375035,0.02427004,-0.10351384,0.0945331,0.10177709,0.12312215,-0.10551544,-0.0855067,-0.090895556,0.11552079,0.06465558,-0.21909133,-0.026716063,-0.034251586,0.34042767,0.11821499,-0.18161808,0.017371817,0.055496,0.14904742,0.17427649,-0.115165755,0.13433002,0.1435718,-0.28367493,-0.19640866,0.25978675,0.25514472,-0.2794167,0.13365641,0.10626407,-0.1779042,0.068367645,-0.16478135,0.12022466,-0.08661275,0.16871592,-0.11184317,0.033315606,-0.047692053,0.23597841,-0.059200864,-0.03347402,0.13497439,0.08807799,0.07971727,-0.059823293,0.05807906,0.06519581,-0.014959417,-0.3799921,-0.16672112,0.019733744,0.3057569,0.12347561,-0.003931718,-0.06727839,-0.21995182,-0.016213113,0.018724112,-0.09296381,-4.0907766e-05,0.31401452,0.06586699,0.07508052,0.023622187,0.045472447,-0.09429274,0.07937454,-0.21033776,0.06294588,-0.03349178,0.028537689,0.077887945,0.010318046,0.013189716,-0.07099298,0.034869563,-0.048236124,0.16826443,0.045324612,-0.25454774,-0.19864056,0.15578459,0.16112821,0.06063084,-0.097594865,-0.057993747,-0.11922517,-0.3426205,-0.2109218,0.0410598,-0.17297262,0.013540315,0.092444286,0.18792744,-0.1716791,-0.08101677,-0.060347665,0.030163445,0.339466,0.112448275,-0.09012735,0.20966822,-0.12437095,0.026594436,0.017248843,-0.047928058,-0.07498849,0.18565868,-0.07470284,-0.017084068,0.057572205,0.33205667,0.019464398,-0.015491784,0.07382013,0.0013905738,0.0025174157,0.21695621,-0.005652435,0.03685951,-0.1032472,-0.017891657,-0.09123144,0.02093193,-0.2862775,-0.078156985,0.10196018,-0.03403981,0.012276297,0.050324447,0.18417674,0.09327081,-0.04426409,-0.066587076,0.15941654,0.028348066,-0.21428686,-0.100540124,0.2750127,-0.03073078,0.16305113,0.039747227,0.19866827,-0.12302031,0.17392464,0.23989588,-0.038185496,-0.21746592,-0.09875919,0.1357202,0.10721496,-0.06769155,0.0947447,0.16441678,0.016809512,0.08163503,0.01096033,-0.03065303,-0.1385344,-0.17922944,0.20528154,0.043600254,0.119289875,0.24114472,0.06863627,0.13670158,0.17648643,0.054728758,-0.10604898,0.08508518,-0.019673219,-0.01820333,-0.1505979,0.0693376,0.18233138,0.0061982777,-0.24187915,-0.09489223,-0.03088365,-0.06894922,-0.14583711,-0.06933892,-0.05358171,-0.13625179,0.009689344,-0.09264453,-0.057125002,0.02589606,-0.059928942,-0.16904949,0.0535716,0.003330606,-0.02462399,-0.0038618748,-0.13273916,0.1866915,-0.025133198,0.010718809,-0.009920686,-0.023845527,0.14906554,0.07330547,0.15012756,0.2208124,0.03559402,0.14343226,-0.03382849,-0.15192613,0.13197525,0.13508874,0.028180797,-0.06697311,-0.04574494,-0.011981706,0.0035615282,-0.084766835,-0.103118435,0.05858241,-0.24437857,-0.12977482,0.058441833,-0.22575264,-0.17072281,-0.07991625,-0.11540276,-0.006752945,-0.12224427,0.014330059,-0.030030187,0.08914041,-0.08827317,-0.21840617,0.105954304,0.08727602,-0.026046151,0.067877576,-0.012048638,-0.081311636,0.12695661,0.12115353,-0.26783624,-0.17717409,0.048718926,0.027729137,0.15753846,0.32934165,0.073207155,0.15061371,0.063748315,0.017754726,-0.041897476,-0.043123838,-0.113581255,0.024326144,0.033725567,-0.08453382,0.24470355,-0.14752494,-0.16862237,-0.09089368,0.19475956,-0.1636393,0.08856041,0.028788177,0.12156252,-0.0504697,-0.01690073,0.010109578,0.06361578,-0.15568793,-0.22927177,-0.020349383,-0.09979069,-0.07637544,0.07182155,0.080817476,-0.028829439,0.022375636,0.21832946,-0.084311545,-0.09854137,0.19354431,-0.1365683,0.17972429,-0.05527199,1.0396948,-0.12444595,-0.1407155,-0.08770844,-0.012382071,-0.024375092,-0.15784477,0.18339224,0.20782176,0.029773125,-0.08407179,-0.088158645,0.087227635,-0.10509257,0.11767387,-0.17371352,-0.03872468,0.45329407,-0.23316479,0.00094722357,-0.056787536,-0.1925217,-0.18158601,-0.12644348,0.056048997,-0.25781128,0.19025107,0.09963215,0.1305664,0.1762689,0.010456814,-0.14124727,-0.02743736,0.11783152,-0.17636251,-0.07585191,-0.02158418,-0.00027507852,0.05798472,-0.011323332,-0.02741098,-0.028878387,0.08221912,-0.087163314,0.23236482,0.20263954,0.123549245,0.10510277,0.27078775,0.12729074,-0.15328866,-0.26408565,-0.31765506,-0.018957563,-0.14327246,-0.03043621,-0.12091933,0.05533258,-0.26602295,-0.046687655,-0.043401834,-0.06495072,0.08151145,-0.18821897,-0.3438651,-0.12616293,0.15415287,-0.060201444,-0.0035311498,-0.0072361375,-0.13753088,0.2720442,0.013349146,-0.040166568,0.12216804,0.043507494,0.1627502,0.02435996,0.15234043,0.13210256,-0.27209428,0.14389783,-0.036180485,-0.1350407,0.16428736,0.13636144,-0.09473103,0.08336408,-0.09232469,-0.08188128,0.095485136,0.021646848,0.09298313,-0.049055092,-0.035776313,0.12107724,0.25142083,0.03318457,0.0041706488,-0.32661536,-0.0047027282,-0.093943246,0.22482356,0.09351006,0.29892108,0.10551679,-0.007928108,-0.021197952,0.17901064,0.09874663,-0.14273001,0.18145661,-0.014594958,0.0950494,0.03803068,-0.23186862,0.13106589,0.07763908,-0.09642937,0.05885858,-0.030752001,-0.07182427,0.03872821,0.15463047,-0.070267715,-0.03616346,-0.11822363,-0.09896503,-0.16083002,0.2921558,0.05199169,-0.23913944,0.03430746,-0.014031724,-0.14963885,0.23631693,0.023933502,-0.0012845809,0.028330665,0.22358792,0.027338687,-0.022585107,0.16543254,0.10448627,0.046075348,-0.14958414,-0.094236866,-0.055105284,0.05501758,-0.086540066,-0.31637588,-0.09927995,-0.044399332,-0.015456876,0.06971174,-0.01650948,-0.09505201,0.03304956,0.0022718024,-0.09643366,0.16775557,0.11985881,0.03330701,-0.014191889,-0.05253781,0.20912537,-0.067558676,0.15847859,0.055022664,-0.06655518,0.048416782,0.053123254,-0.03365022,0.04503857,0.0030064036,-0.23999496,0.04614973,0.0070603597,-0.024998318,-0.013246414,-0.037855156,-0.007162745,0.064556785,-0.13886502,-0.08443162,-0.067292586,-0.018273186,-0.13662322,0.0169622,-0.21485569,-0.079257764,0.14791864,-0.090701826,-0.17206226,-0.010021611,0.0038935905,-0.10955455,-0.19757316,-0.0676787,0.0012870599,-0.063760936,0.052892007,0.0548964,-0.03339965,0.17734885,0.10994536,-0.1993662,0.16020806,0.17704323,0.010689926,-0.045690756,-0.05339582,0.1674384,0.089491606,-0.16210513,0.2524306,-0.03017106,-0.16370334,0.05145477,0.09359332,-0.20773058,0.15625137,0.19128722,0.0066888323,0.014377985,-0.15838951,0.19277027,0.0661848,-0.052248098,-0.1514196,-0.031377092,0.07935134,-0.09331784,-0.05574623,0.022353783,-0.010014862,0.061588705,-0.10327397,0.10569982,0.011178283,-0.023920454,-0.1501703,-0.093098536,0.13170029,0.02792618,0.03201028,0.0011565294,-0.14692728,-0.07907354,-0.09464867,-0.16887555,0.039272785,0.13022923,-0.07862798,0.25247848,-0.108377405,0.022619039,0.08564004,0.008954262,0.16562945,0.011425697,0.011104459,-0.0856194,0.10810225,0.07876076,-0.0898044,-0.07217018,-0.092177324,0.108369835,-0.069769785,0.06276341,0.13720456,0.016557377,0.07874785,-0.17932178,0.0357634,0.16939624,0.16472158,-0.051757574,-0.14684828,0.2244746,0.1792554,-0.2661721,-0.103302084,-8.51608,-0.4354684,0.2855119,-0.074515425,0.051100407,-0.06482121,0.17626682,0.06369925,0.049030658,-0.18755776,-0.058473725,0.065368116,-0.004047506,-0.08855893,-0.24004705,0.14037724,0.029708128,0.0816248,0.14772226,0.024870979,-0.23488352,0.04432315,0.1831845,-0.08704026,-0.109331846,-0.030124402,0.026578663,-0.0392344,0.19676764,0.10855326,-0.1111056,0.25331512,-0.25173876,0.08999049,-0.15930316,0.16419183,0.1346164,-0.10700157,0.029567648,0.14341691,-0.0063366564,0.009887183,0.0661211,0.10102672,0.21484274,-0.070289366,0.07025476,-0.075854026,-0.006939657,-0.030878529,-0.0215947,-0.15817152,-0.25001922,0.06470646,-0.121924296,-0.031495966,0.1322764,0.21378429,0.04413252,0.12551963,0.036172856,0.046570264,-0.01325026,0.24276243,0.08895274,0.16687772,-0.08365791,-0.16151424,-0.12655766,-0.07111007,0.19650313,0.12517008,0.019585852,-0.099438995,-0.03953529,0.028593682,0.05874996,0.11074443,0.03345068,0.08804717,0.20418525,0.052990407,0.021730611,-0.23661484,-0.14172438,0.04582869,0.1617202,-0.19930539,-0.15452947,0.048882373,0.031774007,0.09009189,0.18919797,0.10695532,-0.10867003,-0.15110943,0.048326183,0.09402482,0.029006282,0.023362517,-0.06436038,0.06644602,0.06355326,0.15206628,-0.12840721,-0.16476814,-0.25205904,-0.10955161,-0.070233695,-0.06571854,-0.22104137,0.01432533,-0.0729785,-0.069429494,-0.0065960926,-0.11156368,0.0039727036,0.04592552,0.240939,-0.043030232
MET_4_A,-0.05481751,-0.2284535,0.142505,0.0895489,0.012356009,-0.13938323,-0.059196852,0.09513562,-0.13413048,-0.07288192,0.0846853,0.050364245,-0.17952321,0.110999696,0.01115338,0.2991442,0.22101146,0.1160498,-0.102817014,-0.0059293876,-0.005740447,0.0059929388,-0.027641213,-0.06478487,0.07194064,0.4281194,-0.032892875,-0.07742216,0.1616553,0.11041551,-0.06139531,-0.09818428,0.04841252,-0.046162397,0.033336207,0.06611604,0.016864577,-0.082575135,-0.2020599,0.05063016,0.198238,0.16652812,0.11866267,-0.18445723,0.09908725,-0.0726513,0.012770772,0.013656031,-0.10865397,0.06282281,0.09456313,0.08017211,0.25843212,-0.08520898,-0.032603633,0.037660655,0.029706694,0.039758403,-0.18164766,0.15426773,-0.019117268,0.0398995,0.016964158,-0.0864742,-0.039840873,-0.22366773,-0.117829025,-0.26998463,0.040099286,-0.18768734,-0.109916754,-0.055964373,-0.11690678,-0.14114958,0.062782705,0.041035004,0.04678847,0.017824994,0.13115904,-0.07849294,0.036951292,-0.101259366,0.093197435,0.039378006,-0.01340667,0.055787366,0.2993692,-0.06993445,-0.12530668,0.00024893892,0.3087453,-0.065720856,0.04391059,-0.12304846,-0.12241946,-0.06877763,-0.007754812,0.1287547,-0.012804452,-0.027483342,-0.02753901,-0.05655904,0.0096595315,-0.027369643,0.01798612,-0.1008085,0.12788162,0.07085471,0.20514832,0.0011284444,0.20772786,-0.09274719,0.049144156,-0.102033176,0.027344635,0.03201124,0.12240404,0.20249744,-0.15534449,-0.04247731,0.020806551,-0.1612844,-0.0464499,0.12459895,0.09895005,0.14524238,-0.13740297,0.15924451,-0.10012581,-0.04845475,0.05900074,-0.10518999,-0.06639991,-0.12574454,-0.010143131,-0.05351774,0.10534207,0.05687564,0.06970143,-0.01463626,-0.02069271,0.12470072,0.21709247,-0.030452041,-0.19824822,0.049232665,0.055338386,0.07085141,-0.0665314,0.0829965,0.027533801,0.042022903,0.013229271,0.09505997,0.051909387,-0.020542488,-0.044762455,-0.070838414,0.022521222,0.091797784,0.115523316,-0.04199553,-0.05722944,0.03574007,-0.30421355,0.09497076,-0.0033237198,0.009855632,-0.036891557,-0.04463839,-0.06614864,0.08764915,0.058061667,-0.027289541,0.27991056,-0.027042279,0.0034790249,0.044235118,-0.08316884,0.15748394,0.045481037,0.10105768,-0.18169068,0.0071847304,-0.14301583,0.024464417,-0.21782175,0.038438506,-0.012791275,-0.018319497,0.21523818,-0.06606235,0.0054368763,0.049016923,0.11528946,-0.060926046,-0.05244088,-0.02245922,-0.12063654,0.083940156,0.16472541,-0.073175095,-0.056753457,-0.21973805,0.06894981,0.069963366,-0.0014982657,-0.2619955,-0.067703426,-0.0061677876,0.043759994,0.15451498,-0.105200104,-0.10536504,-0.03165907,0.10132706,0.144068,0.12873083,0.014054086,0.10144628,0.061711278,0.1043137,0.21110852,-0.17379023,0.068721116,-0.10824744,-0.11544468,0.016595418,-0.036012333,-0.124221094,0.07437133,0.2134267,-0.10319345,0.18856874,-1.130321,0.13228263,-0.07842127,-0.15723689,-0.0946734,-0.24525061,-0.228741,0.040252537,-0.20409806,-0.038764957,-0.2111682,-0.07985011,0.053503234,0.108788356,-0.10652383,0.036425106,0.23815697,-0.08263414,0.0034097992,0.053422444,0.04434583,-0.10093047,-0.01267303,-0.082915716,0.34210837,-0.008503487,0.03436515,0.094590485,-0.17904057,-0.12319181,-0.008495225,-0.089019656,0.059829097,-0.33702415,0.028524056,-0.3123399,0.115091674,0.2600406,-0.10048446,0.09682322,-0.07031403,-0.1178865,0.10399167,0.22693495,0.122890875,-0.059446067,-0.009358201,0.09070327,0.020762146,-0.20045055,0.024985097,0.040898174,0.026108898,0.028115124,-0.17244479,-0.010138674,-0.11393733,0.11926939,-0.016550962,-0.18696052,-0.11397553,-0.26406568,-0.22807176,-0.2218256,0.07596284,-0.051012266,-0.047404062,0.19971687,-0.06132624,-0.027682284,-0.13463473,0.061649516,-0.063044354,-0.05520804,0.14992346,0.13666572,0.074271575,0.11803631,-0.054704588,0.1692382,0.26732153,-0.0777304,0.006136059,0.01765398,-0.004449265,-0.19522703,-0.076629914,0.18549165,-0.06827121,-0.0131291505,0.30566338,-0.01638701,0.1326018,0.075501256,-0.16831903,-0.011842502,0.12521535,-0.065364644,0.039034754,-0.062061794,0.012347657,0.10730822,0.12914099,-0.026768578,0.075621136,-0.03467518,0.014321108,-0.020655792,-0.14048156,0.23890351,0.15551107,-0.13106585,-0.0794087,-0.3685199,0.111131236,0.15610948,0.09465403,0.08625423,0.109331496,0.08370651,-0.020349322,0.04539252,-0.077493556,0.025663108,-0.124864586,0.1339721,-0.037103962,0.09009502,-0.06315908,-0.29663977,0.08130974,-0.017581405,-0.07280026,0.16726835,0.022279624,-0.15814069,0.21563995,0.24587607,0.063105844,0.01129537,0.008048919,-0.115028396,-0.10348376,-0.11466895,0.21427837,0.05081832,-0.0025677467,-0.04550147,-0.1329149,-0.01277604,0.34694514,0.0577103,0.016658975,-0.020296533,-0.08928699,-0.03985918,0.24528842,0.054245215,-0.02870525,-0.10789935,-0.009266056,-0.048111513,0.10965123,0.22497115,0.18492265,0.23837885,0.059745986,-0.11080099,-0.031779584,-0.03174369,-0.011585916,0.062471,-0.0028241647,-0.12667888,-0.30201793,0.102310374,0.16729803,0.06690456,-0.0032969723,0.1667003,-0.24879672,0.008775486,0.116577126,0.007391744,0.021018067,-0.1800608,0.09015292,0.0069285366,-0.08187291,0.046780948,-0.00030783334,0.18057339,0.057467744,-0.08825309,0.25968334,-0.083771385,0.12210698,0.3060702,0.24898648,-0.062219683,0.18627179,-0.0834463,0.13444981,0.21399495,0.1814545,0.06065931,0.13056852,0.0629631,-0.005666043,-0.27807084,0.04166768,0.17875026,0.25435054,-0.16663651,0.03130688,0.13370779,0.13212316,0.061006334,-0.071542576,0.1784724,0.17969897,0.10860353,-0.08289112,0.103581995,-0.13055143,-0.07905423,0.07348188,-0.05613312,-0.036232002,-0.102787495,-0.1409573,-0.078223966,0.07571698,-0.18578431,0.03705036,-0.027750853,0.053415388,0.0009221531,-0.0394302,0.010818531,0.0690656,0.25948852,-0.0416382,0.1052578,0.09626361,-0.05417395,-0.020453315,0.3192819,0.042070683,0.052675206,-0.13071775,0.04133531,-0.14362277,0.16015679,-0.029568067,0.2505132,-0.047433246,0.17494555,-0.06148411,0.07477014,-0.07447992,0.057459455,0.037223395,0.3373281,0.025507804,-0.18777478,-0.14308228,-0.30013344,-0.14619288,0.112594076,-0.0015657768,-0.008099625,0.046361096,0.08717392,0.0154102985,0.12047578,0.11867571,-0.14144233,0.058763184,-0.31749576,0.0758032,-0.11212114,-0.13282159,0.09104524,-0.0043705446,-0.120483816,-0.011228243,-0.13922673,0.0576265,-0.021600047,0.13463575,-0.14833942,-0.03622945,0.04287296,-0.26886335,0.05825881,-0.18788946,0.09209256,-0.19838265,-0.041948028,0.14753203,-0.057700384,-0.22777674,-0.09039431,0.050351024,0.0016090107,-0.27892566,0.15221901,0.10278315,0.08735108,-0.014314076,-0.034386326,-0.13909334,0.2698853,0.08477422,0.025794959,0.2160071,0.08246941,-0.046911307,0.11489268,0.33836257,-0.05115337,-0.3813421,-0.13628918,0.06765917,0.17409426,0.09404564,0.114142284,-0.084911354,-0.12790903,0.17630953,0.14924291,0.11810558,-0.02464088,0.044239726,-0.09798836,0.024840299,0.080329545,-0.09311255,-0.1096087,0.028603347,0.024693642,-0.18646099,0.07417785,0.07869115,-0.14572205,-0.14843383,0.053561565,-0.04872817,0.17254211,0.15098302,0.100578725,-0.1542811,0.111128606,-0.20929922,0.21575831,-0.080880776,-0.14451565,-0.14694302,0.2295716,-0.050483197,0.28385785,-0.011720736,-0.08928261,0.25455922,-0.06418064,0.1937365,0.047481123,0.15681015,0.09204611,-0.11102572,-0.031691764,-0.027913626,-0.078687996,0.06943339,-0.034698192,-0.02746416,-0.14689495,0.04003883,0.19719929,-0.008972821,0.05651538,0.017617797,-0.049559474,0.0856676,-0.12112359,-0.1615553,0.22421528,-0.0030257837,0.04687264,0.14753424,0.041593987,0.024823429,0.022240005,0.0737323,0.15420358,0.20371301,-0.2831162,-0.15544963,0.0020329014,-0.07008018,-0.041986167,0.08939838,-0.037438743,-0.06322445,-0.065810524,-0.073874794,0.06440864,0.30890578,0.31187865,0.0804594,0.123787284,-0.19726573,0.1293252,0.044449415,-0.051700704,0.08169483,0.2661648,-0.0060236985,-0.1086184,-0.005703728,-0.026012167,-0.15135184,0.059094176,0.047630593,-0.09885924,0.12689763,-0.010286918,0.10146975,0.036937326,0.022824917,-0.075239725,0.092443,-0.10701095,0.15895534,0.12541051,0.066257946,-0.24072628,0.076805115,0.065596536,0.070700444,-0.111371145,-0.10326268,-0.15886901,-0.14238295,-0.17092158,-0.028524226,-0.095022,-0.17779632,0.21869607,0.083186574,0.3393142,0.0888281,-0.012200443,0.19653676,0.053058967,-0.017138056,-0.019180149,0.019374885,-0.067861184,-0.052517958,0.011617802,-0.045405637,0.11395052,-0.00442971,-0.1352459,-0.025513418,-0.02264541,-0.014524142,0.08795179,0.16833505,0.004912227,-0.12982471,-0.060231328,0.13405566,-0.122922905,-0.11943156,-0.16770026,0.038573638,-0.20641898,0.023059951,-0.12069987,-0.06175987,0.086083196,-0.19919388,0.41861054,-0.15203269,0.033031877,-0.05406854,-0.023860184,-0.049858853,-0.011469047,0.11184743,-0.12788837,0.13703904,0.25266007,-0.21517436,0.042443525,-0.10498035,0.13937654,0.018602569,-0.060976993,0.0595679,0.20829207,-0.10670896,-0.12188118,0.26387012,0.113296755,0.049395382,0.0471622,0.22889215,-0.081148595,0.10504777,-0.05759306,0.041593343,0.09506886,-0.0027436658,0.11038793,0.11863627,-0.030786967,-0.15204671,-0.16526118,0.18515052,-0.0922629,0.10459177,-0.12247377,0.021031031,0.17535205,-0.13484977,-0.041066788,-0.1065372,0.22815794,0.09797224,-0.07479162,0.20678653,-0.007586806,-0.17959015,-0.13130409,-0.051038284,0.06765743,-0.09178951,0.15702243,0.12687169,0.050059974,-0.12099806,-0.07228308,-0.03476172,0.026380068,-0.14336875,-0.032677777,-0.1726346,-0.17572628,0.18501723,-0.01597339,-0.1231156,-0.13021025,0.05246859,0.2209487,-0.019453876,-0.24196282,0.1801736,0.09372154,0.15609138,-0.1246568,-0.21869463,-0.11293725,0.07524549,-0.06828147,0.22191885,-0.086693816,0.062558405,0.15781291,0.11687531,-0.0829081,-0.060840063,0.216279,-0.0078104204,0.04068112,-0.011486783,0.13576622,0.028936923,0.015941381,-0.005410623,-0.12530823,0.021686273,0.021496382,0.07099235,-0.038794536,-0.007330309,-0.15388925,0.21551415,0.038983792,-0.078326724,-0.106412,-0.10494791,-0.060001746,0.041406635,0.08381747,-0.009734679,-0.086470164,-0.04856986,0.3706987,0.21896367,-0.011727695,-0.07621928,-0.06142738,0.073783584,-0.18868475,-0.016302828,-0.18827114,-0.16368718,-0.06434337,0.14057115,-0.002288926,-0.1107209,0.0074885204,-0.040275916,-0.13957293,-0.20224446,0.110415004,0.20859465,-0.0029673718,-0.0032853337,-0.15223151,-0.12532923,0.05902571,-0.11362326,-0.020071879,-0.13135959,0.056559123,-0.031294357,-0.06841078,0.0005146454,0.049241025,0.2616278,-0.16513447,-0.0017808867,0.15584126,0.08010769,-0.043078553,0.11254888,-0.11050655,-1.6162667,-0.1253557,-0.13026178,-0.030875914,0.14828345,-0.17322737,0.027514577,-0.0015940766,0.044586588,-0.059692517,-0.036466215,0.13701412,0.23497055,-0.06525695,0.057304427,-0.06815524,0.24162783,0.021079678,-0.27660608,0.04470712,0.022464273,-0.09197013,0.045548085,-0.14623465,0.009317233,-0.3003803,0.22144872,0.03030512,0.32678577,-0.021156231,0.17515267,0.16622461,0.006311571,0.05312743,0.028228836,-0.12717782,0.0926761,-0.025459535,0.0812076,-0.12677097,0.11595207,-0.15794268,0.07677242,-0.095217906,-0.034849003,0.106026575,-0.11086611,-0.0584913,0.013548274,-0.06098259,0.0006941704,-0.10338679,-0.36750916,0.27422097,-0.121296436,-0.21255651,-0.105906546,0.04022049,-0.19929738,0.020686349,-0.06167163,0.02213621,0.064290024,0.08162294,-0.14605498,-0.19031967,0.16045418,-0.029856693,0.06626772,0.13356437,-0.05334774,0.134558,-0.06776988,-0.17133446,0.089237295,0.05928289,-0.07686607,-0.13074602,-0.14560398,0.03276258,-0.17762047,0.01599909,0.13735391,-0.17247668,-0.15053053,0.16016519,-0.0714355,-0.020166688,0.06403476,0.050372656,0.050959136,0.13213703,0.08172824,0.06528768,-0.0012511166,0.23930126,0.15703413,0.013851401,-0.13426408,-0.056474626,-0.21763043,0.17831264,-0.053009886,-0.22617072,0.1314547,0.046391558,0.1081431,0.008299736,0.17998026,0.07619733,0.050890062,0.039184768,-0.16442749,0.18812343,0.22430828,-0.12627316,0.19855453,-0.09665858,-0.10217945,-0.27829072,-0.08026702,-0.10175404,-0.048605356,0.040429026,-0.17084698,-0.13011558,0.19715005,-0.08359824,-0.32462043,0.13807905,0.10761349,-0.16652761,-0.09052483,-0.15519805,-0.26424754,0.06809958,0.007739944,0.1298862,0.0193026,0.18554218,-0.14152174,0.24427466,0.30888915,0.12162986,0.23329356,-0.11380425,0.013267128,0.043304794,0.17632946,0.16799577,-0.08177175,-0.08041641,0.24812257,0.027271846,0.020152578,0.015531198,0.058626138,0.18984865,-0.03475677,0.0047584083,0.13505498,-0.12500592,-0.016119339,-0.09326341,0.016639937,0.11567103,-0.020977234,0.21368714,0.20758137,0.07997201,-0.02535652,-0.053215373,0.19808704,-0.19186643,0.12498704,0.0070160604,0.13355136,-0.051066957,-0.0871436,0.27629825,0.02497073,-0.013928204,0.002775133,-0.046114516,0.2009973,0.014616932,0.08196559,-0.08724023,-0.23898679,-0.1963475,0.23873594,0.04096653,-0.123068005,-0.05129117,0.30774426,0.18641062,-0.07403243,-0.20572655,-0.27036127,-0.12000911,-0.14978954,-0.14665659,0.14524437,0.14534785,0.052392896,-0.16464485,0.04452845,0.0784732,0.16446534,0.21869722,0.25105166,0.003908042,0.07934036,0.044003136,-0.050005853,-0.032593094,-0.016081234,-0.029457808,-0.08667155,0.24930455,-0.095843464,-0.11406731,0.23071794,0.068198815,-0.23128006,-0.0021191826,0.17756554,-0.15017368,-0.14629221,-0.008604031,-0.031346038,0.143879,-0.10923393,-0.094498344,0.1649537,-0.059519872,0.12387633,0.008611328,0.38973185,0.15803802,-0.10717511,0.01575476,-0.13960047,0.12393049,0.055833086,0.118360445,-0.10601703,-0.04094875,-0.23625585,-0.21576199,-0.032407656,-0.10113735,0.0385303,-0.12055492,0.2333135,0.057539526,-0.052451305,-0.05007511,-0.057421774,0.24616562,0.08175029,0.08652783,-0.08863557,0.11204778,-0.095001265,0.04996148,-0.06411034,-0.3480403,-0.11006135,0.19691278,-0.1445948,-0.076270536,-0.068682924,-0.17206812,0.07207647,-0.07324339,0.07195302,-0.01865159,-0.026844773,0.018262936,0.18117562,0.054604705,-0.3316756,0.21707208,-8.604029,0.15844403,0.15901305,0.07483476,0.10300571,0.17988564,0.048824646,0.0058423323,0.0030132083,-0.18072973,-0.11854625,-0.1400289,0.022403942,0.016412513,-0.0832274,0.00026816595,-0.09415016,-0.0027058586,0.122411884,0.0144385975,0.07960124,0.016063679,0.13664784,0.09938552,-0.013488557,-0.07676891,0.09563779,-0.019640634,0.12922493,0.00022411419,-0.021358836,0.18242875,-0.22618243,-0.00631651,-0.058094304,0.10538916,0.21109731,-0.055439122,0.1719959,0.15991178,0.11818691,0.11455215,0.04917204,0.06365319,-0.02398594,0.08061174,-0.022246672,-0.15485647,0.16984218,0.027907766,-0.0037348014,-0.19491123,-0.11662894,-0.0014800696,0.1758675,-0.23160112,-0.0008611622,0.16890562,-0.060889114,0.12979308,-0.056760743,-0.08474945,-0.27424714,0.05852881,-0.117058605,0.21288404,0.17511345,-0.14679779,0.19245532,0.16755481,0.2266261,0.21272124,0.06154253,0.107483745,-0.20427948,-0.0900676,0.11055653,-0.0025549042,0.113386765,0.16721217,0.08984096,-0.1244934,0.2177581,-0.09379101,0.058949962,0.030328311,0.02055046,0.11710162,-0.12201484,0.067254074,-0.039252713,0.19163792,0.13533266,-0.07999856,-0.063777685,-0.08249006,0.031895887,0.0952926,0.25537014,-0.10554321,0.30349803,-0.04507006,-0.06096669,-0.038231768,0.07526877,-0.023222405,-0.2213426,0.041377794,0.011899322,-0.15198594,-0.2053114,-0.104625024,-0.06026167,-0.11676191,-0.13688576,-0.072545126,-0.16641073,-0.055986516,-0.084910534,-0.19543901
ALA_5_A,-0.08034034,-0.113642015,0.078799255,-0.11960508,0.10540006,0.10460733,-0.111831,-0.02797189,0.05678689,-0.05497264,0.0516734,-0.037808966,0.009940226,0.034498297,0.038829282,0.075060375,-0.009137046,0.095474,-0.12125305,0.027575653,0.13475582,0.07483961,-0.09019027,-0.06485261,0.010449489,0.4009739,0.021795874,0.05301341,0.07567586,-0.01888604,-0.10544309,-0.08694559,0.050933897,-0.15610565,-0.28232267,-0.087642044,0.094050676,-0.022738501,-0.07933407,-0.014978065,0.12155609,-0.021049686,-0.1117979,0.13663413,0.10512853,-0.06622465,0.14448953,0.26069257,0.015331746,0.17302024,0.122048944,-0.03264491,0.1382215,-0.20903294,0.010290839,0.112058945,-0.1539123,0.08661882,-0.055835903,0.019354068,0.21551955,-0.2006824,0.05537006,0.015326556,0.00058984855,-0.02824512,0.08307087,-0.0792921,0.054206796,-0.14011967,0.1010455,-0.038131,-0.30239454,0.022013377,0.08016084,0.03627944,0.07079089,0.051325127,-0.05090379,-0.13741344,-0.06464526,-0.12784389,0.07767644,-0.057985857,-0.11893946,0.06367169,-0.052137986,0.041857634,-0.020475421,-0.0634341,0.12409218,0.08198214,0.080516756,-0.034744635,-0.33570704,0.11815112,0.12334422,0.0026368648,0.113261074,0.07030283,-0.17405546,-0.15944554,-0.06879919,-0.017616468,0.0872788,-0.13566403,0.050528318,0.052953903,-0.03680195,0.01963142,0.07568424,-0.013728688,-0.20314749,0.04694329,-0.09993889,0.11300996,-0.06198086,0.19947621,-0.0756006,0.05505388,0.05725804,-0.05183117,0.048794057,0.27286932,0.051200822,0.27364704,0.10170166,0.14197136,0.05893025,0.046659112,-0.14094958,0.24930336,-0.04113072,-0.0773834,-0.110009246,0.10431977,-0.20217533,0.09641197,0.017865764,0.09738161,-0.038721636,0.06451277,0.19805826,-0.08254712,-0.092072114,0.10203667,0.10417081,0.2844622,0.07153161,0.0760754,0.09414201,0.02639751,0.22562453,0.0020544827,-0.06269739,0.022005228,0.03997836,-0.16402397,0.058750637,-0.067367695,-0.11757978,-0.01047987,-0.05261642,-0.15081094,0.05325304,0.08942547,-0.11707002,0.19826147,-0.03191589,0.06442964,0.07964128,0.16364068,0.4208451,0.081159115,0.11403391,0.05562425,0.046892554,-0.10070051,-0.07506083,0.17871174,0.12817454,-0.014970302,0.054655228,-0.063173324,-0.19342254,0.086144,-0.057624713,0.045355678,-0.021004725,-0.124095276,-0.048463464,-0.04037475,0.038777772,-0.026735358,0.16569313,0.02358106,0.23992279,-0.09547922,0.10121747,-0.07001662,0.10870574,-0.14174256,-0.16764557,-0.046868686,-0.06813644,0.23212568,-0.08945134,-0.3115411,-0.2569706,-0.18869461,0.07325784,-0.019849487,-0.21112297,-0.3354338,0.08127808,0.072187826,0.15462281,0.112324096,-0.058797892,-0.00948319,0.22765878,0.1917978,0.14005865,0.18852372,-0.11286077,0.03186225,-0.18562454,0.24341446,-0.034044906,0.24022631,-0.15747122,0.16864972,-0.20156707,-0.13429008,-2.0376332,0.017263658,0.0018738268,0.1007393,-0.06885275,-0.24217927,-0.12380263,0.03082901,-0.011806089,-0.11974708,-0.25116637,-0.19868259,0.2049032,0.24923694,-0.0233026,0.006953908,-0.03137049,0.09243534,0.019752005,0.2135199,-0.009027601,-0.15105017,0.13450861,-0.14713956,-0.14309505,-0.040710095,0.021104645,-0.027288137,-0.13985619,-0.26302552,-0.124409184,0.026062768,-0.04242541,0.03236107,0.17503487,-0.030794924,-0.1514145,0.034997433,-0.107756406,0.10085392,0.12159108,0.085559525,-0.08101745,0.15220173,0.06355597,0.20516682,-0.18930356,0.019384054,-0.07493733,0.09112456,0.04903996,-0.085365325,0.25572953,0.13323273,-0.082905434,-0.11741428,-0.07720798,0.23382916,-0.020773098,-0.19204299,-0.024206482,-0.15637392,-0.09951898,0.043595806,0.2728654,-0.09856272,0.09880495,0.17249683,0.3654132,-0.052840866,-0.094025575,0.26318845,-0.042521164,-0.15200642,0.019913169,0.085480586,0.11998088,0.16499919,-0.12099688,0.24894506,-0.004714642,-0.1574025,0.052202858,-0.12192169,0.09943258,-0.1975836,-0.06012724,0.2519893,-0.35262293,0.13260429,0.16304548,-0.039043874,-0.008093267,-0.11890893,-0.18932202,-0.17936653,0.13437116,0.12242071,0.12500924,-0.10877465,0.13544391,0.013887838,0.20140244,-0.23916249,0.16072005,-0.034202132,0.060654063,0.048319325,-0.19965176,-0.17852849,0.11586837,-0.11680716,0.30047187,-0.054978207,0.049306832,0.16007327,0.11123842,-0.013755384,0.06701132,0.004743944,0.11600291,0.10584279,0.225594,0.32454833,-0.09993215,-0.051172934,0.012732869,0.10826212,-0.23592173,0.09347192,-0.23895346,0.0290648,0.10701011,-0.06958157,-0.098306514,-0.011364025,0.10849327,-0.0142668765,-0.08780205,-0.03253478,-0.11690333,-0.13498376,0.010265463,0.035707705,0.094617486,-0.13876858,0.13343456,-0.03427275,-0.06124838,0.16836931,0.047994796,0.070691735,0.0068265437,-0.092027865,-0.04060475,-0.08695658,0.102249786,0.03865155,0.03744203,0.1616088,0.16534126,-0.035255533,0.25894538,0.07327072,0.14477906,0.012111674,-0.044529468,0.052281555,-0.1465687,-0.034738496,-0.0025469037,0.19629128,0.20107871,-0.17332053,-0.19693747,-0.11348895,0.112630025,0.12759954,-0.2891139,0.25726938,0.11739448,0.10893477,0.2442654,0.029173153,0.15878674,-0.0002282384,0.015948793,-0.012694388,-0.17508937,-0.034150507,-0.08613297,0.026921425,-0.01216115,-0.06449067,0.1987058,-0.092318386,0.417342,-0.0013915703,0.113842644,0.094872266,-0.03728943,0.022585789,0.13364954,0.09604453,0.19643989,-0.24811819,0.0689472,0.15626274,-0.06472637,-0.2000533,-0.10621612,-0.29799244,0.14198954,-0.026730416,0.0654787,0.051611923,0.18633737,-0.023405973,0.20455024,0.14456925,0.23959221,-0.040002443,-0.11426162,0.23495582,0.08312222,-0.031568084,-0.07244546,-0.07168969,-0.023274768,0.06837968,-0.024129808,-0.0384019,0.12979178,-0.052478675,0.13580145,0.10909432,-0.10513081,0.09636149,0.032713704,0.12852459,0.07707756,-0.04414837,-0.04522853,-0.027563082,0.13832848,-0.16356345,-0.026157014,0.17615284,0.035291225,0.17474784,-0.07000303,-0.18813856,-0.19962636,-0.0051304614,-0.11815845,0.3969975,-0.13275422,-0.0761045,-0.1061107,0.10112423,0.02374313,0.030974705,-0.04037828,0.06859593,-0.058828834,0.041471902,-0.12057967,-0.06728136,0.055474766,0.33444226,-0.34609458,-0.13287683,-0.08865782,0.03241037,0.032750707,0.08585921,0.08189233,-0.02563597,-0.11347734,-0.093673445,0.29858267,-0.20058373,0.2638728,-0.0006392278,-0.05548897,0.09590581,-0.0854454,-0.08624974,-0.0150202755,0.07345094,-0.14713092,-0.14546433,0.07926303,-0.08069454,0.10557991,-0.20389186,-0.23065534,0.18653865,-0.032475956,-0.0009024718,0.13010685,-0.00913582,-0.40879312,-0.030111415,0.08229554,-0.035879493,-0.19895698,0.17502917,0.18030173,0.114928074,-0.114380546,-0.10676948,0.05554924,-0.09666484,0.024964571,-0.103856854,0.24022554,0.09648512,-0.2385045,0.3532468,0.078940675,-0.16633353,-0.29154593,-0.0061404016,0.043973096,0.20712493,0.09928048,0.07095261,-0.12995072,0.32660565,0.07165708,0.061201427,0.162692,-0.3573623,-0.06481367,0.120539874,0.06061612,0.07234974,-0.032977235,0.13018319,-0.07132438,0.23415513,-0.080558725,-0.020586522,0.09213746,0.14281295,-0.19893149,0.055485945,0.15144958,0.1926409,-0.35462984,-0.10252692,-0.37863076,-0.0057817656,-0.13930403,0.13678314,-0.035536915,0.019897837,-0.21895306,-0.099956036,0.1684727,-0.14074872,0.006160583,-0.026699442,-0.0070697614,-0.022903036,0.123499,0.15626329,0.0059035243,0.3812997,0.085133284,-0.15170616,-0.057726033,-0.23715527,-0.0211978,-0.07871118,0.040679414,-0.19930843,0.18459219,-0.14339606,-0.11070561,0.119880766,0.19659223,-0.2720192,-0.030089334,0.01970646,-0.18153831,0.399589,-0.06521315,-0.0503539,-0.09467223,0.046580467,-0.026194407,-0.040393177,-0.023465764,-0.058847085,0.0031717224,-0.072888464,-0.08142314,0.007345047,-0.012287179,-0.06881409,0.0013090618,0.040861927,-0.060381334,-0.062757485,-0.029407445,-0.07288842,-0.01837419,0.2635684,0.06790843,0.2200464,0.04837043,0.048347447,-0.19871897,-0.11278125,0.2701528,0.2567701,0.09378292,-0.13322824,0.12631054,-0.049416706,0.09517676,0.13980396,-0.18174739,0.014270685,0.20886928,-0.021574855,0.1557968,0.00245833,0.017457448,-0.19987446,-0.0075382297,-0.011974293,0.23602447,-0.08079463,0.012623808,-0.14842,0.16675805,0.27577278,0.2005553,0.016856018,-0.0746308,-0.16531871,-0.11608251,-0.029966118,0.096977405,-0.14670657,-0.042251654,0.24749488,-0.027005099,0.008974059,0.22957243,-0.13915078,-0.025431203,0.05266918,0.2731119,-0.07475084,-0.21258456,0.105692916,0.006499007,-0.060865935,-0.027013306,-0.086890645,0.17372848,0.09341267,-0.05508944,0.03219043,0.22666709,0.24013448,0.07542817,-0.21224336,-0.08001144,-0.41366717,0.050107807,0.092394225,-0.021238368,-0.20691268,-0.13523296,0.019855455,-0.20192431,-0.14238267,-0.06146808,-0.03841834,-0.045209773,0.0021009299,0.072519265,0.24068914,0.16756229,-0.16693056,0.044010755,-0.14023821,-0.0804204,0.06917582,0.08654294,0.05503289,0.005891523,0.17185842,0.06822302,-0.17989352,-0.047134776,0.07261052,0.4739028,0.092187084,0.10697072,-0.058423325,-0.15972647,0.0031261637,0.034816664,0.12198927,0.102253154,-0.22027417,0.010483904,-0.045459732,0.1612233,0.16774508,-0.047224652,0.050714057,0.096646,-0.14575446,-0.14733304,-0.08462642,0.08752067,-0.077123165,-0.030301964,-0.07634645,-0.3033407,-0.07888473,0.090383284,-0.026342591,0.049998395,0.093558505,-0.06354288,0.114660986,-0.043822244,0.07448837,-0.032371946,-0.026164198,0.1808235,0.03795273,-0.055552736,0.35718605,-0.009101824,0.020787956,-0.10491022,0.11136122,0.1449132,0.16288196,0.024905954,0.06965402,-0.068107136,0.13084206,0.21274643,0.075725876,0.06919532,-0.24518256,0.06958816,0.07254487,-0.1115041,0.027621841,-0.12264665,-0.0169204,0.004838104,0.012996303,-0.23207846,0.08482321,0.010701169,0.055358376,-0.17629725,-0.075757764,0.02170328,0.057878193,-0.08746126,0.03254123,-0.017049497,-0.08430634,-0.024613472,0.021776276,-0.34823883,-0.043405384,-0.08451306,0.099971004,-0.12304478,-0.05619941,0.12278425,-0.085972816,0.015086377,-0.060005814,-0.060262967,0.09153917,-0.025005328,-0.17644562,-0.082802825,0.022704002,-0.12461904,0.21560408,0.016967354,-0.107032664,-0.1478419,0.049992077,0.04388253,0.27010584,0.023102766,0.12623993,0.011136067,-0.027506446,-0.033119213,-0.16064714,-0.1804654,-0.13644929,0.07509987,0.14092092,0.11571207,0.053202733,-0.12915453,-0.29855415,0.05571189,-0.29253286,-0.21146773,-0.0008228676,0.13134481,0.21651182,0.14467512,0.0008669639,0.030109817,-0.054158323,-0.20326598,-0.0846925,0.043653388,0.082960755,-0.17644392,0.107645616,-0.015170441,-0.08954746,0.08357243,0.058232054,-0.06158254,0.045861598,0.14406224,-0.09727769,0.16678819,-0.14320257,0.531316,-0.12704676,-0.10691747,-0.0021459218,0.22605887,-0.17502154,-0.06105376,-0.09605194,0.17858113,0.0712741,-0.14991412,-0.16304721,0.14436013,-0.21103126,0.035669994,0.067877516,-0.0421428,0.081397384,-0.31990802,-0.12582316,-0.060356952,-0.095102824,-0.14255707,-0.09440822,-0.06284548,-0.36248082,-0.16071741,0.010867957,0.12304165,0.04692011,0.013205387,-0.21556444,0.020770945,-0.055839505,0.09992626,0.08833926,0.26828673,0.11464441,0.0152280275,-0.16115752,0.06266337,0.0706916,-0.011788401,0.25100523,0.06388281,0.068857014,-0.19810675,-0.06323808,0.08275002,0.15581815,-0.12156004,0.12256467,-0.30899647,0.1969277,-0.09607382,-0.19595605,-0.1106274,-0.053833757,0.013299152,0.093049526,0.28525296,-0.14791484,-0.049548175,0.1691576,-0.3653691,0.009231638,0.057919834,-0.040306047,0.12301217,-0.0042520305,0.0010083821,0.13067153,0.053865336,0.17094868,0.1788432,-0.05001363,0.07784071,-0.05137634,0.06854403,-0.03912961,-0.08713545,0.031692646,-0.15442178,0.015106381,0.17487688,0.18811472,-0.19394733,-0.06267651,-0.016440142,-0.14392713,-0.0016337147,0.17629376,0.08381692,0.095431164,0.043866836,0.13095139,-0.0015752758,-0.013397777,-0.12093586,-0.014660819,-0.10263833,0.032775972,0.085431285,-0.11470369,0.34322092,0.11517942,0.05129257,0.06209499,-0.09903058,0.22605145,-0.06542979,0.09353634,0.0021343357,0.10968477,-0.04576907,-0.1553875,0.052731153,-0.015995845,-0.04322576,-0.12725446,0.0706491,-0.15251178,0.112838715,0.07766661,-0.1368184,-0.047683273,-0.13050473,-0.12681074,-0.10072776,0.066365585,-0.0764347,-0.06470687,0.012908756,-0.28935957,0.34167406,-0.032869663,0.018623251,0.15602422,0.14765191,0.100008205,-0.17996573,0.049374543,0.18449032,0.2759697,0.06255899,-0.06665038,0.028592424,-0.3278012,0.13432291,-0.06985123,-0.21332665,-0.024578234,-0.0015894106,-0.08084532,0.2539826,-0.084503375,0.12164947,-0.027448619,-0.0115495175,-0.05682079,0.1674538,0.026610019,0.14939365,0.06045986,0.002138332,-0.06324861,-0.040769823,0.17890108,0.3160886,-0.03863868,0.10733896,0.0009891301,0.18326019,0.058309935,0.14388393,0.18688399,-0.015946558,-0.1627518,0.08893384,0.15446441,0.13241902,0.09063162,0.08523733,-0.15066627,-0.22008091,0.18915254,0.045583233,0.07511273,-0.13232215,0.03434291,-0.09261449,0.08502149,0.05227118,-0.057127334,0.060998205,-0.05492847,-0.06603384,0.14713542,-0.15146905,0.17098336,-0.23993298,0.105152875,-0.18332757,-0.11881744,0.0580136,-0.039540317,-0.11469715,0.111535795,0.11345234,0.08370364,0.05214028,0.18173045,0.2068206,-0.1287458,-0.2824564,0.23378682,0.2027937,-0.41652972,-0.040550746,0.11706151,-0.035921566,-0.03855457,0.2077029,0.16587096,-0.1568448,-0.009749177,0.0678395,0.07135713,-0.23826124,0.044057094,-0.15938228,-0.039902236,-0.177741,-0.08367554,0.03300308,-0.04880722,0.023630919,-0.08828602,0.27542955,0.15331306,-0.09982134,-0.18048015,0.017751554,-0.029300453,0.025212675,-0.1871179,-0.10605285,-0.32981294,0.023633938,0.066906355,-0.050026283,-0.05910169,0.21831016,-0.0581644,-0.00026190595,0.0018684523,-0.105508514,-0.29775462,-0.1609546,-0.09589728,0.06382858,0.031144477,-0.07595535,0.12872757,0.12367013,0.108868584,-0.20770414,-0.005879337,0.017928908,0.14722317,-0.100516535,0.075788915,0.15826902,0.08959237,0.10548325,-0.1512503,-0.023773799,0.002186478,0.046978455,-0.13436674,0.15619926,0.016497543,-0.058820542,0.050960653,-8.517674,-0.2420643,0.09246035,0.1499381,0.109734625,0.20170769,-0.0062172064,-0.061233155,-0.0070502595,0.027612077,-0.12230503,-0.18806818,-0.0120255705,0.07501549,0.022641752,-0.034828108,0.04474734,-0.2916913,0.14641988,0.114813775,-0.13859119,-0.11383205,-0.11786634,0.05607379,0.029098833,0.02787304,0.09235607,0.15295018,0.10044444,0.15891495,-0.04771043,0.002215275,-0.09051792,0.13811773,0.2504272,0.09645363,0.2380425,-0.058841553,0.18085192,0.2002142,0.073786005,-0.09994767,-0.054422624,0.1164834,0.05329605,-0.013660149,0.014627895,-0.03931516,-0.025981816,-0.12335827,0.0107778525,-0.08069734,0.06796943,0.029552346,0.008601542,-0.26792252,0.018775377,0.2031008,0.0077592563,-0.011444476,-0.008535263,0.103921585,0.02542608,-0.05811482,-0.0132064335,0.09670418,-0.08172738,-0.09867784,0.05472516,0.026964214,0.023685584,0.09230103,0.04251421,0.27727178,-0.046944745,-0.13781846,0.13700111,0.03559947,0.06781674,0.09252586,-0.02937068,-0.083421096,0.09435078,0.00527128,-0.23500022,-0.06324456,0.11749594,0.02657083,0.03869183,0.16318594,0.29289842,0.09752427,-0.0017310634,0.199263,0.029428463,-0.1041232,0.0060402127,-0.06923458,-0.11201117,-0.006892172,-0.07887848,0.123172134,-0.13689901,0.15158966,0.037205588,-0.057736654,-0.22270018,0.10357586,0.049466603,0.18344203,-0.040375836,-0.112133995,0.035010997,0.0067181066,-0.14917903,0.19537508,-0.093590334,-0.15258996,-0.042943493,-0.075101346
ARG_6_A,0.17093611,0.013272525,0.17985308,0.059374943,-0.041136842,0.20178507,-0.2302229,0.029192561,0.057631247,-0.0152922785,0.022843214,0.03307009,-0.012451575,-0.062219925,-0.10168933,0.22514758,-0.05785842,0.3119064,-0.026128048,0.20069973,0.061542105,0.1270694,0.032592572,0.035869077,0.107963026,0.39976525,0.01531459,-0.075702675,0.12432627,-0.10975928,-0.099472135,0.090878725,0.11446766,-0.075686365,-0.012141522,-0.09782416,-0.09789196,-0.04814399,0.19462939,-0.26910245,0.08158498,-0.14956075,0.049727798,-0.045853633,-0.025240047,0.01782401,0.17501877,0.010718605,-0.06974731,0.09515723,-0.15002522,0.040722523,-0.017656293,-0.05723364,-0.025128707,0.0715425,-0.17587294,0.104203954,-0.041383725,-0.008960929,0.23133479,-0.021670552,-0.1216453,0.100713454,-0.27053538,-0.09158993,-0.025594389,-0.12199631,0.07738564,0.02294005,0.18025446,-0.14287455,-0.27911896,-0.104502074,-0.03991216,-0.014825558,-0.10342855,0.061336175,0.015680522,0.12510443,-0.20190094,-0.10025127,0.03324583,0.03184407,0.16863991,-0.012286361,-0.053537555,0.14720893,-0.07334281,-0.06386258,0.070423506,0.19489491,0.19742642,-0.021386217,-0.049095936,-0.011053723,0.11623631,0.02705914,-0.013581313,0.2502944,0.13338253,-0.16935629,-0.24921916,0.057850007,-0.14442621,-0.06152077,-0.036031716,-0.07895128,0.15889788,0.11367025,-0.014318353,0.018084748,-0.20786445,-0.05268961,0.08658525,0.19079529,-0.03994892,0.24566881,0.06618243,0.008431575,-0.060418885,-0.064807385,0.18092947,0.21158402,0.08286365,0.23542714,-0.05862979,0.08634076,0.13531248,-0.029736351,-0.15093355,0.09171653,-0.032180358,0.046389677,0.02736291,0.06928144,-0.086216286,0.15404874,0.0988826,0.15778765,-0.029544229,-0.024352899,0.021587303,0.079741776,-0.011343351,0.11822061,0.030446926,0.103574164,-0.01723542,0.12345808,0.039288685,-0.01668983,0.20942931,0.17060661,-0.11464905,-0.04853618,0.08002015,0.06422636,-0.15839148,0.044651154,0.15232697,0.1801476,0.11823361,-0.19310336,0.14725706,0.078041226,0.24398181,-0.08000304,0.028776532,-0.16228671,-0.015197592,0.16083224,0.25917768,0.033273403,0.116386466,0.1641258,0.081268035,0.11602919,-0.093518466,0.09676386,0.17501162,-0.005047061,-0.00599238,-0.28648505,-0.03788717,0.21122712,-0.03147077,-0.07315968,0.16402863,0.010543477,0.052086204,0.026018254,-0.07821335,0.059648167,0.06733578,-0.030723782,-0.0070209424,0.11279547,0.0139536625,0.07418152,0.2642204,0.045527626,-0.014907578,0.002455665,-0.08613996,0.009671723,0.20370342,-0.22892717,-0.1259692,-0.042934652,0.021757506,0.14668864,-0.075246856,-0.064710364,-0.20385945,0.07969867,0.14418623,0.032774877,0.15080036,-0.04009656,0.15814069,-0.05898189,0.01739378,-0.17728803,-0.087075636,0.08659465,0.029955667,-0.043405715,-0.21866752,0.14383833,0.062093507,-0.06503306,-0.12417009,0.0050620595,-2.9459465,-0.079506494,-0.123799786,0.08967102,-0.1257292,0.015358609,-0.048941344,-0.12431788,0.024145378,0.0692755,-0.1853564,-0.120918445,0.20365697,0.08261357,0.07897551,-0.0131590385,0.19197911,0.0849009,0.16242605,0.12222568,0.008844765,-0.28088966,0.027955953,-0.10377049,0.100574546,0.010160947,0.24782956,0.16150653,-0.17539135,-0.00043842534,-0.2515902,-0.24876867,0.05594551,-0.2140582,0.07335967,-0.10460989,-0.053530384,0.019914439,-0.051902447,-0.069642074,0.09469086,-0.10140694,-0.06961201,0.06690685,0.22289294,0.28321326,-0.0058097113,0.023154236,-0.086096756,-0.14026338,-0.021077972,0.19462019,-0.014256627,-0.03175579,-0.057735454,-0.050656796,-0.033240132,-0.04981044,0.008806371,-0.0016464622,-0.18583833,0.18911056,0.027387232,0.054759223,0.16813053,0.027399085,0.04087604,0.12911211,-0.06941349,0.060965758,-0.12901509,0.14040728,-0.1608097,0.026009137,0.037700254,0.026331918,0.06747141,0.12019117,-0.11087891,-0.07897027,0.056704212,-0.20046432,0.15434499,0.033633128,0.07324565,-0.14963615,0.18164504,0.19482931,-0.22141014,0.16587186,0.09549284,0.029947137,0.09525593,0.10226386,-0.12261662,0.13006613,-0.009377456,-0.2694148,0.10891504,-0.24706677,0.13088685,0.04141644,0.07816668,-0.02940905,0.10375035,0.09130915,0.19345178,0.024880188,-0.005419623,-0.026734527,-0.10554321,-0.026076762,0.14023422,0.13303244,-0.0137822805,0.19020537,0.2665453,-0.06376174,0.03631673,-0.10107848,0.006885347,0.1216104,0.084996715,0.07688838,-0.091213524,-0.30565882,-0.122753866,0.17094582,0.0150165735,0.07239968,0.03200299,0.2465786,-0.058409844,-0.073670715,-0.0590939,-0.06220462,-0.041615754,-0.11239703,-0.039728202,0.072771244,-0.035556253,0.015768686,0.06743763,-0.13270651,0.1409508,0.0432161,-0.10020833,-0.19601047,-0.07267937,0.23151761,-0.09558415,-0.037501354,-0.03870117,-0.0306231,0.028665837,0.08401049,0.092493005,0.10322381,0.19401535,-0.08278367,-0.11504318,-0.007290027,-0.03998044,-0.10824965,-0.027162777,0.18092151,-0.018457253,0.20368938,0.14691164,-0.063352436,0.21788909,0.080409646,0.30705035,-0.11712506,-0.26035863,-0.011980049,0.25138247,-0.088037945,-0.022820609,0.15935867,-0.002104456,0.10349105,0.08615402,-0.10774701,0.0029039057,-0.052887592,-0.041996364,-0.12869142,0.25233305,-0.25188673,0.04582098,0.13406554,0.1730381,0.1333788,0.2177929,-0.20097238,0.2320418,-0.041964017,0.031647623,0.13547453,-0.1432667,-0.16465868,0.10989608,0.11029865,0.23719665,-0.08392631,0.14690185,-0.11848601,0.108206086,-0.03177176,0.02521468,-0.029583294,0.10253872,0.079469174,0.106798396,-0.12245785,-0.044629563,-0.114421785,0.18620896,0.0936358,-0.052007493,-0.035698198,-0.33565497,0.09433532,-0.042980116,0.01725633,-0.08809303,0.22347754,-0.07203342,-0.15697214,-0.02078413,0.056730587,0.1403561,0.23662058,0.35973066,0.013305092,-0.064414814,-0.044326194,0.1498564,0.065828264,-0.121631406,-0.031032164,-0.00930204,-0.075014316,0.08139903,0.1192558,0.20314954,-0.091449454,0.020304307,0.15897857,-0.040804364,0.061496273,-0.12242721,0.053550106,0.04719728,0.008731003,0.15028737,-0.08073717,-0.04422722,-0.15653956,-0.1070764,0.12785016,-0.11227526,-0.090221904,-0.12906516,-0.048584525,-0.0043775514,-0.067663625,0.028991397,0.053151146,-0.21002667,-0.002960416,0.016804878,0.15174158,-0.14338179,0.005879679,0.22072396,-0.012667559,-0.017629832,0.018521447,0.25782555,0.09114663,-0.047667157,-0.16542487,-0.067580506,-0.13938116,-0.057496384,0.08985902,0.0082147615,0.065065734,0.02094701,-0.3166582,0.18308142,-0.05546609,0.018368267,0.0677178,-0.08697771,0.064124025,-0.20286359,0.122680895,0.13906485,0.2590987,-0.13231775,-0.1039922,-0.025774451,-0.0055571394,-0.28249446,-0.20968321,-0.007180695,0.04842516,-0.028906645,0.09011124,0.1542404,0.017356632,0.08008506,-0.16356242,0.123208866,0.07942357,-0.12255511,0.15258199,-0.16651621,-0.13623498,-0.10493988,0.002368967,0.27003074,0.08035822,0.0397408,-0.15329342,0.004678855,0.15077579,0.24808484,0.0023847718,0.24712883,-0.12120442,0.21025153,0.09616372,0.14656131,0.036533695,0.064667426,0.07168099,-0.07478292,0.13677344,-0.09723429,0.10703434,0.10735862,0.035990633,-0.002825367,0.19741957,0.13608482,0.27911156,-0.26831675,0.018051371,0.048153043,-0.04018378,-0.1211121,-0.020062244,-0.10417737,-0.03818349,0.07736017,-0.23200396,0.111079365,-0.15224476,-0.016117116,-0.1257486,0.09996311,0.07492709,-0.25425553,0.06897653,-0.093945615,0.21029268,0.06029083,-0.19651476,-0.039958175,0.062676154,0.14833258,0.036888987,0.064215735,-0.010899324,-0.017708411,-0.13437389,-0.08383574,0.07145236,-0.004217296,-0.41717452,-0.0509489,0.053589113,-0.20214067,0.06776858,-0.22386208,0.017731357,0.20641458,0.16799247,-0.060941715,0.09335764,0.09943482,0.07647588,-0.20023656,-0.23093146,0.02643881,-0.04858499,0.018029274,0.12635298,0.0027178314,0.022175645,-0.057534657,-0.090801455,-0.19444859,0.028036132,0.23259073,-0.09737907,-0.026402755,-0.084463835,-0.22776675,0.03408869,0.0011670692,-0.15092435,-0.010208713,0.31770325,-0.09074915,-0.034233645,-0.07271657,0.12751026,-0.01982875,0.12017954,-0.23449892,0.11503745,0.03591466,-0.03903,-0.048747316,-0.12066302,0.03859528,-0.05397286,-0.09880175,-0.0040487787,0.22771406,0.041203484,-0.08360236,-0.25693443,0.09732121,0.20270306,0.09851994,-0.16595322,-0.19430728,-0.06617716,-0.4085895,-0.16411549,-0.0040814076,-0.11100223,-0.028879374,0.07777663,0.16799688,0.09440998,0.026398232,-0.019783955,0.062739424,0.13219224,0.13345073,0.016518472,0.25888678,-0.22263299,0.05106879,0.079534024,0.012001829,-0.12442191,0.2722392,-0.20747703,-0.08855559,0.07263605,0.35035804,0.12757728,-0.15528005,-0.02116712,0.067070864,0.03134725,0.061137233,0.025710788,0.14379296,-0.13162242,-0.022673676,-0.09685095,-0.2153001,-0.21039343,0.14417711,0.24519826,-0.1295899,0.22322997,-0.20281056,0.056799795,0.08635552,-0.17272334,-0.17026702,0.07970238,-0.00046118506,0.008077467,-0.028036037,0.22755949,0.010554065,0.024973419,-0.043552488,0.16327946,-0.12260072,0.1576844,0.39877555,0.14288628,-0.18711428,0.056517135,-0.09899259,0.0026103402,0.0272771,0.022990879,0.066109575,0.0124094775,0.06046395,0.093511194,-0.04099739,0.035377096,-0.2322164,-0.069279246,-0.03182218,-0.23065269,0.082600266,-0.02332752,0.050478756,0.12471536,0.14901444,-0.044051763,-0.040995445,0.018246124,0.014533345,-0.094956666,-0.019632911,0.06817463,0.079793565,-0.13076867,-0.15231188,-0.061648656,0.18212447,0.09906526,-0.18129088,0.07664509,-0.11534549,0.18454278,-0.13493578,-0.1664232,-0.058702264,-0.20678326,-0.06501979,-0.102557026,-0.086468816,0.10238868,-0.14613949,-0.1411589,0.07697947,-0.22571228,0.0131462775,0.05044136,-0.045449007,0.0355319,-0.03186697,0.1438733,-0.018185358,-0.015064976,0.09949393,-0.075672075,0.104541585,0.13138196,0.09546705,0.067065336,-0.13444377,-0.06549683,0.09744047,-0.011438177,-0.13076085,-0.14864948,0.09145569,-0.15751866,-0.1873487,-0.021831792,-0.1291103,0.0067237387,-0.19433534,0.016507555,0.05329234,-0.016409315,0.12463809,0.09791748,-0.037793327,-0.19265263,-0.08088209,0.01984378,-0.0132302195,-0.117666334,0.07875661,0.048520803,-0.19546047,0.32064122,0.20967951,-0.16056323,-0.07399161,0.1427241,0.06522856,0.14796771,0.297117,0.03963281,0.0347293,0.05268907,0.09507301,-0.12314134,0.0026342887,-0.21614379,0.06935196,0.05358189,0.071180485,0.14340588,0.07923089,-0.21516664,-0.1572528,-0.03271721,0.067591764,0.109709,-0.048134957,0.19214481,-0.19011402,0.009798153,-0.095823094,-0.028751839,0.023276769,-0.035113152,-0.026420794,-0.06137097,0.0096217375,-0.008218595,0.22418892,-0.1380055,0.2290641,0.2344185,0.0044113705,-0.00599481,0.04433751,-0.09373509,0.07519103,-0.114370525,1.3765347,-0.06703333,-0.35175022,-0.28808296,0.06320374,-0.051392015,0.05486101,0.15219313,0.10841009,0.20210922,-0.11276161,0.011021912,-0.022425491,-0.08114264,0.17047232,-0.057049748,-0.11691146,0.40290704,-0.1968071,-0.0075899865,-0.029495703,-0.13661985,-0.04238909,-0.055314332,-0.080379836,-0.115847036,-0.03559191,-0.0017938084,0.10416921,0.1622257,-0.06642341,-0.004653259,-0.17610607,0.07822758,-0.044075273,-0.099326745,-0.17601228,-0.116983704,0.15374808,0.009419099,-0.044326253,-0.059689347,-0.24680555,0.038429,0.22406022,-0.065313645,0.072766386,0.05352117,0.010683248,0.06311982,-0.20397645,-0.05119487,-0.23805644,0.15818538,-0.045728564,0.06758506,-0.13020708,0.087964505,-0.21204668,0.1855122,0.005909591,-0.060621526,-0.015259478,0.029816331,-0.31819576,-0.124954574,0.20035145,-0.07219471,-0.028472949,-0.01859351,-0.047302388,0.1302738,0.22396149,0.012576488,-0.06690971,-0.03462125,0.058461778,0.035284586,0.24196862,-0.1522606,-0.11265138,0.056085367,-0.22159973,-0.021421121,0.1829133,0.08766025,0.0024653003,0.08600704,-0.050612092,-0.08152357,-0.05021073,0.119793594,0.22272015,0.010473599,0.13878366,0.15616064,0.21926615,-0.06921813,-0.07986091,-0.053329535,0.034266002,0.0032465726,0.08930241,0.11298723,0.22342496,0.0009849564,-0.049785133,-0.10729365,0.14261289,0.069323346,0.12558417,0.06652499,-0.1199294,-0.030524084,0.08089803,-0.21732256,0.08099266,-0.1245006,-0.079784356,-0.049751647,0.022613503,-0.015587401,-0.004068498,-0.078516014,-0.12119808,-0.079936154,-0.1496725,-0.14481485,-0.18356289,0.108913876,0.06095215,-0.313189,0.04927305,-0.08140901,0.0002749995,0.16336231,0.06263051,-0.04787992,-0.10227851,0.2290352,0.11215457,-0.045560185,0.15249002,0.055164866,0.060292926,-0.14423116,0.0039251787,-0.05293232,0.06268959,0.027131014,-0.14063168,-0.23786166,-0.09626558,-0.1440541,0.070100084,0.016389215,0.23567872,0.12505388,-0.056683075,-0.12874478,0.23174453,0.028692396,0.21253197,0.16068959,-0.20414194,0.073600836,-0.0106004095,0.059055604,0.16626748,-0.07260998,0.06654709,0.062621504,0.17008387,0.20719084,-0.009788221,0.10761131,-0.08883155,0.07863031,-0.076936,0.15520488,0.033323847,-0.07435588,0.068525925,0.028103096,-0.11825167,-0.02071029,0.025240034,-0.12394078,0.24340904,0.09934625,-0.0010503076,0.19069482,-0.051294763,-0.1077818,0.008888435,-0.017773537,-0.012981575,-0.32302737,0.06594424,-0.06237833,-0.12055511,0.06287919,-0.0042965305,-0.17392068,-0.008154282,-0.10859543,-0.117769234,0.2228261,0.13540018,-0.00489342,-0.039037537,-0.03580359,0.3146658,-0.0007020842,-0.19111553,0.24702238,-0.02097543,-0.291457,0.058232114,0.28968146,-0.07670158,0.13520195,0.17366125,0.11031785,-0.052784313,-0.14293934,0.06510364,0.11101422,-0.08800353,-0.043937422,-0.03056266,0.09505432,-0.15459526,-0.076183714,-0.18509322,0.13238834,0.12828241,-0.14121854,0.1735376,0.08758876,-0.023827258,-0.18728772,0.03815536,0.04107907,0.043926362,-0.08890053,-0.10224548,-0.13210438,-0.21898659,-0.26231968,-0.15542291,0.09086122,0.19754256,-0.14617668,0.120743446,0.007215106,0.0027724348,0.2595734,-0.12795526,-0.10000595,0.041663256,0.016367307,-0.09611392,0.046587057,0.2734393,0.08052111,-0.0536907,-0.15255043,0.105863586,-0.10287756,0.0630653,0.14769426,0.21454495,0.05347047,-0.20369689,0.00670127,0.004715361,0.048887584,0.067991525,-0.07190353,0.13765566,-0.1580161,-0.20511371,-0.0735134,-8.49975,-0.446738,0.2935526,0.054160777,0.16143024,0.054058343,0.13397227,0.11364395,0.020673905,-0.048205025,0.14005399,0.009882493,-0.006998168,-0.017565776,-0.08963312,0.08720712,0.0067761643,-0.11908384,0.36222935,0.05224506,-0.1444611,-0.20751582,0.14112918,-0.18311937,-0.1411532,-0.11869811,-0.0649994,-0.06239732,0.1416108,0.13404022,-0.08119468,0.16829978,-0.24566919,0.024848126,-0.03033683,0.07614061,0.17480662,-0.12704325,0.12437306,-0.020560471,0.13100094,-0.11280314,0.010988451,0.08908678,-0.0037953048,-0.17020373,-0.11078431,-0.124818444,0.051613387,-0.019999012,-0.012058276,-0.06566942,-0.083782345,0.112872116,-0.15329026,0.025946356,0.114669435,0.15303907,-0.035148904,-0.07519788,0.22275381,-0.117080286,0.08305813,-0.0096915485,-0.078820154,0.115336485,0.057451896,-0.12566255,-0.11437303,0.12624606,0.0896236,0.14934632,0.16191678,0.22402968,-0.13834113,0.010091305,0.04353127,0.20503706,0.031352974,-0.015586187,0.02334129,-0.082821466,0.082306094,-0.10872071,-0.2744889,0.17610589,0.3402706,-0.105155945,-0.03691391,-0.01397661,0.04655116,0.065728046,0.011034233,0.23836474,0.011936741,-0.11534629,0.0668065,0.036952797,0.0453049,-0.10075332,-0.09259793,-0.05397762,0.08974069,0.2289282,-0.026134826,-0.13655087,-0.29013428,0.10312801,0.16396782,0.069132075,-0.111415684,-0.16013603,-0.11015022,-0.22919108,0.01914129,0.036578283,-0.1257468,-0.10599852,-0.01353413,0.008804658
