residue_id,0,1,2,3,4,5,6,7,8,9,10,11,12,13,14,15,16,17,18,19,20,21,22,23,24,25,26,27,28,29,30,31,32,33,34,35,36,37,38,39,40,41,42,43,44,45,46,47,48,49,50,51,52,53,54,55,56,57,58,59,60,61,62,63,64,65,66,67,68,69,70,71,72,73,74,75,76,77,78,79,80,81,82,83,84,85,86,87,88,89,90,91,92,93,94,95,96,97,98,99,100,101,102,103,104,105,106,107,108,109,110,111,112,113,114,115,116,117,118,119,120,121,122,123,124,125,126,127,128,129,130,131,132,133,134,135,136,137,138,139,140,141,142,143,144,145,146,147,148,149,150,151,152,153,154,155,156,157,158,159,160,161,162,163,164,165,166,167,168,169,170,171,172,173,174,175,176,177,178,179,180,181,182,183,184,185,186,187,188,189,190,191,192,193,194,195,196,197,198,199,200,201,202,203,204,205,206,207,208,209,210,211,212,213,214,215,216,217,218,219,220,221,222,223,224,225,226,227,228,229,230,231,232,233,234,235,236,237,238,239,240,241,242,243,244,245,246,247,248,249,250,251,252,253,254,255,256,257,258,259,260,261,262,263,264,265,266,267,268,269,270,271,272,273,274,275,276,277,278,279,280,281,282,283,284,285,286,287,288,289,290,291,292,293,294,295,296,297,298,299,300,301,302,303,304,305,306,307,308,309,310,311,312,313,314,315,316,317,318,319,320,321,322,323,324,325,326,327,328,329,330,331,332,333,334,335,336,337,338,339,340,341,342,343,344,345,346,347,348,349,350,351,352,353,354,355,356,357,358,359,360,361,362,363,364,365,366,367,368,369,370,371,372,373,374,375,376,377,378,379,380,381,382,383,384,385,386,387,388,389,390,391,392,393,394,395,396,397,398,399,400,401,402,403,404,405,406,407,408,409,410,411,412,413,414,415,416,417,418,419,420,421,422,423,424,425,426,427,428,429,430,431,432,433,434,435,436,437,438,439,440,441,442,443,444,445,446,447,448,449,450,451,452,453,454,455,456,457,458,459,460,461,462,463,464,465,466,467,468,469,470,471,472,473,474,475,476,477,478,479,480,481,482,483,484,485,486,487,488,489,490,491,492,493,494,495,496,497,498,499,500,501,502,503,504,505,506,507,508,509,510,511,512,513,514,515,516,517,518,519,520,521,522,523,524,525,526,527,528,529,530,531,532,533,534,535,536,537,538,539,540,541,542,543,544,545,546,547,548,549,550,551,552,553,554,555,556,557,558,559,560,561,562,563,564,565,566,567,568,569,570,571,572,573,574,575,576,577,578,579,580,581,582,583,584,585,586,587,588,589,590,591,592,593,594,595,596,597,598,599,600,601,602,603,604,605,606,607,608,609,610,611,612,613,614,615,616,617,618,619,620,621,622,623,624,625,626,627,628,629,630,631,632,633,634,635,636,637,638,639,640,641,642,643,644,645,646,647,648,649,650,651,652,653,654,655,656,657,658,659,660,661,662,663,664,665,666,667,668,669,670,671,672,673,674,675,676,677,678,679,680,681,682,683,684,685,686,687,688,689,690,691,692,693,694,695,696,697,698,699,700,701,702,703,704,705,706,707,708,709,710,711,712,713,714,715,716,717,718,719,720,721,722,723,724,725,726,727,728,729,730,731,732,733,734,735,736,737,738,739,740,741,742,743,744,745,746,747,748,749,750,751,752,753,754,755,756,757,758,759,760,761,762,763,764,765,766,767,768,769,770,771,772,773,774,775,776,777,778,779,780,781,782,783,784,785,786,787,788,789,790,791,792,793,794,795,796,797,798,799,800,801,802,803,804,805,806,807,808,809,810,811,812,813,814,815,816,817,818,819,820,821,822,823,824,825,826,827,828,829,830,831,832,833,834,835,836,837,838,839,840,841,842,843,844,845,846,847,848,849,850,851,852,853,854,855,856,857,858,859,860,861,862,863,864,865,866,867,868,869,870,871,872,873,874,875,876,877,878,879,880,881,882,883,884,885,886,887,888,889,890,891,892,893,894,895,896,897,898,899,900,901,902,903,904,905,906,907,908,909,910,911,912,913,914,915,916,917,918,919,920,921,922,923,924,925,926,927,928,929,930,931,932,933,934,935,936,937,938,939,940,941,942,943,944,945,946,947,948,949,950,951,952,953,954,955,956,957,958,959,960,961,962,963,964,965,966,967,968,969,970,971,972,973,974,975,976,977,978,979,980,981,982,983,984,985,986,987,988,989,990,991,992,993,994,995,996,997,998,999,1000,1001,1002,1003,1004,1005,1006,1007,1008,1009,1010,1011,1012,1013,1014,1015,1016,1017,1018,1019,1020,1021,1022,1023,1024,1025,1026,1027,1028,1029,1030,1031,1032,1033,1034,1035,1036,1037,1038,1039,1040,1041,1042,1043,1044,1045,1046,1047,1048,1049,1050,1051,1052,1053,1054,1055,1056,1057,1058,1059,1060,1061,1062,1063,1064,1065,1066,1067,1068,1069,1070,1071,1072,1073,1074,1075,1076,1077,1078,1079,1080,1081,1082,1083,1084,1085,1086,1087,1088,1089,1090,1091,1092,1093,1094,1095,1096,1097,1098,1099,1100,1101,1102,1103,1104,1105,1106,1107,1108,1109,1110,1111,1112,1113,1114,1115,1116,1117,1118,1119,1120,1121,1122,1123,1124,1125,1126,1127,1128,1129,1130,1131,1132,1133,1134,1135,1136,1137,1138,1139,1140,1141,1142,1143,1144,1145,1146,1147,1148,1149,1150,1151,1152,1153,1154,1155,1156,1157,1158,1159,1160,1161,1162,1163,1164,1165,1166,1167,1168,1169,1170,1171,1172,1173,1174,1175,1176,1177,1178,1179,1180,1181,1182,1183,1184,1185,1186,1187,1188,1189,1190,1191,1192,1193,1194,1195,1196,1197,1198,1199,1200,1201,1202,1203,1204,1205,1206,1207,1208,1209,1210,1211,1212,1213,1214,1215,1216,1217,1218,1219,1220,1221,1222,1223,1224,1225,1226,1227,1228,1229,1230,1231,1232,1233,1234,1235,1236,1237,1238,1239,1240,1241,1242,1243,1244,1245,1246,1247,1248,1249,1250,1251,1252,1253,1254,1255,1256,1257,1258,1259,1260,1261,1262,1263,1264,1265,1266,1267,1268,1269,1270,1271,1272,1273,1274,1275,1276,1277,1278,1279
SER_1_A,-0.03920093,-0.023757316,-0.08997924,-0.028071985,-0.14662854,0.095223375,0.14099552,0.08427321,-0.00063418545,0.049744032,-0.28534722,-0.05469501,0.3083844,-0.0193437,-0.0040542893,0.32002082,0.17158057,-0.111801036,-0.014607995,0.024908949,0.13927579,0.04679891,-0.17580278,0.17423482,-0.14665805,-0.05852771,-0.07304193,0.28534228,0.09132903,0.058427695,-0.035117663,-0.2506108,0.29922196,-0.17008698,0.00660146,-0.22091517,-0.07571737,0.123793386,0.053206977,-0.15124853,0.3166241,-0.118283994,0.093432285,0.23779523,-0.03560022,-0.026456123,-0.05716258,-0.22202373,-0.13506497,-0.36786556,-0.044374786,-0.1156214,-0.12978552,-0.3154678,0.023476936,-0.0049055563,0.14997056,0.06967561,0.37058237,0.14140022,-0.31642452,-0.0037553422,0.040453773,0.16053417,0.00186079,0.2928528,0.29344207,0.15364206,0.18982048,0.06797127,0.05881418,-0.33323368,-0.058544617,0.012608773,-0.13428998,-0.118243314,-0.04424662,-0.09046186,-0.12946813,0.0033092625,0.13917185,-0.11155074,-0.0017589403,0.029744444,-0.026272947,0.02147456,-0.1967361,0.27540475,0.019383322,-0.019969193,0.07350682,0.07498097,-0.043199684,0.12163192,-0.058127783,-0.13844399,0.0051395334,0.15869269,0.08313392,-0.12602594,0.095334865,-0.08940811,-0.2215002,-0.0036208075,-0.08324285,-0.10249593,-0.27821043,-0.13159181,-0.24636336,-0.16130482,-0.14802451,0.11942481,0.30006555,0.046234105,-0.010541099,0.11778589,-0.34280273,0.094764136,0.12049344,-0.1070609,0.0568983,-0.2975251,-0.16707134,0.09808362,0.1301113,0.10372991,0.17170854,0.16253988,0.30154115,0.021106485,-0.016883776,-0.34246463,0.18294413,0.00991674,0.24579081,0.15564673,-0.25185266,0.13356853,-0.18563688,-0.33345756,0.056869272,0.090447456,0.1206121,-0.10776261,-0.12164793,0.060512017,0.03685217,0.13600674,-0.123875685,0.051633757,0.21255642,-0.40557238,0.1596833,-0.025649473,0.10048689,0.10748726,0.11203818,0.23690705,0.19132023,0.19747369,-0.0994988,-0.28747,0.074699864,-0.21594445,-0.070558086,-0.018715026,-0.22749665,-0.066261075,0.27872443,0.084573336,-0.3957972,0.025046408,0.35011366,0.019337451,0.050608482,-0.04429306,-0.03085962,0.060745396,0.018020578,-0.108616754,0.021816839,0.032683965,0.38995427,0.008794094,-0.01690868,0.31103867,0.0075617875,-0.2868037,0.017463867,0.17939016,-0.20785445,-0.274244,-0.17146155,0.092192285,0.36658677,0.16434553,0.22513473,0.11262445,0.2326553,-0.09256641,0.31737894,-0.059175845,-0.28456813,-0.06900194,0.32264915,0.19523504,0.21344264,-0.3261643,-0.3275874,-0.118207164,0.09399035,-0.17842168,0.080915645,0.276814,-0.16698961,-0.022280974,0.12771322,0.072173886,-0.110720046,0.03803637,0.010288085,0.028739035,0.24681315,-0.25613585,0.23215994,-0.07202445,0.14157411,-0.02091462,-0.09582405,0.34236345,0.415615,0.07060926,-0.03962995,0.26439503,-3.766359,0.19784495,-0.19474703,-0.060014166,-0.045223232,0.014617487,-0.032989312,0.04584692,-0.122979686,-0.35622707,0.09133448,0.07067966,0.013370001,-0.17492785,0.14007562,-0.118604735,0.13526492,0.2630347,0.024069851,0.17652227,-0.06932219,-0.08794526,0.021027993,0.0020183458,-0.37361082,-0.058722742,0.020218939,0.008006471,0.15295383,0.3870133,0.17524305,0.03962767,0.28578627,-0.3120915,-0.018813815,0.08113872,-0.20728421,0.1257557,0.0025969115,0.23596567,0.052344106,0.07399878,0.27433312,0.110989176,-0.05319903,-0.21484993,0.26592126,-0.25365832,-0.13707997,-0.06698097,-0.16002123,0.063067585,-0.042978592,0.09868272,-0.031198917,-0.05457213,-0.07337573,-0.033498414,-0.059088215,0.05500724,-0.12306119,0.049859703,-0.0518997,0.0010095516,-0.24750805,-0.17313543,0.1035783,0.3646869,-0.55683184,-0.12568809,0.112883694,-0.026023176,0.14443453,0.05942132,0.09686498,0.123576514,0.08370212,0.019670552,-0.08812692,0.017708987,-0.007876868,-0.072879225,-0.043154776,-0.176265,-0.39265504,-0.032467544,-0.272203,0.01973062,-0.15904595,-0.07550458,0.013934915,-0.039984792,0.10707812,0.2849272,-0.20252892,-0.22487941,0.2865545,-0.07969817,-0.27585086,-0.3963704,0.1717256,0.058825694,-0.15129249,0.021262798,0.073524006,0.21388829,0.13118279,-0.16885,-0.11811693,-0.2525376,-0.18955685,-0.10396229,-0.37157664,0.15682654,-0.16627829,0.053048227,-0.22924837,0.13156049,-0.075221695,-0.049931165,0.13582219,0.19674203,0.04524786,-0.05065039,-0.06694614,-0.15667637,0.20451787,0.041028425,-0.01643561,-0.104335,0.091744676,0.099314965,-0.015351293,0.29714343,0.19788077,0.23594005,-0.0968731,0.09345733,-0.26591226,-0.09350531,0.1787176,0.4513281,0.12302119,0.036315892,0.24503465,0.18331362,-0.13361709,-0.15421417,-0.112842076,0.24856506,0.29623306,0.019927956,0.015310362,-0.40103728,0.047047105,-0.0076149367,0.09336562,0.08446711,-0.036168635,-0.20534755,-0.14468539,0.14455946,-0.039418288,-0.019752778,-0.14588062,0.058827598,-0.24812931,0.265649,-0.13870463,0.015293602,0.06387891,0.07780789,-0.33604258,-0.11084643,-0.20109685,-0.18860012,-0.13761033,0.012544976,0.14858839,-0.24254559,-0.027891532,0.059736744,0.123200014,0.17338616,-0.14890318,-0.071767285,0.11520175,0.3009112,-0.05973763,0.06789276,-0.0937223,0.04484783,-0.061600693,-0.017169748,0.25546488,0.075420566,-0.09807386,0.3546201,0.00075427647,-0.007749075,0.30563185,0.20056652,0.034623444,-0.07411869,-0.32493693,0.011568651,0.13866565,0.31149277,-0.18186775,-0.18551101,-0.049798034,-0.22292142,-0.00933702,-0.23096293,-0.019524733,-0.35972154,0.08072332,0.31994727,-0.061646067,0.115693614,-0.0380749,0.10228704,0.034971304,0.14137988,-0.10378273,0.24738955,-0.21431997,0.06978851,0.053524323,-0.10897691,0.21572147,-0.38987765,0.023024384,0.34796658,0.034188863,0.22219507,-0.12071348,0.0639515,0.004824115,-0.08451919,0.16727738,0.096389644,-0.1490023,0.1587788,0.08735664,-0.08797534,0.027321804,0.14551242,0.03242366,0.29248512,-0.05391949,0.10291749,0.15487449,-0.10971426,-0.015709497,-0.13232587,0.04276058,0.03188015,-0.22930634,0.24855106,0.06611539,0.38064086,-0.10060624,-0.09936625,-0.0028788822,-0.032452274,-0.2943139,0.24894774,-0.1788897,0.18864392,-0.117491595,0.02891744,-0.13451757,-0.24019973,0.2169833,0.06884915,-0.25352013,-0.052854702,-0.15901445,0.1578877,0.16723408,0.06591905,0.08061455,-0.2000584,-0.025014756,-0.069040075,0.42297813,-0.017454943,0.35208818,0.10933195,-0.023178188,-0.14393523,0.110124126,-0.082085945,-0.047943674,0.17581221,0.030153966,-0.08086661,-0.26847243,0.20551282,-0.19329652,-0.043153636,-0.05207504,0.022846907,-0.047114577,0.01044102,-0.0044983095,-0.15399508,0.10553722,0.33017495,-0.21014163,0.007474318,-0.059579268,0.027757488,0.10279685,0.13259415,0.024536632,0.036334034,-0.100688815,0.28310272,0.03436116,-0.10004158,-0.120786384,-0.15657242,-0.42666596,0.2216287,-0.022168428,0.05120772,0.03529958,0.041011505,0.18173897,0.07941564,0.053380433,-0.061206758,0.28997642,0.20995526,0.2093234,0.49718612,-0.23627608,0.1728204,-0.11407039,0.08151183,0.07893305,0.018566066,0.04442065,0.04508005,0.05690165,-0.08543082,0.12489895,0.672641,-0.10641448,0.16263343,0.022630986,0.1013434,-0.3084508,0.51519626,0.015833415,-0.3238896,0.28629053,0.057877846,0.22428122,-0.11494258,-0.1537976,0.060791165,0.2423539,0.17093706,-0.2332508,0.082983255,0.15915893,-0.115929976,-0.1503882,-0.19769497,0.062527604,0.19124852,0.07626203,0.14837433,-0.15283065,-0.20746535,-0.0067692013,-0.08834632,-0.14354156,0.13359095,0.22767572,0.01759993,0.18812029,-0.0813062,-0.00017548539,0.22486249,-0.16765073,0.12903444,0.07981987,0.045500673,0.20906752,-0.085503854,-0.16198288,0.24314885,-0.11760068,-0.029446034,0.20243159,-0.10159037,0.034481894,0.2888803,-0.049074087,-0.07044485,-0.04881138,-0.15449056,-0.0044244356,-0.060933392,0.017789323,-0.18690324,-0.10127677,-0.08084862,-0.08149679,0.032375768,-0.04738217,-0.02980458,-0.11462811,0.42374247,-0.17828384,-0.29574382,0.011079201,0.054042827,-0.16530043,-0.2788204,-0.13721403,-0.33079952,0.31535527,-0.0318757,-0.06987886,-0.1237802,0.2698132,0.09618652,0.13884045,0.2969434,0.042951368,0.2531641,-0.28736094,-0.12878354,-0.1188719,0.16436179,0.41630965,-0.22300512,-0.23108062,0.13554223,0.09909022,-0.1591452,0.06902815,-0.02627509,-0.05799226,0.4335823,0.20583871,-0.23562916,0.123185,0.20628749,-0.036433596,-0.19022952,0.18659468,0.10224741,-0.16691975,-0.15375964,0.43981162,0.28875455,-0.1939271,-0.057161354,0.18134631,-0.08939757,0.20365274,-0.17572886,0.020097956,-0.13235235,0.020758642,-0.268639,-0.31972653,-0.21083942,0.08845812,-0.01238845,-0.044342197,-0.013298432,0.07401458,0.1934608,-0.037566904,0.10528042,0.05014038,0.15250354,-0.07869135,0.36023715,-0.037964452,-0.025517857,0.13014784,-0.08259735,0.056239896,-0.36591342,0.18979816,-0.021796964,0.008053684,0.047966994,0.056000132,-0.03122261,0.2394722,-0.06540269,-0.08349592,0.07482467,0.70742536,0.21064891,-0.08341605,-0.145264,0.33147052,-0.020652615,-0.0076004025,-0.16602658,-0.1505113,0.20481598,0.1578473,-0.022092642,-0.23274711,-0.24905269,0.12417338,-0.2434847,0.08005165,-0.47785947,-0.3501962,-0.08880968,-0.0528383,-0.0033955462,0.352031,0.07095128,-0.42666498,0.22527838,-0.030932173,0.10554477,0.09674104,0.49052465,0.1398829,0.28494796,0.0013838377,0.08788089,0.009404162,-0.14760019,0.1205294,-0.26622072,0.078878,0.023945315,-0.045239087,-0.2870214,-0.19180495,-0.013036468,-0.0032258946,-0.14007896,-0.047280367,-0.209304,-0.25946876,-0.20231535,-0.092209786,0.22537076,0.011826305,0.25404164,0.08123923,-0.21960334,-0.19161646,0.047054272,0.04144625,-0.14861828,0.12383249,-0.09268373,-0.03434425,-0.3089278,0.22157678,0.13984166,0.21663103,-0.17502485,-0.097132206,0.2193607,-0.28342086,0.08827901,-0.2730011,-0.1638582,0.090937875,-0.12473972,0.121446736,0.23313977,0.11519807,0.19086222,0.006298154,-0.24524987,0.14755206,-0.06947912,0.17064571,-0.03353827,-0.3741356,-0.31278923,-0.002672041,0.042958163,-0.16508754,0.2100631,0.068857975,0.10420227,-0.4077994,-0.05926129,-0.16851473,-0.07013103,-0.060798198,0.1192201,0.2511259,-0.11918779,0.06038309,0.037704088,0.1203519,0.05589888,-0.01664712,0.18986557,-0.007479291,-0.015161827,0.22783242,0.38468346,0.18296795,-0.24198811,-0.19853532,-0.14493632,0.29283884,-0.13404158,-0.17676695,-0.2937547,-0.05561802,-0.014299573,0.035007726,0.16619043,-0.14873229,0.055681407,0.05629452,-0.18961321,-0.061167024,0.23989236,-0.12820008,0.1459377,-0.072188795,-0.15447792,0.038564075,0.27835998,0.5885508,0.0349332,-0.06187479,-0.17278862,0.9803164,-0.031107819,0.21822442,-0.09487336,-0.10727638,0.06694925,-0.09436571,-0.38150096,-0.012206671,0.3525229,0.35433,0.23241562,-0.31257468,0.18577458,0.21672134,-0.23414487,0.03430115,0.0336087,-0.16117108,0.17416777,-0.103040665,-0.15459508,-0.15808769,0.109954126,0.021983214,0.09391517,-0.08472778,-0.26399416,-0.08497724,0.14627631,-0.0892379,-0.08373746,0.059349563,0.052501712,-0.12050122,0.36331972,-0.02047769,-0.32736012,-0.0027436218,-0.22127156,0.1132389,-0.028838007,-0.090517454,-0.20903093,0.086804196,0.15921141,-0.2608609,0.08189137,0.001958018,0.116737485,0.022495132,0.052006513,0.20596583,-0.32975528,-0.26766747,0.09901622,0.0065720547,-0.22667792,0.070482336,-0.45771435,0.014867456,0.17411436,0.17682867,-0.063235454,-0.20160434,-0.23155633,0.10255361,0.021222776,-0.051192135,-0.02751104,0.00032675927,-0.0917166,-0.03200355,0.18621251,0.15169269,0.045073446,0.050749127,0.23844153,-0.1636703,-0.2577791,0.24608928,0.06823209,0.015980633,0.43107012,0.13533607,0.32788378,0.15466577,0.0047849356,-0.11575862,0.14770198,-0.05331007,-0.04422678,-0.0811733,-0.02502511,0.02453746,-0.09649817,0.11844842,0.080909714,-0.12590422,0.075606056,-0.27287096,-0.14860241,0.07936496,0.0163087,-0.27576047,-0.095995374,-0.20757283,-0.2734176,-0.16581966,0.13843752,0.11404457,-0.06509293,-0.1314568,0.19189304,0.22676429,0.25211814,-0.062211655,0.025341442,-0.09192021,0.110557385,-0.13111298,-0.12930775,0.16367616,-0.14218448,-0.30996507,-0.016817458,0.53946555,0.028647956,-0.19420797,0.0118034305,0.2581203,0.03431461,0.03711124,-0.14748134,0.007328999,-0.085703135,0.15572113,0.26389056,0.05043479,-0.014755653,0.021185657,0.15365835,-0.049864024,0.07260972,-0.09630136,0.10209954,-0.0984266,-0.20965007,0.07029504,0.0925549,-0.471656,0.050774485,0.109860234,0.03152134,-0.076818354,-0.0034078201,0.092112295,0.12059488,0.11287702,0.015865142,0.24839962,-0.19183278,-0.11104755,0.04898235,-0.16130188,0.106748104,-0.123800814,-0.07167756,0.09519248,0.115442306,0.28333232,0.092136845,0.094399504,-0.03733422,-0.048459355,0.2860596,-0.19275464,-0.17986469,0.23838903,-0.11782331,-0.11015062,-0.047338836,0.11049474,-0.17723721,0.080432214,-0.07103865,-0.15878595,-0.25252044,0.11522224,-0.1622024,-0.043916725,-0.22081973,-0.17142443,0.029596834,0.22792417,0.19311288,0.16071922,-0.08813985,0.021704571,-0.16509318,-0.079193056,0.0016430062,0.2968212,-0.049594987,-0.08441365,0.20624739,-0.26112986,0.0692578,0.3076323,0.024707973,0.22367689,-0.14299591,0.0044174427,-0.1598385,-0.026902318,0.36258298,0.4885738,0.043941434,-0.004822113,0.10935298,-0.008752302,-0.23798124,0.048748717,-0.028418817,-0.1626683,0.0018924379,-0.002634979,0.04232151,-0.07376622,-0.08361824,0.110553145,-0.021204663,-0.1000656,-0.22907437,0.009488962,-0.12042323,-0.032482732,0.12645382,0.002766638,-0.10446447,0.043302327,-0.03462089,0.04289242,-0.15353464,0.030989036,-0.08401474,-0.12606558,-0.05435619,0.15181412,0.047335964,-0.08230673,-0.1375347,-0.08354041,0.36306405,-0.16646437,0.026063705,-0.1383317,0.07753708,-0.2752256,0.22689931,-0.2568453,0.038263153,0.027925583,-0.014317308,0.2626219,-0.020155676,-0.20043588,-0.16569605,-0.054665405,0.2307205,0.28515887,-0.029380461,-0.17736611,0.1050421,-0.007600027,-0.050474502,0.19854788,0.19304532,0.20423159,-0.009905579,0.05283099,0.05911415,-0.16187145,0.058720294,-6.9875,-0.2719274,-0.066018045,0.088364385,0.27991363,-0.18570763,-0.14235309,0.058604594,0.16781397,0.083193354,-0.0871792,0.13209946,0.067576684,-0.061897866,0.34042668,0.12320346,-0.03410703,0.019443884,-0.02036114,0.32746145,0.07424794,-0.2299113,0.052802905,0.27321512,-0.054682374,0.34778863,-0.029970689,-0.020775694,-0.029671125,-0.20804448,-0.15409993,-0.07261053,-0.13849153,0.487228,-0.12923501,-0.054686025,0.025649656,-0.13577855,0.12663479,-0.07167894,0.53753126,0.2573189,0.06746353,0.094598286,-0.13625275,-0.0620168,-0.076298594,0.11662344,-0.034282353,0.3339175,0.42016193,0.22579558,-0.12824619,0.15099889,0.12897316,-0.32664442,-0.113945015,0.16524993,0.0738515,0.03261228,-0.010495551,0.11672768,-0.07145397,0.08411452,0.15198098,-0.17953895,-0.0083592,-0.3195471,-0.32122776,-0.100235336,0.04962192,0.04528134,-0.2739093,0.32579035,-0.042171553,-0.13896784,0.0737736,0.019334389,0.19764307,0.16748928,-0.022757988,0.40675226,-0.062044814,-0.05417123,0.13629507,0.051557582,0.045926217,0.14534985,-0.018220969,0.08695596,0.14178702,-0.35592592,-0.0905273,-0.011895403,0.008564951,-0.0031840457,-0.20342949,-0.31304586,0.09718765,-0.13773298,0.018426247,-0.3775282,-0.01517327,-0.015292207,-0.18840545,0.09643204,-0.088727884,0.0101691475,0.006589058,0.17528635,-0.20623046,0.017877592,0.14727013,0.11376202,0.079731256,0.003951441,-0.20073242,0.092594594,0.043815523,0.1554295
LEU_2_A,0.15239455,0.02897065,-0.16551319,0.045462806,-0.14525847,0.383437,-0.26873207,0.08047125,-0.21331187,0.08170492,-0.021617701,-0.22639228,0.3464834,0.2113812,-0.12751468,0.4982343,-0.019969651,0.11011161,0.12819251,-0.21118452,0.109609224,0.050138917,-0.0061306804,0.20637266,-0.30823952,-0.062665775,-0.0526116,0.0024722381,-0.014774342,-0.29821196,-0.11059622,-0.30310756,-0.030728113,0.02958423,-0.03531363,0.11495106,-0.28066826,-0.016592398,0.14400317,0.049819436,-0.062140208,0.12953366,-0.00467725,-0.063626364,0.10595856,-0.1578447,-0.1431262,-0.2565999,0.01725855,-0.054541163,-0.29281917,-0.08560148,-0.03523067,-0.36273852,-0.24630202,0.18859208,-0.14781216,-0.021447893,0.17124522,-0.02165395,-0.06808165,-0.11770292,0.2495601,0.0013605116,0.041247275,0.25243795,-0.010502595,-0.20455134,0.3869766,-0.1746347,-0.035147063,-0.0035963296,-0.3501308,0.30782107,0.13899909,-0.05049702,0.13959226,0.21253705,-0.1953714,-0.2508083,0.0665278,0.031318862,0.084027156,0.31632394,-0.09691234,-0.101657,0.09708623,0.31496257,-0.116937995,-0.36118555,0.08687735,-0.23790875,-0.11028513,-0.023492381,-0.05060586,-0.30166695,-0.111189105,0.101076916,0.019232716,-0.005093837,0.06439434,0.0041036527,0.14487939,-0.20682095,-0.13691969,-0.12401967,-0.12498017,-0.029035164,0.078409895,-0.13682103,-0.21677034,0.05994759,0.50570905,-0.22626396,0.23456085,-0.07949313,-0.10940576,-0.019106286,0.06008695,0.10777825,0.18575716,0.06655661,-0.014641635,-0.17551811,0.034763295,0.14181289,0.24145573,0.14579488,0.29265255,0.02550384,0.09532382,-0.22976473,-0.1224375,0.13431363,0.13129237,-0.056015223,0.009157054,-0.08022582,0.25367254,0.15517457,-0.13204774,-0.27672514,0.01014498,0.07416842,0.09185228,0.294302,0.13516036,0.09953047,-0.25041053,-0.21722706,0.1602675,0.17024788,0.0037083933,-0.017064694,-0.031428345,0.2431249,-0.034466136,0.16280153,-0.14401257,-0.018306823,-0.10384689,-0.004061057,0.17108336,-0.10594393,0.10218625,-0.13123381,-0.081127726,-0.018629912,0.063316345,-0.07556668,0.16441458,-0.17997055,0.1351846,0.22477914,0.08747989,0.050976187,0.115846746,0.19898175,-0.008410403,-0.0044352403,0.0357407,-0.09142446,0.10584235,0.42830738,-0.11283296,0.04748252,-0.04134649,0.066856176,0.19509555,0.14844464,0.1957208,0.06800632,0.18335585,-0.14222302,0.26522565,0.13366787,0.08558933,0.2077597,-0.065621264,0.021710146,0.27618346,-0.054420684,-0.2450618,0.048511073,0.20515288,0.0974521,0.055896383,0.19143254,-0.1713836,0.22906582,0.50551564,-0.19102511,0.16456503,0.07615369,0.025872618,0.12803961,0.0010979152,-0.23001112,0.074258804,0.1615582,-0.10084764,-0.06775361,0.05297519,-0.06138832,0.4396084,0.053042833,-0.14112288,-0.048286907,-0.068550855,0.25122514,0.13244966,-0.31403401,-0.068974264,0.10440206,-3.263341,-0.015330122,0.07456166,0.30023053,0.20448716,-0.009829205,0.2829578,0.10986437,-0.040113833,-0.12487805,-0.071065426,-0.0360149,-0.24561666,0.07910202,-0.16424677,0.15447356,-0.3371572,0.16145396,0.01254086,0.12600699,-0.115703575,0.026027214,0.18188201,-0.18212034,-0.08378012,-0.31232414,0.14273888,0.13770406,-0.14385365,0.15061581,-0.12115162,-0.050285287,-0.12418081,0.075637095,-0.030187782,-0.03364511,-0.069417596,-0.13130786,-0.2793769,-0.017921392,0.106917895,0.059200656,-0.05833397,-0.013375585,-0.0018374851,-0.061059598,0.16318265,-0.15187839,-0.22833185,0.13845028,-0.19903353,-0.21534695,0.100610755,-0.053390667,-0.18075857,0.16405861,0.013548567,0.13636035,-0.23031056,-0.04532584,0.23685941,-0.03328786,-0.051279794,-0.047411676,0.041883096,0.059347793,0.14695658,0.17910929,-0.12028526,-0.18459621,0.36975113,-0.18823081,-0.2361181,-0.1106221,-0.1365028,-0.1496212,-0.011548299,-0.080276504,0.250603,-0.002988581,0.1005932,0.1387122,0.051586606,-0.11581876,-0.29363948,0.18363981,-0.3307461,-0.065165095,0.2667413,-0.06983138,0.08286184,-0.013808352,-0.035636462,0.1523581,-0.0049068425,0.18021642,0.48474732,0.018391548,0.10886982,-0.07898374,0.04707031,-0.00059063203,0.13749054,-0.052376714,-0.10786109,0.2799745,0.11552667,-0.09029461,0.006055753,-0.22870082,-0.053607427,-0.09074282,-0.17847128,0.0009972982,-0.029998722,-0.16340931,-0.05108264,0.04952432,0.0925473,-0.30837363,0.025431985,0.1695126,0.026315445,0.00059678784,-0.27021334,-0.009405889,0.1564596,0.11398669,0.056737244,-0.18563215,-0.0005520402,0.09200363,0.09491165,0.058284745,0.25962284,0.25291422,0.21582647,0.17710587,-0.17895699,-0.08904067,0.16994837,0.17975433,-0.10998374,-0.13343267,0.029905315,0.23700342,0.29379535,-0.15293877,0.01943303,0.14370267,0.15413338,-0.004544601,0.1423014,0.0215336,0.0774643,0.26539272,-0.16888669,0.07170401,-0.0929664,0.10269229,-0.39308363,-0.05506971,0.20992972,-0.14717457,-0.22452053,-0.025847856,0.22877687,0.0661793,-0.34393844,0.06439618,0.013522978,0.02418575,-0.29217198,-0.094585575,0.23911007,-0.1272065,0.025982361,-0.257888,0.21636626,-0.11843395,0.114681326,-0.031041812,0.102463566,-0.0016896208,-0.08405891,0.047203284,-0.14133997,0.21733236,0.17050056,0.30803075,-0.27679676,-0.1312747,-0.06029833,0.03264425,0.14072314,0.013475145,-0.021254636,0.18135121,0.21620414,-0.17775443,-0.027702404,0.10890677,0.08079156,-0.20234323,-0.29623273,-0.07329551,0.06154349,-0.035556722,0.1444417,-0.24952841,0.12438621,0.09806036,-0.120889336,-0.1857166,-0.1112456,0.069561586,-0.18797076,0.18921511,-0.32668537,0.1702501,-0.017231131,-0.02491953,0.3316078,0.1099285,0.04615489,0.36545974,0.2964258,0.04126302,-0.048851207,-0.21215045,-0.1333606,-0.2844519,0.0041800467,-0.06521686,0.28862175,0.00362907,-0.25509715,0.082649134,0.15781789,0.002386086,0.23018575,0.09850064,0.034033634,-0.02033936,-0.21784559,0.036017705,0.27033335,0.14279515,-0.089341834,0.49806395,0.0940459,0.101254046,-0.095060155,0.03503738,-0.04834687,-0.0746372,0.18228489,-0.18452361,0.19445705,0.05088896,0.15936586,-0.0018948892,0.06208203,0.15789662,-0.11872842,-0.14255682,-0.08954626,0.15182982,0.022083128,0.11561092,-0.045220487,0.1563,-0.15483809,-0.072581284,0.12063195,0.099965215,-0.15849558,-0.13942423,-0.100379735,-0.12554944,0.27323782,0.082367316,0.06303167,-0.0062021664,-0.0018130274,0.009159968,0.35062042,0.28665596,0.2481648,0.21971321,-0.009850532,-0.100345105,0.12344543,0.09451039,-0.040838867,0.020098366,-0.11669052,0.08886557,0.07992151,0.07606718,-0.09971789,-0.31485257,0.21547589,-0.0581344,-0.15969323,0.09897087,-0.2111611,0.1683343,0.012264858,0.31680638,-0.3253512,0.081128515,-0.23337737,0.12915683,0.17659625,-0.033493325,0.066618346,0.17435962,-0.36151373,-0.095429845,0.12757492,-0.05966423,-0.2937958,-0.093088254,-0.20794475,0.3144074,-0.21094538,0.07473352,0.12576799,-0.13787082,0.4233795,-0.12439826,-0.17655052,-0.01492195,0.37810004,-0.20568219,-0.17817666,0.009438701,-0.16651632,0.14479722,-0.041659407,-0.1259361,0.28705013,0.1178244,0.22189896,0.013323766,-0.07364062,0.12174223,0.09257005,0.28387204,-0.21649761,0.31174362,-0.2056887,-0.09438382,0.021141073,0.14744619,-0.021165267,0.07939303,0.00023734444,-0.2577203,0.118185714,0.02433872,-0.29035062,0.024928866,0.13327706,0.000463329,0.0071420376,0.15825142,0.22078823,0.18843605,0.02985932,0.31733432,-0.30529925,-0.17499346,0.08165333,-0.04496196,0.15094998,0.036186345,-0.060743276,-0.24811035,0.089987636,0.024997795,0.07954457,-0.3373041,0.30735466,-0.2824934,-0.29522493,0.113714695,0.1352219,-0.1909206,0.029459974,0.14109737,0.07996703,-0.10896623,0.02192001,-0.11166587,0.23521876,-0.04354823,-0.15709239,0.4286854,-0.08069,-0.07492915,0.09133897,-0.29471803,0.032614302,-0.23380813,-0.03881111,-0.1634851,-0.119746484,0.012120202,-0.07982305,0.05510023,0.14434007,-0.33459044,-0.07611686,-0.15353698,-0.15148672,0.09472504,-0.1965068,0.32258666,0.17499691,-0.0671262,-0.23434375,0.3616192,0.056018844,-0.28277576,0.025216745,-0.08228003,0.13781779,-0.38342413,-0.16505323,0.096914105,0.048829947,-0.11471622,0.17985158,0.08748516,0.1396557,0.074246466,-0.023646737,0.19086379,-0.024171878,0.021276595,-0.3222098,-0.13961625,0.12719281,-0.036893327,0.1244113,0.087015964,0.082791544,0.28735974,0.018892195,0.08797759,0.22623625,0.042553913,-0.36858013,0.03706113,0.21712591,0.3623378,-0.39423868,0.052184794,0.25992772,0.14256714,-0.041112445,0.10427859,-0.05742335,-0.29653072,0.24171855,-0.06803866,0.067873396,0.14435153,-0.06681991,-0.041471023,-0.2510202,-0.08121259,0.09096903,0.106216595,-0.08037227,0.06895444,0.07121701,0.06823459,-0.027600259,-0.16475567,-0.035744876,0.24633768,-0.17360987,0.14636755,0.11896707,0.09484801,0.24493559,-0.12999654,0.2942999,-0.36089602,0.30309504,-0.23098391,-0.04946072,0.17027138,-0.049396686,-0.10565478,0.19698815,-0.028385008,-0.030261395,0.008775359,0.39911056,-0.3463378,-0.080351755,0.14367785,0.13863955,0.34863493,-0.11230101,-0.037772957,-0.03655219,-0.010292362,0.14346844,-0.29310447,0.13488197,0.08219334,0.06780486,0.32676548,-0.08748232,-0.29677105,0.012378073,-0.11211135,0.21145143,-0.09200336,0.43105182,-0.07815684,-0.24013217,-0.036960565,0.18281376,0.053594973,-0.10817913,0.34040287,0.10254787,-0.17679018,0.08526362,-0.13959883,-0.22804552,0.0021918023,-0.14133081,0.19885503,0.26047012,0.029659856,-0.019355854,0.047196474,-0.09002589,0.092087835,0.11160867,0.0021805512,0.10961782,-0.18601753,-0.0035642544,0.0343498,0.1008461,0.12673554,0.08374262,-0.0074532833,0.06064574,-0.03637085,0.07557202,0.10829112,-0.1989682,-0.14176723,-0.0660435,-0.2190863,-0.19589697,-0.23043753,-0.012637137,0.03567242,0.13042651,0.04918922,0.09416553,0.26068854,-0.010770416,-0.11829221,-0.1964929,-0.25968608,0.16955836,-0.10090825,-0.15293813,0.3713634,0.021030853,-0.118917875,-0.23915051,-0.20659173,0.052531745,-0.10437068,0.034061145,0.018029785,-0.20258513,-0.20788957,-0.03770041,-0.0609618,0.073753804,0.2956797,0.12119148,0.23575744,-0.1389998,-0.101440236,0.18025626,-0.00024070326,-0.06860669,0.13406901,-0.29524055,-0.30444515,0.04944941,0.088658065,0.19370386,-0.1514899,0.100646995,-0.0864204,0.18591602,0.3174008,-0.21441995,0.08804496,0.0025990177,0.12681009,0.012651392,-0.019027073,0.06710136,0.05525823,-0.013919866,-0.1641473,-0.055415925,-0.0628547,-0.033435404,-0.095528685,-0.3347017,0.096989475,0.08962942,0.040910337,-0.2232774,-0.13332155,-0.07544819,0.060526103,-0.121102214,-0.037098113,-0.20571057,-0.026374072,0.10795534,0.1608955,-0.11997714,-0.21329847,-0.18090203,-0.22656524,0.057893474,-0.23291728,-0.29025605,-0.17971854,-0.106527664,-0.06587797,-0.015221371,0.15956691,0.11347097,0.010524227,-0.11870656,0.027569825,-0.165791,-0.15572411,0.09506283,0.33358875,-0.03751405,0.04330486,-0.079027705,0.002087583,-0.0382044,0.034001395,-0.02691763,-0.10571985,-0.22809526,0.20829175,-0.07379122,-0.1428298,-0.08121679,-0.23085725,-0.11001473,0.05296522,-0.059180226,-0.00069239835,-0.10095911,-0.022098627,-0.22016333,0.2871424,-0.16911745,0.21282685,-0.24338634,0.19532461,-0.17268464,-0.08193102,-0.12286448,-0.07618635,-0.24519178,0.077424705,-0.13223444,0.09983747,0.06655971,-0.20355995,0.0439823,-0.043737832,0.21391347,0.0502607,0.1321352,0.2915309,0.04708144,0.14065906,0.08539688,0.07956922,0.21169853,-0.3902917,0.13065907,-0.15238337,-0.12404882,-0.06620501,0.11385934,-0.08681248,-0.020254737,0.20534603,0.32778284,0.14259802,-0.1613439,0.23014635,0.102455124,0.007968991,-0.02022837,-0.03853807,-0.109932385,0.009585542,0.42404062,0.2847046,0.24028239,-0.03699393,-0.08765783,-0.20952258,-0.07347573,-0.04680322,0.10627575,0.016278412,-0.069515646,0.0737417,-0.24929543,-0.03059703,-0.10698344,-0.09624344,-0.32414445,-0.040381573,0.15858108,0.18508463,-0.17070846,-0.0627666,-0.21565907,0.13577053,-0.032978054,0.21450536,0.21608514,0.11567514,-0.058127314,0.24140228,0.28817046,0.19774187,-0.05071711,0.17786801,-0.1906985,0.04951269,0.032082845,-0.042809196,0.2645596,0.02611323,0.046613526,-0.24948028,0.06275199,-0.08670988,-0.14760096,0.26393276,0.12564856,0.0935403,-0.14429562,0.028793672,0.018892597,-0.11454037,-0.07235604,0.18662018,0.14266479,0.21870361,-0.10150931,0.2461189,-0.15185237,0.09888512,0.06863377,0.18561792,-0.023874944,-0.32099414,0.17974511,0.030829394,-0.2378676,-0.11212887,0.18241374,-0.31346995,-0.095752776,-0.08464277,0.076227866,0.039878402,0.11960672,0.29073566,0.11657226,-0.080682114,-0.08628886,-0.05425315,0.048792224,0.03967409,0.09352877,0.12713511,-0.1611664,-0.14801106,0.11140602,-0.18551692,0.0073758983,-0.051086534,-0.06336673,0.046396833,-0.18416053,0.19774307,0.18324995,0.20952336,-0.076133646,0.08477754,0.069099486,-0.09358846,0.20360485,0.21412848,0.03631664,-0.057505112,0.20879556,-0.3797328,-0.04628944,0.15300274,-0.10895201,0.039990287,0.17191663,0.0585255,0.14070319,-0.021578092,-0.040159762,-0.1759563,0.13375525,0.1526195,-0.11064464,0.061384182,0.087938815,0.38815352,-0.36874396,0.13072632,0.28683895,0.13741574,0.20960823,0.17662796,-0.32640725,-0.15391202,0.02832065,0.23405193,0.4583815,-0.40031067,-0.16848026,0.21337518,-0.09272419,-0.15330559,0.09979352,0.07637641,-0.15536393,0.2634781,-0.033476446,-0.21582761,-0.04344221,-0.18875171,-0.3693905,0.070000134,0.114458404,-0.08675525,0.036521107,-0.04304038,0.1227768,-0.066810414,0.21486603,-0.04156646,-0.10414501,-0.1672643,0.27096134,-0.005631334,-0.028278008,0.07027403,-0.12461734,-0.12002023,-0.13982193,0.1377936,0.10077916,0.11549203,-0.15467295,0.08570317,0.06737502,-0.23405246,0.04567143,0.20918478,-0.07609473,0.08491845,-0.08402266,0.22811414,0.13935894,-0.07466402,0.18320419,0.19724403,-0.100676775,-0.02312202,-0.047525648,0.2405733,-0.062520385,0.17391604,-0.32234904,-0.109835334,0.10915631,0.032384552,0.19675758,0.017631974,-0.057856392,-0.1809902,-0.37133065,0.01103505,-0.3104344,-0.10810192,-7.241004,-0.08487413,-0.10281048,-0.124382704,0.14667672,-0.435805,-0.36673453,-0.45405844,-0.18770291,-0.13695465,-0.24996297,-0.13592884,0.14804332,0.026326085,0.2323133,0.06306461,-0.029334484,-0.18370461,-0.023955686,-0.27964443,-0.019854559,-0.26998973,-0.3676621,0.10181265,-0.10915226,0.07689765,-0.01999285,-0.09185981,0.16946091,0.15453915,-0.07903745,0.036762882,-0.2781207,0.060227238,-0.017044503,0.13971119,-0.061068088,-0.06448946,0.30850273,0.11067223,-0.13922958,-0.03421034,0.0089876205,-0.17220533,-0.3936221,-0.045923844,-0.18624114,0.046753,-0.21552068,0.25008592,-0.10981747,0.020772366,0.23566768,0.04111701,0.18899995,-0.29836437,-0.268844,0.2692205,0.2507,0.0032718128,0.07157991,-0.24928562,0.060040455,0.10017022,-0.031551234,-0.27903077,0.31756294,-0.17146477,-0.22332908,0.04133703,-0.017658802,-0.019215573,0.24050128,0.2839713,-0.2074407,-0.39654982,-0.006537633,-0.12734269,0.04250833,0.21320753,-0.013172017,0.29170173,0.041551355,0.36445937,-0.056940246,0.07789311,-0.03380824,0.21680002,-0.2424498,-0.08773287,0.34988675,0.079277314,-0.06170626,-0.16598244,-0.13001867,0.018107176,0.015579152,-0.10792552,0.17275822,0.05425054,0.19899404,0.11575121,0.15849166,0.12475526,0.10721504,0.017583113,0.04304358,0.2262686,0.079872265,0.3286935,0.11237883,-0.013242002,0.07152654,-0.15409534,-0.04086097,-0.017899506,0.35777974,0.0021833747,0.3432613,0.04045322
PRO_3_A,0.2112579,-0.18129641,0.0060854205,0.013516908,-0.16237764,0.17588717,-0.1721484,0.34038085,0.17353654,-0.0872347,0.14329486,-0.16605532,0.38800678,0.24504495,0.11263221,0.4407198,0.26052845,-0.2129309,-0.14258915,0.065945044,0.22633943,0.020693582,-0.052624304,0.06738822,-0.31467935,-0.019230967,0.07638332,-0.014802134,0.052606057,-0.055389136,-0.29196024,-0.12069615,-0.017078547,-0.2895899,-0.13914543,0.079216644,0.03379278,-0.02313278,-0.104430646,-0.22711699,0.06134672,-0.029581986,0.1397859,-0.17594811,0.053797178,-0.1842411,-0.027282543,0.037425265,0.000655753,-0.16313744,0.035722066,0.036832605,0.12266068,-0.22538322,-0.096285485,0.24224132,-0.06696997,0.2337758,0.016510587,-0.047136787,-0.12731656,-0.11666897,0.005290687,0.11506601,0.2977747,0.30421874,0.18213499,-0.11870857,-0.059610926,-0.12157476,-0.22587606,-0.1392988,-0.09894169,0.21739545,0.06857828,0.049705133,-0.19450548,0.18021981,0.08346596,0.01750597,0.17727356,-0.08597667,0.09992502,0.2678065,-0.021681266,-0.009467636,-0.08685107,0.08369935,-0.024473956,-0.42957547,0.23743333,-0.072349474,0.072726354,0.10577029,-0.1419787,-0.32892573,0.11635715,0.04599879,0.14636867,-0.02440865,0.012221466,0.0898069,0.08238427,-0.1898459,0.1786964,-0.1427956,0.21253452,-0.40519512,0.21518138,-0.025124907,-0.11864885,0.18361768,0.3090857,0.048564516,0.21177977,0.031432487,-0.08028934,-0.22382522,0.16775008,0.11382456,0.095125854,0.0805681,-0.3319875,-0.15653005,-0.16790918,0.04711369,0.24256727,-0.09803877,0.15743992,-0.08614524,0.05031165,-0.34387746,-0.17228822,0.07551904,0.13011815,-0.10323876,-0.40914953,-0.013357883,0.08225781,-0.11356138,0.07552144,0.006134958,-0.06049607,0.035821486,-0.15765767,0.2773238,0.10312012,0.17072877,-0.2718658,-0.068859465,0.007482919,-0.20007665,0.0016079893,-0.09102197,-0.06346814,0.10267235,0.06989961,-0.06593871,-0.08942936,0.12430546,0.04831148,-0.0712286,0.20165023,0.07090939,-0.10468022,-0.17693299,0.08598414,-0.13973679,0.14037551,0.01385624,-0.00049054297,0.29438642,0.25646514,0.19611754,-0.26219425,0.121686764,0.16222265,-0.051426943,0.13343851,-0.14249505,-0.07551888,-0.21535552,0.09881185,0.27848592,-0.01527399,-0.005228454,-0.08555427,0.045317903,0.033297513,-0.0048739384,0.1817804,0.008645471,-0.14615937,0.04807462,0.014011135,0.14113888,0.05710272,0.15644786,-0.150199,-0.31514767,0.036973573,0.23967345,0.17890492,0.11891682,0.019450592,-0.22804157,0.06762429,-0.077261835,-0.1873055,0.06903996,0.28952825,-0.18368183,0.068269804,0.2778305,-0.04170623,-0.055837918,0.02319835,0.30574635,-0.15778834,0.076763555,0.15410419,-0.23346506,0.21724802,0.097804524,0.4259871,-0.042201184,0.31109992,-0.05301426,0.08016146,0.15260954,0.06732231,-0.1762917,-0.14334767,-0.09939726,-2.2407746,0.10174683,0.034116402,0.1591512,-0.16339132,-0.022545291,-0.249218,0.14866158,0.042537246,0.18293735,-0.13232084,-0.013261683,0.22070684,0.053849753,0.014311004,0.0018857957,0.030005967,0.22114585,0.08741353,0.21408254,-0.17800577,-0.30928046,-0.034307297,-0.07725302,0.14590374,-0.1159321,0.1563416,-0.05969494,0.035245705,0.08692107,-0.1415528,0.025722163,0.030383643,-0.04175693,-0.10588864,-0.26907277,-0.18288626,-0.19629848,0.05849278,0.1374476,-0.12752713,0.07997192,-0.08041145,-0.05141172,-0.028343324,-0.32208633,-0.0930868,-0.18411818,-0.11532398,0.13226861,0.036863673,0.22822745,0.09841323,-0.06457166,-0.1999493,0.039895438,0.016561348,-0.050446924,-0.35762092,0.13480899,-0.029066062,-0.16519172,-0.04169169,0.1383258,0.11845212,-0.022024319,0.09714923,0.14857838,-0.19447659,0.05750176,-0.01943008,0.17337668,-0.45944908,-0.09823854,0.10252087,0.05462688,0.018575713,0.266051,0.0632518,-0.2176675,0.061202273,-0.04944492,0.18109074,-0.1961089,-0.29232842,0.03666094,-0.19360676,0.17096183,-0.06810273,-0.11205201,0.095479205,-0.029837025,-0.0028549396,0.031374667,-0.104731776,-0.112399295,0.34878218,-0.0068261097,-0.18160108,0.028158799,0.24690199,0.10289837,0.17535537,0.2059382,0.049254544,0.1914908,0.040635634,0.051927317,-0.013883291,0.070968166,-0.10273307,-0.09626691,-0.26113403,0.09522403,-0.26715443,-0.38438398,-0.03197986,0.22276917,-0.14010873,-0.10362995,0.23358713,0.14484774,-0.06094319,0.13115011,0.009610768,-0.44119686,0.12557466,0.122769974,-0.22276863,-0.02877155,0.02876199,-0.002691563,-0.18350111,0.2830494,0.14897706,-0.059946384,0.21071222,-0.09663703,0.17364098,0.11776985,0.091437414,0.19270006,0.11351387,0.10455006,0.077875465,-0.010558908,0.30655873,0.0047056708,0.16298687,0.27541885,-0.14236979,-0.0017603621,-0.21408525,-0.01742502,0.12270038,0.11418618,0.117124364,0.012201659,-0.081496745,-0.09922182,0.11373123,-0.21224965,0.24723047,-0.17753682,-0.08271657,0.09912856,0.038127057,0.02187334,-0.119873464,-0.114464685,0.16210736,-0.074178405,-0.026416142,0.16340193,0.14810601,0.002065828,0.40270233,-0.022656567,0.092200935,-0.03760634,0.01901326,-0.19111793,0.0863413,-0.042329945,-0.061448876,-0.13327424,0.10927683,0.16937514,-0.015050735,0.00055620185,-0.29017025,-0.06368579,0.10385514,0.112041295,-0.007946891,-0.07525887,-0.06821204,-0.036862057,0.26217937,-0.10437159,0.14115004,0.15243658,-0.021288324,-0.006045112,-0.4209146,0.0063558067,-0.20165445,0.12887363,-0.13798851,-0.5740334,-0.0005475027,0.034035526,-0.26289612,0.111700185,-0.010571768,0.2745186,0.0107629895,0.10599403,-0.4568611,0.29424623,-0.029048122,0.007301153,-0.04973734,-0.037391018,0.13363007,-0.11135455,0.20682849,0.4082052,-0.21942493,-0.15907463,0.06783462,-0.24338274,0.18650118,0.21299565,0.06847714,-0.09156242,-0.17325236,0.024365326,0.43991143,0.119435675,-0.00756583,-0.090320945,0.19512506,-0.009854615,-0.24998027,-0.017458193,0.21652822,0.2947814,-0.05438919,0.47648096,0.050394133,-0.0668532,-0.14468716,-0.21489316,-0.06255289,-0.05397103,-0.220094,-0.32627928,0.10340827,0.107165284,-0.2508752,-0.16588289,0.07334314,0.13910839,-0.20207068,-0.050034843,0.12475904,0.0011816412,-0.21551186,-0.03994885,-0.0041750814,-0.015676968,-0.24323232,-0.13195471,0.3790173,0.045430247,0.08355216,0.022390747,-0.2949421,-0.13797423,0.062246177,0.110691644,0.035634145,-0.05828622,0.05396463,0.24459285,0.025258275,0.19123127,0.13376999,-0.16631548,-0.015481306,-0.22128184,-0.17797169,0.15273653,0.0301887,-0.01483837,-0.07973404,-0.164041,0.09277972,0.17881504,-0.1394871,-0.17118706,0.18478553,-0.12252222,-0.15069956,0.075883575,-0.045160525,-0.17848565,-0.021525368,0.361094,-0.09209628,0.027861265,-0.034572724,0.09738019,0.19388889,-0.12359063,0.0994092,0.030168364,-0.18125801,-0.0766642,-0.0005560102,-0.21998802,-0.20398213,0.01165553,-0.1412847,0.21452044,-0.04474495,-0.06191857,-0.08552012,-0.17350279,0.2847345,0.0054152994,-0.0009069111,-0.109269865,0.33082995,-0.1480947,0.05047781,0.15287486,0.11266462,0.19742963,-0.053295705,0.05780856,0.26757708,0.1177681,0.06445243,-0.15719815,0.06756587,-0.12062933,0.02356062,0.37730515,-0.11921906,0.1582581,-0.03643287,-0.02152053,0.24647805,0.08970613,-0.10167227,-0.2235513,-0.037417747,-0.15616103,0.09564506,0.028934764,-0.1780946,0.029842036,-0.06531585,-0.10526486,-0.094973065,0.27982265,0.068610765,0.3251994,0.11152686,0.44884926,-0.2073164,-0.042436074,-0.041067425,-0.19441448,-0.07663013,0.079446845,-0.33770376,-0.1623185,0.25248057,-0.247979,0.23448582,-0.32037416,0.12907654,-0.03386503,-0.1751201,0.0070511675,-0.14070457,0.09842991,0.17679109,0.16270985,-0.059648678,-0.10349013,0.27232224,0.046899855,0.026817758,-0.039683834,0.06486154,0.26060095,0.069257714,0.046228085,-0.14823543,-0.122840546,0.02263768,-0.37467694,-0.19623047,-0.3077717,0.050428726,-0.07910249,-0.14139631,0.07190017,0.2788244,-0.13480404,0.021350646,-0.1494124,-0.31584644,0.14437912,-0.07208389,-0.046728622,-0.011056449,-0.21582198,0.33320978,-0.05445235,0.05343955,-0.08319204,0.09193365,0.07499276,0.24567324,-0.07256311,-0.07024194,-0.13709886,0.020943612,-0.04439651,0.20428495,0.23474763,0.047224488,0.036881797,-0.03237447,0.13216951,-0.14139059,-0.027774561,-0.48719063,0.2350413,0.065375395,-0.10205136,-0.03306674,-0.06520843,0.15290828,-0.1040689,-0.03940225,0.050472867,-0.052146506,0.21053499,-0.022035439,-0.18495154,0.21133882,0.29201174,-0.4463595,-0.0758659,-0.05697111,0.18854725,-0.20667504,0.15173618,-0.26097924,-0.18041782,0.046963327,0.023003938,-0.4459507,0.059575435,-0.060136992,-0.24592336,-0.2506447,-0.09066825,-0.06516082,0.14241342,-0.03908157,0.10530085,-0.04923967,0.0207794,0.10437127,0.07301599,0.40344664,0.18113315,-0.010930298,-0.2512628,0.05749876,-0.014583486,0.054296028,0.07308953,-0.0008742331,-0.06167966,0.19006144,-0.28669134,-0.2881591,-0.033378944,0.18104127,-0.05500829,0.14518355,-0.2722477,-0.23764129,0.14527579,0.5069828,-0.23988882,-0.03759459,0.019385986,-0.0130770905,0.16876346,-0.24164523,0.067930534,-0.08309035,-0.19983904,0.0017016078,-0.13488618,0.28424698,0.12113499,-0.062034898,0.116753705,0.021416953,-0.29329407,0.17330371,-0.17254683,0.13554113,0.02280926,0.3998341,0.0315845,-0.024749743,0.03488861,0.07320809,-0.27745795,-0.043188315,0.32168755,0.004895328,0.08745265,0.015962902,0.13856487,0.0036516297,0.3745047,0.13729723,0.010129684,0.37648115,0.039455302,-0.0632946,0.11336513,-0.107594244,0.23122649,0.044395227,-0.06030607,-0.12019023,0.23787072,0.08043404,0.122858025,-0.015784476,0.040003587,0.118902594,0.016052319,-0.017428009,-0.23298553,-0.1537557,0.27534372,-0.17486052,-0.11484986,0.19614643,-0.19612627,-0.11992503,-0.22088863,0.108870365,-0.1763453,0.29359406,-0.079484984,-0.14161165,0.30139363,-0.11029199,-0.36294973,0.020709911,-0.10100495,0.0010552629,-0.020554189,-0.1890551,0.15896587,0.06913007,0.14987957,-0.0052866354,0.04911523,-0.13146718,0.029272856,0.037001528,0.24862002,0.062169176,0.22047712,-0.21223281,0.10700023,0.044070877,0.07557952,-0.031802572,0.21255518,-0.076198794,-0.5560785,0.13183953,0.058581453,-0.36337435,0.23826878,-0.34987238,-0.046423566,0.062148027,0.13805902,0.024490079,-0.12344945,0.039338056,-0.074655116,-0.12590596,0.13159727,-0.0128326705,0.1780683,-0.12684596,0.019327156,-0.077075824,-0.0027984015,-0.10628551,-0.05747095,-0.016778203,-0.11670736,0.0005408561,0.17072056,0.025732027,-0.1912622,-0.2703795,-0.02314583,0.086160064,0.050904978,-0.22672671,-0.14322567,0.07968905,0.12543324,-0.009182859,-0.25296035,-0.054706965,-0.12814204,-0.03512122,0.03771985,-0.094977476,0.10662347,1.1585196,0.12708245,0.13761383,-0.06602449,-0.11786702,-0.11000503,-0.07404756,-0.24657746,0.0882182,-0.25989377,-0.015030447,0.28892633,0.083657354,-0.15903446,-0.16176277,-0.2646514,0.060666908,-0.16741855,-0.0049913283,0.02484327,0.29433674,-0.047324453,-0.14970753,0.13162112,-0.074781604,0.23184034,-0.17356311,0.32397586,-0.042520814,-0.0017604512,0.019107247,-0.04879098,-0.13813502,-0.027417071,-0.25731957,-0.047315557,-0.091146134,0.06629811,-0.04740949,-0.10503667,0.021637676,-0.075508945,-0.07432213,-0.01774288,-0.031449933,0.22060601,-0.20032607,-0.34102848,-0.008828388,0.089179,-0.12777393,0.29879507,0.060218085,-0.100227006,0.3217896,0.002454082,0.00044769337,0.10636052,-0.036721166,0.16696261,0.105048746,0.11825004,-0.15395112,-0.06613328,0.17719993,-0.24764842,0.23877679,-0.11265405,-0.034668066,0.091621384,-0.09578098,-0.08440862,-0.18720718,0.15927115,0.27654424,0.19586383,-0.10425881,0.08791252,-0.10430784,-0.2405973,0.15445235,0.033553343,0.17786841,-0.25650743,-0.108999826,0.19642285,0.008570536,0.11337982,0.10153711,0.029601352,-0.13166088,-0.13470559,-0.017995488,-0.1198737,-0.16550678,0.28411275,-0.034281507,0.0005453825,0.07721646,0.2737469,-0.18992452,-0.2795958,0.24386121,-0.12049719,-0.04712735,-0.0625457,-0.08389725,0.1471589,-0.14629084,0.23944767,0.12497186,-0.22078012,0.029173879,0.032145247,-0.051118176,0.08681421,0.10785845,0.039312053,-0.19678676,-0.098407514,0.081245124,0.06858655,0.08299104,0.06375567,0.061177053,-0.048137017,0.2520065,-0.21177325,0.17457059,0.2921038,0.25684428,-0.056335635,-0.049462896,-0.14323573,0.053341873,-0.20665008,-0.115309976,0.20805533,0.0460236,0.18154712,-0.079271406,0.2836539,-0.17264123,0.23035747,-0.0074873916,0.15393454,0.037443195,0.091325566,0.02627544,0.055849344,-0.24590713,0.035917487,0.070328206,0.023792434,-0.18825406,-0.024082119,0.2489463,-0.13168095,-0.048739728,0.47154665,0.14824371,-0.31108126,-0.025029873,0.21139726,-0.21977195,0.121293224,-0.15893213,0.1190518,0.06889272,0.014394216,0.096216984,0.17235832,0.03943272,-0.19364318,-0.20225121,0.01023178,0.022612114,-0.11650523,0.2068652,0.21993639,-0.06430531,-0.14770402,-0.050821133,0.0018842024,0.27218157,0.067189045,0.22867978,-0.056036465,0.08316258,0.063160405,0.106523536,0.071571246,0.22371867,-0.041143827,0.13311526,0.1574809,0.027035855,-0.13503833,-0.15827353,0.04919917,-0.12117572,0.3091001,0.02123138,0.02653608,-0.14221406,0.26145485,-0.15488267,-0.06713933,0.17290433,0.14714126,-0.017785907,0.36054787,-0.1916812,-0.0032208292,0.070884176,0.11541038,0.3262811,-0.08192343,-0.012710795,-0.06556802,-0.1535368,0.113696784,-0.16965461,0.19391853,-0.1743707,0.26459214,-0.013547505,-0.18123347,0.028318876,-0.47960174,0.036175165,0.18051507,0.11739355,-0.14505889,0.103266254,0.034970913,-0.012657376,0.022807535,-0.021513266,-0.12623087,-0.18002363,0.17734964,0.11880263,0.18360594,0.26899272,0.28085154,-0.112592146,-0.04233044,-0.36483988,0.030030914,-0.06999269,0.23809287,-0.16349155,-0.025021546,0.16574396,-0.177111,-0.12918754,0.12547861,-0.019446224,0.18558297,-0.17542328,0.2801511,0.023963405,0.32054248,0.037532438,0.15309374,-0.04092705,0.049869936,0.04835098,0.2330854,0.099430256,-0.034456465,0.08577922,0.32564306,-0.09428681,-0.27836674,0.14314415,-0.26943505,-0.0895425,0.25355825,-0.10496446,-0.06685136,0.24583791,0.18065108,-7.4783535,-0.2004903,-0.18831624,0.009486541,0.038790587,-0.1121546,-0.070319116,0.07692618,-0.29387876,0.10655985,-0.046352055,-0.44464654,-0.0025835647,-0.24076682,-0.08451365,0.090573624,-0.124877065,0.046939235,0.087478645,-0.02492197,-0.0029901974,-0.108654864,0.26523572,0.040010825,0.06470875,-0.07745668,-0.045476615,-0.2847723,-0.06054556,0.19582032,-0.16634603,-0.08830933,-0.19253953,0.19337626,-0.08679567,0.14237636,0.16528967,-0.08229515,0.18065995,0.19783638,0.0012918046,-0.1270507,0.053912256,-0.016577888,-0.16785362,0.2511998,-0.20090571,-0.17222658,-0.09838923,0.14893287,0.11306763,0.10938063,-0.10069684,0.095054865,0.32769236,-0.24583796,-0.13494666,0.38985056,0.14245422,0.16717821,0.072193906,-0.072125204,-0.056631137,0.121471904,0.084648065,0.09418846,0.19464044,-0.0131573435,0.04090793,-0.19772573,0.08808652,-0.1924365,0.26884934,0.2090865,-0.036738854,-0.2994519,-0.2046185,-0.22180739,0.17490253,-0.12852499,0.21842742,0.44653192,-0.18079354,0.12201694,0.07257375,0.22055061,0.18379264,0.027040437,-0.07988022,-0.14627454,0.32211757,0.0844071,-0.14116096,-0.24765682,-0.26753578,-0.24461907,-0.09617678,-0.050546575,0.065682575,0.03175026,0.07704688,0.082181536,0.07552469,-0.24320365,-0.05118936,0.22554587,-0.09700699,-0.12213055,-0.010678415,0.29609835,0.048786305,0.04026094,0.20023501,0.016632218,0.14787593,-0.023436278,0.22618008,-0.06131548,0.3336758,0.06601411
PRO_4_A,-0.035785947,0.031147595,0.03137502,0.29448038,-0.08507717,0.08107096,-0.09596472,0.15417388,-0.01812219,0.14930789,0.19824173,-0.014884987,0.25146696,0.23457585,0.1381748,0.26519236,0.039430533,0.15904519,-0.13763139,0.1478531,0.28688106,0.03764809,-0.09007527,0.11368537,-0.09613469,0.25613168,0.019392395,0.0126766795,0.051518954,-0.1334604,-0.30747968,-0.009179616,-0.056643713,-0.34592143,-0.30301863,0.05427794,-0.1244682,0.016627526,-0.010612364,-0.36487502,-0.081268854,-0.017676517,0.14403363,-0.11161298,-0.08263344,-0.18699071,0.004075765,-0.08587121,0.20016858,-0.1597605,-0.028957149,0.049874537,-0.0414073,-0.110327415,-0.050342247,0.0855055,0.15485682,0.31255755,-0.18191501,-0.19796295,-0.3413378,-0.09710533,0.09050691,0.41098598,0.0038190852,0.23866336,-0.0021122417,-0.37503836,0.008900551,-0.11191642,0.0075966446,-0.23474333,-0.18035704,0.15791827,-0.075490505,0.04268323,0.058841072,0.39102903,0.22657947,0.030353004,0.1893848,-0.0156053575,-0.030869018,0.13955627,0.009815345,0.31008396,-0.16586624,0.1363827,0.105669364,-0.05792042,0.028243447,-0.08095741,0.10178756,0.118355006,-0.04280073,-0.22700831,-7.233482e-05,0.01843445,0.008317211,-0.11017663,0.02760161,-0.0009712962,-0.023088548,-0.116177395,-0.07673195,0.025057456,0.04406003,0.06963401,0.0633693,-0.030948598,0.07757927,0.0748361,0.31989178,0.02741904,0.07106256,-0.2888012,-0.13023181,-0.17570549,-0.056373287,0.10385232,0.3043895,-0.0123119345,-0.001655588,0.10874042,-0.1740373,-0.059614323,0.12691018,0.12102829,0.060798068,-0.21684091,0.13759239,-0.1752587,-0.16553825,-0.019234348,-0.0405999,0.118276455,-0.1079492,-0.06037086,-0.2576928,-0.036268193,-0.12240844,0.06317288,-0.027018594,0.039132927,-0.09993586,0.17767483,0.0211759,0.037702937,-0.21753171,-0.16826436,-0.104546055,0.077136934,-0.038719535,-0.1915241,0.09630673,-0.018087823,0.014741827,-0.091554284,0.15571104,0.13733855,0.29704803,-0.039113577,0.2528178,-0.015178883,-0.14316544,-0.2957939,0.3442945,-0.11174106,0.24283311,0.26392147,-0.22488227,0.19391948,0.026912307,-0.059550665,-0.14583094,-0.11951217,0.055902775,0.017355025,-0.0070324396,-0.09528947,-0.0479877,-0.24957724,0.023896739,0.121857,0.07244958,0.11184866,0.059703767,-0.017790683,0.07625269,0.043548953,0.2149701,0.08648619,-0.0035367971,0.12961811,0.08281294,0.17133524,0.07425052,0.2486128,-0.01388317,0.08004896,0.080183774,0.13327658,-0.07671539,0.13347058,0.122880384,-0.11611771,-0.006881389,-0.14892681,-0.3032013,0.0836062,0.14636327,-0.21482931,-0.0029834972,-0.047317464,0.11705802,-0.25130346,0.14735213,0.17627326,-0.11870707,-0.010667053,0.23440608,-0.12039792,0.029093089,-0.012081272,0.3240788,-0.25974095,0.21933396,-0.03688199,-0.042952787,0.09773801,0.091581546,0.053384442,-0.37080058,0.122053556,-1.9847462,-0.1486896,-0.025166078,0.22246256,-0.089746706,-0.23208053,-0.20946783,0.26922607,-0.083321184,0.078804776,-0.1886159,-0.10693399,0.10778573,0.038103677,0.05552618,0.08681507,-0.2517009,0.17149256,-0.02572391,0.15388179,-0.12730299,-0.13484018,-0.039175056,-0.25884113,0.30826014,-0.2552609,0.2507579,-0.12344175,-0.19531743,0.11703719,-0.016091576,0.2772623,0.0012777174,-0.022119211,0.049585477,-0.06852893,-0.092403084,-0.41480705,-0.15688358,-0.17396903,-0.35953426,0.011981134,-0.06119991,0.18401062,0.011852738,-0.09559736,-0.01786588,-0.13865013,-0.026508782,-0.20971942,0.30792713,0.19898865,0.18440604,-0.112107515,0.03204573,0.045532342,-0.013874451,-0.0570246,0.00032780936,0.054287396,-0.21514268,-0.18114556,-0.053192295,0.13154198,0.13390544,-0.059754297,0.17564848,0.157255,0.030500999,0.07642705,0.0484018,0.10970536,-0.471711,-0.2679426,0.04045588,-0.13329718,0.06288489,0.073225304,0.19692406,0.07542015,0.10039733,-0.06156769,0.029637817,-0.047702163,-0.17153284,0.08554259,-0.1638309,0.115656085,-0.24386789,-0.060429547,0.10458567,-0.2345176,0.16864668,0.12365433,-0.34093723,0.033051126,0.17410904,-0.30324242,-0.26707685,-0.14703877,0.04840715,0.0834759,0.14176305,0.09094066,0.026728826,0.13945863,0.01911205,-0.20247631,-0.28662807,-0.06773255,-0.06085556,0.019746566,-0.11103299,-0.01977144,-0.09136919,-0.10878318,-0.059928928,0.12847719,-0.12789913,-0.12555991,0.16654867,0.20593788,0.14896443,0.10790812,0.056502856,-0.43731225,-0.11828088,0.08758153,-0.104477376,-0.25930193,0.028808875,0.0769052,0.17375073,0.07702944,0.104696065,-0.23669487,0.10644008,-0.06091725,0.20926636,0.13973796,0.024828676,0.0010913309,0.07318812,0.05895357,0.13878101,0.10838365,0.20856339,0.025594471,0.21012013,0.116425864,-0.1949837,-0.20193554,-0.28396457,-0.033572666,0.0313513,0.0674796,-0.029142968,-0.02904046,-0.36058837,-0.05230959,0.09221436,-0.13991396,0.24047689,-0.092909545,-0.14939545,0.1780292,0.15883085,-0.06804974,-0.05355799,-0.16630691,-0.10540859,0.23335777,0.014840155,-0.0062942957,-0.16171508,-0.058146,0.062252656,0.16376787,-0.10683596,0.10921223,-0.05990563,0.007845589,0.11705138,0.07911556,0.07653378,0.03627065,0.019773925,0.18723093,-0.04751034,0.106262766,-0.31609482,0.07531392,-0.012475965,0.120286606,-0.14989941,0.15655173,-0.15522143,0.010607867,0.37311012,0.011340362,-0.0423924,0.13121246,0.16285373,0.059423674,-0.09636657,-0.23223977,-0.22314747,0.2095382,-0.07121976,-0.2531889,-0.096915774,0.009753878,-0.26887763,0.28317928,0.16908203,0.09084527,-0.052976,-0.12059635,-0.0933038,0.07017744,-0.03814802,0.12565991,0.1913817,0.13086362,-0.103783414,0.15013619,0.025392437,0.15623462,-0.16461782,0.08314864,0.05329237,0.0472483,-0.1454724,0.105632655,0.19372338,0.22515608,0.05757875,0.04221446,0.17124768,-0.18750237,-0.1351824,-0.05085369,0.120946296,-0.07507212,-0.08650811,-0.05195867,0.17077428,0.31383812,-0.11130695,0.45480764,0.07175599,0.013727914,-0.2060472,0.04172428,0.04473641,0.06517571,-0.13331324,-0.06329252,-0.0989242,-0.015673712,-0.05511299,-0.04604327,0.02627444,-0.03897314,-0.1112677,-0.11876821,0.17090012,-0.10017571,-0.32240644,-0.023661029,0.06561015,0.16493692,-0.100045346,-0.20441614,0.38243425,0.10142721,-0.08140245,0.048730336,-0.022915585,0.022781974,0.048994556,0.022330116,0.11808301,-0.12384968,0.18080239,0.29869592,0.062099334,0.27838606,0.039105993,-0.1845507,0.032923855,-0.021009332,0.0095458105,0.031826958,0.08378042,-0.15081887,-0.1906408,-0.15990238,0.08092432,-0.06524673,-0.11853855,-0.15682922,0.028467309,-0.045415282,-0.024477344,-0.031816695,-0.09930923,-0.28125873,-0.04578191,0.29463452,-0.28772074,0.11112119,-0.051248167,0.06185223,0.19193807,0.01805963,0.048869673,0.09474188,0.0034141846,-0.11012488,0.14859912,-0.020298572,0.0012533918,0.13611273,-0.13470522,0.28555787,-0.008919689,-0.29136783,0.2632801,-0.06130534,0.03692247,0.03753255,-0.10802606,-0.09410126,0.25761652,0.026403774,-0.0016916044,0.16372995,0.019197213,-0.079082765,-0.045016915,0.07662914,0.08116237,-0.04868351,0.24068281,-0.10249308,0.1237067,0.020872971,0.06235867,0.29637358,-0.108499885,-0.01278459,0.046072844,0.13841385,0.2123363,0.21622957,-0.15795778,-0.048546385,0.0010101602,-0.06373892,0.117293015,-0.10808056,-0.2999988,0.061708786,-0.088576645,-0.19783694,-0.09287995,0.1089541,0.08665191,0.20420161,-0.05310919,0.21729814,-0.11875444,0.103863105,-0.124004275,-0.022049574,-0.16074097,0.15053278,-0.22713938,-0.10185484,0.058406852,-0.08094893,0.29669854,-0.17927776,0.04627543,0.11246929,-0.042056914,0.044650674,-0.28086275,0.16515362,-0.06052378,0.25152916,0.105989404,0.07707309,0.1316352,0.09338143,-0.024156107,-0.026081303,0.035385672,0.062138557,0.14657675,-0.016304493,0.0697994,-0.020327995,0.00498871,-0.21512896,-0.22669354,-0.3779204,-0.02032257,-0.118819885,-0.09908167,-0.172406,0.20322518,-0.18991138,-0.0040848334,-0.20745577,-0.24955583,-0.07714412,0.01478835,0.016879426,-0.14499205,-0.21772164,0.15213363,0.17602263,0.08725655,0.026205651,0.040078625,-0.0009109653,0.034498647,-0.19259179,0.08861576,0.1167291,0.055692203,-0.10111649,0.31376588,0.31350684,0.026360895,-0.028100302,-0.24328515,0.082730845,-0.1788862,-0.22368203,-0.4035795,0.22503564,-0.033789378,-0.08904236,0.046928655,-0.1493251,0.07166904,0.20219232,-0.02381295,0.16797525,0.09375195,0.12194499,-0.08024952,-0.25163993,0.0341567,0.3180912,-0.37639144,-0.21549016,0.09630405,0.07868125,-0.45254487,0.105435714,-0.05276549,0.07198704,0.19831337,-0.02418902,-0.06205905,0.18104626,-0.05424765,-0.11032725,0.06731473,0.01412657,-0.0076801768,-0.077625,0.12674247,-0.042865288,0.13971348,-0.22117813,0.13860574,0.07546537,0.26312682,0.099513106,0.2769103,-0.22011736,0.0745471,-0.14172673,0.015291955,-0.0060343887,-0.05049811,0.080290146,0.07594231,-0.45136347,-0.15540257,0.06800537,0.17649989,-0.07280201,0.1160717,-0.10574002,-0.3506456,0.124199934,0.5283383,0.11983413,-0.056302812,-0.15677814,0.043569088,0.15186799,-0.13089955,-0.0961564,-0.0826053,-0.24016072,0.17439571,-0.042469505,0.15547019,-0.00338985,0.09004626,0.21081975,-0.029798212,-0.068033524,0.32584733,-0.25306302,0.051255666,-0.052782707,0.34397832,-0.023233846,-0.10562906,0.16012804,0.21797583,-0.13848254,-0.11664498,0.15426412,-0.23470062,0.06810806,0.12518936,0.1843357,-0.15079421,0.2505667,-0.06977674,0.07786783,0.08366912,0.2100388,-0.039308794,-0.12005579,-0.062426772,0.048624795,-0.12732434,0.08201244,0.033470273,-0.05421251,0.060371425,-0.06818298,0.2933053,-0.097305164,0.0972194,-0.02738302,0.110949434,-0.06284983,-0.3899099,0.29862055,-0.12767537,-0.14050278,0.00471469,0.16190535,-0.009431294,-0.24231735,-0.10580406,-0.26025146,0.149942,-0.08246856,-0.0035675606,0.24280517,-0.005930025,-0.33209485,-0.00931931,-0.15295057,0.03030933,-0.3107251,-0.2142403,0.32866877,0.1332974,0.013014164,-0.08304496,0.18056186,-0.11276906,0.14323558,0.079772815,0.21624781,-0.2292844,0.33942327,-0.20282638,0.0663612,0.1441324,0.082333006,0.26318806,-0.018801536,0.06678087,-0.23555088,0.11326603,0.07963525,-0.17461357,0.031681675,-0.22830856,0.01567783,-0.020539233,0.22637178,0.11706279,-0.054956794,0.033275407,-0.04542266,-0.13211343,0.0673046,-0.013540871,0.28757882,-0.17152652,0.20583355,-0.11542549,0.12730464,-0.032800388,-0.07634832,-0.03213469,0.053821247,-0.05173808,0.15151188,0.19136047,-0.26046044,-0.008597972,-0.022813054,0.13065931,0.0665777,-0.16351482,0.10548942,-0.014498382,0.06523555,-0.16648726,-0.049843054,0.24520226,0.07260113,0.07480605,-0.011073506,-0.114875615,0.0060914205,1.3603061,0.07030759,-0.1715374,-0.22282177,-0.07864293,-0.08735758,-0.039399754,-0.10369003,0.16249175,0.032169327,-0.11637646,0.17829706,-0.0227434,-0.13518174,0.020120375,-0.29500905,0.015234173,0.0103957495,-0.081878945,-0.06756141,0.1467186,-0.045119956,-0.12788735,0.18838234,-0.1956024,0.20608646,-0.068709,0.1312775,0.07257765,0.13737045,0.097200096,-0.05656377,-0.0923351,-0.0031963827,-0.17806828,-0.076034814,-0.059069015,-0.13163057,0.008484779,-0.1300001,-0.09513405,0.059617374,-0.28139353,0.040203627,0.07821309,0.1962624,0.069683075,-0.03618228,0.10826349,0.075254865,-0.16664031,0.24462582,-0.0052979817,-0.07064139,0.0035440957,0.1758188,0.011670959,-0.029613715,0.26246235,0.092556976,0.17190146,0.115540974,0.11696605,-0.16401342,0.148695,-0.11942132,0.26950777,-0.10498312,-0.07691567,0.14432359,0.033583168,0.2069326,0.00085484673,0.014756154,0.14800705,0.21497758,0.1303714,0.31367424,-0.09021696,-0.2448674,0.20816222,0.09555987,-0.17738274,-0.041629594,-0.15004344,0.07617619,0.07145539,0.06477056,-0.028337682,0.06421452,-0.16127709,0.10678737,0.008889874,-0.08893503,-0.04727655,0.09242788,-0.032043975,-0.07177212,-0.040902026,0.15700318,0.029121099,0.03424312,0.038399823,0.07292643,-0.2676517,0.07692935,-0.051415086,0.015711093,0.03693173,0.10238192,-0.07371257,-0.18740363,0.06919155,-0.05906439,-0.09576354,0.17829862,0.07032157,0.15497379,-0.3541983,0.014273464,-0.17642197,0.16530581,0.08899371,-0.1187187,-0.009095036,0.094954506,0.2876198,0.11023783,0.1502714,0.026210312,-0.09307661,0.035016134,0.048757862,-0.06198309,-0.014399316,-0.16057195,-0.036159083,0.092331685,-0.19205137,0.09641893,-0.06481383,-0.011616859,0.22767355,0.0066145035,0.14854634,-0.015179,-0.029657999,0.11519712,0.19876243,0.30271026,-0.2584035,0.07143732,-0.012749938,0.1419991,-0.115337305,-0.14593063,0.10080448,-0.021127036,0.039129186,0.20745645,0.08911433,-0.12617376,-0.057570193,0.21584441,-0.11821769,0.02283083,-0.040587768,0.098755635,0.12214236,0.02697749,0.0802497,-0.031279873,-0.03539868,-0.29191333,-0.46839455,0.15872975,-0.09324389,-0.1740264,0.09775811,0.10653876,-0.050942212,0.024338305,0.015236939,0.04277001,0.31851637,0.0751699,0.0012326074,-0.040380158,0.042721707,0.17061886,0.11367142,-0.15381137,-0.032325376,-0.07376118,0.18061163,-0.203852,0.08215595,0.16083793,-0.042115256,-0.056334093,-0.27485925,0.44943923,-0.19505703,-0.075425334,-0.23353621,0.15090539,-0.037137575,0.09881309,-0.018333578,0.19273129,-0.22551149,-0.15127677,-0.09799071,0.038010906,-0.008252745,0.29784492,0.28714946,0.11913452,0.13131431,-0.012310824,-0.080346465,0.1919724,0.017528081,0.19962904,-0.14385939,0.059406307,0.088199385,-0.040637523,0.05990642,-0.41620344,0.011279126,0.4766189,-0.05601256,-0.09683549,0.24693735,0.2225992,0.01286888,-0.02181111,0.0473614,-0.07177225,0.11808493,0.08087021,0.1441056,-0.10312166,-0.047673427,0.25225255,-0.1673531,-0.19651079,-0.1903432,-0.07365801,0.032230232,0.03585289,-0.40483448,-0.24246925,0.24725282,0.021997623,-0.19560781,-0.033858612,0.015378004,0.07021988,-0.3225009,0.15574,-0.040791992,0.40326145,0.07334944,0.13547683,-0.024940643,-0.02259682,0.1827582,0.35762164,-0.22436048,0.1680766,-0.077440724,-0.054332975,0.07144599,-0.053181987,0.28759578,-0.13877326,0.037467,0.0716722,-0.1817661,0.05547466,0.22790869,-0.025305504,-7.875158,-0.22612357,-0.08879184,0.0052952557,0.29174957,-0.13044848,-0.033137515,0.13161466,-0.036031224,0.0968384,-0.022763425,-0.16433157,-0.08223037,-0.072081365,0.1049587,-0.03237701,-0.11916077,0.073829345,-0.10106681,0.055549096,-0.08896183,-0.22843215,0.07293813,-0.11526411,0.11197435,0.25563735,0.081747316,-0.15843654,-0.043407165,0.24459857,0.26440352,-0.07060867,-0.19734469,-0.007325211,-0.22366361,0.15418877,0.08050334,-0.22833043,0.34114376,0.12340684,0.13647135,-0.17078899,0.047201015,0.01280012,0.16912155,0.35672143,-0.11840525,-0.2768124,-0.24660611,0.04207638,0.14333928,0.12942106,-0.014024784,-0.08733231,0.17418781,-0.09097759,-0.20104684,0.3448223,-0.22095892,-0.13055044,0.033196382,-0.05864622,0.19373748,0.0039750547,0.13375355,-0.030393736,0.13247533,0.19961463,0.12189145,0.014773087,0.080679566,-0.09437878,-0.017852414,0.14350697,-0.12194982,-0.22764216,-0.32330772,-0.13014582,0.3064424,0.013207752,-0.07694831,0.29521322,-0.16706277,-0.06896672,0.15177529,0.09562025,-0.039449923,-0.10426865,-0.0091975685,0.07957257,0.17315756,-0.04011448,-0.23081335,-0.16347905,-0.17577802,-0.23661305,-0.07063035,-0.2097032,0.005178336,0.35841802,-0.015262167,0.064775266,0.1250073,-0.2033007,-0.036067355,0.16264856,-0.102889426,0.08553713,-0.24711539,0.4373787,0.08508684,-0.07843315,0.057744525,0.062177975,-0.0009383682,0.19291952,0.26039422,-0.09777436,0.12543723,0.098997466
ALA_5_A,-0.32238734,0.25736895,0.13249972,-0.066479005,-0.19958468,0.10198327,0.047088746,0.24698511,-0.15216589,0.22811174,0.18346864,0.030719692,0.21137527,-0.06856134,-0.06785901,0.1925108,-0.06749543,0.24277791,-0.02327287,-0.06859025,0.106547624,0.27193642,0.16597195,0.016473744,0.02776683,0.30972233,-0.043768436,0.25010812,-0.044602472,0.11730142,-0.041016955,-0.4031899,-0.19119832,0.07392924,-0.15763095,0.096531555,-0.13712585,-0.031016018,0.057020955,-0.16320151,-0.017887546,-0.080046795,-0.18159825,0.03172153,-0.047401562,-0.23899375,0.37775508,0.12344786,-0.051201615,-0.20486967,0.06980893,0.03145346,-0.24678764,-0.012397265,0.2595821,0.054808486,0.26291022,-0.010521196,-0.14283884,0.008312253,-0.29878083,-0.23037325,0.19597599,0.24470639,0.28827402,-0.1035169,0.1944191,0.2079347,-0.124720275,-0.23448034,0.067632765,-0.10203459,-0.29155073,0.10439288,-0.11054292,0.039021388,-0.31299463,0.2577523,-0.0017713621,-0.04760256,0.14046831,-0.24038543,-0.15276931,0.12431194,-0.22255847,-0.04342008,-0.22358102,-0.33295417,0.10288801,-0.40103427,0.24658576,-0.26185897,0.040932752,0.08328645,0.18488915,0.17623723,-0.050943736,-0.037763525,0.04256068,0.01085909,-0.15416703,-0.2921869,0.116697654,-0.15291014,0.14934464,0.1738174,0.28370002,0.11338678,-0.022384781,0.02315073,0.075180955,0.13232797,0.09481795,-0.16658935,0.13382848,-0.019656688,-0.14308515,-0.11755713,0.06588336,0.5066059,0.27192897,-0.24787013,-0.056352038,0.07762354,0.022442427,0.0110341655,-0.034740616,-0.15166655,0.24596056,-0.26190987,-0.070943035,0.032510363,-0.1139387,0.030212495,-0.110572,0.45273077,-0.03332666,0.06112617,0.007420766,0.07185528,-0.10265622,0.10369833,0.1337297,0.21087508,-0.17770183,0.097084284,0.044243127,0.053521514,0.10568504,-0.15467091,-0.056380183,-0.25519103,0.1822183,-0.047326718,-0.066884525,0.070800744,0.17856629,-0.116168536,0.39127532,0.050867744,-0.07392416,-0.19298993,0.34305593,0.3083327,-0.29492915,-0.21715431,0.17602088,0.097806446,0.26655906,0.10553468,-0.038416244,0.25220835,0.18794234,-0.15044251,0.19842595,-0.06198291,-0.026203535,-0.025701476,0.15527244,-0.11774326,0.00892465,0.056294277,0.005232182,-0.28048298,0.07974735,0.33245116,0.17710854,-0.05683514,0.06833613,0.07485812,0.13185064,0.40727308,-0.004260365,0.12786041,0.45213404,0.09818667,0.088206604,0.10913971,-0.095382445,0.25306907,-0.05651524,-0.20565483,0.07387899,0.00704336,0.18703867,0.16362502,0.07620512,-0.08512744,-0.14651567,-0.008831073,0.39626655,-0.11424837,-0.061418694,-0.09659654,0.15329015,-0.013893285,-0.08172763,0.06631155,-0.16964822,-0.25819808,-0.010777063,0.16918941,0.1774436,0.31488767,0.08863988,0.039012603,-0.30820474,0.13189839,0.1832066,0.050030723,0.08489551,0.00033829245,-0.14263724,0.12536906,0.06606286,0.032242354,0.043455403,0.056804188,-0.18969205,-0.20566107,-0.34899879,-0.03837116,-0.1639989,-0.10600661,-0.06364815,0.08905513,-0.2063867,0.19527382,0.018333998,-0.16468957,-0.2569151,0.00012507994,0.13178666,0.008190512,-0.35018444,-0.07051307,0.20947346,0.0053601814,0.023443984,0.016472828,0.39765579,-0.16124973,0.0060728686,-0.2574954,-0.16943508,0.1373423,-0.23816669,-0.030536775,-0.13180567,-0.036160678,-0.056929093,0.013737244,0.09495375,-0.025320834,-0.20392291,-0.005685675,0.035575412,0.1481016,-0.09350127,0.15575767,-0.056066193,0.10196379,0.0018815326,0.11691227,0.02087051,0.2932616,0.2596783,-0.03987956,-0.13573602,0.26103592,-0.13207248,-0.08476688,-0.018141085,-0.11301874,-0.12772425,-0.32480568,0.088713795,0.12884949,0.21554168,-0.07334423,0.19185857,0.22198504,0.15189503,0.018014427,-0.06356965,0.37565255,-0.4137127,0.07766686,-0.066421986,-0.013630995,0.07251199,-0.15307091,0.12281222,0.07620587,0.10473722,-0.12107264,-0.05684631,0.24674797,0.03073723,-0.045411583,-0.13203175,0.2893037,-0.10327537,-0.010719152,0.10523037,-0.20924999,0.16993468,-0.19436839,-0.26771614,0.027610784,-0.031494033,-0.12783763,-0.20416264,-0.06929698,0.0761308,0.2427323,0.13309485,-0.1587896,0.20280404,0.20136602,0.1330018,0.024990642,-0.18367976,-0.02398315,-0.23886308,-0.1714132,0.11125048,-0.03178007,-0.09548117,-0.16870643,-0.34624526,0.3020257,-0.09758326,-0.03186431,0.12156482,0.028648034,0.029972965,0.04501018,-0.1251041,-0.32942834,0.32879832,0.21876617,-0.19376293,-0.17652163,0.051391203,-0.16270554,0.31080228,0.13130829,-0.06427372,-0.17652594,-0.095529474,-0.014396252,-0.040502407,0.06394578,-0.42597806,0.10309384,-0.09889559,0.33086637,0.2290136,0.18314914,0.3174162,0.06409577,-0.38922092,0.32075387,-0.26538658,0.10799367,-0.14530042,0.038806,-0.013791622,-0.18586563,0.2333433,-0.09730175,-0.07584522,0.04064895,0.012232371,-0.047835544,0.19743799,-0.1268135,0.027028574,-0.076623514,-0.045799498,0.103868745,-0.06771703,-0.12808691,0.07362151,-0.004774468,-0.07921154,-0.060583945,-0.11928144,-0.34691834,0.064497195,0.068447776,-0.0051912786,0.23970315,0.16706087,-0.037248958,0.027254643,0.02439133,0.20146728,0.06408138,-0.023207303,0.21928264,-0.045919646,-0.24666247,-0.18562575,0.10437447,-0.124239266,-0.098168895,-0.022383846,-0.002515799,0.09445373,0.3067755,0.41817483,-0.025403792,-0.03560783,0.052697327,0.073696114,0.03811761,-0.0042705974,-0.19175765,-0.21146876,0.2571998,-0.022034429,-0.1361135,-0.27510536,-0.106711924,-0.10832203,0.07365939,0.10795563,-0.18177615,0.037139382,-0.12713674,0.21484114,0.22409767,-0.008197147,-0.11110608,0.03656007,0.0737314,-0.04716911,-0.02300952,0.0020258774,0.014802346,-0.17420858,0.21612838,-0.028846458,0.05967913,-0.10749309,0.17069024,0.22551201,0.40642646,0.020629492,-0.24757479,0.14320265,-0.0070462986,0.14488366,-0.21525845,-0.10133817,-0.013131637,-0.09173922,-0.033154026,0.02283138,0.40448084,-0.05495184,0.2971615,-0.20141168,0.26579404,-0.3885578,-0.07328392,-0.083825625,0.27465189,-0.14620224,-0.19906265,0.26470125,-0.0625932,-0.31642225,0.19850814,0.17118199,-0.2521196,0.19434828,0.13632977,0.1899995,-0.03210626,-0.15462874,0.10909209,-0.20519303,-0.06880252,-0.21708657,-0.09188965,0.018143382,0.049963243,-0.060385212,-0.30946544,0.10861445,0.1398385,0.4446232,-0.05110379,0.4048203,-0.40480798,-0.030026253,0.06289516,0.12902473,0.20807053,-0.033067904,-0.08344245,-0.02169637,-0.14517352,0.066001214,-0.108226106,0.22177964,-0.3122885,-0.02783717,0.1518628,0.29682198,-0.104228996,0.30167782,0.018821659,0.07504515,0.17035162,-0.025389668,0.007460757,-0.17824322,0.15497243,-0.23014688,0.11345171,-0.18405738,0.16302252,0.1967813,0.014887754,-0.053391967,-0.07331355,0.11891451,0.012778008,-0.18608807,0.35088742,0.078895986,-0.062497575,-0.06811038,-0.0073253666,-0.013494879,0.17635895,0.18731447,-0.3861571,0.19258867,0.13761729,0.31921104,0.0123628955,-0.07589538,-0.1831663,0.055753626,0.07298462,0.10313125,0.25884876,0.0058536674,-0.08192928,-0.14499561,0.12310034,0.09664031,-0.13014251,0.08744431,-0.0349653,-0.18716723,0.103680514,0.06375201,0.47418988,-0.15648237,0.29811502,0.10566549,0.086949445,-0.077616565,-0.24862465,-0.03259239,0.001500879,-0.05263616,-0.050811622,0.24669641,0.1137797,-0.15797612,-0.28223878,-0.082889624,-0.21361095,0.2100433,0.08669878,-0.05563626,-0.009370755,0.23201454,0.06763895,0.21927251,0.34263352,0.08384112,0.14838333,-0.09083183,0.073265955,-0.23245125,-0.2473546,-0.15877138,0.19339922,0.30759636,0.03080708,0.013901885,-0.0959831,-0.3085517,-0.20682988,-0.234227,0.2192681,0.028261842,0.1627846,0.15065345,0.1757331,0.11317857,-0.0663748,-0.0063472413,0.09482547,-0.17675707,0.07061759,-0.03590038,-0.20636606,-0.123346694,-0.23748612,-0.039719693,-0.050250866,0.096969165,-0.1883139,-0.23994459,-0.07303297,-0.13478613,-0.30231854,0.14499272,-0.041664775,-0.28547698,-0.061375976,-0.09179738,0.20056228,0.16068609,-0.0013671439,-0.2615445,0.15512668,0.28329986,-0.02340659,-0.16061747,-0.041557945,-0.13740656,-0.091944925,-0.08532468,-0.05897479,0.039649706,-0.005281805,-0.10899312,-0.017639846,0.06617295,0.27902478,0.35545772,0.062098783,-0.2341394,-0.16346113,0.23141146,-0.11610278,-0.1031451,-0.0419126,-0.11322591,0.062204815,0.09632744,0.17204386,0.053215694,0.44865063,0.036056973,0.04176,0.24489437,0.20022067,-0.0735313,-0.12221919,-0.5504239,0.0975014,0.042679887,-0.14729309,-0.11660587,0.30541283,0.20732975,0.13847482,0.26844332,-0.13934933,0.25557652,-0.100790605,-0.059061334,0.4563936,0.021950176,-0.2970868,-0.07968848,0.0069970298,0.020708807,0.10414825,-0.06450802,0.06873804,-0.04203588,-0.049757715,0.015340283,-0.05125239,0.1522547,0.27987826,-0.048136942,0.046718065,-0.08567348,-0.07371622,0.4167041,-0.03804604,-0.10812785,-0.29804358,0.15286176,-0.12912345,-0.27316725,-0.052438032,0.1823452,0.17169806,-0.07951022,-0.2587318,-0.3464738,0.19231397,0.23832019,-0.048181392,0.07841954,-0.21959567,0.19712888,0.45975125,0.04485915,-0.008384513,0.0142552005,-0.048727646,-0.09513202,-0.39197043,-0.19703259,0.116619766,0.02243487,-0.065135375,0.0023100663,-0.11278119,-0.10986167,-0.26424655,0.04823453,-0.05745245,0.06195701,0.13512707,-0.32616818,-0.103098445,0.14749767,-0.23413157,-0.010476529,0.21852352,-0.14159949,0.008887059,0.0053586685,-0.06548186,-0.15717386,0.1964439,0.04129731,0.15994464,0.13604693,0.073699914,-0.095981345,-0.02607049,-0.114911474,-0.027038319,-0.13622838,-0.024219314,-0.06721101,-0.2626967,-0.052815516,-0.020224333,0.54056716,0.1717833,-0.09162536,0.14748211,0.21500394,-0.068105124,-0.25172558,0.13960351,-0.22884083,0.0003110918,-0.00423635,0.08162452,-0.009865026,-0.5129683,0.07039283,-0.06549247,0.020797491,0.12848864,0.07373973,0.0983551,-0.2701598,0.26229885,-0.08535939,0.059928913,0.09735174,-0.42570004,-0.18030699,-0.04789738,0.34300998,-0.059678126,-0.23732463,0.123224705,0.15987366,0.11684521,0.2379525,-0.09735393,-0.35824478,0.37034118,0.0589486,0.068649784,-0.026415257,0.08143187,0.15461814,0.04229984,0.11979337,0.059691194,0.27889013,0.054944083,-0.29561237,-0.2422127,-0.088576905,0.14712414,-0.20991243,0.389798,-0.28270644,0.17458294,-0.11243413,-0.26584888,-0.0160988,-0.028201649,-0.057511996,0.017561825,-0.0849517,0.2899381,0.009431393,-0.09767336,0.19012164,-0.13090436,0.076042995,-0.058289293,-0.013185112,0.07031455,0.20575298,-0.2584977,-0.21892601,-0.015245734,0.013865706,-0.018791575,-0.25315332,0.41918606,0.07646103,0.026710624,0.00035622856,-0.036542334,0.32787654,-0.03266691,0.35595307,-0.048601493,-0.08479467,-0.019194163,-0.96887654,-0.08485379,-0.003049482,-0.40302363,0.102229364,0.10595297,-0.035517607,-0.0763182,0.14930724,0.076039866,-0.30152434,0.02056838,0.10315307,0.04510594,-0.020411992,-0.10807897,0.24216439,0.05442381,0.0734072,-0.14951964,0.4415811,-0.007367737,0.16664457,0.0026817876,-0.28197354,0.030215276,0.033504453,0.06964442,0.09609905,0.040203482,-0.11901751,-0.09081278,0.075304374,0.035829306,0.19694196,-0.16191724,0.11283087,0.10057396,0.09891621,0.0123918485,-0.05743094,0.102324575,-0.183001,0.15280974,0.31434232,-0.02116123,0.06228266,0.25946957,-0.16694461,-0.016995333,-0.012093389,0.16117771,-0.08019559,0.22986849,-0.034417722,-0.11436217,0.1327804,-0.07361101,0.17043659,0.133649,0.13622282,0.1922126,0.3078256,-0.28177577,0.032597214,-0.3995031,0.14981222,0.017647998,-0.16632824,0.16132692,0.16932476,0.24849087,-0.064489625,0.16931824,0.22954209,0.09370967,0.20382847,-0.050466027,0.017853552,-0.3129299,-0.10687802,-0.07999635,-0.02727948,-0.21793506,0.035810657,0.14545237,0.2001175,-0.06331645,-0.41976136,-0.026771722,-0.06313731,-0.057619836,-0.08525814,-0.16310416,-0.04658236,-0.12307861,0.13294536,0.28454474,0.17622529,0.20184109,-0.04618015,-0.09912414,-0.07718992,-0.25225598,-0.05982624,0.102061905,-0.03776774,-0.076912485,-0.0072117057,0.12752534,-0.020793378,-0.007654166,-0.0875812,0.105466224,-0.24540621,0.066681065,0.0795979,-0.18025687,0.06717563,0.18518455,-0.021839887,-0.09434143,0.19425401,-0.07943789,-0.11727949,-0.02672333,0.032499842,-0.26006252,0.055963125,-0.030601546,0.05215869,0.12420391,0.09320095,-0.1920142,0.107461594,-0.2574049,-0.12606296,0.21071336,-0.13546781,-0.04419782,0.018959515,0.12815471,0.09778379,0.25432748,0.032168668,-0.05035771,-0.14268553,-0.07502245,0.024790704,0.023174996,-0.24370599,0.041971643,-0.027267285,0.15583843,0.10707059,0.0835226,-0.22877495,0.1214184,0.15281788,0.013405481,0.22758164,-0.11579435,0.18587779,-0.12606944,-0.24316071,-0.10260669,0.1823558,-0.10171157,-0.10628216,0.03581143,0.07159403,0.010859042,0.09886603,0.01898261,-0.39235637,0.33506238,0.16406102,-0.074753605,-0.040228494,0.17209633,0.16144398,-0.10709911,-0.036670092,0.13978522,0.18647107,0.270747,-0.0068605454,0.009468413,-0.122036256,-0.27958512,0.06026864,0.025762115,0.1674321,-0.020676052,0.14428286,-0.07423537,0.1368624,-0.117966704,-0.09143528,-0.15681766,-0.15752117,0.28826767,-0.29711396,-0.054780133,-0.044471666,-0.06750047,-0.0005626762,0.20189624,0.040021002,0.23780075,-0.3449424,0.07872286,-0.057522494,-0.12800103,0.006134651,0.46170607,0.36300787,-0.071360685,0.21474199,-0.028061813,0.23613343,-0.16216785,-0.089582056,0.15384078,-0.12951288,-0.27558234,0.2223813,-0.09461199,0.041932806,-0.28525704,0.00938073,-0.19668058,0.038553044,-0.25811023,0.017161356,0.217638,-0.20097084,-0.15244682,-0.23294042,0.14602555,-0.03142818,-0.08616282,-0.017272789,0.07078403,0.09257423,-0.16135213,-0.12286056,-0.1138012,-0.239266,-0.20277841,0.0097668655,0.012975649,0.185582,-0.19878027,-0.22154108,-0.023630304,-0.1649351,0.01591195,0.050711878,0.18111946,-0.122294694,0.07887077,0.07967432,0.3756755,0.08386136,0.11291722,-0.088307776,-0.12103005,-0.08170982,0.10039283,-0.28292885,0.06753318,0.14052498,0.14621034,0.060925063,-0.14379588,0.33483693,0.04392157,0.3005884,0.019338358,0.023842717,0.040357195,0.14411142,0.021313634,-7.458239,-0.024215003,0.13466042,-0.045954075,0.19068338,-0.115181305,0.20466252,0.20882314,-0.3031103,-0.13706806,-0.06921284,-0.12768744,-0.04804002,-0.0060667163,-0.026300607,-0.057052143,-0.1096466,0.22332788,-0.13063386,-0.12522343,-0.23681587,-0.12135665,-0.4302083,-0.0005421502,-0.07621823,-0.0021092906,-0.2219082,0.09468093,0.24745108,0.1608465,0.17062755,-0.10123366,-0.0602868,0.13765727,-0.19234589,0.23430732,-0.028167136,-0.03268672,0.19161813,0.0018750643,-0.16971116,0.03734074,-0.1967018,-0.008143293,0.21152571,0.25373942,-0.22460538,-0.27296764,-0.008578172,0.089461595,-0.109565765,0.109718814,0.04332925,-0.016549462,0.42999873,-0.18855613,-0.12281161,0.31341296,-0.25309494,-0.10393059,-0.041999288,0.066798374,-0.10732334,-0.21908565,0.115595296,0.023452679,0.10651191,-0.07122817,-0.17984764,-0.22326162,-0.23703262,0.24467044,0.08955949,0.44619882,-0.04680291,0.032168094,-0.2676941,-0.1833433,0.092006415,0.023810225,-0.023653723,0.04765234,-0.04276539,0.14926386,-0.25803888,-0.030181156,-0.022898162,0.14742282,-0.13898768,0.10247626,0.114000835,0.18939777,-0.14192623,0.025043014,-0.26142418,-0.1488861,-0.45548305,-0.24546175,-0.14956091,-0.034001023,-0.37550685,0.12221272,-0.39154708,0.13868023,0.12081121,-0.07814472,0.07217227,0.17305465,-0.0010169967,0.2841252,0.23243997,-0.12820217,-0.06662762,-0.16800101,-0.074114524,0.13913,0.3132791,-0.15495369,0.07698544,-0.083941795
ILE_6_A,-0.1551894,-0.16956195,-0.23998894,-0.3102773,-0.050407637,0.016424362,0.056816835,0.105326384,-0.07331339,0.213862,0.12387538,-0.002345055,0.27942502,0.069385625,0.07026309,0.07585405,0.018806014,0.120955005,-0.052505076,-0.24701001,0.046430882,-0.11484601,0.17272823,-0.20218413,0.20055662,0.2641491,-0.2991498,0.13054605,-0.4204114,-0.18669488,-0.027319018,0.11517887,-0.22217672,0.064953595,-0.25667855,-0.04574553,-0.1299045,-0.029266385,-0.2053862,-0.14858681,0.05636788,-0.096155085,0.24781564,-0.044233393,-0.0708802,0.100767665,0.007538058,0.22811617,-0.13688265,0.047353406,0.04657711,0.18380865,0.004786721,0.05089597,-0.07665236,0.1837797,0.1418606,0.0113037005,-0.026141442,-0.06654805,0.08461745,-0.18083347,0.16625023,0.2013578,-0.04066143,0.018044809,0.0027609686,-0.14585434,0.21493277,-0.16592057,0.113818556,-0.36417222,-0.2023081,-0.036103312,-0.20205495,0.22731513,-0.09234027,0.43991166,0.0027468281,0.04326528,0.12013644,-0.22624049,-0.15422091,0.0685486,-0.2592649,0.05738269,-0.09501832,-0.11341596,-0.2155448,-0.28980085,0.24786243,-0.20504588,-0.19503233,-0.0006460371,0.029620683,0.09595323,0.26604247,0.18004805,-0.102734156,0.15194355,0.23431222,-0.033008676,-0.02451739,-0.095888205,-0.32478124,-0.05091637,0.17490396,-0.04791074,-0.12802665,-0.11843122,0.24547164,0.09293123,0.18531954,-0.18354154,0.07290295,-0.010531937,-0.16630043,-0.14620107,-0.13602778,0.011128122,0.22822635,-0.027771343,0.025386885,0.2245023,0.0741512,-0.01009484,0.16411322,0.057225112,-0.0052938154,0.063376546,-0.16224751,-0.27864543,-0.14384446,0.019144781,-0.22177719,0.2743118,-0.14264539,0.087110065,-0.082616724,-0.01580891,0.09469561,0.10262573,-0.014008262,0.23270199,-0.07691465,-0.010616664,0.06646159,0.10148418,-0.2013721,-0.06332691,-0.25638938,-0.18998834,0.25539023,-0.02469387,-0.00025320912,0.08496158,0.03938753,-0.12866402,0.2887127,0.23860545,0.20118897,-0.12969846,-0.048737224,0.30723408,-0.23181625,-0.25001183,0.29345086,0.095262855,0.45342952,0.29687414,0.29060012,0.17233351,0.17380467,0.0076573985,0.061225332,-0.19847187,0.16788892,-0.11894342,0.10221461,-0.17888768,-0.17254047,0.0102513265,-0.1338909,-0.20300543,0.14269914,-0.04281561,-0.09181439,-0.09821976,0.3521703,-0.105359145,0.10558481,0.29830682,-0.043333683,-0.13545008,-0.18423033,0.183103,0.11068755,0.15415494,-0.18707535,0.3457589,0.033518173,0.15948014,0.049581256,-0.18866521,0.2845106,0.106145434,0.028296975,0.16300382,-0.06477482,0.05713642,0.03928779,0.03235095,0.3120531,-0.08386105,0.07950612,-0.17547128,-0.095352605,0.059168458,0.083674476,0.09518691,-0.22695768,0.056764964,-0.3482204,-0.120967865,0.052999116,0.0070877946,-0.03191804,-0.14553455,-0.24715431,-0.02189799,0.33647612,0.03893487,-0.20683795,0.31382164,-0.27577463,0.030411288,-0.014231817,-0.16490714,-0.11519441,-0.093511894,-0.21499354,0.021031667,-0.12816629,-0.08212862,0.002781585,0.15829559,-0.22063066,-0.121756166,0.041626535,0.19838485,-0.42093495,0.050730538,0.21771286,0.06627904,-0.17419568,-0.056905076,-0.08875123,0.12813653,0.24173486,-0.1041879,0.2610964,-0.015747804,-0.0849997,-0.17592742,-0.15818794,0.10354537,-0.017069744,-0.31468877,-0.12844642,-0.10084058,0.09739998,0.16619422,-0.011897035,0.110661656,-0.16023508,-0.2629363,0.2976066,0.31741858,-0.023163352,-0.1727831,-0.15451153,-0.019764619,0.0071623763,0.13739839,0.17307287,0.27831128,0.10820269,-0.14184664,-0.090870135,0.16219394,-0.21356978,0.05338415,0.11864208,-0.11675888,-0.16400585,-0.1161125,0.15967353,0.0023366802,0.24723072,0.0019247064,0.3052187,-0.05385149,0.05394085,-0.025421308,-0.06077554,0.080335096,-0.27590397,-0.08615753,-0.1657273,0.05519712,-0.063181326,0.2029358,-0.018785158,-0.12232128,0.012307618,-0.13777742,-0.08623676,0.040504407,0.11853854,0.17697553,-0.048254687,0.1775138,-0.03783677,0.12949127,0.006655397,-0.34919354,0.012725164,-0.070399396,-0.23787615,-0.10109817,0.10387144,-0.33234718,0.18864301,-0.28370705,0.22541508,-0.044563618,0.20964795,0.099938825,0.28310135,0.32341117,0.2090976,-0.094998516,-0.033446427,0.24213426,-0.19656616,0.022554481,0.045348488,-0.18601297,-0.095282175,0.25596166,-0.07831269,-0.02119443,0.31844646,0.1457209,0.03805133,0.06755693,0.014590844,0.10854041,-0.38628426,0.11595276,-0.025838343,-0.15923885,-0.052602552,0.2872092,-0.051481236,-0.0500533,0.21474561,0.03264435,0.2870683,0.13709527,0.044278808,0.14017749,0.020036427,-0.0022324207,-0.14445937,0.057881545,-0.27436933,0.0554188,0.16084084,0.1655231,0.061294403,0.004794528,0.10324701,-0.0062090782,-0.31021604,-0.0005464819,-0.01297384,-0.2842418,0.13877124,-0.122947596,0.22709917,-0.05887048,-0.012372368,-0.19348602,-0.1429338,-0.19663481,0.06899912,-0.13453878,-0.039092835,-0.0438538,-0.0901662,0.015997889,-0.046380922,-0.051825847,0.06624037,0.059223842,0.26597524,-0.14105527,-0.22941239,-0.10670742,-0.07734661,0.110911615,-0.03551147,-0.06681882,0.1683845,0.018965138,-0.07434483,0.040858865,0.09696523,0.2622798,0.00351632,-0.068012536,0.08907033,0.061202575,-0.24049821,-0.034196414,0.18392834,0.044678546,-0.1858017,0.023141634,-0.14125216,-0.112418436,0.3838288,0.003293891,-0.23529829,0.108784586,-0.031302735,0.113906235,0.032097455,0.14678337,0.092159726,0.1504286,-0.10230981,-0.018176015,0.15627164,0.11335803,-0.012624151,-0.078538194,0.07556849,-0.034839213,0.25917098,-0.3542572,0.06337704,0.17097043,0.014708241,0.1298823,0.027007014,0.33904958,-0.28902873,-0.015265851,0.24704689,-0.06345681,0.12843016,0.0684007,-0.195347,-0.02467678,0.16959497,0.0135357715,0.11803544,0.04511011,0.09162265,-0.26621833,-0.00028490534,-0.32357004,0.09979219,0.0061545013,0.18764532,0.13065685,-0.05765353,-0.25137398,-0.06791543,0.35448468,-0.3177215,0.47988904,-0.010793371,0.17424953,-0.15306558,0.15897931,-0.029439475,0.13547628,0.053740382,-0.1587104,0.3505488,-0.104188375,-0.08406408,-0.10559893,0.13910191,-0.28060347,0.23415409,0.096525855,-0.19610682,-0.062305275,-0.2162481,0.14737047,-0.08267271,0.21182507,0.041560713,0.17899385,-0.005224582,0.18280216,-0.3557458,-0.018456532,-0.17959474,0.15540539,0.31442714,0.06318193,0.06588658,0.012481701,-0.09224427,0.06526997,0.16136174,0.13251676,-0.17571284,-0.039193854,0.19690645,-0.09761895,0.1819931,-0.082628146,0.16572164,-0.12985064,-0.026768118,-0.0838873,0.040794183,-0.053632956,-0.048925366,-0.053517334,-0.008340257,0.14390017,0.304686,-0.14418252,-0.012911863,-0.09561514,0.1728719,0.3320659,-0.23020305,-0.054662045,-0.07509712,-0.19394244,-0.07823546,0.18271329,0.1457676,-0.06850191,-0.06548803,0.17344962,-0.069636054,0.014099461,-0.12401931,-0.20703515,-0.14141269,0.13987766,0.118109114,-0.43733555,0.04404314,-0.19228365,0.3853309,-0.114478216,-0.28988665,-0.06931234,-0.124484986,0.1769738,-0.11297876,0.38230747,-0.09467907,-0.14560093,-0.16860949,-0.032913182,0.15057427,-0.1565674,-0.18782331,-0.035309568,0.036931776,0.20738658,-0.006676561,0.071543865,0.25890476,0.062843494,0.36185563,0.013464304,-0.14990228,0.01312587,-0.08652354,-0.24013832,-0.03839618,0.033354234,0.19552493,0.23377936,-0.07699135,-0.20685819,-0.07132894,-0.14039637,-0.06758702,0.09952731,0.008935658,0.04027128,0.16146584,0.0039145197,0.04343167,0.14481312,0.26877156,-0.07441002,0.023874704,0.0026805499,-0.11413251,-0.064240694,0.11939298,0.21915261,0.21737905,-0.028066194,-0.036577765,0.15411487,0.0942026,-0.056121558,-0.3801048,0.11306631,0.02875441,-0.119388565,0.2256244,-0.22107852,0.10106602,-0.112052515,-0.0030135575,0.071350545,-0.38755992,-0.11712956,-0.2771633,-0.06473591,0.12265332,-0.0004795837,-0.1451859,-0.09446298,-0.07353117,-0.18058072,0.19660208,-0.11698663,0.05071475,-0.019838417,-0.05410762,-0.08183313,-0.114197806,0.113741934,-0.051901694,0.079170145,0.009614415,0.2534323,0.086118236,0.14837223,0.118476495,0.152974,-0.13509111,-0.087020926,-0.13254745,0.0038668276,-0.20222968,-0.052734677,-0.02294709,0.06786925,-0.11860127,0.007963103,0.102115974,0.11998418,0.17502518,0.16360937,-0.09868993,-0.14968367,-0.039782938,-0.2020203,-0.1306198,-0.09990442,0.14644118,-0.24590744,-0.040238716,0.22920007,-0.20423529,0.22160114,-0.124238715,0.013351681,-0.020603947,0.37897137,0.15921132,-0.16745631,-0.91256183,0.095379695,-0.119795226,-0.17027976,0.1929609,0.1714769,-0.16530263,-0.10318971,0.11821736,-0.23405054,0.26936302,0.015033143,-0.00893456,0.24875753,0.154597,0.0068928143,-0.22318555,-0.054585055,0.094598025,0.116929896,-0.108252406,0.15151908,-0.026716776,-0.10928369,0.15143572,0.13257849,0.0568004,0.11068517,-0.30749577,0.059344374,0.2930339,-0.05355362,0.4773146,0.19396068,-0.10975053,-0.2432978,0.31332508,-0.10562857,0.10971084,-0.09092248,0.013933841,-0.116233595,-0.0235537,0.23360914,-0.32817003,0.019715957,0.40788206,-0.034074545,-0.063296266,0.16788906,0.43872324,0.2466951,0.038568724,-0.19470252,0.08318421,-0.110545404,0.19347082,-0.21844865,-0.072511956,0.18594061,-0.054224797,0.054088987,0.076037444,-0.063271336,-0.07506691,0.08987694,0.18676785,-0.23948361,-0.079033285,-0.0856533,-0.20960075,0.08163427,0.03255167,-0.3205059,-0.06322898,0.13973305,-0.054181814,0.17757769,-0.015452145,0.041868,-0.089746974,0.06472674,-0.11169801,0.18970719,-0.08169008,0.11138564,-0.20852017,-0.2571055,0.26280922,-0.11101182,0.12890199,-0.12886286,0.16216442,-0.016246116,0.010452226,-0.34494418,0.18247637,0.26125214,-0.04170217,0.101435035,0.3296469,-0.13695735,-0.21968058,0.32525417,-0.29762167,-0.038498435,0.33337492,-0.04882158,0.14641877,-0.3995329,-0.0899299,0.060810465,0.14727022,-0.019554077,-0.066639856,-0.08550492,-0.12765016,0.17150348,0.30087978,0.28847113,-0.12087568,-0.27182388,-0.033908498,0.20695412,0.19149172,0.015774807,-0.1884309,-0.0682383,-0.060585216,0.06893253,-0.14024405,0.22828104,-0.20623739,0.24516983,-0.00011998036,-0.06495068,0.13827114,0.09263556,0.027825063,0.0896769,-0.0018017308,-0.23621123,0.08875711,0.12006406,-0.13707641,0.065412425,-0.12943527,-0.07026632,0.06515198,0.08044428,-0.19060239,0.15180796,-0.13718775,-0.21406692,0.20733276,-0.022456309,0.06988597,0.044871766,-0.3134461,0.105862826,0.14393523,-0.081961125,0.17065357,-0.0025072566,0.057342038,0.0062594586,-0.31471014,0.29017496,0.36883172,-0.28232893,0.031200701,-0.239734,0.21140654,-0.021808939,0.0044144965,0.18384677,0.1798613,0.13148265,-0.0007283714,0.26845485,0.3192532,0.062067885,0.24663755,-0.10080626,-0.1850736,-0.15139294,-2.6550205,-0.1579198,0.0004820304,-0.28391287,-0.2426741,0.043134574,-0.07915909,0.11092455,-0.0069804615,0.07403336,0.12835093,0.07397541,-0.034469053,0.28677142,0.14164875,-0.24376768,0.08723274,0.26297244,0.11525065,-0.025129693,0.09638392,-0.1546489,-0.08787035,-0.032990973,0.06096407,-0.21477015,0.1657533,-0.06949586,0.17717882,-0.19901676,0.054895613,-0.042061713,0.08849997,0.20820229,-0.1410649,-0.10802484,0.13793142,-0.08657462,0.071269065,0.08992859,0.1402131,-0.022899639,-0.18745278,0.026629526,0.0693143,-0.022049166,-0.017702116,0.052268554,0.10871061,-0.12849174,-0.074879,-0.108734004,0.05926455,0.15689948,0.043042418,0.03802593,-0.09165337,0.0068871183,0.3267703,0.021073328,-0.07975961,0.24896246,0.19113706,-0.103868395,0.13861345,0.05442744,0.08901807,0.07494246,-0.06685229,0.106569774,-0.016780667,0.008739927,-0.022184314,0.05132037,0.26588532,0.0033848307,-0.1039062,-0.0846532,-0.052997056,-0.11140903,0.14038947,-0.004551874,-0.010186051,-0.17366762,0.028829956,-0.05870281,0.16377372,-0.08381622,-0.18704559,-0.15354608,0.07877312,0.005596935,-0.23048003,-0.36887452,-0.28825536,0.06652481,0.14997874,0.22526155,0.076743394,0.23573527,-0.0037853029,0.056341257,-0.15645187,-0.12547132,-0.07739515,0.072671875,0.08335769,0.26909888,0.11884075,0.19401243,0.1317816,-0.018883856,-0.13703373,0.0015391216,-0.1118921,0.15222338,0.15273078,-0.04966117,-0.013379812,0.4794283,0.010579723,0.18173096,0.041721094,-0.08043464,-0.22285497,0.014028817,0.08824353,-0.03427316,-0.04865466,0.20678486,-0.08783939,-0.10602842,0.03895028,-0.12550536,-0.086477496,-0.038147468,-0.119185954,0.24213083,0.10970506,-0.19761723,-0.10976561,0.17083342,0.056757435,0.20103832,-0.123411894,0.018055022,0.09220938,-0.1502719,0.1535589,-0.10244175,-0.45097643,-0.03110565,0.13922015,0.07707569,-0.06257665,0.04600376,-0.17380229,0.03980667,-0.00016009824,0.21118163,0.10880496,0.049809393,-0.056971945,-0.20889303,-0.035505857,0.0043602,0.12375039,-0.056522306,-0.22359014,0.0568461,-0.25804275,0.007902762,-0.52662903,-0.05080605,-0.43145525,0.024833864,0.06577906,-0.114381984,0.12998627,0.16016874,0.25628072,0.31742156,-0.29031363,-0.0049027824,0.3851565,-0.02727914,0.05917218,0.1316429,-0.05616157,0.22821854,-0.25055277,0.11135659,0.077854775,0.31783563,0.2987761,0.1425119,0.06366007,0.06881913,0.48567808,0.06303096,0.07699677,0.16218604,-0.51468754,-0.1374732,-0.036393113,-0.12036427,-0.025798032,-0.08770426,0.18917051,-0.07717801,-0.15206167,0.35762662,-0.0042988304,0.007105705,0.18274035,0.102368735,0.14405423,-0.00067042804,0.021436865,0.031106636,0.10100246,0.04521587,-0.08916236,0.040121753,-0.052534543,-0.02988747,0.27780527,-0.13196102,0.14990845,0.024202669,0.053926494,-0.043855783,-0.18334498,-0.22230823,0.13118617,0.24649686,-0.323137,0.080039,-0.3763099,0.14603554,-0.13459681,-0.052781828,0.15692227,0.09061141,0.18993093,0.1709593,-0.31035623,0.0558106,-0.2517731,-0.02731475,-0.027540244,-0.14704712,0.028611261,-0.14524208,-0.09451677,0.20084897,-0.19661054,-0.08238342,0.03937766,-0.050557487,-0.22589187,0.32917395,0.03057986,0.23845197,0.13020533,0.00628629,-0.16186692,-0.02416662,0.079960406,0.22515501,-0.18281412,-0.0044551445,0.12201362,-0.10578013,-0.12157572,0.08550784,0.28079918,-0.0600504,0.30173776,-0.1800038,-0.23341201,-0.07557814,-0.09648055,-0.10678578,-7.5148034,0.10740833,0.29576334,-0.05039867,0.0035867414,-0.15651137,0.05352065,0.1904357,-0.12369534,0.2921645,-0.067834005,0.1873416,-0.030674625,-0.095708355,-0.04391756,0.12792216,-0.06810052,0.0028805472,0.24526815,-0.28839675,-0.17689207,-0.2824051,-0.3752791,-0.31433028,0.26023167,0.030254241,-0.07799918,0.0023116192,-0.024499007,0.12673798,-0.283922,0.10611037,-0.07635266,-0.06442288,0.09344235,0.48152158,-0.13120592,-0.10160309,0.32991496,0.10990795,-0.28710794,-0.12554589,-0.0052689863,-0.09246181,0.23123378,0.113957025,0.0035746605,-0.24826956,0.07543428,-0.20288335,0.1801702,-0.065112375,0.18449257,-0.1346269,0.12547159,-0.15099148,-0.17497595,0.19626522,-0.04432255,-0.20895043,0.24550495,-0.06894489,0.16777256,-0.21495187,-0.027957113,0.046072632,0.08618323,0.07082968,-0.33704242,-0.07204581,-0.1908543,-0.18192881,-0.15986037,0.17039655,0.13583846,0.054342616,-0.3603115,-0.19723804,0.05327716,-0.018436458,-0.10228788,0.15338919,0.18084075,0.06880349,-0.10333733,-0.032766722,0.15426914,0.14579102,-0.06838164,0.047709566,-0.025236038,0.3967068,-0.25406185,-0.02643892,-0.1742599,0.050776538,-0.21885547,-0.0882983,0.12436152,0.30764446,-0.10800406,0.10331255,-0.15487818,-0.012669096,-0.10950036,-0.07750939,0.03380236,0.4384471,0.13330135,0.15077195,0.12346449,0.0034806249,0.1010514,0.0836277,0.19612974,0.12100907,0.38782194,-0.2490141,-0.2434218,0.029906102
