residue_id,0,1,2,3,4,5,6,7,8,9,10,11,12,13,14,15,16,17,18,19,20,21,22,23,24,25,26,27,28,29,30,31,32,33,34,35,36,37,38,39,40,41,42,43,44,45,46,47,48,49,50,51,52,53,54,55,56,57,58,59,60,61,62,63,64,65,66,67,68,69,70,71,72,73,74,75,76,77,78,79,80,81,82,83,84,85,86,87,88,89,90,91,92,93,94,95,96,97,98,99,100,101,102,103,104,105,106,107,108,109,110,111,112,113,114,115,116,117,118,119,120,121,122,123,124,125,126,127,128,129,130,131,132,133,134,135,136,137,138,139,140,141,142,143,144,145,146,147,148,149,150,151,152,153,154,155,156,157,158,159,160,161,162,163,164,165,166,167,168,169,170,171,172,173,174,175,176,177,178,179,180,181,182,183,184,185,186,187,188,189,190,191,192,193,194,195,196,197,198,199,200,201,202,203,204,205,206,207,208,209,210,211,212,213,214,215,216,217,218,219,220,221,222,223,224,225,226,227,228,229,230,231,232,233,234,235,236,237,238,239,240,241,242,243,244,245,246,247,248,249,250,251,252,253,254,255,256,257,258,259,260,261,262,263,264,265,266,267,268,269,270,271,272,273,274,275,276,277,278,279,280,281,282,283,284,285,286,287,288,289,290,291,292,293,294,295,296,297,298,299,300,301,302,303,304,305,306,307,308,309,310,311,312,313,314,315,316,317,318,319,320,321,322,323,324,325,326,327,328,329,330,331,332,333,334,335,336,337,338,339,340,341,342,343,344,345,346,347,348,349,350,351,352,353,354,355,356,357,358,359,360,361,362,363,364,365,366,367,368,369,370,371,372,373,374,375,376,377,378,379,380,381,382,383,384,385,386,387,388,389,390,391,392,393,394,395,396,397,398,399,400,401,402,403,404,405,406,407,408,409,410,411,412,413,414,415,416,417,418,419,420,421,422,423,424,425,426,427,428,429,430,431,432,433,434,435,436,437,438,439,440,441,442,443,444,445,446,447,448,449,450,451,452,453,454,455,456,457,458,459,460,461,462,463,464,465,466,467,468,469,470,471,472,473,474,475,476,477,478,479,480,481,482,483,484,485,486,487,488,489,490,491,492,493,494,495,496,497,498,499,500,501,502,503,504,505,506,507,508,509,510,511,512,513,514,515,516,517,518,519,520,521,522,523,524,525,526,527,528,529,530,531,532,533,534,535,536,537,538,539,540,541,542,543,544,545,546,547,548,549,550,551,552,553,554,555,556,557,558,559,560,561,562,563,564,565,566,567,568,569,570,571,572,573,574,575,576,577,578,579,580,581,582,583,584,585,586,587,588,589,590,591,592,593,594,595,596,597,598,599,600,601,602,603,604,605,606,607,608,609,610,611,612,613,614,615,616,617,618,619,620,621,622,623,624,625,626,627,628,629,630,631,632,633,634,635,636,637,638,639,640,641,642,643,644,645,646,647,648,649,650,651,652,653,654,655,656,657,658,659,660,661,662,663,664,665,666,667,668,669,670,671,672,673,674,675,676,677,678,679,680,681,682,683,684,685,686,687,688,689,690,691,692,693,694,695,696,697,698,699,700,701,702,703,704,705,706,707,708,709,710,711,712,713,714,715,716,717,718,719,720,721,722,723,724,725,726,727,728,729,730,731,732,733,734,735,736,737,738,739,740,741,742,743,744,745,746,747,748,749,750,751,752,753,754,755,756,757,758,759,760,761,762,763,764,765,766,767,768,769,770,771,772,773,774,775,776,777,778,779,780,781,782,783,784,785,786,787,788,789,790,791,792,793,794,795,796,797,798,799,800,801,802,803,804,805,806,807,808,809,810,811,812,813,814,815,816,817,818,819,820,821,822,823,824,825,826,827,828,829,830,831,832,833,834,835,836,837,838,839,840,841,842,843,844,845,846,847,848,849,850,851,852,853,854,855,856,857,858,859,860,861,862,863,864,865,866,867,868,869,870,871,872,873,874,875,876,877,878,879,880,881,882,883,884,885,886,887,888,889,890,891,892,893,894,895,896,897,898,899,900,901,902,903,904,905,906,907,908,909,910,911,912,913,914,915,916,917,918,919,920,921,922,923,924,925,926,927,928,929,930,931,932,933,934,935,936,937,938,939,940,941,942,943,944,945,946,947,948,949,950,951,952,953,954,955,956,957,958,959,960,961,962,963,964,965,966,967,968,969,970,971,972,973,974,975,976,977,978,979,980,981,982,983,984,985,986,987,988,989,990,991,992,993,994,995,996,997,998,999,1000,1001,1002,1003,1004,1005,1006,1007,1008,1009,1010,1011,1012,1013,1014,1015,1016,1017,1018,1019,1020,1021,1022,1023,1024,1025,1026,1027,1028,1029,1030,1031,1032,1033,1034,1035,1036,1037,1038,1039,1040,1041,1042,1043,1044,1045,1046,1047,1048,1049,1050,1051,1052,1053,1054,1055,1056,1057,1058,1059,1060,1061,1062,1063,1064,1065,1066,1067,1068,1069,1070,1071,1072,1073,1074,1075,1076,1077,1078,1079,1080,1081,1082,1083,1084,1085,1086,1087,1088,1089,1090,1091,1092,1093,1094,1095,1096,1097,1098,1099,1100,1101,1102,1103,1104,1105,1106,1107,1108,1109,1110,1111,1112,1113,1114,1115,1116,1117,1118,1119,1120,1121,1122,1123,1124,1125,1126,1127,1128,1129,1130,1131,1132,1133,1134,1135,1136,1137,1138,1139,1140,1141,1142,1143,1144,1145,1146,1147,1148,1149,1150,1151,1152,1153,1154,1155,1156,1157,1158,1159,1160,1161,1162,1163,1164,1165,1166,1167,1168,1169,1170,1171,1172,1173,1174,1175,1176,1177,1178,1179,1180,1181,1182,1183,1184,1185,1186,1187,1188,1189,1190,1191,1192,1193,1194,1195,1196,1197,1198,1199,1200,1201,1202,1203,1204,1205,1206,1207,1208,1209,1210,1211,1212,1213,1214,1215,1216,1217,1218,1219,1220,1221,1222,1223,1224,1225,1226,1227,1228,1229,1230,1231,1232,1233,1234,1235,1236,1237,1238,1239,1240,1241,1242,1243,1244,1245,1246,1247,1248,1249,1250,1251,1252,1253,1254,1255,1256,1257,1258,1259,1260,1261,1262,1263,1264,1265,1266,1267,1268,1269,1270,1271,1272,1273,1274,1275,1276,1277,1278,1279
PRO_1_B,0.015472168,0.017583929,-0.33205527,0.061501402,-0.319388,-0.12743494,0.25124812,0.19831838,-0.21274456,0.4764159,0.032188427,-0.21506026,-0.13711861,0.07894028,-0.12515594,0.26932058,0.38955906,0.078960344,0.16825768,-0.019506797,-0.21254024,-0.13946547,0.031023562,-0.09989867,-0.15092954,0.1646513,-0.15943849,-0.07435528,0.0062370775,0.062411755,0.0078811105,-0.15691881,-0.013023981,-0.2270671,0.068900056,0.027775113,-0.053757608,0.15325223,-0.119604066,-0.29859403,0.16277516,0.041365713,0.09837832,0.0391042,0.081305005,-0.07728632,-0.1219108,0.020046173,0.25025287,-0.41946968,-0.19640289,-0.21731405,0.19444272,-0.09034257,-0.18598872,0.1359392,0.26810998,-0.18529335,0.45306563,0.11591876,-0.21375082,-0.05419191,-0.105579875,-0.070104234,0.06217928,-0.24796712,0.22511613,0.18211012,-0.022355301,0.18991101,0.057443377,-0.1553161,-0.14887592,-0.067666695,-0.09957161,0.06990885,-0.06649104,0.16067232,0.31127286,0.25013402,0.07389339,-0.2233086,-0.77050114,0.1870736,0.06496621,0.01434012,-0.3329168,0.015828429,0.16310519,0.0883312,0.020281581,-0.14757296,-0.024774514,-0.07438036,0.01529963,-0.06595266,-0.2224427,0.049626492,-0.10424964,-0.39693317,-0.1066886,-0.03420108,0.030457094,-0.093586095,0.16817506,-0.33717483,-0.15664901,0.19454786,-0.3176781,-0.2707468,0.47891927,0.49411514,-0.1289879,-0.19314742,-0.12192983,0.11192507,-0.42686978,0.10119912,-0.024848644,-0.06405668,-0.071401596,0.10681911,-0.1720337,-0.019043757,-0.22168908,0.037422944,0.1920485,0.3610623,0.34051323,-0.31420678,-0.47615042,-0.21439487,0.33833987,-0.2584673,0.2403503,-0.032147437,0.1027084,0.50292844,0.009357927,-0.38314652,0.0036912397,0.08062377,0.16941713,0.03364683,-0.02628133,0.16432026,-0.17118755,0.04988969,0.21350518,0.06405598,0.025970189,-0.29879075,0.060893517,0.06317785,-0.3846445,-0.1259043,0.16731541,0.24065474,-0.18243255,-0.21612461,-0.2525875,-0.110795,-0.08417874,0.0025687914,-0.32062706,-0.11885422,0.057323415,-0.180913,0.19700642,-0.111404985,-0.29626945,0.07641908,0.30946127,0.010502751,0.15061902,0.055805326,-0.17677999,-0.2014394,-0.16848795,-0.2849674,0.07271903,0.05618941,0.18177716,-0.15417555,-0.11671031,-0.049610626,0.17560114,0.0066270037,0.07922591,-0.05448889,-0.33167252,0.08917851,0.027556645,-0.462199,-0.06895858,0.13297419,0.034654435,0.029130941,-0.115509644,-0.19843856,0.16483061,0.12935498,-0.25831223,-0.23963596,0.07310559,-0.26385984,-0.12556733,-0.08226278,-0.12849386,-0.30465963,-0.11682335,0.09345577,0.25735018,0.15710407,-0.018309904,0.11156431,-0.007019844,0.15265666,0.20075211,0.27055013,-0.14055434,-0.093149215,0.4021417,-0.047654033,0.36513904,0.18236502,-0.27582863,-0.016216412,0.17830391,-0.29139555,0.30188835,-0.07409227,0.25248903,0.23914887,-0.5454894,0.21673241,0.44607207,-0.15590075,-0.2742624,-0.14562498,-0.20158768,0.18246095,-0.1931769,0.079174384,-0.092184514,0.00999606,0.08788282,-0.1466135,0.0117147155,0.12863317,-0.00989578,0.07631279,0.2305079,-0.03727719,0.246937,0.09327943,-0.09004302,0.18649471,0.19105461,-0.15430322,0.35514262,-0.2032994,0.34719637,-0.38617107,0.16406453,0.2210605,0.14436829,-0.09237224,0.16139108,-0.21537587,0.18699802,-0.0364596,-0.048698507,0.26397687,0.1564797,0.11679856,-0.04020163,0.2341819,-0.0024109257,0.32087862,-0.14112417,-0.03419329,0.08956822,0.31726038,-0.0062427684,0.05581124,0.2042346,0.11048735,-0.11102986,-0.118709624,0.42821637,0.2456973,-0.026832428,0.04359757,-0.29261515,-0.22617154,-0.18201654,-0.029249752,0.026456535,0.08662253,0.19756505,0.2807122,-0.11102549,0.115932874,-0.16595407,-0.10419931,-0.041113365,-0.09640069,0.029322159,-0.22242135,-0.2085481,0.07948357,0.07808498,0.17263615,-0.11944567,0.20096482,0.32530835,-0.1159826,-0.176243,-0.10496624,-0.1579257,0.17120682,-0.021873564,0.0089159785,0.014133636,0.19073798,0.22561403,-0.13423538,-0.20064293,-0.033321973,0.1777606,0.021519471,0.26816654,0.0060477722,0.09929564,-0.04443741,0.43450722,0.09296056,0.07232771,0.05660887,-0.07672958,-0.27334926,-0.09675591,0.111601554,-0.03662329,-0.23521324,-0.25646183,0.11341578,-0.14769138,-0.08273282,0.122225076,-0.085033625,-0.3138717,0.009099383,-0.06634117,0.1487223,-0.1337877,-0.049312882,0.13386106,-0.12965976,0.050936807,0.25113943,-0.42737854,-0.018688822,0.16350095,0.03931643,0.021921901,0.40900135,0.13301706,0.04456948,0.08065639,0.4663784,0.007255927,-0.11996931,-0.16987689,0.48387706,-0.1396941,-0.08540714,-0.22424614,-0.0007231154,0.044481345,-0.26574665,-0.34543183,0.3232751,0.13472055,-0.08688445,-0.26085562,-0.40325376,0.5250329,0.020152094,-0.3608529,-0.13826172,-0.1702057,-0.22545174,0.04770774,0.13332157,0.6043458,-0.43136308,-0.10095767,0.039393608,-0.048791636,-0.09219282,-0.43972054,-0.35762888,-0.077778555,-0.013803811,-0.2694234,-0.06869461,-0.5137175,0.16646178,0.03277996,0.045632385,0.08920122,-0.29485333,0.19111487,-0.10715921,-0.010696618,0.12700456,0.28783956,-0.022601688,-0.15108679,0.35454854,-0.15394148,0.020600686,0.10741865,-0.3820812,-0.054385792,0.20586076,0.15099548,0.4007678,0.19005752,0.10511928,0.25056762,-0.18425614,-0.0030170504,-0.34159008,0.10857341,-0.10965124,-0.21031606,0.10194136,0.04040225,-0.2372751,-0.2003898,-0.6285904,0.06247351,-0.17429624,0.18271464,-0.13817868,0.023717988,-0.5427252,0.117332615,0.26393574,0.21992175,0.3414317,0.050706342,0.08298682,0.22103444,-0.0733001,-0.09353668,0.031908296,0.41929132,0.2344557,0.12982942,-0.033685055,0.09118977,-0.15754919,0.009350245,0.06810152,-0.37170398,-0.06755398,0.26621786,0.24078457,0.10000886,-0.05491763,0.028854175,0.012978895,-0.19532748,0.08955745,-0.33373922,-0.2884428,0.068007156,0.25272384,-0.010416859,0.08458875,-0.2281896,-0.067989886,0.07850557,-0.06505584,-0.331397,0.20505923,-0.06088563,-0.015373984,-0.31305906,0.35546365,-0.17055961,-0.11297977,0.1902117,-0.07371362,-0.14840868,-0.5455844,0.16809416,-0.17070143,-0.3469087,0.09469061,0.14453472,-0.048466075,-0.105804235,0.5316616,-0.15608393,0.1560064,0.034896582,-0.2741489,0.104232036,-0.1399943,0.16031031,-0.142504,-0.062010817,-0.48326033,0.32021987,-0.15481012,0.17131269,-0.18120238,0.016900616,-0.10707036,0.038547937,0.091545545,0.2530588,0.30943415,-0.038797926,-0.038848035,-0.040992443,0.1373579,-0.44846675,0.052530814,-0.42372313,-0.31330732,-0.305999,0.2835009,0.14577632,-0.09276854,0.10235799,-0.019917069,-0.091016985,0.12603903,0.2830337,-0.20829183,-0.022989623,0.052131865,-0.004102534,-0.23428455,-0.014045855,-0.11929441,-0.3773083,0.14485976,0.16076134,-0.60068816,-0.5253709,-0.15122332,-0.24295455,0.13490966,-0.17395543,0.14276163,0.14245844,-0.11891743,0.048343204,-0.12680654,-0.30588007,-0.12826647,0.123883195,-0.089685515,0.13035487,0.052320205,-0.23698731,0.22724731,-0.214254,0.085214674,-0.1589833,0.18758433,0.13577735,0.39705124,-0.17990068,-0.12907684,0.16908595,0.05509314,0.18832724,0.021270137,-0.06724825,0.31657553,0.013181544,0.5497297,-0.010055325,-0.30828297,-0.379531,0.2360674,0.0719236,-0.13541779,0.046360597,0.17701073,0.04971811,0.08639024,0.33522174,0.12945023,-0.2575423,0.117020965,-0.2466646,-0.10714884,-0.051927406,0.34923238,0.08396933,0.28544366,-0.1110436,-0.17491676,0.20956743,0.21763992,0.071214095,0.02552115,-0.10679584,-0.35765558,0.051665824,-0.0682262,-0.15335423,0.09972579,-0.005016493,0.303416,-0.1345462,-0.044115644,-0.07078491,0.037793286,0.19401628,-0.1245457,0.36369374,0.39932588,0.44797093,-0.2110363,-0.09288652,0.21662785,0.24559116,-0.11326595,0.024105025,-0.423115,0.12865107,0.17109169,0.5660806,0.24330154,0.23178498,-0.24845976,0.7749552,0.23735943,0.30094758,-0.087112315,0.008764955,0.21552932,0.1047135,-0.06282966,0.37063512,0.114673875,0.010270497,0.058950897,0.07534903,0.12958123,0.25198236,-0.27817553,-0.21226965,-0.2996117,0.48081797,-0.20192231,0.15914516,-0.09306482,0.27465957,0.06548279,-0.21339338,-0.24068432,0.4286344,-0.23852414,0.35559678,0.05371473,-0.21567802,-0.32680565,-0.28053653,-0.24849619,-0.045247823,0.12948503,0.033028726,0.18307827,-0.0800402,-0.12543762,0.10168855,0.0823644,-0.17754146,-0.2690487,0.66344225,0.04676542,-0.2464015,0.13221896,-0.046670787,0.24249546,-0.09978613,0.19390911,0.07082647,-0.09966855,0.18237734,0.12208638,0.2142632,-0.10476034,0.07259635,-0.4028678,-0.22209851,-0.009439046,0.34887022,0.18669857,-0.13761263,0.16741554,0.06671324,0.3290891,-0.36118206,0.10771416,0.26470545,0.2711623,0.044601336,0.19905128,-0.10495696,0.016116586,-0.061256524,0.2448289,0.022359584,-0.03308938,0.06604167,0.3608697,0.3378018,0.1435212,-0.12508093,-0.0217772,0.1979043,0.33150443,-0.105686195,0.36554658,-0.092510246,0.1347141,-0.25479805,-0.1726563,0.30100316,0.12362021,0.25114876,-0.12679021,-0.3797801,-0.15130928,0.07787485,0.31759372,0.016374195,-0.08072,-0.11327719,-0.0074015376,-0.24212222,-0.2246455,-0.14990047,-0.0034449105,-0.2840398,0.05156616,-0.30914503,0.051325563,-0.19465114,0.34071815,0.07821597,-0.14702037,0.18818949,0.23166354,0.23333615,0.04232687,0.04169527,0.14999974,0.17015304,0.16611132,-0.20641294,-0.32528612,0.07132663,0.23649691,-0.050194956,-0.26463175,0.043647714,0.064114995,-0.34166852,0.101072796,-0.113132685,-0.10811135,-0.27095187,0.070247754,0.35966688,0.51348716,-0.06826623,0.26005992,0.14455329,0.10413922,-0.26187232,0.21444313,-0.116317995,-0.47546688,0.4365569,0.16191864,0.1105207,-0.15404564,-0.0017818011,-0.23287499,-0.13030319,0.17405266,-0.035983473,0.03750402,0.03469824,-0.5561458,-0.44277942,0.10434177,0.028856644,-0.11250455,0.48817924,-0.3026412,0.098567896,-0.34326994,0.23540759,0.104891695,-0.22670232,-0.2324003,0.13660446,0.2017121,-0.26946193,-0.16648477,0.018303316,-0.01787126,0.036998123,-0.15010582,0.106587484,-0.280731,-0.22809555,-0.20612274,0.23359424,0.044664156,0.093835555,0.08036208,0.79802257,-0.16222157,-0.40158603,0.42348835,0.0475655,0.082320236,-0.1990783,0.22264302,0.08043749,0.058836102,-0.05014708,-0.043462712,0.38080636,-0.10977538,-0.066583864,0.14478083,0.26775202,0.23453203,0.0056062783,-0.19900467,-0.08427362,-0.09716807,0.24499033,-0.21522073,-0.2043861,0.27253503,-0.084438,0.23730002,-0.09283161,0.07609113,0.09656812,-0.24851012,0.012566289,-0.008125215,0.445112,0.09089126,0.0074878815,-0.086306624,0.3384181,0.24264345,-0.08181873,-0.17613447,0.009812742,0.18819599,0.28157672,0.18943706,-0.15809669,-0.17216557,-0.10306806,-0.08314277,0.19406036,-0.072785266,-0.26399192,0.18719986,0.14277026,-0.23456508,0.09557258,-0.27178884,-0.34977776,0.064205885,-0.25775552,0.1352586,-0.099325374,0.23447248,-0.17777282,0.21542513,0.4860167,-0.05016501,-0.30738437,0.44005054,0.0684204,0.20461434,0.6032376,-0.048577417,-0.085263215,0.06929855,-0.03580448,-0.14072604,0.25714478,0.022550125,0.27742657,0.6269432,0.112291194,0.13604693,0.09712383,0.21685292,-0.24229248,0.18353048,-0.009249427,0.018902713,-0.04666752,0.033730265,0.14115705,0.12812206,0.0047649774,-0.25198033,-0.22599016,-0.11727712,-0.21232572,-0.38939396,0.10094644,0.10665955,-0.20767842,-0.12882113,0.14990403,-0.15954949,0.23072289,-0.10779963,0.090106346,-0.23317665,0.5108376,-0.053721145,-0.17406449,-0.1762736,0.28248107,-0.23984654,0.49638492,0.1755732,0.15573803,-0.24755628,-0.15531626,0.09965625,-0.0042700255,0.38806003,0.18569657,-0.2840975,-0.3090218,0.16922845,-0.098664284,0.07406602,-0.22361265,-0.21301495,-0.118212625,-0.2327385,-0.107124984,0.06599131,0.3517422,0.1432494,0.22475852,0.0075528002,-0.090056926,0.046652332,0.1287265,-0.20059444,0.14067039,0.15973529,-0.102241285,0.059065554,0.002069859,0.08888881,-0.10385705,-0.34386852,-0.11390483,0.12537454,-0.4740334,0.055239037,-0.023984784,-0.060208514,-0.1606808,-0.30570748,-0.26082954,-0.36512807,-0.1789271,-0.0342354,-0.2783354,-0.0057649165,0.29784307,0.19975032,-0.25839657,0.026117349,-0.17124856,-0.2023146,0.064397044,0.098257005,-0.05353614,0.09060362,0.3786579,0.19663289,0.17697859,0.33309773,-0.45515123,-0.061856993,0.15251355,-0.043551523,-0.12686071,0.055635106,0.1598542,0.26431575,0.18443027,0.013885181,-0.39354733,-0.17822881,0.028652433,0.19895703,-0.03910255,-0.038620953,0.031000184,0.29199606,0.2414643,-0.08822724,0.055964228,-0.08107739,-0.3576302,-0.07413036,-0.35222766,0.19244084,0.2633849,-0.12959984,0.29639086,-0.29563656,-0.073507495,-0.08918915,-0.169072,-0.41383463,0.06696875,-0.4537012,-0.21330626,-0.4026064,-0.11140076,0.2754216,-0.13894933,-0.08409279,-0.19512221,-0.07891854,-0.14788695,-0.18536983,0.19878682,0.27177894,-0.14835244,-0.1643709,0.32329953,0.14957613,-0.11864761,-0.14605415,0.31797838,-0.33759657,-0.2271059,-0.28105646,-0.13632068,-0.057232223,-0.13637574,0.087740555,-0.13385478,0.013838379,0.15127565,0.3427023,0.14871806,-0.13792443,0.13135657,0.045887843,0.18618323,0.029871581,-0.037808683,-0.13538598,0.13029197,0.23090118,0.49873194,0.07877799,0.20742606,0.24582726,-0.36785793,-0.16224872,-0.027264781,0.29895592,-0.036048345,0.023710568,0.51734316,-0.14327726,-0.016228028,-0.29260635,0.030562555,0.48223516,-0.046896785,0.2590461,0.03157209,-0.11396113,-0.14907627,0.40596992,0.33995828,-0.22169384,-0.17854954,0.054642666,0.012923798,-0.071272574,-0.1942838,-0.09906842,-0.06898275,-0.31548068,-0.015280682,-0.06635179,-0.28635958,0.049549107,0.27599463,-0.05281983,-0.07665535,-0.31938404,0.15622847,-0.25708526,-0.20153308,-0.1804312,-0.19754681,-0.17341438,0.24071556,0.088269524,-0.03173171,-0.223909,-0.16981532,-0.06533386,-0.08148921,0.03401796,0.0040160096,0.10799913,-0.19052047,0.32234174,-0.06890031,-0.054710254,0.29087967,0.17361242,-0.06495185,0.2666157,0.28672457,0.102931544,0.05893316,0.0432215,-5.67156,-0.096501485,-0.023979774,-0.082646005,-0.008891249,0.31697008,-0.119524814,-0.021099145,0.1102069,0.14790253,-0.10643639,0.16191314,-0.4134996,-0.09848555,0.037677646,0.021976678,0.18196549,-0.30170727,-0.18332538,0.1497434,-0.029214405,0.078524806,0.08671939,0.061258767,-0.076146714,-0.18007545,0.30229673,-0.05942333,-0.27531037,-0.22960642,-0.036832307,0.20610829,-0.22053893,0.023373635,0.05488213,0.13571933,0.019447517,0.41131434,0.25282612,-0.17182137,0.6367212,-0.22533265,-0.45788342,-0.25404525,-0.2919124,-0.12930022,0.030667031,0.0955827,-0.21885993,0.2851503,-0.028180294,0.3363169,-0.33426172,0.102226,0.04785637,-0.15149611,-0.17246212,0.27266744,0.41287398,-0.075268835,0.080322206,0.08266358,-0.087202705,0.13460954,-0.08814723,0.04924338,-0.1916367,-0.021036262,-0.1399543,-0.082598336,0.22763336,0.19046187,0.03010086,-0.11703228,0.18836343,-0.20320843,0.22256747,-0.4490719,-0.03895122,0.24406125,-0.15661749,0.56048363,-0.2916199,-0.06764017,0.46686798,0.31942827,0.17993435,-0.21279117,0.008590104,-0.036124233,0.13308077,0.5343506,0.11712327,-0.12054098,0.3514549,-0.08716787,-0.12421066,-0.28350165,0.074237496,0.18582529,-0.042806,-0.15749317,0.3144473,0.2769114,0.154957,0.12134435,-0.10947555,0.08014678,0.007817382,0.3044689,-0.24824618,0.031825893,-0.11694727,0.12263752,0.044574186,-0.11246895,-0.14903979,-0.30293754,0.28998345,0.09580731
HIS_2_B,-0.15626587,-0.1145731,-0.3392692,-0.019590743,-0.37011445,0.09840769,-0.15491755,-0.008923676,0.018921591,0.28024915,-0.13176472,-0.17941244,0.01812067,0.2922461,0.00019655122,0.36857468,0.36164975,-0.09589337,0.058844395,-0.30246663,-0.1500328,0.026549356,0.1320078,-0.18479134,0.27861023,0.09243375,-0.18152201,-0.118593305,-0.31099883,-0.100956775,-0.090413764,0.031521868,0.1631349,-0.20842655,-0.10454383,0.12719597,-0.3097227,-0.2724393,0.059911896,0.20946746,0.1056094,0.11339152,0.26015934,0.3645827,-0.008518247,-0.12484287,-0.021778503,0.37032977,0.114593744,-0.1317065,-0.066455916,-0.20385523,-0.17674275,-0.20692761,0.1558492,0.041736796,0.4567228,0.3368364,-0.036060654,-0.19355026,0.14414178,-0.063227616,0.2583464,-0.11743961,0.16191004,-0.20911942,0.12393783,-0.1041966,0.08032255,0.24239117,0.23481345,-0.40656763,-0.4723445,0.3255148,-0.0746729,0.13464345,0.29926795,-0.14273712,0.068479635,-0.06650039,0.055718936,-0.08765923,-0.28534737,0.20531757,-0.060917445,-0.33184186,-0.29818174,0.116420574,-0.20022066,0.469823,-0.11153352,-0.063956074,-0.26101804,0.07664726,0.042726535,-0.06060663,-0.034370076,-0.0028912104,0.08281039,-0.514808,0.062513046,0.085220255,-0.21133575,-0.049603622,0.16604586,-0.26055273,-0.038211644,0.35128242,-0.39862284,-0.2620792,0.3625277,0.2980335,-0.22854088,-0.3702524,-0.013661861,-0.2508439,0.034517735,-0.23484278,0.038074497,0.015461549,-0.18093173,-0.0060161925,-0.06287275,-0.09961384,-0.08055995,0.12940499,0.24983932,0.18646279,0.086199924,0.03905992,0.042390734,-0.26208362,0.025973553,-0.3218079,0.38410667,0.004963931,0.11293173,0.1808344,0.2689728,0.33380374,0.13967249,-0.05366389,-0.098750666,-0.104589045,-0.13575394,0.3969095,0.14728908,-0.091108724,-0.056423705,-0.24207236,0.13183174,0.053093202,-0.21474649,0.42194223,-0.22007437,-0.21674776,0.2004236,-0.0816279,0.046760503,-0.15810195,0.0987668,-0.028561115,-0.1352501,0.36105353,0.0113169905,0.059408788,0.123634025,0.15396275,0.042863075,-0.21235308,-0.1346761,-0.13007618,-0.0072107757,-0.27365413,-0.13961697,0.21120511,-0.10898716,-0.17878391,-0.10969733,-0.09636048,-0.07221536,0.031601347,0.09569188,0.06413056,-0.42094547,0.11882519,0.0024334055,-0.13629963,0.04018544,-0.21576007,-0.040387716,0.31411457,0.020208083,-0.13680272,0.26811087,-0.119711556,-0.19708964,-0.14198816,-0.02096544,0.08048352,-0.0064400723,0.20572379,0.022170527,0.03898943,-0.17921567,-0.44454932,-0.019624237,-0.19235756,0.1381504,-0.16084597,0.071938336,-0.23149098,0.22539707,0.3628762,-0.20624311,8.415257e-05,-0.066444956,0.14463307,-0.18215333,0.37342373,0.09733104,0.24616656,0.16299184,0.22718567,0.10645595,0.42501783,-0.22314832,0.10643779,-0.07218856,-0.014021919,0.13821065,0.073360145,0.14005011,-0.08935618,-0.9371095,-0.104000464,0.042529467,0.113242395,-0.44282284,0.06408582,0.12974821,-0.029506315,-0.07333099,-0.05965413,-0.1760849,0.16009484,0.18753651,-0.1659065,0.015735004,0.3157536,0.060540035,0.17727937,-0.1668524,0.12332726,-0.13814175,0.09825803,-0.1497606,0.20206968,0.057370186,-0.6568363,-0.061227944,0.15929352,-0.0644427,-0.22854498,0.021209946,0.13426948,-0.036133178,0.08177734,0.11649696,0.072495624,0.1802356,0.026867716,-0.05486681,0.5369502,0.1277112,0.120723106,-0.23148665,0.18065473,-0.27863416,0.38428172,-0.13686661,-0.003982089,0.021602813,0.34772328,-0.044831492,-0.07678101,0.10046051,0.22078037,-0.21556252,-0.26621923,0.040451463,0.16128181,0.10897384,0.029720288,-0.399495,0.031162297,0.015992817,-0.04379597,0.0024189607,-0.10145338,0.11087872,0.116803,-0.13829489,0.23945284,-0.28429386,0.19148539,-0.0119108725,-0.36027196,0.16215155,0.067786634,-0.09222073,0.23718892,-0.025673795,0.14239945,0.11920413,0.124874994,-0.1138932,0.18804258,-0.20182371,-0.10508856,0.096475035,-0.10549628,0.1504811,0.12358363,0.3330264,-0.040524073,0.123663545,-0.05912261,-0.13275252,0.10519414,-0.03378158,0.049209774,0.23321441,-0.027708746,0.057006728,-0.10674693,0.27044228,-0.0050754775,0.1600524,0.23255086,0.17848101,0.23851457,0.1851304,0.03503763,-0.18554977,0.103392735,-0.252363,0.069166765,-0.18479268,0.0146634765,0.017307686,-0.06752979,-0.050266318,0.2119148,0.2570933,0.20837486,-0.267553,-0.02798952,-0.15191555,-0.030057123,-0.17830834,-0.076385766,-0.13690324,0.27742922,0.017893825,0.09371535,0.32298765,-0.013504759,0.25087002,-0.03458694,0.28666756,0.11404861,0.19302656,-0.071133584,0.38639033,0.3063686,0.112256385,0.16533779,-0.17280261,-0.12826176,0.098717555,-0.44131723,-0.10519771,-0.119152404,0.35883853,0.28609475,-0.36077964,0.17077105,-0.01861202,0.1868437,0.2553637,-0.10846579,-0.19422661,0.13994744,-0.1535325,-0.05786844,0.56428576,-0.2956694,-0.026647085,-0.08144069,-0.056735642,-0.097365014,-0.04019199,-0.35389945,-0.027693344,0.13245355,-0.024151096,-0.060736574,-0.22342533,-0.27460578,-0.30385336,0.05861692,0.07503725,-0.15097016,0.34425804,0.22252269,0.21963875,-0.17489801,0.23668203,-0.1976932,-0.18671888,0.28267235,0.1867056,-0.1070391,0.041015867,0.10882231,0.23034805,0.35988712,-0.15393533,-0.13658483,0.07473351,-0.18089747,0.15689185,-0.100536354,-0.08137573,-0.14188412,0.18525219,0.18846199,-0.108333275,0.09758367,0.24096161,-0.026720453,-0.30598083,-0.4882284,-0.07805918,-0.15086608,0.28976083,0.1832955,0.31643298,-0.5612096,-0.3344979,-0.0672781,-0.30735993,0.14564402,-0.10701805,0.25261825,-0.034762774,0.14434597,0.19408596,-0.0006715624,0.050080586,0.19675532,-0.3568724,-0.028618658,0.12714009,0.08544125,0.061956838,-0.42337385,0.07441618,-0.1648152,0.41820928,-0.0390557,0.015627667,-0.16130441,0.030170936,0.17677243,-0.07395605,0.084727235,-0.19961156,0.153822,0.16240765,-0.18888776,0.026365878,0.10110698,-0.02075416,0.011533051,0.19201232,0.1695431,-0.042648572,0.17448506,-0.17520101,-0.18303874,-0.25787768,0.08649011,-0.007965565,0.017666,0.18691492,0.3496564,0.11373632,-0.42984152,0.057088975,-0.41090736,-0.3438232,-0.18867138,0.113954395,-0.2599324,0.101266704,0.2627698,-0.029702213,-0.07130035,0.21911782,-0.023820495,-0.193961,-0.17738931,0.3176139,-0.3946328,-0.046845324,-0.4706931,0.0677461,-0.044470996,-0.22427893,0.4576031,-0.002485547,0.0029203868,-0.39856407,0.119051166,0.342088,-0.0654302,0.16226348,0.23318708,-0.18512535,-0.20432022,-0.16200975,-0.01376301,-0.19150862,-0.25970754,0.018079245,0.29954347,-0.19042005,0.22596379,-0.053971592,0.14909446,-0.19061485,0.14414226,0.34851405,-0.14479965,-0.03050193,-0.07756506,0.027954776,0.024145924,0.24832545,0.009291284,-0.27242497,0.41531965,-0.18503776,-0.5177953,-0.1618833,-0.055520613,-0.10624959,0.25589743,-0.16396287,-0.42530438,0.07923283,0.23155428,0.0043994384,0.003904035,0.27680337,-0.45974383,-0.018612573,-0.019013578,0.08937345,-0.037716042,0.158487,-0.12865967,-0.008625132,-0.41511443,-0.04206451,0.37437132,0.11065696,0.15076275,-0.07925858,0.116972245,-0.1438543,-0.09435783,0.24959108,0.2572672,0.32742754,0.061201587,0.16308908,-0.13459377,-0.08063702,-0.061935272,-0.0998151,0.32098216,-0.2121355,-0.22825323,-0.17298025,0.26792243,-0.1954027,0.12250735,-0.08161405,0.070586614,0.03445332,0.274996,-0.1499342,0.06645127,0.30439812,0.26160306,-0.08000128,0.09194072,-0.25996217,0.050342087,0.4085681,0.06773467,-0.27725083,0.098427095,0.12877996,-0.07605904,-0.39814958,0.09201546,-0.10235842,-0.06911734,-0.18441209,-0.037743058,0.013168502,-0.14312036,-0.19009723,-0.042457,0.074583985,0.052686855,0.3265303,0.29339346,-0.10692796,0.040920068,-0.020558536,-0.006097295,0.14043777,-0.21240039,-0.032001704,-0.33333576,-0.049642,0.054973558,0.2901232,-0.12396222,0.33423534,-0.010273112,0.47572702,-0.11535968,0.09605643,0.2572161,0.028119372,-0.02992184,-0.04286754,-0.024993803,-0.06573314,0.08848845,-0.15634218,0.33329615,0.13810281,0.108689696,-0.0016466489,-0.15543605,-0.2516039,-0.029314717,0.008670972,-0.13394852,0.28427544,-0.13619535,0.17502128,-0.48631603,0.14858721,-0.21436091,0.3533087,0.22261383,0.402316,-0.07353326,0.029291762,0.070660554,-0.20452729,-0.3726318,0.057658028,0.019040372,-0.14813252,0.49737552,-0.17854884,-0.14939514,0.1595666,0.095236026,0.16560657,-0.14527479,0.52190423,0.23157576,-0.08278016,-0.09907136,0.03190309,0.30405876,0.004941069,-0.081992455,0.17545171,0.008386991,0.113537334,0.16640113,0.15034299,0.09372221,0.091585085,-0.12043704,-0.29348198,0.048808478,0.037385806,0.045895286,0.04054036,0.035866916,0.0030333004,0.41616422,-0.3979333,-0.21214327,0.21140699,0.04084084,-0.12704077,-0.07279533,0.18395288,-0.15211274,0.18734962,0.017507918,-0.025120398,0.07864549,-0.04351351,0.31000212,0.021030556,-0.21361427,-0.22686355,0.01910259,-0.095180415,0.1857779,0.26806936,0.22043636,-0.16395117,0.041823197,-0.19545773,-0.05090108,-0.044485062,0.16924836,0.17805777,0.13585456,-0.0066353385,-0.3165593,-0.101198405,0.14034814,-0.051182948,0.042740803,0.13659656,0.050022032,0.13540703,-0.11642227,0.25693557,0.01244472,0.18727697,-0.14125757,-0.009364929,-0.15097557,-0.1683866,0.29301712,0.17957379,-0.20822026,0.037019186,-0.09767868,0.28594697,-0.18227991,-0.07352819,0.036998846,0.16985421,-0.1586822,-0.33360627,-0.25693983,0.35034174,0.3572336,-0.10105103,-0.1389598,0.09256712,0.017658515,-0.1303247,0.26979634,-0.0878959,-0.114917845,-0.25689274,-0.23675527,0.43043286,0.05591435,-0.1834298,0.3003264,0.1080222,-0.21434124,0.1271025,0.10896974,0.12713166,0.1978227,0.20360684,0.25183493,-0.17543796,-0.23944455,-0.08957863,0.05523826,-0.09938957,0.39782828,0.056473173,0.08514204,0.0581425,-0.22014707,-0.052550502,-0.01978602,0.26368183,-0.038394928,0.32421,0.2642568,0.11362508,-0.32629305,0.10969685,0.20421278,0.01825543,-0.0070261587,-0.054238923,-0.13108698,0.0044705807,-0.025277501,0.013712045,0.1218138,-0.097213075,-0.2989123,0.09904234,-0.2688428,0.027755784,-0.12804234,0.23404792,-0.1362926,0.42884266,0.30409172,0.18664034,0.35571516,-0.15414198,0.108008645,0.16261989,0.32177308,-0.13113567,0.0575998,0.17821905,-0.10482199,0.08907516,-0.003088177,-0.1930944,-0.208156,0.2488926,0.09682812,0.14948304,-0.14592601,0.22835828,0.025116151,0.03120009,-0.25557074,0.06714721,-0.010845555,-0.21619655,-0.025655564,-0.10058794,0.33171877,0.044724934,0.015210114,0.15137617,-0.022843404,-0.0048787002,0.010647214,-0.00887038,0.10957392,0.1467376,-0.17927687,0.000472288,0.009638399,-1.497791,-0.022639947,-0.088016756,0.05641897,0.21387176,0.24889761,0.014057909,-0.3343103,-0.11689527,0.09898209,-0.12504092,-0.25231427,0.25849244,-0.026219446,-0.1367012,-0.1713767,0.18911853,-0.1987784,-0.12632808,0.23769206,0.3723868,-0.008492023,0.053012766,-0.2689193,-0.105949126,-0.07572213,0.077202655,0.051682785,-0.45205382,0.112880856,0.011694882,0.06420248,-0.18424211,-0.23565252,-0.034646142,0.12829049,-0.29298836,-0.10423207,-0.022959545,-0.047829237,0.08285671,0.076155774,0.12676902,0.3837688,-0.072651505,-0.13993855,0.16530792,0.33265516,-0.19100127,0.16550161,-0.30732644,-0.07135264,-0.16161893,0.01953123,-0.15095074,-0.18037775,0.07168658,-0.01930666,-0.10369754,-0.36921078,0.22788574,-0.1254145,-0.21789306,-0.39401573,-0.0064895074,-0.06590458,0.3771976,0.1455749,-0.1250659,0.37743783,0.1938701,0.08114338,-0.07668392,0.04655052,0.256618,-0.20268919,0.28297803,0.34042108,0.3122991,-0.2747756,-0.08631043,0.38068444,-0.09091263,0.30959535,0.023643626,-0.05370008,-0.19878894,0.23714267,-0.070966884,0.07293664,-0.27939627,-0.3821067,0.12738252,-0.09091037,0.04508736,-0.2693572,-0.30839062,-0.05319207,0.12030692,-0.20624423,-0.30118892,-0.076608405,0.061377075,0.16581012,-0.3177262,0.045711525,-0.305103,-0.27197424,-0.14500934,0.42317027,0.05226806,-0.22691934,-0.4442101,-0.0491501,-0.34869272,-0.2709561,0.20755345,0.11925024,-0.19612305,-0.19487529,-0.14946006,-0.36699685,0.26627064,0.018021561,-0.061682876,0.2248616,0.27212125,0.23594642,0.020210287,0.061743766,-0.06160549,0.16907676,0.10315855,0.23527488,0.22390142,0.081251346,0.06826044,0.18148811,0.15078469,0.4118553,-0.28505284,-0.3459657,0.33799195,0.35445455,-0.095882,0.030903047,0.1401087,-0.00336258,0.6478415,-0.12274025,-0.2049125,-0.085586786,-0.36927646,-0.2559292,0.02083809,0.07749873,0.14868362,0.45614585,0.26489037,-0.10882334,0.03364305,-0.06784783,0.1364612,0.09411568,-0.13647933,-0.011837863,0.2384839,0.10502605,-0.34078318,-0.12854302,0.0606422,0.0006318494,-0.19344981,0.120543115,-0.083152,-0.12175085,0.023345327,0.045307133,-0.13443857,0.082019486,0.12975386,-0.2440692,0.02207746,0.3408252,-0.06064117,0.3069222,-0.06568483,-0.061523646,-0.46297258,0.002415146,0.20431745,0.06472182,-0.06961846,-0.09016683,0.193233,-0.6701261,-0.10571261,-0.3345441,-0.33023325,-0.09219217,-0.12696353,-0.080110885,-0.39608943,-0.16506557,0.20344873,-0.1550102,0.2912291,-0.009066674,0.21546772,0.11185813,0.095472775,0.1374231,-0.289387,-0.13131988,0.35715196,-0.064293504,0.1825166,0.2729747,-0.07497697,-0.034789514,-0.24129188,-0.01200383,-0.0048489394,0.25396296,-0.06272346,0.15675007,0.35537046,-0.27063835,-0.056476597,-0.004451118,0.06948952,0.17645323,-0.18325876,0.47051075,0.12919666,0.021324756,-0.045048237,0.14725322,0.26636782,-0.22196022,0.06339595,0.11631466,0.10132574,-0.059640836,-0.22687961,-0.4630191,-0.04564529,-0.16749504,-0.174224,-0.098480664,-0.16223587,-0.26873899,0.23599306,-0.50897086,0.22008313,0.022200795,0.20851305,-0.22364977,-0.057230588,-0.14490733,-0.11727172,-0.16757992,0.21988536,-0.062492833,0.03369517,-0.3362491,0.15473282,-0.2758404,0.35166705,-0.14027521,0.11344151,0.34275034,0.15927827,0.47061327,-0.09997976,-0.15297899,0.1276157,-0.030046746,0.14760016,-0.12920804,0.012773762,0.13436474,-0.003941213,0.3025546,-6.2787004,-0.08456582,0.08201179,-0.1968808,0.1407619,0.1272062,-0.10536239,0.026539752,-0.121380545,0.23167185,-0.024886398,-0.14851353,-0.02621293,-0.03420603,-0.32783622,0.19660677,0.1911291,-0.03143136,-0.20517012,-0.08269458,-0.03497749,0.049436353,0.023899667,0.047724776,-0.13775218,-0.12150949,0.41362715,0.080629975,0.11889644,-0.21787311,-0.14749454,-0.16534355,-0.12654889,0.14606234,-0.030922676,0.16890119,0.12974359,0.044945333,0.07704336,-0.023989907,0.17841816,-0.32834437,-0.2808293,-0.18799518,0.038773872,-0.38041502,-0.23410168,0.38678536,-0.27905378,-0.0816915,-0.08201313,0.040620256,-0.11620195,-0.049818564,0.06446113,-0.17501111,0.19370578,0.14692438,0.0020289803,-0.17508239,-0.1282156,-0.018636879,-0.11656985,-0.39595988,-0.046576995,0.315723,-0.13336797,-0.01406548,-0.019883173,-0.088279694,0.26819944,-0.2899067,-0.23297103,0.22255157,0.11291517,-0.3171286,-0.12852527,-0.27959144,-0.14218159,0.36211967,-0.17886925,0.5461927,-0.20892705,0.08717947,0.46356222,0.2887077,0.374808,-0.12158775,-0.14274465,0.46685517,0.119262494,0.21354333,0.004938848,0.044609923,0.38485834,0.1967838,-0.16662267,-0.38110778,0.22343777,0.0756396,-0.380436,-0.11595135,0.20351668,-0.026355494,0.10495358,-0.03568529,0.07994123,-0.121233135,-0.1937679,0.33495098,-0.03538575,0.16581172,-0.23019513,0.06519774,-0.016448218,0.047217052,-0.21088155,-0.24669795,0.13564476,-0.13886327
LYS_3_B,-0.13649547,0.009470269,0.0904782,-0.030331556,-0.34655496,-0.048510995,0.14256437,0.29949427,0.10830958,0.4549351,0.12301503,-0.2979181,0.375074,0.013362663,0.34778878,0.19190776,0.4296853,0.29298085,-0.0045046355,-0.30454707,-0.34568453,-0.18244343,0.13058421,-0.14837681,0.34662947,0.12972645,-0.24427274,-0.1686677,0.28696144,-0.20402648,-0.22101775,-0.016889721,-0.10471011,-0.11376298,-0.03982584,-0.11158324,-0.01823458,0.039808977,0.02564806,0.08843146,0.09962913,0.19668545,0.15113114,-0.03276154,0.011698473,-0.31356063,-0.002254133,0.378026,0.13590145,-0.17420721,-0.26470032,-0.24400596,-0.20308971,0.14612256,-0.012474775,0.015967257,0.092886545,0.2419463,0.29772028,0.049076855,0.07871038,-0.11110395,0.21211526,-0.015340883,0.03584027,-0.48103714,0.224275,-0.14873008,-0.049135573,0.01970683,0.4094944,-0.2630422,-0.34215054,-0.13147818,-0.19305494,0.0810091,-0.010077254,-0.006978009,0.22276075,0.037454173,-0.15614876,0.111359954,-0.20471941,-0.2580346,-0.29276335,0.0991238,-0.046943385,-0.07097762,-0.35838142,-0.18001978,0.0120927915,-0.25222242,-0.2859951,-0.046912607,-0.35009575,-0.14950174,0.19060405,-0.10887352,0.01481598,0.12445592,-0.25248766,0.048770726,-0.27774358,-0.31863245,-0.07965605,-0.09180658,-0.25344306,0.25689983,0.051156905,-0.23789729,0.15748538,0.43959105,-0.051515702,-0.023703659,-0.09281912,-0.066651225,-0.05508046,0.03035416,0.08100817,0.51984614,-0.01784387,-0.1547923,0.28412813,-0.285105,-0.25701395,0.17115073,-0.013831801,0.27742386,0.06686432,-0.23943654,-0.38699162,-0.24191551,0.046510078,-0.20674634,0.5226639,0.058026183,-0.019475663,0.08582371,-0.033011105,-0.16116975,-0.012445072,-0.07693436,-0.08112844,-0.22013284,0.030012047,0.3301948,0.09631058,0.052938476,0.18450427,0.10034632,0.10292819,0.08042741,-0.16528217,0.062071938,-0.2844819,0.016837971,0.22831576,-0.15950754,0.120726034,0.0005648038,-0.247187,-0.015412129,-0.03188996,0.16768682,-0.2804559,0.002367331,-0.3122833,0.059659854,0.12609364,-0.36921194,-0.18693937,0.0032546176,-0.17563468,-0.11377067,0.18914023,0.28333718,0.027244909,-0.2892048,-0.3040331,-0.34279558,0.10802076,0.05147292,0.53019875,-0.34312263,-0.27957404,-0.11359845,0.35398093,-0.012607777,0.3112804,-0.29617202,-0.2322369,0.25656855,0.14168519,-0.21943375,0.3329449,0.08978368,0.12766382,-0.033553444,0.18130274,0.17214344,-0.45358896,-0.10373733,-0.26010233,-0.13328722,-0.27303872,-0.11740839,0.022815388,-0.026515434,0.09544356,-0.048911463,-0.00025680833,-0.08612339,0.43849185,0.0076111653,0.01677376,0.038627196,0.025307762,0.22916187,0.29536057,-0.15147181,0.35959062,0.2957205,0.31722194,-0.17193043,0.09820847,0.28822485,0.049607687,-0.019290416,-0.19763736,0.050116476,0.13418916,-0.03889377,0.2560616,0.015986247,-1.1281583,-0.1876115,-0.066230394,-0.055878583,-0.38373977,0.2700862,-0.12109768,0.060918964,-0.012614919,-0.15970391,0.050900396,-0.17790896,0.31806582,-0.23316222,0.27303594,0.31783932,0.060676098,0.21883474,0.21098503,-0.19976512,0.106993556,0.042378824,-0.101993255,0.18704815,0.3714829,-0.29768372,0.07384908,0.11170679,0.31121382,-0.47469565,-0.04484996,0.22816318,-0.039461926,0.2706136,-0.0072283284,-0.05668816,0.12254745,0.15527554,0.2504299,0.20597352,0.2852689,-0.1859756,-0.07031636,0.25422823,0.051342964,0.33977297,0.17732199,-0.06604976,0.08152873,0.082223564,-0.083560936,-0.0788064,0.058446057,-0.03246584,-0.024936713,-0.20941544,-0.07200583,-0.07144783,0.15129657,-0.06586137,-0.15514673,-0.009273846,-0.091425866,-0.037744157,0.05429679,-0.18262254,0.014657281,0.04704857,-0.24037245,0.40258554,-0.22086129,-0.2291476,0.07508744,0.008298254,-0.17776476,-0.24954244,-0.106338285,0.025637377,-0.06778549,0.41579902,0.12054754,0.000110986155,0.08251464,-0.18746561,0.12598422,-0.36651275,-0.2810562,-0.06901392,0.31264398,0.08278803,0.21964802,0.04615684,0.31171516,0.116966344,0.056879323,0.020135036,0.22719066,0.16226791,0.46738306,-0.09140456,-0.001167454,0.20494066,0.16874474,-0.021648908,-0.013783344,0.18856522,0.13278158,-0.32947302,-0.11407852,-0.06605639,0.16838077,0.15259427,0.21619889,0.30240378,-0.48402864,0.23371796,0.103673376,0.0017215856,-0.06577592,0.13563858,0.1679273,-0.09239518,-0.17599976,-0.09780753,-0.16187121,-0.06403683,-0.012835838,0.024215855,-0.052802138,0.38247144,-0.06798134,0.22274293,-0.0098159965,0.19382928,-0.04817758,-0.040171925,0.43335623,0.2547,0.33528173,-0.14638689,-0.28119093,0.47338635,0.032920014,-0.050334238,-0.0050933133,0.06998914,0.21986793,-0.38882884,-0.15877084,0.33703846,0.2288811,0.27257165,-0.102647305,-0.14275365,-0.035217192,0.072094716,-0.1353182,-0.13837907,-0.24747926,0.015647529,-0.48879254,0.004072729,0.44807518,-0.35681617,-0.015901135,0.01714765,-0.15073252,-0.169929,-0.3360445,0.19374077,0.0011023224,-0.08947648,-0.32078272,-0.124348156,0.061024264,-0.068446234,0.029493619,-0.10330938,0.040209673,-0.07731757,0.4016512,-0.10464128,0.10552328,0.35253048,0.35278958,-0.11385952,-0.27036113,0.2527272,0.12141299,-0.14924225,0.22792882,-0.07230526,0.3752495,0.07307471,0.12377945,0.042746518,-0.057025768,-0.08455022,0.012489813,0.18162379,-0.067423865,-0.4406373,0.096970886,0.3676801,0.07263487,-0.24815413,0.23152374,0.029267794,-0.121654704,-0.7459922,-0.06995794,-0.4513549,0.2787245,0.01995163,0.0587483,-0.23489043,-0.026279107,0.02255019,-0.09371172,-0.2695908,-0.2565637,0.13417639,0.02488569,-0.09423142,-0.18724409,0.042162277,0.20847005,0.14135884,-0.21410257,-0.12246509,-0.09531971,-0.00047503263,0.018514529,-0.012541126,0.016478145,-0.065792486,0.33184883,0.26168233,0.11064419,-0.4240761,-0.022219447,0.1329347,-0.021404652,0.2502019,-0.08968409,0.07976062,0.23339845,-0.22380643,0.09443162,0.6439254,-0.34092963,0.14666973,0.038716495,0.24826057,0.030067759,0.17377076,-0.3416719,0.030573094,-0.18765178,-0.061576594,-0.04084657,-0.029899554,0.15837784,0.14041278,0.24714826,-0.30802044,0.061100047,-0.03781384,-0.14754713,0.0073984726,0.0018731887,0.0022945986,-0.0864166,0.20537801,-0.3477233,0.1047992,0.118570566,-0.25826007,0.12368839,-0.25186124,0.27089405,0.0859418,-0.12972224,-0.35775918,0.12075599,-0.02909357,0.06169863,0.3457315,0.034904663,-0.04365932,-0.015830694,0.016345346,0.17064865,0.05932025,0.0118078925,0.033445142,-0.2063228,0.13494875,-0.048458233,-0.14453292,-0.21311657,-0.18400773,-0.18353602,0.20789395,0.06470269,0.1081623,-0.09939546,0.05196115,-0.03739514,-0.11061772,0.39461985,-0.2557472,0.10902792,-0.1265888,0.014087135,-0.2418391,-0.102061346,0.25089276,-0.2455428,0.17304698,0.17211659,-0.26114914,-0.0492591,0.10262448,-0.1870124,0.1703229,-0.1966669,0.18361153,0.117975935,0.12895472,0.0791225,0.09419954,-0.11363009,-0.45738125,-0.024205305,-0.3576277,0.11902029,-0.04897655,0.52233726,-0.07780893,-0.12078382,0.017412525,0.093974076,0.10242131,0.15858763,0.20792831,0.10383222,-0.1697414,-0.026821591,-0.32122406,-0.014770677,-0.08400579,0.06306405,0.25354788,0.2238159,0.1635321,0.14130017,-0.248257,-0.092875086,0.3483123,-0.200712,0.049056746,-0.26197854,0.18752131,0.29359326,-0.009056249,-0.07050593,0.089681886,0.030565256,0.13873085,-0.1806739,-0.17487103,0.13646473,0.0831326,-0.07928187,0.12583323,-0.09137529,0.07123828,0.42038572,0.0677874,-0.08118967,0.16733597,-0.060339727,-0.11568166,0.18179876,0.17352384,-0.37936252,0.068154395,-0.10685788,0.034916233,-0.042823195,-0.090551555,0.025918216,-0.14946818,0.046331502,0.085273504,0.11883918,0.55323625,0.13930188,0.08000624,0.14091353,-0.37875807,0.22600016,0.15531887,0.07254398,-0.13543443,-0.024719466,0.2852557,0.016312748,0.035823785,0.20495294,0.13825153,0.1593936,0.10390276,0.17436779,0.23430789,-0.027593391,0.29389733,0.0703802,0.057079103,-0.04420254,0.059327587,0.1840449,0.44348848,-0.10049095,0.14395776,0.1818759,-0.2939439,0.14277959,0.17066872,0.2909633,0.14404735,0.18398844,-0.064358175,0.010076779,-0.39438194,0.09154856,-0.18948653,0.19450659,-0.0834887,0.37346178,0.028762465,0.054065287,-0.27994424,-0.02953122,-0.38533798,-0.20487086,-0.050064754,-0.26172054,0.0814098,-0.214425,-0.0781281,0.5120709,0.013768462,0.10681769,-0.21733914,0.48126045,0.21631114,0.22188467,0.30261412,-0.09192946,0.04830531,0.14412263,0.17268784,0.20452625,-0.08861157,0.25782406,0.11556031,0.33710873,0.10979427,0.12125746,-0.094785094,-0.14153941,-0.07025566,0.25945896,0.19411346,0.05952371,0.12935372,0.09149904,0.27658066,-0.25697786,0.10014145,0.24708742,0.24579085,-0.02013561,0.24117246,0.098452725,-0.2934778,0.15564924,-0.10087783,-0.27674988,0.049120795,-0.017096072,0.5569231,0.49036995,0.071900345,-0.29708117,-0.11340826,0.15730412,0.3504825,0.17375536,0.014260562,0.35265058,-0.08230623,0.2759557,-0.24949495,0.17032783,0.19117841,0.25810128,-0.018639771,-0.077796,-0.2818321,-0.15995711,0.12359763,0.047548894,0.0006983505,-0.030926295,0.18617138,-0.2671085,-0.24919708,0.42333585,-0.29133666,-0.054295294,-0.16672267,-0.16933542,-0.15887298,-0.070932604,0.1864672,0.18415603,-0.13718459,-0.038855888,0.2909039,0.117909156,0.12512913,0.038315266,-0.07121456,0.01624278,-0.08947205,-0.19469449,-0.08960108,0.018850582,0.19047542,0.0032534346,-0.49829808,0.059243668,0.27488977,-0.060346704,0.21202466,-0.20628192,-0.0974794,0.06667583,-0.044172566,0.36405244,0.1589841,0.031644795,-0.02864112,0.037895862,0.038580477,-0.19080007,0.26017565,-0.11627112,-0.26444873,0.13178718,0.20670341,-0.06372517,0.12617166,-0.03246062,-0.08006533,0.025183845,0.21474893,0.11843372,-0.21101563,0.045562766,-0.22977154,0.06803283,-0.2302307,0.034488305,-0.18725325,0.26637086,-0.012438463,0.06407886,-0.26905066,0.18494426,0.042755727,-0.043068063,-0.024805995,0.08404788,-0.11214755,0.036212597,-0.18055792,0.11147469,-0.12829691,-0.10969045,-0.22143716,0.10787213,-0.34441268,-0.15190874,0.13955708,0.09621545,0.03697421,0.003137592,0.28595865,0.16937497,0.08556381,-0.22578004,0.11661966,0.041831806,0.44041568,-0.24885629,0.17185491,-0.10015336,0.08204037,-0.2426865,0.07073518,0.34088084,-0.14609486,-0.16549203,0.08401324,-0.16985874,-0.09592708,0.06714547,0.13643724,0.13239382,-0.28121138,0.14287503,0.31142518,-0.15808503,-0.14948085,-0.19680998,0.16678487,-0.032216825,0.12693316,-0.044513855,-0.33978927,0.061483707,0.016606929,0.100307144,-0.14627987,0.19375372,-0.041068133,0.018466264,0.3459286,-0.91689456,0.15703009,0.11630938,-0.08804042,0.24981003,0.26201835,0.2171746,-0.2822274,0.05175734,0.12091058,0.016076738,-0.226767,0.22188066,0.272475,-0.109724164,-0.112902105,0.2679655,0.13696404,-0.42721173,-0.18590552,-0.072897546,-0.06866332,0.23922937,-0.14579248,0.22437686,-0.12076242,0.29337966,-0.27264562,-0.1343828,0.2290263,-0.07302148,0.21499382,0.045259744,-0.14991716,-0.08029635,-0.24150509,-0.20855297,-0.355041,0.20753446,-0.008659266,-0.18363862,0.39080995,0.114224195,0.15759861,-0.24850108,0.06069835,0.018277848,0.20987259,-0.024826884,0.21057071,0.010870078,-0.017354498,-0.22973716,0.30180523,-0.03652596,-0.18823123,0.024653334,0.19376805,-0.00044988949,-0.39245686,0.09212297,0.03377043,-0.015553452,-0.077353954,-0.25645506,-0.16339579,0.49302673,0.031520687,-0.20568427,-0.080081716,0.2974518,0.16729802,-0.20670082,-0.3935588,0.3440051,-0.22037986,-0.020514322,0.011051739,0.20399629,-0.14367555,-0.1857072,-0.27693504,-0.41897056,0.005777998,0.07720515,-0.08065564,-0.22581491,0.17827566,0.112269476,0.20248015,-0.17023,0.055709258,0.2478244,-0.0970578,0.18151505,0.14816318,0.18567833,-0.20002294,-0.02516267,0.08878349,-0.1532402,0.10567135,0.056183778,-0.09970628,-0.22223537,0.28895319,-0.26557517,0.03324862,-0.070478424,0.36167106,0.10255583,-0.48585886,-0.06902621,-0.26123488,-0.097089045,0.12694,0.41352832,-0.20163184,0.2604675,0.07380157,-0.13456511,-0.20015348,0.37213665,0.17317735,-0.28675234,0.13384734,0.24487007,0.15699308,-0.034887604,0.0044780476,0.010994289,0.11072076,0.041572403,0.073237225,0.07034131,0.24737331,0.21089411,0.004104422,-0.02361241,0.38053334,0.015282047,0.03003386,0.29858008,0.21609971,-0.112785295,-0.051654626,0.2894584,0.035283305,0.31756905,0.09143268,0.05439356,0.14366907,-0.36169922,-0.041017577,0.032947533,0.17247356,0.05040313,0.19295055,0.11695124,0.033460964,0.23318124,-0.09659332,-0.056576133,-0.11098549,-0.31970233,0.14986347,0.2960029,0.2547437,0.06678692,-0.3071758,-0.0070934356,-0.13944839,0.1524591,-0.34597874,-0.046824347,-0.14055976,-0.19575006,-0.18893981,0.11197808,0.23960458,0.2304757,0.15116712,-0.19826,-0.1357519,0.15327558,-0.20190084,-0.08294955,0.0027501294,-0.2203427,0.001240196,0.16287215,0.12418833,-0.02493179,-0.090344325,-0.07499084,-0.37045375,-0.08401939,-0.20710446,-0.024843147,-0.20453295,0.052229747,-0.01452146,-0.33188272,-0.29646423,0.051708337,0.15073553,-0.010201225,-0.32349893,0.18478324,-0.23639677,0.14890592,-0.04413893,-0.1872667,-0.02638252,0.23730408,0.06438996,0.023365721,0.040639848,0.035107307,0.19772479,-0.13060331,-0.26027456,-0.021653218,0.6449667,-0.33557525,-0.04993795,0.06850598,-0.007397564,0.031861115,0.008207669,-0.0659761,0.03569887,-0.15259837,0.24577044,0.21406834,0.2443563,0.003149411,-0.025348837,0.086811155,-0.2651053,0.16927269,0.27721432,-0.035326537,-0.07273302,-0.032578763,-0.36391854,0.18845396,-0.27971163,-0.25618464,-0.19284935,-0.14540441,0.189876,-0.12945905,-0.058824062,-0.035664435,-0.26384944,0.24817969,-0.44885385,0.015047673,-0.24314766,0.12753421,0.21499987,0.12615658,-0.25044912,-0.23291107,-0.17284475,-0.27573124,-0.06519578,-0.21214002,-0.11637044,0.019780923,0.071454845,-0.055241387,0.36526924,-0.03616509,-0.1293287,0.21308883,-0.114938386,0.12075714,-0.1591679,-0.007923669,0.14338857,-0.15007204,0.25747144,-6.4589725,-0.3152344,-0.13424209,-0.040355302,0.0043953825,0.14403628,0.0529963,-0.13500868,0.012859481,0.08928441,0.036982678,-0.2422277,-0.035419945,0.12726454,-0.26603195,0.018647874,0.12389749,0.1291712,0.071993135,0.28010157,-0.22059055,-0.1852322,0.104030654,-0.29519257,-0.051120408,-0.10696206,0.19640765,-0.024543695,-0.063153885,-0.21766149,-0.2080141,-0.19130228,-0.15404384,0.0025612304,0.38710722,0.34285456,-0.014460025,0.21127865,0.007187482,-0.033751354,0.2274987,-0.3327156,-0.18912761,-0.096999235,-0.053061858,-0.3218353,-0.16590457,0.093479455,-0.6075539,0.09716908,-0.09441765,-0.007146201,-0.10369822,0.01577768,-0.2752385,-0.26930323,0.070248246,0.053313565,-0.010561416,-0.15237501,-0.08350626,-0.17274149,-0.2978573,-0.060768586,-0.076064676,0.15464994,0.016968766,-0.22362675,-0.2280604,0.17215642,-0.053571574,-0.017998217,-0.15940142,0.2245531,0.19236977,0.08558847,0.0664924,-0.16251448,-0.13355266,0.27355197,-0.012186861,0.19580081,-0.5576166,-0.031256434,-0.20645022,0.1805255,0.1160117,-0.031492155,-0.20923999,0.00012305053,-0.19513687,0.24891675,0.21985738,-0.13826472,0.0665095,-0.1421624,-0.14744128,-0.20248803,0.05323542,-0.06498035,-0.1913102,0.031117154,0.13025902,0.15685932,0.15696315,0.02877911,-0.2733761,0.11221138,-0.25576183,0.124734774,-0.20753811,-0.046120558,-0.41374144,0.14261799,-0.1533568,-0.37258986,0.06428399,-0.10291695,0.17428093,0.02048644
SER_4_B,-0.15143484,0.10494442,0.09715704,-0.21409236,-0.33976954,0.14304993,-0.12193702,0.20821986,0.34683472,0.19035316,0.048502702,0.16619763,0.089641884,0.32352808,-0.010123281,0.13128375,0.29126522,0.34743693,-0.09152188,-0.23085986,-0.06490998,-0.13538946,0.15957437,-0.09303158,0.3011764,-0.05877311,-0.42696896,-0.019364763,-0.008150056,0.06722367,-0.16845518,0.21498898,-0.13388209,-0.14680186,0.13077363,0.0044025565,-0.15479562,-0.017382465,0.08371055,-0.1510331,0.053800542,-0.091521576,0.23487847,0.054880973,0.012159343,-0.37542742,0.44204128,0.31925276,0.21160357,-0.14827156,-0.011588421,-0.42980283,0.21725948,0.08975009,0.08925463,0.23480281,0.039923124,0.08907999,0.037607342,-0.4552278,-0.22074184,0.1524833,-0.16904405,0.076159276,0.032673985,-0.5191459,0.01260402,-0.07684788,0.18026303,0.43342048,0.27135122,-0.2389752,-0.43252042,-0.097819276,-0.02787577,0.2893471,0.20903538,-0.09523128,0.015225439,-0.22642742,-0.15689434,0.11457351,-0.32596523,-0.09584915,-0.12962292,-0.14299686,0.13366999,-0.31708947,-0.34215707,0.26429436,-0.053925745,-0.19660069,-0.28917867,0.12640595,-0.06944794,-0.24623437,0.3288825,-0.08840942,-0.009433662,0.009498104,-0.3823098,-0.15789573,-0.13804649,0.09014818,-0.11298051,-0.13730904,-0.20011298,0.4232933,-0.011379165,-0.42501116,0.104527555,0.26458788,-0.11760508,-0.19926822,-0.19765398,0.06657612,-0.1333914,0.12332166,0.26341534,0.23809235,-0.021341104,-0.22951686,0.09335535,0.33060834,-0.40063557,0.2647946,0.26042226,0.17851481,-0.113559715,-0.2591509,-0.08032524,-0.12192037,-0.0003983216,-0.5199242,0.57571185,0.21248575,0.2479531,0.12575804,0.10475161,-0.14473648,0.22153006,-0.06954091,0.28640443,-0.27285406,-0.100351505,0.25979874,-0.02583576,-0.10202347,-0.10818336,-0.18247497,-0.22064611,-0.18244489,-0.30164573,-0.061950337,-0.39882463,-0.10123721,0.7155243,-0.15339008,0.03652308,-0.046890393,-0.24614495,0.0367457,-0.19611134,0.06124565,0.042677023,-0.08044081,-0.1737562,0.053665437,0.17969108,0.029859038,-0.072742395,0.14859053,-0.16434023,-0.21898022,0.12684886,0.06712992,-0.38597724,0.060229797,-0.26220706,-0.3323864,-0.2630879,0.06246973,0.17989989,-0.13119414,-0.11575097,-0.098474555,0.0377941,0.18111582,-0.0031473394,-0.08322075,0.0628769,-0.05529179,0.24247326,-0.09887738,0.20025966,-0.12009303,-0.1435164,-0.047000695,-0.016737081,-0.10247017,-0.12507851,-0.05283423,0.04696362,-0.123987906,-0.110870674,-0.26692244,0.0037071004,0.22567056,-0.37879783,-0.10268074,0.22815338,-0.015963538,0.13111629,0.2363231,0.133139,0.032162983,-0.036201086,0.0080427425,0.09243188,0.32366133,0.23594233,-0.17018147,0.19551896,-0.014037741,0.09071761,0.015086387,-0.06322101,0.096748404,-0.20048054,-0.08151639,0.23051187,-0.16111696,0.21907614,0.23591295,-0.61464906,0.29997104,-0.20444599,-0.068902545,-0.35179424,0.09568118,0.25410452,-0.05619722,-0.017502349,-0.083268866,-0.35395807,-0.18121037,0.22631273,-0.28591985,0.015828228,0.18833733,0.029299358,0.19030772,-0.1989361,0.08724506,0.04715293,-0.0690498,-0.053838454,0.13797599,0.07081072,0.11353433,0.19005847,-0.32927796,0.14521621,-0.24199486,-0.23200686,-0.2258375,0.035419572,0.21268508,0.16360632,-0.20886706,-0.07774656,0.17161705,-0.17076023,0.42662883,0.20612322,0.19627136,-0.2806401,-0.10094635,0.06816361,0.08142972,-0.018920721,-0.17365277,0.08119053,0.16487688,0.16928315,-0.09399737,0.096422136,0.42332003,-0.14617904,-0.06426653,0.45640895,-0.25858563,-0.18844487,-0.075440496,-0.054219775,-0.17929412,-0.15141739,0.16676494,-0.03861922,-0.14376208,0.3337787,0.07781754,0.07777463,0.219595,-0.21558873,0.3050957,0.15164168,0.03574307,0.047795586,-0.0130317155,-0.39614582,0.063441895,-0.013965985,0.23991384,-0.08080008,0.289542,0.10359052,0.24874295,-0.23478493,-0.097614996,-0.15909095,-0.12712662,0.20159699,0.12504914,-0.069028534,-0.02163995,0.16841576,-0.068490155,-0.016279599,-0.091175236,-0.063414045,-0.08545024,0.52536386,-0.35425493,0.0042172875,0.060344163,-0.11860615,-0.042124953,-0.062176805,0.12710078,0.40347657,-0.23466386,-0.11956847,-0.24129918,-0.3592526,-0.29091018,0.020357294,0.45127285,-0.21622725,0.028309345,0.23801978,-0.114336506,-0.07379646,-0.030189123,0.36713514,0.20999876,-0.1335018,0.0554819,-0.11264579,0.319465,-0.1298865,-0.030068459,-0.1934261,0.17990543,-0.39586776,0.21224608,0.18571079,0.31029698,0.24465838,0.02371112,0.21730796,0.25511557,0.1633879,0.02320158,-0.052530892,0.3426436,-0.2942783,0.19597611,-0.10392665,-0.057874575,0.21624902,-0.45725715,-0.38351423,0.31027266,-0.054390345,0.18199298,-0.17207573,-0.20576298,-0.20007423,-0.15143329,0.096291535,0.28184456,-0.15456446,-0.08753084,-0.18626867,-0.064468354,0.39006397,-0.40593743,0.1231014,0.03572696,-0.35812074,-0.17222747,-0.0724764,0.074024305,-0.004179972,0.38435388,-0.20784022,-0.06692479,-0.2724129,-0.30923682,-0.27422512,0.26456037,0.16956998,-0.014033428,0.23542932,0.09073861,0.49990445,0.25106007,0.1974309,-0.11004821,0.039361026,-0.04948604,0.13911445,-0.11428294,0.09373904,0.048921455,0.33522794,0.0941816,0.096099935,-0.12757829,0.01744291,-0.19609241,0.16859679,-0.2950941,-0.2699211,-0.32995185,0.14770997,0.10052334,-0.104301356,0.2014571,0.06943286,-0.12551293,-0.13786344,-0.50160193,0.029457977,-0.19556841,0.036339004,-0.10113624,-0.11479126,-0.2861059,0.07584128,0.12588514,0.31577063,-0.34495744,0.026743906,-0.39962655,-0.046063118,0.03845774,-0.010718553,0.14774531,0.23677154,0.06248717,0.021723257,-0.08413003,-0.36634853,0.1640248,-0.116332725,0.094326355,0.064601816,0.05538573,0.12605678,-0.16182809,-0.121951304,-0.25465807,-0.36475846,0.07313457,-0.19516416,0.26171917,-0.13431825,0.32891092,0.27767617,-0.45818508,0.088257484,0.17300378,-0.26250207,0.05265048,0.28588143,0.35679945,0.2068649,0.057388037,-0.114025585,0.31329703,-0.4759459,0.5137551,0.06953342,-0.24322453,0.21227768,0.024838697,0.15623799,-0.44954383,-0.15590912,0.15388812,-0.058646586,0.011697277,0.062013857,-0.1637562,0.011015382,0.15667802,-0.11707964,0.2396647,0.63614005,0.11622958,-0.09111535,-0.325567,0.27633575,-0.18754734,0.012421254,-0.5933314,0.08130065,-0.086893655,0.010880746,0.18684372,0.15821892,-0.12343777,0.026323332,0.048668865,0.078510225,0.10136009,0.25602508,-0.0895155,-0.577511,-0.14767398,-0.1597686,-0.10177217,-0.17061573,-0.019055346,0.039187707,0.0013056254,-0.29889503,-0.05594556,-0.048959497,0.23461752,-0.30516228,0.21458748,0.11041407,-0.19765401,0.060793098,-0.13167454,0.12723184,-0.50193024,0.07749354,0.062652096,-0.45634556,-0.27170798,-0.31229952,-0.3078024,-0.057502925,0.4163854,-0.08420618,0.33384123,0.12292957,0.09721276,-0.13611124,-0.06775289,0.22143908,-0.20722386,-0.108813405,-0.21025625,-0.09116754,-0.44881737,-0.1715507,-0.10189648,0.55504555,0.2306287,0.1777209,-0.110963054,0.15709405,-0.1381886,0.34543398,0.028442802,0.083345875,-0.02304241,0.110781446,-0.06572602,-0.11839632,-0.02316706,-0.07565749,0.049621608,0.34272617,-0.13102883,0.14058016,-0.4014254,0.021583188,0.028776173,-0.11659483,-0.13676919,-0.13994919,-0.07230177,0.15707673,0.09032279,-0.05202495,0.23034735,-0.053103846,-0.18184857,-0.24529468,0.089391544,0.13764438,0.21862501,-0.0053072367,0.14650835,-0.18792176,0.20325245,0.2969655,0.17658895,-0.013023773,0.25832054,0.13916233,-0.0254837,-0.046393085,-0.0912271,0.1729991,0.01571551,0.123318575,0.0017708358,-0.3007687,-0.225773,-0.051638756,-0.36359277,0.15687168,0.15874203,0.4503568,0.4470161,0.25381607,-0.050364997,0.008803177,-0.12873213,0.2153329,-0.06547712,-0.16674687,-0.30670992,0.016793307,-0.047816295,0.18675007,0.15145038,0.18177596,-0.22845463,0.3009223,0.2400788,0.32960856,-0.057941556,-0.117936805,0.12598032,0.025679098,0.024497567,-0.079987586,-0.0018691219,0.23138882,0.09187115,0.11380985,0.24338798,0.10127614,-0.2329391,0.05823286,0.069525644,0.119544975,-0.16219778,0.091293484,0.0034910303,0.09475725,-0.10777588,0.3766017,-0.07769086,-0.029739771,0.3156112,0.23826002,0.19852088,-0.12340182,-0.15886426,-0.028456025,-0.13377225,-0.29957852,0.20279373,-0.03774265,0.2913469,0.11549117,-0.4251457,0.34426618,-0.043015733,0.27373162,-0.18203768,0.28284982,-0.06846737,0.23217352,0.12071132,0.18902618,0.33168843,0.28615192,0.22230391,-0.25316444,-0.17391928,0.08584796,0.21657316,0.32453924,0.13447279,0.058477912,-0.52391493,0.17605531,-0.06741804,0.03824168,-0.03734277,0.2438537,0.15280248,0.016157908,0.2872465,0.16352904,0.0032349855,0.39800784,0.091856726,0.40698197,0.29935232,0.46144456,-0.38398567,0.095407255,0.10043952,-0.06426315,-0.035290394,-0.012438234,0.2459195,0.38648152,0.16224198,0.13818534,0.18864459,0.34725338,0.44255245,0.084742635,-0.0578988,0.03975242,0.0811941,-0.0031925214,-0.044188153,-0.04909092,0.12351437,-0.18620424,0.04940236,-0.0077465833,-0.17373261,-0.49253675,0.011859913,0.219409,0.04657768,0.092074096,0.29133764,-0.22642075,0.045243874,0.07756041,0.09022601,0.041381456,0.17312361,-0.32929516,0.06847772,-0.12790415,-0.026227785,0.3910371,-0.08275491,0.15125853,0.15598331,-0.0017104819,0.08517939,-0.13712975,-0.18253437,0.23319049,-0.036178257,-0.16345485,0.16153128,0.09606746,0.5745467,-0.11136684,-0.1975538,0.057959218,-0.0057225386,-0.33833754,0.076987796,0.074977435,-0.22774495,0.028721428,0.049753547,0.32512006,-0.06390071,-0.19494216,0.10397209,-0.08546472,0.26524612,-0.40445107,0.04206262,0.02345765,-0.073723614,-0.040106572,0.28507158,-0.28061897,0.2627788,0.08306775,0.039489336,-0.17492546,0.38661388,-0.0027337044,-0.058821782,-0.12919582,0.0071539097,-0.2509589,-0.33807766,0.17300317,-0.1299393,0.46687162,0.23581117,-0.19390616,-0.09712189,0.11311144,0.23543558,0.095831476,-0.25980076,-0.0144403465,-0.1779631,0.15083161,-0.23696645,-0.031485926,-0.025274808,0.049580425,0.08955774,0.08788126,0.03388252,0.1271717,-0.07929993,-0.36125273,0.28370956,0.12869997,0.26796412,0.16851267,0.1272687,0.35191575,0.17326447,-0.08236175,0.20205855,-0.1213085,0.03720596,0.06339009,0.046949904,-0.44658765,0.13286987,0.111533545,-0.10868788,-0.11248716,0.037747357,-0.18508531,-0.046311058,0.36168674,-0.0051375167,0.08931605,-0.0066334927,0.10175316,0.03936727,-0.08055522,-0.19223996,-0.2646189,0.149811,0.2544065,0.14499857,0.20647475,-0.1966041,-0.11995493,0.07062114,0.27133286,0.13227718,-0.04087911,-0.021384481,0.07545064,0.03961641,-0.20032416,-0.0885228,-0.15030518,0.18065949,0.2567478,0.06127476,0.020160718,-0.4042407,0.035898462,0.3717735,-0.085397996,-0.23110417,0.15522733,0.07481646,0.057981357,-0.15396354,0.20286706,0.37942857,-0.24596804,0.13302453,-0.07079826,-0.05627888,0.118436754,0.10217199,-0.17903945,0.044727396,-0.009338258,-0.28474548,-0.13293031,0.49272987,-0.166602,0.100749105,0.16112997,-0.2196344,0.17798932,-0.21492626,-0.1271978,-0.16883555,0.21131288,0.03657948,-0.2078578,0.095501535,-0.2104352,0.14441797,-0.06649151,-0.02011038,0.0495905,0.17826189,-0.12375302,0.23570447,-0.01632707,-0.03611662,0.03274835,-0.03445454,-0.23654258,-0.46871728,-0.0014883636,-0.14747041,-0.27863875,-0.30524096,0.25854403,0.039070882,0.10879404,-0.033142366,-0.029653637,0.028587969,0.16011645,0.27936158,-0.29645652,-0.019262917,0.07340916,0.29079148,-0.24752952,-0.19666372,0.3140365,-0.12812676,0.37630212,0.20879893,0.12178787,-0.12541012,-0.25140113,0.18670858,-0.21396533,0.13469924,0.2398268,-0.37875792,-0.3614683,0.015170132,0.11630705,-0.048776966,-0.2311164,0.10956897,-0.05557015,-0.19528161,0.31508523,-0.020027185,0.39973748,-0.040528525,0.24159637,0.0024630507,-0.34489092,0.41469288,0.019773537,-0.04166939,-0.2026918,-0.11579208,-0.06741798,-0.09353329,0.1479109,0.3005198,0.23693542,-0.28236625,-0.10995053,-0.20145589,-0.1899261,-0.10231676,-0.039632212,0.0065044127,0.2759392,0.0979483,-0.16748096,-0.54392064,0.46051744,-0.0032312714,-0.14952673,0.1438521,-0.13623826,0.26076192,-0.11620662,-0.16073762,0.25658542,0.069461495,0.11401113,0.20787127,0.16216043,0.13737816,0.46781093,-0.010095545,-0.035227843,0.21168198,-0.45361933,0.17164645,0.20492144,0.20389278,0.11104926,0.23271696,0.4571107,0.20037438,0.16885236,0.14388822,0.060885932,0.32139155,-0.06505473,0.043501,-0.037863836,0.2020463,0.03936922,0.2716054,0.11540736,0.09884393,0.22307181,-0.14442499,0.08979666,-0.16803706,-0.0948652,-0.07456407,0.16523416,-0.042061813,0.096387036,-0.07144146,0.13776383,0.22344203,-0.08757273,-0.17601849,0.102177,-0.12939416,-0.08165777,-0.16104731,0.034542408,0.032309905,0.077530265,0.25370082,0.14198032,-0.030304778,0.11762991,0.050715253,-0.07707238,0.0414237,-0.5061752,0.026269896,-0.1595988,0.01954404,-0.011037255,-0.028544607,0.095446214,-0.5151357,-0.12696731,-0.27736557,-0.23570307,-0.3502863,-0.14135948,-0.08941611,-0.2805215,-0.075915895,0.28309804,0.16006744,0.17851649,0.03410446,0.5470657,0.030147115,0.049571637,0.040489808,-0.122778766,0.20942624,0.1857995,0.053821635,0.029802736,0.11125889,0.13014443,0.029875092,-0.49266377,-0.3773577,0.12554713,0.2714815,0.05606346,0.09602278,0.015816262,0.22934332,-0.20353618,-0.17040016,0.14302923,0.26695007,-0.3875267,0.12234229,0.028751293,0.33984914,-0.0010082674,-0.29357815,-0.13893543,-0.12098618,-0.06727321,-0.07524654,0.133634,0.043037925,-0.31660762,-0.5231512,0.08111637,-0.24993303,-0.24605867,-0.08279608,-0.16803668,-0.18813251,-0.09635595,-0.08371136,0.09341621,-0.32785812,0.04067716,-0.17103347,0.091683455,-0.42457622,0.015687414,-0.14659269,0.03285773,-0.19532488,0.06685324,-0.38793942,0.018905446,-0.0036787947,-0.1654224,-0.033854052,-0.16765022,0.09469925,0.0030553848,0.21077825,0.023201061,-0.20029289,0.027863555,-0.11870976,-0.18704173,-0.013945995,0.23531152,0.1810139,-0.19399731,0.3481524,-6.1035943,-0.20455708,0.3767683,-0.15469499,-0.16731474,0.06253915,-0.11814023,-0.15561025,0.015714144,0.36217096,0.06214413,0.020268919,-0.44015142,0.04032786,-0.14100973,-0.050234888,0.43382558,-0.2797273,0.20758241,0.14804815,0.10495425,0.047667556,0.041902512,-0.086606994,-0.18475933,-0.24154092,0.09525894,0.45085093,0.025528995,-0.31895217,-0.1723525,-0.14541405,-0.009109911,-0.0056577814,0.07453761,0.004340437,0.17541204,0.11791832,0.1839645,-0.079876125,0.017713547,-0.28832752,-0.59084415,0.12909858,0.00034580586,-0.20604025,-0.19537634,0.19117025,-0.2331498,0.33660117,-0.10841203,-0.17279121,-0.24131268,0.24787274,0.067658894,0.012226741,0.36464608,0.1163791,0.059072156,-0.022926064,-0.30482715,-0.06103827,-0.28008956,-0.09443992,-0.13555738,-0.20539045,0.07351689,-0.35958424,-0.08217786,0.18943267,0.056175113,0.085200876,0.24466734,0.32114893,0.11588212,-0.17793582,0.021302385,-0.07878552,-0.1290167,0.2997866,-0.2079001,0.2685488,-0.38287157,-0.25685614,0.022071537,-0.039477237,0.3085951,-0.0941895,-0.047706325,0.32606533,0.016424783,0.25222108,-0.029760756,-0.046703648,0.03588005,-0.06207284,-0.09300264,-0.55590135,0.044357724,0.096726134,-0.23424713,-0.1759158,0.14493795,-0.057713658,0.18350795,0.23450911,-0.019315511,0.09939119,0.05093137,0.1311427,-0.07264531,-0.235221,-0.215917,-0.04233003,-0.15048608,-0.110536166,0.08069744,-0.21813077,-0.14913261,-0.05890645
SER_5_B,-0.30752325,0.27487153,0.1020414,0.106007576,-0.020802813,-0.059255578,-0.1378662,0.3349116,-0.016987825,0.4342092,-0.08610423,0.09372017,0.31375274,0.19731551,-0.03047157,0.20610522,0.28312412,0.09484562,-0.22967565,-0.1949573,-0.08477929,-0.15932506,0.3277154,-0.04219589,0.383436,0.016660558,-0.25503373,-0.14777997,0.10011777,0.07914104,-0.3490496,0.07320937,-0.30051205,0.06691544,-0.01031904,0.06819263,-0.2833856,0.09532779,-0.0033042997,0.00975172,0.2126432,0.18818416,0.61284024,0.06210901,0.23352373,-0.099453725,0.24077868,0.23072156,0.15800238,-0.15040247,-0.25608984,-0.06128324,-0.07011379,-0.0953143,-0.091778725,0.36696282,0.0784834,0.019299611,0.013066955,-0.22870941,-0.2970318,0.19405857,-0.07456801,-0.17099981,0.0029101889,-0.3458515,0.18966588,0.14821388,-0.01696602,0.04063844,0.2827849,-0.271706,-0.38373983,-0.117422566,-0.27001527,0.053077552,-0.005735038,-0.072157875,-0.000720925,-0.08227329,-0.2612531,-0.13645448,-0.3227156,0.068982534,-0.119388826,-0.15373076,-0.37786317,-0.3717815,-0.03648007,-0.064879276,-0.09058952,-0.09881322,0.057186235,0.18884887,-0.29085037,-0.08669936,0.0815324,-0.04624286,0.23861079,-0.09085444,-0.24280268,-0.16889012,0.016343962,0.15933564,-0.024371767,-0.15256916,0.17799067,0.3194525,-0.24879652,-0.15755816,0.13822524,0.28986698,0.08662025,0.2687482,-0.045946456,-0.11910153,-0.28848338,0.19702165,0.19272687,0.13950944,-0.23491299,0.13994919,0.0530198,-0.009262309,-0.034108106,0.3506489,0.38003233,0.34679505,0.13363452,-0.40692905,-0.21766298,0.017301135,0.09265819,-0.29759675,-0.055540435,0.045961447,0.42811295,0.38957462,0.13303189,-0.1694428,0.09166241,0.059545994,0.0032556395,-0.16609502,-0.22124802,0.46130666,-0.046917573,-0.34950715,0.009982457,-0.10580119,-0.100371346,-0.16858506,-0.088222474,0.00039223494,-0.33274662,0.10884667,0.40048826,0.13901463,-0.010252886,0.032968335,-0.054356635,-0.0107666105,0.1432769,-0.03547819,-0.060051903,0.14106624,0.019578028,0.13607772,-0.024077525,-0.027532866,-0.12968189,0.27359864,0.025211265,-0.071461506,0.017449858,-0.08267975,-0.10385338,0.049610466,-0.35954696,-0.30610344,-0.04530807,0.03465328,0.24038881,-0.17844991,-0.15623493,-0.17809665,0.30035612,0.044564806,0.40994793,0.06969851,-0.04935452,0.05881207,0.19117697,-0.08834705,0.084178194,-0.031420875,0.013770942,-0.19486158,0.016827546,0.1427968,0.17256495,0.15625775,-0.10150334,0.050241806,-0.08908652,-0.18883115,0.3836332,-0.07068823,0.1473215,0.09744228,0.10919108,-0.11780816,0.0789461,0.05571566,0.13301651,0.0058860346,-0.2639118,-0.10899909,-0.043821186,0.18917346,0.018147072,0.119677424,0.119322,0.09542644,0.31304076,0.00965639,0.109949246,0.040299922,-0.045124307,-0.23601662,0.024809113,0.11510309,0.0032491586,0.38884422,-2.1311004,0.26810017,-0.218168,-0.39925778,-0.06635209,0.034560468,0.14203589,0.24136467,-0.29350314,-0.10971684,-0.059890438,-0.16661866,0.22949572,-0.040522784,-0.15208447,-0.10419223,0.09627342,0.027189527,-0.13218836,0.15155229,0.08547838,-0.06201443,-0.19387114,-0.018886456,0.27350596,0.007386841,0.46722737,0.14990439,-0.08662808,-0.04901596,-0.17456026,-0.039495625,0.20443797,0.11397403,-0.083549395,0.017487448,0.18671179,0.092226185,0.05726409,0.12915684,-0.07600201,-0.13222362,-0.18922932,0.09909522,-0.2485269,0.15126213,0.10274624,-0.18988785,0.16248465,0.065563925,-0.23790619,-0.024222044,-0.020522097,0.18449143,0.174263,0.028073682,-0.009984459,-0.18060301,0.067125015,-0.13491276,-0.17042433,-0.029603003,-0.30243635,0.29984266,-0.16567199,-0.38398105,0.27235296,0.004029097,-0.0024650414,0.43320408,0.037024856,0.06620967,-0.03179787,0.16389905,-0.1521308,0.14742486,-0.1700452,0.054284476,0.056857567,0.24303254,-0.14265543,0.008350516,0.102981284,-0.027397906,-0.3908583,-0.10475609,0.08522854,0.13936096,0.118761376,0.07784514,0.23637395,-0.14088835,0.047290836,-0.0703962,-0.11565374,0.15358701,-0.10479346,0.09304868,0.31122077,-0.04684477,-0.19671977,0.17808606,0.0064554135,0.067365944,-0.078619234,0.16961561,0.120636456,-0.12446529,-0.32275906,0.07241098,-0.2993029,0.033167608,-0.2069976,0.400612,-0.107040554,0.14990847,0.1705132,0.0047501326,-0.1829473,0.110370435,0.22659793,-0.02369198,-0.11009819,-0.18126579,-0.11031277,-0.066097654,-0.27620873,-0.041718118,0.15673907,0.053919375,-0.20437196,0.16463253,-0.112728275,0.13027069,-0.047893457,-0.2429671,0.31975266,0.66122687,0.26760092,-0.12612537,-0.057278316,0.084948346,0.0015083146,-0.18077621,-0.1428911,0.008343312,0.029671166,-0.37486178,-0.34768397,0.29080164,0.25929195,-0.030561568,-0.26263642,-0.41620466,-0.035746623,-0.1010266,0.07814354,-0.1154201,0.013791345,-0.076727375,-0.13006167,-0.0027590953,0.098572955,-0.07207305,-0.09843132,0.25301158,-0.4577596,0.004224099,-0.10999861,-0.16836119,-0.20401135,0.16010255,0.1352039,0.10362686,-0.15078124,0.00869113,0.09585601,0.09933234,-0.04710304,-0.20477034,0.14153245,-0.14578778,0.308715,0.2597586,0.1565147,-0.2715812,-0.07019431,0.05145783,-0.2093856,0.04349483,0.27234253,-0.15996581,0.3537983,0.31668183,0.16593708,0.1259244,0.041981723,-0.16883135,0.15042771,-0.14346382,-0.4081632,-0.41076493,-0.026107442,0.025087185,-0.21206164,0.14586914,-0.04196213,-0.17293973,-0.1772068,-0.34031412,0.11635097,-0.43203828,0.10208342,0.12760726,0.09906945,-0.3773426,0.30300376,0.048896793,-0.1508507,-0.36125797,-0.049243975,0.017058553,-0.13285437,0.14980459,-0.07321651,0.30613708,0.39330614,0.1577691,0.0058377804,-0.14053483,-0.21657865,-0.28655872,0.102597825,-0.21927693,0.24866965,-0.040719002,0.1734115,0.01922983,0.1359123,-0.45986018,-0.12297479,-0.05173514,-0.20609982,0.29941332,-0.04487384,0.16163538,0.36220294,-0.2905036,-0.28583708,0.37516207,-0.010569434,0.21724689,0.49115464,0.029708669,-0.13643953,0.01958306,-0.112215266,-0.13249545,-0.32581496,0.07456217,-0.11258296,-0.24775971,0.32800013,0.054117545,0.26583922,-0.6249676,-0.0025496322,0.17616741,0.02873811,0.14438373,-0.11213723,0.042378183,0.14367655,0.23788024,-0.0508968,0.1215636,0.18427168,-0.0044085733,-0.056308262,-0.0127441455,0.19413593,0.06445666,0.13902508,-0.46419507,0.19485112,-0.23142633,0.06448693,-0.01637638,0.01803376,-0.12058951,-0.31190497,0.2604569,-0.024248183,0.19345476,-0.022144914,0.09680421,-0.0877253,-0.13639954,-0.18189776,-0.09466126,-0.14055312,0.04459408,0.067125276,0.08365378,-0.24981202,-0.111675896,-0.06271489,0.030523293,-0.20986475,0.10586899,0.026123691,-0.17472023,-0.21926376,-0.12818749,-0.016521728,-0.3372223,-0.06275911,-0.011273932,-0.2643669,0.12036966,-0.04787823,-0.3083321,-0.11428556,-0.12919074,0.16354862,0.41989437,0.10595604,-0.09122871,0.071280316,0.11390556,0.2055297,-0.011926793,0.20606805,-0.0035322183,0.088424765,-0.06204686,-0.02720029,0.013550368,0.25983152,0.16683608,-0.04878142,0.3006852,-0.046782155,0.12513465,0.0842429,0.002334801,0.14063679,-0.2321919,-0.015798343,0.14254041,0.07596867,0.09990582,-0.14220874,-0.019845983,0.041536678,0.008380922,0.08813127,-0.3463981,-0.0495363,0.17684917,-0.09036547,-0.16306898,0.004007564,0.034409024,0.34330815,0.15066119,0.18707545,0.10457923,-0.16910958,-0.11105833,-0.26204237,0.016254915,0.1998982,0.2426542,-0.16052705,0.039918665,-0.24979424,0.09345615,0.37873808,0.18083705,-0.07858883,0.17389892,0.10317834,0.096247956,0.040553868,-0.0962132,-0.14080487,0.17641743,-0.08292946,0.08540697,-0.055928707,-0.36414218,0.078435995,-0.16009696,0.031723794,-0.016757617,-0.17794053,0.5502678,0.04418877,-0.23296654,-0.22597781,-0.056758445,0.20982657,0.234533,0.051379163,-0.12973915,-0.31373587,0.35299727,0.42950264,0.084919736,-0.07898377,-0.33483586,0.4328252,0.0645781,0.20706552,0.12649132,-0.0020321899,0.07648139,0.28580955,0.012943684,-0.0071721165,0.1361187,0.15729627,0.39780992,0.1211058,0.17702857,0.2764902,-0.030290725,0.020300658,-0.041255645,0.5060846,-0.05430155,-0.013192106,0.049347326,0.05568717,-0.045248818,0.097230464,-0.2834137,-0.22065943,0.055777192,0.49866524,-0.017262349,-0.18685107,-0.13724416,0.024435528,-0.002425753,-0.27607423,0.13556735,-0.1831425,-0.10090557,0.04195167,-0.17091958,0.40022913,0.15575297,0.054276537,-0.16468222,0.58226615,0.14477189,0.16340941,0.14517671,-0.0054543987,0.1877716,-0.20508543,0.12636383,0.020966318,-0.33562484,0.056837,0.1232014,0.2903069,0.053548593,-0.016176052,-0.46124026,0.10730716,0.21477728,0.09973845,-0.06556903,0.001229254,0.17888105,0.06273259,0.09918645,-0.34750637,0.09945126,0.41219085,0.24026576,0.001045601,0.14117749,-0.06643174,-0.008066969,0.30245566,0.2062483,-0.10144937,-0.08463752,0.028805811,0.445098,0.16396819,0.09822483,0.04884151,0.085982114,0.035088554,0.15348306,0.25626817,0.30249578,0.11225622,0.19504662,-0.04859797,-0.13262083,-0.058252938,0.015152143,0.17670159,-0.22801924,-0.37115744,-0.017303074,-0.1899079,-0.147047,0.18117519,-0.26828924,0.045671765,0.3421214,-0.10234242,-0.21499331,-0.12279887,-0.09072341,0.010256043,-0.023894051,0.027039835,-0.18668278,0.21921757,0.31339952,0.19717461,-0.31366512,-0.13118903,0.24997161,0.0021704368,-0.27280527,0.24840328,-0.11084875,0.1262091,0.06755423,-0.12727869,0.019994508,0.01466657,0.28770187,0.043532,-0.39537477,0.20454802,0.048311286,-0.39336985,0.0762856,-0.1808888,0.02891429,-0.109620064,-0.042647094,0.2530299,0.00054706546,-0.18120083,0.34211195,-0.035177417,0.18143252,-0.20057891,0.16223183,0.02951266,-0.22643888,0.17504826,0.22673038,-0.018289097,0.34756845,-0.30277187,0.08890124,0.027872698,0.33997616,-0.16239536,-0.043999832,0.059215594,-0.2629401,-0.056588862,-0.10442354,-0.08915749,-0.1595073,0.017324015,0.0773887,0.15506588,-0.16835862,0.024629619,-0.044728957,0.1527915,-0.22052002,0.14864664,-0.17981958,-0.35573468,-0.16190417,-0.1239508,-0.17458083,-0.03882146,0.033990756,0.051505044,0.03554815,-0.14385907,-0.1906392,0.122230455,0.22782254,0.08044951,0.1360118,0.533461,-0.18716097,0.14168963,0.19887994,-0.05594741,-0.07341086,-0.2374693,0.09515041,-0.29026246,0.12373426,-0.4312894,0.20232305,0.12935111,-0.00051734515,-0.13641813,0.26146412,-0.076792896,0.029687336,0.095691524,-0.18737617,-0.20476834,-0.20547986,0.23725237,-0.19585155,0.06655243,-0.022305202,-0.33080524,0.076871164,0.21018521,0.14769107,0.1167384,-0.14603284,-0.09256772,0.0945643,0.2657431,0.062087085,0.15531927,-0.10249589,0.10491523,0.16687629,0.000935779,-0.0719165,0.16835386,-0.18080194,0.5428397,0.14649434,-0.19099921,0.03696514,0.039051015,0.3248794,0.177329,-0.15709767,-0.08087896,0.36655536,0.22360201,-0.13871756,0.030665059,0.14279209,-0.22510388,-0.0653044,-0.19626565,0.020081477,0.12108299,0.2275482,-0.17032586,-0.08479997,0.47422624,0.06785344,0.06413889,0.06080538,-0.106673375,0.120068975,0.1949155,-0.15974149,-0.05710108,-0.17025585,-0.055544816,-0.087203614,0.17487885,0.007742026,0.031902943,0.27789524,-0.035045475,0.21013005,-0.09495637,0.2477165,0.16686861,0.15237339,-0.04413928,0.33497015,-0.19770636,-0.07710285,0.26693603,-0.109774105,-0.11717229,-0.14841232,-0.10959357,-0.06497067,0.15949516,-0.35042292,0.110480174,0.17463835,-0.027390333,-0.14377525,-0.12723124,0.030407945,0.08904592,-0.14273772,-0.07635589,-0.0656312,0.030439856,-0.14079483,-0.0016766709,-0.17912269,0.2041246,-0.10202162,0.2632915,0.04704684,0.0474596,-0.058322646,0.013237806,-0.0010583008,-0.06565041,0.0033350252,0.13406385,-0.34070653,-0.30564487,0.12365551,0.05619533,-0.13418554,-0.08019067,0.33792767,0.26701522,-0.15438451,0.09210215,-0.020775804,-0.022392036,-0.010287012,-0.11610904,0.23209442,-0.27210063,0.18945011,0.064584106,-0.18444242,-0.0059268987,0.039833803,-0.32482255,-0.18525645,-0.22519374,-0.031158226,0.36084858,-0.051143046,-0.15373473,0.027710011,-0.11544522,-0.25911814,0.18543139,-0.1149554,0.17959455,0.26717076,-0.03688385,-0.50502044,0.2653278,-0.32856897,0.11864025,-0.06176075,-0.04981387,-0.005279669,0.33804613,-0.12649179,0.040392302,0.19802278,0.17926073,-0.0094396155,0.19967955,0.11587887,0.1769656,-0.05861938,-0.31549132,0.2574887,-0.10401659,-0.10238491,0.21155258,-0.038354866,-0.031129556,0.1837951,0.3391487,0.071048245,0.022777464,-0.18611628,-0.22276865,0.07039419,-0.004869108,0.045342304,-0.30618373,-0.057856202,-0.083280385,0.14139307,0.08689517,-0.037239194,0.38109362,-0.10831519,0.21442898,-0.24140894,-0.41706392,0.1532089,-0.04303251,0.297589,0.28904322,-0.28293294,0.034148447,0.035006054,0.29057595,-0.554311,-0.04026146,-0.16859426,-0.22864121,-0.2678665,-0.0062570344,0.067557365,0.3771935,0.3867581,0.1601936,-0.2159264,0.23297063,-0.05426351,-0.23472275,-0.16999508,-0.21988392,0.2085612,0.13972226,0.03492121,-0.038166545,0.36105084,0.18035963,-0.17417812,-0.103864305,-0.16828382,-0.10595487,-0.2392673,0.023140503,-0.080312885,-0.20339943,-0.08723629,0.09848314,0.24543867,-0.0018285055,-0.21853405,0.20109165,0.008559158,0.020757807,0.26515713,-0.13539733,0.25980216,0.26400265,-0.14986436,0.37436527,0.26169124,0.048624977,0.27450284,-0.3157052,-0.25689524,-0.15931371,0.14565468,-0.18594179,0.23321725,-0.025876341,-0.028871069,-0.19931956,-0.1080452,0.024988625,0.2220624,-0.26811484,0.022851542,0.027104812,0.37624794,0.043702822,-0.3046035,0.20482136,-0.2705848,0.1376788,0.046123143,-0.24329475,-0.29433066,-0.17454043,-0.27682254,0.11064252,-0.41991293,-0.071261875,-0.16854838,0.044237193,-0.016895935,0.081077,-0.06832319,-0.021989597,-0.19765855,0.041707296,-0.06966827,-0.038926043,-0.17697494,0.1934516,0.010858908,-0.1548125,-0.1631832,0.032315057,0.20747437,-0.09646263,0.10662586,-0.15981556,-0.21180753,-0.024430994,0.2403047,0.17426473,0.1314541,-0.11685712,0.06482013,0.2686823,-0.15341088,-0.019530365,0.17705956,0.19880308,-0.3488831,-0.22448449,0.4022649,-6.689594,-0.34418055,0.24569535,-0.18735367,0.058485568,0.16688003,0.11082004,-0.07586268,0.1794122,0.2470603,-0.2744262,-0.39754358,-0.18428683,0.2085887,0.18004923,0.15331575,0.36595425,0.038020797,-0.16374502,0.012826331,0.1074397,-0.13878584,0.02656471,0.084693484,0.10695031,0.053487077,0.13165507,0.18573771,-0.18200004,-0.09948716,-0.23637307,0.10419494,-0.095417365,0.08642188,0.28052562,0.23064764,-0.047579426,-0.15675654,0.20443697,-0.003203473,0.25668067,-0.1329473,-0.25783178,-0.066089004,0.032257088,-0.13785993,-0.31070966,0.13906555,-0.102982655,0.27469707,0.24506527,-0.19250809,-0.29200137,0.124351874,-0.16735406,-0.12236111,0.10602336,0.2224465,0.29292864,-0.09574999,-0.115871094,-0.101473175,-0.11979096,-0.29551014,-0.20867115,0.030866982,-0.07427722,-0.17553882,-0.13107337,0.14641494,0.3021643,0.20750925,-0.09964137,0.20253704,-0.06270216,0.11936876,0.118346296,-0.22743958,-0.20411743,0.3441623,-0.164841,0.2840669,-0.3004763,-0.19856982,-0.0062202616,0.115262374,-0.034962688,-0.27532557,-0.17210206,-0.026642988,0.026154678,0.49193907,0.10994637,0.039316252,-0.056852907,-0.19755319,0.012216269,-0.31681114,-0.0004194169,0.113929495,-0.0429873,-0.09890549,0.0979722,0.20572026,0.12967572,0.22610451,-0.061032265,0.13699523,-0.030116646,0.22442116,-0.3229235,0.038027342,-0.5647941,-0.20026632,-0.10346024,-0.18651877,-0.13541202,-0.3728459,-0.19532974,0.08492538
LEU_6_B,0.017894888,0.29807693,0.1667856,-0.116788045,0.06340444,0.00020218486,-0.09988788,0.2019476,0.14160289,0.6820122,-0.115919136,-0.015297938,0.067118734,0.36348635,-0.015028973,0.12221204,0.12435758,0.15782192,-0.13041449,-0.016188053,0.10786425,-0.066571705,0.1962342,0.19688925,0.3064226,0.27047884,-0.1065704,-0.021168038,-0.0007476099,-0.046015546,-0.27209392,-0.11235778,0.039729707,0.30139658,0.20605333,0.028627265,-0.121602535,-0.13725294,0.24698839,-0.0033569501,0.08221873,0.19513503,0.24205852,0.13198976,0.23644385,-0.30845505,-0.038308416,0.1317441,0.24916275,-0.074850634,-0.0025352687,-0.028604595,-0.0022918803,0.25234318,-0.27234825,0.062836654,0.25026828,-0.29550388,0.12653628,0.035330366,-0.31964055,-0.030017352,0.26988485,-0.118619084,0.0072503453,-0.2996286,-0.069295645,0.2545277,0.131275,-0.05396331,-0.030412743,-0.47961766,-0.5385357,0.18754187,-0.18060316,0.27616096,-0.2440219,0.43245614,-0.0013046422,-0.04328575,0.050508555,-0.021743001,-0.25014478,-0.0030062061,-0.056558035,-0.15876216,-0.26032794,0.11449093,-0.32533142,-0.20730704,-0.047743496,0.02722577,-0.36127433,0.03310047,-0.032491274,-0.22352368,-0.20591259,0.21498127,0.033287182,-0.22249165,0.012734466,-0.24005915,-0.13556129,0.08592208,-0.13831028,-0.0141593795,-0.03145555,0.3205002,0.09412178,-0.10441408,0.09170841,0.15786512,-0.07806284,0.18318668,0.11350237,0.008222819,-0.24133065,0.15657295,0.32258254,0.15384664,-0.25261825,0.06800298,0.103960216,-0.3982401,-0.21509278,-0.055692326,0.08372415,0.29711244,0.1497331,-0.064029224,0.117856435,-0.2115177,0.024070606,-0.077447906,0.00037510804,0.15723863,0.3731615,-0.1431776,0.06903873,-0.037651446,-0.07830085,-0.060667835,-0.11935815,-0.022629835,-0.17057268,0.57289183,-0.123216204,-0.2985518,-0.3156852,-0.20317674,-0.06703219,0.026127085,-0.16359095,0.015470082,-0.22978576,0.071045265,0.0238088,-0.18772738,-0.03435992,-0.03662295,-0.058382068,-0.07796566,-0.014125676,-0.13578682,-0.15547661,0.03653571,-0.08453339,0.35105813,0.018187745,-0.19601864,-0.28524935,-0.087787844,0.14879736,-0.25961965,0.2587314,0.26260266,-0.19699618,0.13743216,-0.18259585,-0.12947673,0.0840171,0.16247138,0.17785315,0.12030377,-0.17674959,0.25104105,-0.10844528,0.16917984,0.21096976,0.0017704767,0.38368958,-0.03457202,0.290793,-0.22674932,0.3000384,-0.041551143,0.09721368,0.09602654,-0.069497794,0.124810696,0.10257214,0.08176025,-0.11448742,0.06988596,-0.092435256,-0.4285853,0.11030424,0.1840551,-0.23767836,0.11268956,0.19068831,0.109188415,0.23249705,0.3957838,0.123303786,-0.04846661,-0.16977015,-0.00013730943,-0.10188117,0.20856902,-0.0906499,0.100728124,-0.027856175,-0.024052031,0.17452592,0.09198421,-0.019762196,0.030450847,-0.18538637,-0.0015328161,-0.046632987,-0.19352107,0.07226348,-0.17474605,-1.1594205,-0.071551435,0.017742608,-0.04879499,-0.2041363,-0.20216553,-0.030450072,0.18136749,-0.02896211,-0.18230723,-0.021318903,-0.3253109,0.19861922,-0.06054654,-0.23169193,-0.15239257,-0.010487051,0.24334908,0.01681537,0.054516878,-0.12461894,-0.0035399026,-0.13044189,0.117920496,-0.06968152,-0.21721107,0.3971525,0.31750914,-0.12693067,-0.24866423,0.20154372,-0.005371237,-0.26451308,0.103281245,0.16658019,0.24258512,-0.029134417,0.07035842,-0.18751037,-0.118828766,0.21905443,0.089437924,-0.15319902,0.014052432,-0.055467527,0.085177675,0.022866009,-0.28087607,0.08363881,-0.14755997,-0.15231347,-0.16781537,0.055446684,0.6896639,-0.08861633,-0.059909005,0.16850281,0.12427585,-0.11885493,-0.123924285,0.16410738,-0.28283083,-0.11112759,0.117548384,0.03601206,-0.09936055,0.24403031,0.034525372,0.03526309,0.09864793,-0.33289528,-0.24828759,0.15593916,0.20125999,-0.21605298,0.068931326,-0.019696198,0.19583067,0.26202285,0.20685975,0.17562528,-0.16420831,-0.071165085,0.109819956,-0.23588583,0.186821,-0.00055388303,0.044279184,0.083536744,0.008886995,-0.20532605,-0.07162341,0.06009604,-0.03761139,-0.16001245,-0.016449131,0.1289674,-0.2916317,0.2791295,0.21977952,0.034397148,-0.019815793,0.22539505,-0.13514419,-0.054629352,0.392702,0.16124369,-0.053013388,0.0039460585,0.22120136,-0.1600524,0.057074513,-0.21124679,0.08943875,-0.0041899034,-0.15183954,0.23207156,0.37404615,0.056156907,-0.13820651,0.44280648,0.2285934,0.07425616,-0.051589713,-0.16314027,0.19823292,-0.29399636,-0.38504696,-0.034398817,0.26158565,0.039689824,0.31484848,0.15013652,0.03580237,-0.14972919,-0.019344347,0.18397795,0.5567308,-0.0036474841,-0.13962601,0.014530749,0.21570362,-0.023030298,0.016165588,0.008582962,0.27155232,-0.35124257,-0.26830736,-0.28773153,-0.2692547,0.018092368,0.08371027,-0.18856488,0.2008587,0.12179464,0.07796003,0.1992807,-0.05542295,-0.14780913,0.12240389,-0.37299266,-0.03249093,0.13977398,-0.095097914,-0.36461243,0.07206894,-0.0031303107,0.16622908,-0.06332128,-0.27656198,0.12829195,0.2495804,0.072839364,0.13931479,0.36707053,-0.16009592,0.056175657,-0.33327776,0.14099336,-0.43621126,0.29260117,-0.28758374,0.49047548,0.038680233,-0.024809515,0.20633934,-0.13495661,0.29270625,0.32718867,0.2576973,0.051028658,0.082461104,0.25080174,0.52828354,0.07279766,0.16413158,-0.23606011,-0.44999105,-0.17828166,-0.35289934,-0.44849986,-0.10713008,0.11924916,0.20947218,-0.21758841,0.0864426,-0.20965941,-0.051511057,0.134234,-0.29833958,0.14040376,-0.1883429,0.26612374,-0.07952753,-0.032675408,-0.002642241,-0.0729675,0.08220288,-0.39863566,-0.1530988,0.047018763,-0.105728164,0.205606,-0.008278866,0.41818434,0.28756523,0.5605911,0.15042801,0.026576467,-0.35870034,0.07004072,-0.37174532,0.030530378,0.054262713,0.09560795,-0.2888097,0.31913638,-0.23487666,0.035178017,-0.17733727,-0.021643497,-0.06333261,-0.064921476,0.033177104,-0.2636742,-0.13962725,-7.8130535e-05,0.11454738,-0.10978694,0.3397055,0.12185993,0.02697857,0.2016882,-0.053682603,0.21945904,0.13243069,-0.37993246,-0.096431784,-0.15368482,0.1681856,-0.113503814,0.037506483,0.34580895,0.34128836,0.31402823,-0.2663633,0.24038567,-0.17648885,-0.17208357,0.07766284,0.07117583,-0.0038663414,0.085571826,0.48893124,-0.2633724,0.1553612,0.032699462,-0.0519427,-0.04096996,-0.4144063,0.29883584,-0.21009113,0.114760965,-0.3168424,-0.049435284,-0.02867079,0.19562413,0.12138693,0.22398667,-0.13754621,0.03758302,0.24994335,0.20610085,0.27817377,0.29718247,0.11999427,-0.17831254,0.2529308,-0.26760456,0.010951837,0.22498327,-0.077719696,0.425566,0.19899642,-0.1683665,-0.045356363,-0.20344864,0.3344025,-0.0741269,0.17991453,-0.08495872,-0.08173876,0.12435407,0.14390974,-0.30101958,-0.31866816,0.22503741,-0.056478653,-0.36993134,0.07975158,-0.3005483,-0.18534446,-0.32723743,0.05522907,-0.13380122,0.40979156,-0.3095913,0.36493906,0.11823676,-0.03080921,0.28438592,-0.021429637,-0.058579694,-0.33847573,0.103017084,-0.36336076,-0.13015515,-0.12843083,0.03619184,-0.003111779,-0.24090467,0.32559556,-0.03334007,0.20429645,0.37160513,0.04004417,0.12825687,-0.42953223,-0.011103875,-0.0641452,0.019037006,0.27922493,-0.095047645,-0.1198037,0.031574037,-0.049623385,-0.10878208,-0.11992548,-0.037787464,0.11383599,-0.192944,-0.037920233,0.24690233,-0.013914794,-0.03617155,-0.015025337,0.009350385,0.10565658,0.1259683,0.032947578,-0.25894773,-0.21443827,0.14267059,-0.024341445,-0.058143318,0.0134147,-0.26075587,0.4205969,0.42240882,0.016421556,-0.38923922,0.21379772,-0.00078152627,-0.3727073,0.16269808,-0.02759803,-0.26437214,0.1888074,0.26724455,0.069423884,-0.26172057,-0.38667125,-0.20922169,0.02856398,-0.07711221,0.093819864,0.27166632,0.053266913,0.19031811,0.112375244,-0.2943844,-0.019111821,0.11436863,-0.16355088,-0.098411076,0.299356,-0.17097409,-0.11086241,0.3282494,0.13136654,0.07307737,0.06575664,0.2734501,-0.0310461,-0.05248388,-0.09490099,0.1705874,-0.017645745,0.017833741,0.03189903,-0.11912289,0.25479278,0.19309117,0.5080914,0.23073247,-0.20233673,0.014053949,-0.019869512,0.3607604,-0.20029144,0.16084997,-0.12239499,0.0564017,-0.07921133,0.1540172,0.051115178,-0.2563786,-0.33062822,-0.04097406,0.60674703,0.34212852,0.12651621,-0.17246409,-0.024860922,-0.1255429,-0.24289148,-0.0684382,0.07871412,-0.12636444,-0.1373842,-0.39454848,0.18501393,0.5164709,0.15561429,-0.16418861,-0.3015912,0.20458475,-0.13897382,0.15434115,0.04143748,-0.18729486,0.0446885,0.26635394,0.18357368,0.012240356,-0.17139032,0.10190324,0.18453844,-0.06977461,0.1458475,0.01780575,-0.31008235,-0.29946536,-0.102030836,0.1787365,-0.21635924,-0.09951166,0.05475381,0.13440925,0.21850769,-0.15017115,0.03726312,-0.01902076,0.006445916,0.071594626,0.062039472,-0.17966966,0.057364903,0.70622516,-0.1350485,0.29361853,0.0771014,0.03287091,0.36312947,0.13467601,0.28428745,0.0070739374,-0.1262867,-0.10852678,0.041924126,-0.032984823,-0.0931521,0.08782827,0.116931215,-0.03343703,0.16356477,-0.09439351,0.10980203,0.025894068,0.007002498,0.0071559814,-0.25081113,0.07034287,-0.063581005,0.11035935,0.11547145,-0.17668174,0.3164149,-0.291111,-0.16193883,0.11378017,-0.26175568,0.093741395,0.07824133,0.16499034,-0.016954,-0.13983704,-0.3513923,-0.041580766,-0.1755754,-0.037535034,0.3069142,-0.17135979,-0.20807758,0.19469157,0.019116862,-0.14849345,0.15305156,-0.28032959,-0.40931025,0.31299514,0.13581143,-0.034833934,-0.07733934,0.2584328,0.05967382,-0.23301837,-0.25607437,0.072120026,-0.25763708,0.015626624,-0.2307551,0.396731,-0.3375866,-0.14815123,0.21288784,0.039917566,0.17775898,0.0774788,0.35255778,0.04023819,-0.45045176,0.12856461,0.11542433,-0.24471354,0.15719093,-0.07336193,-0.035126124,-0.021692075,0.122002505,-0.1399665,0.09798696,0.09588537,-0.18902226,0.0023219755,-0.0662838,0.18921398,-0.23828934,0.21797456,0.23697731,0.083196916,-0.31826043,-0.062399298,-0.114430554,-0.11407324,-0.084018186,-0.089474775,0.04670153,-0.07626307,0.1629658,-0.09596711,0.18547465,0.20740895,0.27425352,-0.010739805,-0.16611812,-0.1722341,0.047892682,0.03162948,0.0072524846,0.026591092,0.4053577,0.23600695,-0.1285045,-0.09775192,0.30961162,0.3374997,-0.15625156,-0.33929926,-0.05299936,0.0127907,0.1440984,-0.2272244,0.046457034,0.38112178,0.16939221,0.18671113,-0.14558476,-0.05658926,0.18183264,0.17844276,0.001547927,-0.20180018,-0.08696447,-0.03156302,0.17492834,0.09756147,-0.012380471,0.03581471,0.3036454,-0.32981145,-0.138819,0.060591485,-0.3089083,-0.1143339,-0.10127638,-0.06152196,-0.39103556,0.16280842,-0.25899062,-0.0824915,-0.059170876,-2.4237082,0.044767376,0.017930351,-0.026398236,0.3009179,0.049698584,-0.21084289,-0.08998802,-0.32832003,-0.17461872,0.31165323,-0.14173472,0.10170078,-0.09046298,0.060018178,0.04671531,-0.044898126,-0.064606614,-0.3617291,0.2472349,-0.10996794,0.008238912,-0.007389432,-0.05050304,0.20814486,-0.10279956,0.19452097,-0.09049531,0.0024486503,0.20666088,-0.08272153,0.19763745,-0.03607361,0.07658313,0.10305355,0.07250325,-0.17580266,0.08533236,0.06674936,0.23250312,0.14758264,0.39372876,-0.10577896,-0.124696106,-0.026300285,0.13112986,0.14643091,0.15979804,-0.035732795,0.08523849,-0.037844945,-0.19863506,0.002046747,-0.0387236,0.2009615,0.055398215,-0.12423603,-0.07037902,-0.28512925,-0.14464161,0.30064955,0.14408946,-0.13099717,-0.23198627,0.022335563,-0.18691923,0.17304462,0.16675033,-0.07624277,0.1351404,0.10604199,-0.42763838,-0.03169129,0.029328978,0.39611387,-0.18703882,0.14436492,0.20129268,0.35413894,-0.051267307,-0.10631585,0.1850822,-0.03612956,0.0928885,0.13852647,-0.38489825,-0.34264,-0.054796197,0.37754798,0.07075421,-0.19432999,-0.002297463,-0.007978666,-0.07949767,-0.055403065,-0.07766319,-0.25280914,0.060493886,-0.10551202,0.029624231,-0.16585456,0.26352647,-0.036681764,-0.18766968,0.12318773,0.06569881,-0.23571339,0.057224475,-0.03456116,-0.029119221,0.23521,0.0032869128,-0.15789132,0.22429754,0.15830833,-0.35345867,0.12148661,-0.041874573,0.24995854,0.16601585,-0.022387007,-0.41814908,0.45882714,-0.18759692,0.27221406,-0.2576207,0.053223446,-3.0593557e-05,0.32842758,0.24310496,0.30661187,0.3265452,0.055491786,0.28810033,0.013721468,0.14487942,0.17163393,-0.10372577,0.12513807,0.20689428,0.0742986,-0.09233082,0.23764579,0.25493702,0.14152078,-0.07931085,0.3207855,-0.045248438,0.6036556,-0.20931771,0.28779796,0.14707005,-0.08555242,-0.04131427,-0.07792994,-0.10360057,0.029558329,0.20806597,0.10172367,0.104319505,0.2534357,-0.10257762,-0.061871786,0.09652801,-0.0020244666,0.13875696,0.1145436,-0.058821037,0.021224534,-0.33101127,-0.05608559,-0.027060466,-0.21481122,0.2101471,0.03420377,-0.35898805,-0.0013358238,0.23246884,-0.33853897,0.053777095,0.17816542,-0.04432644,0.036781643,-0.101557925,0.18548033,0.18220459,-0.19079962,0.04948226,-0.26197007,0.21304208,0.24824381,-0.0291533,-0.089084186,0.02559649,0.2504506,-0.07552941,-0.11929273,-0.22737233,-0.20178516,-0.35457167,-0.36150503,-0.19048159,-0.28380746,-0.11472732,0.18029168,0.31203425,0.060231943,0.103383146,0.27647972,0.009692746,0.04703529,0.2719844,0.17345661,0.08545277,-0.09147846,0.023265088,0.4096872,0.102554366,-0.14699434,0.16089225,-0.4815183,-0.30317903,-0.071171045,0.032762997,-0.05225257,0.014457217,0.10733212,0.14811316,-0.40018907,-0.031439465,-0.11947885,0.14350528,-0.04052792,0.082971774,0.39521644,0.16329414,-0.14669408,-0.3603192,-0.061352212,-0.032191586,0.27326342,-0.0481968,0.10371861,-0.25663033,-0.2349693,0.0629928,-0.09370312,-0.43438888,-0.25103185,0.29198626,-0.048075296,0.18857783,-0.10803342,-0.06541339,0.15902412,-0.19466491,0.1259742,0.3128498,0.03550267,-0.37471876,0.019422168,0.21266687,0.1343125,-0.24154489,-0.29198125,-0.09569224,-0.40301478,-0.28495136,0.027799133,-0.085722335,-0.23875959,0.44503206,-0.2154605,0.06723468,-0.17832899,0.035692222,0.3411327,-0.23455265,0.029048944,-0.02821239,-0.16883814,-0.11042499,-0.077533066,0.10330421,-6.341698,0.14035228,0.042818516,-0.19985482,0.07889917,-0.029470302,-0.059859913,-0.17563072,-0.0099954605,0.07136768,-0.19136882,-0.26813444,-0.1635285,-0.32249928,-0.18547037,-0.11993958,0.22841674,-0.07787588,-0.16584238,-0.38838473,0.0021320928,-0.049958162,0.02147987,0.33499706,0.06400029,0.19834688,0.258835,0.08183967,0.44020584,-0.15717809,-0.3447503,0.1320341,-0.42783812,-0.110916145,0.1443194,0.272131,0.008848883,0.019163085,0.33325195,-0.27803662,0.34653443,-0.14124207,-0.3929785,-0.097883575,-0.15228489,-0.19211075,-0.35759753,0.02801688,0.21336854,-0.08239945,-0.14725462,0.024010872,0.1973969,0.22964159,-0.037647184,-0.060902912,0.07418387,0.0428884,0.1761049,-0.0365482,-0.022908688,0.0629401,-0.14996827,-0.24365376,-0.14511521,-0.00069282146,0.17095934,-0.17556077,0.020107847,0.31230903,0.2883758,0.24156082,0.15191732,0.2862454,-0.11515888,-0.28807515,-0.231775,-0.1352434,-0.113909274,0.07822787,-0.28382802,0.08377104,-0.1695543,0.24736056,0.0065363604,-0.045840733,-0.07713137,-0.2612563,-0.30077398,-0.10794262,0.17120765,0.37256494,0.19741067,-0.1979303,0.39167202,0.033958085,-0.09086174,-0.25979185,-0.0474537,0.38410708,-0.20130496,-0.002365652,-0.1456363,0.089997485,0.046560764,-0.019305965,-0.08435459,-0.14910485,-0.014502028,0.09152653,-0.15218715,0.15977721,-0.31595606,-0.13179018,0.023133487,0.17241386,-0.264742,-0.28875822,-0.045305777,-0.20642725
